SVM-light Version V6.02
0 # kernel type
3 # kernel parameter -d 
1 # kernel parameter -g 
1 # kernel parameter -s 
1 # kernel parameter -r 
empty# kernel parameter -u 
4277 # highest feature index 
10355 # number of training documents 
8839 # number of support vectors plus 1 
-0.9287752 # threshold b, each following line is a SV (starting with alpha*y)
-40.117761595540237351542600663379 135:0.18887199 3122:0.18887199 #
23.423780124416595072034397162497 1641:0.77588201 3122:0.77588201 #
40.117761595540237351542600663379 1467:0.57465303 3122:0.57465303 #
40.117761595540237351542600663379 135:0.064767003 4148:0.064767003 #
-40.117761595540237351542600663379 1641:0.27262801 3122:0.27262801 #
-40.117761595540237351542600663379 120:0.039259002 4148:0.039259002 #
40.117761595540237351542600663379 1777:0.73172802 3122:0.73172802 4266:0.73172802 #
11.694232340648834878038542228751 382:0.73015702 3122:0.73015702 #
40.117761595540237351542600663379 135:0.21841 3122:0.21841 #
-40.117761595540237351542600663379 1199:0.144366 2561:0.144366 #
-40.117761595540237351542600663379 1777:0.114117 3282:0.114117 4266:0.114117 #
-8.4582421645886149974558065878227 149:0.52959502 2414:0.52959502 #
-38.418989701006772463642846560106 1785:0.65159899 2253:0.65159899 4263:0.65159899 #
-40.117761595540237351542600663379 362:0.028186001 3122:0.028186001 #
21.309257405045833877466066041961 1528:0.024785999 3215:0.024785999 #
40.117761595540237351542600663379 467:0.040600002 2561:0.040600002 #
-40.117761595540237351542600663379 921:0.014381 3095:0.014381 #
-40.117761595540237351542600663379 198:0.15247101 2140:0.15247101 #
-40.117761595540237351542600663379 800:0.81636101 3282:0.81636101 4266:0.81636101 #
-40.117761595540237351542600663379 277:0.102409 3850:0.102409 4261:0.102409 #
14.190128960532039315012298175134 684:0.89270997 3122:0.89270997 4266:0.89270997 #
40.117761595540237351542600663379 139:0.370592 3282:0.370592 4272:0.370592 #
23.760643899520651700640883063897 522:0.70529097 3122:0.70529097 #
-2.9487556457274637367049763270188 1657:0.44056201 3282:0.44056201 4272:0.44056201 #
-1.9894258864270915054817123746034 1807:0.90051198 3282:0.90051198 4272:0.90051198 #
-40.117761595540237351542600663379 139:0.84107703 3850:0.84107703 4271:0.84107703 #
40.117761595540237351542600663379 1432:0.010593 2140:0.010593 4274:0.010593 #
28.251545996630010648686948115937 800:0.36807999 2184:0.36807999 4266:0.36807999 #
2.6049167701893223281217615294736 116:0.062081002 2538:0.062081002 #
40.117761595540237351542600663379 1158:0.095399 4148:0.095399 #
-40.117761595540237351542600663379 522:0.224213 3122:0.224213 #
18.700466032251796377749997191131 495:0.126303 3850:0.126303 4271:0.126303 #
12.754885187143742086846032179892 1486:0.92159998 3850:0.92159998 4264:0.92159998 #
40.117761595540237351542600663379 1129:0.0096140001 3409:0.0096140001 4259:0.0096140001 #
-40.117761595540237351542600663379 1295:0.207738 3155:0.207738 #
3.3253184596269731443385353486519 1856:0.054754 3240:0.054754 #
-40.117761595540237351542600663379 1550:0.29603001 2943:0.29603001 4260:0.29603001 4271:0.29603001 #
-33.456243157853414516011980595067 255:0.48781899 2184:0.48781899 4262:0.48781899 #
-40.117761595540237351542600663379 1427:1.172208 3850:1.172208 4268:1.172208 #
40.117761595540237351542600663379 1483:0.0027729999 1953:0.0027729999 #
40.117761595540237351542600663379 1807:0.249064 3282:0.249064 4272:0.249064 #
14.885358028153129694715062214527 139:0.62009197 3850:0.62009197 4271:0.62009197 #
6.9767026434954892977202689507976 1550:0.566571 3850:0.566571 4260:0.566571 4271:0.566571 #
40.117761595540237351542600663379 1359:0.037928998 2184:0.037928998 #
40.117761595540237351542600663379 1090:0.12537199 3122:0.12537199 4272:0.12537199 #
1.9409189261267634218910416166182 541:0.052165002 3050:0.052165002 #
-30.044099478144516979227773845196 1281:1.11678 3850:1.11678 4260:1.11678 #
-29.030122609496608276913320878521 221:0.95382899 3122:0.95382899 #
40.117761595540237351542600663379 1539:0.055776 3850:0.055776 4261:0.055776 #
40.117761595540237351542600663379 1256:0.44474301 3850:0.44474301 4268:0.44474301 #
-40.117761595540237351542600663379 655:0.93384701 3850:0.93384701 4268:0.93384701 #
40.117761595540237351542600663379 221:0.68980998 3282:0.68980998 #
14.668820126772743606125004589558 1425:0.045423001 3069:0.045423001 #
21.091152747481533680229404126294 1707:0.157213 2227:0.157213 #
16.479731016914396235506501398049 494:0.013621 3381:0.013621 #
40.117761595540237351542600663379 1175:0.056361999 2959:0.056361999 4269:0.056361999 #
40.117761595540237351542600663379 1174:0.03131 4237:0.03131 #
40.117761595540237351542600663379 1660:0.087920003 2140:0.087920003 #
-17.747741824119970033279969356954 472:1.076876 3850:1.076876 4261:1.076876 #
40.117761595540237351542600663379 1485:0.57955998 3122:0.57955998 #
40.117761595540237351542600663379 891:0.51362997 3850:0.51362997 4265:0.51362997 #
40.117761595540237351542600663379 1887:0.47452199 3122:0.47452199 #
5.2141334296269352677200004109181 769:0.45075601 3122:0.45075601 #
-40.117761595540237351542600663379 1502:0.122203 3709:0.122203 #
15.262329878097283142324158689007 891:0.751876 3850:0.751876 4265:0.751876 #
-40.117761595540237351542600663379 1038:1.0514669 3850:1.0514669 4265:1.0514669 #
-40.117761595540237351542600663379 1162:0.69062901 3850:0.69062901 4268:0.69062901 #
40.117761595540237351542600663379 472:0.43860701 2140:0.43860701 #
-40.117761595540237351542600663379 902:0.040755 3631:0.040755 #
40.117761595540237351542600663379 1158:0.50748098 3282:0.50748098 4264:0.50748098 #
-40.117761595540237351542600663379 25:0.00734 2978:0.00734 #
-40.117761595540237351542600663379 1507:0.25556499 3282:0.25556499 4276:0.25556499 #
-40.117761595540237351542600663379 1583:0.062647998 3893:0.062647998 #
-40.117761595540237351542600663379 1013:0.152284 3850:0.152284 #
-40.117761595540237351542600663379 411:0.0052999998 2140:0.0052999998 #
40.117761595540237351542600663379 1164:0.106634 2988:0.106634 #
-40.117761595540237351542600663379 134:0.75816202 2140:0.75816202 #
40.117761595540237351542600663379 1241:0.002171 3282:0.002171 #
40.117761595540237351542600663379 1425:0.016472001 2140:0.016472001 #
-4.7425249139624767735767818521708 1883:0.62067401 2140:0.62067401 #
36.572995697977709994574979646131 1038:0.93329901 2140:0.93329901 #
40.117761595540237351542600663379 543:0.44906199 3122:0.44906199 #
40.117761595540237351542600663379 111:0.44048199 3122:0.44048199 #
19.261704215728812528141133952886 358:0.42786399 3122:0.42786399 #
-21.437613132922002989744214573875 1680:0.65535903 2184:0.65535903 4270:0.65535903 #
-40.117761595540237351542600663379 1256:0.21836901 2288:0.21836901 #
-40.117761595540237351542600663379 134:0.190917 3850:0.190917 4270:0.190917 #
-40.117761595540237351542600663379 684:0.13077199 3122:0.13077199 4266:0.13077199 #
-40.117761595540237351542600663379 534:0.042470999 2755:0.042470999 #
15.008850587018597977362333040219 1878:0.73024797 3850:0.73024797 4265:0.73024797 #
40.117761595540237351542600663379 1529:0.013475 2600:0.013475 4259:0.013475 #
-40.117761595540237351542600663379 479:0.0029460001 2735:0.0029460001 #
39.50300831609774121488953824155 872:0.070726998 2775:0.070726998 #
-40.117761595540237351542600663379 1703:0.408234 2140:0.408234 #
40.117761595540237351542600663379 1654:0.316107 2959:0.316107 4263:0.316107 4274:0.316107 #
40.117761595540237351542600663379 487:0.15266 2959:0.15266 4265:0.15266 #
40.117761595540237351542600663379 1761:0.37638101 3122:0.37638101 #
-32.113364040422375467187521280721 1470:1.282977 2600:1.282977 4262:1.282977 #
40.117761595540237351542600663379 800:0.63464701 3282:0.63464701 4266:0.63464701 #
40.117761595540237351542600663379 1455:0.35413 3122:0.35413 4266:0.35413 #
-40.117761595540237351542600663379 1425:0.065476999 2959:0.065476999 4277:0.065476999 #
7.2389205560696332497627736302093 1483:0.021314999 4130:0.021314999 #
-17.782149584016966770150247612037 1157:0.96058899 2140:0.96058899 #
-15.457908249169989289839577395469 1761:0.67534697 3122:0.67534697 #
-40.117761595540237351542600663379 624:0.58032501 2140:0.58032501 4258:0.58032501 #
40.117761595540237351542600663379 1263:0.42694601 2943:0.42694601 4258:0.42694601 #
-31.348492603476266538109484827146 1339:0.67342103 3810:0.67342103 #
-23.855467077478934356804529670626 891:0.75537997 1914:0.75537997 #
-40.117761595540237351542600663379 884:0.135004 2133:0.135004 #
-40.117761595540237351542600663379 675:0.837363 2140:0.837363 #
40.117761595540237351542600663379 1162:0.419357 3810:0.419357 #
-40.117761595540237351542600663379 1455:0.088334002 3700:0.088334002 #
-40.117761595540237351542600663379 593:0.52197498 2140:0.52197498 4258:0.52197498 #
-40.117761595540237351542600663379 1425:0.56286597 2943:0.56286597 4270:0.56286597 4277:0.56286597 #
40.117761595540237351542600663379 624:0.72822797 2140:0.72822797 4258:0.72822797 #
-40.117761595540237351542600663379 1213:0.0092179999 3282:0.0092179999 4266:0.0092179999 #
33.500955063409733725166006479412 1202:0.82776499 3850:0.82776499 4264:0.82776499 #
-15.612146965929126096739310014527 543:0.86379898 3122:0.86379898 #
40.117761595540237351542600663379 461:0.116545 3602:0.116545 #
40.117761595540237351542600663379 1108:0.169617 2184:0.169617 #
-40.117761595540237351542600663379 387:0.68996799 2140:0.68996799 #
-20.132038963122163011121301678941 983:0.68709499 2140:0.68709499 #
-3.7278044822222611287543259095401 607:0.66711301 2140:0.66711301 #
-40.117761595540237351542600663379 423:0.59281301 2140:0.59281301 #
-4.3869827964896970229347061831504 196:0.61856699 2140:0.61856699 #
-11.160048246181613507133079110645 149:0.454927 3407:0.454927 #
19.328668478581459311271828482859 96:0.86595398 3850:0.86595398 4268:0.86595398 #
-31.86174424501054858183124451898 460:0.243815 3850:0.243815 4275:0.243815 #
14.326653290500411586094742233399 1560:0.389608 3850:0.389608 4263:0.389608 #
-40.117761595540237351542600663379 424:0.41137201 3850:0.41137201 4270:0.41137201 #
-18.996173497779139438534912187606 1263:1.024137 3850:1.024137 4258:1.024137 #
-40.117761595540237351542600663379 1387:0.77413797 2775:0.77413797 #
-40.117761595540237351542600663379 1263:0.184616 2988:0.184616 #
40.117761595540237351542600663379 1860:0.57320303 3437:0.57320303 #
-40.117761595540237351542600663379 211:0.337926 3850:0.337926 4263:0.337926 #
40.117761595540237351542600663379 1867:0.050457999 3122:0.050457999 4264:0.050457999 #
-40.117761595540237351542600663379 1248:0.66178101 3850:0.66178101 4275:0.66178101 #
-14.149607485786624749835027614608 1295:0.517335 3850:0.517335 4275:0.517335 #
40.117761595540237351542600663379 1470:0.85465503 2184:0.85465503 4262:0.85465503 #
37.692312019105237652638606959954 134:1.350764 2988:1.350764 #
-14.603322204195862354936252813786 428:0.37803099 2943:0.37803099 #
-40.117761595540237351542600663379 28:0.353515 3229:0.353515 4260:0.353515 #
23.449060184036152776343442383222 994:0.57344002 1914:0.57344002 #
40.117761595540237351542600663379 1453:0.015711 2557:0.015711 #
40.117761595540237351542600663379 1281:0.79211402 3850:0.79211402 4260:0.79211402 #
-25.364888492215243331884266808629 648:0.26871601 3122:0.26871601 4270:0.26871601 #
-40.117761595540237351542600663379 538:0.078750998 2510:0.078750998 #
40.117761595540237351542600663379 1442:0.305134 3282:0.305134 4272:0.305134 #
-40.117761595540237351542600663379 1550:0.178418 3149:0.178418 #
-40.117761595540237351542600663379 1649:0.20174 2943:0.20174 4277:0.20174 #
-40.117761595540237351542600663379 1550:0.156739 4227:0.156739 #
40.117761595540237351542600663379 784:0.062082998 2253:0.062082998 4268:0.062082998 #
-40.117761595540237351542600663379 123:0.066339001 3850:0.066339001 #
40.117761595540237351542600663379 1709:0.021500001 2959:0.021500001 4277:0.021500001 #
-40.117761595540237351542600663379 1298:0.72812498 3709:0.72812498 #
-40.117761595540237351542600663379 1550:0.29099599 3961:0.29099599 4271:0.29099599 #
-40.117761595540237351542600663379 1298:0.13460299 2140:0.13460299 4258:0.13460299 #
-40.117761595540237351542600663379 1162:0.381679 3850:0.381679 4268:0.381679 #
-40.117761595540237351542600663379 151:0.33059099 2140:0.33059099 4258:0.33059099 #
-40.117761595540237351542600663379 854:0.19928899 1909:0.19928899 #
40.117761595540237351542600663379 1472:0.29501501 1914:0.29501501 #
-40.117761595540237351542600663379 1777:0.19991399 3282:0.19991399 4266:0.19991399 #
-40.117761595540237351542600663379 1162:0.15485901 2140:0.15485901 #
-40.117761595540237351542600663379 1162:0.124293 3914:0.124293 #
-40.117761595540237351542600663379 1485:0.370996 4023:0.370996 #
-40.117761595540237351542600663379 1425:0.069876 4076:0.069876 #
-40.117761595540237351542600663379 1164:0.324417 3850:0.324417 4261:0.324417 4265:0.324417 #
27.094547501279738099810856510885 989:0.92129099 3282:0.92129099 4262:0.92129099 #
40.117761595540237351542600663379 1044:0.59435499 3282:0.59435499 4264:0.59435499 #
-40.117761595540237351542600663379 1467:0.054405 3122:0.054405 #
40.117761595540237351542600663379 621:0.59332502 3850:0.59332502 4260:0.59332502 #
0.18170730028454137872095941474981 1387:1.156794 3598:1.156794 #
-40.117761595540237351542600663379 1387:0.979352 3850:0.979352 4275:0.979352 #
-40.117761595540237351542600663379 317:0.309046 3850:0.309046 4263:0.309046 #
12.200258016216766421280226495583 1425:0.29142901 2959:0.29142901 4277:0.29142901 #
12.718885401338740237520141818095 1794:0.344491 2943:0.344491 #
-40.117761595540237351542600663379 495:0.088081002 2140:0.088081002 #
3.3918299312327140349054843682097 841:0.96964097 3850:0.96964097 #
31.647212443858180108691158238798 151:0.25650799 2140:0.25650799 4258:0.25650799 #
2.5601395094032604049516521627083 736:0.930242 3850:0.930242 #
-40.117761595540237351542600663379 855:0.25455001 1959:0.25455001 #
-40.117761595540237351542600663379 1486:0.19604699 2184:0.19604699 4264:0.19604699 #
33.982326576977129661827348172665 1495:0.197147 3850:0.197147 4268:0.197147 #
40.117761595540237351542600663379 1425:0.67393798 3850:0.67393798 4270:0.67393798 4277:0.67393798 #
-40.117761595540237351542600663379 461:0.51300699 2140:0.51300699 #
-5.0978765745507601536701258737594 884:0.32964799 2943:0.32964799 4275:0.32964799 #
40.117761595540237351542600663379 1163:0.206109 4076:0.206109 #
-40.117761595540237351542600663379 1878:0.141743 4062:0.141743 #
-40.117761595540237351542600663379 96:0.19982 2850:0.19982 #
40.117761595540237351542600663379 550:0.010699 2574:0.010699 #
40.117761595540237351542600663379 387:0.14987101 2140:0.14987101 #
-40.117761595540237351542600663379 1016:0.33161899 2140:0.33161899 #
-25.99200065842117268744004832115 484:0.479568 2140:0.479568 #
-40.117761595540237351542600663379 1488:0.041475002 3705:0.041475002 #
40.117761595540237351542600663379 750:0.015234 2714:0.015234 #
-40.117761595540237351542600663379 149:0.132038 2988:0.132038 4268:0.132038 #
-40.117761595540237351542600663379 1189:0.47788301 2140:0.47788301 #
-8.6302389030706976313922496046871 937:0.44989601 2140:0.44989601 #
40.117761595540237351542600663379 1016:0.066405997 2140:0.066405997 #
-40.117761595540237351542600663379 891:0.228205 2664:0.228205 #
-40.117761595540237351542600663379 1162:0.20207299 3850:0.20207299 4268:0.20207299 #
-40.117761595540237351542600663379 1162:0.146415 2943:0.146415 4268:0.146415 #
-40.117761595540237351542600663379 149:0.208249 2775:0.208249 #
40.117761595540237351542600663379 247:0.027790001 2426:0.027790001 4277:0.027790001 #
-40.117761595540237351542600663379 1654:0.58243299 2140:0.58243299 4274:0.58243299 #
18.377306517694528054107649950311 470:0.46909001 3850:0.46909001 4277:0.46909001 #
40.117761595540237351542600663379 1184:0.028175 2600:0.028175 4274:0.028175 #
-40.117761595540237351542600663379 1116:0.50586998 3850:0.50586998 4275:0.50586998 #
26.508911690804346505956345936283 76:0.181391 2174:0.181391 #
-40.117761595540237351542600663379 1786:0.113814 3282:0.113814 #
-9.6298195326407363126008931430988 1482:0.325367 3666:0.325367 #
3.3132796104976698359223519219086 207:0.38439199 3850:0.38439199 4271:0.38439199 #
40.117761595540237351542600663379 1436:0.40556499 2943:0.40556499 #
4.4390394326330824270598895964213 663:0.38999099 2943:0.38999099 #
-40.117761595540237351542600663379 1298:0.116068 3257:0.116068 #
-40.117761595540237351542600663379 1274:0.446219 2140:0.446219 #
-23.687639741874136234400793910027 1796:0.412135 2140:0.412135 #
40.117761595540237351542600663379 1009:0.0064650001 3155:0.0064650001 #
40.117761595540237351542600663379 108:0.0078609996 3914:0.0078609996 #
-40.117761595540237351542600663379 891:0.133186 2959:0.133186 4265:0.133186 #
-26.998351234409216914400531095453 1860:0.483354 2132:0.483354 #
-40.117761595540237351542600663379 619:0.135332 2176:0.135332 4269:0.135332 #
-38.385450157368978807426174171269 1467:0.44870201 3122:0.44870201 #
40.117761595540237351542600663379 108:0.102418 2140:0.102418 #
-35.663101454225085262805805541575 1118:0.28595099 2184:0.28595099 4262:0.28595099 #
-40.117761595540237351542600663379 139:0.098020002 2062:0.098020002 #
-40.117761595540237351542600663379 989:0.47780001 1976:0.47780001 #
40.117761595540237351542600663379 1404:0.043715 2600:0.043715 #
-40.117761595540237351542600663379 194:0.28717899 3850:0.28717899 4275:0.28717899 #
-40.117761595540237351542600663379 149:0.118498 4192:0.118498 #
-40.117761595540237351542600663379 202:0.24523599 2988:0.24523599 #
-40.117761595540237351542600663379 1654:0.21835101 3409:0.21835101 4261:0.21835101 4263:0.21835101 4274:0.21835101 #
-40.117761595540237351542600663379 1557:0.010056 3437:0.010056 #
-15.56357031339415364357137150364 1132:0.551651 3122:0.551651 #
40.117761595540237351542600663379 533:0.0044300002 4134:0.0044300002 #
-40.117761595540237351542600663379 1141:0.047024999 2229:0.047024999 #
-40.117761595540237351542600663379 745:0.088473 2724:0.088473 #
-40.117761595540237351542600663379 769:0.054318 2184:0.054318 #
40.117761595540237351542600663379 621:0.17941301 3850:0.17941301 4260:0.17941301 #
-40.117761595540237351542600663379 891:0.120191 2943:0.120191 4265:0.120191 #
-40.117761595540237351542600663379 593:0.130339 2140:0.130339 4258:0.130339 #
40.117761595540237351542600663379 421:0.01605 2978:0.01605 #
-40.117761595540237351542600663379 1425:0.195998 1951:0.195998 #
-40.117761595540237351542600663379 824:0.027852001 3437:0.027852001 #
-40.117761595540237351542600663379 1553:0.0021939999 3437:0.0021939999 #
-40.117761595540237351542600663379 13:0.030703999 2665:0.030703999 #
-27.212408105574215966271367506124 648:0.33056399 4148:0.33056399 #
-40.117761595540237351542600663379 1339:0.922171 3850:0.922171 4265:0.922171 #
40.117761595540237351542600663379 1016:0.320016 3850:0.320016 4269:0.320016 #
26.418842610358140632342838216573 1162:0.630885 3850:0.630885 4268:0.630885 #
40.117761595540237351542600663379 1298:0.124665 3709:0.124665 #
-40.117761595540237351542600663379 1485:0.49518099 3850:0.49518099 4268:0.49518099 #
40.117761595540237351542600663379 942:0.067772001 2140:0.067772001 #
19.93003658128582245012694329489 521:0.51657099 2140:0.51657099 #
25.170935673162080803422213648446 1704:0.711236 4023:0.711236 #
8.3317284531723263540925472625531 1495:0.46912599 1959:0.46912599 #
-40.117761595540237351542600663379 130:0.54105097 2775:0.54105097 4263:0.54105097 #
-13.657394960881836354360530094709 1592:0.90502399 2959:0.90502399 4260:0.90502399 #
40.117761595540237351542600663379 1815:0.59246403 3850:0.59246403 #
-40.117761595540237351542600663379 1388:0.110225 2943:0.110225 #
-1.4246718170495995536839473061264 1126:0.486067 3122:0.486067 #
40.117761595540237351542600663379 432:0.64476699 3961:0.64476699 #
40.117761595540237351542600663379 255:0.45065099 2184:0.45065099 4262:0.45065099 #
-40.117761595540237351542600663379 1771:0.655568 2943:0.655568 4260:0.655568 #
-29.590562673200839327591893379577 111:0.47386399 3122:0.47386399 #
40.117761595540237351542600663379 1248:0.810839 3850:0.810839 4275:0.810839 #
-40.117761595540237351542600663379 198:0.39709899 2943:0.39709899 4275:0.39709899 #
-40.117761595540237351542600663379 981:0.19953801 3850:0.19953801 4275:0.19953801 #
13.219801284044477185375399130862 1339:0.53952301 2850:0.53952301 #
40.117761595540237351542600663379 621:0.525047 1912:0.525047 #
-3.5312486681557988532631497946568 922:0.57763398 3850:0.57763398 4269:0.57763398 #
40.117761595540237351542600663379 198:0.31962001 2176:0.31962001 #
40.117761595540237351542600663379 472:0.49910501 3850:0.49910501 4261:0.49910501 #
40.117761595540237351542600663379 1108:0.003399 2204:0.003399 #
40.117761595540237351542600663379 487:0.27254799 2959:0.27254799 4265:0.27254799 #
-22.031889693933017326799017610028 655:0.34606001 2409:0.34606001 #
-20.811611023427712297007019515149 1455:0.190191 3282:0.190191 4266:0.190191 #
-40.117761595540237351542600663379 1016:0.61115199 3850:0.61115199 4269:0.61115199 #
-40.117761595540237351542600663379 1654:0.38202101 3850:0.38202101 4261:0.38202101 4263:0.38202101 4274:0.38202101 #
-32.983150069544464599857747089118 1899:0.108402 2699:0.108402 #
-40.117761595540237351542600663379 432:0.029960001 2697:0.029960001 #
-8.1776780119436782712227795855142 1540:0.69206399 4026:0.69206399 4271:0.69206399 #
11.680525550928614109125192044303 1679:0.822312 3850:0.822312 4274:0.822312 #
40.117761595540237351542600663379 1432:0.0099579999 3427:0.0099579999 #
30.348915940667769319816216011532 424:0.406106 2140:0.406106 #
13.926382940727933146263239905238 1771:0.632218 3850:0.632218 4260:0.632218 #
40.117761595540237351542600663379 130:0.34095299 4227:0.34095299 #
40.117761595540237351542600663379 550:0.011884 3229:0.011884 4260:0.011884 #
-15.053114761016583855735007091425 113:0.31361499 2140:0.31361499 #
-40.117761595540237351542600663379 1202:0.43092901 3282:0.43092901 4264:0.43092901 #
40.117761595540237351542600663379 1387:1.095358 3850:1.095358 4275:1.095358 #
40.117761595540237351542600663379 1550:0.0063169999 2450:0.0063169999 #
40.117761595540237351542600663379 944:0.42703399 3282:0.42703399 4266:0.42703399 #
40.117761595540237351542600663379 281:0.48770201 3282:0.48770201 4264:0.48770201 #
14.453916081808451110646274173632 1837:0.52886701 1976:0.52886701 #
0.97391221137530381568581105966587 511:1.31273 3850:1.31273 4275:1.31273 #
25.079660827104682141452940413728 790:0.39379001 3850:0.39379001 4268:0.39379001 #
40.117761595540237351542600663379 1654:0.010388 3409:0.010388 4261:0.010388 4263:0.010388 4274:0.010388 #
2.1505903023158907672041095793247 461:0.30624101 3850:0.30624101 4259:0.30624101 4265:0.30624101 #
-40.117761595540237351542600663379 624:0.40964201 2140:0.40964201 4258:0.40964201 #
-40.117761595540237351542600663379 1339:0.40305501 3850:0.40305501 4265:0.40305501 #
40.117761595540237351542600663379 1703:0.34134501 2140:0.34134501 #
40.117761595540237351542600663379 1796:0.296096 2140:0.296096 #
40.117761595540237351542600663379 526:0.017580001 2600:0.017580001 #
-40.117761595540237351542600663379 994:0.231892 3850:0.231892 #
-21.171162623778748468339472310618 931:0.81021202 3850:0.81021202 #
25.942203498838516395608166931197 1295:0.214324 2697:0.214324 #
40.117761595540237351542600663379 1274:0.20869701 3122:0.20869701 #
10.640428726641163237331966229249 1118:0.21562301 2379:0.21562301 #
40.117761595540237351542600663379 1845:0.066411003 3325:0.066411003 #
-6.8039409848963057214632499380969 1589:0.71523499 3850:0.71523499 4271:0.71523499 #
19.160076830028266670069569954649 1502:0.200799 2140:0.200799 4258:0.200799 #
-14.064480931325824997202289523557 621:1.054019 3850:1.054019 4260:1.054019 #
40.117761595540237351542600663379 130:0.13431901 2865:0.13431901 #
-0.30735057458202208469089100617566 295:0.91419798 2133:0.91419798 #
30.851134886088583897389980847947 1700:0.52538699 3850:0.52538699 4275:0.52538699 #
-40.117761595540237351542600663379 470:0.18086199 3850:0.18086199 4277:0.18086199 #
-40.117761595540237351542600663379 1147:0.013549 3850:0.013549 #
-3.2690982957764518346266413573176 1675:0.69142699 3850:0.69142699 4271:0.69142699 #
6.6709567720072655561125429812819 1483:0.044849001 2140:0.044849001 #
-40.117761595540237351542600663379 790:0.196105 3850:0.196105 4268:0.196105 #
13.359485699621579612994537455961 1016:0.79239798 3822:0.79239798 #
40.117761595540237351542600663379 1162:0.00072100002 2203:0.00072100002 #
7.708691987295810399416495783953 1574:0.74042201 3282:0.74042201 #
40.117761595540237351542600663379 198:0.04002 2140:0.04002 #
-3.3593839645126539750208394252695 1681:0.63531297 3850:0.63531297 4271:0.63531297 #
-40.117761595540237351542600663379 1550:0.61098599 3850:0.61098599 4260:0.61098599 4271:0.61098599 #
10.349130589237059751894776127301 257:0.54594302 3282:0.54594302 4262:0.54594302 #
-40.117761595540237351542600663379 1427:0.11779 3850:0.11779 4268:0.11779 #
25.381189551062085740795737365261 30:0.34474799 3122:0.34474799 4262:0.34474799 #
-40.117761595540237351542600663379 1722:0.001772 2988:0.001772 #
-40.117761595540237351542600663379 398:0.142957 3850:0.142957 #
4.228104808473839959503948193742 621:0.525047 3915:0.525047 #
40.117761595540237351542600663379 755:0.65285301 3850:0.65285301 4260:0.65285301 #
-12.040663111296977305642030842137 531:1.068812 3850:1.068812 #
-40.117761595540237351542600663379 894:0.023917999 2467:0.023917999 #
-40.117761595540237351542600663379 139:0.16739 3850:0.16739 4271:0.16739 #
17.361908342186403331197652732953 1427:0.64022303 3850:0.64022303 4268:0.64022303 #
-9.1400659527462728703994798706844 66:0.86843902 3850:0.86843902 4265:0.86843902 #
-40.117761595540237351542600663379 1175:0.140273 3850:0.140273 4269:0.140273 #
14.572621055079041596513889089692 1822:0.811988 3282:0.811988 #
35.044606155109384815204975893721 1461:0.306667 3282:0.306667 4272:0.306667 #
40.117761595540237351542600663379 461:0.30169299 2140:0.30169299 #
7.9000285440158597438653487188276 1442:0.168851 2928:0.168851 #
40.117761595540237351542600663379 1867:0.294359 3850:0.294359 4264:0.294359 #
-40.117761595540237351542600663379 590:0.067403004 2184:0.067403004 4264:0.067403004 #
17.688128296850695875264136702754 204:0.66588098 3282:0.66588098 #
23.323791852848014372057150467299 385:0.62716699 3282:0.62716699 #
40.117761595540237351542600663379 380:0.267032 3282:0.267032 4264:0.267032 #
-40.117761595540237351542600663379 134:0.190917 2988:0.190917 #
40.117761595540237351542600663379 1189:0.52745003 3850:0.52745003 4268:0.52745003 #
40.117761595540237351542600663379 1707:0.160366 3282:0.160366 4264:0.160366 4272:0.160366 #
-40.117761595540237351542600663379 1298:0.43705499 3850:0.43705499 4258:0.43705499 4271:0.43705499 #
-7.288899785293397215468758076895 824:0.074000999 2013:0.074000999 #
-40.117761595540237351542600663379 1736:0.30680701 3850:0.30680701 4269:0.30680701 4277:0.30680701 #
-40.117761595540237351542600663379 1730:0.149492 3850:0.149492 4261:0.149492 #
-40.117761595540237351542600663379 1700:0.207259 3850:0.207259 4275:0.207259 #
-36.787334554389325091960927238688 1722:0.99944901 3850:0.99944901 4265:0.99944901 #
40.117761595540237351542600663379 545:0.0020059999 2600:0.0020059999 #
-40.117761595540237351542600663379 49:0.149996 2140:0.149996 #
40.117761595540237351542600663379 1425:0.017484 2959:0.017484 4277:0.017484 #
-6.8091996322660639506807456200477 847:0.56881797 3063:0.56881797 #
-34.420689188992128038080409169197 755:0.84854001 3850:0.84854001 4260:0.84854001 #
-40.117761595540237351542600663379 1815:0.296094 2697:0.296094 4273:0.296094 #
-40.117761595540237351542600663379 781:0.016759999 2076:0.016759999 #
40.117761595540237351542600663379 1743:0.048749 2959:0.048749 #
20.803732454634992876663091010414 981:0.70035499 3850:0.70035499 4275:0.70035499 #
-40.117761595540237351542600663379 66:0.0043119998 2456:0.0043119998 #
-40.117761595540237351542600663379 1032:0.084193997 3850:0.084193997 #
40.117761595540237351542600663379 227:0.019476 3613:0.019476 #
-40.117761595540237351542600663379 1654:0.0046839998 2140:0.0046839998 4274:0.0046839998 #
-40.117761595540237351542600663379 784:0.40195099 2959:0.40195099 4268:0.40195099 #
-40.117761595540237351542600663379 1495:0.293899 2943:0.293899 4268:0.293899 #
-40.117761595540237351542600663379 997:0.070655003 2253:0.070655003 #
40.117761595540237351542600663379 1722:0.70152301 3850:0.70152301 4265:0.70152301 #
40.117761595540237351542600663379 1592:0.27120101 2140:0.27120101 #
40.117761595540237351542600663379 1837:0.0085110003 3557:0.0085110003 #
40.117761595540237351542600663379 1592:0.112181 2943:0.112181 4260:0.112181 #
-28.624570939994601559419606928714 621:0.839221 1912:0.839221 #
-40.117761595540237351542600663379 424:0.366451 2140:0.366451 #
40.117761595540237351542600663379 621:0.55066103 3850:0.55066103 4260:0.55066103 #
40.117761595540237351542600663379 1184:0.022306999 2600:0.022306999 4274:0.022306999 #
-40.117761595540237351542600663379 1583:0.39180401 3229:0.39180401 #
40.117761595540237351542600663379 1565:0.085845001 2253:0.085845001 #
-40.117761595540237351542600663379 621:0.29238099 3850:0.29238099 4260:0.29238099 #
2.9336057579143890450268372660503 420:0.35731 2600:0.35731 4274:0.35731 #
-40.117761595540237351542600663379 380:0.17871299 3282:0.17871299 4264:0.17871299 #
-40.117761595540237351542600663379 486:0.12960701 3850:0.12960701 #
22.92735560940852934663780615665 417:0.189528 3709:0.189528 #
30.192779509529508175091905286536 765:0.50286502 3282:0.50286502 #
-40.117761595540237351542600663379 1427:0.17191599 3850:0.17191599 4268:0.17191599 #
36.868898909906249627965735271573 713:0.44503799 3282:0.44503799 #
40.117761595540237351542600663379 341:0.20931099 1959:0.20931099 #
-40.117761595540237351542600663379 1436:0.24783701 2775:0.24783701 #
40.117761595540237351542600663379 1263:0.287696 2467:0.287696 #
18.408164863520056542256497777998 1472:0.39045599 2855:0.39045599 #
40.117761595540237351542600663379 1162:0.014969 2600:0.014969 4268:0.014969 #
-32.225839516442086107872455613688 923:0.313775 2437:0.313775 #
40.117761595540237351542600663379 1215:0.002447 3850:0.002447 4268:0.002447 4275:0.002447 #
18.570455618367159189574522315525 317:0.201968 2763:0.201968 #
40.117761595540237351542600663379 317:0.08309 1964:0.08309 #
-40.117761595540237351542600663379 1771:0.30610999 2959:0.30610999 4260:0.30610999 #
40.117761595540237351542600663379 1722:0.38923001 2775:0.38923001 4265:0.38923001 #
7.5320011519994007898048948845826 1744:0.29522201 3850:0.29522201 4270:0.29522201 #
40.117761595540237351542600663379 931:0.42652899 3850:0.42652899 #
40.117761595540237351542600663379 1298:0.41115201 2959:0.41115201 #
40.117761595540237351542600663379 1455:0.099996999 3122:0.099996999 4266:0.099996999 #
40.117761595540237351542600663379 139:0.076885998 1976:0.076885998 #
-40.117761595540237351542600663379 855:0.43033901 3850:0.43033901 4258:0.43033901 4265:0.43033901 #
-40.117761595540237351542600663379 1263:0.60449702 3850:0.60449702 4258:0.60449702 #
-40.117761595540237351542600663379 1427:0.72866797 3850:0.72866797 4268:0.72866797 #
40.117761595540237351542600663379 1654:0.098394997 2140:0.098394997 4274:0.098394997 #
-40.117761595540237351542600663379 637:0.078578003 3122:0.078578003 #
-29.529930359575697451646192348562 1425:0.210526 4076:0.210526 #
-9.3162050231780515474611092940904 432:0.606345 2467:0.606345 #
40.117761595540237351542600663379 1118:0.19329 2184:0.19329 4262:0.19329 #
40.117761595540237351542600663379 1056:0.001733 2928:0.001733 #
34.328163331696053717223549028859 1502:0.34270099 2600:0.34270099 4258:0.34270099 #
24.807509897461759607040221453644 1696:0.30421299 2600:0.30421299 4274:0.30421299 #
-40.117761595540237351542600663379 1743:0.035874002 2319:0.035874002 #
40.117761595540237351542600663379 687:0.386769 3282:0.386769 #
28.945845895437766870372797711752 496:0.37204999 3282:0.37204999 4276:0.37204999 #
40.117761595540237351542600663379 1643:0.36650199 3282:0.36650199 #
-2.5763010966977657467680273839505 540:0.38759199 4182:0.38759199 #
-40.117761595540237351542600663379 385:0.227559 3282:0.227559 #
40.117761595540237351542600663379 1734:0.213009 3122:0.213009 4266:0.213009 #
40.117761595540237351542600663379 1559:0.0033839999 2943:0.0033839999 4268:0.0033839999 #
-25.679141876281576628571201581508 914:0.50088698 3122:0.50088698 4262:0.50088698 #
-40.117761595540237351542600663379 676:0.013283 3935:0.013283 #
-40.117761595540237351542600663379 1263:0.61716998 2943:0.61716998 4258:0.61716998 #
40.117761595540237351542600663379 1707:0.157213 3122:0.157213 4264:0.157213 4272:0.157213 #
-40.117761595540237351542600663379 1016:0.256558 3850:0.256558 4269:0.256558 #
40.117761595540237351542600663379 487:0.103861 2943:0.103861 4265:0.103861 #
-5.6426857274397255181952459679451 835:0.45811501 2943:0.45811501 4265:0.45811501 #
-32.00119724750652494549285620451 1192:0.66082102 3850:0.66082102 4268:0.66082102 #
40.117761595540237351542600663379 1432:0.017454 2849:0.017454 #
40.117761595540237351542600663379 945:0.24073701 2176:0.24073701 4273:0.24073701 #
-40.117761595540237351542600663379 1425:0.191649 3562:0.191649 #
-23.985989298298054706037873984315 1008:0.13587201 3344:0.13587201 #
-15.395664303573701303662346617784 942:0.27083501 4227:0.27083501 #
39.140651896388206409937993157655 988:0.50024903 3282:0.50024903 4262:0.50024903 #
30.376725885891264766769381822087 1771:0.44040301 2140:0.44040301 #
40.117761595540237351542600663379 1583:0.24391399 2140:0.24391399 4258:0.24391399 #
-40.117761595540237351542600663379 1461:0.167174 3282:0.167174 4272:0.167174 #
16.227131460233898962997045600787 1754:0.21304099 2943:0.21304099 4273:0.21304099 #
-40.117761595540237351542600663379 800:0.154294 2184:0.154294 4266:0.154294 #
35.729105294781760449041030369699 62:0.30445001 3282:0.30445001 #
-40.117761595540237351542600663379 1777:0.250346 3122:0.250346 4266:0.250346 #
-40.117761595540237351542600663379 974:0.060421001 3850:0.060421001 #
-40.117761595540237351542600663379 1100:0.151244 3282:0.151244 #
40.117761595540237351542600663379 472:0.066188 2564:0.066188 #
-40.117761595540237351542600663379 239:0.068627 2959:0.068627 #
-40.117761595540237351542600663379 1331:0.011612 3282:0.011612 4266:0.011612 #
-40.117761595540237351542600663379 892:0.063555002 3282:0.063555002 4272:0.063555002 #
40.117761595540237351542600663379 968:0.32669801 3282:0.32669801 #
-40.117761595540237351542600663379 204:0.154551 3282:0.154551 #
40.117761595540237351542600663379 1336:0.32594901 3282:0.32594901 #
-11.700690634482905139179820253048 1787:0.20305499 3122:0.20305499 #
-32.723948694857639907240809407085 242:0.73709297 3850:0.73709297 #
40.117761595540237351542600663379 1192:0.59779799 2140:0.59779799 #
40.117761595540237351542600663379 675:0.25483701 2140:0.25483701 #
40.117761595540237351542600663379 242:0.40258199 3850:0.40258199 #
-2.9169846468593156885162898106501 120:0.350842 3063:0.350842 #
40.117761595540237351542600663379 424:0.24663199 3850:0.24663199 4270:0.24663199 #
40.117761595540237351542600663379 624:0.420398 3850:0.420398 4258:0.420398 #
-40.117761595540237351542600663379 198:0.141436 2959:0.141436 #
40.117761595540237351542600663379 1472:0.030006999 4205:0.030006999 #
40.117761595540237351542600663379 1675:0.151737 3961:0.151737 4271:0.151737 #
2.4735163496494116941448737634346 1550:0.29173499 4172:0.29173499 #
-1.5125025745994895576274075210677 1069:0.42134199 2943:0.42134199 #
-5.8322399395345367878462639055215 963:0.29675099 2510:0.29675099 #
40.117761595540237351542600663379 227:0.016070001 3562:0.016070001 #
-40.117761595540237351542600663379 281:0.17264099 3122:0.17264099 4264:0.17264099 #
40.117761595540237351542600663379 1550:0.146676 3961:0.146676 4271:0.146676 #
-40.117761595540237351542600663379 475:0.058495 2943:0.058495 4263:0.058495 #
40.117761595540237351542600663379 387:0.330594 3709:0.330594 #
37.813201033602545919620752101764 1387:0.256033 3085:0.256033 #
-40.117761595540237351542600663379 1643:0.36875501 2386:0.36875501 #
30.049513377226155341759294969961 150:0.62056798 3850:0.62056798 4274:0.62056798 #
-40.117761595540237351542600663379 1669:0.012324 2426:0.012324 4277:0.012324 #
40.117761595540237351542600663379 1786:0.040199 3296:0.040199 #
40.117761595540237351542600663379 1274:0.300414 3850:0.300414 4260:0.300414 #
40.117761595540237351542600663379 675:0.34655201 2140:0.34655201 #
-40.117761595540237351542600663379 1016:0.229627 3822:0.229627 #
-9.9604149492969824564170266967267 313:1.186715 3850:1.186715 4260:1.186715 #
40.117761595540237351542600663379 1402:0.019185999 3305:0.019185999 #
-40.117761595540237351542600663379 790:0.24143399 3850:0.24143399 4268:0.24143399 #
-40.117761595540237351542600663379 1016:0.15512501 2135:0.15512501 #
40.117761595540237351542600663379 139:0.52178299 3850:0.52178299 4271:0.52178299 #
2.9331005164057799561305728275329 745:0.54181099 3850:0.54181099 4260:0.54181099 #
40.117761595540237351542600663379 1189:0.18640199 2943:0.18640199 4268:0.18640199 #
40.117761595540237351542600663379 1899:0.19968601 2437:0.19968601 #
40.117761595540237351542600663379 914:0.15483201 4023:0.15483201 #
39.072618802341075650019774911925 69:0.26386499 4023:0.26386499 #
-40.117761595540237351542600663379 255:0.028925 2184:0.028925 4262:0.028925 #
40.117761595540237351542600663379 319:0.28379199 3282:0.28379199 #
25.388268114891520355058673885651 1275:0.26042601 3282:0.26042601 #
23.119459187513491826848621712998 76:0.214174 2943:0.214174 4269:0.214174 4273:0.214174 #
40.117761595540237351542600663379 325:0.160458 2943:0.160458 4273:0.160458 #
-40.117761595540237351542600663379 1044:0.252615 3282:0.252615 4264:0.252615 #
40.117761595540237351542600663379 1550:0.17185 3850:0.17185 4260:0.17185 4271:0.17185 #
40.117761595540237351542600663379 711:0.344998 4076:0.344998 #
-40.117761595540237351542600663379 1016:0.170176 2959:0.170176 4269:0.170176 #
-40.117761595540237351542600663379 711:0.13041499 2467:0.13041499 #
40.117761595540237351542600663379 979:0.010056 2988:0.010056 #
-40.117761595540237351542600663379 1058:0.116456 2959:0.116456 4277:0.116456 #
5.3330903092295596223948450642638 1751:0.508255 3850:0.508255 4265:0.508255 #
40.117761595540237351542600663379 1613:0.012582 2689:0.012582 #
40.117761595540237351542600663379 317:0.201968 3850:0.201968 4263:0.201968 #
40.117761595540237351542600663379 531:0.23691 3850:0.23691 #
40.117761595540237351542600663379 927:0.155242 2229:0.155242 #
-40.117761595540237351542600663379 1425:0.160382 2288:0.160382 #
36.134835663981370146302651846781 1261:0.254774 3282:0.254774 #
-40.117761595540237351542600663379 354:0.24092101 2437:0.24092101 #
40.117761595540237351542600663379 1550:0.279457 2943:0.279457 4260:0.279457 4271:0.279457 #
40.117761595540237351542600663379 1654:0.115743 2140:0.115743 4274:0.115743 #
26.664846094648275709459994686767 202:0.56916302 3850:0.56916302 #
0.77386252734221372406864247750491 856:0.42241499 3850:0.42241499 4263:0.42241499 #
40.117761595540237351542600663379 240:0.24891999 2253:0.24891999 #
-40.117761595540237351542600663379 96:0.22276001 3850:0.22276001 4268:0.22276001 #
19.171696276570685313345165923238 1001:0.45439899 3850:0.45439899 4265:0.45439899 #
26.563038687155021477792615769431 76:0.089234002 3905:0.089234002 #
40.117761595540237351542600663379 1785:0.494789 3850:0.494789 4263:0.494789 #
-40.117761595540237351542600663379 1488:0.013265 3905:0.013265 #
40.117761595540237351542600663379 66:0.25518101 2561:0.25518101 #
40.117761595540237351542600663379 1038:0.138761 2600:0.138761 #
-40.117761595540237351542600663379 1485:0.17026199 3850:0.17026199 4268:0.17026199 #
40.117761595540237351542600663379 1427:0.19301 2775:0.19301 #
13.864542884811594802840772899799 396:0.477584 2600:0.477584 #
40.117761595540237351542600663379 1680:0.21062601 3850:0.21062601 4270:0.21062601 #
-35.544430843051500801266229245812 1643:0.387476 3282:0.387476 #
40.117761595540237351542600663379 1735:0.570849 3437:0.570849 #
40.117761595540237351542600663379 914:0.3003 2510:0.3003 #
-40.117761595540237351542600663379 949:0.036394998 2730:0.036394998 #
40.117761595540237351542600663379 1298:0.30914 3850:0.30914 4258:0.30914 4271:0.30914 #
40.117761595540237351542600663379 242:0.102223 3850:0.102223 #
-17.245892199224012841796138673089 168:0.56944901 3282:0.56944901 4262:0.56944901 #
-40.117761595540237351542600663379 1215:0.015763 3409:0.015763 4268:0.015763 #
-40.117761595540237351542600663379 624:0.070577003 2697:0.070577003 #
-31.484957787673458540211868239567 281:0.48706099 3282:0.48706099 4264:0.48706099 #
-40.117761595540237351542600663379 1044:0.203298 3282:0.203298 4264:0.203298 #
-40.117761595540237351542600663379 1899:0.108172 2879:0.108172 #
-40.117761595540237351542600663379 1427:0.036354002 2943:0.036354002 4268:0.036354002 #
40.117761595540237351542600663379 550:0.018934 3215:0.018934 #
-40.117761595540237351542600663379 1108:0.232723 2437:0.232723 #
-40.117761595540237351542600663379 1446:0.32649001 2140:0.32649001 #
40.117761595540237351542600663379 530:0.25979 3122:0.25979 #
-40.117761595540237351542600663379 1345:0.061737999 2488:0.061737999 #
-40.117761595540237351542600663379 1425:0.065008 2959:0.065008 4277:0.065008 #
-40.117761595540237351542600663379 1735:0.070142001 3437:0.070142001 #
40.117761595540237351542600663379 1126:0.107602 3122:0.107602 #
-13.554423962977315554212509596255 1824:1.375514 2510:1.375514 #
-40.117761595540237351542600663379 1654:0.187714 2140:0.187714 4274:0.187714 #
-40.117761595540237351542600663379 150:0.37973401 3850:0.37973401 4274:0.37973401 #
40.117761595540237351542600663379 593:0.088605002 3709:0.088605002 #
-40.117761595540237351542600663379 1527:0.003612 3850:0.003612 #
-21.507922031860935874192364281043 968:0.51398998 3282:0.51398998 #
40.117761595540237351542600663379 1528:0.039335001 2600:0.039335001 #
-5.6265068180569919320532790152356 1079:0.46725401 3409:0.46725401 #
31.156354229488183449348071007989 194:0.445676 2959:0.445676 #
40.117761595540237351542600663379 556:0.029153001 2959:0.029153001 #
-40.117761595540237351542600663379 621:0.71598703 3850:0.71598703 4260:0.71598703 #
-40.117761595540237351542600663379 1696:0.49705499 3850:0.49705499 4274:0.49705499 #
9.5232583950193543387285899370909 38:0.077817999 2140:0.077817999 #
12.641834761369949546860880218446 1649:0.84207201 2775:0.84207201 #
-40.117761595540237351542600663379 148:0.102089 2140:0.102089 #
40.117761595540237351542600663379 914:0.16715699 3122:0.16715699 4262:0.16715699 #
-40.117761595540237351542600663379 1851:0.233614 3961:0.233614 4276:0.233614 #
-10.7809069341036174449754980742 355:0.26958001 3961:0.26958001 #
-1.7109122609245579482717403152492 579:0.53064799 4023:0.53064799 #
18.05971337585999236807765555568 942:0.183229 2523:0.183229 #
40.117761595540237351542600663379 1132:0.27066499 3122:0.27066499 #
40.117761595540237351542600663379 421:0.011039 2600:0.011039 4259:0.011039 #
3.989759145952078700503307118197 1703:0.16216201 2957:0.16216201 #
6.9965252582499957156869641039521 1672:1.58735 3122:1.58735 #
-32.074628080330910506745567545295 97:0.30120999 3085:0.30120999 #
-40.117761595540237351542600663379 327:0.264716 3961:0.264716 #
10.200289267845779050958299194463 1181:0.450066 2184:0.450066 #
40.117761595540237351542600663379 59:0.0027050001 2732:0.0027050001 #
40.117761595540237351542600663379 371:0.028008001 2538:0.028008001 #
-27.087270478967390374691603938118 1667:0.168456 3830:0.168456 #
39.268806128787076659136801026762 387:0.106542 3914:0.106542 #
-40.117761595540237351542600663379 325:0.133542 2943:0.133542 4273:0.133542 #
40.117761595540237351542600663379 1425:0.061039999 2943:0.061039999 4270:0.061039999 4277:0.061039999 #
-40.117761595540237351542600663379 1009:0.010903 2319:0.010903 #
40.117761595540237351542600663379 854:0.197203 1914:0.197203 #
40.117761595540237351542600663379 1654:0.014396 2821:0.014396 #
40.117761595540237351542600663379 709:0.024359999 2647:0.024359999 #
-40.117761595540237351542600663379 1654:0.387887 2140:0.387887 4274:0.387887 #
-40.117761595540237351542600663379 240:0.18513 2253:0.18513 #
10.984287745883047904271734296344 37:0.40155101 2959:0.40155101 #
-40.117761595540237351542600663379 1274:0.30524299 2140:0.30524299 #
40.117761595540237351542600663379 11:0.433642 3850:0.433642 4258:0.433642 #
-4.1315573366375417663221014663577 1466:0.85514402 2697:0.85514402 #
40.117761595540237351542600663379 484:0.25591099 2140:0.25591099 #
40.117761595540237351542600663379 424:0.23333099 2140:0.23333099 #
40.117761595540237351542600663379 1157:0.26373699 2140:0.26373699 #
40.117761595540237351542600663379 1815:0.30445001 2697:0.30445001 4273:0.30445001 #
38.32708582033873057071104994975 1276:0.180059 2253:0.180059 #
40.117761595540237351542600663379 944:0.162605 3122:0.162605 4266:0.162605 #
-40.117761595540237351542600663379 1288:0.397268 2140:0.397268 #
-40.117761595540237351542600663379 1016:0.27220601 2140:0.27220601 #
40.117761595540237351542600663379 423:0.149461 2253:0.149461 #
40.117761595540237351542600663379 1427:0.104304 2253:0.104304 4268:0.104304 #
32.944310307872740395396249368787 28:0.58207601 2775:0.58207601 #
38.139326290610711112094577401876 1316:0.093199 2253:0.093199 4263:0.093199 #
-40.117761595540237351542600663379 108:0.112874 2140:0.112874 #
10.250231247155866753928421530873 194:0.237744 3850:0.237744 4275:0.237744 #
40.117761595540237351542600663379 1295:0.208673 3850:0.208673 4275:0.208673 #
-40.117761595540237351542600663379 108:0.110017 2140:0.110017 #
40.117761595540237351542600663379 983:0.203062 2140:0.203062 #
-40.117761595540237351542600663379 663:0.111557 2140:0.111557 #
40.117761595540237351542600663379 1824:0.071785003 2229:0.071785003 #
40.117761595540237351542600663379 387:0.1786 3850:0.1786 4268:0.1786 #
-40.117761595540237351542600663379 1796:0.040461998 2959:0.040461998 #
-40.117761595540237351542600663379 593:0.090467997 2140:0.090467997 4258:0.090467997 #
40.117761595540237351542600663379 954:0.327508 3122:0.327508 #
40.117761595540237351542600663379 1583:0.26610699 3257:0.26610699 #
40.117761595540237351542600663379 1427:0.50248301 3850:0.50248301 4268:0.50248301 #
18.99254596233906866586949035991 222:0.49987 3850:0.49987 4268:0.49987 #
40.117761595540237351542600663379 1654:0.005841 2140:0.005841 4274:0.005841 #
40.117761595540237351542600663379 884:0.071679004 2943:0.071679004 4275:0.071679004 #
40.117761595540237351542600663379 1675:0.106064 3850:0.106064 4271:0.106064 #
-40.117761595540237351542600663379 1436:0.093818001 2140:0.093818001 #
40.117761595540237351542600663379 221:0.0074450001 2464:0.0074450001 #
40.117761595540237351542600663379 1736:0.024615999 2175:0.024615999 #
32.625690961996731687122519360855 784:0.194153 2390:0.194153 #
11.81401509137043248642839898821 948:0.39669701 4175:0.39669701 #
-9.4423749875964197997291194042191 1532:0.076601997 3437:0.076601997 #
26.86758502790959468597975501325 1893:0.37007201 3850:0.37007201 #
-40.117761595540237351542600663379 1432:0.294938 2140:0.294938 4274:0.294938 #
40.117761595540237351542600663379 667:0.015314 3599:0.015314 #
40.117761595540237351542600663379 1157:0.22898699 2140:0.22898699 #
-40.117761595540237351542600663379 1502:0.071189001 2140:0.071189001 4258:0.071189001 #
40.117761595540237351542600663379 1387:0.22111 3122:0.22111 #
18.724945732927579911120119504631 327:0.141909 2206:0.141909 #
40.117761595540237351542600663379 1589:0.086110003 3850:0.086110003 4271:0.086110003 #
-40.117761595540237351542600663379 781:0.022902999 3439:0.022902999 #
40.117761595540237351542600663379 1016:0.189183 2959:0.189183 4269:0.189183 #
40.117761595540237351542600663379 221:0.196107 3122:0.196107 #
14.826415182865057218464244215284 1713:0.170439 3155:0.170439 #
40.117761595540237351542600663379 648:0.331496 3850:0.331496 4270:0.331496 #
40.117761595540237351542600663379 1605:0.228921 2467:0.228921 #
40.117761595540237351542600663379 1540:0.100818 4026:0.100818 4271:0.100818 #
40.117761595540237351542600663379 1453:0.023358 2140:0.023358 #
40.117761595540237351542600663379 534:0.19536901 2467:0.19536901 #
-40.117761595540237351542600663379 1162:0.038474999 3709:0.038474999 #
40.117761595540237351542600663379 1425:0.016109999 3409:0.016109999 4270:0.016109999 4277:0.016109999 #
-40.117761595540237351542600663379 1654:0.30545101 2140:0.30545101 4274:0.30545101 #
40.117761595540237351542600663379 1703:0.026082 2140:0.026082 #
40.117761595540237351542600663379 72:0.019493001 3122:0.019493001 #
-40.117761595540237351542600663379 1654:0.266413 2140:0.266413 4274:0.266413 #
40.117761595540237351542600663379 1386:0.123937 1976:0.123937 #
40.117761595540237351542600663379 313:0.14253899 2140:0.14253899 #
23.207996168944639236997318221256 211:0.135343 2775:0.135343 4263:0.135343 #
40.117761595540237351542600663379 211:0.227088 3850:0.227088 4263:0.227088 #
40.117761595540237351542600663379 914:0.286823 2184:0.286823 4262:0.286823 #
40.117761595540237351542600663379 313:0.060910001 1914:0.060910001 #
40.117761595540237351542600663379 487:0.11211 2959:0.11211 4265:0.11211 #
40.117761595540237351542600663379 1613:0.020431001 2600:0.020431001 4258:0.020431001 #
-26.415838862828046273989457404241 98:0.26268601 2140:0.26268601 #
-39.363388216779178208071243716404 725:0.21220601 2140:0.21220601 #
40.117761595540237351542600663379 1014:0.091395997 1914:0.091395997 #
-40.117761595540237351542600663379 1425:0.136223 2140:0.136223 #
40.117761595540237351542600663379 1483:0.002536 2175:0.002536 #
40.117761595540237351542600663379 1680:0.099738002 2184:0.099738002 4270:0.099738002 #
20.174937568521926323228399269283 130:0.13431901 2021:0.13431901 #
-40.117761595540237351542600663379 1425:0.11391 2140:0.11391 #
21.548763376679975323213511728682 1654:0.034797002 3504:0.034797002 #
-40.117761595540237351542600663379 1425:0.133393 2140:0.133393 #
-40.117761595540237351542600663379 1660:0.123806 2140:0.123806 #
-40.117761595540237351542600663379 1426:0.148617 2140:0.148617 #
40.117761595540237351542600663379 130:0.12572099 2667:0.12572099 #
-40.117761595540237351542600663379 521:0.50765502 3850:0.50765502 4270:0.50765502 #
40.117761595540237351542600663379 242:0.102223 2393:0.102223 #
-37.001736332032884035925235366449 1588:0.18801001 2140:0.18801001 #
-40.117761595540237351542600663379 1820:0.182006 2140:0.182006 #
40.117761595540237351542600663379 859:0.083815001 4076:0.083815001 #
40.117761595540237351542600663379 1158:0.172775 3122:0.172775 4264:0.172775 #
-40.117761595540237351542600663379 611:0.172573 2140:0.172573 #
-40.117761595540237351542600663379 686:0.16616599 2140:0.16616599 #
-40.117761595540237351542600663379 74:0.164435 2140:0.164435 #
-40.117761595540237351542600663379 1278:0.15153401 2140:0.15153401 #
-40.117761595540237351542600663379 1131:0.12777799 2140:0.12777799 #
-40.117761595540237351542600663379 1730:0.138292 2140:0.138292 #
-40.117761595540237351542600663379 1401:0.14212599 2140:0.14212599 #
-40.117761595540237351542600663379 421:0.147001 2140:0.147001 #
-28.976399541977727380981377791613 424:0.31040201 2565:0.31040201 #
-40.117761595540237351542600663379 1785:0.036136001 2959:0.036136001 4263:0.036136001 #
-1.7179565098538487344370651044301 971:0.92007601 2667:0.92007601 #
-21.674817446544643928518780739978 534:0.333217 3932:0.333217 #
18.12048774306554932422841375228 74:0.80184799 3850:0.80184799 #
40.117761595540237351542600663379 855:0.66086102 2288:0.66086102 #
25.140088789338538077799967140891 1730:0.428682 2140:0.428682 #
-40.117761595540237351542600663379 251:0.087762997 3483:0.087762997 #
40.117761595540237351542600663379 583:0.018269001 2140:0.018269001 #
-40.117761595540237351542600663379 1116:0.176511 3850:0.176511 4275:0.176511 #
40.117761595540237351542600663379 194:0.027283 3709:0.027283 #
40.117761595540237351542600663379 686:0.252992 2959:0.252992 4269:0.252992 #
-40.117761595540237351542600663379 1427:0.370933 3850:0.370933 4268:0.370933 #
20.634451268095233444910263642669 1278:0.26935899 2140:0.26935899 #
24.32173868197487109910071012564 49:0.242979 2140:0.242979 #
32.923802953832307593984296545386 686:0.165012 2140:0.165012 #
40.117761595540237351542600663379 1298:0.025388001 2140:0.025388001 4258:0.025388001 #
-3.3263773762826871482900514820358 772:0.81404698 2140:0.81404698 #
-40.117761595540237351542600663379 759:0.013851 2810:0.013851 #
-40.117761595540237351542600663379 1353:0.237267 3850:0.237267 4261:0.237267 #
-40.117761595540237351542600663379 1743:0.230436 3850:0.230436 4261:0.230436 #
22.373908846443097075962214148603 677:0.071317002 2775:0.071317002 #
40.117761595540237351542600663379 1899:0.19396199 2437:0.19396199 #
-40.117761595540237351542600663379 1605:0.109741 3257:0.109741 #
-19.189786088929778884448751341552 1320:0.36314699 3914:0.36314699 #
-40.117761595540237351542600663379 1025:0.163847 3850:0.163847 #
40.117761595540237351542600663379 1644:0.633582 4227:0.633582 #
-40.117761595540237351542600663379 76:0.125163 3257:0.125163 4273:0.125163 #
40.117761595540237351542600663379 1696:0.33555099 3850:0.33555099 4274:0.33555099 #
40.117761595540237351542600663379 1131:0.082621001 2140:0.082621001 #
40.117761595540237351542600663379 686:0.242199 2943:0.242199 4269:0.242199 #
-4.9928594386462794574299550731666 764:0.220156 3122:0.220156 #
25.596323872664228815665410365909 1851:0.30679899 2510:0.30679899 4276:0.30679899 #
-3.2477487285796371452306630089879 1599:0.71090603 2140:0.71090603 #
40.117761595540237351542600663379 1274:0.26457101 3850:0.26457101 4260:0.26457101 #
40.117761595540237351542600663379 1058:0.00184 2449:0.00184 #
-40.117761595540237351542600663379 1735:0.085557997 3437:0.085557997 #
-40.117761595540237351542600663379 854:0.306411 3850:0.306411 #
-40.117761595540237351542600663379 1175:0.244974 3850:0.244974 4269:0.244974 #
-33.888031109856079581277299439535 226:0.213687 2176:0.213687 4277:0.213687 #
-40.117761595540237351542600663379 945:0.18403 2176:0.18403 4273:0.18403 #
-18.787202953700461449670910951681 319:0.51092303 3282:0.51092303 #
-27.137657428454037500387130421586 687:0.50819099 3282:0.50819099 #
-12.427120789093807573522099119145 90:0.433961 2390:0.433961 #
-40.117761595540237351542600663379 1116:0.097061999 3850:0.097061999 4275:0.097061999 #
32.254702656437700625247089192271 1456:0.215875 4023:0.215875 #
3.1968982891170139026826291228645 621:0.47782701 3279:0.47782701 #
-40.117761595540237351542600663379 1503:0.022116 2057:0.022116 #
-40.117761595540237351542600663379 1688:0.058571 2988:0.058571 #
-0.90607410435421276151402025789139 969:1.203145 3850:1.203145 4277:1.203145 #
-40.117761595540237351542600663379 1108:0.204335 2510:0.204335 4259:0.204335 #
-40.117761595540237351542600663379 745:0.19904201 3850:0.19904201 4260:0.19904201 #
40.117761595540237351542600663379 611:0.190108 2140:0.190108 #
-40.117761595540237351542600663379 1189:0.200817 3364:0.200817 #
-40.117761595540237351542600663379 608:0.161744 2865:0.161744 #
-40.117761595540237351542600663379 765:0.24192999 3282:0.24192999 #
40.117761595540237351542600663379 664:0.20448899 3282:0.20448899 4276:0.20448899 #
-40.117761595540237351542600663379 62:0.154783 3282:0.154783 #
31.067696814506042812809027964249 1029:0.50138199 3850:0.50138199 #
6.8830697126385746997812020708807 1116:0.028480001 1917:0.028480001 #
-40.117761595540237351542600663379 121:0.15749399 3850:0.15749399 4265:0.15749399 #
-40.117761595540237351542600663379 222:0.188391 3850:0.188391 4268:0.188391 #
-40.117761595540237351542600663379 1644:0.54885399 3850:0.54885399 #
40.117761595540237351542600663379 1654:0.21033099 2140:0.21033099 4274:0.21033099 #
-40.117761595540237351542600663379 1427:0.31590199 3850:0.31590199 4268:0.31590199 #
40.117761595540237351542600663379 1660:0.088099003 2600:0.088099003 #
-40.117761595540237351542600663379 534:0.14878599 3257:0.14878599 #
2.4609530468372993183834296360146 1856:0.056618001 2480:0.056618001 #
40.117761595540237351542600663379 524:0.035943002 2732:0.035943002 #
40.117761595540237351542600663379 1056:0.060447 3871:0.060447 #
-40.117761595540237351542600663379 756:0.171115 3257:0.171115 #
-40.117761595540237351542600663379 1878:0.23149399 3850:0.23149399 4265:0.23149399 #
-40.117761595540237351542600663379 891:0.19302601 3850:0.19302601 4265:0.19302601 #
-40.117761595540237351542600663379 1744:0.109141 3850:0.109141 4270:0.109141 #
8.7880952193091435020733115379699 394:0.193996 3409:0.193996 #
-40.117761595540237351542600663379 855:0.143905 3619:0.143905 #
-40.117761595540237351542600663379 713:0.26619101 3282:0.26619101 #
-40.117761595540237351542600663379 1485:0.133652 3850:0.133652 4268:0.133652 #
40.117761595540237351542600663379 621:0.25854701 3850:0.25854701 4260:0.25854701 #
-23.283542987575398086619316018187 1427:0.33543801 2370:0.33543801 #
-12.066648132125060044472775189206 1427:0.31648001 3103:0.31648001 #
-40.117761595540237351542600663379 1605:0.12324 3873:0.12324 #
40.117761595540237351542600663379 854:0.16146401 3850:0.16146401 #
40.117761595540237351542600663379 1402:0.223451 3850:0.223451 4274:0.223451 #
-40.117761595540237351542600663379 1302:0.217894 3850:0.217894 #
-40.117761595540237351542600663379 1555:0.133222 3282:0.133222 #
-22.029773003491566640832388657145 231:0.226493 3850:0.226493 4260:0.226493 #
-31.162325836096854914103460032493 249:0.168571 3850:0.168571 #
40.117761595540237351542600663379 1654:0.20477 2140:0.20477 4274:0.20477 #
-40.117761595540237351542600663379 1463:0.069766 3850:0.069766 4261:0.069766 #
-40.117761595540237351542600663379 1175:0.091711 2140:0.091711 #
-40.117761595540237351542600663379 624:0.19681001 3850:0.19681001 4258:0.19681001 #
-40.117761595540237351542600663379 1679:0.165703 3850:0.165703 4274:0.165703 #
-40.117761595540237351542600663379 1771:0.090407997 3850:0.090407997 4260:0.090407997 #
22.803926738174791211122283129953 1820:0.27254301 2959:0.27254301 #
-40.117761595540237351542600663379 1486:0.099432997 3850:0.099432997 4264:0.099432997 #
-40.117761595540237351542600663379 149:0.105963 3850:0.105963 4261:0.105963 4268:0.105963 #
40.117761595540237351542600663379 1744:0.13349301 3850:0.13349301 4270:0.13349301 #
-40.117761595540237351542600663379 1654:0.102182 3850:0.102182 4261:0.102182 4263:0.102182 4274:0.102182 #
-36.10155075141394576121456339024 773:0.23279899 2176:0.23279899 4273:0.23279899 #
5.6229036073283813479406489932444 136:0.43684101 2203:0.43684101 #
26.144989308572320396706345491111 121:0.096300997 2959:0.096300997 4265:0.096300997 #
-40.117761595540237351542600663379 1701:0.1093 2140:0.1093 #
40.117761595540237351542600663379 1899:0.186277 2437:0.186277 #
40.117761595540237351542600663379 1654:0.171253 2140:0.171253 4274:0.171253 #
-40.117761595540237351542600663379 65:0.109022 2140:0.109022 #
-40.117761595540237351542600663379 1376:0.102666 2140:0.102666 #
-40.117761595540237351542600663379 1636:0.139955 3850:0.139955 #
-40.117761595540237351542600663379 515:0.15810201 3850:0.15810201 #
12.98125425280719191789557953598 753:0.19663399 2943:0.19663399 #
-40.117761595540237351542600663379 1356:0.13792001 3850:0.13792001 #
15.221669304735236494252603733912 486:0.51593298 3850:0.51593298 #
40.117761595540237351542600663379 891:0.024369 2943:0.024369 4265:0.024369 #
-40.117761595540237351542600663379 130:0.099807002 4227:0.099807002 #
-40.117761595540237351542600663379 1893:0.17662001 3850:0.17662001 #
-40.117761595540237351542600663379 77:0.178544 3850:0.178544 #
-29.783671700648888247542345197871 1381:0.18074 3850:0.18074 #
10.560498847444094394631974864751 843:0.39488301 3409:0.39488301 #
20.940867705603348980503142229281 914:0.198291 3139:0.198291 #
-40.117761595540237351542600663379 1756:0.117027 3850:0.117027 4261:0.117027 #
-40.117761595540237351542600663379 905:0.121369 3850:0.121369 4261:0.121369 #
16.701568221960194193798088235781 1659:0.41176099 3409:0.41176099 #
-4.9419120567575980373931088251993 1583:1.179926 3709:1.179926 #
-23.280050244426501393490980262868 686:0.36670899 2467:0.36670899 #
40.117761595540237351542600663379 1592:0.060251001 2959:0.060251001 4260:0.060251001 #
-40.117761595540237351542600663379 686:0.109927 2943:0.109927 4269:0.109927 #
11.247701541232911992551635194104 1701:0.70107698 3850:0.70107698 #
-40.117761595540237351542600663379 37:0.094408996 2959:0.094408996 #
-40.117761595540237351542600663379 1743:0.204851 2943:0.204851 4261:0.204851 #
40.117761595540237351542600663379 1336:0.31066999 3282:0.31066999 #
15.397477136128147279237055045087 1108:0.74254799 2510:0.74254799 4259:0.74254799 #
40.117761595540237351542600663379 25:0.014586 2135:0.014586 #
-40.117761595540237351542600663379 496:0.167873 3282:0.167873 4276:0.167873 #
-40.117761595540237351542600663379 781:0.01127 2076:0.01127 #
12.878443614371406056307023391128 1376:0.40324801 3850:0.40324801 #
-40.117761595540237351542600663379 686:0.11848 2959:0.11848 4269:0.11848 #
40.117761595540237351542600663379 133:0.036502998 2184:0.036502998 #
-40.117761595540237351542600663379 1017:0.40425801 2229:0.40425801 #
-40.117761595540237351542600663379 927:0.127792 2600:0.127792 4272:0.127792 #
40.117761595540237351542600663379 1427:0.49847099 3850:0.49847099 4268:0.49847099 #
-40.117761595540237351542600663379 798:0.050097 3437:0.050097 #
-6.6144085307590732014659806736745 1718:0.673693 2775:0.673693 #
-40.117761595540237351542600663379 1014:0.211035 1914:0.211035 #
16.521354473129928663865939597599 1446:0.718054 2140:0.718054 #
40.117761595540237351542600663379 1387:0.087609001 2959:0.087609001 #
6.0515094898133012790708562533837 973:0.466075 2176:0.466075 #
26.081838765022833825923953554593 1288:0.620377 2140:0.620377 #
-22.435788256969949827634991379455 130:0.397845 2176:0.397845 #
-40.117761595540237351542600663379 1058:0.239503 3961:0.239503 4277:0.239503 #
-37.989706886884349046340503264219 1899:0.105794 3580:0.105794 #
10.4783300054564953995850373758 398:0.76142699 3850:0.76142699 #
40.117761595540237351542600663379 1547:0.351809 2176:0.351809 4274:0.351809 #
40.117761595540237351542600663379 1743:0.37792 3850:0.37792 4261:0.37792 #
40.117761595540237351542600663379 1771:0.548127 3850:0.548127 4260:0.548127 #
40.117761595540237351542600663379 854:0.103251 1909:0.103251 #
40.117761595540237351542600663379 1785:0.067619003 2565:0.067619003 #
-40.117761595540237351542600663379 1565:0.053640001 2959:0.053640001 #
-40.117761595540237351542600663379 586:0.154101 2959:0.154101 4263:0.154101 #
-40.117761595540237351542600663379 1402:0.210201 3850:0.210201 4274:0.210201 #
13.769916283024459247030790720601 1601:0.39835501 3961:0.39835501 #
-24.236488784108253469185001449659 1203:0.15919299 3602:0.15919299 #
-40.117761595540237351542600663379 1163:0.143668 2393:0.143668 #
40.117761595540237351542600663379 1591:0.001893 2959:0.001893 4274:0.001893 #
-27.947854670314782765672134701163 1547:0.738998 3850:0.738998 4274:0.738998 #
40.117761595540237351542600663379 1824:0.344796 2510:0.344796 #
-40.117761595540237351542600663379 1248:0.042369001 2561:0.042369001 #
-40.117761595540237351542600663379 142:0.398065 3282:0.398065 #
-40.117761595540237351542600663379 1647:0.0088339997 3122:0.0088339997 #
-40.117761595540237351542600663379 1192:0.045933001 1914:0.045933001 #
40.117761595540237351542600663379 48:0.29533201 1957:0.29533201 #
-40.117761595540237351542600663379 1515:0.12139 2467:0.12139 #
40.117761595540237351542600663379 1868:0.026272999 1924:0.026272999 #
40.117761595540237351542600663379 1299:0.027199 2943:0.027199 #
9.5536624246919519265475173597224 328:0.39903501 3850:0.39903501 #
40.117761595540237351542600663379 1824:0.155294 3282:0.155294 #
-9.3525319440012335547862676321529 202:0.21065401 2359:0.21065401 #
-40.117761595540237351542600663379 1550:0.213489 2775:0.213489 #
6.7301160218444193716891277290415 825:0.90446699 3850:0.90446699 #
40.117761595540237351542600663379 97:0.075786002 2943:0.075786002 4275:0.075786002 #
40.117761595540237351542600663379 1557:0.391002 3437:0.391002 #
-40.117761595540237351542600663379 1436:0.18509901 2943:0.18509901 #
-40.117761595540237351542600663379 530:0.24492 3122:0.24492 #
-40.117761595540237351542600663379 711:0.183172 4076:0.183172 #
-40.117761595540237351542600663379 1432:0.0059540002 2600:0.0059540002 4274:0.0059540002 #
3.42931147029410254845060990192 932:0.77639002 3850:0.77639002 #
-40.117761595540237351542600663379 432:0.092519999 3705:0.092519999 #
13.121717873827410727471942664124 1680:0.13214 3986:0.13214 #
-40.117761595540237351542600663379 593:0.159347 4086:0.159347 #
-40.117761595540237351542600663379 901:0.013604 2959:0.013604 #
40.117761595540237351542600663379 1263:0.113574 2959:0.113574 #
-40.117761595540237351542600663379 1461:0.023456 2841:0.023456 #
-40.117761595540237351542600663379 1703:0.122343 2994:0.122343 #
-0.058947755806140991752251068191981 927:0.273249 2229:0.273249 #
-40.117761595540237351542600663379 1298:0.149942 2775:0.149942 #
40.117761595540237351542600663379 892:0.261002 3282:0.261002 4272:0.261002 #
32.129823275923776293439004803076 614:0.52041 3850:0.52041 #
-40.117761595540237351542600663379 1654:0.081565998 2140:0.081565998 4274:0.081565998 #
40.117761595540237351542600663379 168:0.25921401 3282:0.25921401 4262:0.25921401 #
-3.538667886244755145241924765287 532:0.74057603 3282:0.74057603 4276:0.74057603 #
-40.117761595540237351542600663379 1704:0.30667201 4023:0.30667201 #
6.1753385584690221321579883806407 123:0.742513 3850:0.742513 #
25.107516078624911415317910723388 1699:0.70616502 3850:0.70616502 #
-1.2543347358906959954083504271694 630:0.95493299 3850:0.95493299 #
-3.9190229512329395333836146164685 979:0.93527502 3850:0.93527502 #
-40.117761595540237351542600663379 432:0.012264 2943:0.012264 4263:0.012264 #
40.117761595540237351542600663379 1735:0.33734301 3636:0.33734301 #
-14.82631467520487156264152872609 46:0.290355 3850:0.290355 #
15.464845208273366949924820801243 1702:0.67890298 3850:0.67890298 #
2.228140533028213354782565147616 100:0.66021699 3850:0.66021699 #
1.0456172191396122528317391697783 1724:0.125756 3546:0.125756 #
40.117761595540237351542600663379 1643:0.37098801 2386:0.37098801 #
-40.117761595540237351542600663379 1502:0.141918 4227:0.141918 #
25.385496839169114480228017782792 1184:0.30802301 3850:0.30802301 4274:0.30802301 #
18.922364059317271056670506368391 1302:0.59193301 3850:0.59193301 #
9.3198800086518289731429831590503 164:0.437626 3850:0.437626 #
-40.117761595540237351542600663379 396:0.14769 2600:0.14769 #
-40.117761595540237351542600663379 1387:0.113747 2135:0.113747 #
6.4011143482641870150473550893366 621:0.25854701 2951:0.25854701 #
6.4011143482641887914041944895871 621:0.25854701 3309:0.25854701 #
40.117761595540237351542600663379 170:0.55282599 3850:0.55282599 #
2.5774788456551371851332987716887 1108:0.15845799 3104:0.15845799 #
-9.0177289919529162176559111685492 253:0.34713599 2943:0.34713599 #
-40.117761595540237351542600663379 914:0.247389 2184:0.247389 4262:0.247389 #
40.117761595540237351542600663379 428:0.084935002 3760:0.084935002 #
40.117761595540237351542600663379 428:0.082172997 2666:0.082172997 #
-40.117761595540237351542600663379 1794:0.12933201 2943:0.12933201 #
1.4573460123889452333401095529553 645:0.62855601 3850:0.62855601 4265:0.62855601 #
40.117761595540237351542600663379 1512:0.244041 2600:0.244041 4262:0.244041 #
4.9443125379446968281627050600946 277:0.23922101 3850:0.23922101 4261:0.23922101 #
-40.117761595540237351542600663379 1822:0.245545 3282:0.245545 #
-40.117761595540237351542600663379 1700:0.147957 2988:0.147957 #
-40.117761595540237351542600663379 121:0.190951 4183:0.190951 #
-40.117761595540237351542600663379 74:0.141495 3850:0.141495 #
-40.117761595540237351542600663379 1503:0.039005999 3527:0.039005999 #
40.117761595540237351542600663379 1017:0.160539 2184:0.160539 4276:0.160539 #
-40.117761595540237351542600663379 1442:0.071111999 3282:0.071111999 4272:0.071111999 #
3.6855715721133037732215598225594 1161:0.64329702 3850:0.64329702 #
4.0340842787276613989888573996723 1149:0.60872799 3850:0.60872799 #
40.117761595540237351542600663379 1550:0.186501 3257:0.186501 #
40.117761595540237351542600663379 1583:0.23157801 3257:0.23157801 #
40.117761595540237351542600663379 756:0.15399399 3257:0.15399399 #
-21.570204021197998400793949258514 1512:0.28490001 2184:0.28490001 4262:0.28490001 #
5.3030381178360279648131836438552 29:0.60580599 3602:0.60580599 #
-40.117761595540237351542600663379 914:0.25066599 3282:0.25066599 4262:0.25066599 #
40.117761595540237351542600663379 1654:0.154292 2140:0.154292 4274:0.154292 #
2.5683414095971892621150800550822 1017:0.160539 3351:0.160539 #
40.117761595540237351542600663379 1168:0.064095996 2229:0.064095996 #
-40.117761595540237351542600663379 1029:0.157548 3835:0.157548 #
40.117761595540237351542600663379 635:0.0023350001 2510:0.0023350001 #
-40.117761595540237351542600663379 1260:0.092129998 2943:0.092129998 4273:0.092129998 #
-40.117761595540237351542600663379 1660:0.13420901 2747:0.13420901 #
40.117761595540237351542600663379 915:0.105139 2943:0.105139 #
-40.117761595540237351542600663379 988:0.22781099 3282:0.22781099 4262:0.22781099 #
-40.117761595540237351542600663379 886:0.045171998 3122:0.045171998 4272:0.045171998 #
16.002387174739610031792835798115 613:0.29846799 2184:0.29846799 #
19.057229768084148702200764091685 1145:0.26296201 2184:0.26296201 #
40.117761595540237351542600663379 34:0.148809 3122:0.148809 4264:0.148809 #
22.28483350839727705761106335558 1361:0.22679999 2184:0.22679999 #
-40.117761595540237351542600663379 1162:0.068210997 2600:0.068210997 4268:0.068210997 #
-40.117761595540237351542600663379 664:0.105309 3282:0.105309 4276:0.105309 #
40.117761595540237351542600663379 532:0.160559 3282:0.160559 4276:0.160559 #
40.117761595540237351542600663379 813:0.192357 3122:0.192357 #
40.117761595540237351542600663379 884:0.044482 2959:0.044482 #
-12.453518164158655423534582951106 832:0.476228 2775:0.476228 #
-40.117761595540237351542600663379 1044:0.148151 3282:0.148151 4264:0.148151 #
40.117761595540237351542600663379 281:0.077743001 3282:0.077743001 4264:0.077743001 #
40.117761595540237351542600663379 1749:0.118582 3282:0.118582 #
40.117761595540237351542600663379 1256:0.030786 3457:0.030786 #
40.117761595540237351542600663379 1512:0.066637002 2184:0.066637002 4262:0.066637002 #
40.117761595540237351542600663379 1058:0.034409001 4062:0.034409001 #
-40.117761595540237351542600663379 1620:0.071134001 3282:0.071134001 #
-40.117761595540237351542600663379 142:0.218761 3122:0.218761 4270:0.218761 #
-40.117761595540237351542600663379 387:0.154653 2897:0.154653 #
-40.117761595540237351542600663379 1686:0.085628003 2978:0.085628003 #
-40.117761595540237351542600663379 1659:0.222519 3409:0.222519 #
-6.0192245232040333391410058538895 1898:0.198806 2732:0.198806 4276:0.198806 #
-40.117761595540237351542600663379 1029:0.147193 2610:0.147193 #
-40.117761595540237351542600663379 194:0.136158 2959:0.136158 #
40.117761595540237351542600663379 327:0.141909 3961:0.141909 #
39.262720330463807272280973847955 1353:0.17971601 3409:0.17971601 4261:0.17971601 #
-4.356109828775371006770456006052 170:0.72055697 3850:0.72055697 #
40.117761595540237351542600663379 1718:0.088229001 2775:0.088229001 #
-40.117761595540237351542600663379 954:0.084968001 2134:0.084968001 #
36.318322209365661024094151798636 1116:0.30710599 2943:0.30710599 4275:0.30710599 #
13.896012690906793807243957417086 1291:0.60084701 3850:0.60084701 #
25.295257370700561239118542289361 952:0.59833002 3850:0.59833002 #
-40.117761595540237351542600663379 1348:0.054960001 2561:0.054960001 #
40.117761595540237351542600663379 773:0.071278997 3409:0.071278997 #
35.513050649454029894513951148838 977:0.48554099 3850:0.48554099 #
-40.117761595540237351542600663379 784:0.022565 3850:0.022565 4268:0.022565 #
-40.117761595540237351542600663379 593:0.074116997 2437:0.074116997 4258:0.074116997 #
26.365603186203472318993590306491 1784:0.23053201 2176:0.23053201 #
9.2731673079384364655197714455426 1087:0.59260601 3850:0.59260601 #
11.907907548919027362899214494973 618:0.55785203 3850:0.55785203 #
-40.117761595540237351542600663379 855:0.0047479998 3627:0.0047479998 #
40.117761595540237351542600663379 14:0.023437999 2306:0.023437999 #
-40.117761595540237351542600663379 11:0.110398 2988:0.110398 #
-40.117761595540237351542600663379 11:0.106993 2775:0.106993 #
-40.117761595540237351542600663379 1495:0.080697 2943:0.080697 4268:0.080697 #
-40.117761595540237351542600663379 1324:0.075871997 2176:0.075871997 #
-16.65537489056636744066963728983 754:0.248372 2538:0.248372 #
40.117761595540237351542600663379 1387:0.064471997 4148:0.064471997 #
40.117761595540237351542600663379 466:0.169292 3122:0.169292 #
-40.117761595540237351542600663379 1560:0.141672 3122:0.141672 #
40.117761595540237351542600663379 1685:0.16252901 3122:0.16252901 #
-40.117761595540237351542600663379 71:0.075057998 3122:0.075057998 4272:0.075057998 #
-40.117761595540237351542600663379 341:0.125618 2959:0.125618 #
1.5526590038074346011853776872158 1875:0.25185999 2959:0.25185999 #
7.7809231619601684215581371972803 1469:0.21968301 2959:0.21968301 #
-40.117761595540237351542600663379 1001:0.234727 3122:0.234727 #
40.117761595540237351542600663379 1346:0.038701002 2140:0.038701002 #
40.117761595540237351542600663379 1567:0.15884501 3122:0.15884501 #
40.117761595540237351542600663379 446:0.150222 3122:0.150222 4267:0.150222 #
4.8466826006364183143659829511307 1750:0.54141003 3850:0.54141003 #
27.142431648736408789091001381166 1425:0.037129 2111:0.037129 #
-40.117761595540237351542600663379 1850:0.050951 2561:0.050951 #
-40.117761595540237351542600663379 29:0.085065 3602:0.085065 #
25.551927887105982506454893155023 874:0.147158 3850:0.147158 4263:0.147158 #
40.117761595540237351542600663379 317:0.121311 3850:0.121311 4263:0.121311 #
40.117761595540237351542600663379 1547:0.17899001 3850:0.17899001 4274:0.17899001 #
-40.117761595540237351542600663379 840:0.196196 2959:0.196196 4265:0.196196 #
-40.117761595540237351542600663379 424:0.077064998 2943:0.077064998 4270:0.077064998 #
40.117761595540237351542600663379 1116:0.0088459998 3850:0.0088459998 4275:0.0088459998 #
-40.117761595540237351542600663379 1654:0.12555499 3768:0.12555499 #
4.6993487040425829803780288784765 1684:0.53545302 3850:0.53545302 #
-40.117761595540237351542600663379 681:0.140026 2943:0.140026 4265:0.140026 #
-40.117761595540237351542600663379 347:0.18494301 2504:0.18494301 4276:0.18494301 #
-40.117761595540237351542600663379 1202:0.18377601 3282:0.18377601 4264:0.18377601 #
40.117761595540237351542600663379 1554:0.051605999 2959:0.051605999 4274:0.051605999 #
-40.117761595540237351542600663379 602:0.19523899 2775:0.19523899 #
-40.117761595540237351542600663379 432:0.065063 1914:0.065063 #
40.117761595540237351542600663379 1060:0.48027399 3850:0.48027399 #
6.4787968942603484379105793777853 759:0.470065 3850:0.470065 #
5.4075933909466229465579090174288 768:0.46101999 3850:0.46101999 #
-40.117761595540237351542600663379 524:0.102268 3565:0.102268 #
-40.117761595540237351542600663379 1058:0.049716 2959:0.049716 4277:0.049716 #
-40.117761595540237351542600663379 967:0.121936 2959:0.121936 4265:0.121936 #
4.3426205861595157387000654125586 1096:0.45343399 3850:0.45343399 #
-40.117761595540237351542600663379 1162:0.047343001 2943:0.047343001 4268:0.047343001 #
-40.117761595540237351542600663379 1427:0.045883998 2988:0.045883998 4268:0.045883998 #
-23.71211903884854166335571790114 35:0.236555 2959:0.236555 #
40.117761595540237351542600663379 1339:0.0073119998 3536:0.0073119998 #
-40.117761595540237351542600663379 423:0.049035002 2943:0.049035002 4275:0.049035002 #
-40.117761595540237351542600663379 784:0.350649 2943:0.350649 4268:0.350649 #
-40.117761595540237351542600663379 686:0.059928 2262:0.059928 #
-40.117761595540237351542600663379 1058:0.093098 2943:0.093098 4277:0.093098 #
40.117761595540237351542600663379 1427:0.28976399 3850:0.28976399 4268:0.28976399 #
-40.117761595540237351542600663379 432:0.063573003 2588:0.063573003 #
-36.826844035571760116454242961481 1780:0.212387 1914:0.212387 #
-40.117761595540237351542600663379 149:0.078850001 4177:0.078850001 #
-40.117761595540237351542600663379 1186:0.126555 2089:0.126555 #
-18.445294251343629099437748664059 138:0.43805599 2732:0.43805599 #
-10.195689094669200258636010403279 1583:0.99208999 3257:0.99208999 #
40.117761595540237351542600663379 71:0.166559 3122:0.166559 4272:0.166559 #
-40.117761595540237351542600663379 317:0.35358199 3709:0.35358199 #
40.117761595540237351542600663379 14:0.032267999 2810:0.032267999 #
9.3856668096310436055773607222363 1482:0.48800701 2906:0.48800701 #
39.870624788945633554249070584774 784:0.057681002 2999:0.057681002 #
6.7246331885573491504715093469713 434:0.29250899 3557:0.29250899 4262:0.29250899 #
-3.362323759050813265503165894188 1168:0.78457999 3282:0.78457999 #
-22.544025677986404332386882742867 446:0.36520401 3122:0.36520401 4267:0.36520401 #
40.117761595540237351542600663379 593:0.035666998 3409:0.035666998 4258:0.035666998 #
-40.117761595540237351542600663379 1463:0.201305 4076:0.201305 #
-40.117761595540237351542600663379 977:0.37818399 3850:0.37818399 #
-40.117761595540237351542600663379 614:0.35690099 3850:0.35690099 #
19.244653880447884830573457293212 905:0.22004201 3850:0.22004201 4261:0.22004201 #
-40.117761595540237351542600663379 891:0.14528 3384:0.14528 #
-40.117761595540237351542600663379 433:0.105692 2943:0.105692 #
-3.6803576117985601356963343278039 34:0.31622201 3122:0.31622201 4264:0.31622201 #
-40.117761595540237351542600663379 1893:0.31433201 3850:0.31433201 #
-21.985040284799669763060592231341 1735:0.51125997 3636:0.51125997 #
-40.117761595540237351542600663379 57:0.064877003 3437:0.064877003 #
1.148692569340113323050900362432 1220:0.187134 2140:0.187134 #
21.348286859584735708494918071665 1016:0.320016 2393:0.320016 #
40.117761595540237351542600663379 1336:0.151666 2229:0.151666 #
22.261472030466560312333967885934 840:0.327546 3850:0.327546 4265:0.327546 #
-40.117761595540237351542600663379 483:0.118498 2943:0.118498 4270:0.118498 #
-17.249005623935975251015406684019 892:0.286769 3282:0.286769 4272:0.286769 #
40.117761595540237351542600663379 1136:0.119612 3282:0.119612 #
40.117761595540237351542600663379 835:0.0023350001 2253:0.0023350001 #
40.117761595540237351542600663379 356:0.003789 3752:0.003789 #
-13.391425976665965791312373767141 1060:0.56296802 3334:0.56296802 #
40.117761595540237351542600663379 1743:0.057282001 2943:0.057282001 4261:0.057282001 #
40.117761595540237351542600663379 1654:0.096629001 2747:0.096629001 #
-40.117761595540237351542600663379 48:0.123953 1957:0.123953 #
-40.117761595540237351542600663379 1533:0.025808999 3015:0.025808999 #
36.533397348361333456523425411433 711:0.218119 2467:0.218119 #
25.595943309433508261463430244476 1009:0.192598 2897:0.192598 #
40.117761595540237351542600663379 432:0.024919 2959:0.024919 4263:0.024919 #
40.117761595540237351542600663379 927:0.15144999 3282:0.15144999 4272:0.15144999 #
40.117761595540237351542600663379 78:0.089395002 2504:0.089395002 #
-21.758635365619067414399978588335 251:0.36064601 3400:0.36064601 #
40.117761595540237351542600663379 1509:0.191883 3282:0.191883 #
-40.117761595540237351542600663379 1016:0.050336 2538:0.050336 #
-40.117761595540237351542600663379 1699:0.370175 3850:0.370175 #
40.117761595540237351542600663379 1368:0.158336 3282:0.158336 #
-40.117761595540237351542600663379 874:0.043453 3850:0.043453 4263:0.043453 #
-40.117761595540237351542600663379 173:0.107113 4227:0.107113 #
-40.117761595540237351542600663379 662:0.165886 4227:0.165886 #
-40.117761595540237351542600663379 1784:0.073183998 2176:0.073183998 #
0.43844030697803093588049705431331 1877:0.041776001 4230:0.041776001 #
40.117761595540237351542600663379 1564:0.142314 3122:0.142314 4272:0.142314 #
40.117761595540237351542600663379 130:0.128985 2176:0.128985 #
40.117761595540237351542600663379 1815:0.12955099 2133:0.12955099 #
-40.117761595540237351542600663379 1158:0.111533 3122:0.111533 4264:0.111533 #
-37.704376485656844408822507830337 886:0.166034 3122:0.166034 4272:0.166034 #
-40.117761595540237351542600663379 1594:0.32418001 3850:0.32418001 #
9.8683899376001953385184606304392 1263:0.67961198 2550:0.67961198 #
40.117761595540237351542600663379 1058:0.116375 3334:0.116375 #
40.117761595540237351542600663379 560:0.103119 3122:0.103119 #
-40.117761595540237351542600663379 1567:0.095894001 3122:0.095894001 #
-40.117761595540237351542600663379 666:0.117989 3409:0.117989 #
-40.117761595540237351542600663379 988:0.092710003 2735:0.092710003 #
40.117761595540237351542600663379 146:0.181499 3282:0.181499 #
-40.117761595540237351542600663379 1244:0.084825002 2600:0.084825002 4259:0.084825002 #
-40.117761595540237351542600663379 891:0.160172 2253:0.160172 #
40.117761595540237351542600663379 1735:0.24125101 3437:0.24125101 #
35.461368448289633192871406208724 1519:0.042736001 3409:0.042736001 4258:0.042736001 #
-40.117761595540237351542600663379 824:0.037076999 3437:0.037076999 #
-3.3159961110371987125233772530919 1695:0.71890002 3850:0.71890002 #
-2.1958039828078526056742703076452 659:0.70757699 3850:0.70757699 #
40.117761595540237351542600663379 1553:0.54621601 3437:0.54621601 #
40.117761595540237351542600663379 1663:0.31837401 3437:0.31837401 #
40.117761595540237351542600663379 1056:0.212065 3282:0.212065 4266:0.212065 #
4.7909602928221985962409235071391 267:0.275985 2959:0.275985 #
-40.117761595540237351542600663379 254:0.119106 1959:0.119106 #
-40.117761595540237351542600663379 251:0.195136 3907:0.195136 #
23.41141199031752151427099306602 1539:0.016856 3409:0.016856 4261:0.016856 #
40.117761595540237351542600663379 130:0.068756998 3256:0.068756998 #
40.117761595540237351542600663379 1845:0.122508 2184:0.122508 4264:0.122508 #
-40.117761595540237351542600663379 1060:0.40412301 3850:0.40412301 #
-40.117761595540237351542600663379 1702:0.19410001 3850:0.19410001 #
30.225196490132859139521315228194 1507:0.103963 2508:0.103963 #
40.117761595540237351542600663379 130:0.085093997 2943:0.085093997 4263:0.085093997 #
-2.4170122374526972208741426584311 224:1.604843 3850:1.604843 #
-32.728883911526715166928624967113 1845:0.273884 2184:0.273884 4264:0.273884 #
9.2897298491960871302808300242759 347:0.72171003 2504:0.72171003 4276:0.72171003 #
40.117761595540237351542600663379 1256:0.042534001 3103:0.042534001 #
40.117761595540237351542600663379 979:0.088192999 3850:0.088192999 #
40.117761595540237351542600663379 1547:0.103503 2140:0.103503 4274:0.103503 #
40.117761595540237351542600663379 224:0.124744 3850:0.124744 #
35.868102858902858542933245189488 1594:0.40210301 3850:0.40210301 #
40.117761595540237351542600663379 66:0.11172 3850:0.11172 4265:0.11172 #
40.117761595540237351542600663379 323:0.093708001 2467:0.093708001 #
40.117761595540237351542600663379 891:0.101348 2467:0.101348 #
-40.117761595540237351542600663379 1709:0.042383 2538:0.042383 #
-40.117761595540237351542600663379 1425:0.058148999 3158:0.058148999 #
-0.85792721699664298284915275871754 680:0.66333199 3850:0.66333199 #
40.117761595540237351542600663379 944:0.074348003 3122:0.074348003 4266:0.074348003 #
5.9227964499796215136484534014016 411:0.14989001 2140:0.14989001 #
-40.117761595540237351542600663379 1261:0.077776 3282:0.077776 #
40.117761595540237351542600663379 621:0.11668 2943:0.11668 4260:0.11668 #
40.117761595540237351542600663379 1707:0.053474002 2740:0.053474002 #
40.117761595540237351542600663379 1663:0.59544897 3666:0.59544897 #
-40.117761595540237351542600663379 1557:0.220735 2749:0.220735 #
40.117761595540237351542600663379 602:0.20430601 2943:0.20430601 #
-40.117761595540237351542600663379 1432:0.051058002 2140:0.051058002 4274:0.051058002 #
-40.117761595540237351542600663379 524:0.071004003 2732:0.071004003 #
-4.1924421984284307995949347969145 61:0.60981899 3850:0.60981899 #
-40.117761595540237351542600663379 1427:0.125128 3618:0.125128 #
-40.117761595540237351542600663379 544:0.075648002 2526:0.075648002 #
-40.117761595540237351542600663379 1568:0.075749002 2176:0.075749002 #
-1.030294236648393813027269061422 762:0.64266598 3850:0.64266598 #
40.117761595540237351542600663379 226:0.045161001 3850:0.045161001 4277:0.045161001 #
40.117761595540237351542600663379 267:0.122437 2943:0.122437 #
-17.200911860861491931018463219516 602:0.35055 3850:0.35055 #
40.117761595540237351542600663379 1427:0.147296 2467:0.147296 #
40.117761595540237351542600663379 394:0.088446997 3850:0.088446997 #
40.117761595540237351542600663379 784:0.21847001 2140:0.21847001 #
40.117761595540237351542600663379 784:0.13468499 4018:0.13468499 #
40.117761595540237351542600663379 1116:0.153015 2988:0.153015 #
-40.117761595540237351542600663379 466:0.039749999 3122:0.039749999 #
-40.117761595540237351542600663379 69:0.055594999 3122:0.055594999 #
-40.117761595540237351542600663379 587:0.103665 2184:0.103665 4266:0.103665 #
40.117761595540237351542600663379 1707:0.098582 2740:0.098582 #
40.117761595540237351542600663379 355:0.030348999 3961:0.030348999 #
10.359340875474252641197381308302 854:0.079466 2305:0.079466 #
-40.117761595540237351542600663379 48:0.05195 2485:0.05195 #
-40.117761595540237351542600663379 813:0.072926 3122:0.072926 #
-8.7345871978997067230920947622508 53:0.202629 3961:0.202629 4272:0.202629 #
-40.117761595540237351542600663379 1184:0.071396001 2184:0.071396001 #
40.117761595540237351542600663379 718:0.118705 3122:0.118705 #
40.117761595540237351542600663379 827:0.116432 3122:0.116432 #
5.555714252421554810723591799615 1410:0.213064 3274:0.213064 #
40.117761595540237351542600663379 1476:0.110842 3122:0.110842 #
-21.414495766019857825313010835089 705:0.54065597 3850:0.54065597 #
40.117761595540237351542600663379 1116:0.011389 3193:0.011389 #
-1.804988180144385667702522368927 1:0.498036 3850:0.498036 #
-12.980414438744968919081657077186 1153:0.50567198 3850:0.50567198 #
7.3402719419819639767865737667307 1153:0.24154399 4091:0.24154399 #
40.117761595540237351542600663379 705:0.12899201 3850:0.12899201 #
40.117761595540237351542600663379 1401:0.033139002 3850:0.033139002 #
29.275641936093975914445763919502 1016:0.120125 3618:0.120125 #
40.117761595540237351542600663379 1560:0.216012 3122:0.216012 #
-40.117761595540237351542600663379 843:0.073701002 3409:0.073701002 #
-40.117761595540237351542600663379 135:0.061112002 4148:0.061112002 #
-40.117761595540237351542600663379 1550:0.084225997 2253:0.084225997 #
40.117761595540237351542600663379 1189:0.046174001 3364:0.046174001 #
37.364747855374289997598680201918 1488:0.165997 2959:0.165997 4268:0.165997 #
-40.117761595540237351542600663379 914:0.072535999 2600:0.072535999 4262:0.072535999 #
40.117761595540237351542600663379 1482:0.24308001 2412:0.24308001 #
1.3347047409300536457976704696193 1256:0.087998003 2659:0.087998003 #
40.117761595540237351542600663379 142:0.011557 3536:0.011557 #
40.117761595540237351542600663379 1256:0.072586 3632:0.072586 #
-40.117761595540237351542600663379 1794:0.054577 2959:0.054577 #
40.117761595540237351542600663379 1256:0.079645999 2600:0.079645999 4268:0.079645999 #
40.117761595540237351542600663379 1592:0.074624002 2959:0.074624002 4260:0.074624002 #
-40.117761595540237351542600663379 154:0.20390201 2600:0.20390201 #
-40.117761595540237351542600663379 1494:0.198209 2600:0.198209 #
-2.205966310179722000839319662191 944:0.372289 3122:0.372289 4266:0.372289 #
-40.117761595540237351542600663379 935:0.057326 3760:0.057326 #
40.117761595540237351542600663379 628:0.103716 3122:0.103716 #
-40.117761595540237351542600663379 11:0.059294 3986:0.059294 #
40.117761595540237351542600663379 1263:0.187839 3905:0.187839 #
-40.117761595540237351542600663379 1274:0.105818 2140:0.105818 #
-40.117761595540237351542600663379 97:0.004526 2852:0.004526 #
40.117761595540237351542600663379 353:0.129485 3282:0.129485 #
-40.117761595540237351542600663379 1017:0.092087001 2184:0.092087001 4276:0.092087001 #
40.117761595540237351542600663379 521:0.065043002 2184:0.065043002 4270:0.065043002 #
-40.117761595540237351542600663379 1590:0.048533998 3282:0.048533998 4272:0.048533998 #
-40.117761595540237351542600663379 1685:0.042335998 3122:0.042335998 #
40.117761595540237351542600663379 1394:0.152583 3282:0.152583 #
-15.501793452915292093052812560927 518:0.463817 3850:0.463817 #
40.117761595540237351542600663379 521:0.119897 2140:0.119897 #
-40.117761595540237351542600663379 675:0.038752999 4227:0.038752999 #
-40.117761595540237351542600663379 1495:0.082461998 3850:0.082461998 4268:0.082461998 #
-40.117761595540237351542600663379 655:0.072884999 3850:0.072884999 4268:0.072884999 #
40.117761595540237351542600663379 518:0.069022998 3850:0.069022998 #
40.117761595540237351542600663379 518:0.059983 2775:0.059983 #
40.117761595540237351542600663379 1889:0.059903 2393:0.059903 #
40.117761595540237351542600663379 1716:0.017991001 2978:0.017991001 #
-40.117761595540237351542600663379 1703:0.175707 2140:0.175707 #
8.3923385369462497607173645519651 593:0.058316998 2743:0.058316998 #
10.799451007261964718964009080082 1569:0.233657 2943:0.233657 #
12.393428058877280051319758058526 784:0.10759 3535:0.10759 #
40.117761595540237351542600663379 784:0.102203 2755:0.102203 #
40.117761595540237351542600663379 556:0.229422 2943:0.229422 #
-40.117761595540237351542600663379 1276:0.032506 2253:0.032506 #
14.525133014909496154132284573279 1274:0.119688 2930:0.119688 #
29.002110128172628122911191894673 1703:0.053236999 2494:0.053236999 #
-40.117761595540237351542600663379 1771:0.086320996 3124:0.086320996 #
-40.117761595540237351542600663379 1867:0.30621901 3850:0.30621901 4264:0.30621901 #
40.117761595540237351542600663379 1703:0.043567002 3595:0.043567002 #
40.117761595540237351542600663379 1703:0.032807998 4086:0.032807998 #
-40.117761595540237351542600663379 1068:0.071548 1959:0.071548 4275:0.071548 #
-40.117761595540237351542600663379 325:0.053156 3409:0.053156 #
40.117761595540237351542600663379 1158:0.086505003 3282:0.086505003 4264:0.086505003 #
40.117761595540237351542600663379 421:0.026481999 2140:0.026481999 #
40.117761595540237351542600663379 142:0.16562501 3122:0.16562501 4270:0.16562501 #
-40.117761595540237351542600663379 1386:0.026732 2184:0.026732 #
40.117761595540237351542600663379 394:0.069280997 3850:0.069280997 #
-6.7698045740621637378353625535965 160:0.41180199 3850:0.41180199 #
-40.117761595540237351542600663379 1387:0.086286001 2600:0.086286001 4275:0.086286001 #
-40.117761595540237351542600663379 891:0.04843 4076:0.04843 #
40.117761595540237351542600663379 1455:0.062953003 2815:0.062953003 #
40.117761595540237351542600663379 593:0.01915 3409:0.01915 4258:0.01915 #
40.117761595540237351542600663379 849:0.069761999 3122:0.069761999 #
-40.117761595540237351542600663379 76:0.045279998 2959:0.045279998 4269:0.045279998 #
-40.117761595540237351542600663379 69:0.027554 3437:0.027554 #
40.117761595540237351542600663379 1436:0.21607 2959:0.21607 #
22.650394057974786221620888682082 655:0.700885 3850:0.700885 4268:0.700885 #
40.117761595540237351542600663379 483:0.041271001 2959:0.041271001 #
-33.453873050753522022660035872832 1549:0.41047099 3850:0.41047099 #
-40.117761595540237351542600663379 305:0.41022101 3850:0.41022101 #
-40.117761595540237351542600663379 1558:0.410072 3850:0.410072 #
-33.29890066998758868521690601483 1252:0.36692399 3850:0.36692399 #
40.117761595540237351542600663379 1306:0.085068002 3122:0.085068002 #
11.418343992549692345050971198361 305:0.21662299 2162:0.21662299 #
-40.117761595540237351542600663379 1175:0.087093003 3850:0.087093003 4269:0.087093003 #
40.117761595540237351542600663379 1889:0.059903 3850:0.059903 #
-40.117761595540237351542600663379 1425:0.089977004 3850:0.089977004 4270:0.089977004 4277:0.089977004 #
18.630765987178833142934308853 394:0.069280997 2521:0.069280997 #
19.838475281777323999676809762605 394:0.066927001 2242:0.066927001 #
-40.117761595540237351542600663379 1557:0.097344004 3437:0.097344004 #
40.117761595540237351542600663379 1425:0.212056 2943:0.212056 4270:0.212056 4277:0.212056 #
40.117761595540237351542600663379 1427:0.016855 2600:0.016855 4268:0.016855 #
40.117761595540237351542600663379 97:0.037124999 2308:0.037124999 #
-40.117761595540237351542600663379 1427:0.050085999 2600:0.050085999 4268:0.050085999 #
-40.117761595540237351542600663379 1620:0.053920999 3122:0.053920999 #
-40.117761595540237351542600663379 593:0.133586 2612:0.133586 #
9.3385104924130963865991361672059 1322:0.218238 2943:0.218238 #
40.117761595540237351542600663379 1640:0.034265999 2732:0.034265999 #
-40.117761595540237351542600663379 781:0.010563 2076:0.010563 #
40.117761595540237351542600663379 1677:0.167218 2943:0.167218 #
-40.117761595540237351542600663379 1016:0.073408 3850:0.073408 4269:0.073408 #
-40.117761595540237351542600663379 1550:0.052301001 3850:0.052301001 4260:0.052301001 4271:0.052301001 #
-40.117761595540237351542600663379 1656:0.067042001 3850:0.067042001 #
40.117761595540237351542600663379 1436:0.041834999 2810:0.041834999 #
40.117761595540237351542600663379 77:0.067552 3850:0.067552 #
-40.117761595540237351542600663379 218:0.34680501 3850:0.34680501 #
-9.896656070785924796950894233305 1218:0.33887899 3850:0.33887899 #
40.117761595540237351542600663379 218:0.14966001 2775:0.14966001 #
-40.117761595540237351542600663379 423:0.054767001 3850:0.054767001 4275:0.054767001 #
40.117761595540237351542600663379 832:0.057432 2892:0.057432 #
40.117761595540237351542600663379 97:0.036307 3850:0.036307 4275:0.036307 #
-40.117761595540237351542600663379 1550:0.097372003 3994:0.097372003 #
-40.117761595540237351542600663379 952:0.084601 3850:0.084601 #
40.117761595540237351542600663379 1874:0.114092 3850:0.114092 4260:0.114092 #
40.117761595540237351542600663379 97:0.033018999 1914:0.033018999 #
40.117761595540237351542600663379 1320:0.045254 3914:0.045254 #
40.117761595540237351542600663379 1549:0.123742 2140:0.123742 #
-40.117761595540237351542600663379 1387:0.058063 2140:0.058063 #
-40.117761595540237351542600663379 1427:0.047391001 2140:0.047391001 #
40.117761595540237351542600663379 1780:0.096014 3850:0.096014 #
17.517112886342218303070694673806 797:0.15176301 3850:0.15176301 #
18.467111286101143718951789196581 308:0.143179 3850:0.143179 #
40.117761595540237351542600663379 121:0.129196 1914:0.129196 #
-40.117761595540237351542600663379 1276:0.030206 2959:0.030206 #
40.117761595540237351542600663379 1050:0.00025000001 3521:0.00025000001 #
-40.117761595540237351542600663379 328:0.036371998 3850:0.036371998 #
-40.117761595540237351542600663379 1164:0.037362002 2943:0.037362002 4261:0.037362002 4265:0.037362002 #
-40.117761595540237351542600663379 618:0.091279 3850:0.091279 #
40.117761595540237351542600663379 77:0.033282999 2988:0.033282999 #
40.117761595540237351542600663379 1780:0.043331999 4237:0.043331999 #
-40.117761595540237351542600663379 618:0.096032001 3850:0.096032001 #
40.117761595540237351542600663379 602:0.049005002 2959:0.049005002 #
40.117761595540237351542600663379 1432:0.0098069999 2600:0.0098069999 4274:0.0098069999 #
40.117761595540237351542600663379 558:0.057868998 3437:0.057868998 4267:0.057868998 #
-40.117761595540237351542600663379 1601:0.031745002 2184:0.031745002 #
40.117761595540237351542600663379 1735:0.18765201 3437:0.18765201 #
40.117761595540237351542600663379 88:0.091874003 3705:0.091874003 #
-40.117761595540237351542600663379 1587:0.047086999 4227:0.047086999 #
40.117761595540237351542600663379 1482:0.081878997 4216:0.081878997 #
20.764350465059365546949265990406 784:0.089276001 3955:0.089276001 #
-40.117761595540237351542600663379 1425:0.072447002 2140:0.072447002 #
40.117761595540237351542600663379 1532:0.132541 3437:0.132541 #
1.2687618047288604650191246037139 1425:0.123466 2788:0.123466 #
40.117761595540237351542600663379 1425:0.085395999 3598:0.085395999 #
-40.117761595540237351542600663379 621:0.196264 3598:0.196264 #
40.117761595540237351542600663379 120:0.030007999 3122:0.030007999 4266:0.030007999 #
15.091049135129939173793900408782 412:0.061849002 2140:0.061849002 #
40.117761595540237351542600663379 606:0.068994001 2184:0.068994001 #
-40.117761595540237351542600663379 1184:0.060648002 2489:0.060648002 #
-40.117761595540237351542600663379 1707:0.141231 3139:0.141231 #
40.117761595540237351542600663379 1735:0.16411901 3437:0.16411901 #
3.6881766816122216745554851513589 1514:0.041056 2732:0.041056 4267:0.041056 #
-40.117761595540237351542600663379 647:0.18371899 2600:0.18371899 #
40.117761595540237351542600663379 944:0.072559997 3282:0.072559997 4266:0.072559997 #
40.117761595540237351542600663379 944:0.052912001 3122:0.052912001 4266:0.052912001 #
40.117761595540237351542600663379 647:0.048446 2600:0.048446 #
-1.387719459904352969914498316939 1523:0.52413398 2600:0.52413398 4275:0.52413398 #
-40.117761595540237351542600663379 1427:0.060015999 3095:0.060015999 #
40.117761595540237351542600663379 1507:0.103963 3282:0.103963 4276:0.103963 #
40.117761595540237351542600663379 53:0.105569 4023:0.105569 #
40.117761595540237351542600663379 1899:0.028917 1957:0.028917 #
-40.117761595540237351542600663379 436:0.038995001 3409:0.038995001 #
40.117761595540237351542600663379 168:0.052545998 3282:0.052545998 4262:0.052545998 #
-40.117761595540237351542600663379 1420:0.151162 3850:0.151162 4274:0.151162 #
40.117761595540237351542600663379 579:0.083414003 4023:0.083414003 #
40.117761595540237351542600663379 1590:0.030015999 3122:0.030015999 4272:0.030015999 #
40.117761595540237351542600663379 1744:0.01612 3055:0.01612 #
13.814786905973834407745926000644 4:0.075788997 2600:0.075788997 #
40.117761595540237351542600663379 1159:0.072379 2600:0.072379 #
-40.117761595540237351542600663379 102:0.040957998 3409:0.040957998 #
-40.117761595540237351542600663379 1427:0.048014998 2160:0.048014998 #
-40.117761595540237351542600663379 48:0.051467001 1957:0.051467001 #
-40.117761595540237351542600663379 1427:0.039074998 2288:0.039074998 #
-40.117761595540237351542600663379 1629:0.061951999 2176:0.061951999 4273:0.061951999 #
-40.117761595540237351542600663379 1056:0.35553101 2510:0.35553101 #
-40.117761595540237351542600663379 1165:0.12853301 3257:0.12853301 #
-40.117761595540237351542600663379 1868:0.184999 2176:0.184999 #
-40.117761595540237351542600663379 34:0.059905998 3549:0.059905998 #
-40.117761595540237351542600663379 1501:0.076472998 2600:0.076472998 #
-40.117761595540237351542600663379 1743:0.068374999 3257:0.068374999 #
-40.117761595540237351542600663379 337:0.112131 2184:0.112131 4266:0.112131 #
-40.117761595540237351542600663379 14:0.067226999 2140:0.067226999 #
-40.117761595540237351542600663379 322:0.067740999 2600:0.067740999 #
-40.117761595540237351542600663379 767:0.069770001 2600:0.069770001 #
-40.117761595540237351542600663379 258:0.107678 2176:0.107678 #
40.117761595540237351542600663379 1252:0.229847 3850:0.229847 #
-40.117761595540237351542600663379 1009:0.035420001 3257:0.035420001 #
-40.117761595540237351542600663379 1887:0.043308001 3122:0.043308001 #
-40.117761595540237351542600663379 1425:0.046946999 2133:0.046946999 #
-12.442612598401332490993809187785 1368:0.426929 3282:0.426929 #
40.117761595540237351542600663379 835:0.013907 2959:0.013907 4265:0.013907 #
40.117761595540237351542600663379 901:0.0068580001 2959:0.0068580001 #
19.883741106551820365666571888141 251:0.276034 3907:0.276034 #
40.117761595540237351542600663379 1432:0.045343999 2133:0.045343999 #
-40.117761595540237351542600663379 1455:0.064071998 3139:0.064071998 #
-12.221788909650596721689908008557 1874:0.42520899 2796:0.42520899 #
40.117761595540237351542600663379 1056:0.079241998 2184:0.079241998 4266:0.079241998 #
-40.117761595540237351542600663379 1663:0.16150799 3666:0.16150799 #
-7.6736394234103828537740810133982 1885:0.36437601 2740:0.36437601 #
-13.076384278768159674655180424452 353:0.36142501 3282:0.36142501 #
-40.117761595540237351542600663379 75:0.030328 2140:0.030328 #
33.893845205392999275773036060855 1017:0.47603199 2184:0.47603199 4276:0.47603199 #
-40.117761595540237351542600663379 589:0.059751 2943:0.059751 4273:0.059751 #
40.117761595540237351542600663379 1616:0.0041479999 2600:0.0041479999 4260:0.0041479999 #
-40.117761595540237351542600663379 1104:0.03277 2988:0.03277 #
-7.3076074906235319872394029516727 1509:0.65936297 3282:0.65936297 #
40.117761595540237351542600663379 1893:0.28143099 3850:0.28143099 #
31.828826533241940666130176396109 1557:0.25267899 2749:0.25267899 #
