SVM-light Version V6.02
0 # kernel type
3 # kernel parameter -d 
1 # kernel parameter -g 
1 # kernel parameter -s 
1 # kernel parameter -r 
empty# kernel parameter -u 
5608 # highest feature index 
13516 # number of training documents 
3205 # number of support vectors plus 1 
1.0094358 # threshold b, each following line is a SV (starting with alpha*y)
-6.9434898240632758614765407401137 1765:0.002138 5180:0.002138 5589:0.002138 5599:0.002138 5601:0.002138 #
-6.9434898240632758614765407401137 128:0.0053079999 2385:0.0053079999 5589:0.0053079999 5590:0.0053079999 5592:0.0053079999 5593:0.0053079999 5594:0.0053079999 5595:0.0053079999 5596:0.0053079999 5597:0.0053079999 5598:0.0053079999 5599:0.0053079999 5600:0.0053079999 5601:0.0053079999 5603:0.0053079999 5604:0.0053079999 5605:0.0053079999 5606:0.0053079999 5607:0.0053079999 #
-6.9434898240632758614765407401137 399:1.278632 2385:1.278632 5589:1.278632 5590:1.278632 5592:1.278632 5593:1.278632 5594:1.278632 5595:1.278632 5596:1.278632 5597:1.278632 5598:1.278632 5599:1.278632 5600:1.278632 5601:1.278632 5603:1.278632 5604:1.278632 5605:1.278632 5606:1.278632 5607:1.278632 #
6.9434898240632758614765407401137 862:0.010961 2501:0.010961 #
-6.9434898240632758614765407401137 880:0.19684599 3058:0.19684599 5570:0.19684599 5589:0.19684599 5597:0.19684599 #
6.9434898240632758614765407401137 1088:0.29097199 2878:0.29097199 5589:0.29097199 5591:0.29097199 5594:0.29097199 5597:0.29097199 5603:0.29097199 5604:0.29097199 #
-6.9434898240632758614765407401137 35:1.229146 2385:1.229146 5583:1.229146 5586:1.229146 5589:1.229146 5590:1.229146 5592:1.229146 5593:1.229146 5594:1.229146 5595:1.229146 5596:1.229146 5597:1.229146 5598:1.229146 5599:1.229146 5600:1.229146 5601:1.229146 5603:1.229146 5604:1.229146 5605:1.229146 5606:1.229146 5607:1.229146 #
6.9434898240632758614765407401137 399:0.856107 3182:0.856107 5597:0.856107 5600:0.856107 5605:0.856107 5608:0.856107 #
-6.9434898240632758614765407401137 1644:0.0019779999 4081:0.0019779999 5606:0.0019779999 #
-6.9434898240632758614765407401137 434:1.121956 2385:1.121956 5575:1.121956 5584:1.121956 5589:1.121956 5590:1.121956 5592:1.121956 5593:1.121956 5594:1.121956 5595:1.121956 5596:1.121956 5597:1.121956 5598:1.121956 5599:1.121956 5600:1.121956 5601:1.121956 5603:1.121956 5604:1.121956 5605:1.121956 5606:1.121956 5607:1.121956 #
6.9434898240632758614765407401137 550:0.192608 2385:0.192608 5576:0.192608 5589:0.192608 5590:0.192608 5592:0.192608 5593:0.192608 5594:0.192608 5595:0.192608 5596:0.192608 5597:0.192608 5598:0.192608 5599:0.192608 5600:0.192608 5601:0.192608 5603:0.192608 5604:0.192608 5605:0.192608 5606:0.192608 5607:0.192608 #
-3.0084192557178734972467282204889 65:1.542136 3048:1.542136 5572:1.542136 5589:1.542136 5597:1.542136 5601:1.542136 5604:1.542136 #
-5.4033878033137749952174999634735 1810:0.026963999 2751:0.026963999 #
-2.5772178912927778959840452444041 158:0.075254999 3512:0.075254999 5603:0.075254999 #
-6.9434898240632758614765407401137 75:0.011839 4504:0.011839 5580:0.011839 5589:0.011839 5593:0.011839 5596:0.011839 5599:0.011839 5600:0.011839 #
-6.9434898240632758614765407401137 307:1.083871 2385:1.083871 5580:1.083871 5589:1.083871 5590:1.083871 5592:1.083871 5593:1.083871 5594:1.083871 5595:1.083871 5596:1.083871 5597:1.083871 5598:1.083871 5599:1.083871 5600:1.083871 5601:1.083871 5603:1.083871 5604:1.083871 5605:1.083871 5606:1.083871 5607:1.083871 #
-2.1320471708450252634747812408023 1372:0.43526301 4545:0.43526301 5570:0.43526301 5576:0.43526301 5585:0.43526301 5590:0.43526301 5601:0.43526301 #
-6.9434898240632758614765407401137 1363:0.087854996 3058:0.087854996 5574:0.087854996 5582:0.087854996 5589:0.087854996 5597:0.087854996 #
6.9434898240632758614765407401137 35:0.23425101 2339:0.23425101 5583:0.23425101 5586:0.23425101 5603:0.23425101 #
6.9434898240632758614765407401137 307:0.203602 4545:0.203602 5580:0.203602 5590:0.203602 5601:0.203602 #
-6.9434898240632758614765407401137 772:0.013215 2402:0.013215 5581:0.013215 5594:0.013215 5595:0.013215 5597:0.013215 5602:0.013215 #
6.9434898240632758614765407401137 1088:0.209857 4099:0.209857 #
6.9434898240632758614765407401137 728:0.226706 3904:0.226706 5571:0.226706 5595:0.226706 5597:0.226706 5599:0.226706 #
6.9434898240632758614765407401137 434:0.252029 1851:0.252029 5575:0.252029 5584:0.252029 #
-6.9434898240632758614765407401137 1516:0.34139901 2878:0.34139901 5569:0.34139901 5589:0.34139901 5591:0.34139901 5594:0.34139901 5597:0.34139901 5603:0.34139901 5604:0.34139901 #
-6.9434898240632758614765407401137 1372:0.74977797 3058:0.74977797 5570:0.74977797 5576:0.74977797 5585:0.74977797 5589:0.74977797 5597:0.74977797 #
-6.9434898240632758614765407401137 1136:0.341479 3058:0.341479 5575:0.341479 5589:0.341479 5597:0.341479 #
3.4477297705942473449169938248815 147:0.52519298 4676:0.52519298 #
-6.9434898240632758614765407401137 526:0.023840001 2385:0.023840001 5587:0.023840001 5589:0.023840001 5590:0.023840001 5592:0.023840001 5593:0.023840001 5594:0.023840001 5595:0.023840001 5596:0.023840001 5597:0.023840001 5598:0.023840001 5599:0.023840001 5600:0.023840001 5601:0.023840001 5603:0.023840001 5604:0.023840001 5605:0.023840001 5606:0.023840001 5607:0.023840001 #
-6.9434898240632758614765407401137 1372:0.015443 4081:0.015443 5570:0.015443 5576:0.015443 5585:0.015443 5606:0.015443 #
6.9434898240632758614765407401137 878:0.69905603 1854:0.69905603 5572:0.69905603 5589:0.69905603 5598:0.69905603 #
5.7603991112975094779358187224716 1638:0.513515 3058:0.513515 5589:0.513515 5597:0.513515 #
6.9434898240632758614765407401137 99:0.66131401 3448:0.66131401 5599:0.66131401 #
6.9434898240632758614765407401137 1179:0.57919902 3448:0.57919902 5569:0.57919902 5599:0.57919902 #
6.9434898240632758614765407401137 880:0.103362 2912:0.103362 5570:0.103362 #
6.9434898240632758614765407401137 1326:0.068930998 2402:0.068930998 5568:0.068930998 5581:0.068930998 5594:0.068930998 5595:0.068930998 5597:0.068930998 5602:0.068930998 #
6.9434898240632758614765407401137 390:0.279717 4686:0.279717 5568:0.279717 5592:0.279717 #
6.9434898240632758614765407401137 550:0.173246 2385:0.173246 5576:0.173246 5589:0.173246 5590:0.173246 5592:0.173246 5593:0.173246 5594:0.173246 5595:0.173246 5596:0.173246 5597:0.173246 5598:0.173246 5599:0.173246 5600:0.173246 5601:0.173246 5603:0.173246 5604:0.173246 5605:0.173246 5606:0.173246 5607:0.173246 #
-6.9434898240632758614765407401137 1088:0.33395201 3058:0.33395201 5589:0.33395201 5597:0.33395201 #
6.9434898240632758614765407401137 1326:0.146826 2385:0.146826 5568:0.146826 5581:0.146826 5589:0.146826 5590:0.146826 5592:0.146826 5593:0.146826 5594:0.146826 5595:0.146826 5596:0.146826 5597:0.146826 5598:0.146826 5599:0.146826 5600:0.146826 5601:0.146826 5603:0.146826 5604:0.146826 5605:0.146826 5606:0.146826 5607:0.146826 #
6.9434898240632758614765407401137 1372:0.54788703 3488:0.54788703 5570:0.54788703 5576:0.54788703 5585:0.54788703 #
-0.50409945975440462184735679329606 787:1.030031 3578:1.030031 5587:1.030031 5608:1.030031 #
6.9434898240632758614765407401137 570:0.093571 2385:0.093571 5589:0.093571 5590:0.093571 5592:0.093571 5593:0.093571 5594:0.093571 5595:0.093571 5596:0.093571 5597:0.093571 5598:0.093571 5599:0.093571 5600:0.093571 5601:0.093571 5603:0.093571 5604:0.093571 5605:0.093571 5606:0.093571 5607:0.093571 #
-6.9434898240632758614765407401137 1084:0.168312 2402:0.168312 5573:0.168312 5594:0.168312 5595:0.168312 5597:0.168312 5602:0.168312 #
-6.9434898240632758614765407401137 977:0.013833 1851:0.013833 5568:0.013833 5587:0.013833 #
-0.0045209563991166403645882709838588 1473:0.15717299 2277:0.15717299 #
-2.0246900090297210716983045131201 252:0.22201499 3391:0.22201499 #
6.9434898240632758614765407401137 1612:0.103748 5329:0.103748 5568:0.103748 #
6.9434898240632758614765407401137 550:0.36391199 3048:0.36391199 5576:0.36391199 5589:0.36391199 5597:0.36391199 5601:0.36391199 5604:0.36391199 #
6.9434898240632758614765407401137 550:0.230184 3842:0.230184 5576:0.230184 #
6.9434898240632758614765407401137 1363:0.571459 1854:0.571459 5574:0.571459 5582:0.571459 5589:0.571459 5598:0.571459 #
-6.9434898240632758614765407401137 8:0.191608 3058:0.191608 5571:0.191608 5589:0.191608 5597:0.191608 #
6.9434898240632758614765407401137 1372:0.186277 4081:0.186277 5570:0.186277 5576:0.186277 5585:0.186277 5606:0.186277 #
6.9434898240632758614765407401137 1087:0.30579501 1854:0.30579501 5571:0.30579501 5589:0.30579501 5598:0.30579501 #
6.9434898240632758614765407401137 1686:0.35332301 1854:0.35332301 5577:0.35332301 5589:0.35332301 5598:0.35332301 #
6.9434898240632758614765407401137 1237:0.354752 4533:0.354752 5578:0.354752 5583:0.354752 5597:0.354752 5598:0.354752 5604:0.354752 #
6.9434898240632758614765407401137 1372:0.25114101 4150:0.25114101 5570:0.25114101 5576:0.25114101 5585:0.25114101 5590:0.25114101 5597:0.25114101 5599:0.25114101 5607:0.25114101 #
2.5440852643809348521131141751539 465:0.18819299 2385:0.18819299 5589:0.18819299 5590:0.18819299 5592:0.18819299 5593:0.18819299 5594:0.18819299 5595:0.18819299 5596:0.18819299 5597:0.18819299 5598:0.18819299 5599:0.18819299 5600:0.18819299 5601:0.18819299 5603:0.18819299 5604:0.18819299 5605:0.18819299 5606:0.18819299 5607:0.18819299 #
-3.428822881079124584857709123753 1258:0.11915 3367:0.11915 5575:0.11915 5583:0.11915 #
6.9434898240632758614765407401137 390:0.117192 2878:0.117192 5568:0.117192 5589:0.117192 5591:0.117192 5594:0.117192 5597:0.117192 5603:0.117192 5604:0.117192 #
6.9434898240632758614765407401137 1088:0.37657899 4488:0.37657899 #
6.9434898240632758614765407401137 1372:0.50130802 2320:0.50130802 5570:0.50130802 5576:0.50130802 5585:0.50130802 5606:0.50130802 #
6.9434898240632758614765407401137 1372:0.283252 3058:0.283252 5570:0.283252 5576:0.283252 5585:0.283252 5589:0.283252 5597:0.283252 #
-6.9434898240632758614765407401137 486:0.010425 2385:0.010425 5585:0.010425 5589:0.010425 5590:0.010425 5592:0.010425 5593:0.010425 5594:0.010425 5595:0.010425 5596:0.010425 5597:0.010425 5598:0.010425 5599:0.010425 5600:0.010425 5601:0.010425 5603:0.010425 5604:0.010425 5605:0.010425 5606:0.010425 5607:0.010425 #
6.9434898240632758614765407401137 977:0.26669401 2548:0.26669401 5568:0.26669401 5587:0.26669401 5596:0.26669401 #
-5.6443420336032570361339821829461 1115:0.60601997 3058:0.60601997 5589:0.60601997 5597:0.60601997 #
6.9434898240632758614765407401137 1396:0.52843499 5089:0.52843499 5598:0.52843499 #
2.0718161192359980660171459021512 1258:0.65099698 2548:0.65099698 5575:0.65099698 5583:0.65099698 5596:0.65099698 #
6.4890837227322712976729235379025 1136:0.680861 2168:0.680861 5575:0.680861 #
6.9434898240632758614765407401137 390:0.85943401 3878:0.85943401 5568:0.85943401 5590:0.85943401 5591:0.85943401 5592:0.85943401 5594:0.85943401 5597:0.85943401 5598:0.85943401 5599:0.85943401 5600:0.85943401 5605:0.85943401 5607:0.85943401 5608:0.85943401 #
6.9434898240632758614765407401137 1136:0.41864401 4504:0.41864401 5575:0.41864401 5589:0.41864401 5593:0.41864401 5596:0.41864401 5599:0.41864401 5600:0.41864401 #
6.9434898240632758614765407401137 390:0.124885 3454:0.124885 5568:0.124885 #
-6.9434898240632758614765407401137 540:0.071338996 3232:0.071338996 5577:0.071338996 5593:0.071338996 #
-6.9434898240632758614765407401137 1393:0.092124999 3058:0.092124999 5589:0.092124999 5597:0.092124999 #
-6.9434898240632758614765407401137 927:0.077767 3058:0.077767 5579:0.077767 5589:0.077767 5597:0.077767 #
-6.9434898240632758614765407401137 252:0.080050997 4691:0.080050997 5597:0.080050997 #
6.9434898240632758614765407401137 103:0.018252 3058:0.018252 5589:0.018252 5597:0.018252 #
6.9434898240632758614765407401137 1365:0.302964 3058:0.302964 5576:0.302964 5589:0.302964 5597:0.302964 #
-0.74354073990042768294017605512636 1583:0.075122997 3397:0.075122997 5593:0.075122997 5604:0.075122997 5608:0.075122997 #
-4.1546982364459941194922976137605 252:0.023099 5309:0.023099 #
-0.82883915458761503458617880824022 1612:0.85900998 4381:0.85900998 5568:0.85900998 #
6.9434898240632758614765407401137 704:0.350122 4881:0.350122 5572:0.350122 #
-6.9434898240632758614765407401137 704:0.127362 3397:0.127362 5572:0.127362 5593:0.127362 5604:0.127362 5608:0.127362 #
6.9434898240632758614765407401137 1234:0.272091 3058:0.272091 5568:0.272091 5581:0.272091 5589:0.272091 5597:0.272091 #
6.9434898240632758614765407401137 439:0.081336997 3694:0.081336997 5571:0.081336997 5586:0.081336997 5605:0.081336997 #
6.9434898240632758614765407401137 880:0.34665999 3553:0.34665999 5570:0.34665999 #
6.9434898240632758614765407401137 1045:0.168414 3448:0.168414 5586:0.168414 5599:0.168414 #
6.9434898240632758614765407401137 1011:0.22906099 1854:0.22906099 5589:0.22906099 5598:0.22906099 #
-6.9434898240632758614765407401137 977:0.055734001 3058:0.055734001 5568:0.055734001 5587:0.055734001 5589:0.055734001 5597:0.055734001 #
-2.7703338879745760259254439006327 540:0.023641 3481:0.023641 5577:0.023641 #
-0.94540639593077280267152673332021 1326:0.119074 2206:0.119074 5568:0.119074 5581:0.119074 #
6.9434898240632758614765407401137 704:0.34742901 4528:0.34742901 5572:0.34742901 #
6.9434898240632758614765407401137 1088:0.23725399 3058:0.23725399 5589:0.23725399 5597:0.23725399 #
-1.0387760725947106088540294877021 704:0.18677101 2932:0.18677101 5572:0.18677101 #
-6.2554282720008886897744559973944 880:0.057255 5127:0.057255 5570:0.057255 #
6.9434898240632758614765407401137 35:0.084977999 3058:0.084977999 5583:0.084977999 5586:0.084977999 5589:0.084977999 5597:0.084977999 #
6.9434898240632758614765407401137 880:0.230883 1851:0.230883 5570:0.230883 #
6.9434898240632758614765407401137 603:0.21133301 2750:0.21133301 5569:0.21133301 5572:0.21133301 #
6.9434898240632758614765407401137 1214:0.087800004 4593:0.087800004 5572:0.087800004 #
6.9434898240632758614765407401137 374:0.57033402 4504:0.57033402 5589:0.57033402 5593:0.57033402 5596:0.57033402 5599:0.57033402 5600:0.57033402 #
2.9034579027305822407356572512072 1275:0.18707 2385:0.18707 5589:0.18707 5590:0.18707 5592:0.18707 5593:0.18707 5594:0.18707 5595:0.18707 5596:0.18707 5597:0.18707 5598:0.18707 5599:0.18707 5600:0.18707 5601:0.18707 5603:0.18707 5604:0.18707 5605:0.18707 5606:0.18707 5607:0.18707 #
-6.9434898240632758614765407401137 1675:0.032249998 2036:0.032249998 5594:0.032249998 #
-0.95022748768702036681332856460358 862:0.15208299 4499:0.15208299 #
6.9434898240632758614765407401137 65:0.024377 2385:0.024377 5572:0.024377 5589:0.024377 5590:0.024377 5592:0.024377 5593:0.024377 5594:0.024377 5595:0.024377 5596:0.024377 5597:0.024377 5598:0.024377 5599:0.024377 5600:0.024377 5601:0.024377 5603:0.024377 5604:0.024377 5605:0.024377 5606:0.024377 5607:0.024377 #
6.9434898240632758614765407401137 550:0.13367499 2584:0.13367499 5576:0.13367499 #
-6.9434898240632758614765407401137 168:0.068155997 4686:0.068155997 5579:0.068155997 5592:0.068155997 #
-6.9434898240632758614765407401137 835:0.014891 1851:0.014891 #
-6.9434898240632758614765407401137 1234:0.73744899 2878:0.73744899 5568:0.73744899 5581:0.73744899 5589:0.73744899 5591:0.73744899 5594:0.73744899 5597:0.73744899 5603:0.73744899 5604:0.73744899 #
-5.8984113576583858673529903171584 1363:1.433677 1854:1.433677 5574:1.433677 5582:1.433677 5589:1.433677 5598:1.433677 #
6.9434898240632758614765407401137 434:0.064076997 2878:0.064076997 5575:0.064076997 5584:0.064076997 5589:0.064076997 5591:0.064076997 5594:0.064076997 5597:0.064076997 5603:0.064076997 5604:0.064076997 #
-1.9909121392837811903575584437931 165:0.62463301 2320:0.62463301 5571:0.62463301 5606:0.62463301 #
6.9434898240632758614765407401137 152:0.080757998 3058:0.080757998 5589:0.080757998 5597:0.080757998 #
6.9434898240632758614765407401137 927:0.134965 2402:0.134965 5579:0.134965 5594:0.134965 5595:0.134965 5597:0.134965 5602:0.134965 #
-6.9434898240632758614765407401137 1717:0.0071780002 1851:0.0071780002 #
6.9434898240632758614765407401137 2:0.064880997 3058:0.064880997 5589:0.064880997 5597:0.064880997 #
-6.9434898240632758614765407401137 139:0.97369802 2385:0.97369802 5578:0.97369802 5589:0.97369802 5590:0.97369802 5592:0.97369802 5593:0.97369802 5594:0.97369802 5595:0.97369802 5596:0.97369802 5597:0.97369802 5598:0.97369802 5599:0.97369802 5600:0.97369802 5601:0.97369802 5603:0.97369802 5604:0.97369802 5605:0.97369802 5606:0.97369802 5607:0.97369802 #
-6.9434898240632758614765407401137 1136:0.954382 4504:0.954382 5575:0.954382 5589:0.954382 5593:0.954382 5596:0.954382 5599:0.954382 5600:0.954382 #
6.9434898240632758614765407401137 1432:0.091231003 5511:0.091231003 #
-6.9434898240632758614765407401137 1258:0.70277101 4504:0.70277101 5575:0.70277101 5583:0.70277101 5589:0.70277101 5593:0.70277101 5596:0.70277101 5599:0.70277101 5600:0.70277101 #
-6.9434898240632758614765407401137 99:0.92690802 2385:0.92690802 5589:0.92690802 5590:0.92690802 5592:0.92690802 5593:0.92690802 5594:0.92690802 5595:0.92690802 5596:0.92690802 5597:0.92690802 5598:0.92690802 5599:0.92690802 5600:0.92690802 5601:0.92690802 5603:0.92690802 5604:0.92690802 5605:0.92690802 5606:0.92690802 5607:0.92690802 #
-6.9434898240632758614765407401137 1237:0.54838699 2385:0.54838699 5578:0.54838699 5583:0.54838699 5589:0.54838699 5590:0.54838699 5592:0.54838699 5593:0.54838699 5594:0.54838699 5595:0.54838699 5596:0.54838699 5597:0.54838699 5598:0.54838699 5599:0.54838699 5600:0.54838699 5601:0.54838699 5603:0.54838699 5604:0.54838699 5605:0.54838699 5606:0.54838699 5607:0.54838699 #
6.9434898240632758614765407401137 1372:0.28236899 3058:0.28236899 5570:0.28236899 5576:0.28236899 5585:0.28236899 5589:0.28236899 5597:0.28236899 #
-6.9434898240632758614765407401137 550:0.97781402 3048:0.97781402 5576:0.97781402 5589:0.97781402 5597:0.97781402 5601:0.97781402 5604:0.97781402 #
-0.41917720713558875855753171890683 240:0.76145202 2339:0.76145202 5603:0.76145202 #
-6.9434898240632758614765407401137 712:0.75772703 2385:0.75772703 5571:0.75772703 5589:0.75772703 5590:0.75772703 5592:0.75772703 5593:0.75772703 5594:0.75772703 5595:0.75772703 5596:0.75772703 5597:0.75772703 5598:0.75772703 5599:0.75772703 5600:0.75772703 5601:0.75772703 5603:0.75772703 5604:0.75772703 5605:0.75772703 5606:0.75772703 5607:0.75772703 #
6.9434898240632758614765407401137 1198:0.080852002 2385:0.080852002 5582:0.080852002 5589:0.080852002 5590:0.080852002 5592:0.080852002 5593:0.080852002 5594:0.080852002 5595:0.080852002 5596:0.080852002 5597:0.080852002 5598:0.080852002 5599:0.080852002 5600:0.080852002 5601:0.080852002 5603:0.080852002 5604:0.080852002 5605:0.080852002 5606:0.080852002 5607:0.080852002 #
-6.9434898240632758614765407401137 1045:1.07961 2385:1.07961 5586:1.07961 5589:1.07961 5590:1.07961 5592:1.07961 5593:1.07961 5594:1.07961 5595:1.07961 5596:1.07961 5597:1.07961 5598:1.07961 5599:1.07961 5600:1.07961 5601:1.07961 5603:1.07961 5604:1.07961 5605:1.07961 5606:1.07961 5607:1.07961 #
-1.1111013720335032317620971298311 878:0.57828403 4972:0.57828403 5572:0.57828403 #
-6.9434898240632758614765407401137 1084:0.68604201 2402:0.68604201 5573:0.68604201 5594:0.68604201 5595:0.68604201 5597:0.68604201 5602:0.68604201 #
-3.2860175654533652078725936007686 1638:0.607072 2372:0.607072 #
-0.8894425685744823395495473050687 1087:0.52205801 3317:0.52205801 5571:0.52205801 #
-6.9434898240632758614765407401137 1363:0.020729 4504:0.020729 5574:0.020729 5582:0.020729 5589:0.020729 5593:0.020729 5596:0.020729 5599:0.020729 5600:0.020729 #
6.9434898240632758614765407401137 439:0.086603999 4969:0.086603999 5571:0.086603999 5586:0.086603999 #
-6.9434898240632758614765407401137 434:0.078162998 4081:0.078162998 5575:0.078162998 5584:0.078162998 5606:0.078162998 #
6.9434898240632758614765407401137 1011:0.054308999 3397:0.054308999 5593:0.054308999 5604:0.054308999 5608:0.054308999 #
6.9434898240632758614765407401137 1268:0.043715 3232:0.043715 5571:0.043715 5593:0.043715 #
-6.9434898240632758614765407401137 1396:0.83657902 4504:0.83657902 5589:0.83657902 5593:0.83657902 5596:0.83657902 5599:0.83657902 5600:0.83657902 #
-4.8215588423519273320039246755186 80:0.29228199 1851:0.29228199 #
6.9434898240632758614765407401137 977:0.095207997 4878:0.095207997 5568:0.095207997 5587:0.095207997 5592:0.095207997 #
-6.9434898240632758614765407401137 2:0.86757898 3048:0.86757898 5589:0.86757898 5597:0.86757898 5601:0.86757898 5604:0.86757898 #
-0.29536040916052613836129125957086 1632:0.31612 4457:0.31612 5583:0.31612 5586:0.31612 #
6.9434898240632758614765407401137 1693:0.014905 3048:0.014905 5589:0.014905 5597:0.014905 5601:0.014905 5604:0.014905 #
-6.9434898240632758614765407401137 1706:0.0071169999 4504:0.0071169999 5589:0.0071169999 5593:0.0071169999 5596:0.0071169999 5599:0.0071169999 5600:0.0071169999 #
-6.9434898240632758614765407401137 1629:0.004644 4834:0.004644 5596:0.004644 5600:0.004644 5601:0.004644 5603:0.004644 #
6.9434898240632758614765407401137 1198:0.70623702 4545:0.70623702 5582:0.70623702 5590:0.70623702 5601:0.70623702 #
4.1692820743138963024421173031442 1553:0.78557497 4150:0.78557497 5590:0.78557497 5597:0.78557497 5599:0.78557497 5607:0.78557497 #
-6.9434898240632758614765407401137 1671:0.057633001 2385:0.057633001 5569:0.057633001 5589:0.057633001 5590:0.057633001 5592:0.057633001 5593:0.057633001 5594:0.057633001 5595:0.057633001 5596:0.057633001 5597:0.057633001 5598:0.057633001 5599:0.057633001 5600:0.057633001 5601:0.057633001 5603:0.057633001 5604:0.057633001 5605:0.057633001 5606:0.057633001 5607:0.057633001 #
-6.9434898240632758614765407401137 1372:0.59490597 3058:0.59490597 5570:0.59490597 5576:0.59490597 5585:0.59490597 5589:0.59490597 5597:0.59490597 #
-6.9434898240632758614765407401137 1269:0.021724001 4834:0.021724001 5596:0.021724001 5600:0.021724001 5601:0.021724001 5603:0.021724001 #
-6.9434898240632758614765407401137 810:0.036437999 1928:0.036437999 #
-0.54844315964475887081874816431082 1699:0.25550899 1852:0.25550899 #
6.2952681360462827697688226180617 1136:0.56463999 2416:0.56463999 5575:0.56463999 #
-0.15521202230342745487234878964955 407:0.051513001 4823:0.051513001 5576:0.051513001 #
-6.9434898240632758614765407401137 130:0.044194002 2385:0.044194002 5575:0.044194002 5589:0.044194002 5590:0.044194002 5592:0.044194002 5593:0.044194002 5594:0.044194002 5595:0.044194002 5596:0.044194002 5597:0.044194002 5598:0.044194002 5599:0.044194002 5600:0.044194002 5601:0.044194002 5603:0.044194002 5604:0.044194002 5605:0.044194002 5606:0.044194002 5607:0.044194002 #
6.9434898240632758614765407401137 1182:0.390057 2878:0.390057 5589:0.390057 5591:0.390057 5594:0.390057 5597:0.390057 5603:0.390057 5604:0.390057 #
-1.5043118127942551875975141228992 1845:0.23562001 3404:0.23562001 #
6.9434898240632758614765407401137 390:0.095976003 2385:0.095976003 5568:0.095976003 5589:0.095976003 5590:0.095976003 5592:0.095976003 5593:0.095976003 5594:0.095976003 5595:0.095976003 5596:0.095976003 5597:0.095976003 5598:0.095976003 5599:0.095976003 5600:0.095976003 5601:0.095976003 5603:0.095976003 5604:0.095976003 5605:0.095976003 5606:0.095976003 5607:0.095976003 #
6.9434898240632758614765407401137 249:0.23180901 2960:0.23180901 5580:0.23180901 #
-6.9434898240632758614765407401137 1372:0.033574 2878:0.033574 5570:0.033574 5576:0.033574 5585:0.033574 5589:0.033574 5591:0.033574 5594:0.033574 5597:0.033574 5603:0.033574 5604:0.033574 #
-3.4774664495694169730199973855633 302:0.117806 2633:0.117806 5582:0.117806 #
6.9434898240632758614765407401137 1179:0.112081 2385:0.112081 5569:0.112081 5589:0.112081 5590:0.112081 5592:0.112081 5593:0.112081 5594:0.112081 5595:0.112081 5596:0.112081 5597:0.112081 5598:0.112081 5599:0.112081 5600:0.112081 5601:0.112081 5603:0.112081 5604:0.112081 5605:0.112081 5606:0.112081 5607:0.112081 #
-6.9434898240632758614765407401137 390:0.22838201 2878:0.22838201 5568:0.22838201 5589:0.22838201 5591:0.22838201 5594:0.22838201 5597:0.22838201 5603:0.22838201 5604:0.22838201 #
-6.9434898240632758614765407401137 550:0.766478 2385:0.766478 5576:0.766478 5589:0.766478 5590:0.766478 5592:0.766478 5593:0.766478 5594:0.766478 5595:0.766478 5596:0.766478 5597:0.766478 5598:0.766478 5599:0.766478 5600:0.766478 5601:0.766478 5603:0.766478 5604:0.766478 5605:0.766478 5606:0.766478 5607:0.766478 #
6.9434898240632758614765407401137 1623:0.25916299 4834:0.25916299 5582:0.25916299 5596:0.25916299 5600:0.25916299 5601:0.25916299 5603:0.25916299 #
6.9434898240632758614765407401137 99:0.66283298 2878:0.66283298 5589:0.66283298 5591:0.66283298 5594:0.66283298 5597:0.66283298 5603:0.66283298 5604:0.66283298 #
6.9434898240632758614765407401137 1237:0.42232299 5375:0.42232299 5578:0.42232299 5583:0.42232299 #
6.9434898240632758614765407401137 1258:0.78027898 4504:0.78027898 5575:0.78027898 5583:0.78027898 5589:0.78027898 5593:0.78027898 5596:0.78027898 5599:0.78027898 5600:0.78027898 #
-6.9434898240632758614765407401137 1656:0.095044002 3397:0.095044002 5593:0.095044002 5604:0.095044002 5608:0.095044002 #
6.9434898240632758614765407401137 139:0.55262703 2673:0.55262703 5578:0.55262703 #
6.9434898240632758614765407401137 445:0.213827 2372:0.213827 #
-6.9434898240632758614765407401137 1258:0.0059520002 2168:0.0059520002 5575:0.0059520002 5583:0.0059520002 #
6.9434898240632758614765407401137 1396:0.56761903 3397:0.56761903 5593:0.56761903 5604:0.56761903 5608:0.56761903 #
6.9434898240632758614765407401137 672:0.084619999 3058:0.084619999 5576:0.084619999 5589:0.084619999 5597:0.084619999 #
6.9434898240632758614765407401137 1088:0.73672599 2878:0.73672599 5589:0.73672599 5591:0.73672599 5594:0.73672599 5597:0.73672599 5603:0.73672599 5604:0.73672599 #
5.1294489165619907566906476859003 1146:0.63629299 4747:0.63629299 5578:0.63629299 #
6.9434898240632758614765407401137 805:0.48971301 2070:0.48971301 5573:0.48971301 5589:0.48971301 5592:0.48971301 5596:0.48971301 5597:0.48971301 5604:0.48971301 #
6.9434898240632758614765407401137 1136:0.67121899 4249:0.67121899 5575:0.67121899 5589:0.67121899 5590:0.67121899 #
6.9434898240632758614765407401137 168:0.45281801 4504:0.45281801 5579:0.45281801 5589:0.45281801 5593:0.45281801 5596:0.45281801 5599:0.45281801 5600:0.45281801 #
-6.5124432450884679468572358018719 540:0.032065999 2693:0.032065999 5577:0.032065999 #
6.9434898240632758614765407401137 429:0.024712 4878:0.024712 5592:0.024712 #
-6.9434898240632758614765407401137 745:0.014013 2878:0.014013 5572:0.014013 5589:0.014013 5591:0.014013 5594:0.014013 5597:0.014013 5603:0.014013 5604:0.014013 #
6.9434898240632758614765407401137 977:0.18421499 3397:0.18421499 5568:0.18421499 5587:0.18421499 5593:0.18421499 5604:0.18421499 5608:0.18421499 #
6.9434898240632758614765407401137 553:0.33968499 5375:0.33968499 5578:0.33968499 #
-3.1998105625470127932885588961653 761:0.123236 2670:0.123236 5577:0.123236 #
-6.9434898240632758614765407401137 1657:0.88345098 2385:0.88345098 5589:0.88345098 5590:0.88345098 5592:0.88345098 5593:0.88345098 5594:0.88345098 5595:0.88345098 5596:0.88345098 5597:0.88345098 5598:0.88345098 5599:0.88345098 5600:0.88345098 5601:0.88345098 5603:0.88345098 5604:0.88345098 5605:0.88345098 5606:0.88345098 5607:0.88345098 #
-6.9434898240632758614765407401137 1308:0.79064399 2385:0.79064399 5589:0.79064399 5590:0.79064399 5592:0.79064399 5593:0.79064399 5594:0.79064399 5595:0.79064399 5596:0.79064399 5597:0.79064399 5598:0.79064399 5599:0.79064399 5600:0.79064399 5601:0.79064399 5603:0.79064399 5604:0.79064399 5605:0.79064399 5606:0.79064399 5607:0.79064399 #
-6.9434898240632758614765407401137 486:0.070476003 2385:0.070476003 5585:0.070476003 5589:0.070476003 5590:0.070476003 5592:0.070476003 5593:0.070476003 5594:0.070476003 5595:0.070476003 5596:0.070476003 5597:0.070476003 5598:0.070476003 5599:0.070476003 5600:0.070476003 5601:0.070476003 5603:0.070476003 5604:0.070476003 5605:0.070476003 5606:0.070476003 5607:0.070476003 #
-6.9434898240632758614765407401137 1626:0.384691 3900:0.384691 5596:0.384691 5599:0.384691 5601:0.384691 5608:0.384691 #
-6.9434898240632758614765407401137 168:0.76901001 2385:0.76901001 5579:0.76901001 5589:0.76901001 5590:0.76901001 5592:0.76901001 5593:0.76901001 5594:0.76901001 5595:0.76901001 5596:0.76901001 5597:0.76901001 5598:0.76901001 5599:0.76901001 5600:0.76901001 5601:0.76901001 5603:0.76901001 5604:0.76901001 5605:0.76901001 5606:0.76901001 5607:0.76901001 #
-6.9434898240632758614765407401137 95:0.64784598 2385:0.64784598 5576:0.64784598 5589:0.64784598 5590:0.64784598 5592:0.64784598 5593:0.64784598 5594:0.64784598 5595:0.64784598 5596:0.64784598 5597:0.64784598 5598:0.64784598 5599:0.64784598 5600:0.64784598 5601:0.64784598 5603:0.64784598 5604:0.64784598 5605:0.64784598 5606:0.64784598 5607:0.64784598 #
-6.9434898240632758614765407401137 662:0.56237203 3900:0.56237203 5596:0.56237203 5599:0.56237203 5601:0.56237203 5608:0.56237203 #
-6.9434898240632758614765407401137 651:0.400877 3900:0.400877 5596:0.400877 5599:0.400877 5601:0.400877 5608:0.400877 #
-6.9434898240632758614765407401137 1094:0.0069479998 3900:0.0069479998 5584:0.0069479998 5596:0.0069479998 5599:0.0069479998 5601:0.0069479998 5608:0.0069479998 #
-6.9434898240632758614765407401137 1163:0.0044880002 3512:0.0044880002 5603:0.0044880002 #
6.9434898240632758614765407401137 1824:0.11787 3512:0.11787 5603:0.11787 #
-6.9434898240632758614765407401137 1365:0.46463701 4249:0.46463701 5576:0.46463701 5589:0.46463701 5590:0.46463701 #
-6.9434898240632758614765407401137 486:0.016275 2385:0.016275 5585:0.016275 5589:0.016275 5590:0.016275 5592:0.016275 5593:0.016275 5594:0.016275 5595:0.016275 5596:0.016275 5597:0.016275 5598:0.016275 5599:0.016275 5600:0.016275 5601:0.016275 5603:0.016275 5604:0.016275 5605:0.016275 5606:0.016275 5607:0.016275 #
-6.9434898240632758614765407401137 554:0.63157499 2385:0.63157499 5589:0.63157499 5590:0.63157499 5592:0.63157499 5593:0.63157499 5594:0.63157499 5595:0.63157499 5596:0.63157499 5597:0.63157499 5598:0.63157499 5599:0.63157499 5600:0.63157499 5601:0.63157499 5603:0.63157499 5604:0.63157499 5605:0.63157499 5606:0.63157499 5607:0.63157499 #
-6.9434898240632758614765407401137 243:0.62480301 2385:0.62480301 5589:0.62480301 5590:0.62480301 5592:0.62480301 5593:0.62480301 5594:0.62480301 5595:0.62480301 5596:0.62480301 5597:0.62480301 5598:0.62480301 5599:0.62480301 5600:0.62480301 5601:0.62480301 5603:0.62480301 5604:0.62480301 5605:0.62480301 5606:0.62480301 5607:0.62480301 #
-1.692299727854538193838607185171 99:0.96967202 4395:0.96967202 #
-1.0683236288557429460865932924207 445:0.26858899 3857:0.26858899 #
-0.39745098685653312831078665112727 445:0.26858899 4642:0.26858899 #
-6.9434898240632758614765407401137 434:0.176296 2385:0.176296 5575:0.176296 5584:0.176296 5589:0.176296 5590:0.176296 5592:0.176296 5593:0.176296 5594:0.176296 5595:0.176296 5596:0.176296 5597:0.176296 5598:0.176296 5599:0.176296 5600:0.176296 5601:0.176296 5603:0.176296 5604:0.176296 5605:0.176296 5606:0.176296 5607:0.176296 #
6.9434898240632758614765407401137 772:0.111759 2402:0.111759 5581:0.111759 5594:0.111759 5595:0.111759 5597:0.111759 5602:0.111759 #
-6.9434898240632758614765407401137 1483:0.1076 2673:0.1076 #
-0.097470912338485024561940406329086 226:0.60230303 3397:0.60230303 5593:0.60230303 5604:0.60230303 5608:0.60230303 #
-6.8396745395319200611083942931145 1686:0.39302799 4545:0.39302799 5577:0.39302799 5590:0.39302799 5601:0.39302799 #
-4.0859711087683008301496556669008 704:0.335374 1945:0.335374 5572:0.335374 5602:0.335374 #
-6.9434898240632758614765407401137 168:0.01147 3900:0.01147 5579:0.01147 5596:0.01147 5599:0.01147 5601:0.01147 5608:0.01147 #
-6.9434898240632758614765407401137 434:0.53416598 2385:0.53416598 5575:0.53416598 5584:0.53416598 5589:0.53416598 5590:0.53416598 5592:0.53416598 5593:0.53416598 5594:0.53416598 5595:0.53416598 5596:0.53416598 5597:0.53416598 5598:0.53416598 5599:0.53416598 5600:0.53416598 5601:0.53416598 5603:0.53416598 5604:0.53416598 5605:0.53416598 5606:0.53416598 5607:0.53416598 #
-6.9434898240632758614765407401137 1179:0.46625099 2385:0.46625099 5569:0.46625099 5589:0.46625099 5590:0.46625099 5592:0.46625099 5593:0.46625099 5594:0.46625099 5595:0.46625099 5596:0.46625099 5597:0.46625099 5598:0.46625099 5599:0.46625099 5600:0.46625099 5601:0.46625099 5603:0.46625099 5604:0.46625099 5605:0.46625099 5606:0.46625099 5607:0.46625099 #
-6.9434898240632758614765407401137 235:0.36021 2402:0.36021 5581:0.36021 5594:0.36021 5595:0.36021 5597:0.36021 5602:0.36021 #
6.9434898240632758614765407401137 1805:0.114664 2385:0.114664 5589:0.114664 5590:0.114664 5592:0.114664 5593:0.114664 5594:0.114664 5595:0.114664 5596:0.114664 5597:0.114664 5598:0.114664 5599:0.114664 5600:0.114664 5601:0.114664 5603:0.114664 5604:0.114664 5605:0.114664 5606:0.114664 5607:0.114664 #
-2.6320494192324654925130289484514 805:0.60399002 4728:0.60399002 5573:0.60399002 5594:0.60399002 #
-1.9563927167109276261669492669171 492:0.117536 3512:0.117536 5603:0.117536 #
-6.9434898240632758614765407401137 1198:0.37761399 2385:0.37761399 5582:0.37761399 5589:0.37761399 5590:0.37761399 5592:0.37761399 5593:0.37761399 5594:0.37761399 5595:0.37761399 5596:0.37761399 5597:0.37761399 5598:0.37761399 5599:0.37761399 5600:0.37761399 5601:0.37761399 5603:0.37761399 5604:0.37761399 5605:0.37761399 5606:0.37761399 5607:0.37761399 #
-0.23485603484880845925886205805 390:0.37486899 4564:0.37486899 5568:0.37486899 #
-0.15500359994863832646672108239727 1663:0.73014802 3878:0.73014802 5571:0.73014802 5590:0.73014802 5591:0.73014802 5592:0.73014802 5594:0.73014802 5597:0.73014802 5598:0.73014802 5599:0.73014802 5600:0.73014802 5605:0.73014802 5607:0.73014802 5608:0.73014802 #
-6.9434898240632758614765407401137 390:0.221692 2320:0.221692 5568:0.221692 5606:0.221692 #
-3.1953265615055195247862229734892 540:0.70532203 3168:0.70532203 5577:0.70532203 #
-0.67807028423534498884350796288345 34:0.63613498 5339:0.63613498 5577:0.63613498 #
-2.3609769129406337206944499484962 712:0.34700701 1851:0.34700701 5571:0.34700701 #
-2.9419409442288011469202047010185 218:0.029583 4324:0.029583 #
6.9434898240632758614765407401137 1372:0.127166 2385:0.127166 5570:0.127166 5576:0.127166 5585:0.127166 5589:0.127166 5590:0.127166 5592:0.127166 5593:0.127166 5594:0.127166 5595:0.127166 5596:0.127166 5597:0.127166 5598:0.127166 5599:0.127166 5600:0.127166 5601:0.127166 5603:0.127166 5604:0.127166 5605:0.127166 5606:0.127166 5607:0.127166 #
-6.9434898240632758614765407401137 1088:0.74979699 2385:0.74979699 5589:0.74979699 5590:0.74979699 5592:0.74979699 5593:0.74979699 5594:0.74979699 5595:0.74979699 5596:0.74979699 5597:0.74979699 5598:0.74979699 5599:0.74979699 5600:0.74979699 5601:0.74979699 5603:0.74979699 5604:0.74979699 5605:0.74979699 5606:0.74979699 5607:0.74979699 #
-1.4827813238572347120936001374503 977:0.041288 5232:0.041288 5568:0.041288 5587:0.041288 5608:0.041288 #
6.9434898240632758614765407401137 1084:0.121701 2402:0.121701 5573:0.121701 5594:0.121701 5595:0.121701 5597:0.121701 5602:0.121701 #
6.9434898240632758614765407401137 872:0.032232001 2385:0.032232001 5589:0.032232001 5590:0.032232001 5592:0.032232001 5593:0.032232001 5594:0.032232001 5595:0.032232001 5596:0.032232001 5597:0.032232001 5598:0.032232001 5599:0.032232001 5600:0.032232001 5601:0.032232001 5603:0.032232001 5604:0.032232001 5605:0.032232001 5606:0.032232001 5607:0.032232001 #
6.9434898240632758614765407401137 386:0.146782 2385:0.146782 5585:0.146782 5589:0.146782 5590:0.146782 5592:0.146782 5593:0.146782 5594:0.146782 5595:0.146782 5596:0.146782 5597:0.146782 5598:0.146782 5599:0.146782 5600:0.146782 5601:0.146782 5603:0.146782 5604:0.146782 5605:0.146782 5606:0.146782 5607:0.146782 #
-6.9434898240632758614765407401137 553:0.56629199 3904:0.56629199 5578:0.56629199 5595:0.56629199 5597:0.56629199 5599:0.56629199 #
6.9434898240632758614765407401137 1363:0.056981999 4676:0.056981999 5574:0.056981999 5582:0.056981999 #
-6.9434898240632758614765407401137 390:0.57043302 3448:0.57043302 5568:0.57043302 5599:0.57043302 #
6.9434898240632758614765407401137 1084:0.160687 2402:0.160687 5573:0.160687 5594:0.160687 5595:0.160687 5597:0.160687 5602:0.160687 #
6.9434898240632758614765407401137 1592:0.0080899997 2385:0.0080899997 5568:0.0080899997 5584:0.0080899997 5586:0.0080899997 5589:0.0080899997 5590:0.0080899997 5592:0.0080899997 5593:0.0080899997 5594:0.0080899997 5595:0.0080899997 5596:0.0080899997 5597:0.0080899997 5598:0.0080899997 5599:0.0080899997 5600:0.0080899997 5601:0.0080899997 5603:0.0080899997 5604:0.0080899997 5605:0.0080899997 5606:0.0080899997 5607:0.0080899997 #
6.9434898240632758614765407401137 1372:0.227045 5215:0.227045 5570:0.227045 5576:0.227045 5585:0.227045 #
-3.9596001145497341511259037361015 1396:0.623568 3397:0.623568 5593:0.623568 5604:0.623568 5608:0.623568 #
-6.9434898240632758614765407401137 136:0.20659401 5089:0.20659401 5598:0.20659401 #
-0.94765437866756518925370755823678 1326:0.123997 4989:0.123997 5568:0.123997 5581:0.123997 #
6.9434898240632758614765407401137 168:0.39939201 4150:0.39939201 5579:0.39939201 5590:0.39939201 5597:0.39939201 5599:0.39939201 5607:0.39939201 #
6.9434898240632758614765407401137 1045:0.49416199 2385:0.49416199 5586:0.49416199 5589:0.49416199 5590:0.49416199 5592:0.49416199 5593:0.49416199 5594:0.49416199 5595:0.49416199 5596:0.49416199 5597:0.49416199 5598:0.49416199 5599:0.49416199 5600:0.49416199 5601:0.49416199 5603:0.49416199 5604:0.49416199 5605:0.49416199 5606:0.49416199 5607:0.49416199 #
6.9434898240632758614765407401137 312:0.129907 2385:0.129907 5589:0.129907 5590:0.129907 5592:0.129907 5593:0.129907 5594:0.129907 5595:0.129907 5596:0.129907 5597:0.129907 5598:0.129907 5599:0.129907 5600:0.129907 5601:0.129907 5603:0.129907 5604:0.129907 5605:0.129907 5606:0.129907 5607:0.129907 #
-6.9434898240632758614765407401137 1372:0.063428 4249:0.063428 5570:0.063428 5576:0.063428 5585:0.063428 5589:0.063428 5590:0.063428 #
-2.9093751910884289024750160024269 1087:0.020889999 5035:0.020889999 5571:0.020889999 #
6.9434898240632758614765407401137 168:0.505454 2878:0.505454 5579:0.505454 5589:0.505454 5591:0.505454 5594:0.505454 5597:0.505454 5603:0.505454 5604:0.505454 #
6.9434898240632758614765407401137 540:0.85672301 2878:0.85672301 5577:0.85672301 5589:0.85672301 5591:0.85672301 5594:0.85672301 5597:0.85672301 5603:0.85672301 5604:0.85672301 #
6.9434898240632758614765407401137 302:0.77040398 2878:0.77040398 5582:0.77040398 5589:0.77040398 5591:0.77040398 5594:0.77040398 5597:0.77040398 5603:0.77040398 5604:0.77040398 #
2.261200832579026709368008596357 73:0.73959398 2878:0.73959398 5589:0.73959398 5591:0.73959398 5594:0.73959398 5597:0.73959398 5603:0.73959398 5604:0.73959398 #
-6.9434898240632758614765407401137 1088:0.39288601 2878:0.39288601 5589:0.39288601 5591:0.39288601 5594:0.39288601 5597:0.39288601 5603:0.39288601 5604:0.39288601 #
6.9434898240632758614765407401137 1632:0.038775001 2569:0.038775001 5583:0.038775001 5586:0.038775001 #
-4.4955351315738880657590925693512 1198:0.89016497 3878:0.89016497 5582:0.89016497 5590:0.89016497 5591:0.89016497 5592:0.89016497 5594:0.89016497 5597:0.89016497 5598:0.89016497 5599:0.89016497 5600:0.89016497 5605:0.89016497 5607:0.89016497 5608:0.89016497 #
-0.86930205172211150177474792144494 1174:0.036614999 2049:0.036614999 #
2.1569603714048195541863606194966 95:0.50253397 3048:0.50253397 5576:0.50253397 5589:0.50253397 5597:0.50253397 5601:0.50253397 5604:0.50253397 #
5.2591125809644321265068356296979 243:0.68957198 4731:0.68957198 #
6.9434898240632758614765407401137 1179:0.010297 2385:0.010297 5569:0.010297 5589:0.010297 5590:0.010297 5592:0.010297 5593:0.010297 5594:0.010297 5595:0.010297 5596:0.010297 5597:0.010297 5598:0.010297 5599:0.010297 5600:0.010297 5601:0.010297 5603:0.010297 5604:0.010297 5605:0.010297 5606:0.010297 5607:0.010297 #
-6.9434898240632758614765407401137 1084:0.66372901 2402:0.66372901 5573:0.66372901 5594:0.66372901 5595:0.66372901 5597:0.66372901 5602:0.66372901 #
-6.9434898240632758614765407401137 168:0.55058098 2385:0.55058098 5579:0.55058098 5589:0.55058098 5590:0.55058098 5592:0.55058098 5593:0.55058098 5594:0.55058098 5595:0.55058098 5596:0.55058098 5597:0.55058098 5598:0.55058098 5599:0.55058098 5600:0.55058098 5601:0.55058098 5603:0.55058098 5604:0.55058098 5605:0.55058098 5606:0.55058098 5607:0.55058098 #
6.9434898240632758614765407401137 2:0.079934001 4282:0.079934001 #
3.951368034561064668253038689727 8:0.87046802 3058:0.87046802 5571:0.87046802 5589:0.87046802 5597:0.87046802 #
6.9434898240632758614765407401137 269:0.12566601 4504:0.12566601 5574:0.12566601 5589:0.12566601 5593:0.12566601 5596:0.12566601 5599:0.12566601 5600:0.12566601 #
-3.3591574479139367781499458942562 745:0.77041602 4150:0.77041602 5572:0.77041602 5590:0.77041602 5597:0.77041602 5599:0.77041602 5607:0.77041602 #
-2.7655014113978575451824326592032 269:0.033519 5162:0.033519 5574:0.033519 #
-6.9434898240632758614765407401137 1088:0.450836 2878:0.450836 5589:0.450836 5591:0.450836 5594:0.450836 5597:0.450836 5603:0.450836 5604:0.450836 #
-6.9434898240632758614765407401137 1592:1.222573 2385:1.222573 5568:1.222573 5584:1.222573 5586:1.222573 5589:1.222573 5590:1.222573 5592:1.222573 5593:1.222573 5594:1.222573 5595:1.222573 5596:1.222573 5597:1.222573 5598:1.222573 5599:1.222573 5600:1.222573 5601:1.222573 5603:1.222573 5604:1.222573 5605:1.222573 5606:1.222573 5607:1.222573 #
-5.3470987274870802608006670197938 8:0.79672801 2878:0.79672801 5571:0.79672801 5589:0.79672801 5591:0.79672801 5594:0.79672801 5597:0.79672801 5603:0.79672801 5604:0.79672801 #
-6.9434898240632758614765407401137 599:0.23367301 3048:0.23367301 5589:0.23367301 5597:0.23367301 5601:0.23367301 5604:0.23367301 #
-6.9434898240632758614765407401137 1146:0.42747101 5375:0.42747101 5578:0.42747101 #
6.9434898240632758614765407401137 35:0.62555701 3878:0.62555701 5583:0.62555701 5586:0.62555701 5590:0.62555701 5591:0.62555701 5592:0.62555701 5594:0.62555701 5597:0.62555701 5598:0.62555701 5599:0.62555701 5600:0.62555701 5605:0.62555701 5607:0.62555701 5608:0.62555701 #
-0.95412323430621670539153456047643 1258:0.49162999 5469:0.49162999 5575:0.49162999 5583:0.49162999 #
-6.9434898240632758614765407401137 1300:0.161401 2385:0.161401 5589:0.161401 5590:0.161401 5592:0.161401 5593:0.161401 5594:0.161401 5595:0.161401 5596:0.161401 5597:0.161401 5598:0.161401 5599:0.161401 5600:0.161401 5601:0.161401 5603:0.161401 5604:0.161401 5605:0.161401 5606:0.161401 5607:0.161401 #
-2.9619247014168204046313803701196 1638:0.13954601 5076:0.13954601 #
6.9434898240632758614765407401137 1750:0.101986 4545:0.101986 5590:0.101986 5601:0.101986 #
-6.9434898240632758614765407401137 1258:0.32631999 2673:0.32631999 5575:0.32631999 5583:0.32631999 #
-6.9434898240632758614765407401137 17:0.116944 2385:0.116944 5586:0.116944 5589:0.116944 5590:0.116944 5592:0.116944 5593:0.116944 5594:0.116944 5595:0.116944 5596:0.116944 5597:0.116944 5598:0.116944 5599:0.116944 5600:0.116944 5601:0.116944 5603:0.116944 5604:0.116944 5605:0.116944 5606:0.116944 5607:0.116944 #
-6.9434898240632758614765407401137 603:0.26841 2878:0.26841 5569:0.26841 5572:0.26841 5589:0.26841 5591:0.26841 5594:0.26841 5597:0.26841 5603:0.26841 5604:0.26841 #
-3.0644511978412514174863190419273 386:0.93383503 4249:0.93383503 5585:0.93383503 5589:0.93383503 5590:0.93383503 #
-0.35095092423695462002797285094857 1372:0.152016 3060:0.152016 5570:0.152016 5576:0.152016 5585:0.152016 #
-6.1158045476986062638502517074812 819:0.248206 5375:0.248206 #
-2.2130049729490020027355967613403 803:0.739236 2878:0.739236 5589:0.739236 5591:0.739236 5594:0.739236 5597:0.739236 5603:0.739236 5604:0.739236 #
-0.66441586483878400937186370356358 1234:0.47924101 2878:0.47924101 5568:0.47924101 5581:0.47924101 5589:0.47924101 5591:0.47924101 5594:0.47924101 5597:0.47924101 5603:0.47924101 5604:0.47924101 #
6.9434898240632758614765407401137 1179:0.222839 2878:0.222839 5569:0.222839 5589:0.222839 5591:0.222839 5594:0.222839 5597:0.222839 5603:0.222839 5604:0.222839 #
-0.55791465967348841115125424039434 988:0.53030699 3512:0.53030699 5603:0.53030699 #
-6.9434898240632758614765407401137 1088:0.383113 2878:0.383113 5589:0.383113 5591:0.383113 5594:0.383113 5597:0.383113 5603:0.383113 5604:0.383113 #
-1.500477724808866097916393300693 1258:0.30327699 3284:0.30327699 5575:0.30327699 5583:0.30327699 #
-0.80805572640957190611032956439885 1197:0.24878301 4667:0.24878301 5577:0.24878301 #
-6.9434898240632758614765407401137 1767:0.20794199 3878:0.20794199 5590:0.20794199 5591:0.20794199 5592:0.20794199 5594:0.20794199 5597:0.20794199 5598:0.20794199 5599:0.20794199 5600:0.20794199 5605:0.20794199 5607:0.20794199 5608:0.20794199 #
-6.9434898240632758614765407401137 1841:0.0047579999 4081:0.0047579999 5606:0.0047579999 #
6.9434898240632758614765407401137 1372:0.186277 4081:0.186277 5570:0.186277 5576:0.186277 5585:0.186277 5606:0.186277 #
-6.9434898240632758614765407401137 1804:0.043129001 2129:0.043129001 5594:0.043129001 #
-1.0387760725947106088540294877021 704:0.18677101 3373:0.18677101 5572:0.18677101 #
6.9434898240632758614765407401137 1804:0.451098 3397:0.451098 5593:0.451098 5604:0.451098 5608:0.451098 #
6.9434898240632758614765407401137 554:0.249156 3448:0.249156 5599:0.249156 #
-1.3352479219812207755779809303931 1258:0.34377 5544:0.34377 5575:0.34377 5583:0.34377 #
6.9434898240632758614765407401137 1396:0.51849198 2458:0.51849198 #
3.3800676833595462156267785758246 116:0.620812 2878:0.620812 5589:0.620812 5591:0.620812 5594:0.620812 5597:0.620812 5603:0.620812 5604:0.620812 #
6.9434898240632758614765407401137 235:0.085276 2402:0.085276 5581:0.085276 5594:0.085276 5595:0.085276 5597:0.085276 5602:0.085276 #
6.9434898240632758614765407401137 1251:0.118558 2385:0.118558 5589:0.118558 5590:0.118558 5592:0.118558 5593:0.118558 5594:0.118558 5595:0.118558 5596:0.118558 5597:0.118558 5598:0.118558 5599:0.118558 5600:0.118558 5601:0.118558 5603:0.118558 5604:0.118558 5605:0.118558 5606:0.118558 5607:0.118558 #
2.4079790426283254056727400893578 2:0.227584 2385:0.227584 5589:0.227584 5590:0.227584 5592:0.227584 5593:0.227584 5594:0.227584 5595:0.227584 5596:0.227584 5597:0.227584 5598:0.227584 5599:0.227584 5600:0.227584 5601:0.227584 5603:0.227584 5604:0.227584 5605:0.227584 5606:0.227584 5607:0.227584 #
6.9434898240632758614765407401137 827:0.50765902 2878:0.50765902 5589:0.50765902 5591:0.50765902 5594:0.50765902 5597:0.50765902 5603:0.50765902 5604:0.50765902 #
6.9434898240632758614765407401137 745:0.29663101 3397:0.29663101 5572:0.29663101 5593:0.29663101 5604:0.29663101 5608:0.29663101 #
6.9434898240632758614765407401137 848:0.39972299 2878:0.39972299 5589:0.39972299 5591:0.39972299 5594:0.39972299 5597:0.39972299 5603:0.39972299 5604:0.39972299 #
6.9434898240632758614765407401137 1609:0.072264001 2385:0.072264001 5589:0.072264001 5590:0.072264001 5592:0.072264001 5593:0.072264001 5594:0.072264001 5595:0.072264001 5596:0.072264001 5597:0.072264001 5598:0.072264001 5599:0.072264001 5600:0.072264001 5601:0.072264001 5603:0.072264001 5604:0.072264001 5605:0.072264001 5606:0.072264001 5607:0.072264001 #
-6.9434898240632758614765407401137 1372:0.42267799 5375:0.42267799 5570:0.42267799 5576:0.42267799 5585:0.42267799 #
-6.9434898240632758614765407401137 1136:0.079792999 3397:0.079792999 5575:0.079792999 5593:0.079792999 5604:0.079792999 5608:0.079792999 #
6.9434898240632758614765407401137 1592:0.075823002 4249:0.075823002 5568:0.075823002 5584:0.075823002 5586:0.075823002 5589:0.075823002 5590:0.075823002 #
2.8524935320652420323028763959883 310:0.72332901 1854:0.72332901 5589:0.72332901 5598:0.72332901 #
6.9434898240632758614765407401137 1278:0.50769699 3168:0.50769699 #
6.9434898240632758614765407401137 704:0.436764 2878:0.436764 5572:0.436764 5589:0.436764 5591:0.436764 5594:0.436764 5597:0.436764 5603:0.436764 5604:0.436764 #
6.9434898240632758614765407401137 1233:0.041650999 2385:0.041650999 5589:0.041650999 5590:0.041650999 5592:0.041650999 5593:0.041650999 5594:0.041650999 5595:0.041650999 5596:0.041650999 5597:0.041650999 5598:0.041650999 5599:0.041650999 5600:0.041650999 5601:0.041650999 5603:0.041650999 5604:0.041650999 5605:0.041650999 5606:0.041650999 5607:0.041650999 #
-6.9434898240632758614765407401137 486:0.01199 2385:0.01199 5585:0.01199 5589:0.01199 5590:0.01199 5592:0.01199 5593:0.01199 5594:0.01199 5595:0.01199 5596:0.01199 5597:0.01199 5598:0.01199 5599:0.01199 5600:0.01199 5601:0.01199 5603:0.01199 5604:0.01199 5605:0.01199 5606:0.01199 5607:0.01199 #
6.9434898240632758614765407401137 1105:0.61041701 2070:0.61041701 5589:0.61041701 5592:0.61041701 5596:0.61041701 5597:0.61041701 5604:0.61041701 #
6.9434898240632758614765407401137 712:0.39803401 3048:0.39803401 5571:0.39803401 5589:0.39803401 5597:0.39803401 5601:0.39803401 5604:0.39803401 #
6.9434898240632758614765407401137 1258:0.204998 3900:0.204998 5575:0.204998 5583:0.204998 5596:0.204998 5599:0.204998 5601:0.204998 5608:0.204998 #
-1.5378545182936651514182813116349 1258:0.29551899 3907:0.29551899 5575:0.29551899 5583:0.29551899 #
6.9434898240632758614765407401137 1516:0.459445 2513:0.459445 5569:0.459445 #
6.9434898240632758614765407401137 45:0.317792 4504:0.317792 5579:0.317792 5589:0.317792 5593:0.317792 5596:0.317792 5599:0.317792 5600:0.317792 #
-6.9434898240632758614765407401137 434:0.37657601 2878:0.37657601 5575:0.37657601 5584:0.37657601 5589:0.37657601 5591:0.37657601 5594:0.37657601 5597:0.37657601 5603:0.37657601 5604:0.37657601 #
6.9434898240632758614765407401137 1025:0.057337001 2402:0.057337001 5573:0.057337001 5594:0.057337001 5595:0.057337001 5597:0.057337001 5602:0.057337001 #
6.9434898240632758614765407401137 1465:0.168189 2878:0.168189 5576:0.168189 5589:0.168189 5591:0.168189 5594:0.168189 5597:0.168189 5603:0.168189 5604:0.168189 #
6.9434898240632758614765407401137 961:0.128253 3397:0.128253 5593:0.128253 5604:0.128253 5608:0.128253 #
-6.9434898240632758614765407401137 1258:0.25630799 2673:0.25630799 5575:0.25630799 5583:0.25630799 #
6.9434898240632758614765407401137 1300:0.47804299 4504:0.47804299 5589:0.47804299 5593:0.47804299 5596:0.47804299 5599:0.47804299 5600:0.47804299 #
-4.2461354319170352411560998007189 926:0.02733 3494:0.02733 #
-6.9434898240632758614765407401137 1088:0.45364299 2878:0.45364299 5589:0.45364299 5591:0.45364299 5594:0.45364299 5597:0.45364299 5603:0.45364299 5604:0.45364299 #
6.9434898240632758614765407401137 1136:0.25934601 4504:0.25934601 5575:0.25934601 5589:0.25934601 5593:0.25934601 5596:0.25934601 5599:0.25934601 5600:0.25934601 #
6.9434898240632758614765407401137 1767:0.53666002 3397:0.53666002 5593:0.53666002 5604:0.53666002 5608:0.53666002 #
6.9434898240632758614765407401137 95:0.19390801 3448:0.19390801 5576:0.19390801 5599:0.19390801 #
-6.9434898240632758614765407401137 486:0.007096 2385:0.007096 5585:0.007096 5589:0.007096 5590:0.007096 5592:0.007096 5593:0.007096 5594:0.007096 5595:0.007096 5596:0.007096 5597:0.007096 5598:0.007096 5599:0.007096 5600:0.007096 5601:0.007096 5603:0.007096 5604:0.007096 5605:0.007096 5606:0.007096 5607:0.007096 #
-1.7250599043021275225129329555784 457:0.29398501 4249:0.29398501 5589:0.29398501 5590:0.29398501 #
6.9434898240632758614765407401137 1011:0.20226499 2878:0.20226499 5589:0.20226499 5591:0.20226499 5594:0.20226499 5597:0.20226499 5603:0.20226499 5604:0.20226499 #
6.9434898240632758614765407401137 139:0.126168 2385:0.126168 5578:0.126168 5589:0.126168 5590:0.126168 5592:0.126168 5593:0.126168 5594:0.126168 5595:0.126168 5596:0.126168 5597:0.126168 5598:0.126168 5599:0.126168 5600:0.126168 5601:0.126168 5603:0.126168 5604:0.126168 5605:0.126168 5606:0.126168 5607:0.126168 #
-6.9434898240632758614765407401137 1244:0.027889 2243:0.027889 #
-6.9434898240632758614765407401137 139:0.435619 2385:0.435619 5578:0.435619 5589:0.435619 5590:0.435619 5592:0.435619 5593:0.435619 5594:0.435619 5595:0.435619 5596:0.435619 5597:0.435619 5598:0.435619 5599:0.435619 5600:0.435619 5601:0.435619 5603:0.435619 5604:0.435619 5605:0.435619 5606:0.435619 5607:0.435619 #
-6.9434898240632758614765407401137 805:0.621005 2385:0.621005 5573:0.621005 5589:0.621005 5590:0.621005 5592:0.621005 5593:0.621005 5594:0.621005 5595:0.621005 5596:0.621005 5597:0.621005 5598:0.621005 5599:0.621005 5600:0.621005 5601:0.621005 5603:0.621005 5604:0.621005 5605:0.621005 5606:0.621005 5607:0.621005 #
6.9434898240632758614765407401137 1088:0.61643201 4545:0.61643201 5590:0.61643201 5601:0.61643201 #
6.9434898240632758614765407401137 168:0.072396003 2385:0.072396003 5579:0.072396003 5589:0.072396003 5590:0.072396003 5592:0.072396003 5593:0.072396003 5594:0.072396003 5595:0.072396003 5596:0.072396003 5597:0.072396003 5598:0.072396003 5599:0.072396003 5600:0.072396003 5601:0.072396003 5603:0.072396003 5604:0.072396003 5605:0.072396003 5606:0.072396003 5607:0.072396003 #
-6.9434898240632758614765407401137 1641:0.025984 4504:0.025984 5589:0.025984 5593:0.025984 5596:0.025984 5599:0.025984 5600:0.025984 #
-6.9434898240632758614765407401137 1084:0.0065799998 2402:0.0065799998 5573:0.0065799998 5594:0.0065799998 5595:0.0065799998 5597:0.0065799998 5602:0.0065799998 #
-6.9434898240632758614765407401137 1289:0.01334 4249:0.01334 5589:0.01334 5590:0.01334 #
-3.703049519931441491138457422494 501:0.45121801 2458:0.45121801 #
6.9434898240632758614765407401137 1237:0.27253899 5375:0.27253899 5578:0.27253899 5583:0.27253899 #
-6.9434898240632758614765407401137 1363:0.46765301 3048:0.46765301 5574:0.46765301 5582:0.46765301 5589:0.46765301 5597:0.46765301 5601:0.46765301 5604:0.46765301 #
-6.9434898240632758614765407401137 934:0.58879 2385:0.58879 5589:0.58879 5590:0.58879 5592:0.58879 5593:0.58879 5594:0.58879 5595:0.58879 5596:0.58879 5597:0.58879 5598:0.58879 5599:0.58879 5600:0.58879 5601:0.58879 5603:0.58879 5604:0.58879 5605:0.58879 5606:0.58879 5607:0.58879 #
6.9434898240632758614765407401137 1258:0.39705601 4593:0.39705601 5575:0.39705601 5583:0.39705601 #
-0.81675597260245391684208016158664 302:0.57884097 2254:0.57884097 5582:0.57884097 #
6.9434898240632758614765407401137 540:0.16147 2385:0.16147 5577:0.16147 5589:0.16147 5590:0.16147 5592:0.16147 5593:0.16147 5594:0.16147 5595:0.16147 5596:0.16147 5597:0.16147 5598:0.16147 5599:0.16147 5600:0.16147 5601:0.16147 5603:0.16147 5604:0.16147 5605:0.16147 5606:0.16147 5607:0.16147 #
-6.9434898240632758614765407401137 880:0.32265499 2385:0.32265499 5570:0.32265499 5589:0.32265499 5590:0.32265499 5592:0.32265499 5593:0.32265499 5594:0.32265499 5595:0.32265499 5596:0.32265499 5597:0.32265499 5598:0.32265499 5599:0.32265499 5600:0.32265499 5601:0.32265499 5603:0.32265499 5604:0.32265499 5605:0.32265499 5606:0.32265499 5607:0.32265499 #
-6.9434898240632758614765407401137 1445:0.134176 2548:0.134176 5596:0.134176 #
6.9434898240632758614765407401137 1084:0.0016129999 2402:0.0016129999 5573:0.0016129999 5594:0.0016129999 5595:0.0016129999 5597:0.0016129999 5602:0.0016129999 #
-6.9434898240632758614765407401137 550:0.72127002 2385:0.72127002 5576:0.72127002 5589:0.72127002 5590:0.72127002 5592:0.72127002 5593:0.72127002 5594:0.72127002 5595:0.72127002 5596:0.72127002 5597:0.72127002 5598:0.72127002 5599:0.72127002 5600:0.72127002 5601:0.72127002 5603:0.72127002 5604:0.72127002 5605:0.72127002 5606:0.72127002 5607:0.72127002 #
6.9434898240632758614765407401137 1088:0.347083 3878:0.347083 5590:0.347083 5591:0.347083 5592:0.347083 5594:0.347083 5597:0.347083 5598:0.347083 5599:0.347083 5600:0.347083 5605:0.347083 5607:0.347083 5608:0.347083 #
-2.6618429151803892906968940224033 272:0.021096 4262:0.021096 #
-3.9782537139401106252023510023719 168:0.098714001 3631:0.098714001 5579:0.098714001 #
6.9434898240632758614765407401137 663:0.17464501 2385:0.17464501 5589:0.17464501 5590:0.17464501 5592:0.17464501 5593:0.17464501 5594:0.17464501 5595:0.17464501 5596:0.17464501 5597:0.17464501 5598:0.17464501 5599:0.17464501 5600:0.17464501 5601:0.17464501 5603:0.17464501 5604:0.17464501 5605:0.17464501 5606:0.17464501 5607:0.17464501 #
6.9434898240632758614765407401137 1846:0.20163199 4834:0.20163199 5596:0.20163199 5600:0.20163199 5601:0.20163199 5603:0.20163199 #
-3.6862965306749373439743067137897 302:0.61131901 3878:0.61131901 5582:0.61131901 5590:0.61131901 5591:0.61131901 5592:0.61131901 5594:0.61131901 5597:0.61131901 5598:0.61131901 5599:0.61131901 5600:0.61131901 5605:0.61131901 5607:0.61131901 5608:0.61131901 #
-1.2875659144060569438750007975614 302:0.35934901 4248:0.35934901 5582:0.35934901 #
-6.9434898240632758614765407401137 704:0.38510901 3048:0.38510901 5572:0.38510901 5589:0.38510901 5597:0.38510901 5601:0.38510901 5604:0.38510901 #
-6.9434898240632758614765407401137 235:0.181638 2402:0.181638 5581:0.181638 5594:0.181638 5595:0.181638 5597:0.181638 5602:0.181638 #
-6.9434898240632758614765407401137 1632:0.25962299 3058:0.25962299 5583:0.25962299 5586:0.25962299 5589:0.25962299 5597:0.25962299 #
-6.9434898240632758614765407401137 45:0.285267 4686:0.285267 5579:0.285267 5592:0.285267 #
-6.9434898240632758614765407401137 1010:0.119974 2548:0.119974 5596:0.119974 #
-6.9434898240632758614765407401137 1372:0.053068001 2385:0.053068001 5570:0.053068001 5576:0.053068001 5585:0.053068001 5589:0.053068001 5590:0.053068001 5592:0.053068001 5593:0.053068001 5594:0.053068001 5595:0.053068001 5596:0.053068001 5597:0.053068001 5598:0.053068001 5599:0.053068001 5600:0.053068001 5601:0.053068001 5603:0.053068001 5604:0.053068001 5605:0.053068001 5606:0.053068001 5607:0.053068001 #
-6.9434898240632758614765407401137 1278:0.155558 3173:0.155558 #
-0.35173766247252907790610265692521 1372:0.167505 5251:0.167505 5570:0.167505 5576:0.167505 5585:0.167505 #
-6.9434898240632758614765407401137 1136:0.38878599 3397:0.38878599 5575:0.38878599 5593:0.38878599 5604:0.38878599 5608:0.38878599 #
-6.9434898240632758614765407401137 384:0.15291899 3397:0.15291899 5569:0.15291899 5593:0.15291899 5604:0.15291899 5608:0.15291899 #
-0.29039134641313640861071121435089 407:0.65777498 3942:0.65777498 5576:0.65777498 #
-6.9434898240632758614765407401137 1237:0.48815301 2385:0.48815301 5578:0.48815301 5583:0.48815301 5589:0.48815301 5590:0.48815301 5592:0.48815301 5593:0.48815301 5594:0.48815301 5595:0.48815301 5596:0.48815301 5597:0.48815301 5598:0.48815301 5599:0.48815301 5600:0.48815301 5601:0.48815301 5603:0.48815301 5604:0.48815301 5605:0.48815301 5606:0.48815301 5607:0.48815301 #
-6.9434898240632758614765407401137 1372:0.54459298 2385:0.54459298 5570:0.54459298 5576:0.54459298 5585:0.54459298 5589:0.54459298 5590:0.54459298 5592:0.54459298 5593:0.54459298 5594:0.54459298 5595:0.54459298 5596:0.54459298 5597:0.54459298 5598:0.54459298 5599:0.54459298 5600:0.54459298 5601:0.54459298 5603:0.54459298 5604:0.54459298 5605:0.54459298 5606:0.54459298 5607:0.54459298 #
1.0567206831205260275652335621999 130:0.391711 3900:0.391711 5575:0.391711 5596:0.391711 5599:0.391711 5601:0.391711 5608:0.391711 #
6.9434898240632758614765407401137 1094:0.192131 2385:0.192131 5584:0.192131 5589:0.192131 5590:0.192131 5592:0.192131 5593:0.192131 5594:0.192131 5595:0.192131 5596:0.192131 5597:0.192131 5598:0.192131 5599:0.192131 5600:0.192131 5601:0.192131 5603:0.192131 5604:0.192131 5605:0.192131 5606:0.192131 5607:0.192131 #
6.9434898240632758614765407401137 704:0.171924 2385:0.171924 5572:0.171924 5589:0.171924 5590:0.171924 5592:0.171924 5593:0.171924 5594:0.171924 5595:0.171924 5596:0.171924 5597:0.171924 5598:0.171924 5599:0.171924 5600:0.171924 5601:0.171924 5603:0.171924 5604:0.171924 5605:0.171924 5606:0.171924 5607:0.171924 #
-6.9434898240632758614765407401137 344:0.226978 4081:0.226978 5574:0.226978 5606:0.226978 #
-0.11413210594871336933664451862569 447:0.091007002 2898:0.091007002 #
6.9434898240632758614765407401137 422:0.084985003 2402:0.084985003 5573:0.084985003 5594:0.084985003 5595:0.084985003 5597:0.084985003 5602:0.084985003 #
-6.9434898240632758614765407401137 302:0.33178401 2673:0.33178401 5582:0.33178401 #
-6.9434898240632758614765407401137 1146:0.21426301 5180:0.21426301 5578:0.21426301 5589:0.21426301 5599:0.21426301 5601:0.21426301 #
6.9434898240632758614765407401137 1504:0.44931701 4504:0.44931701 5589:0.44931701 5593:0.44931701 5596:0.44931701 5599:0.44931701 5600:0.44931701 #
-6.9434898240632758614765407401137 1644:0.188903 4081:0.188903 5606:0.188903 #
6.9434898240632758614765407401137 1258:0.28439301 3900:0.28439301 5575:0.28439301 5583:0.28439301 5596:0.28439301 5599:0.28439301 5601:0.28439301 5608:0.28439301 #
-1.0296613097785134449679844692582 540:0.44791999 3333:0.44791999 5577:0.44791999 #
-6.9434898240632758614765407401137 1321:0.0039690002 3058:0.0039690002 5589:0.0039690002 5597:0.0039690002 #
-6.9434898240632758614765407401137 1088:0.451401 2385:0.451401 5589:0.451401 5590:0.451401 5592:0.451401 5593:0.451401 5594:0.451401 5595:0.451401 5596:0.451401 5597:0.451401 5598:0.451401 5599:0.451401 5600:0.451401 5601:0.451401 5603:0.451401 5604:0.451401 5605:0.451401 5606:0.451401 5607:0.451401 #
-6.9434898240632758614765407401137 1278:0.27933201 2070:0.27933201 5589:0.27933201 5592:0.27933201 5596:0.27933201 5597:0.27933201 5604:0.27933201 #
-6.9434898240632758614765407401137 1692:0.365794 3900:0.365794 5596:0.365794 5599:0.365794 5601:0.365794 5608:0.365794 #
6.9434898240632758614765407401137 821:0.30476099 3524:0.30476099 #
-6.9434898240632758614765407401137 81:0.022593001 3641:0.022593001 5599:0.022593001 #
-6.9434898240632758614765407401137 977:0.50141001 2878:0.50141001 5568:0.50141001 5587:0.50141001 5589:0.50141001 5591:0.50141001 5594:0.50141001 5597:0.50141001 5603:0.50141001 5604:0.50141001 #
-4.8509287155368339128358456946444 1484:0.474255 2878:0.474255 5579:0.474255 5589:0.474255 5591:0.474255 5594:0.474255 5597:0.474255 5603:0.474255 5604:0.474255 #
-6.9434898240632758614765407401137 1592:0.47729099 2385:0.47729099 5568:0.47729099 5584:0.47729099 5586:0.47729099 5589:0.47729099 5590:0.47729099 5592:0.47729099 5593:0.47729099 5594:0.47729099 5595:0.47729099 5596:0.47729099 5597:0.47729099 5598:0.47729099 5599:0.47729099 5600:0.47729099 5601:0.47729099 5603:0.47729099 5604:0.47729099 5605:0.47729099 5606:0.47729099 5607:0.47729099 #
-6.9434898240632758614765407401137 1136:0.60031998 4504:0.60031998 5575:0.60031998 5589:0.60031998 5593:0.60031998 5596:0.60031998 5599:0.60031998 5600:0.60031998 #
-2.9394865691760792003606184152886 952:0.54786301 4504:0.54786301 5589:0.54786301 5593:0.54786301 5596:0.54786301 5599:0.54786301 5600:0.54786301 #
-6.9434898240632758614765407401137 903:0.028036 4162:0.028036 #
-5.6291044428867920146331016439945 1214:0.374704 4504:0.374704 5572:0.374704 5589:0.374704 5593:0.374704 5596:0.374704 5599:0.374704 5600:0.374704 #
-5.2514148639505613402889139251783 1513:0.082092002 4884:0.082092002 #
-6.9434898240632758614765407401137 388:0.40959999 2385:0.40959999 5589:0.40959999 5590:0.40959999 5592:0.40959999 5593:0.40959999 5594:0.40959999 5595:0.40959999 5596:0.40959999 5597:0.40959999 5598:0.40959999 5599:0.40959999 5600:0.40959999 5601:0.40959999 5603:0.40959999 5604:0.40959999 5605:0.40959999 5606:0.40959999 5607:0.40959999 #
6.9434898240632758614765407401137 798:0.037418 2385:0.037418 5589:0.037418 5590:0.037418 5592:0.037418 5593:0.037418 5594:0.037418 5595:0.037418 5596:0.037418 5597:0.037418 5598:0.037418 5599:0.037418 5600:0.037418 5601:0.037418 5603:0.037418 5604:0.037418 5605:0.037418 5606:0.037418 5607:0.037418 #
6.9434898240632758614765407401137 1144:0.443977 4545:0.443977 5590:0.443977 5601:0.443977 #
6.9434898240632758614765407401137 1365:0.081425004 5082:0.081425004 5576:0.081425004 #
6.9434898240632758614765407401137 235:0.089217998 2402:0.089217998 5581:0.089217998 5594:0.089217998 5595:0.089217998 5597:0.089217998 5602:0.089217998 #
-6.9434898240632758614765407401137 1179:0.053805001 3448:0.053805001 5569:0.053805001 5599:0.053805001 #
-6.9434898240632758614765407401137 851:0.032079998 5180:0.032079998 5589:0.032079998 5599:0.032079998 5601:0.032079998 #
-6.9434898240632758614765407401137 1655:0.0075440002 2070:0.0075440002 5589:0.0075440002 5592:0.0075440002 5596:0.0075440002 5597:0.0075440002 5604:0.0075440002 #
-6.9434898240632758614765407401137 1105:0.204189 2385:0.204189 5589:0.204189 5590:0.204189 5592:0.204189 5593:0.204189 5594:0.204189 5595:0.204189 5596:0.204189 5597:0.204189 5598:0.204189 5599:0.204189 5600:0.204189 5601:0.204189 5603:0.204189 5604:0.204189 5605:0.204189 5606:0.204189 5607:0.204189 #
-6.9434898240632758614765407401137 1363:0.36906901 2385:0.36906901 5574:0.36906901 5582:0.36906901 5589:0.36906901 5590:0.36906901 5592:0.36906901 5593:0.36906901 5594:0.36906901 5595:0.36906901 5596:0.36906901 5597:0.36906901 5598:0.36906901 5599:0.36906901 5600:0.36906901 5601:0.36906901 5603:0.36906901 5604:0.36906901 5605:0.36906901 5606:0.36906901 5607:0.36906901 #
-6.9434898240632758614765407401137 1705:0.40631101 2385:0.40631101 5589:0.40631101 5590:0.40631101 5592:0.40631101 5593:0.40631101 5594:0.40631101 5595:0.40631101 5596:0.40631101 5597:0.40631101 5598:0.40631101 5599:0.40631101 5600:0.40631101 5601:0.40631101 5603:0.40631101 5604:0.40631101 5605:0.40631101 5606:0.40631101 5607:0.40631101 #
-6.9434898240632758614765407401137 628:0.234346 3397:0.234346 5570:0.234346 5593:0.234346 5604:0.234346 5608:0.234346 #
-6.9434898240632758614765407401137 1057:0.15349799 4504:0.15349799 5589:0.15349799 5593:0.15349799 5596:0.15349799 5599:0.15349799 5600:0.15349799 #
6.9434898240632758614765407401137 388:0.014555 4488:0.014555 #
-0.37373634301960834136480116285384 1136:0.33561999 4800:0.33561999 5575:0.33561999 #
-2.6936344677155878990504334069556 914:0.042139001 3255:0.042139001 #
-6.9434898240632758614765407401137 789:0.016053 4504:0.016053 5589:0.016053 5593:0.016053 5596:0.016053 5599:0.016053 5600:0.016053 #
-6.9434898240632758614765407401137 365:0.32302001 3048:0.32302001 5589:0.32302001 5597:0.32302001 5601:0.32302001 5604:0.32302001 #
-6.9434898240632758614765407401137 977:0.037889 4504:0.037889 5568:0.037889 5587:0.037889 5589:0.037889 5593:0.037889 5596:0.037889 5599:0.037889 5600:0.037889 #
-0.94285527533649238218771415631636 1025:0.29019701 2036:0.29019701 5573:0.29019701 5594:0.29019701 #
-2.051589180929204836445478576934 1144:0.344219 5039:0.344219 #
-6.9434898240632758614765407401137 1504:0.24608199 2673:0.24608199 #
-6.9434898240632758614765407401137 712:0.13381501 3900:0.13381501 5571:0.13381501 5596:0.13381501 5599:0.13381501 5601:0.13381501 5608:0.13381501 #
6.9434898240632758614765407401137 1841:0.049022999 4081:0.049022999 5606:0.049022999 #
-6.9434898240632758614765407401137 1264:0.018554 4504:0.018554 5589:0.018554 5593:0.018554 5596:0.018554 5599:0.018554 5600:0.018554 #
-2.9515996752645676792781159747392 249:0.223306 3878:0.223306 5580:0.223306 5590:0.223306 5591:0.223306 5592:0.223306 5594:0.223306 5597:0.223306 5598:0.223306 5599:0.223306 5600:0.223306 5605:0.223306 5607:0.223306 5608:0.223306 #
-6.9434898240632758614765407401137 1209:0.39019999 4834:0.39019999 5596:0.39019999 5600:0.39019999 5601:0.39019999 5603:0.39019999 #
-6.9434898240632758614765407401137 1182:0.25391701 1854:0.25391701 5589:0.25391701 5598:0.25391701 #
-6.9434898240632758614765407401137 1084:0.26221499 2402:0.26221499 5573:0.26221499 5594:0.26221499 5595:0.26221499 5597:0.26221499 5602:0.26221499 #
-6.9434898240632758614765407401137 1094:0.724868 4504:0.724868 5584:0.724868 5589:0.724868 5593:0.724868 5596:0.724868 5599:0.724868 5600:0.724868 #
-6.9434898240632758614765407401137 1186:0.403844 2385:0.403844 5589:0.403844 5590:0.403844 5592:0.403844 5593:0.403844 5594:0.403844 5595:0.403844 5596:0.403844 5597:0.403844 5598:0.403844 5599:0.403844 5600:0.403844 5601:0.403844 5603:0.403844 5604:0.403844 5605:0.403844 5606:0.403844 5607:0.403844 #
-6.9434898240632758614765407401137 1084:0.224604 2402:0.224604 5573:0.224604 5594:0.224604 5595:0.224604 5597:0.224604 5602:0.224604 #
-6.9434898240632758614765407401137 256:0.38239801 2385:0.38239801 5589:0.38239801 5590:0.38239801 5592:0.38239801 5593:0.38239801 5594:0.38239801 5595:0.38239801 5596:0.38239801 5597:0.38239801 5598:0.38239801 5599:0.38239801 5600:0.38239801 5601:0.38239801 5603:0.38239801 5604:0.38239801 5605:0.38239801 5606:0.38239801 5607:0.38239801 #
-1.1590340874836950746384900412522 1182:0.249191 2702:0.249191 #
-6.9434898240632758614765407401137 35:0.162027 3058:0.162027 5583:0.162027 5586:0.162027 5589:0.162027 5597:0.162027 #
-6.9434898240632758614765407401137 235:0.149065 2402:0.149065 5581:0.149065 5594:0.149065 5595:0.149065 5597:0.149065 5602:0.149065 #
-6.9434898240632758614765407401137 1644:0.184044 4081:0.184044 5606:0.184044 #
-6.9434898240632758614765407401137 377:0.380472 2385:0.380472 5569:0.380472 5589:0.380472 5590:0.380472 5592:0.380472 5593:0.380472 5594:0.380472 5595:0.380472 5596:0.380472 5597:0.380472 5598:0.380472 5599:0.380472 5600:0.380472 5601:0.380472 5603:0.380472 5604:0.380472 5605:0.380472 5606:0.380472 5607:0.380472 #
-4.524834741957137751455775287468 609:0.084844001 2826:0.084844001 5577:0.084844001 #
-6.9434898240632758614765407401137 959:0.0029500001 4081:0.0029500001 5606:0.0029500001 #
6.9434898240632758614765407401137 745:0.36364201 4545:0.36364201 5572:0.36364201 5590:0.36364201 5601:0.36364201 #
-6.9434898240632758614765407401137 19:0.0075099999 1851:0.0075099999 #
-2.7524144675377204549704401870258 1258:0.47695899 5081:0.47695899 5575:0.47695899 5583:0.47695899 #
-1.3969907901312335063437330973102 374:0.26741999 3950:0.26741999 #
-1.5992147050427376608894292076002 374:0.231466 2889:0.231466 #
-6.9434898240632758614765407401137 1516:0.189291 3900:0.189291 5569:0.189291 5596:0.189291 5599:0.189291 5601:0.189291 5608:0.189291 #
6.9434898240632758614765407401137 1592:0.492385 2385:0.492385 5568:0.492385 5584:0.492385 5586:0.492385 5589:0.492385 5590:0.492385 5592:0.492385 5593:0.492385 5594:0.492385 5595:0.492385 5596:0.492385 5597:0.492385 5598:0.492385 5599:0.492385 5600:0.492385 5601:0.492385 5603:0.492385 5604:0.492385 5605:0.492385 5606:0.492385 5607:0.492385 #
-6.9420077060088480891408835304901 1277:0.24833 4528:0.24833 5569:0.24833 #
-6.9434898240632758614765407401137 550:0.32223001 2385:0.32223001 5576:0.32223001 5589:0.32223001 5590:0.32223001 5592:0.32223001 5593:0.32223001 5594:0.32223001 5595:0.32223001 5596:0.32223001 5597:0.32223001 5598:0.32223001 5599:0.32223001 5600:0.32223001 5601:0.32223001 5603:0.32223001 5604:0.32223001 5605:0.32223001 5606:0.32223001 5607:0.32223001 #
-0.42443817566952785069744891188748 1623:0.405514 3619:0.405514 5582:0.405514 #
6.9434898240632758614765407401137 1612:0.158584 2385:0.158584 5568:0.158584 5589:0.158584 5590:0.158584 5592:0.158584 5593:0.158584 5594:0.158584 5595:0.158584 5596:0.158584 5597:0.158584 5598:0.158584 5599:0.158584 5600:0.158584 5601:0.158584 5603:0.158584 5604:0.158584 5605:0.158584 5606:0.158584 5607:0.158584 #
-6.9434898240632758614765407401137 1592:0.314349 2385:0.314349 5568:0.314349 5584:0.314349 5586:0.314349 5589:0.314349 5590:0.314349 5592:0.314349 5593:0.314349 5594:0.314349 5595:0.314349 5596:0.314349 5597:0.314349 5598:0.314349 5599:0.314349 5600:0.314349 5601:0.314349 5603:0.314349 5604:0.314349 5605:0.314349 5606:0.314349 5607:0.314349 #
-6.9434898240632758614765407401137 1592:1.1387351 2385:1.1387351 5568:1.1387351 5584:1.1387351 5586:1.1387351 5589:1.1387351 5590:1.1387351 5592:1.1387351 5593:1.1387351 5594:1.1387351 5595:1.1387351 5596:1.1387351 5597:1.1387351 5598:1.1387351 5599:1.1387351 5600:1.1387351 5601:1.1387351 5603:1.1387351 5604:1.1387351 5605:1.1387351 5606:1.1387351 5607:1.1387351 #
-6.9434898240632758614765407401137 486:0.011937 2385:0.011937 5585:0.011937 5589:0.011937 5590:0.011937 5592:0.011937 5593:0.011937 5594:0.011937 5595:0.011937 5596:0.011937 5597:0.011937 5598:0.011937 5599:0.011937 5600:0.011937 5601:0.011937 5603:0.011937 5604:0.011937 5605:0.011937 5606:0.011937 5607:0.011937 #
6.9434898240632758614765407401137 1372:0.0063049998 1854:0.0063049998 5570:0.0063049998 5576:0.0063049998 5585:0.0063049998 5589:0.0063049998 5598:0.0063049998 #
6.9434898240632758614765407401137 401:0.033307001 4785:0.033307001 5574:0.033307001 5595:0.033307001 #
6.9434898240632758614765407401137 1663:0.187057 2385:0.187057 5571:0.187057 5589:0.187057 5590:0.187057 5592:0.187057 5593:0.187057 5594:0.187057 5595:0.187057 5596:0.187057 5597:0.187057 5598:0.187057 5599:0.187057 5600:0.187057 5601:0.187057 5603:0.187057 5604:0.187057 5605:0.187057 5606:0.187057 5607:0.187057 #
-0.18384083552869456834599759531557 1455:0.30153501 5304:0.30153501 5582:0.30153501 #
6.9434898240632758614765407401137 554:0.032522 2070:0.032522 5589:0.032522 5592:0.032522 5596:0.032522 5597:0.032522 5604:0.032522 #
6.9434898240632758614765407401137 1632:0.33446801 3034:0.33446801 5583:0.33446801 5586:0.33446801 #
6.9434898240632758614765407401137 1632:0.16449 2385:0.16449 5583:0.16449 5586:0.16449 5589:0.16449 5590:0.16449 5592:0.16449 5593:0.16449 5594:0.16449 5595:0.16449 5596:0.16449 5597:0.16449 5598:0.16449 5599:0.16449 5600:0.16449 5601:0.16449 5603:0.16449 5604:0.16449 5605:0.16449 5606:0.16449 5607:0.16449 #
6.9434898240632758614765407401137 603:0.321612 1906:0.321612 5569:0.321612 5572:0.321612 #
6.9434898240632758614765407401137 1575:0.171682 2385:0.171682 5589:0.171682 5590:0.171682 5592:0.171682 5593:0.171682 5594:0.171682 5595:0.171682 5596:0.171682 5597:0.171682 5598:0.171682 5599:0.171682 5600:0.171682 5601:0.171682 5603:0.171682 5604:0.171682 5605:0.171682 5606:0.171682 5607:0.171682 #
-6.9434898240632758614765407401137 1246:0.033535 1854:0.033535 5589:0.033535 5598:0.033535 #
6.9434898240632758614765407401137 805:0.48409101 2878:0.48409101 5573:0.48409101 5589:0.48409101 5591:0.48409101 5594:0.48409101 5597:0.48409101 5603:0.48409101 5604:0.48409101 #
6.9434898240632758614765407401137 792:0.173207 2385:0.173207 5589:0.173207 5590:0.173207 5592:0.173207 5593:0.173207 5594:0.173207 5595:0.173207 5596:0.173207 5597:0.173207 5598:0.173207 5599:0.173207 5600:0.173207 5601:0.173207 5603:0.173207 5604:0.173207 5605:0.173207 5606:0.173207 5607:0.173207 #
6.9434898240632758614765407401137 212:0.366119 3956:0.366119 5569:0.366119 5590:0.366119 #
6.9434898240632758614765407401137 1632:0.28725401 3868:0.28725401 5583:0.28725401 5586:0.28725401 #
6.9434898240632758614765407401137 1372:0.38022 3878:0.38022 5570:0.38022 5576:0.38022 5585:0.38022 5590:0.38022 5591:0.38022 5592:0.38022 5594:0.38022 5597:0.38022 5598:0.38022 5599:0.38022 5600:0.38022 5605:0.38022 5607:0.38022 5608:0.38022 #
6.9434898240632758614765407401137 565:0.347269 3631:0.347269 5574:0.347269 #
-6.9434898240632758614765407401137 941:0.123535 3397:0.123535 5593:0.123535 5604:0.123535 5608:0.123535 #
6.9434898240632758614765407401137 1372:0.22208899 4249:0.22208899 5570:0.22208899 5576:0.22208899 5585:0.22208899 5589:0.22208899 5590:0.22208899 #
6.9434898240632758614765407401137 609:0.35199201 3878:0.35199201 5577:0.35199201 5590:0.35199201 5591:0.35199201 5592:0.35199201 5594:0.35199201 5597:0.35199201 5598:0.35199201 5599:0.35199201 5600:0.35199201 5605:0.35199201 5607:0.35199201 5608:0.35199201 #
6.9434898240632758614765407401137 1094:0.19989 3878:0.19989 5584:0.19989 5590:0.19989 5591:0.19989 5592:0.19989 5594:0.19989 5597:0.19989 5598:0.19989 5599:0.19989 5600:0.19989 5605:0.19989 5607:0.19989 5608:0.19989 #
6.9434898240632758614765407401137 1531:0.041379999 2385:0.041379999 5589:0.041379999 5590:0.041379999 5592:0.041379999 5593:0.041379999 5594:0.041379999 5595:0.041379999 5596:0.041379999 5597:0.041379999 5598:0.041379999 5599:0.041379999 5600:0.041379999 5601:0.041379999 5603:0.041379999 5604:0.041379999 5605:0.041379999 5606:0.041379999 5607:0.041379999 #
6.9434898240632758614765407401137 337:0.142176 4131:0.142176 5580:0.142176 #
6.9434898240632758614765407401137 390:0.213076 2878:0.213076 5568:0.213076 5589:0.213076 5591:0.213076 5594:0.213076 5597:0.213076 5603:0.213076 5604:0.213076 #
6.9434898240632758614765407401137 388:0.309894 4878:0.309894 5592:0.309894 #
6.9434898240632758614765407401137 480:0.048266001 2385:0.048266001 5568:0.048266001 5589:0.048266001 5590:0.048266001 5592:0.048266001 5593:0.048266001 5594:0.048266001 5595:0.048266001 5596:0.048266001 5597:0.048266001 5598:0.048266001 5599:0.048266001 5600:0.048266001 5601:0.048266001 5603:0.048266001 5604:0.048266001 5605:0.048266001 5606:0.048266001 5607:0.048266001 #
6.9434898240632758614765407401137 1537:0.355988 4504:0.355988 5589:0.355988 5593:0.355988 5596:0.355988 5599:0.355988 5600:0.355988 #
6.9434898240632758614765407401137 1234:0.247356 3397:0.247356 5568:0.247356 5581:0.247356 5593:0.247356 5604:0.247356 5608:0.247356 #
6.9434898240632758614765407401137 434:0.249071 1851:0.249071 5575:0.249071 5584:0.249071 #
6.9434898240632758614765407401137 1657:0.180869 4834:0.180869 5596:0.180869 5600:0.180869 5601:0.180869 5603:0.180869 #
3.3063181499267062513069959095446 1277:0.344098 5180:0.344098 5569:0.344098 5589:0.344098 5599:0.344098 5601:0.344098 #
6.9434898240632758614765407401137 1363:0.35198599 4718:0.35198599 5574:0.35198599 5582:0.35198599 #
6.9434898240632758614765407401137 1748:0.166124 4395:0.166124 #
6.9434898240632758614765407401137 1084:0.112658 1931:0.112658 5573:0.112658 #
-6.9434898240632758614765407401137 1295:0.12924901 3058:0.12924901 5583:0.12924901 5589:0.12924901 5597:0.12924901 #
-0.72101181109930756463199941208586 330:0.228029 4911:0.228029 #
6.9434898240632758614765407401137 1513:0.52718699 2673:0.52718699 #
6.9434898240632758614765407401137 622:0.183338 2385:0.183338 5589:0.183338 5590:0.183338 5592:0.183338 5593:0.183338 5594:0.183338 5595:0.183338 5596:0.183338 5597:0.183338 5598:0.183338 5599:0.183338 5600:0.183338 5601:0.183338 5603:0.183338 5604:0.183338 5605:0.183338 5606:0.183338 5607:0.183338 #
6.9434898240632758614765407401137 704:0.123475 4309:0.123475 5572:0.123475 #
6.9434898240632758614765407401137 1174:0.36199501 4504:0.36199501 5589:0.36199501 5593:0.36199501 5596:0.36199501 5599:0.36199501 5600:0.36199501 #
-1.0597751963061194935278308548732 45:0.26864901 5048:0.26864901 5579:0.26864901 #
6.9434898240632758614765407401137 35:0.40107 3048:0.40107 5583:0.40107 5586:0.40107 5589:0.40107 5597:0.40107 5601:0.40107 5604:0.40107 #
6.9434898240632758614765407401137 1353:0.256201 2673:0.256201 5579:0.256201 #
-6.9434898240632758614765407401137 1113:0.089745 2402:0.089745 5581:0.089745 5594:0.089745 5595:0.089745 5597:0.089745 5602:0.089745 #
6.9434898240632758614765407401137 695:0.20493101 1854:0.20493101 5589:0.20493101 5598:0.20493101 #
-6.9434898240632758614765407401137 1:0.011251 1851:0.011251 #
6.9434898240632758614765407401137 1632:0.13797601 2070:0.13797601 5583:0.13797601 5586:0.13797601 5589:0.13797601 5592:0.13797601 5596:0.13797601 5597:0.13797601 5604:0.13797601 #
6.9434898240632758614765407401137 816:0.0096079996 3397:0.0096079996 5593:0.0096079996 5604:0.0096079996 5608:0.0096079996 #
-6.9434898240632758614765407401137 718:0.122644 3048:0.122644 5589:0.122644 5597:0.122644 5601:0.122644 5604:0.122644 #
6.9434898240632758614765407401137 302:0.416769 4504:0.416769 5582:0.416769 5589:0.416769 5593:0.416769 5596:0.416769 5599:0.416769 5600:0.416769 #
-6.9434898240632758614765407401137 168:0.27852699 2878:0.27852699 5579:0.27852699 5589:0.27852699 5591:0.27852699 5594:0.27852699 5597:0.27852699 5603:0.27852699 5604:0.27852699 #
6.9434898240632758614765407401137 603:0.193057 3397:0.193057 5569:0.193057 5572:0.193057 5593:0.193057 5604:0.193057 5608:0.193057 #
-6.9434898240632758614765407401137 1592:1.089751 2385:1.089751 5568:1.089751 5584:1.089751 5586:1.089751 5589:1.089751 5590:1.089751 5592:1.089751 5593:1.089751 5594:1.089751 5595:1.089751 5596:1.089751 5597:1.089751 5598:1.089751 5599:1.089751 5600:1.089751 5601:1.089751 5603:1.089751 5604:1.089751 5605:1.089751 5606:1.089751 5607:1.089751 #
-6.9434898240632758614765407401137 1326:0.06622 3397:0.06622 5568:0.06622 5581:0.06622 5593:0.06622 5604:0.06622 5608:0.06622 #
6.9434898240632758614765407401137 501:0.111212 4970:0.111212 #
-6.9434898240632758614765407401137 1499:0.006794 3923:0.006794 #
6.9434898240632758614765407401137 1108:0.063371003 4504:0.063371003 5571:0.063371003 5589:0.063371003 5593:0.063371003 5596:0.063371003 5599:0.063371003 5600:0.063371003 #
6.9434898240632758614765407401137 1087:0.068313003 2673:0.068313003 5571:0.068313003 #
6.9434898240632758614765407401137 603:0.32858101 3130:0.32858101 5569:0.32858101 5572:0.32858101 #
6.9434898240632758614765407401137 1088:0.21114101 2878:0.21114101 5589:0.21114101 5591:0.21114101 5594:0.21114101 5597:0.21114101 5603:0.21114101 5604:0.21114101 #
6.9434898240632758614765407401137 946:0.25817999 2878:0.25817999 5589:0.25817999 5591:0.25817999 5594:0.25817999 5597:0.25817999 5603:0.25817999 5604:0.25817999 #
6.9434898240632758614765407401137 1363:0.17058399 3448:0.17058399 5574:0.17058399 5582:0.17058399 5599:0.17058399 #
6.9434898240632758614765407401137 112:0.111606 2385:0.111606 5589:0.111606 5590:0.111606 5592:0.111606 5593:0.111606 5594:0.111606 5595:0.111606 5596:0.111606 5597:0.111606 5598:0.111606 5599:0.111606 5600:0.111606 5601:0.111606 5603:0.111606 5604:0.111606 5605:0.111606 5606:0.111606 5607:0.111606 #
6.9434898240632758614765407401137 977:0.183864 2878:0.183864 5568:0.183864 5587:0.183864 5589:0.183864 5591:0.183864 5594:0.183864 5597:0.183864 5603:0.183864 5604:0.183864 #
6.9434898240632758614765407401137 977:0.074458003 4728:0.074458003 5568:0.074458003 5587:0.074458003 5594:0.074458003 #
6.9434898240632758614765407401137 375:0.024698 4504:0.024698 5589:0.024698 5593:0.024698 5596:0.024698 5599:0.024698 5600:0.024698 #
6.9434898240632758614765407401137 1303:0.215647 3058:0.215647 5569:0.215647 5589:0.215647 5597:0.215647 #
-6.9434898240632758614765407401137 1136:0.013572 3900:0.013572 5575:0.013572 5596:0.013572 5599:0.013572 5601:0.013572 5608:0.013572 #
6.581970417423320007799247832736 434:0.66775 3058:0.66775 5575:0.66775 5584:0.66775 5589:0.66775 5597:0.66775 #
6.9434898240632758614765407401137 1793:0.239564 2878:0.239564 5589:0.239564 5591:0.239564 5594:0.239564 5597:0.239564 5603:0.239564 5604:0.239564 #
6.9434898240632758614765407401137 961:0.020297 4988:0.020297 #
6.9434898240632758614765407401137 556:0.28862301 4504:0.28862301 5589:0.28862301 5593:0.28862301 5596:0.28862301 5599:0.28862301 5600:0.28862301 #
6.9434898240632758614765407401137 977:0.158213 4249:0.158213 5568:0.158213 5587:0.158213 5589:0.158213 5590:0.158213 #
6.9434898240632758614765407401137 1198:0.190485 3058:0.190485 5582:0.190485 5589:0.190485 5597:0.190485 #
6.9434898240632758614765407401137 796:0.222525 2673:0.222525 #
6.9434898240632758614765407401137 1363:0.206607 4911:0.206607 5574:0.206607 5582:0.206607 #
-6.9434898240632758614765407401137 155:0.119503 4834:0.119503 5596:0.119503 5600:0.119503 5601:0.119503 5603:0.119503 #
6.9434898240632758614765407401137 1214:0.064061001 2673:0.064061001 5572:0.064061001 #
6.9434898240632758614765407401137 805:0.34283999 2878:0.34283999 5573:0.34283999 5589:0.34283999 5591:0.34283999 5594:0.34283999 5597:0.34283999 5603:0.34283999 5604:0.34283999 #
6.9434898240632758614765407401137 1336:0.27744401 2878:0.27744401 5580:0.27744401 5583:0.27744401 5589:0.27744401 5591:0.27744401 5594:0.27744401 5597:0.27744401 5603:0.27744401 5604:0.27744401 #
6.9434898240632758614765407401137 1644:0.18162499 3486:0.18162499 #
6.9434898240632758614765407401137 863:0.19801 3512:0.19801 5603:0.19801 #
6.9434898240632758614765407401137 1484:0.198687 4834:0.198687 5579:0.198687 5596:0.198687 5600:0.198687 5601:0.198687 5603:0.198687 #
6.9434898240632758614765407401137 1516:0.077880003 2878:0.077880003 5569:0.077880003 5589:0.077880003 5591:0.077880003 5594:0.077880003 5597:0.077880003 5603:0.077880003 5604:0.077880003 #
6.9434898240632758614765407401137 1372:0.21840701 4249:0.21840701 5570:0.21840701 5576:0.21840701 5585:0.21840701 5589:0.21840701 5590:0.21840701 #
6.9434898240632758614765407401137 810:0.182587 2385:0.182587 5589:0.182587 5590:0.182587 5592:0.182587 5593:0.182587 5594:0.182587 5595:0.182587 5596:0.182587 5597:0.182587 5598:0.182587 5599:0.182587 5600:0.182587 5601:0.182587 5603:0.182587 5604:0.182587 5605:0.182587 5606:0.182587 5607:0.182587 #
6.9434898240632758614765407401137 1258:0.099255003 2878:0.099255003 5575:0.099255003 5583:0.099255003 5589:0.099255003 5591:0.099255003 5594:0.099255003 5597:0.099255003 5603:0.099255003 5604:0.099255003 #
6.9434898240632758614765407401137 377:0.06089 2385:0.06089 5569:0.06089 5589:0.06089 5590:0.06089 5592:0.06089 5593:0.06089 5594:0.06089 5595:0.06089 5596:0.06089 5597:0.06089 5598:0.06089 5599:0.06089 5600:0.06089 5601:0.06089 5603:0.06089 5604:0.06089 5605:0.06089 5606:0.06089 5607:0.06089 #
-6.9434898240632758614765407401137 1258:0.066122003 3397:0.066122003 5575:0.066122003 5583:0.066122003 5593:0.066122003 5604:0.066122003 5608:0.066122003 #
-6.9434898240632758614765407401137 1592:0.88424599 2385:0.88424599 5568:0.88424599 5584:0.88424599 5586:0.88424599 5589:0.88424599 5590:0.88424599 5592:0.88424599 5593:0.88424599 5594:0.88424599 5595:0.88424599 5596:0.88424599 5597:0.88424599 5598:0.88424599 5599:0.88424599 5600:0.88424599 5601:0.88424599 5603:0.88424599 5604:0.88424599 5605:0.88424599 5606:0.88424599 5607:0.88424599 #
-6.9434898240632758614765407401137 1372:0.021880999 4081:0.021880999 5570:0.021880999 5576:0.021880999 5585:0.021880999 5606:0.021880999 #
6.9434898240632758614765407401137 1583:0.28650999 4988:0.28650999 #
6.9434898240632758614765407401137 691:0.128819 2673:0.128819 #
6.9434898240632758614765407401137 434:0.114708 2385:0.114708 5575:0.114708 5584:0.114708 5589:0.114708 5590:0.114708 5592:0.114708 5593:0.114708 5594:0.114708 5595:0.114708 5596:0.114708 5597:0.114708 5598:0.114708 5599:0.114708 5600:0.114708 5601:0.114708 5603:0.114708 5604:0.114708 5605:0.114708 5606:0.114708 5607:0.114708 #
6.9434898240632758614765407401137 1136:0.146578 4504:0.146578 5575:0.146578 5589:0.146578 5593:0.146578 5596:0.146578 5599:0.146578 5600:0.146578 #
6.9434898240632758614765407401137 168:0.176174 3348:0.176174 5579:0.176174 #
6.9434898240632758614765407401137 1363:0.025564 3547:0.025564 5574:0.025564 5582:0.025564 #
6.9434898240632758614765407401137 34:0.063201003 2673:0.063201003 5577:0.063201003 #
6.9434898240632758614765407401137 927:0.087421998 4853:0.087421998 5579:0.087421998 #
-2.6968250380122174014729807822732 609:0.42278999 3878:0.42278999 5577:0.42278999 5590:0.42278999 5591:0.42278999 5592:0.42278999 5594:0.42278999 5597:0.42278999 5598:0.42278999 5599:0.42278999 5600:0.42278999 5605:0.42278999 5607:0.42278999 5608:0.42278999 #
-6.9434898240632758614765407401137 316:0.31949899 4718:0.31949899 #
-1.4394759593099142325201000858215 141:1.157198 4911:1.157198 #
-6.9434898240632758614765407401137 390:0.136087 3397:0.136087 5568:0.136087 5593:0.136087 5604:0.136087 5608:0.136087 #
6.9434898240632758614765407401137 386:0.13168 4081:0.13168 5585:0.13168 5606:0.13168 #
-1.7763537179386701403416282118997 609:0.44139799 5545:0.44139799 5577:0.44139799 5599:0.44139799 #
-6.9434898240632758614765407401137 304:0.003022 4834:0.003022 5596:0.003022 5600:0.003022 5601:0.003022 5603:0.003022 #
-1.0867122347733551013249098105007 609:0.43616301 4494:0.43616301 5577:0.43616301 #
-6.9434898240632758614765407401137 434:0.046672001 4504:0.046672001 5575:0.046672001 5584:0.046672001 5589:0.046672001 5593:0.046672001 5596:0.046672001 5599:0.046672001 5600:0.046672001 #
-6.9434898240632758614765407401137 1372:0.467307 2385:0.467307 5570:0.467307 5576:0.467307 5585:0.467307 5589:0.467307 5590:0.467307 5592:0.467307 5593:0.467307 5594:0.467307 5595:0.467307 5596:0.467307 5597:0.467307 5598:0.467307 5599:0.467307 5600:0.467307 5601:0.467307 5603:0.467307 5604:0.467307 5605:0.467307 5606:0.467307 5607:0.467307 #
-6.9434898240632758614765407401137 1841:0.56703001 3486:0.56703001 #
6.9434898240632758614765407401137 540:0.61727601 2878:0.61727601 5577:0.61727601 5589:0.61727601 5591:0.61727601 5594:0.61727601 5597:0.61727601 5603:0.61727601 5604:0.61727601 #
6.9434898240632758614765407401137 216:0.118106 2385:0.118106 5589:0.118106 5590:0.118106 5592:0.118106 5593:0.118106 5594:0.118106 5595:0.118106 5596:0.118106 5597:0.118106 5598:0.118106 5599:0.118106 5600:0.118106 5601:0.118106 5603:0.118106 5604:0.118106 5605:0.118106 5606:0.118106 5607:0.118106 #
6.9434898240632758614765407401137 269:0.31498101 4686:0.31498101 5574:0.31498101 5592:0.31498101 #
-6.9434898240632758614765407401137 603:0.26254299 2385:0.26254299 5569:0.26254299 5572:0.26254299 5589:0.26254299 5590:0.26254299 5592:0.26254299 5593:0.26254299 5594:0.26254299 5595:0.26254299 5596:0.26254299 5597:0.26254299 5598:0.26254299 5599:0.26254299 5600:0.26254299 5601:0.26254299 5603:0.26254299 5604:0.26254299 5605:0.26254299 5606:0.26254299 5607:0.26254299 #
-0.84943476969837838908006233396009 168:0.34944299 3037:0.34944299 5579:0.34944299 #
6.9434898240632758614765407401137 2:0.221862 2385:0.221862 5589:0.221862 5590:0.221862 5592:0.221862 5593:0.221862 5594:0.221862 5595:0.221862 5596:0.221862 5597:0.221862 5598:0.221862 5599:0.221862 5600:0.221862 5601:0.221862 5603:0.221862 5604:0.221862 5605:0.221862 5606:0.221862 5607:0.221862 #
-6.9434898240632758614765407401137 805:0.25955901 2385:0.25955901 5573:0.25955901 5589:0.25955901 5590:0.25955901 5592:0.25955901 5593:0.25955901 5594:0.25955901 5595:0.25955901 5596:0.25955901 5597:0.25955901 5598:0.25955901 5599:0.25955901 5600:0.25955901 5601:0.25955901 5603:0.25955901 5604:0.25955901 5605:0.25955901 5606:0.25955901 5607:0.25955901 #
-4.4957303016074856572004136978649 1234:0.30516499 4593:0.30516499 5568:0.30516499 5581:0.30516499 #
-2.6456686170200218732873054250376 1513:0.31891799 2194:0.31891799 #
6.9434898240632758614765407401137 1372:0.08529 4081:0.08529 5570:0.08529 5576:0.08529 5585:0.08529 5606:0.08529 #
-6.0929631972684790142125166312326 337:0.061398 2914:0.061398 5580:0.061398 #
-0.7355878862116627114886568961083 1179:0.51459903 5555:0.51459903 5569:0.51459903 #
-6.9434898240632758614765407401137 269:0.38074201 3397:0.38074201 5574:0.38074201 5593:0.38074201 5604:0.38074201 5608:0.38074201 #
-0.75188421296226726209255275534815 1748:0.43079901 4879:0.43079901 #
6.9434898240632758614765407401137 439:0.15369099 2385:0.15369099 5571:0.15369099 5586:0.15369099 5589:0.15369099 5590:0.15369099 5592:0.15369099 5593:0.15369099 5594:0.15369099 5595:0.15369099 5596:0.15369099 5597:0.15369099 5598:0.15369099 5599:0.15369099 5600:0.15369099 5601:0.15369099 5603:0.15369099 5604:0.15369099 5605:0.15369099 5606:0.15369099 5607:0.15369099 #
-1.2807646315541223458467356977053 1513:0.256942 4447:0.256942 #
-1.8776626546684276330978491387214 468:0.79282302 3868:0.79282302 #
-6.9434898240632758614765407401137 1510:0.31166101 2385:0.31166101 5589:0.31166101 5590:0.31166101 5592:0.31166101 5593:0.31166101 5594:0.31166101 5595:0.31166101 5596:0.31166101 5597:0.31166101 5598:0.31166101 5599:0.31166101 5600:0.31166101 5601:0.31166101 5603:0.31166101 5604:0.31166101 5605:0.31166101 5606:0.31166101 5607:0.31166101 #
-6.9434898240632758614765407401137 434:0.199577 4192:0.199577 5575:0.199577 5584:0.199577 5601:0.199577 5603:0.199577 #
-6.9434898240632758614765407401137 1637:0.30622399 2385:0.30622399 5589:0.30622399 5590:0.30622399 5592:0.30622399 5593:0.30622399 5594:0.30622399 5595:0.30622399 5596:0.30622399 5597:0.30622399 5598:0.30622399 5599:0.30622399 5600:0.30622399 5601:0.30622399 5603:0.30622399 5604:0.30622399 5605:0.30622399 5606:0.30622399 5607:0.30622399 #
-2.0631069318927308664513020630693 1513:0.246363 3212:0.246363 #
-6.9434898240632758614765407401137 1632:0.27728099 2385:0.27728099 5583:0.27728099 5586:0.27728099 5589:0.27728099 5590:0.27728099 5592:0.27728099 5593:0.27728099 5594:0.27728099 5595:0.27728099 5596:0.27728099 5597:0.27728099 5598:0.27728099 5599:0.27728099 5600:0.27728099 5601:0.27728099 5603:0.27728099 5604:0.27728099 5605:0.27728099 5606:0.27728099 5607:0.27728099 #
-0.26461472164805072138094033107336 1372:0.348611 2480:0.348611 5570:0.348611 5576:0.348611 5585:0.348611 #
-6.9434898240632758614765407401137 35:0.31179899 2385:0.31179899 5583:0.31179899 5586:0.31179899 5589:0.31179899 5590:0.31179899 5592:0.31179899 5593:0.31179899 5594:0.31179899 5595:0.31179899 5596:0.31179899 5597:0.31179899 5598:0.31179899 5599:0.31179899 5600:0.31179899 5601:0.31179899 5603:0.31179899 5604:0.31179899 5605:0.31179899 5606:0.31179899 5607:0.31179899 #
-6.9434898240632758614765407401137 1590:0.014693 1851:0.014693 5580:0.014693 #
-6.9434898240632758614765407401137 1340:0.293192 3488:0.293192 #
-6.9434898240632758614765407401137 1336:0.079397999 2548:0.079397999 5580:0.079397999 5583:0.079397999 5596:0.079397999 #
-1.4967174409464309992046082697925 609:0.31033501 2918:0.31033501 5577:0.31033501 #
-6.9434898240632758614765407401137 1174:0.13192099 3904:0.13192099 5595:0.13192099 5597:0.13192099 5599:0.13192099 #
-6.9434898240632758614765407401137 818:0.21809199 4676:0.21809199 #
-6.9434898240632758614765407401137 1084:0.0044479999 2402:0.0044479999 5573:0.0044479999 5594:0.0044479999 5595:0.0044479999 5597:0.0044479999 5602:0.0044479999 #
-6.9434898240632758614765407401137 565:0.34177199 2878:0.34177199 5574:0.34177199 5589:0.34177199 5591:0.34177199 5594:0.34177199 5597:0.34177199 5603:0.34177199 5604:0.34177199 #
-0.48582888569595228389630392484833 1545:0.37145001 4911:0.37145001 #
-0.15882876927920541731964476639405 1372:0.65679997 3527:0.65679997 5570:0.65679997 5576:0.65679997 5585:0.65679997 #
-6.6302242626406480141554311558139 1767:0.162551 2614:0.162551 #
-6.9434898240632758614765407401137 1372:0.36329401 2385:0.36329401 5570:0.36329401 5576:0.36329401 5585:0.36329401 5589:0.36329401 5590:0.36329401 5592:0.36329401 5593:0.36329401 5594:0.36329401 5595:0.36329401 5596:0.36329401 5597:0.36329401 5598:0.36329401 5599:0.36329401 5600:0.36329401 5601:0.36329401 5603:0.36329401 5604:0.36329401 5605:0.36329401 5606:0.36329401 5607:0.36329401 #
-6.9434898240632758614765407401137 338:0.27849799 2385:0.27849799 5589:0.27849799 5590:0.27849799 5592:0.27849799 5593:0.27849799 5594:0.27849799 5595:0.27849799 5596:0.27849799 5597:0.27849799 5598:0.27849799 5599:0.27849799 5600:0.27849799 5601:0.27849799 5603:0.27849799 5604:0.27849799 5605:0.27849799 5606:0.27849799 5607:0.27849799 #
-3.5815318666835338490272988565266 1372:0.61951703 3524:0.61951703 5570:0.61951703 5576:0.61951703 5585:0.61951703 #
-0.25891720169912169069448282243684 312:0.984155 3878:0.984155 5590:0.984155 5591:0.984155 5592:0.984155 5594:0.984155 5597:0.984155 5598:0.984155 5599:0.984155 5600:0.984155 5605:0.984155 5607:0.984155 5608:0.984155 #
-6.724037736798449849118242127588 1463:0.33652401 4504:0.33652401 5589:0.33652401 5593:0.33652401 5596:0.33652401 5599:0.33652401 5600:0.33652401 #
-6.9434898240632758614765407401137 1590:0.142643 3900:0.142643 5580:0.142643 5596:0.142643 5599:0.142643 5601:0.142643 5608:0.142643 #
-1.6156398568237051449614227749407 540:0.27776101 4339:0.27776101 5577:0.27776101 #
-6.9434898240632758614765407401137 1583:0.149351 2385:0.149351 5589:0.149351 5590:0.149351 5592:0.149351 5593:0.149351 5594:0.149351 5595:0.149351 5596:0.149351 5597:0.149351 5598:0.149351 5599:0.149351 5600:0.149351 5601:0.149351 5603:0.149351 5604:0.149351 5605:0.149351 5606:0.149351 5607:0.149351 #
-6.9434898240632758614765407401137 1106:0.34319299 2385:0.34319299 5589:0.34319299 5590:0.34319299 5592:0.34319299 5593:0.34319299 5594:0.34319299 5595:0.34319299 5596:0.34319299 5597:0.34319299 5598:0.34319299 5599:0.34319299 5600:0.34319299 5601:0.34319299 5603:0.34319299 5604:0.34319299 5605:0.34319299 5606:0.34319299 5607:0.34319299 #
-3.1817706878057339103804679325549 269:0.043396 2178:0.043396 5574:0.043396 #
-6.9434898240632758614765407401137 1011:0.24977501 3900:0.24977501 5596:0.24977501 5599:0.24977501 5601:0.24977501 5608:0.24977501 #
-6.9434898240632758614765407401137 168:0.051862001 2878:0.051862001 5579:0.051862001 5589:0.051862001 5591:0.051862001 5594:0.051862001 5597:0.051862001 5603:0.051862001 5604:0.051862001 #
-6.9434898240632758614765407401137 580:0.38954201 2385:0.38954201 5589:0.38954201 5590:0.38954201 5592:0.38954201 5593:0.38954201 5594:0.38954201 5595:0.38954201 5596:0.38954201 5597:0.38954201 5598:0.38954201 5599:0.38954201 5600:0.38954201 5601:0.38954201 5603:0.38954201 5604:0.38954201 5605:0.38954201 5606:0.38954201 5607:0.38954201 #
-6.9434898240632758614765407401137 1258:0.0055379998 4504:0.0055379998 5575:0.0055379998 5583:0.0055379998 5589:0.0055379998 5593:0.0055379998 5596:0.0055379998 5599:0.0055379998 5600:0.0055379998 #
6.9434898240632758614765407401137 1632:0.181677 2385:0.181677 5583:0.181677 5586:0.181677 5589:0.181677 5590:0.181677 5592:0.181677 5593:0.181677 5594:0.181677 5595:0.181677 5596:0.181677 5597:0.181677 5598:0.181677 5599:0.181677 5600:0.181677 5601:0.181677 5603:0.181677 5604:0.181677 5605:0.181677 5606:0.181677 5607:0.181677 #
-6.9434898240632758614765407401137 1550:0.242715 2385:0.242715 5589:0.242715 5590:0.242715 5592:0.242715 5593:0.242715 5594:0.242715 5595:0.242715 5596:0.242715 5597:0.242715 5598:0.242715 5599:0.242715 5600:0.242715 5601:0.242715 5603:0.242715 5604:0.242715 5605:0.242715 5606:0.242715 5607:0.242715 #
-2.0275443857523365309702967351768 880:0.23399299 3659:0.23399299 5570:0.23399299 #
-6.9434898240632758614765407401137 1362:0.133817 3048:0.133817 5589:0.133817 5597:0.133817 5601:0.133817 5604:0.133817 #
-2.9901159419249796478368352836696 789:0.36621699 2729:0.36621699 5596:0.36621699 #
-4.0133330332165488840701073058881 81:0.022593001 4492:0.022593001 #
6.9434898240632758614765407401137 1387:0.160229 2385:0.160229 5589:0.160229 5590:0.160229 5592:0.160229 5593:0.160229 5594:0.160229 5595:0.160229 5596:0.160229 5597:0.160229 5598:0.160229 5599:0.160229 5600:0.160229 5601:0.160229 5603:0.160229 5604:0.160229 5605:0.160229 5606:0.160229 5607:0.160229 #
-6.9434898240632758614765407401137 1603:0.12689801 2548:0.12689801 5596:0.12689801 #
-6.9434898240632758614765407401137 861:0.240244 2385:0.240244 5589:0.240244 5590:0.240244 5592:0.240244 5593:0.240244 5594:0.240244 5595:0.240244 5596:0.240244 5597:0.240244 5598:0.240244 5599:0.240244 5600:0.240244 5601:0.240244 5603:0.240244 5604:0.240244 5605:0.240244 5606:0.240244 5607:0.240244 #
-0.63319484668129333293506988411536 704:0.34373799 5216:0.34373799 5572:0.34373799 #
-3.5073722555415280943691413995111 249:0.124883 4592:0.124883 5580:0.124883 #
-6.9434898240632758614765407401137 486:0.0082569998 2385:0.0082569998 5585:0.0082569998 5589:0.0082569998 5590:0.0082569998 5592:0.0082569998 5593:0.0082569998 5594:0.0082569998 5595:0.0082569998 5596:0.0082569998 5597:0.0082569998 5598:0.0082569998 5599:0.0082569998 5600:0.0082569998 5601:0.0082569998 5603:0.0082569998 5604:0.0082569998 5605:0.0082569998 5606:0.0082569998 5607:0.0082569998 #
6.9434898240632758614765407401137 1582:0.17576399 2385:0.17576399 5589:0.17576399 5590:0.17576399 5592:0.17576399 5593:0.17576399 5594:0.17576399 5595:0.17576399 5596:0.17576399 5597:0.17576399 5598:0.17576399 5599:0.17576399 5600:0.17576399 5601:0.17576399 5603:0.17576399 5604:0.17576399 5605:0.17576399 5606:0.17576399 5607:0.17576399 #
-6.9434898240632758614765407401137 1372:0.30565301 2385:0.30565301 5570:0.30565301 5576:0.30565301 5585:0.30565301 5589:0.30565301 5590:0.30565301 5592:0.30565301 5593:0.30565301 5594:0.30565301 5595:0.30565301 5596:0.30565301 5597:0.30565301 5598:0.30565301 5599:0.30565301 5600:0.30565301 5601:0.30565301 5603:0.30565301 5604:0.30565301 5605:0.30565301 5606:0.30565301 5607:0.30565301 #
-0.30934345460425538565374381505535 130:0.34443599 1927:0.34443599 5575:0.34443599 #
6.9434898240632758614765407401137 1363:0.046332002 2194:0.046332002 5574:0.046332002 5582:0.046332002 #
-6.9434898240632758614765407401137 1398:0.13187 4834:0.13187 5596:0.13187 5600:0.13187 5601:0.13187 5603:0.13187 #
-6.9434898240632758614765407401137 337:0.099104002 5180:0.099104002 5580:0.099104002 5589:0.099104002 5599:0.099104002 5601:0.099104002 #
-6.9434898240632758614765407401137 1537:0.1236 3956:0.1236 5590:0.1236 #
-6.9434898240632758614765407401137 1094:0.211353 2385:0.211353 5584:0.211353 5589:0.211353 5590:0.211353 5592:0.211353 5593:0.211353 5594:0.211353 5595:0.211353 5596:0.211353 5597:0.211353 5598:0.211353 5599:0.211353 5600:0.211353 5601:0.211353 5603:0.211353 5604:0.211353 5605:0.211353 5606:0.211353 5607:0.211353 #
-2.5208297853157768386722636932973 1513:0.198668 2763:0.198668 #
