SVM-light Version V6.02
0 # kernel type
3 # kernel parameter -d 
1 # kernel parameter -g 
1 # kernel parameter -s 
1 # kernel parameter -r 
empty# kernel parameter -u 
3025 # highest feature index 
6060 # number of training documents 
3464 # number of support vectors plus 1 
1.0047292 # threshold b, each following line is a SV (starting with alpha*y)
-7.2370381908011145455361656786408 145:0.026322 2608:0.026322 2997:0.026322 3006:0.026322 3008:0.026322 3010:0.026322 3011:0.026322 3012:0.026322 3014:0.026322 3017:0.026322 3018:0.026322 3019:0.026322 3020:0.026322 3022:0.026322 3024:0.026322 #
7.2370381908011145455361656786408 1026:0.0052939998 2057:0.0052939998 3004:0.0052939998 3011:0.0052939998 3013:0.0052939998 3015:0.0052939998 3016:0.0052939998 3018:0.0052939998 3021:0.0052939998 3025:0.0052939998 #
7.2370381908011145455361656786408 1853:0.089395002 2847:0.089395002 2985:0.089395002 3006:0.089395002 3008:0.089395002 3010:0.089395002 3014:0.089395002 3019:0.089395002 3020:0.089395002 3022:0.089395002 3024:0.089395002 #
-7.2370381908011145455361656786408 248:0.34713599 2827:0.34713599 3006:0.34713599 3009:0.34713599 3010:0.34713599 3012:0.34713599 3014:0.34713599 3017:0.34713599 3018:0.34713599 3019:0.34713599 3020:0.34713599 3021:0.34713599 3022:0.34713599 3023:0.34713599 3024:0.34713599 #
-7.2370381908011145455361656786408 510:0.40642801 2624:0.40642801 3015:0.40642801 3016:0.40642801 #
-0.14890575723378790540252225582663 1315:0.39473 2016:0.39473 3013:0.39473 3025:0.39473 #
7.2370381908011145455361656786408 1026:0.022939 1908:0.022939 3004:0.022939 3006:0.022939 3013:0.022939 3015:0.022939 3016:0.022939 3020:0.022939 3025:0.022939 #
7.2370381908011145455361656786408 428:0.20594899 2827:0.20594899 2991:0.20594899 3006:0.20594899 3009:0.20594899 3010:0.20594899 3012:0.20594899 3014:0.20594899 3017:0.20594899 3018:0.20594899 3019:0.20594899 3020:0.20594899 3021:0.20594899 3022:0.20594899 3023:0.20594899 3024:0.20594899 #
-7.2370381908011145455361656786408 704:0.133347 1908:0.133347 3006:0.133347 3013:0.133347 3015:0.133347 3016:0.133347 3020:0.133347 3025:0.133347 #
7.2370381908011145455361656786408 1136:0.206109 2826:0.206109 #
-7.2370381908011145455361656786408 1261:1.0202841 2608:1.0202841 2993:1.0202841 3006:1.0202841 3008:1.0202841 3010:1.0202841 3011:1.0202841 3012:1.0202841 3014:1.0202841 3017:1.0202841 3018:1.0202841 3019:1.0202841 3020:1.0202841 3022:1.0202841 3024:1.0202841 #
-7.2370381908011145455361656786408 370:0.53908598 1908:0.53908598 3004:0.53908598 3006:0.53908598 3013:0.53908598 3015:0.53908598 3016:0.53908598 3020:0.53908598 3025:0.53908598 #
-7.2370381908011145455361656786408 589:0.0060259998 1908:0.0060259998 3006:0.0060259998 3013:0.0060259998 3015:0.0060259998 3016:0.0060259998 3020:0.0060259998 3025:0.0060259998 #
-7.2370381908011145455361656786408 728:0.25641999 1908:0.25641999 3006:0.25641999 3013:0.25641999 3015:0.25641999 3016:0.25641999 3020:0.25641999 3025:0.25641999 #
7.2370381908011145455361656786408 1715:0.57249099 2209:0.57249099 3016:0.57249099 #
-7.2370381908011145455361656786408 1244:0.045015 2100:0.045015 2998:0.045015 #
-7.2370381908011145455361656786408 383:0.68996799 2081:0.68996799 2989:0.68996799 3007:0.68996799 3020:0.68996799 3024:0.68996799 #
-7.2370381908011145455361656786408 742:0.84854001 2608:0.84854001 2997:0.84854001 3006:0.84854001 3008:0.84854001 3010:0.84854001 3011:0.84854001 3012:0.84854001 3014:0.84854001 3017:0.84854001 3018:0.84854001 3019:0.84854001 3020:0.84854001 3022:0.84854001 3024:0.84854001 #
-7.2370381908011145455361656786408 768:0.93291199 2608:0.93291199 3000:0.93291199 3006:0.93291199 3008:0.93291199 3010:0.93291199 3011:0.93291199 3012:0.93291199 3014:0.93291199 3017:0.93291199 3018:0.93291199 3019:0.93291199 3020:0.93291199 3022:0.93291199 3024:0.93291199 #
6.8769341000896497817507224681322 503:0.46052799 2361:0.46052799 2993:0.46052799 #
7.2370381908011145455361656786408 1402:0.068692997 2847:0.068692997 2989:0.068692997 3001:0.068692997 3006:0.068692997 3008:0.068692997 3010:0.068692997 3014:0.068692997 3019:0.068692997 3020:0.068692997 3022:0.068692997 3024:0.068692997 #
7.2370381908011145455361656786408 663:0.224406 2387:0.224406 2993:0.224406 #
-7.2370381908011145455361656786408 1542:0.001902 2827:0.001902 3006:0.001902 3009:0.001902 3010:0.001902 3012:0.001902 3014:0.001902 3017:0.001902 3018:0.001902 3019:0.001902 3020:0.001902 3021:0.001902 3022:0.001902 3023:0.001902 3024:0.001902 #
-7.2370381908011145455361656786408 1753:0.002228 2057:0.002228 3011:0.002228 3013:0.002228 3015:0.002228 3016:0.002228 3018:0.002228 3021:0.002228 3025:0.002228 #
-7.2370381908011145455361656786408 771:0.350649 2827:0.350649 2989:0.350649 3006:0.350649 3009:0.350649 3010:0.350649 3012:0.350649 3014:0.350649 3017:0.350649 3018:0.350649 3019:0.350649 3020:0.350649 3021:0.350649 3022:0.350649 3023:0.350649 3024:0.350649 #
-7.2370381908011145455361656786408 1709:0.74458599 2081:0.74458599 2987:0.74458599 3007:0.74458599 3020:0.74458599 3024:0.74458599 #
-7.2370381908011145455361656786408 1577:0.71090603 2081:0.71090603 3007:0.71090603 3020:0.71090603 3024:0.71090603 #
2.9221694535339928222583694150671 1261:0.88861001 2608:0.88861001 2993:0.88861001 3006:0.88861001 3008:0.88861001 3010:0.88861001 3011:0.88861001 3012:0.88861001 3014:0.88861001 3017:0.88861001 3018:0.88861001 3019:0.88861001 3020:0.88861001 3022:0.88861001 3024:0.88861001 #
-7.2370381908011145455361656786408 1789:0.070560001 1908:0.070560001 3006:0.070560001 3013:0.070560001 3015:0.070560001 3016:0.070560001 3020:0.070560001 3025:0.070560001 #
-7.2370381908011145455361656786408 840:0.049791001 1889:0.049791001 2993:0.049791001 #
-1.3151966528517946564136309461901 1477:0.50883502 1987:0.50883502 2989:0.50883502 #
-7.2370381908011145455361656786408 741:0.95675099 2608:0.95675099 2991:0.95675099 3006:0.95675099 3008:0.95675099 3010:0.95675099 3011:0.95675099 3012:0.95675099 3014:0.95675099 3017:0.95675099 3018:0.95675099 3019:0.95675099 3020:0.95675099 3022:0.95675099 3024:0.95675099 #
7.2370381908011145455361656786408 1250:0.26923901 1908:0.26923901 2999:0.26923901 3006:0.26923901 3013:0.26923901 3015:0.26923901 3016:0.26923901 3020:0.26923901 3025:0.26923901 #
-7.2370381908011145455361656786408 452:0.015887 2847:0.015887 2990:0.015887 3006:0.015887 3008:0.015887 3010:0.015887 3014:0.015887 3019:0.015887 3020:0.015887 3022:0.015887 3024:0.015887 #
-7.2370381908011145455361656786408 731:0.003426 2306:0.003426 2998:0.003426 #
-7.2370381908011145455361656786408 1250:0.446219 2081:0.446219 2999:0.446219 3007:0.446219 3020:0.446219 3024:0.446219 #
-7.2370381908011145455361656786408 1684:0.44700599 2507:0.44700599 2987:0.44700599 3007:0.44700599 3008:0.44700599 3009:0.44700599 3010:0.44700599 3011:0.44700599 3012:0.44700599 3014:0.44700599 3018:0.44700599 3019:0.44700599 3020:0.44700599 3021:0.44700599 3022:0.44700599 3023:0.44700599 3024:0.44700599 3025:0.44700599 #
-7.2370381908011145455361656786408 147:0.33059099 2081:0.33059099 2999:0.33059099 3007:0.33059099 3020:0.33059099 3024:0.33059099 #
7.2370381908011145455361656786408 741:0.34967101 2478:0.34967101 2991:0.34967101 #
7.2370381908011145455361656786408 1795:0.31237099 2706:0.31237099 2988:0.31237099 #
-4.9278461382654974443084938684478 1085:0.54412103 2915:0.54412103 2999:0.54412103 #
-7.2370381908011145455361656786408 1540:0.052274 2847:0.052274 2989:0.052274 3006:0.052274 3008:0.052274 3010:0.052274 3014:0.052274 3019:0.052274 3020:0.052274 3022:0.052274 3024:0.052274 #
-7.2370381908011145455361656786408 1467:0.370996 2777:0.370996 2999:0.370996 #
-0.91630840353513010043684516858775 264:0.202381 2882:0.202381 2999:0.202381 #
-7.2370381908011145455361656786408 200:0.24523599 2882:0.24523599 2989:0.24523599 #
-7.2370381908011145455361656786408 1570:0.28298301 2444:0.28298301 2999:0.28298301 3019:0.28298301 #
7.2370381908011145455361656786408 2:0.033273999 2706:0.033273999 2989:0.033273999 #
-7.2370381908011145455361656786408 1404:0.31648001 1894:0.31648001 2989:0.31648001 #
1.2326006408077596621097882234608 943:0.76710498 2324:0.76710498 3000:0.76710498 #
7.2094027357479966156006412347779 1010:0.53204501 2882:0.53204501 3000:0.53204501 #
7.2370381908011145455361656786408 768:0.40879601 2268:0.40879601 3000:0.40879601 3019:0.40879601 3021:0.40879601 #
7.2370381908011145455361656786408 1326:0.41656399 2406:0.41656399 3000:0.41656399 #
-7.2370381908011145455361656786408 289:0.053881999 2847:0.053881999 2985:0.053881999 2994:0.053881999 3006:0.053881999 3008:0.053881999 3010:0.053881999 3014:0.053881999 3019:0.053881999 3020:0.053881999 3022:0.053881999 3024:0.053881999 #
-3.942921376942797095921378058847 697:0.64174199 2826:0.64174199 3004:0.64174199 #
-3.4474526840931796201061843021307 101:0.152751 2238:0.152751 2997:0.152751 #
7.2370381908011145455361656786408 1404:0.035746001 2507:0.035746001 2989:0.035746001 3007:0.035746001 3008:0.035746001 3009:0.035746001 3010:0.035746001 3011:0.035746001 3012:0.035746001 3014:0.035746001 3018:0.035746001 3019:0.035746001 3020:0.035746001 3021:0.035746001 3022:0.035746001 3023:0.035746001 3024:0.035746001 3025:0.035746001 #
-7.2370381908011145455361656786408 882:0.040755 2395:0.040755 3002:0.040755 #
-7.2370381908011145455361656786408 1070:0.151244 2057:0.151244 3011:0.151244 3013:0.151244 3015:0.151244 3016:0.151244 3018:0.151244 3021:0.151244 3025:0.151244 #
5.2791196927994121779192937538028 992:0.28213 1882:0.28213 2985:0.28213 2991:0.28213 #
7.2370381908011145455361656786408 1442:0.23497701 2476:0.23497701 2991:0.23497701 #
7.2370381908011145455361656786408 1717:0.233265 2847:0.233265 3001:0.233265 3006:0.233265 3008:0.233265 3010:0.233265 3014:0.233265 3019:0.233265 3020:0.233265 3022:0.233265 3024:0.233265 #
7.2370381908011145455361656786408 1420:0.191631 2057:0.191631 3004:0.191631 3011:0.191631 3013:0.191631 3015:0.191631 3016:0.191631 3018:0.191631 3021:0.191631 3025:0.191631 #
0.83478887271169299744144609576324 1239:0.77594203 2476:0.77594203 2986:0.77594203 3000:0.77594203 #
-7.2370381908011145455361656786408 1843:0.184999 2112:0.184999 3009:0.184999 3012:0.184999 3018:0.184999 3021:0.184999 3022:0.184999 3024:0.184999 #
7.2370381908011145455361656786408 47:0.29533201 1925:0.29533201 #
-5.0760230314843237664490516181104 1562:1.179926 2476:1.179926 2996:1.179926 #
-3.7469980233026198845891485689208 1091:0.834584 2476:0.834584 #
-7.2370381908011145455361656786408 29:0.064034 2535:0.064034 3001:0.064034 #
-7.2370381908011145455361656786408 312:0.35358199 2476:0.35358199 2985:0.35358199 #
7.2370381908011145455361656786408 453:0.116545 2372:0.116545 2993:0.116545 #
7.2370381908011145455361656786408 1158:0.21280099 2476:0.21280099 2991:0.21280099 #
-7.2370381908011145455361656786408 1404:0.77587801 2208:0.77587801 2989:0.77587801 #
-6.8150675670794864657864309265278 1404:0.33543801 2282:0.33543801 2989:0.33543801 #
7.2370381908011145455361656786408 1239:0.33980599 2455:0.33980599 2986:0.33980599 3000:0.33980599 #
7.2370381908011145455361656786408 837:0.66489702 2208:0.66489702 2985:0.66489702 3003:0.66489702 #
7.2370381908011145455361656786408 948:0.036892999 2416:0.036892999 3013:0.036892999 3021:0.036892999 #
-7.2370381908011145455361656786408 420:0.077064998 2827:0.077064998 3003:0.077064998 3006:0.077064998 3009:0.077064998 3010:0.077064998 3012:0.077064998 3014:0.077064998 3017:0.077064998 3018:0.077064998 3019:0.077064998 3020:0.077064998 3021:0.077064998 3022:0.077064998 3023:0.077064998 3024:0.077064998 #
7.2370381908011145455361656786408 1873:0.124737 2624:0.124737 2995:0.124737 3015:0.124737 3016:0.124737 #
-2.320094378969827619840771149029 809:1.349445 1908:1.349445 3006:1.349445 3013:1.349445 3015:1.349445 3016:1.349445 3020:1.349445 3025:1.349445 #
1.3065446279543557750457694055513 880:0.68146002 1908:0.68146002 3006:0.68146002 3013:0.68146002 3015:0.68146002 3016:0.68146002 3020:0.68146002 3025:0.68146002 #
-7.2370381908011145455361656786408 1863:0.84884799 2608:0.84884799 3006:0.84884799 3008:0.84884799 3010:0.84884799 3011:0.84884799 3012:0.84884799 3014:0.84884799 3017:0.84884799 3018:0.84884799 3019:0.84884799 3020:0.84884799 3022:0.84884799 3024:0.84884799 #
3.9738839903944835896254517138004 1148:0.277349 2608:0.277349 3006:0.277349 3008:0.277349 3010:0.277349 3011:0.277349 3012:0.277349 3014:0.277349 3017:0.277349 3018:0.277349 3019:0.277349 3020:0.277349 3022:0.277349 3024:0.277349 #
-7.2370381908011145455361656786408 932:0.0033420001 2037:0.0033420001 2993:0.0033420001 3024:0.0033420001 #
-7.2370381908011145455361656786408 1280:0.23439001 1908:0.23439001 3006:0.23439001 3013:0.23439001 3015:0.23439001 3016:0.23439001 3020:0.23439001 3025:0.23439001 #
7.2370381908011145455361656786408 1863:0.40776399 2307:0.40776399 #
0.73592739332061851698085774842184 986:0.61792302 2037:0.61792302 2997:0.61792302 3024:0.61792302 #
7.2370381908011145455361656786408 101:0.377074 1908:0.377074 2997:0.377074 3006:0.377074 3013:0.377074 3015:0.377074 3016:0.377074 3020:0.377074 3025:0.377074 #
-4.9536714465545887975395089597441 1646:0.26281801 2069:0.26281801 2990:0.26281801 #
-4.7009397204578036166822130326182 646:0.33896801 2307:0.33896801 2989:0.33896801 #
7.2370381908011145455361656786408 1176:0.013879 1949:0.013879 2985:0.013879 #
7.2370381908011145455361656786408 751:0.01276 2189:0.01276 3007:0.01276 3008:0.01276 3010:0.01276 3012:0.01276 3017:0.01276 3023:0.01276 3024:0.01276 #
6.488621113819275976197786803823 701:0.29350001 2424:0.29350001 3008:0.29350001 3011:0.29350001 3018:0.29350001 3025:0.29350001 #
-7.2370381908011145455361656786408 675:0.0033460001 1908:0.0033460001 3006:0.0033460001 3013:0.0033460001 3015:0.0033460001 3016:0.0033460001 3020:0.0033460001 3025:0.0033460001 #
-7.2370381908011145455361656786408 614:0.196264 2370:0.196264 2999:0.196264 #
-2.9781221127632937495377518644091 1571:0.46857801 2402:0.46857801 2993:0.46857801 #
-6.8305445500146895199122809572145 503:0.26407799 2886:0.26407799 2993:0.26407799 #
-7.2370381908011145455361656786408 147:0.0038600001 1882:0.0038600001 2999:0.0038600001 #
1.835726248551440287215541502519 392:0.59763902 2507:0.59763902 3007:0.59763902 3008:0.59763902 3009:0.59763902 3010:0.59763902 3011:0.59763902 3012:0.59763902 3014:0.59763902 3018:0.59763902 3019:0.59763902 3020:0.59763902 3021:0.59763902 3022:0.59763902 3023:0.59763902 3024:0.59763902 3025:0.59763902 #
-7.2370381908011145455361656786408 614:0.839221 1887:0.839221 2999:0.839221 3006:0.839221 3023:0.839221 #
7.2370381908011145455361656786408 1463:0.102152 2209:0.102152 3016:0.102152 #
-7.2370381908011145455361656786408 818:0.45811501 2827:0.45811501 2993:0.45811501 3006:0.45811501 3009:0.45811501 3010:0.45811501 3012:0.45811501 3014:0.45811501 3017:0.45811501 3018:0.45811501 3019:0.45811501 3020:0.45811501 3021:0.45811501 3022:0.45811501 3023:0.45811501 3024:0.45811501 #
-7.2370381908011145455361656786408 837:0.0071120001 1889:0.0071120001 2985:0.0071120001 3003:0.0071120001 #
7.2370381908011145455361656786408 1404:0.30096099 2882:0.30096099 2989:0.30096099 #
7.2370381908011145455361656786408 228:0.30900899 2847:0.30900899 2985:0.30900899 3006:0.30900899 3008:0.30900899 3010:0.30900899 3014:0.30900899 3019:0.30900899 3020:0.30900899 3022:0.30900899 3024:0.30900899 #
7.2370381908011145455361656786408 1402:0.205458 2026:0.205458 2989:0.205458 3001:0.205458 #
-7.2370381908011145455361656786408 1433:0.067842998 2057:0.067842998 3004:0.067842998 3011:0.067842998 3013:0.067842998 3015:0.067842998 3016:0.067842998 3018:0.067842998 3021:0.067842998 3025:0.067842998 #
7.2370381908011145455361656786408 1638:0.017155999 2209:0.017155999 3016:0.017155999 #
-2.1540556248868929500872582138982 1850:0.42520899 2696:0.42520899 3003:0.42520899 #
-7.2244774862572427309714839793742 480:0.89275002 2847:0.89275002 2997:0.89275002 3006:0.89275002 3008:0.89275002 3010:0.89275002 3014:0.89275002 3019:0.89275002 3020:0.89275002 3022:0.89275002 3024:0.89275002 #
7.2370381908011145455361656786408 29:0.155946 2507:0.155946 3001:0.155946 3007:0.155946 3008:0.155946 3009:0.155946 3010:0.155946 3011:0.155946 3012:0.155946 3014:0.155946 3018:0.155946 3019:0.155946 3020:0.155946 3021:0.155946 3022:0.155946 3023:0.155946 3024:0.155946 3025:0.155946 #
7.2370381908011145455361656786408 646:0.053224999 1908:0.053224999 2989:0.053224999 3006:0.053224999 3013:0.053224999 3015:0.053224999 3016:0.053224999 3020:0.053224999 3025:0.053224999 #
-7.2370381908011145455361656786408 287:0.013208 2416:0.013208 2995:0.013208 3013:0.013208 3021:0.013208 #
7.2370381908011145455361656786408 1629:0.316107 2847:0.316107 2986:0.316107 3001:0.316107 3006:0.316107 3008:0.316107 3010:0.316107 3014:0.316107 3019:0.316107 3020:0.316107 3022:0.316107 3024:0.316107 #
-7.2370381908011145455361656786408 1713:0.039753001 1917:0.039753001 #
-7.2370381908011145455361656786408 806:0.098319001 2711:0.098319001 3008:0.098319001 3010:0.098319001 3015:0.098319001 3017:0.098319001 3018:0.098319001 3022:0.098319001 #
-4.9882953413202395509529196715448 1476:0.33312601 1908:0.33312601 3006:0.33312601 3013:0.33312601 3015:0.33312601 3016:0.33312601 3020:0.33312601 3025:0.33312601 #
7.2370381908011145455361656786408 1715:0.42972201 2209:0.42972201 3016:0.42972201 #
-7.2370381908011145455361656786408 1840:0.078810997 2624:0.078810997 3015:0.078810997 3016:0.078810997 #
-7.2370381908011145455361656786408 75:0.37198299 1908:0.37198299 3006:0.37198299 3013:0.37198299 3015:0.37198299 3016:0.37198299 3020:0.37198299 3025:0.37198299 #
7.2370381908011145455361656786408 108:0.29887801 1908:0.29887801 3006:0.29887801 3013:0.29887801 3015:0.29887801 3016:0.29887801 3020:0.29887801 3025:0.29887801 #
-7.2370381908011145455361656786408 947:0.191873 2175:0.191873 2985:0.191873 3008:0.191873 3010:0.191873 3012:0.191873 3019:0.191873 3022:0.191873 #
7.2370381908011145455361656786408 452:0.17428499 2608:0.17428499 2990:0.17428499 3006:0.17428499 3008:0.17428499 3010:0.17428499 3011:0.17428499 3012:0.17428499 3014:0.17428499 3017:0.17428499 3018:0.17428499 3019:0.17428499 3020:0.17428499 3022:0.17428499 3024:0.17428499 #
7.2370381908011145455361656786408 510:0.212345 2416:0.212345 3013:0.212345 3021:0.212345 #
2.7934060299620560030575688870158 419:0.74744898 2039:0.74744898 3003:0.74744898 #
-7.2370381908011145455361656786408 1026:0.35553101 2424:0.35553101 3004:0.35553101 3008:0.35553101 3011:0.35553101 3018:0.35553101 3025:0.35553101 #
-5.2628035580386054448354116175324 1835:0.435406 2362:0.435406 2998:0.435406 #
-0.1040348642124466482794531430045 200:0.21065401 2274:0.21065401 2989:0.21065401 #
7.2370381908011145455361656786408 1158:0.215441 2078:0.215441 2991:0.215441 #
-7.2370381908011145455361656786408 1402:0.44812599 2847:0.44812599 2989:0.44812599 3001:0.44812599 3006:0.44812599 3008:0.44812599 3010:0.44812599 3014:0.44812599 3019:0.44812599 3020:0.44812599 3022:0.44812599 3024:0.44812599 #
-7.2370381908011145455361656786408 896:0.44514501 2476:0.44514501 #
7.2370381908011145455361656786408 841:0.092703 2826:0.092703 #
-7.2370381908011145455361656786408 1313:0.24250001 2057:0.24250001 3011:0.24250001 3013:0.24250001 3015:0.24250001 3016:0.24250001 3018:0.24250001 3021:0.24250001 3025:0.24250001 #
7.2370381908011145455361656786408 1847:0.46675599 1934:0.46675599 3015:0.46675599 #
7.2370381908011145455361656786408 29:0.19098499 2972:0.19098499 3001:0.19098499 #
2.1671565034183553066782224050257 1679:0.884983 2777:0.884983 #
-1.5533930759712542002404234153801 1847:0.95037299 2477:0.95037299 #
-7.2370381908011145455361656786408 621:0.124136 1908:0.124136 3006:0.124136 3013:0.124136 3015:0.124136 3016:0.124136 3020:0.124136 3025:0.124136 #
-7.2370381908011145455361656786408 1628:0.0066979998 2584:0.0066979998 2998:0.0066979998 #
7.2370381908011145455361656786408 1795:0.12955099 2075:0.12955099 2988:0.12955099 #
-4.5753660849238277918971107283141 1319:0.67342103 2574:0.67342103 2985:0.67342103 #
-3.0410185412997043918892359215533 1634:0.13420901 2640:0.13420901 #
7.2370381908011145455361656786408 1137:0.195127 2867:0.195127 3001:0.195127 #
7.2370381908011145455361656786408 742:0.032166999 2321:0.032166999 2997:0.032166999 #
7.2370381908011145455361656786408 1638:0.73722398 2428:0.73722398 #
7.2370381908011145455361656786408 1715:0.16411901 2209:0.16411901 3016:0.16411901 #
7.2370381908011145455361656786408 1607:0.19609 1935:0.19609 3000:0.19609 #
-7.2370381908011145455361656786408 1014:0.071627997 2057:0.071627997 3011:0.071627997 3013:0.071627997 3015:0.071627997 3016:0.071627997 3018:0.071627997 3021:0.071627997 3025:0.071627997 #
4.4095505544962678712295200966764 982:0.59241802 2341:0.59241802 3021:0.59241802 #
-7.2370381908011145455361656786408 1795:0.68101197 2608:0.68101197 2988:0.68101197 3006:0.68101197 3008:0.68101197 3010:0.68101197 3011:0.68101197 3012:0.68101197 3014:0.68101197 3017:0.68101197 3018:0.68101197 3019:0.68101197 3020:0.68101197 3022:0.68101197 3024:0.68101197 #
7.2370381908011145455361656786408 1628:0.081791997 2351:0.081791997 2998:0.081791997 3018:0.081791997 3019:0.081791997 3022:0.081791997 #
7.2370381908011145455361656786408 438:0.19683699 1939:0.19683699 2993:0.19683699 #
-7.2370381908011145455361656786408 39:0.44713899 2827:0.44713899 3001:0.44713899 3006:0.44713899 3009:0.44713899 3010:0.44713899 3012:0.44713899 3014:0.44713899 3017:0.44713899 3018:0.44713899 3019:0.44713899 3020:0.44713899 3021:0.44713899 3022:0.44713899 3023:0.44713899 3024:0.44713899 #
0.87618815143692518887519327108748 1735:0.910115 1918:0.910115 2988:0.910115 #
7.2370381908011145455361656786408 1135:0.42168799 2574:0.42168799 2989:0.42168799 #
7.2370381908011145455361656786408 1795:0.370749 2597:0.370749 2988:0.370749 3009:0.370749 #
-0.97241194958811938420240039704368 1445:0.85514402 2597:0.85514402 3009:0.85514402 #
-7.2370381908011145455361656786408 668:0.66333199 2608:0.66333199 3006:0.66333199 3008:0.66333199 3010:0.66333199 3011:0.66333199 3012:0.66333199 3014:0.66333199 3017:0.66333199 3018:0.66333199 3019:0.66333199 3020:0.66333199 3022:0.66333199 3024:0.66333199 #
7.2370381908011145455361656786408 126:0.413093 2964:0.413093 2988:0.413093 2991:0.413093 #
-7.2370381908011145455361656786408 663:0.837363 2081:0.837363 2993:0.837363 3007:0.837363 3020:0.837363 3024:0.837363 #
-7.2370381908011145455361656786408 502:0.050756998 2057:0.050756998 3011:0.050756998 3013:0.050756998 3015:0.050756998 3016:0.050756998 3018:0.050756998 3021:0.050756998 3025:0.050756998 #
7.2370381908011145455361656786408 1005:0.250691 2608:0.250691 3006:0.250691 3008:0.250691 3010:0.250691 3011:0.250691 3012:0.250691 3014:0.250691 3017:0.250691 3018:0.250691 3019:0.250691 3020:0.250691 3022:0.250691 3024:0.250691 #
-7.2370381908011145455361656786408 1239:0.61716998 2827:0.61716998 2986:0.61716998 3000:0.61716998 3006:0.61716998 3009:0.61716998 3010:0.61716998 3012:0.61716998 3014:0.61716998 3017:0.61716998 3018:0.61716998 3019:0.61716998 3020:0.61716998 3021:0.61716998 3022:0.61716998 3023:0.61716998 3024:0.61716998 #
2.4147584225226772502992389490828 742:0.65285301 2608:0.65285301 2997:0.65285301 3006:0.65285301 3008:0.65285301 3010:0.65285301 3011:0.65285301 3012:0.65285301 3014:0.65285301 3017:0.65285301 3018:0.65285301 3019:0.65285301 3020:0.65285301 3022:0.65285301 3024:0.65285301 #
7.2370381908011145455361656786408 578:0.025667001 1908:0.025667001 3006:0.025667001 3013:0.025667001 3015:0.025667001 3016:0.025667001 3020:0.025667001 3025:0.025667001 #
-4.8604148641128759322782570961863 1402:0.210526 2826:0.210526 2989:0.210526 3001:0.210526 #
-7.2370381908011145455361656786408 1402:0.195998 1921:0.195998 2989:0.195998 3001:0.195998 #
-7.2370381908011145455361656786408 1629:0.58243299 2081:0.58243299 2986:0.58243299 3001:0.58243299 3007:0.58243299 3020:0.58243299 3024:0.58243299 #
7.2370381908011145455361656786408 301:0.225732 2081:0.225732 3007:0.225732 3020:0.225732 3024:0.225732 #
-5.0962055011547899852075715898536 1135:0.28643599 2602:0.28643599 2989:0.28643599 #
-7.2370381908011145455361656786408 938:0.047114 2827:0.047114 3006:0.047114 3009:0.047114 3010:0.047114 3012:0.047114 3014:0.047114 3017:0.047114 3018:0.047114 3019:0.047114 3020:0.047114 3021:0.047114 3022:0.047114 3023:0.047114 3024:0.047114 #
7.2370381908011145455361656786408 932:0.34720901 1908:0.34720901 2993:0.34720901 3006:0.34720901 3013:0.34720901 3015:0.34720901 3016:0.34720901 3020:0.34720901 3025:0.34720901 #
-3.1659617541095714798871085804421 1632:0.55257702 2588:0.55257702 2994:0.55257702 #
-7.2370381908011145455361656786408 1862:0.34161699 1908:0.34161699 3006:0.34161699 3013:0.34161699 3015:0.34161699 3016:0.34161699 3020:0.34161699 3025:0.34161699 #
-2.1329099690659338861564719991293 1441:0.478149 2345:0.478149 2994:0.478149 #
-5.1188266856965336515372655412648 1484:0.141918 2964:0.141918 2987:0.141918 #
-7.2370381908011145455361656786408 837:0.143905 2385:0.143905 2985:0.143905 3003:0.143905 #
-7.2370381908011145455361656786408 837:0.138423 1953:0.138423 2985:0.138423 3003:0.138423 #
7.2370381908011145455361656786408 1629:0.098394997 2081:0.098394997 2986:0.098394997 3001:0.098394997 3007:0.098394997 3020:0.098394997 3024:0.098394997 #
-7.2370381908011145455361656786408 1085:0.369508 2827:0.369508 2999:0.369508 3006:0.369508 3009:0.369508 3010:0.369508 3012:0.369508 3014:0.369508 3017:0.369508 3018:0.369508 3019:0.369508 3020:0.369508 3021:0.369508 3022:0.369508 3023:0.369508 3024:0.369508 #
-7.2370381908011145455361656786408 308:0.63656199 2118:0.63656199 3010:0.63656199 3013:0.63656199 3015:0.63656199 3018:0.63656199 3021:0.63656199 3025:0.63656199 #
-7.2370381908011145455361656786408 992:0.15512501 2078:0.15512501 2985:0.15512501 2991:0.15512501 #
0.25490624969026498547464143484831 1597:0.32289401 2608:0.32289401 3006:0.32289401 3008:0.32289401 3010:0.32289401 3011:0.32289401 3012:0.32289401 3014:0.32289401 3017:0.32289401 3018:0.32289401 3019:0.32289401 3020:0.32289401 3022:0.32289401 3024:0.32289401 #
6.4619395937895820480889597092755 673:0.223428 2081:0.223428 3000:0.223428 3007:0.223428 3020:0.223428 3024:0.223428 #
7.2370381908011145455361656786408 1453:0.34971601 1889:0.34971601 #
7.2370381908011145455361656786408 1629:0.14289699 2081:0.14289699 2986:0.14289699 3001:0.14289699 3007:0.14289699 3020:0.14289699 3024:0.14289699 #
-2.9872120876968057956446500611492 247:0.36064601 2167:0.36064601 2988:0.36064601 #
-7.2370381908011145455361656786408 515:0.128931 2118:0.128931 3010:0.128931 3013:0.128931 3015:0.128931 3018:0.128931 3021:0.128931 3025:0.128931 #
-1.1175006671913298994525121088373 546:1.6157629 2075:1.6157629 2990:1.6157629 #
7.2370381908011145455361656786408 1514:0.140233 2209:0.140233 3016:0.140233 #
7.2370381908011145455361656786408 1476:0.14290801 1908:0.14290801 3006:0.14290801 3013:0.14290801 3015:0.14290801 3016:0.14290801 3020:0.14290801 3025:0.14290801 #
7.2370381908011145455361656786408 1402:0.232602 2476:0.232602 2989:0.232602 3001:0.232602 #
-2.8153728770493833266641559021082 74:0.34039199 2013:0.34039199 3003:0.34039199 #
-7.2370381908011145455361656786408 453:0.01535 1888:0.01535 2993:0.01535 #
-3.6447056630330574300558055256261 93:0.30120999 2980:0.30120999 3003:0.30120999 #
3.1822662660510872001395910046995 550:0.53430301 1908:0.53430301 3006:0.53430301 3013:0.53430301 3015:0.53430301 3016:0.53430301 3020:0.53430301 3025:0.53430301 #
7.2370381908011145455361656786408 614:0.525047 1887:0.525047 2999:0.525047 3006:0.525047 3023:0.525047 #
0.8772091225114552193176109540218 544:0.289206 2608:0.289206 2985:0.289206 3006:0.289206 3008:0.289206 3010:0.289206 3011:0.289206 3012:0.289206 3014:0.289206 3017:0.289206 3018:0.289206 3019:0.289206 3020:0.289206 3022:0.289206 3024:0.289206 #
-7.2370381908011145455361656786408 1016:0.203298 2057:0.203298 3004:0.203298 3011:0.203298 3013:0.203298 3015:0.203298 3016:0.203298 3018:0.203298 3021:0.203298 3025:0.203298 #
0.88692748217798267340583606710425 30:0.63540399 2372:0.63540399 #
2.6232178685991152100598355900729 1522:0.63766301 2779:0.63766301 2991:0.63766301 3012:0.63766301 3022:0.63766301 #
-1.9792800083703574465232577495044 1485:0.058091 2323:0.058091 #
-7.2370381908011145455361656786408 1276:0.72812498 2476:0.72812498 2991:0.72812498 #
7.2370381908011145455361656786408 1239:0.177182 2444:0.177182 2986:0.177182 3000:0.177182 3019:0.177182 #
-7.2370381908011145455361656786408 1364:0.18074 2608:0.18074 3006:0.18074 3008:0.18074 3010:0.18074 3011:0.18074 3012:0.18074 3014:0.18074 3017:0.18074 3018:0.18074 3019:0.18074 3020:0.18074 3022:0.18074 3024:0.18074 #
7.2370381908011145455361656786408 223:0.0050960002 2198:0.0050960002 2997:0.0050960002 #
7.2370381908011145455361656786408 39:0.048202001 2175:0.048202001 3001:0.048202001 3008:0.048202001 3010:0.048202001 3012:0.048202001 3019:0.048202001 3022:0.048202001 #
-7.2370381908011145455361656786408 941:0.32817799 2424:0.32817799 3008:0.32817799 3011:0.32817799 3018:0.32817799 3025:0.32817799 #
-7.2370381908011145455361656786408 1402:0.56286597 2827:0.56286597 2989:0.56286597 3001:0.56286597 3006:0.56286597 3009:0.56286597 3010:0.56286597 3012:0.56286597 3014:0.56286597 3017:0.56286597 3018:0.56286597 3019:0.56286597 3020:0.56286597 3021:0.56286597 3022:0.56286597 3023:0.56286597 3024:0.56286597 #
-7.2370381908011145455361656786408 249:0.119106 1928:0.119106 3017:0.119106 #
7.2370381908011145455361656786408 943:0.10054 2081:0.10054 3000:0.10054 3007:0.10054 3020:0.10054 3024:0.10054 #
7.2370381908011145455361656786408 1531:0.014832 2608:0.014832 2996:0.014832 3001:0.014832 3006:0.014832 3008:0.014832 3010:0.014832 3011:0.014832 3012:0.014832 3014:0.014832 3017:0.014832 3018:0.014832 3019:0.014832 3020:0.014832 3022:0.014832 3024:0.014832 #
4.3658012899731160061378432146739 571:0.40801999 2476:0.40801999 #
-0.53651394332551438637324281444307 1485:0.33994099 2918:0.33994099 3009:0.33994099 #
-7.2370381908011145455361656786408 51:0.047169998 1908:0.047169998 3004:0.047169998 3006:0.047169998 3013:0.047169998 3015:0.047169998 3016:0.047169998 3020:0.047169998 3025:0.047169998 #
7.2370381908011145455361656786408 68:0.227346 1908:0.227346 2999:0.227346 3006:0.227346 3013:0.227346 3015:0.227346 3016:0.227346 3020:0.227346 3025:0.227346 #
7.2370381908011145455361656786408 612:0.14934701 2882:0.14934701 #
7.2370381908011145455361656786408 1562:0.28593799 2013:0.28593799 2996:0.28593799 #
-7.2370381908011145455361656786408 110:0.31361499 2081:0.31361499 3007:0.31361499 3020:0.31361499 3024:0.31361499 #
7.2370381908011145455361656786408 587:0.102328 2476:0.102328 2986:0.102328 #
7.2370381908011145455361656786408 1766:0.17450801 1908:0.17450801 3006:0.17450801 3013:0.17450801 3015:0.17450801 3016:0.17450801 3020:0.17450801 3025:0.17450801 #
-7.2370381908011145455361656786408 1164:0.66082102 2608:0.66082102 2987:0.66082102 3006:0.66082102 3008:0.66082102 3010:0.66082102 3011:0.66082102 3012:0.66082102 3014:0.66082102 3017:0.66082102 3018:0.66082102 3019:0.66082102 3020:0.66082102 3022:0.66082102 3024:0.66082102 #
4.9414123791197370749728179362137 1355:0.57168502 2779:0.57168502 3012:0.57168502 3022:0.57168502 #
-1.5307410330964874578540957372752 1485:0.098282002 2156:0.098282002 #
-7.2370381908011145455361656786408 247:0.025494 2691:0.025494 2988:0.025494 #
-7.2370381908011145455361656786408 1627:0.0089579998 1908:0.0089579998 3006:0.0089579998 3013:0.0089579998 3015:0.0089579998 3016:0.0089579998 3020:0.0089579998 3025:0.0089579998 #
7.2370381908011145455361656786408 1131:0.15809099 2705:0.15809099 2998:0.15809099 #
3.705510298877497721292684218497 135:0.44161299 2757:0.44161299 2997:0.44161299 #
3.038026202726319624503048544284 1085:0.30789399 1887:0.30789399 2999:0.30789399 3006:0.30789399 3023:0.30789399 #
-7.2370381908011145455361656786408 1370:0.77413797 2677:0.77413797 2998:0.77413797 3011:0.77413797 #
-4.9242700633781488761542277643457 1535:0.709391 2779:0.709391 2998:0.709391 3012:0.709391 3022:0.709391 #
-7.2370381908011145455361656786408 320:0.028689001 2847:0.028689001 3000:0.028689001 3006:0.028689001 3008:0.028689001 3010:0.028689001 3014:0.028689001 3019:0.028689001 3020:0.028689001 3022:0.028689001 3024:0.028689001 #
-7.2370381908011145455361656786408 871:0.001884 2608:0.001884 2985:0.001884 3006:0.001884 3008:0.001884 3010:0.001884 3011:0.001884 3012:0.001884 3014:0.001884 3017:0.001884 3018:0.001884 3019:0.001884 3020:0.001884 3022:0.001884 3024:0.001884 #
-7.2370381908011145455361656786408 1603:0.362293 2827:0.362293 3003:0.362293 3006:0.362293 3009:0.362293 3010:0.362293 3012:0.362293 3014:0.362293 3017:0.362293 3018:0.362293 3019:0.362293 3020:0.362293 3021:0.362293 3022:0.362293 3023:0.362293 3024:0.362293 #
3.5487302533677933524813852272928 1262:0.28140399 2608:0.28140399 3006:0.28140399 3008:0.28140399 3010:0.28140399 3011:0.28140399 3012:0.28140399 3014:0.28140399 3017:0.28140399 3018:0.28140399 3019:0.28140399 3020:0.28140399 3022:0.28140399 3024:0.28140399 #
-7.2370381908011145455361656786408 713:0.04964 2827:0.04964 3006:0.04964 3009:0.04964 3010:0.04964 3012:0.04964 3014:0.04964 3017:0.04964 3018:0.04964 3019:0.04964 3020:0.04964 3021:0.04964 3022:0.04964 3023:0.04964 3024:0.04964 #
-7.2370381908011145455361656786408 732:0.025845001 2625:0.025845001 3003:0.025845001 #
0.56670698213690595679281614138745 340:0.86260098 2416:0.86260098 2995:0.86260098 3013:0.86260098 3021:0.86260098 #
6.7323822711360330472984969674144 992:0.441778 2052:0.441778 2985:0.441778 2991:0.441778 3022:0.441778 #
-7.2370381908011145455361656786408 430:0.100692 2118:0.100692 2987:0.100692 3010:0.100692 3013:0.100692 3015:0.100692 3018:0.100692 3021:0.100692 3025:0.100692 #
-7.2370381908011145455361656786408 192:0.028767999 2827:0.028767999 3003:0.028767999 3006:0.028767999 3009:0.028767999 3010:0.028767999 3012:0.028767999 3014:0.028767999 3017:0.028767999 3018:0.028767999 3019:0.028767999 3020:0.028767999 3021:0.028767999 3022:0.028767999 3023:0.028767999 3024:0.028767999 #
-7.2370381908011145455361656786408 1629:0.266413 2081:0.266413 2986:0.266413 3001:0.266413 3007:0.266413 3020:0.266413 3024:0.266413 #
7.2370381908011145455361656786408 1164:0.61011702 2081:0.61011702 2987:0.61011702 3007:0.61011702 3020:0.61011702 3024:0.61011702 #
7.2370381908011145455361656786408 846:0.033842001 2118:0.033842001 3010:0.033842001 3013:0.033842001 3015:0.033842001 3018:0.033842001 3021:0.033842001 3025:0.033842001 #
7.2370381908011145455361656786408 1230:0.042534001 1894:0.042534001 2989:0.042534001 #
-4.8277322933871538168659753864631 1506:0.52413398 2507:0.52413398 3000:0.52413398 3007:0.52413398 3008:0.52413398 3009:0.52413398 3010:0.52413398 3011:0.52413398 3012:0.52413398 3014:0.52413398 3018:0.52413398 3019:0.52413398 3020:0.52413398 3021:0.52413398 3022:0.52413398 3023:0.52413398 3024:0.52413398 3025:0.52413398 #
-7.2370381908011145455361656786408 463:0.0035079999 2351:0.0035079999 3001:0.0035079999 3018:0.0035079999 3019:0.0035079999 3022:0.0035079999 #
-3.4996492060399368995149416150525 95:0.583911 1908:0.583911 3006:0.583911 3013:0.583911 3015:0.583911 3016:0.583911 3020:0.583911 3025:0.583911 #
-7.2370381908011145455361656786408 192:0.28717899 2608:0.28717899 3003:0.28717899 3006:0.28717899 3008:0.28717899 3010:0.28717899 3011:0.28717899 3012:0.28717899 3014:0.28717899 3017:0.28717899 3018:0.28717899 3019:0.28717899 3020:0.28717899 3022:0.28717899 3024:0.28717899 #
7.2370381908011145455361656786408 80:0.109996 1882:0.109996 #
1.3227599395201465881655167322606 1246:0.644683 2507:0.644683 3007:0.644683 3008:0.644683 3009:0.644683 3010:0.644683 3011:0.644683 3012:0.644683 3014:0.644683 3018:0.644683 3019:0.644683 3020:0.644683 3021:0.644683 3022:0.644683 3023:0.644683 3024:0.644683 3025:0.644683 #
-7.2370381908011145455361656786408 1729:0.01493 1908:0.01493 2994:0.01493 3006:0.01493 3013:0.01493 3015:0.01493 3016:0.01493 3020:0.01493 3025:0.01493 #
7.2370381908011145455361656786408 796:0.25018999 1908:0.25018999 3006:0.25018999 3013:0.25018999 3015:0.25018999 3016:0.25018999 3020:0.25018999 3025:0.25018999 #
0.31276151297423371300254757443327 677:0.86349398 1908:0.86349398 3006:0.86349398 3013:0.86349398 3015:0.86349398 3016:0.86349398 3020:0.86349398 3025:0.86349398 #
0.82499636703831669137798598967493 378:0.750597 1908:0.750597 3006:0.750597 3013:0.750597 3015:0.750597 3016:0.750597 3020:0.750597 3025:0.750597 #
-7.2370381908011145455361656786408 1619:0.54885399 2608:0.54885399 3006:0.54885399 3008:0.54885399 3010:0.54885399 3011:0.54885399 3012:0.54885399 3014:0.54885399 3017:0.54885399 3018:0.54885399 3019:0.54885399 3020:0.54885399 3022:0.54885399 3024:0.54885399 #
7.2370381908011145455361656786408 1847:0.150351 2847:0.150351 3006:0.150351 3008:0.150351 3010:0.150351 3014:0.150351 3019:0.150351 3020:0.150351 3022:0.150351 3024:0.150351 #
-7.2370381908011145455361656786408 1175:0.43092901 2057:0.43092901 2985:0.43092901 2992:0.43092901 3011:0.43092901 3013:0.43092901 3015:0.43092901 3016:0.43092901 3018:0.43092901 3021:0.43092901 3025:0.43092901 #
-2.9909903119083534051014794385992 1230:0.471017 1968:0.471017 2989:0.471017 3024:0.471017 #
-7.2370381908011145455361656786408 1404:0.125128 2384:0.125128 2989:0.125128 #
-7.2370381908011145455361656786408 878:0.19357701 2416:0.19357701 2994:0.19357701 3013:0.19357701 3021:0.19357701 #
-7.2370381908011145455361656786408 606:0.0010620001 2608:0.0010620001 3006:0.0010620001 3008:0.0010620001 3010:0.0010620001 3011:0.0010620001 3012:0.0010620001 3014:0.0010620001 3017:0.0010620001 3018:0.0010620001 3019:0.0010620001 3020:0.0010620001 3022:0.0010620001 3024:0.0010620001 #
-7.2370381908011145455361656786408 1276:0.101462 2476:0.101462 2991:0.101462 #
-7.2370381908011145455361656786408 419:0.59281301 2081:0.59281301 3003:0.59281301 3007:0.59281301 3020:0.59281301 3024:0.59281301 #
-3.8744142301707471531813098408747 1514:0.30172801 2209:0.30172801 3016:0.30172801 #
7.2370381908011145455361656786408 1629:0.15545 2081:0.15545 2986:0.15545 3001:0.15545 3007:0.15545 3020:0.15545 3024:0.15545 #
7.2370381908011145455361656786408 1276:0.147955 2081:0.147955 2991:0.147955 3007:0.147955 3020:0.147955 3024:0.147955 #
7.2370381908011145455361656786408 1145:0.046394002 1904:0.046394002 #
4.6561485691492681127101604943164 732:0.28806299 2608:0.28806299 3003:0.28806299 3006:0.28806299 3008:0.28806299 3010:0.28806299 3011:0.28806299 3012:0.28806299 3014:0.28806299 3017:0.28806299 3018:0.28806299 3019:0.28806299 3020:0.28806299 3022:0.28806299 3024:0.28806299 #
7.0183022765562697031782590784132 1334:0.237261 2608:0.237261 2991:0.237261 3006:0.237261 3008:0.237261 3010:0.237261 3011:0.237261 3012:0.237261 3014:0.237261 3017:0.237261 3018:0.237261 3019:0.237261 3020:0.237261 3022:0.237261 3024:0.237261 #
-1.6446338269433773415784116878058 922:0.27083501 2964:0.27083501 #
-4.0698775066522561161264093243517 1580:0.48235601 1908:0.48235601 2987:0.48235601 3006:0.48235601 3013:0.48235601 3015:0.48235601 3016:0.48235601 3020:0.48235601 3025:0.48235601 #
7.2370381908011145455361656786408 1715:0.024727 2209:0.024727 3016:0.024727 #
-7.2370381908011145455361656786408 101:0.34694499 2057:0.34694499 2997:0.34694499 3011:0.34694499 3013:0.34694499 3015:0.34694499 3016:0.34694499 3018:0.34694499 3021:0.34694499 3025:0.34694499 #
7.2370381908011145455361656786408 1456:0.240619 1908:0.240619 3006:0.240619 3013:0.240619 3015:0.240619 3016:0.240619 3020:0.240619 3025:0.240619 #
1.9425165336695722206883374383324 1598:0.59584898 1908:0.59584898 2994:0.59584898 3006:0.59584898 3013:0.59584898 3015:0.59584898 3016:0.59584898 3020:0.59584898 3025:0.59584898 #
-7.2370381908011145455361656786408 1239:0.60449702 2608:0.60449702 2986:0.60449702 3000:0.60449702 3006:0.60449702 3008:0.60449702 3010:0.60449702 3011:0.60449702 3012:0.60449702 3014:0.60449702 3017:0.60449702 3018:0.60449702 3019:0.60449702 3020:0.60449702 3022:0.60449702 3024:0.60449702 #
7.2370381908011145455361656786408 1647:0.16009299 2128:0.16009299 #
0.34929360037906087566028645596816 1740:0.85320997 1908:0.85320997 3006:0.85320997 3013:0.85320997 3015:0.85320997 3016:0.85320997 3020:0.85320997 3025:0.85320997 #
0.37631470710567072046615066938102 551:0.845855 1908:0.845855 3006:0.845855 3013:0.845855 3015:0.845855 3016:0.845855 3020:0.845855 3025:0.845855 #
-7.2370381908011145455361656786408 43:0.075108998 2057:0.075108998 3011:0.075108998 3013:0.075108998 3015:0.075108998 3016:0.075108998 3018:0.075108998 3021:0.075108998 3025:0.075108998 #
7.2370381908011145455361656786408 1659:0.185966 1908:0.185966 3006:0.185966 3013:0.185966 3015:0.185966 3016:0.185966 3020:0.185966 3025:0.185966 #
5.5393257860736291320336022181436 987:0.833664 1908:0.833664 3006:0.833664 3013:0.833664 3015:0.833664 3016:0.833664 3020:0.833664 3025:0.833664 #
-7.2370381908011145455361656786408 864:0.0063180001 2175:0.0063180001 2998:0.0063180001 3008:0.0063180001 3010:0.0063180001 3012:0.0063180001 3019:0.0063180001 3022:0.0063180001 #
7.2370381908011145455361656786408 809:0.146166 1908:0.146166 3006:0.146166 3013:0.146166 3015:0.146166 3016:0.146166 3020:0.146166 3025:0.146166 #
-7.2370381908011145455361656786408 266:0.002572 2827:0.002572 3006:0.002572 3009:0.002572 3010:0.002572 3012:0.002572 3014:0.002572 3017:0.002572 3018:0.002572 3019:0.002572 3020:0.002572 3021:0.002572 3022:0.002572 3023:0.002572 3024:0.002572 #
-7.2370381908011145455361656786408 455:0.54610199 2057:0.54610199 2994:0.54610199 3011:0.54610199 3013:0.54610199 3015:0.54610199 3016:0.54610199 3018:0.54610199 3021:0.54610199 3025:0.54610199 #
7.2370381908011145455361656786408 1106:0.14796001 2057:0.14796001 3011:0.14796001 3013:0.14796001 3015:0.14796001 3016:0.14796001 3018:0.14796001 3021:0.14796001 3025:0.14796001 #
-4.2348782953882677659862565633375 1598:0.48691699 2889:0.48691699 2994:0.48691699 #
7.2370381908011145455361656786408 1823:0.40231299 1908:0.40231299 3006:0.40231299 3013:0.40231299 3015:0.40231299 3016:0.40231299 3020:0.40231299 3025:0.40231299 #
7.2370381908011145455361656786408 99:0.035875 2118:0.035875 3010:0.035875 3013:0.035875 3015:0.035875 3018:0.035875 3021:0.035875 3025:0.035875 #
-7.2370381908011145455361656786408 894:0.25066599 2057:0.25066599 3004:0.25066599 3011:0.25066599 3013:0.25066599 3015:0.25066599 3016:0.25066599 3018:0.25066599 3021:0.25066599 3025:0.25066599 #
7.2370381908011145455361656786408 480:0.56911898 2847:0.56911898 2997:0.56911898 3006:0.56911898 3008:0.56911898 3010:0.56911898 3014:0.56911898 3019:0.56911898 3020:0.56911898 3022:0.56911898 3024:0.56911898 #
7.2370381908011145455361656786408 1404:0.554133 2847:0.554133 2989:0.554133 3006:0.554133 3008:0.554133 3010:0.554133 3014:0.554133 3019:0.554133 3020:0.554133 3022:0.554133 3024:0.554133 #
-7.2370381908011145455361656786408 1162:0.032919001 2157:0.032919001 2989:0.032919001 2990:0.032919001 #
4.2310757417043882711027436016593 1632:0.34415901 2057:0.34415901 2994:0.34415901 3011:0.34415901 3013:0.34415901 3015:0.34415901 3016:0.34415901 3018:0.34415901 3021:0.34415901 3025:0.34415901 #
7.2370381908011145455361656786408 1085:0.058495998 2962:0.058495998 2999:0.058495998 #
-7.2370381908011145455361656786408 514:0.105477 2624:0.105477 3015:0.105477 3016:0.105477 #
-7.2370381908011145455361656786408 1410:0.61681199 2081:0.61681199 2986:0.61681199 3007:0.61681199 3020:0.61681199 3024:0.61681199 #
-7.2370381908011145455361656786408 250:0.0088959998 2057:0.0088959998 3011:0.0088959998 3013:0.0088959998 3015:0.0088959998 3016:0.0088959998 3018:0.0088959998 3021:0.0088959998 3025:0.0088959998 #
-7.2370381908011145455361656786408 29:0.26049301 2847:0.26049301 3001:0.26049301 3006:0.26049301 3008:0.26049301 3010:0.26049301 3014:0.26049301 3019:0.26049301 3020:0.26049301 3022:0.26049301 3024:0.26049301 #
7.2370381908011145455361656786408 1788:0.255694 2596:0.255694 2994:0.255694 #
-7.2370381908011145455361656786408 334:0.00082100002 2137:0.00082100002 3007:0.00082100002 3008:0.00082100002 3009:0.00082100002 3010:0.00082100002 3024:0.00082100002 #
-7.2370381908011145455361656786408 546:0.00452 2042:0.00452 2990:0.00452 #
7.2370381908011145455361656786408 1402:0.22696 2827:0.22696 2989:0.22696 3001:0.22696 3006:0.22696 3009:0.22696 3010:0.22696 3012:0.22696 3014:0.22696 3017:0.22696 3018:0.22696 3019:0.22696 3020:0.22696 3021:0.22696 3022:0.22696 3023:0.22696 3024:0.22696 #
-7.2370381908011145455361656786408 1505:0.0089499997 2179:0.0089499997 #
-7.2370381908011145455361656786408 1608:0.0093109999 2753:0.0093109999 #
7.2370381908011145455361656786408 1636:0.036070999 2847:0.036070999 3006:0.036070999 3008:0.036070999 3010:0.036070999 3014:0.036070999 3019:0.036070999 3020:0.036070999 3022:0.036070999 3024:0.036070999 #
-5.3264442730987866525538265705109 149:0.721506 2847:0.721506 3001:0.721506 3006:0.721506 3008:0.721506 3010:0.721506 3014:0.721506 3019:0.721506 3020:0.721506 3022:0.721506 3024:0.721506 #
-7.2370381908011145455361656786408 800:0.075677 2081:0.075677 3007:0.075677 3020:0.075677 3024:0.075677 #
-7.2370381908011145455361656786408 1201:0.036258999 2341:0.036258999 3021:0.036258999 #
-7.2370381908011145455361656786408 1482:0.41107199 2057:0.41107199 3011:0.41107199 3013:0.41107199 3015:0.41107199 3016:0.41107199 3018:0.41107199 3021:0.41107199 3025:0.41107199 #
-7.2370381908011145455361656786408 992:0.010939 2306:0.010939 2985:0.010939 2991:0.010939 #
-6.4444692585651361937948422564659 816:0.95408398 2057:0.95408398 3011:0.95408398 3013:0.95408398 3015:0.95408398 3016:0.95408398 3018:0.95408398 3021:0.95408398 3025:0.95408398 #
7.2370381908011145455361656786408 893:0.17684799 2057:0.17684799 2994:0.17684799 3011:0.17684799 3013:0.17684799 3015:0.17684799 3016:0.17684799 3018:0.17684799 3021:0.17684799 3025:0.17684799 #
-7.2370381908011145455361656786408 1607:0.0066780001 2744:0.0066780001 3000:0.0066780001 #
7.2370381908011145455361656786408 1577:0.26268601 2081:0.26268601 3007:0.26268601 3020:0.26268601 3024:0.26268601 #
-4.9100992531527838380611683533061 1250:1.420792 2608:1.420792 2999:1.420792 3006:1.420792 3008:1.420792 3010:1.420792 3011:1.420792 3012:1.420792 3014:1.420792 3017:1.420792 3018:1.420792 3019:1.420792 3020:1.420792 3022:1.420792 3024:1.420792 #
-7.2370381908011145455361656786408 463:1.076876 2608:1.076876 3001:1.076876 3006:1.076876 3008:1.076876 3010:1.076876 3011:1.076876 3012:1.076876 3014:1.076876 3017:1.076876 3018:1.076876 3019:1.076876 3020:1.076876 3022:1.076876 3024:1.076876 #
2.5430333617231175580286617332604 549:0.41302001 2209:0.41302001 2995:0.41302001 3016:0.41302001 #
7.2370381908011145455361656786408 164:0.05026 2157:0.05026 3004:0.05026 #
-7.2370381908011145455361656786408 196:0.40631899 2827:0.40631899 3003:0.40631899 3006:0.40631899 3009:0.40631899 3010:0.40631899 3012:0.40631899 3014:0.40631899 3017:0.40631899 3018:0.40631899 3019:0.40631899 3020:0.40631899 3021:0.40631899 3022:0.40631899 3023:0.40631899 3024:0.40631899 #
-7.2370381908011145455361656786408 1646:0.014834 2462:0.014834 2990:0.014834 3008:0.014834 3019:0.014834 #
-1.9028541820617161928197447195998 1106:0.421875 2339:0.421875 3008:0.421875 3013:0.421875 #
-7.2370381908011145455361656786408 547:0.19105101 2827:0.19105101 3006:0.19105101 3009:0.19105101 3010:0.19105101 3012:0.19105101 3014:0.19105101 3017:0.19105101 3018:0.19105101 3019:0.19105101 3020:0.19105101 3021:0.19105101 3022:0.19105101 3023:0.19105101 3024:0.19105101 #
0.78484256098879767726828049489995 572:0.47855601 2777:0.47855601 2990:0.47855601 #
5.9361971702825329089137085247785 1695:0.63597798 2677:0.63597798 3011:0.63597798 #
7.2370381908011145455361656786408 815:0.41504601 2677:0.41504601 3011:0.41504601 #
7.2370381908011145455361656786408 838:0.199173 2677:0.199173 2993:0.199173 3011:0.199173 #
-6.3583772905848698897557369491551 513:0.320236 1908:0.320236 3006:0.320236 3013:0.320236 3015:0.320236 3016:0.320236 3020:0.320236 3025:0.320236 #
7.2370381908011145455361656786408 192:0.53929901 2847:0.53929901 3003:0.53929901 3006:0.53929901 3008:0.53929901 3010:0.53929901 3014:0.53929901 3019:0.53929901 3020:0.53929901 3022:0.53929901 3024:0.53929901 #
-7.2370381908011145455361656786408 1825:0.004307 1908:0.004307 3006:0.004307 3013:0.004307 3015:0.004307 3016:0.004307 3020:0.004307 3025:0.004307 #
7.2370381908011145455361656786408 263:0.37797201 2847:0.37797201 3006:0.37797201 3008:0.37797201 3010:0.37797201 3014:0.37797201 3019:0.37797201 3020:0.37797201 3022:0.37797201 3024:0.37797201 #
7.2370381908011145455361656786408 673:0.33892399 2847:0.33892399 3000:0.33892399 3006:0.33892399 3008:0.33892399 3010:0.33892399 3014:0.33892399 3019:0.33892399 3020:0.33892399 3022:0.33892399 3024:0.33892399 #
7.2370381908011145455361656786408 1406:0.37791899 2416:0.37791899 3013:0.37791899 3021:0.37791899 #
7.2370381908011145455361656786408 1668:0.015871 2081:0.015871 2991:0.015871 3007:0.015871 3020:0.015871 3024:0.015871 #
-7.2370381908011145455361656786408 624:0.028755 2597:0.028755 3009:0.028755 #
-7.2370381908011145455361656786408 893:0.69877303 2057:0.69877303 2994:0.69877303 3011:0.69877303 3013:0.69877303 3015:0.69877303 3016:0.69877303 3018:0.69877303 3021:0.69877303 3025:0.69877303 #
-6.7439993929068382527702851803042 979:0.72141099 2057:0.72141099 2997:0.72141099 3011:0.72141099 3013:0.72141099 3015:0.72141099 3016:0.72141099 3018:0.72141099 3021:0.72141099 3025:0.72141099 #
-7.2370381908011145455361656786408 91:0.26268601 2081:0.26268601 3007:0.26268601 3020:0.26268601 3024:0.26268601 #
-7.2370381908011145455361656786408 673:0.16616599 2081:0.16616599 3000:0.16616599 3007:0.16616599 3020:0.16616599 3024:0.16616599 #
-7.2370381908011145455361656786408 601:0.66711301 2081:0.66711301 3007:0.66711301 3020:0.66711301 3024:0.66711301 #
-2.9137842482002440647192997857928 92:0.54787803 2847:0.54787803 2989:0.54787803 3006:0.54787803 3008:0.54787803 3010:0.54787803 3014:0.54787803 3019:0.54787803 3020:0.54787803 3022:0.54787803 3024:0.54787803 #
1.9031294119009125598296350290184 682:0.41660199 2873:0.41660199 #
7.2370381908011145455361656786408 1272:0.046016 2847:0.046016 3006:0.046016 3008:0.046016 3010:0.046016 3014:0.046016 3019:0.046016 3020:0.046016 3022:0.046016 3024:0.046016 #
7.2370381908011145455361656786408 463:0.53096998 2608:0.53096998 3001:0.53096998 3006:0.53096998 3008:0.53096998 3010:0.53096998 3011:0.53096998 3012:0.53096998 3014:0.53096998 3017:0.53096998 3018:0.53096998 3019:0.53096998 3020:0.53096998 3022:0.53096998 3024:0.53096998 #
7.2370381908011145455361656786408 1638:0.048345 2209:0.048345 3016:0.048345 #
-7.2370381908011145455361656786408 100:0.021253999 2882:0.021253999 #
-4.8844316219073480311863022507168 1230:0.544321 1934:0.544321 2989:0.544321 3015:0.544321 #
7.2370381908011145455361656786408 384:0.32281101 2542:0.32281101 3013:0.32281101 3014:0.32281101 3019:0.32281101 #
-7.2370381908011145455361656786408 115:0.135158 1908:0.135158 2995:0.135158 3006:0.135158 3013:0.135158 3015:0.135158 3016:0.135158 3020:0.135158 3025:0.135158 #
-3.1968916315397208904869330581278 1387:0.68249601 2507:0.68249601 3007:0.68249601 3008:0.68249601 3009:0.68249601 3010:0.68249601 3011:0.68249601 3012:0.68249601 3014:0.68249601 3018:0.68249601 3019:0.68249601 3020:0.68249601 3021:0.68249601 3022:0.68249601 3023:0.68249601 3024:0.68249601 3025:0.68249601 #
5.1956721554406977148232726904098 29:0.300219 2169:0.300219 3001:0.300219 3006:0.300219 #
-7.2370381908011145455361656786408 673:0.390735 2827:0.390735 3000:0.390735 3006:0.390735 3009:0.390735 3010:0.390735 3012:0.390735 3014:0.390735 3017:0.390735 3018:0.390735 3019:0.390735 3020:0.390735 3021:0.390735 3022:0.390735 3023:0.390735 3024:0.390735 #
0.29691927342451762683595006819814 1273:0.92698401 2507:0.92698401 3001:0.92698401 3007:0.92698401 3008:0.92698401 3009:0.92698401 3010:0.92698401 3011:0.92698401 3012:0.92698401 3014:0.92698401 3018:0.92698401 3019:0.92698401 3020:0.92698401 3021:0.92698401 3022:0.92698401 3023:0.92698401 3024:0.92698401 3025:0.92698401 #
7.2370381908011145455361656786408 383:0.330594 2476:0.330594 2989:0.330594 #
-4.5958324380282533638819586485624 1023:0.87054098 2057:0.87054098 3011:0.87054098 3013:0.87054098 3015:0.87054098 3016:0.87054098 3018:0.87054098 3021:0.87054098 3025:0.87054098 #
-7.2370381908011145455361656786408 1018:0.18203101 2057:0.18203101 2992:0.18203101 3011:0.18203101 3013:0.18203101 3015:0.18203101 3016:0.18203101 3018:0.18203101 3021:0.18203101 3025:0.18203101 #
-2.3579289985639024784802586509613 1257:0.106242 2462:0.106242 3008:0.106242 3019:0.106242 #
-7.2370381908011145455361656786408 1720:0.33125401 1908:0.33125401 3004:0.33125401 3006:0.33125401 3013:0.33125401 3015:0.33125401 3016:0.33125401 3020:0.33125401 3025:0.33125401 #
-7.2370381908011145455361656786408 1402:0.012769 2159:0.012769 2989:0.012769 3001:0.012769 #
-7.2370381908011145455361656786408 488:1.0013551 2081:1.0013551 3007:1.0013551 3020:1.0013551 3024:1.0013551 #
7.2370381908011145455361656786408 771:0.194153 2303:0.194153 2989:0.194153 #
-7.2370381908011145455361656786408 1734:0.34915099 1908:0.34915099 2985:0.34915099 3006:0.34915099 3013:0.34915099 3015:0.34915099 3016:0.34915099 3020:0.34915099 3025:0.34915099 #
4.0843152571767618042031244840473 1433:0.212217 2057:0.212217 3004:0.212217 3011:0.212217 3013:0.212217 3015:0.212217 3016:0.212217 3018:0.212217 3021:0.212217 3025:0.212217 #
-6.95944427725566061582185284351 865:0.166034 1908:0.166034 3006:0.166034 3013:0.166034 3015:0.166034 3016:0.166034 3020:0.166034 3025:0.166034 #
-7.2370381908011145455361656786408 1627:0.0083750002 2957:0.0083750002 #
-7.2370381908011145455361656786408 837:0.40299299 2827:0.40299299 2985:0.40299299 3003:0.40299299 3006:0.40299299 3009:0.40299299 3010:0.40299299 3012:0.40299299 3014:0.40299299 3017:0.40299299 3018:0.40299299 3019:0.40299299 3020:0.40299299 3021:0.40299299 3022:0.40299299 3023:0.40299299 3024:0.40299299 #
-1.1106550689672824994147504185094 1874:0.189983 1925:0.189983 #
-7.2370381908011145455361656786408 992:0.170176 2847:0.170176 2985:0.170176 2991:0.170176 3006:0.170176 3008:0.170176 3010:0.170176 3014:0.170176 3019:0.170176 3020:0.170176 3022:0.170176 3024:0.170176 #
-7.2370381908011145455361656786408 1477:0.40259799 2827:0.40259799 2989:0.40259799 3006:0.40259799 3009:0.40259799 3010:0.40259799 3012:0.40259799 3014:0.40259799 3017:0.40259799 3018:0.40259799 3019:0.40259799 3020:0.40259799 3021:0.40259799 3022:0.40259799 3023:0.40259799 3024:0.40259799 #
7.2370381908011145455361656786408 1638:0.53818399 2209:0.53818399 3016:0.53818399 #
7.2370381908011145455361656786408 1217:0.148127 2081:0.148127 2986:0.148127 3007:0.148127 3020:0.148127 3024:0.148127 #
7.2370381908011145455361656786408 837:0.124431 1894:0.124431 2985:0.124431 3003:0.124431 #
-7.2370381908011145455361656786408 372:0.00758 2711:0.00758 3008:0.00758 3010:0.00758 3015:0.00758 3017:0.00758 3018:0.00758 3022:0.00758 #
7.2370381908011145455361656786408 1281:0.114963 1908:0.114963 3006:0.114963 3013:0.114963 3015:0.114963 3016:0.114963 3020:0.114963 3025:0.114963 #
-7.2370381908011145455361656786408 1682:0.31406301 2057:0.31406301 2992:0.31406301 3011:0.31406301 3013:0.31406301 3015:0.31406301 3016:0.31406301 3018:0.31406301 3021:0.31406301 3025:0.31406301 #
-7.2370381908011145455361656786408 52:0.044022001 1908:0.044022001 2993:0.044022001 3006:0.044022001 3013:0.044022001 3015:0.044022001 3016:0.044022001 3020:0.044022001 3025:0.044022001 #
7.2370381908011145455361656786408 294:0.237767 2608:0.237767 3006:0.237767 3008:0.237767 3010:0.237767 3011:0.237767 3012:0.237767 3014:0.237767 3017:0.237767 3018:0.237767 3019:0.237767 3020:0.237767 3022:0.237767 3024:0.237767 #
7.2370381908011145455361656786408 816:0.29668501 2081:0.29668501 3007:0.29668501 3020:0.29668501 3024:0.29668501 #
-7.2370381908011145455361656786408 1135:0.047343001 2827:0.047343001 2989:0.047343001 3006:0.047343001 3009:0.047343001 3010:0.047343001 3012:0.047343001 3014:0.047343001 3017:0.047343001 3018:0.047343001 3019:0.047343001 3020:0.047343001 3021:0.047343001 3022:0.047343001 3023:0.047343001 3024:0.047343001 #
-7.2370381908011145455361656786408 932:0.034828998 2677:0.034828998 2993:0.034828998 3011:0.034828998 #
7.2370381908011145455361656786408 1842:0.0757 1908:0.0757 2992:0.0757 3006:0.0757 3013:0.0757 3015:0.0757 3016:0.0757 3020:0.0757 3025:0.0757 #
7.2370381908011145455361656786408 304:0.143179 2608:0.143179 2999:0.143179 3006:0.143179 3008:0.143179 3010:0.143179 3011:0.143179 3012:0.143179 3014:0.143179 3017:0.143179 3018:0.143179 3019:0.143179 3020:0.143179 3022:0.143179 3024:0.143179 #
-7.2370381908011145455361656786408 1175:0.0041180002 1908:0.0041180002 2985:0.0041180002 2992:0.0041180002 3006:0.0041180002 3013:0.0041180002 3015:0.0041180002 3016:0.0041180002 3020:0.0041180002 3025:0.0041180002 #
1.0604319900427376932583456436987 1101:0.71379501 1908:0.71379501 3006:0.71379501 3013:0.71379501 3015:0.71379501 3016:0.71379501 3020:0.71379501 3025:0.71379501 #
7.2370381908011145455361656786408 351:0.073817 2416:0.073817 3013:0.073817 3021:0.073817 #
5.5412685575993831932350985880475 1862:0.68186998 1908:0.68186998 3006:0.68186998 3013:0.68186998 3015:0.68186998 3016:0.68186998 3020:0.68186998 3025:0.68186998 #
-7.2370381908011145455361656786408 1273:0.207738 1934:0.207738 3001:0.207738 3015:0.207738 #
-7.2370381908011145455361656786408 1493:0.28490001 2118:0.28490001 3004:0.28490001 3010:0.28490001 3013:0.28490001 3015:0.28490001 3018:0.28490001 3021:0.28490001 3025:0.28490001 #
7.2370381908011145455361656786408 1402:0.070083998 2827:0.070083998 2989:0.070083998 3001:0.070083998 3006:0.070083998 3009:0.070083998 3010:0.070083998 3012:0.070083998 3014:0.070083998 3017:0.070083998 3018:0.070083998 3019:0.070083998 3020:0.070083998 3021:0.070083998 3022:0.070083998 3023:0.070083998 3024:0.070083998 #
7.2370381908011145455361656786408 419:0.098080002 2511:0.098080002 3003:0.098080002 #
-7.2370381908011145455361656786408 987:0.486635 1908:0.486635 3006:0.486635 3013:0.486635 3015:0.486635 3016:0.486635 3020:0.486635 3025:0.486635 #
7.2370381908011145455361656786408 1629:0.115743 2081:0.115743 2986:0.115743 3001:0.115743 3007:0.115743 3020:0.115743 3024:0.115743 #
-4.1307866571339388883643550798297 282:1.240447 2608:1.240447 3006:1.240447 3008:1.240447 3010:1.240447 3011:1.240447 3012:1.240447 3014:1.240447 3017:1.240447 3018:1.240447 3019:1.240447 3020:1.240447 3022:1.240447 3024:1.240447 #
-7.2370381908011145455361656786408 1628:0.0033219999 2506:0.0033219999 2998:0.0033219999 #
4.9927882874427043091714040201623 1342:0.22679999 2118:0.22679999 3010:0.22679999 3013:0.22679999 3015:0.22679999 3018:0.22679999 3021:0.22679999 3025:0.22679999 #
-7.2370381908011145455361656786408 189:0.033098001 2037:0.033098001 3024:0.033098001 #
7.2370381908011145455361656786408 1370:0.57839698 2370:0.57839698 2998:0.57839698 #
-7.2370381908011145455361656786408 1130:0.28725201 1908:0.28725201 2992:0.28725201 3006:0.28725201 3013:0.28725201 3015:0.28725201 3016:0.28725201 3020:0.28725201 3025:0.28725201 #
7.2370381908011145455361656786408 490:0.22702999 2624:0.22702999 3015:0.22702999 3016:0.22702999 #
7.2370381908011145455361656786408 149:0.193711 2608:0.193711 3001:0.193711 3006:0.193711 3008:0.193711 3010:0.193711 3011:0.193711 3012:0.193711 3014:0.193711 3017:0.193711 3018:0.193711 3019:0.193711 3020:0.193711 3022:0.193711 3024:0.193711 #
7.2370381908011145455361656786408 1470:0.036187999 2847:0.036187999 2993:0.036187999 3006:0.036187999 3008:0.036187999 3010:0.036187999 3014:0.036187999 3019:0.036187999 3020:0.036187999 3022:0.036187999 3024:0.036187999 #
-7.2370381908011145455361656786408 1646:0.010726 2057:0.010726 2990:0.010726 3011:0.010726 3013:0.010726 3015:0.010726 3016:0.010726 3018:0.010726 3021:0.010726 3025:0.010726 #
7.2370381908011145455361656786408 1800:0.125333 1908:0.125333 2994:0.125333 3006:0.125333 3013:0.125333 3015:0.125333 3016:0.125333 3020:0.125333 3025:0.125333 #
7.2370381908011145455361656786408 697:0.29688299 2381:0.29688299 3004:0.29688299 3022:0.29688299 #
-3.9175959219374747455333363177488 610:0.52138901 1908:0.52138901 3006:0.52138901 3013:0.52138901 3015:0.52138901 3016:0.52138901 3020:0.52138901 3025:0.52138901 #
1.1153382004535012939072657900397 828:0.415117 2957:0.415117 2994:0.415117 #
7.2370381908011145455361656786408 1684:0.246694 2827:0.246694 2987:0.246694 3006:0.246694 3009:0.246694 3010:0.246694 3012:0.246694 3014:0.246694 3017:0.246694 3018:0.246694 3019:0.246694 3020:0.246694 3021:0.246694 3022:0.246694 3023:0.246694 3024:0.246694 #
7.2370381908011145455361656786408 1137:0.026839999 2608:0.026839999 3001:0.026839999 3006:0.026839999 3008:0.026839999 3010:0.026839999 3011:0.026839999 3012:0.026839999 3014:0.026839999 3017:0.026839999 3018:0.026839999 3019:0.026839999 3020:0.026839999 3022:0.026839999 3024:0.026839999 #
4.0495691055612006437058880692348 777:0.67209399 2677:0.67209399 2989:0.67209399 3011:0.67209399 #
7.2370381908011145455361656786408 1135:0.209604 2668:0.209604 2989:0.209604 3024:0.209604 #
-2.4630750487732915310346015758114 370:0.041974999 2138:0.041974999 3004:0.041974999 #
-7.2370381908011145455361656786408 424:0.37803099 2827:0.37803099 3006:0.37803099 3009:0.37803099 3010:0.37803099 3012:0.37803099 3014:0.37803099 3017:0.37803099 3018:0.37803099 3019:0.37803099 3020:0.37803099 3021:0.37803099 3022:0.37803099 3023:0.37803099 3024:0.37803099 #
7.2370381908011145455361656786408 896:0.192313 2827:0.192313 3006:0.192313 3009:0.192313 3010:0.192313 3012:0.192313 3014:0.192313 3017:0.192313 3018:0.192313 3019:0.192313 3020:0.192313 3021:0.192313 3022:0.192313 3023:0.192313 3024:0.192313 #
-7.2370381908011145455361656786408 686:0.38516301 2057:0.38516301 3011:0.38516301 3013:0.38516301 3015:0.38516301 3016:0.38516301 3018:0.38516301 3021:0.38516301 3025:0.38516301 #
7.2370381908011145455361656786408 200:0.40392399 2847:0.40392399 2989:0.40392399 3006:0.40392399 3008:0.40392399 3010:0.40392399 3014:0.40392399 3019:0.40392399 3020:0.40392399 3022:0.40392399 3024:0.40392399 #
5.8917331751111987614422105252743 1497:0.23103701 2608:0.23103701 2993:0.23103701 3006:0.23103701 3008:0.23103701 3010:0.23103701 3011:0.23103701 3012:0.23103701 3014:0.23103701 3017:0.23103701 3018:0.23103701 3019:0.23103701 3020:0.23103701 3022:0.23103701 3024:0.23103701 #
-7.2370381908011145455361656786408 1084:0.078505002 2081:0.078505002 2989:0.078505002 3007:0.078505002 3020:0.078505002 3024:0.078505002 #
7.2370381908011145455361656786408 104:0.05511 2081:0.05511 2991:0.05511 3007:0.05511 3020:0.05511 3024:0.05511 #
-7.2370381908011145455361656786408 992:0.297721 2847:0.297721 2985:0.297721 2991:0.297721 3006:0.297721 3008:0.297721 3010:0.297721 3014:0.297721 3019:0.297721 3020:0.297721 3022:0.297721 3024:0.297721 #
7.2370381908011145455361656786408 365:0.082010001 2081:0.082010001 2986:0.082010001 3007:0.082010001 3020:0.082010001 3024:0.082010001 #
7.2370381908011145455361656786408 1085:0.186186 1887:0.186186 2999:0.186186 3006:0.186186 3023:0.186186 #
7.2370381908011145455361656786408 1351:0.043060999 2057:0.043060999 3011:0.043060999 3013:0.043060999 3015:0.043060999 3016:0.043060999 3018:0.043060999 3021:0.043060999 3025:0.043060999 #
7.2370381908011145455361656786408 117:0.093980998 2827:0.093980998 2996:0.093980998 3006:0.093980998 3009:0.093980998 3010:0.093980998 3012:0.093980998 3014:0.093980998 3017:0.093980998 3018:0.093980998 3019:0.093980998 3020:0.093980998 3021:0.093980998 3022:0.093980998 3023:0.093980998 3024:0.093980998 #
-7.2370381908011145455361656786408 15:0.062079001 2847:0.062079001 3001:0.062079001 3006:0.062079001 3008:0.062079001 3010:0.062079001 3014:0.062079001 3019:0.062079001 3020:0.062079001 3022:0.062079001 3024:0.062079001 #
7.2370381908011145455361656786408 1085:0.118958 2847:0.118958 2999:0.118958 3006:0.118958 3008:0.118958 3010:0.118958 3014:0.118958 3019:0.118958 3020:0.118958 3022:0.118958 3024:0.118958 #
-7.2370381908011145455361656786408 1040:0.42134199 2827:0.42134199 3006:0.42134199 3009:0.42134199 3010:0.42134199 3012:0.42134199 3014:0.42134199 3017:0.42134199 3018:0.42134199 3019:0.42134199 3020:0.42134199 3021:0.42134199 3022:0.42134199 3023:0.42134199 3024:0.42134199 #
1.0528599315114304246776555373799 430:0.67967302 2339:0.67967302 2987:0.67967302 3008:0.67967302 3013:0.67967302 #
5.8399828240116118394098521093838 636:0.093707003 2189:0.093707003 2997:0.093707003 3007:0.093707003 3008:0.093707003 3010:0.093707003 3012:0.093707003 3017:0.093707003 3023:0.093707003 3024:0.093707003 #
7.2370381908011145455361656786408 480:0.409464 2847:0.409464 2997:0.409464 3006:0.409464 3008:0.409464 3010:0.409464 3014:0.409464 3019:0.409464 3020:0.409464 3022:0.409464 3024:0.409464 #
7.2370381908011145455361656786408 1343:0.28545401 1908:0.28545401 3006:0.28545401 3013:0.28545401 3015:0.28545401 3016:0.28545401 3020:0.28545401 3025:0.28545401 #
7.2370381908011145455361656786408 1715:0.28316301 2209:0.28316301 3016:0.28316301 #
7.2370381908011145455361656786408 1358:0.037983 2882:0.037983 #
-4.1101025559478356896647710527759 317:0.97359103 2057:0.97359103 3011:0.97359103 3013:0.97359103 3015:0.97359103 3016:0.97359103 3018:0.97359103 3021:0.97359103 3025:0.97359103 #
7.2370381908011145455361656786408 1603:0.313972 2847:0.313972 3003:0.313972 3006:0.313972 3008:0.313972 3010:0.313972 3014:0.313972 3019:0.313972 3020:0.313972 3022:0.313972 3024:0.313972 #
-7.2370381908011145455361656786408 1028:0.35325101 2057:0.35325101 3011:0.35325101 3013:0.35325101 3015:0.35325101 3016:0.35325101 3018:0.35325101 3021:0.35325101 3025:0.35325101 #
1.3091757103877519341494917171076 275:0.42467901 1908:0.42467901 2994:0.42467901 3006:0.42467901 3013:0.42467901 3015:0.42467901 3016:0.42467901 3020:0.42467901 3025:0.42467901 #
-5.3459100192522397421157620556187 1755:0.0073099998 2909:0.0073099998 2999:0.0073099998 #
7.2370381908011145455361656786408 706:0.16992199 2057:0.16992199 3011:0.16992199 3013:0.16992199 3015:0.16992199 3016:0.16992199 3018:0.16992199 3021:0.16992199 3025:0.16992199 #
7.2370381908011145455361656786408 1781:0.221284 2635:0.221284 #
7.2370381908011145455361656786408 1248:0.015805 2146:0.015805 #
7.2370381908011145455361656786408 1410:0.142324 1939:0.142324 2986:0.142324 #
7.2370381908011145455361656786408 1156:0.204474 2444:0.204474 3019:0.204474 #
-7.2370381908011145455361656786408 1149:0.097622 1941:0.097622 2998:0.097622 3001:0.097622 3003:0.097622 #
-3.1010423332608554325418026564876 1488:0.65928203 1908:0.65928203 3006:0.65928203 3013:0.65928203 3015:0.65928203 3016:0.65928203 3020:0.65928203 3025:0.65928203 #
7.2370381908011145455361656786408 1402:0.13098601 2827:0.13098601 2989:0.13098601 3001:0.13098601 3006:0.13098601 3009:0.13098601 3010:0.13098601 3012:0.13098601 3014:0.13098601 3017:0.13098601 3018:0.13098601 3019:0.13098601 3020:0.13098601 3021:0.13098601 3022:0.13098601 3023:0.13098601 3024:0.13098601 #
3.4836384350475726456863867497304 1477:0.336878 2827:0.336878 2989:0.336878 3006:0.336878 3009:0.336878 3010:0.336878 3012:0.336878 3014:0.336878 3017:0.336878 3018:0.336878 3019:0.336878 3020:0.336878 3021:0.336878 3022:0.336878 3023:0.336878 3024:0.336878 #
-4.5634814528836074032369651831686 1857:0.447308 1908:0.447308 3006:0.447308 3013:0.447308 3015:0.447308 3016:0.447308 3020:0.447308 3025:0.447308 #
7.2370381908011145455361656786408 106:0.45013201 2847:0.45013201 2998:0.45013201 3006:0.45013201 3008:0.45013201 3010:0.45013201 3014:0.45013201 3019:0.45013201 3020:0.45013201 3022:0.45013201 3024:0.45013201 #
3.7690413269149352082365567184752 1467:0.61918801 1908:0.61918801 2999:0.61918801 3006:0.61918801 3013:0.61918801 3015:0.61918801 3016:0.61918801 3020:0.61918801 3025:0.61918801 #
7.2370381908011145455361656786408 1678:0.053236999 2410:0.053236999 2986:0.053236999 #
-7.2370381908011145455361656786408 443:0.193005 2057:0.193005 2992:0.193005 3011:0.193005 3013:0.193005 3015:0.193005 3016:0.193005 3018:0.193005 3021:0.193005 3025:0.193005 #
7.2370381908011145455361656786408 1816:0.15329599 2081:0.15329599 3007:0.15329599 3020:0.15329599 3024:0.15329599 #
-7.2370381908011145455361656786408 580:0.336128 2608:0.336128 2989:0.336128 3006:0.336128 3008:0.336128 3010:0.336128 3011:0.336128 3012:0.336128 3014:0.336128 3017:0.336128 3018:0.336128 3019:0.336128 3020:0.336128 3022:0.336128 3024:0.336128 #
-7.2370381908011145455361656786408 301:0.41022101 2608:0.41022101 3006:0.41022101 3008:0.41022101 3010:0.41022101 3011:0.41022101 3012:0.41022101 3014:0.41022101 3017:0.41022101 3018:0.41022101 3019:0.41022101 3020:0.41022101 3022:0.41022101 3024:0.41022101 #
7.2370381908011145455361656786408 1250:0.30723 2608:0.30723 2999:0.30723 3006:0.30723 3008:0.30723 3010:0.30723 3011:0.30723 3012:0.30723 3014:0.30723 3017:0.30723 3018:0.30723 3019:0.30723 3020:0.30723 3022:0.30723 3024:0.30723 #
7.2370381908011145455361656786408 1250:0.33359501 2608:0.33359501 2999:0.33359501 3006:0.33359501 3008:0.33359501 3010:0.33359501 3011:0.33359501 3012:0.33359501 3014:0.33359501 3017:0.33359501 3018:0.33359501 3019:0.33359501 3020:0.33359501 3022:0.33359501 3024:0.33359501 #
-7.2370381908011145455361656786408 872:0.015418 1889:0.015418 3004:0.015418 #
-7.2370381908011145455361656786408 1164:0.390616 2608:0.390616 2987:0.390616 3006:0.390616 3008:0.390616 3010:0.390616 3011:0.390616 3012:0.390616 3014:0.390616 3017:0.390616 3018:0.390616 3019:0.390616 3020:0.390616 3022:0.390616 3024:0.390616 #
4.9937926790160052092915066168644 1828:0.30679899 2424:0.30679899 2987:0.30679899 3008:0.30679899 3011:0.30679899 3018:0.30679899 3025:0.30679899 #
-7.2370381908011145455361656786408 1850:0.029474 2070:0.029474 3003:0.029474 #
7.2370381908011145455361656786408 1594:0.29785499 2146:0.29785499 2999:0.29785499 #
6.3628229242976974688872360275127 1844:0.31279099 2624:0.31279099 3000:0.31279099 3015:0.31279099 3016:0.31279099 #
-7.2370381908011145455361656786408 964:0.47508499 2057:0.47508499 3011:0.47508499 3013:0.47508499 3015:0.47508499 3016:0.47508499 3018:0.47508499 3021:0.47508499 3025:0.47508499 #
7.2370381908011145455361656786408 992:0.16930699 2081:0.16930699 2985:0.16930699 2991:0.16930699 3007:0.16930699 3020:0.16930699 3024:0.16930699 #
-7.2370381908011145455361656786408 1873:0.189153 2416:0.189153 2995:0.189153 3013:0.189153 3021:0.189153 #
-7.2370381908011145455361656786408 1571:0.115439 2037:0.115439 2993:0.115439 3024:0.115439 #
1.0004053044993850285493408591719 1422:0.58631402 2507:0.58631402 2996:0.58631402 3007:0.58631402 3008:0.58631402 3009:0.58631402 3010:0.58631402 3011:0.58631402 3012:0.58631402 3014:0.58631402 3018:0.58631402 3019:0.58631402 3020:0.58631402 3021:0.58631402 3022:0.58631402 3023:0.58631402 3024:0.58631402 3025:0.58631402 #
7.2370381908011145455361656786408 1542:0.31322801 1934:0.31322801 3015:0.31322801 #
7.2370381908011145455361656786408 58:0.082232997 2624:0.082232997 3015:0.082232997 3016:0.082232997 #
7.2370381908011145455361656786408 1627:0.044413999 2777:0.044413999 #
7.2370381908011145455361656786408 583:0.176328 2847:0.176328 2989:0.176328 3006:0.176328 3008:0.176328 3010:0.176328 3014:0.176328 3019:0.176328 3020:0.176328 3022:0.176328 3024:0.176328 #
-4.7782039645444580600042172591202 518:0.427082 1908:0.427082 3006:0.427082 3013:0.427082 3015:0.427082 3016:0.427082 3020:0.427082 3025:0.427082 #
-6.4788366984759244715519344026688 583:0.23707201 2847:0.23707201 2989:0.23707201 3006:0.23707201 3008:0.23707201 3010:0.23707201 3014:0.23707201 3019:0.23707201 3020:0.23707201 3022:0.23707201 3024:0.23707201 #
7.2370381908011145455361656786408 1652:0.27239701 2827:0.27239701 3006:0.27239701 3009:0.27239701 3010:0.27239701 3012:0.27239701 3014:0.27239701 3017:0.27239701 3018:0.27239701 3019:0.27239701 3020:0.27239701 3021:0.27239701 3022:0.27239701 3023:0.27239701 3024:0.27239701 #
7.2370381908011145455361656786408 1160:0.056366999 2827:0.056366999 3006:0.056366999 3009:0.056366999 3010:0.056366999 3012:0.056366999 3014:0.056366999 3017:0.056366999 3018:0.056366999 3019:0.056366999 3020:0.056366999 3021:0.056366999 3022:0.056366999 3023:0.056366999 3024:0.056366999 #
0.08283670088678296572481940529542 1678:0.447182 2873:0.447182 2986:0.447182 #
-7.2370381908011145455361656786408 1629:0.052935001 2847:0.052935001 2986:0.052935001 3001:0.052935001 3006:0.052935001 3008:0.052935001 3010:0.052935001 3014:0.052935001 3019:0.052935001 3020:0.052935001 3022:0.052935001 3024:0.052935001 #
-7.2370381908011145455361656786408 535:0.002116 2827:0.002116 2989:0.002116 3006:0.002116 3009:0.002116 3010:0.002116 3012:0.002116 3014:0.002116 3017:0.002116 3018:0.002116 3019:0.002116 3020:0.002116 3021:0.002116 3022:0.002116 3023:0.002116 3024:0.002116 #
-7.2370381908011145455361656786408 1447:0.095578998 1908:0.095578998 3006:0.095578998 3013:0.095578998 3015:0.095578998 3016:0.095578998 3020:0.095578998 3025:0.095578998 #
7.2370381908011145455361656786408 1541:0.120454 1999:0.120454 2998:0.120454 3004:0.120454 3019:0.120454 #
7.2370381908011145455361656786408 1682:0.194738 2425:0.194738 2992:0.194738 #
-7.2370381908011145455361656786408 505:0.15975 2624:0.15975 3015:0.15975 3016:0.15975 #
7.2370381908011145455361656786408 149:0.19554301 2827:0.19554301 3001:0.19554301 3006:0.19554301 3009:0.19554301 3010:0.19554301 3012:0.19554301 3014:0.19554301 3017:0.19554301 3018:0.19554301 3019:0.19554301 3020:0.19554301 3021:0.19554301 3022:0.19554301 3023:0.19554301 3024:0.19554301 #
7.2370381908011145455361656786408 93:0.244122 2847:0.244122 3003:0.244122 3006:0.244122 3008:0.244122 3010:0.244122 3014:0.244122 3019:0.244122 3020:0.244122 3022:0.244122 3024:0.244122 #
7.2370381908011145455361656786408 1684:0.079089999 2444:0.079089999 2987:0.079089999 3019:0.079089999 #
7.2370381908011145455361656786408 1477:0.208325 2847:0.208325 2989:0.208325 3006:0.208325 3008:0.208325 3010:0.208325 3014:0.208325 3019:0.208325 3020:0.208325 3022:0.208325 3024:0.208325 #
-7.2370381908011145455361656786408 490:0.073931001 2416:0.073931001 3013:0.073931001 3021:0.073931001 #
2.2226918277759963871176296379417 1435:0.35128 2424:0.35128 3008:0.35128 3011:0.35128 3018:0.35128 3025:0.35128 #
3.0153264522731415553380429628305 1199:0.33732501 2424:0.33732501 3008:0.33732501 3011:0.33732501 3018:0.33732501 3025:0.33732501 #
-7.2370381908011145455361656786408 1862:0.30237201 2057:0.30237201 3011:0.30237201 3013:0.30237201 3015:0.30237201 3016:0.30237201 3018:0.30237201 3021:0.30237201 3025:0.30237201 #
7.2370381908011145455361656786408 1410:0.101545 2388:0.101545 2986:0.101545 #
-7.2370381908011145455361656786408 1506:0.032145999 2827:0.032145999 3000:0.032145999 3006:0.032145999 3009:0.032145999 3010:0.032145999 3012:0.032145999 3014:0.032145999 3017:0.032145999 3018:0.032145999 3019:0.032145999 3020:0.032145999 3021:0.032145999 3022:0.032145999 3023:0.032145999 3024:0.032145999 #
7.2370381908011145455361656786408 1846:0.28785601 2424:0.28785601 3008:0.28785601 3011:0.28785601 3018:0.28785601 3025:0.28785601 #
7.2370381908011145455361656786408 614:0.44630101 2641:0.44630101 2999:0.44630101 #
-7.2370381908011145455361656786408 1302:0.17922799 1908:0.17922799 2994:0.17922799 3006:0.17922799 3013:0.17922799 3015:0.17922799 3016:0.17922799 3020:0.17922799 3025:0.17922799 #
1.2788658381515405348949343533604 371:0.74989802 2660:0.74989802 3001:0.74989802 #
-7.2370381908011145455361656786408 1109:0.336712 2118:0.336712 3010:0.336712 3013:0.336712 3015:0.336712 3018:0.336712 3021:0.336712 3025:0.336712 #
7.2370381908011145455361656786408 259:0.037916999 2081:0.037916999 3007:0.037916999 3020:0.037916999 3024:0.037916999 #
7.2370381908011145455361656786408 144:0.012358 2882:0.012358 2996:0.012358 #
4.4127452007490006735679344274104 1814:0.55094898 1942:0.55094898 #
7.2370381908011145455361656786408 1811:0.18466499 2608:0.18466499 3006:0.18466499 3008:0.18466499 3010:0.18466499 3011:0.18466499 3012:0.18466499 3014:0.18466499 3017:0.18466499 3018:0.18466499 3019:0.18466499 3020:0.18466499 3022:0.18466499 3024:0.18466499 #
-7.2370381908011145455361656786408 1420:0.227138 1908:0.227138 3004:0.227138 3006:0.227138 3013:0.227138 3015:0.227138 3016:0.227138 3020:0.227138 3025:0.227138 #
7.2370381908011145455361656786408 1521:0.30787501 2476:0.30787501 2987:0.30787501 #
-7.2370381908011145455361656786408 115:0.014786 1978:0.014786 2995:0.014786 3021:0.014786 #
7.2370381908011145455361656786408 147:0.25869799 2081:0.25869799 2999:0.25869799 3007:0.25869799 3020:0.25869799 3024:0.25869799 #
7.2370381908011145455361656786408 383:0.14987101 2081:0.14987101 2989:0.14987101 3007:0.14987101 3020:0.14987101 3024:0.14987101 #
7.2370381908011145455361656786408 1067:0.13953599 2057:0.13953599 3011:0.13953599 3013:0.13953599 3015:0.13953599 3016:0.13953599 3018:0.13953599 3021:0.13953599 3025:0.13953599 #
7.2370381908011145455361656786408 1099:0.036566999 2189:0.036566999 3002:0.036566999 3007:0.036566999 3008:0.036566999 3010:0.036566999 3012:0.036566999 3017:0.036566999 3023:0.036566999 3024:0.036566999 #
-1.0784713684340132555661284641246 475:0.454927 2847:0.454927 2997:0.454927 3006:0.454927 3008:0.454927 3010:0.454927 3014:0.454927 3019:0.454927 3020:0.454927 3022:0.454927 3024:0.454927 #
-2.1395571846349645817042528506136 1131:0.58498001 2847:0.58498001 2998:0.58498001 3006:0.58498001 3008:0.58498001 3010:0.58498001 3014:0.58498001 3019:0.58498001 3020:0.58498001 3022:0.58498001 3024:0.58498001 #
-7.2370381908011145455361656786408 871:0.058476001 2608:0.058476001 2985:0.058476001 3006:0.058476001 3008:0.058476001 3010:0.058476001 3011:0.058476001 3012:0.058476001 3014:0.058476001 3017:0.058476001 3018:0.058476001 3019:0.058476001 3020:0.058476001 3022:0.058476001 3024:0.058476001 #
7.2370381908011145455361656786408 1404:0.22818901 2847:0.22818901 2989:0.22818901 3006:0.22818901 3008:0.22818901 3010:0.22818901 3014:0.22818901 3019:0.22818901 3020:0.22818901 3022:0.22818901 3024:0.22818901 #
-7.2370381908011145455361656786408 1402:0.107829 1939:0.107829 2989:0.107829 3001:0.107829 #
-4.0268819348832778359792428091168 994:0.50719702 1908:0.50719702 3006:0.50719702 3013:0.50719702 3015:0.50719702 3016:0.50719702 3020:0.50719702 3025:0.50719702 #
7.2370381908011145455361656786408 1319:0.22865599 2827:0.22865599 2985:0.22865599 3006:0.22865599 3009:0.22865599 3010:0.22865599 3012:0.22865599 3014:0.22865599 3017:0.22865599 3018:0.22865599 3019:0.22865599 3020:0.22865599 3021:0.22865599 3022:0.22865599 3023:0.22865599 3024:0.22865599 #
-7.1343308349991900740860728546977 444:0.206498 1908:0.206498 3006:0.206498 3013:0.206498 3015:0.206498 3016:0.206498 3020:0.206498 3025:0.206498 #
7.2370381908011145455361656786408 991:0.22039001 1889:0.22039001 #
7.2370381908011145455361656786408 1443:0.027175 2827:0.027175 2996:0.027175 3006:0.027175 3009:0.027175 3010:0.027175 3012:0.027175 3014:0.027175 3017:0.027175 3018:0.027175 3019:0.027175 3020:0.027175 3021:0.027175 3022:0.027175 3023:0.027175 3024:0.027175 #
-7.2370381908011145455361656786408 1791:0.159768 2057:0.159768 3011:0.159768 3013:0.159768 3015:0.159768 3016:0.159768 3018:0.159768 3021:0.159768 3025:0.159768 #
-7.2370381908011145455361656786408 837:0.322119 2847:0.322119 2985:0.322119 3003:0.322119 3006:0.322119 3008:0.322119 3010:0.322119 3014:0.322119 3019:0.322119 3020:0.322119 3022:0.322119 3024:0.322119 #
-7.2370381908011145455361656786408 386:0.069794998 2265:0.069794998 2986:0.069794998 #
4.9162759581051354018654819810763 362:0.46312401 1908:0.46312401 3006:0.46312401 3013:0.46312401 3015:0.46312401 3016:0.46312401 3020:0.46312401 3025:0.46312401 #
7.2370381908011145455361656786408 711:0.002746 1887:0.002746 3006:0.002746 3023:0.002746 #
7.2370381908011145455361656786408 1493:0.27874401 2507:0.27874401 3004:0.27874401 3007:0.27874401 3008:0.27874401 3009:0.27874401 3010:0.27874401 3011:0.27874401 3012:0.27874401 3014:0.27874401 3018:0.27874401 3019:0.27874401 3020:0.27874401 3021:0.27874401 3022:0.27874401 3023:0.27874401 3024:0.27874401 3025:0.27874401 #
4.9319387048269724971305549843237 1096:0.462623 1908:0.462623 3006:0.462623 3013:0.462623 3015:0.462623 3016:0.462623 3020:0.462623 3025:0.462623 #
6.1479875190663637596344415214844 235:0.20823 2081:0.20823 3000:0.20823 3007:0.20823 3020:0.20823 3024:0.20823 #
-4.4300689891641873430216946871951 278:0.46069601 1908:0.46069601 3006:0.46069601 3013:0.46069601 3015:0.46069601 3016:0.46069601 3020:0.46069601 3025:0.46069601 #
-2.403087995725921466316776786698 1622:0.226374 2847:0.226374 2987:0.226374 3006:0.226374 3008:0.226374 3010:0.226374 3014:0.226374 3019:0.226374 3020:0.226374 3022:0.226374 3024:0.226374 #
7.2370381908011145455361656786408 1346:0.024286 2624:0.024286 3015:0.024286 3016:0.024286 #
7.2370381908011145455361656786408 383:0.31485099 2766:0.31485099 2989:0.31485099 #
7.2370381908011145455361656786408 1619:0.045453001 2827:0.045453001 3006:0.045453001 3009:0.045453001 3010:0.045453001 3012:0.045453001 3014:0.045453001 3017:0.045453001 3018:0.045453001 3019:0.045453001 3020:0.045453001 3021:0.045453001 3022:0.045453001 3023:0.045453001 3024:0.045453001 #
7.2370381908011145455361656786408 67:0.27920201 2777:0.27920201 2990:0.27920201 #
7.2370381908011145455361656786408 52:0.180922 2777:0.180922 2993:0.180922 #
7.2370381908011145455361656786408 1130:0.111928 2889:0.111928 2992:0.111928 #
7.2370381908011145455361656786408 737:0.15493099 2847:0.15493099 3006:0.15493099 3008:0.15493099 3010:0.15493099 3014:0.15493099 3019:0.15493099 3020:0.15493099 3022:0.15493099 3024:0.15493099 #
7.2370381908011145455361656786408 75:0.097317003 2624:0.097317003 3015:0.097317003 3016:0.097317003 #
7.2370381908011145455361656786408 771:0.10759 2318:0.10759 2989:0.10759 #
7.2370381908011145455361656786408 383:0.093716003 2538:0.093716003 2989:0.093716003 #
-7.2370381908011145455361656786408 1551:0.27963501 1908:0.27963501 3006:0.27963501 3013:0.27963501 3015:0.27963501 3016:0.27963501 3020:0.27963501 3025:0.27963501 #
-7.2370381908011145455361656786408 1553:0.121926 1908:0.121926 3006:0.121926 3013:0.121926 3015:0.121926 3016:0.121926 3020:0.121926 3025:0.121926 #
-7.2370381908011145455361656786408 584:0.067403004 2118:0.067403004 2992:0.067403004 3010:0.067403004 3013:0.067403004 3015:0.067403004 3018:0.067403004 3021:0.067403004 3025:0.067403004 #
-7.2370381908011145455361656786408 1493:0.120235 2118:0.120235 3004:0.120235 3010:0.120235 3013:0.120235 3015:0.120235 3018:0.120235 3021:0.120235 3025:0.120235 #
7.2370381908011145455361656786408 1340:0.130483 2057:0.130483 3011:0.130483 3013:0.130483 3015:0.130483 3016:0.130483 3018:0.130483 3021:0.130483 3025:0.130483 #
7.2370381908011145455361656786408 1506:0.043793 2909:0.043793 3000:0.043793 #
-7.2370381908011145455361656786408 1538:0.079228997 2209:0.079228997 3016:0.079228997 #
-7.2370381908011145455361656786408 1598:0.071134001 2057:0.071134001 2994:0.071134001 3011:0.071134001 3013:0.071134001 3015:0.071134001 3016:0.071134001 3018:0.071134001 3021:0.071134001 3025:0.071134001 #
7.2370381908011145455361656786408 1026:0.101589 2118:0.101589 3004:0.101589 3010:0.101589 3013:0.101589 3015:0.101589 3018:0.101589 3021:0.101589 3025:0.101589 #
-7.2370381908011145455361656786408 117:0.032820001 2381:0.032820001 2996:0.032820001 3022:0.032820001 #
-7.2370381908011145455361656786408 1136:0.143668 2307:0.143668 #
7.2370381908011145455361656786408 1874:0.013165 2351:0.013165 3018:0.013165 3019:0.013165 3022:0.013165 #
-7.2370381908011145455361656786408 51:0.110511 2057:0.110511 3004:0.110511 3011:0.110511 3013:0.110511 3015:0.110511 3016:0.110511 3018:0.110511 3021:0.110511 3025:0.110511 #
6.8617897782575125731341358914506 322:0.191127 2081:0.191127 3002:0.191127 3007:0.191127 3020:0.191127 3024:0.191127 #
-5.0824914016603912614300497807562 18:0.263172 2416:0.263172 3013:0.263172 3021:0.263172 #
-5.4737900924225773025000307825394 1029:0.281266 2847:0.281266 3001:0.281266 3006:0.281266 3008:0.281266 3010:0.281266 3014:0.281266 3019:0.281266 3020:0.281266 3022:0.281266 3024:0.281266 #
-7.2370381908011145455361656786408 690:0.27805299 1908:0.27805299 3006:0.27805299 3013:0.27805299 3015:0.27805299 3016:0.27805299 3020:0.27805299 3025:0.27805299 #
7.2370381908011145455361656786408 1239:0.201729 2204:0.201729 2986:0.201729 3000:0.201729 #
-7.2370381908011145455361656786408 243:0.019564001 2341:0.019564001 3021:0.019564001 #
7.2370381908011145455361656786408 306:0.183791 2635:0.183791 #
-7.2370381908011145455361656786408 725:0.120437 1908:0.120437 3006:0.120437 3013:0.120437 3015:0.120437 3016:0.120437 3020:0.120437 3025:0.120437 #
7.2370381908011145455361656786408 941:0.37388501 2347:0.37388501 #
-7.2370381908011145455361656786408 1263:0.34657601 2057:0.34657601 3011:0.34657601 3013:0.34657601 3015:0.34657601 3016:0.34657601 3018:0.34657601 3021:0.34657601 3025:0.34657601 #
-7.2370381908011145455361656786408 1659:0.058424 2416:0.058424 3013:0.058424 3021:0.058424 #
-7.2370381908011145455361656786408 1164:0.00703 2608:0.00703 2987:0.00703 3006:0.00703 3008:0.00703 3010:0.00703 3011:0.00703 3012:0.00703 3014:0.00703 3017:0.00703 3018:0.00703 3019:0.00703 3020:0.00703 3022:0.00703 3024:0.00703 #
7.2370381908011145455361656786408 1723:0.057282001 2827:0.057282001 3001:0.057282001 3006:0.057282001 3009:0.057282001 3010:0.057282001 3012:0.057282001 3014:0.057282001 3017:0.057282001 3018:0.057282001 3019:0.057282001 3020:0.057282001 3021:0.057282001 3022:0.057282001 3023:0.057282001 3024:0.057282001 #
-0.36083634513049345216018082282972 1775:0.317983 2847:0.317983 2998:0.317983 3006:0.317983 3008:0.317983 3010:0.317983 3014:0.317983 3019:0.317983 3020:0.317983 3022:0.317983 3024:0.317983 #
7.2370381908011145455361656786408 1373:0.181206 2081:0.181206 3007:0.181206 3020:0.181206 3024:0.181206 #
7.2370381908011145455361656786408 149:0.119148 2081:0.119148 3001:0.119148 3007:0.119148 3020:0.119148 3024:0.119148 #
2.0126146979020784755221029627137 594:0.414233 2057:0.414233 3011:0.414233 3013:0.414233 3015:0.414233 3016:0.414233 3018:0.414233 3021:0.414233 3025:0.414233 #
0.59831622557785490990056587179424 366:0.46772301 2057:0.46772301 3011:0.46772301 3013:0.46772301 3015:0.46772301 3016:0.46772301 3018:0.46772301 3021:0.46772301 3025:0.46772301 #
1.4110603634009235562984940770548 1179:0.43403 2057:0.43403 3011:0.43403 3013:0.43403 3015:0.43403 3016:0.43403 3018:0.43403 3021:0.43403 3025:0.43403 #
7.2370381908011145455361656786408 837:0.175387 2847:0.175387 2985:0.175387 3003:0.175387 3006:0.175387 3008:0.175387 3010:0.175387 3014:0.175387 3019:0.175387 3020:0.175387 3022:0.175387 3024:0.175387 #
1.7835249785476317008203750447137 100:0.307477 2608:0.307477 3006:0.307477 3008:0.307477 3010:0.307477 3011:0.307477 3012:0.307477 3014:0.307477 3017:0.307477 3018:0.307477 3019:0.307477 3020:0.307477 3022:0.307477 3024:0.307477 #
3.0242390589960979063732793292729 1860:0.32746601 2635:0.32746601 #
-7.2370381908011145455361656786408 926:0.036695 2057:0.036695 2994:0.036695 3011:0.036695 3013:0.036695 3015:0.036695 3016:0.036695 3018:0.036695 3021:0.036695 3025:0.036695 #
4.0450340171006846645695986808278 1077:0.175365 2118:0.175365 2990:0.175365 3010:0.175365 3013:0.175365 3015:0.175365 3018:0.175365 3021:0.175365 3025:0.175365 #
-7.2370381908011145455361656786408 1180:0.025676001 1917:0.025676001 #
7.2370381908011145455361656786408 12:0.144319 2827:0.144319 2999:0.144319 3006:0.144319 3009:0.144319 3010:0.144319 3012:0.144319 3014:0.144319 3017:0.144319 3018:0.144319 3019:0.144319 3020:0.144319 3021:0.144319 3022:0.144319 3023:0.144319 3024:0.144319 #
-2.8463521786947740821460683946498 1531:0.178418 1926:0.178418 2996:0.178418 3001:0.178418 #
7.2370381908011145455361656786408 1571:0.232862 2827:0.232862 2993:0.232862 3006:0.232862 3009:0.232862 3010:0.232862 3012:0.232862 3014:0.232862 3017:0.232862 3018:0.232862 3019:0.232862 3020:0.232862 3021:0.232862 3022:0.232862 3023:0.232862 3024:0.232862 #
-7.2370381908011145455361656786408 1437:0.15712599 2057:0.15712599 3011:0.15712599 3013:0.15712599 3015:0.15712599 3016:0.15712599 3018:0.15712599 3021:0.15712599 3025:0.15712599 #
7.2370381908011145455361656786408 1192:0.187134 2081:0.187134 3007:0.187134 3020:0.187134 3024:0.187134 #
-7.2370381908011145455361656786408 1604:0.25930899 1908:0.25930899 3006:0.25930899 3013:0.25930899 3015:0.25930899 3016:0.25930899 3020:0.25930899 3025:0.25930899 #
7.2370381908011145455361656786408 1709:0.135966 2608:0.135966 2987:0.135966 3006:0.135966 3008:0.135966 3010:0.135966 3011:0.135966 3012:0.135966 3014:0.135966 3017:0.135966 3018:0.135966 3019:0.135966 3020:0.135966 3022:0.135966 3024:0.135966 #
7.2370381908011145455361656786408 320:0.25950101 2827:0.25950101 3000:0.25950101 3006:0.25950101 3009:0.25950101 3010:0.25950101 3012:0.25950101 3014:0.25950101 3017:0.25950101 3018:0.25950101 3019:0.25950101 3020:0.25950101 3021:0.25950101 3022:0.25950101 3023:0.25950101 3024:0.25950101 #
7.2370381908011145455361656786408 1682:0.111994 1917:0.111994 2992:0.111994 #
7.2370381908011145455361656786408 196:0.098966002 2847:0.098966002 3003:0.098966002 3006:0.098966002 3008:0.098966002 3010:0.098966002 3014:0.098966002 3019:0.098966002 3020:0.098966002 3022:0.098966002 3024:0.098966002 #
-7.2370381908011145455361656786408 1736:0.107911 1908:0.107911 3006:0.107911 3013:0.107911 3015:0.107911 3016:0.107911 3020:0.107911 3025:0.107911 #
5.5968980842140023668207504670136 761:0.44265899 1908:0.44265899 3006:0.44265899 3013:0.44265899 3015:0.44265899 3016:0.44265899 3020:0.44265899 3025:0.44265899 #
5.7559523871067357347897086583544 353:0.438281 1908:0.438281 3006:0.438281 3013:0.438281 3015:0.438281 3016:0.438281 3020:0.438281 3025:0.438281 #
-7.2370381908011145455361656786408 1675:0.207259 2608:0.207259 2993:0.207259 3006:0.207259 3008:0.207259 3010:0.207259 3011:0.207259 3012:0.207259 3014:0.207259 3017:0.207259 3018:0.207259 3019:0.207259 3020:0.207259 3022:0.207259 3024:0.207259 #
-7.2370381908011145455361656786408 1536:0.43452001 2209:0.43452001 3016:0.43452001 #
-7.2370381908011145455361656786408 872:0.063555002 2057:0.063555002 3004:0.063555002 3011:0.063555002 3013:0.063555002 3015:0.063555002 3016:0.063555002 3018:0.063555002 3021:0.063555002 3025:0.063555002 #
2.4076748555559785991420085338177 1763:0.54637802 2175:0.54637802 2991:0.54637802 3008:0.54637802 3010:0.54637802 3012:0.54637802 3019:0.54637802 3022:0.54637802 #
7.2370381908011145455361656786408 524:0.1137 1888:0.1137 3002:0.1137 #
0.95365753902233230121510132448748 1729:0.42557099 1908:0.42557099 2994:0.42557099 3006:0.42557099 3013:0.42557099 3015:0.42557099 3016:0.42557099 3020:0.42557099 3025:0.42557099 #
-7.2370381908011145455361656786408 679:0.237672 1908:0.237672 3006:0.237672 3013:0.237672 3015:0.237672 3016:0.237672 3020:0.237672 3025:0.237672 #
-7.2370381908011145455361656786408 1452:0.237057 1908:0.237057 3006:0.237057 3013:0.237057 3015:0.237057 3016:0.237057 3020:0.237057 3025:0.237057 #
-2.4076118146647336182297749473946 444:0.23108201 1908:0.23108201 3006:0.23108201 3013:0.23108201 3015:0.23108201 3016:0.23108201 3020:0.23108201 3025:0.23108201 #
-7.2370381908011145455361656786408 1646:0.043738 2057:0.043738 2990:0.043738 3011:0.043738 3013:0.043738 3015:0.043738 3016:0.043738 3018:0.043738 3021:0.043738 3025:0.043738 #
2.301641621983992802569218838471 1550:0.68826401 2891:0.68826401 3011:0.68826401 #
-7.2370381908011145455361656786408 1711:0.164849 2057:0.164849 3011:0.164849 3013:0.164849 3015:0.164849 3016:0.164849 3018:0.164849 3021:0.164849 3025:0.164849 #
7.2370381908011145455361656786408 1149:0.184976 2507:0.184976 2998:0.184976 3001:0.184976 3003:0.184976 3007:0.184976 3008:0.184976 3009:0.184976 3010:0.184976 3011:0.184976 3012:0.184976 3014:0.184976 3018:0.184976 3019:0.184976 3020:0.184976 3021:0.184976 3022:0.184976 3023:0.184976 3024:0.184976 3025:0.184976 #
-4.0590522219472831011444213800132 1610:0.18408699 2341:0.18408699 3021:0.18408699 #
7.2370381908011145455361656786408 543:0.114986 2711:0.114986 2992:0.114986 3008:0.114986 3010:0.114986 3015:0.114986 3017:0.114986 3018:0.114986 3022:0.114986 #
7.2370381908011145455361656786408 703:0.38466999 1908:0.38466999 3006:0.38466999 3013:0.38466999 3015:0.38466999 3016:0.38466999 3020:0.38466999 3025:0.38466999 #
7.2370381908011145455361656786408 1370:0.087609001 2847:0.087609001 2998:0.087609001 3006:0.087609001 3008:0.087609001 3010:0.087609001 3014:0.087609001 3019:0.087609001 3020:0.087609001 3022:0.087609001 3024:0.087609001 #
7.2370381908011145455361656786408 1410:0.070541002 2442:0.070541002 2986:0.070541002 #
7.2370381908011145455361656786408 1420:0.25226599 1908:0.25226599 3004:0.25226599 3006:0.25226599 3013:0.25226599 3015:0.25226599 3016:0.25226599 3020:0.25226599 3025:0.25226599 #
7.2370381908011145455361656786408 1432:0.180096 2608:0.180096 2998:0.180096 3006:0.180096 3008:0.180096 3010:0.180096 3011:0.180096 3012:0.180096 3014:0.180096 3017:0.180096 3018:0.180096 3019:0.180096 3020:0.180096 3022:0.180096 3024:0.180096 #
7.2370381908011145455361656786408 1850:0.114092 2608:0.114092 3003:0.114092 3006:0.114092 3008:0.114092 3010:0.114092 3011:0.114092 3012:0.114092 3014:0.114092 3017:0.114092 3018:0.114092 3019:0.114092 3020:0.114092 3022:0.114092 3024:0.114092 #
7.2370381908011145455361656786408 1193:0.142818 2677:0.142818 3011:0.142818 #
7.2370381908011145455361656786408 1410:0.045343999 2075:0.045343999 2986:0.045343999 #
7.2370381908011145455361656786408 1498:0.346867 1908:0.346867 3006:0.346867 3013:0.346867 3015:0.346867 3016:0.346867 3020:0.346867 3025:0.346867 #
7.2370381908011145455361656786408 449:0.30693001 1908:0.30693001 3006:0.30693001 3013:0.30693001 3015:0.30693001 3016:0.30693001 3020:0.30693001 3025:0.30693001 #
-0.20254767528656003605647129006684 1536:0.32790801 2209:0.32790801 3016:0.32790801 #
-7.2370381908011145455361656786408 398:0.116611 2057:0.116611 3011:0.116611 3013:0.116611 3015:0.116611 3016:0.116611 3018:0.116611 3021:0.116611 3025:0.116611 #
6.3319760467643249057800858281553 884:0.219882 2608:0.219882 2993:0.219882 3006:0.219882 3008:0.219882 3010:0.219882 3011:0.219882 3012:0.219882 3014:0.219882 3017:0.219882 3018:0.219882 3019:0.219882 3020:0.219882 3022:0.219882 3024:0.219882 #
7.2370381908011145455361656786408 1540:0.38897601 2750:0.38897601 2989:0.38897601 #
7.2370381908011145455361656786408 387:0.232816 1908:0.232816 3006:0.232816 3013:0.232816 3015:0.232816 3016:0.232816 3020:0.232816 3025:0.232816 #
7.2370381908011145455361656786408 1536:0.56937402 2209:0.56937402 3016:0.56937402 #
-7.2370381908011145455361656786408 1498:0.106535 1908:0.106535 3006:0.106535 3013:0.106535 3015:0.106535 3016:0.106535 3020:0.106535 3025:0.106535 #
-7.2370381908011145455361656786408 1208:0.22093 1908:0.22093 3006:0.22093 3013:0.22093 3015:0.22093 3016:0.22093 3020:0.22093 3025:0.22093 #
7.2370381908011145455361656786408 309:0.060910001 1889:0.060910001 #
-4.3169070227936474637431274459232 865:0.20127501 1908:0.20127501 3006:0.20127501 3013:0.20127501 3015:0.20127501 3016:0.20127501 3020:0.20127501 3025:0.20127501 #
-7.2370381908011145455361656786408 1376:0.198714 1908:0.198714 3006:0.198714 3013:0.198714 3015:0.198714 3016:0.198714 3020:0.198714 3025:0.198714 #
6.5966190521869396690135545213707 349:0.325688 2057:0.325688 3011:0.325688 3013:0.325688 3015:0.325688 3016:0.325688 3018:0.325688 3021:0.325688 3025:0.325688 #
-7.2370381908011145455361656786408 737:0.249753 2827:0.249753 3006:0.249753 3009:0.249753 3010:0.249753 3012:0.249753 3014:0.249753 3017:0.249753 3018:0.249753 3019:0.249753 3020:0.249753 3021:0.249753 3022:0.249753 3023:0.249753 3024:0.249753 #
-7.2370381908011145455361656786408 1420:0.073605999 2057:0.073605999 3004:0.073605999 3011:0.073605999 3013:0.073605999 3015:0.073605999 3016:0.073605999 3018:0.073605999 3021:0.073605999 3025:0.073605999 #
7.2370381908011145455361656786408 1682:0.157213 1908:0.157213 2992:0.157213 3006:0.157213 3013:0.157213 3015:0.157213 3016:0.157213 3020:0.157213 3025:0.157213 #
7.2370381908011145455361656786408 1221:0.189532 2444:0.189532 2993:0.189532 3019:0.189532 #
7.2370381908011145455361656786408 52:0.16577899 2711:0.16577899 2993:0.16577899 3008:0.16577899 3010:0.16577899 3015:0.16577899 3017:0.16577899 3018:0.16577899 3022:0.16577899 #
7.2370381908011145455361656786408 1319:0.068305001 2847:0.068305001 2985:0.068305001 3006:0.068305001 3008:0.068305001 3010:0.068305001 3014:0.068305001 3019:0.068305001 3020:0.068305001 3022:0.068305001 3024:0.068305001 #
-7.2370381908011145455361656786408 878:0.045384001 2390:0.045384001 2994:0.045384001 #
0.96341599026642876779646940121893 1348:0.45139301 2057:0.45139301 3011:0.45139301 3013:0.45139301 3015:0.45139301 3016:0.45139301 3018:0.45139301 3021:0.45139301 3025:0.45139301 #
-7.2370381908011145455361656786408 208:0.15179101 1908:0.15179101 3006:0.15179101 3013:0.15179101 3015:0.15179101 3016:0.15179101 3020:0.15179101 3025:0.15179101 #
-3.904432309395240441318719604169 1715:0.55501097 2209:0.55501097 3016:0.55501097 #
7.2370381908011145455361656786408 896:0.105139 2827:0.105139 3006:0.105139 3009:0.105139 3010:0.105139 3012:0.105139 3014:0.105139 3017:0.105139 3018:0.105139 3019:0.105139 3020:0.105139 3021:0.105139 3022:0.105139 3023:0.105139 3024:0.105139 #
-7.2370381908011145455361656786408 1010:0.088473998 1917:0.088473998 3000:0.088473998 #
6.3115560462503026428748853504658 1538:0.70488799 2209:0.70488799 3016:0.70488799 #
7.2370381908011145455361656786408 914:0.64376903 2209:0.64376903 3016:0.64376903 #
3.1429810078105488990729554643622 1714:0.166639 2118:0.166639 2994:0.166639 3010:0.166639 3013:0.166639 3015:0.166639 3018:0.166639 3021:0.166639 3025:0.166639 #
7.2370381908011145455361656786408 892:0.076830998 2826:0.076830998 #
7.2370381908011145455361656786408 1237:0.31371799 2057:0.31371799 3011:0.31371799 3013:0.31371799 3015:0.31371799 3016:0.31371799 3018:0.31371799 3021:0.31371799 3025:0.31371799 #
7.2370381908011145455361656786408 1821:0.077244997 2847:0.077244997 3006:0.077244997 3008:0.077244997 3010:0.077244997 3014:0.077244997 3019:0.077244997 3020:0.077244997 3022:0.077244997 3024:0.077244997 #
7.2370381908011145455361656786408 1485:0.176484 2471:0.176484 #
-7.2370381908011145455361656786408 1708:0.113288 1908:0.113288 3006:0.113288 3013:0.113288 3015:0.113288 3016:0.113288 3020:0.113288 3025:0.113288 #
-7.2370381908011145455361656786408 1721:0.11209 1908:0.11209 3006:0.11209 3013:0.11209 3015:0.11209 3016:0.11209 3020:0.11209 3025:0.11209 #
-7.2370381908011145455361656786408 1797:0.110577 1908:0.110577 3006:0.110577 3013:0.110577 3015:0.110577 3016:0.110577 3020:0.110577 3025:0.110577 #
7.2370381908011145455361656786408 584:0.230414 2057:0.230414 2992:0.230414 3011:0.230414 3013:0.230414 3015:0.230414 3016:0.230414 3018:0.230414 3021:0.230414 3025:0.230414 #
7.2370381908011145455361656786408 681:0.30467001 2057:0.30467001 3011:0.30467001 3013:0.30467001 3015:0.30467001 3016:0.30467001 3018:0.30467001 3021:0.30467001 3025:0.30467001 #
7.2370381908011145455361656786408 1251:0.269687 2057:0.269687 3011:0.269687 3013:0.269687 3015:0.269687 3016:0.269687 3018:0.269687 3021:0.269687 3025:0.269687 #
7.2370381908011145455361656786408 729:0.079888001 2847:0.079888001 3006:0.079888001 3008:0.079888001 3010:0.079888001 3014:0.079888001 3019:0.079888001 3020:0.079888001 3022:0.079888001 3024:0.079888001 #
7.2370381908011145455361656786408 26:0.055629 2189:0.055629 3000:0.055629 3007:0.055629 3008:0.055629 3010:0.055629 3012:0.055629 3017:0.055629 3023:0.055629 3024:0.055629 #
6.1520423879910115516622681752779 1404:0.091243997 2189:0.091243997 2989:0.091243997 3007:0.091243997 3008:0.091243997 3010:0.091243997 3012:0.091243997 3017:0.091243997 3023:0.091243997 3024:0.091243997 #
7.2370381908011145455361656786408 383:0.076995 2490:0.076995 2989:0.076995 #
-0.42893217595081045701022048888262 330:0.36694899 2209:0.36694899 3016:0.36694899 #
7.2370381908011145455361656786408 1786:0.075963996 2847:0.075963996 3006:0.075963996 3008:0.075963996 3010:0.075963996 3014:0.075963996 3019:0.075963996 3020:0.075963996 3022:0.075963996 3024:0.075963996 #
-7.2370381908011145455361656786408 581:0.103665 2118:0.103665 2993:0.103665 2994:0.103665 3010:0.103665 3013:0.103665 3015:0.103665 3018:0.103665 3021:0.103665 3025:0.103665 #
-7.2370381908011145455361656786408 175:0.110251 2118:0.110251 3010:0.110251 3013:0.110251 3015:0.110251 3018:0.110251 3021:0.110251 3025:0.110251 #
-7.2370381908011145455361656786408 1158:0.071396001 2118:0.071396001 2991:0.071396001 3010:0.071396001 3013:0.071396001 3015:0.071396001 3018:0.071396001 3021:0.071396001 3025:0.071396001 #
