SVM-light Version V6.02
0 # kernel type
3 # kernel parameter -d 
1 # kernel parameter -g 
1 # kernel parameter -s 
1 # kernel parameter -r 
empty# kernel parameter -u 
5548 # highest feature index 
13320 # number of training documents 
3223 # number of support vectors plus 1 
1.0096296 # threshold b, each following line is a SV (starting with alpha*y)
-0.42159121470069926829182804794982 1348:0.184356 2197:0.184356 5512:0.184356 5518:0.184356 5524:0.184356 #
-7.0635712007220607944191215210594 482:0.01199 2350:0.01199 5517:0.01199 5530:0.01199 5531:0.01199 5532:0.01199 5533:0.01199 5534:0.01199 5535:0.01199 5536:0.01199 5537:0.01199 5538:0.01199 5539:0.01199 5540:0.01199 5541:0.01199 5542:0.01199 5544:0.01199 5545:0.01199 5546:0.01199 5547:0.01199 5548:0.01199 #
-7.0635712007220607944191215210594 399:1.278632 2350:1.278632 5530:1.278632 5531:1.278632 5532:1.278632 5533:1.278632 5534:1.278632 5535:1.278632 5536:1.278632 5537:1.278632 5538:1.278632 5539:1.278632 5540:1.278632 5541:1.278632 5542:1.278632 5544:1.278632 5545:1.278632 5546:1.278632 5547:1.278632 5548:1.278632 #
7.0635712007220607944191215210594 1220:0.42232299 5314:0.42232299 5515:0.42232299 #
-3.1215136535700671593929200753337 1602:0.94760901 2048:0.94760901 5517:0.94760901 #
-7.0635712007220607944191215210594 234:0.200737 2366:0.200737 5511:0.200737 5531:0.200737 5532:0.200737 5540:0.200737 5542:0.200737 5548:0.200737 #
-7.0635712007220607944191215210594 1274:0.99184102 2350:0.99184102 5517:0.99184102 5530:0.99184102 5531:0.99184102 5532:0.99184102 5533:0.99184102 5534:0.99184102 5535:0.99184102 5536:0.99184102 5537:0.99184102 5538:0.99184102 5539:0.99184102 5540:0.99184102 5541:0.99184102 5542:0.99184102 5544:0.99184102 5545:0.99184102 5546:0.99184102 5547:0.99184102 5548:0.99184102 #
4.1337318506708209397970676945988 1526:0.78557497 4103:0.78557497 5533:0.78557497 5546:0.78557497 5547:0.78557497 #
-7.0635712007220607944191215210594 1566:1.222573 2350:1.222573 5509:1.222573 5530:1.222573 5531:1.222573 5532:1.222573 5533:1.222573 5534:1.222573 5535:1.222573 5536:1.222573 5537:1.222573 5538:1.222573 5539:1.222573 5540:1.222573 5541:1.222573 5542:1.222573 5544:1.222573 5545:1.222573 5546:1.222573 5547:1.222573 5548:1.222573 #
7.0635712007220607944191215210594 399:0.856107 3150:0.856107 5533:0.856107 5538:0.856107 5540:0.856107 5543:0.856107 #
-1.0062490335764224802517219359288 400:0.32329699 4649:0.32329699 5516:0.32329699 5534:0.32329699 #
-7.0635712007220607944191215210594 431:1.121956 2350:1.121956 5519:1.121956 5530:1.121956 5531:1.121956 5532:1.121956 5533:1.121956 5534:1.121956 5535:1.121956 5536:1.121956 5537:1.121956 5538:1.121956 5539:1.121956 5540:1.121956 5541:1.121956 5542:1.121956 5544:1.121956 5545:1.121956 5546:1.121956 5547:1.121956 5548:1.121956 #
7.0635712007220607944191215210594 1348:0.188061 2350:0.188061 5512:0.188061 5518:0.188061 5524:0.188061 5530:0.188061 5531:0.188061 5532:0.188061 5533:0.188061 5534:0.188061 5535:0.188061 5536:0.188061 5537:0.188061 5538:0.188061 5539:0.188061 5540:0.188061 5541:0.188061 5542:0.188061 5544:0.188061 5545:0.188061 5546:0.188061 5547:0.188061 5548:0.188061 #
-7.0635712007220607944191215210594 303:1.083871 2350:1.083871 5521:1.083871 5530:1.083871 5531:1.083871 5532:1.083871 5533:1.083871 5534:1.083871 5535:1.083871 5536:1.083871 5537:1.083871 5538:1.083871 5539:1.083871 5540:1.083871 5541:1.083871 5542:1.083871 5544:1.083871 5545:1.083871 5546:1.083871 5547:1.083871 5548:1.083871 #
7.0635712007220607944191215210594 34:0.55852598 2048:0.55852598 5515:0.55852598 5525:0.55852598 #
7.0635712007220607944191215210594 164:0.39939201 4103:0.39939201 5515:0.39939201 5533:0.39939201 5546:0.39939201 5547:0.39939201 #
7.0635712007220607944191215210594 1492:0.459445 2479:0.459445 5509:0.459445 5530:0.459445 #
7.0635712007220607944191215210594 1220:0.354752 4487:0.354752 5515:0.354752 5536:0.354752 5544:0.354752 #
7.0635712007220607944191215210594 1348:0.25114101 4103:0.25114101 5512:0.25114101 5518:0.25114101 5524:0.25114101 5533:0.25114101 5546:0.25114101 5547:0.25114101 #
7.0635712007220607944191215210594 920:0.0045500002 2350:0.0045500002 5513:0.0045500002 5530:0.0045500002 5531:0.0045500002 5532:0.0045500002 5533:0.0045500002 5534:0.0045500002 5535:0.0045500002 5536:0.0045500002 5537:0.0045500002 5538:0.0045500002 5539:0.0045500002 5540:0.0045500002 5541:0.0045500002 5542:0.0045500002 5544:0.0045500002 5545:0.0045500002 5546:0.0045500002 5547:0.0045500002 5548:0.0045500002 #
-2.0501904987026819959794465830782 250:0.22201499 3348:0.22201499 #
-7.0635712007220607944191215210594 34:1.229146 2350:1.229146 5515:1.229146 5525:1.229146 5530:1.229146 5531:1.229146 5532:1.229146 5533:1.229146 5534:1.229146 5535:1.229146 5536:1.229146 5537:1.229146 5538:1.229146 5539:1.229146 5540:1.229146 5541:1.229146 5542:1.229146 5544:1.229146 5545:1.229146 5546:1.229146 5547:1.229146 5548:1.229146 #
-7.0635712007220607944191215210594 1029:1.07961 2350:1.07961 5512:1.07961 5530:1.07961 5531:1.07961 5532:1.07961 5533:1.07961 5534:1.07961 5535:1.07961 5536:1.07961 5537:1.07961 5538:1.07961 5539:1.07961 5540:1.07961 5541:1.07961 5542:1.07961 5544:1.07961 5545:1.07961 5546:1.07961 5547:1.07961 5548:1.07961 #
7.0635712007220607944191215210594 388:0.85943401 3828:0.85943401 5520:0.85943401 5529:0.85943401 5530:0.85943401 5533:0.85943401 5537:0.85943401 5538:0.85943401 5539:0.85943401 5540:0.85943401 5544:0.85943401 5546:0.85943401 #
-7.0635712007220607944191215210594 1258:0.155558 3138:0.155558 #
-6.573537513525100628442032757448 1348:1.156866 4499:1.156866 5512:1.156866 5518:1.156866 5524:1.156866 5530:1.156866 5546:1.156866 #
-0.46660376949549237091119380238524 183:0.48457399 4299:0.48457399 #
7.0635712007220607944191215210594 303:0.18285701 2350:0.18285701 5521:0.18285701 5530:0.18285701 5531:0.18285701 5532:0.18285701 5533:0.18285701 5534:0.18285701 5535:0.18285701 5536:0.18285701 5537:0.18285701 5538:0.18285701 5539:0.18285701 5540:0.18285701 5541:0.18285701 5542:0.18285701 5544:0.18285701 5545:0.18285701 5546:0.18285701 5547:0.18285701 5548:0.18285701 #
-7.0635712007220607944191215210594 1343:0.011174 2844:0.011174 5525:0.011174 5530:0.011174 5531:0.011174 5534:0.011174 5536:0.011174 5538:0.011174 5539:0.011174 5545:0.011174 5548:0.011174 #
7.0635712007220607944191215210594 1457:0.198687 4784:0.198687 5510:0.198687 5543:0.198687 5547:0.198687 #
-7.0635712007220607944191215210594 1546:0.593629 3852:0.593629 5531:0.593629 5540:0.593629 #
-7.0635712007220607944191215210594 552:0.56629199 3852:0.56629199 5514:0.56629199 5531:0.56629199 5540:0.56629199 #
7.0635712007220607944191215210594 1348:0.186277 4031:0.186277 5512:0.186277 5518:0.186277 5524:0.186277 5542:0.186277 5545:0.186277 #
7.0635712007220607944191215210594 303:0.203602 4499:0.203602 5521:0.203602 5530:0.203602 5546:0.203602 #
7.0635712007220607944191215210594 812:0.151071 2350:0.151071 5530:0.151071 5531:0.151071 5532:0.151071 5533:0.151071 5534:0.151071 5535:0.151071 5536:0.151071 5537:0.151071 5538:0.151071 5539:0.151071 5540:0.151071 5541:0.151071 5542:0.151071 5544:0.151071 5545:0.151071 5546:0.151071 5547:0.151071 5548:0.151071 #
7.0635712007220607944191215210594 1122:0.0048469999 3849:0.0048469999 5526:0.0048469999 5530:0.0048469999 5535:0.0048469999 5540:0.0048469999 5547:0.0048469999 #
-7.0635712007220607944191215210594 1071:0.33395201 3020:0.33395201 5517:0.33395201 5539:0.33395201 #
7.0635712007220607944191215210594 1348:0.54788703 3443:0.54788703 5512:0.54788703 5518:0.54788703 5524:0.54788703 5537:0.54788703 #
-5.6208341183873091750911044073291 1100:0.60601997 3020:0.60601997 5539:0.60601997 #
2.3574363453574034288351413124474 1602:0.206385 2350:0.206385 5517:0.206385 5530:0.206385 5531:0.206385 5532:0.206385 5533:0.206385 5534:0.206385 5535:0.206385 5536:0.206385 5537:0.206385 5538:0.206385 5539:0.206385 5540:0.206385 5541:0.206385 5542:0.206385 5544:0.206385 5545:0.206385 5546:0.206385 5547:0.206385 5548:0.206385 #
7.0635712007220607944191215210594 538:0.054079998 2350:0.054079998 5523:0.054079998 5530:0.054079998 5531:0.054079998 5532:0.054079998 5533:0.054079998 5534:0.054079998 5535:0.054079998 5536:0.054079998 5537:0.054079998 5538:0.054079998 5539:0.054079998 5540:0.054079998 5541:0.054079998 5542:0.054079998 5544:0.054079998 5545:0.054079998 5546:0.054079998 5547:0.054079998 5548:0.054079998 #
7.0635712007220607944191215210594 1343:0.069677003 3828:0.069677003 5525:0.069677003 5529:0.069677003 5530:0.069677003 5533:0.069677003 5537:0.069677003 5538:0.069677003 5539:0.069677003 5540:0.069677003 5544:0.069677003 5546:0.069677003 #
7.0635712007220607944191215210594 1348:0.435458 3010:0.435458 5512:0.435458 5518:0.435458 5524:0.435458 5534:0.435458 5541:0.435458 5545:0.435458 #
7.0635712007220607944191215210594 1348:0.38022 3828:0.38022 5512:0.38022 5518:0.38022 5524:0.38022 5529:0.38022 5530:0.38022 5533:0.38022 5537:0.38022 5538:0.38022 5539:0.38022 5540:0.38022 5544:0.38022 5546:0.38022 #
7.0635712007220607944191215210594 1480:0.44931701 4457:0.44931701 5535:0.44931701 5536:0.44931701 5540:0.44931701 5541:0.44931701 5547:0.44931701 #
7.0635712007220607944191215210594 528:0.014566 3849:0.014566 5526:0.014566 5530:0.014566 5535:0.014566 5540:0.014566 5547:0.014566 #
1.4036241830288096466006209084298 1242:0.65099698 2514:0.65099698 5514:0.65099698 5535:0.65099698 #
-6.4438894624525202559084391396027 919:0.028831 2087:0.028831 #
7.0635712007220607944191215210594 1258:0.449121 4457:0.449121 5535:0.449121 5536:0.449121 5540:0.449121 5541:0.449121 5547:0.449121 #
-7.0635712007220607944191215210594 388:0.136087 3353:0.136087 5520:0.136087 5536:0.136087 5540:0.136087 5544:0.136087 5546:0.136087 #
7.0635712007220607944191215210594 1162:0.57919902 3404:0.57919902 5525:0.57919902 #
7.0635712007220607944191215210594 1340:0.571459 1823:0.571459 5510:0.571459 5544:0.571459 #
-0.6710172548425670235872075863881 1162:0.51459903 5494:0.51459903 5525:0.51459903 #
7.0635712007220607944191215210594 1183:0.70623702 4499:0.70623702 5510:0.70623702 5530:0.70623702 5546:0.70623702 #
7.0635712007220607944191215210594 34:0.62555701 3828:0.62555701 5515:0.62555701 5525:0.62555701 5529:0.62555701 5530:0.62555701 5533:0.62555701 5537:0.62555701 5538:0.62555701 5539:0.62555701 5540:0.62555701 5544:0.62555701 5546:0.62555701 #
-7.0635712007220607944191215210594 1348:0.59490597 3020:0.59490597 5512:0.59490597 5518:0.59490597 5524:0.59490597 5539:0.59490597 #
7.0635712007220607944191215210594 1071:0.347083 3828:0.347083 5517:0.347083 5529:0.347083 5530:0.347083 5533:0.347083 5537:0.347083 5538:0.347083 5539:0.347083 5540:0.347083 5544:0.347083 5546:0.347083 #
7.0635712007220607944191215210594 552:0.33968499 5314:0.33968499 5514:0.33968499 #
-5.7794006525963794729250366799533 1071:0.66132897 1823:0.66132897 5517:0.66132897 5544:0.66132897 #
-7.0635712007220607944191215210594 1566:0.18454701 2350:0.18454701 5509:0.18454701 5530:0.18454701 5531:0.18454701 5532:0.18454701 5533:0.18454701 5534:0.18454701 5535:0.18454701 5536:0.18454701 5537:0.18454701 5538:0.18454701 5539:0.18454701 5540:0.18454701 5541:0.18454701 5542:0.18454701 5544:0.18454701 5545:0.18454701 5546:0.18454701 5547:0.18454701 5548:0.18454701 #
-7.0635712007220607944191215210594 1183:0.37761399 2350:0.37761399 5510:0.37761399 5530:0.37761399 5531:0.37761399 5532:0.37761399 5533:0.37761399 5534:0.37761399 5535:0.37761399 5536:0.37761399 5537:0.37761399 5538:0.37761399 5539:0.37761399 5540:0.37761399 5541:0.37761399 5542:0.37761399 5544:0.37761399 5545:0.37761399 5546:0.37761399 5547:0.37761399 5548:0.37761399 #
-7.0635712007220607944191215210594 694:0.0091730002 2844:0.0091730002 5530:0.0091730002 5531:0.0091730002 5534:0.0091730002 5536:0.0091730002 5538:0.0091730002 5539:0.0091730002 5545:0.0091730002 5548:0.0091730002 #
-7.0635712007220607944191215210594 1340:0.46765301 3010:0.46765301 5510:0.46765301 5534:0.46765301 5541:0.46765301 5545:0.46765301 #
7.0635712007220607944191215210594 1029:0.168414 3404:0.168414 5512:0.168414 #
-7.0635712007220607944191215210594 1556:0.149351 2350:0.149351 5530:0.149351 5531:0.149351 5532:0.149351 5533:0.149351 5534:0.149351 5535:0.149351 5536:0.149351 5537:0.149351 5538:0.149351 5539:0.149351 5540:0.149351 5541:0.149351 5542:0.149351 5544:0.149351 5545:0.149351 5546:0.149351 5547:0.149351 5548:0.149351 #
7.0635712007220607944191215210594 872:0.69905603 1823:0.69905603 5516:0.69905603 5544:0.69905603 #
4.8631032310996520351409344584681 1131:0.63629299 4702:0.63629299 5519:0.63629299 5520:0.63629299 #
7.0635712007220607944191215210594 431:0.252029 1819:0.252029 5519:0.252029 #
7.0635712007220607944191215210594 5:0.17453501 2350:0.17453501 5530:0.17453501 5531:0.17453501 5532:0.17453501 5533:0.17453501 5534:0.17453501 5535:0.17453501 5536:0.17453501 5537:0.17453501 5538:0.17453501 5539:0.17453501 5540:0.17453501 5541:0.17453501 5542:0.17453501 5544:0.17453501 5545:0.17453501 5546:0.17453501 5547:0.17453501 5548:0.17453501 #
7.0635712007220607944191215210594 1077:0.107626 2350:0.107626 5521:0.107626 5530:0.107626 5531:0.107626 5532:0.107626 5533:0.107626 5534:0.107626 5535:0.107626 5536:0.107626 5537:0.107626 5538:0.107626 5539:0.107626 5540:0.107626 5541:0.107626 5542:0.107626 5544:0.107626 5545:0.107626 5546:0.107626 5547:0.107626 5548:0.107626 #
7.0635712007220607944191215210594 1258:0.50769699 3131:0.50769699 #
-7.0635712007220607944191215210594 196:0.004766 4643:0.004766 5533:0.004766 5548:0.004766 #
7.0635712007220607944191215210594 164:0.169174 2350:0.169174 5515:0.169174 5530:0.169174 5531:0.169174 5532:0.169174 5533:0.169174 5534:0.169174 5535:0.169174 5536:0.169174 5537:0.169174 5538:0.169174 5539:0.169174 5540:0.169174 5541:0.169174 5542:0.169174 5544:0.169174 5545:0.169174 5546:0.169174 5547:0.169174 5548:0.169174 #
7.0635712007220607944191215210594 34:0.23425101 2303:0.23425101 5515:0.23425101 5525:0.23425101 5543:0.23425101 #
-7.0635712007220607944191215210594 361:0.32302001 3010:0.32302001 5534:0.32302001 5541:0.32302001 5545:0.32302001 #
2.6784507760795301933853806986008 91:0.50253397 3010:0.50253397 5513:0.50253397 5519:0.50253397 5534:0.50253397 5541:0.50253397 5545:0.50253397 #
-7.0635712007220607944191215210594 431:0.37657601 2844:0.37657601 5519:0.37657601 5530:0.37657601 5531:0.37657601 5534:0.37657601 5536:0.37657601 5538:0.37657601 5539:0.37657601 5545:0.37657601 5548:0.37657601 #
-0.40704086571735509370029149067705 980:0.53030699 3463:0.53030699 #
-7.0635712007220607944191215210594 1258:0.27933201 2037:0.27933201 5533:0.27933201 5536:0.27933201 5541:0.27933201 #
-1.9100521598851041282784990471555 465:0.79282302 3817:0.79282302 #
7.0635712007220607944191215210594 78:0.107811 2350:0.107811 5530:0.107811 5531:0.107811 5532:0.107811 5533:0.107811 5534:0.107811 5535:0.107811 5536:0.107811 5537:0.107811 5538:0.107811 5539:0.107811 5540:0.107811 5541:0.107811 5542:0.107811 5544:0.107811 5545:0.107811 5546:0.107811 5547:0.107811 5548:0.107811 #
7.0635712007220607944191215210594 1774:0.0020419999 3852:0.0020419999 5531:0.0020419999 5540:0.0020419999 #
7.0635712007220607944191215210594 421:0.035787001 2366:0.035787001 5521:0.035787001 5531:0.035787001 5532:0.035787001 5540:0.035787001 5542:0.035787001 5548:0.035787001 #
-7.0635712007220607944191215210594 604:0.26254299 2350:0.26254299 5525:0.26254299 5530:0.26254299 5531:0.26254299 5532:0.26254299 5533:0.26254299 5534:0.26254299 5535:0.26254299 5536:0.26254299 5537:0.26254299 5538:0.26254299 5539:0.26254299 5540:0.26254299 5541:0.26254299 5542:0.26254299 5544:0.26254299 5545:0.26254299 5546:0.26254299 5547:0.26254299 5548:0.26254299 #
-7.0635712007220607944191215210594 388:0.221692 2283:0.221692 5520:0.221692 5545:0.221692 #
7.0635712007220607944191215210594 929:0.046707999 3921:0.046707999 5526:0.046707999 #
7.0635712007220607944191215210594 1274:0.144223 3952:0.144223 5517:0.144223 #
7.0635712007220607944191215210594 800:0.116419 5314:0.116419 5512:0.116419 5527:0.116419 #
7.0635712007220607944191215210594 1602:0.13797601 2037:0.13797601 5517:0.13797601 5533:0.13797601 5536:0.13797601 5541:0.13797601 #
-7.0635712007220607944191215210594 1131:0.42747101 5314:0.42747101 5519:0.42747101 5520:0.42747101 #
-0.86380639907645306863059886381961 1242:0.41404799 3828:0.41404799 5514:0.41404799 5529:0.41404799 5530:0.41404799 5533:0.41404799 5537:0.41404799 5538:0.41404799 5539:0.41404799 5540:0.41404799 5544:0.41404799 5546:0.41404799 #
-1.3803827499296608127821173184202 211:1.3367161 3828:1.3367161 5523:1.3367161 5529:1.3367161 5530:1.3367161 5533:1.3367161 5537:1.3367161 5538:1.3367161 5539:1.3367161 5540:1.3367161 5544:1.3367161 5546:1.3367161 #
-3.8127794195969144652735849376768 538:0.93847799 3828:0.93847799 5523:0.93847799 5529:0.93847799 5530:0.93847799 5533:0.93847799 5537:0.93847799 5538:0.93847799 5539:0.93847799 5540:0.93847799 5544:0.93847799 5546:0.93847799 #
-7.0635712007220607944191215210594 1318:0.293192 3443:0.293192 5537:0.293192 #
7.0635712007220607944191215210594 431:0.038435999 3150:0.038435999 5519:0.038435999 5533:0.038435999 5538:0.038435999 5540:0.038435999 5543:0.038435999 #
-7.0635712007220607944191215210594 1306:0.011611 4457:0.011611 5511:0.011611 5523:0.011611 5535:0.011611 5536:0.011611 5540:0.011611 5541:0.011611 5547:0.011611 #
-3.4579328798558339741475720074959 874:0.13274901 2841:0.13274901 5508:0.13274901 #
-0.24354403641680127945434719549667 1429:0.14119001 5324:0.14119001 5522:0.14119001 #
-7.0635712007220607944191215210594 166:0.113295 2350:0.113295 5530:0.113295 5531:0.113295 5532:0.113295 5533:0.113295 5534:0.113295 5535:0.113295 5536:0.113295 5537:0.113295 5538:0.113295 5539:0.113295 5540:0.113295 5541:0.113295 5542:0.113295 5544:0.113295 5545:0.113295 5546:0.113295 5547:0.113295 5548:0.113295 #
-6.1980276676312371364474529400468 1724:0.177322 3353:0.177322 5536:0.177322 5540:0.177322 5544:0.177322 5546:0.177322 #
-7.0635712007220607944191215210594 1035:0.0096279997 5123:0.0096279997 5535:0.0096279997 5541:0.0096279997 #
-0.54088879541340040280061884914176 952:1.258599 2844:1.258599 5530:1.258599 5531:1.258599 5534:1.258599 5536:1.258599 5538:1.258599 5539:1.258599 5545:1.258599 5548:1.258599 #
-4.484913199501225911092205933528 538:0.085661002 4331:0.085661002 5523:0.085661002 #
7.0635712007220607944191215210594 164:0.156152 2350:0.156152 5515:0.156152 5530:0.156152 5531:0.156152 5532:0.156152 5533:0.156152 5534:0.156152 5535:0.156152 5536:0.156152 5537:0.156152 5538:0.156152 5539:0.156152 5540:0.156152 5541:0.156152 5542:0.156152 5544:0.156152 5545:0.156152 5546:0.156152 5547:0.156152 5548:0.156152 #
-7.0635712007220607944191215210594 482:0.012126 2350:0.012126 5517:0.012126 5530:0.012126 5531:0.012126 5532:0.012126 5533:0.012126 5534:0.012126 5535:0.012126 5536:0.012126 5537:0.012126 5538:0.012126 5539:0.012126 5540:0.012126 5541:0.012126 5542:0.012126 5544:0.012126 5545:0.012126 5546:0.012126 5547:0.012126 5548:0.012126 #
7.0635712007220607944191215210594 537:0.086568996 3150:0.086568996 5533:0.086568996 5538:0.086568996 5540:0.086568996 5543:0.086568996 #
-7.0635712007220607944191215210594 659:0.56237203 3849:0.56237203 5530:0.56237203 5535:0.56237203 5540:0.56237203 5547:0.56237203 #
-7.0635712007220607944191215210594 1067:0.29122001 2366:0.29122001 5511:0.29122001 5531:0.29122001 5532:0.29122001 5540:0.29122001 5542:0.29122001 5548:0.29122001 #
7.0635712007220607944191215210594 1348:0.50130802 2283:0.50130802 5512:0.50130802 5518:0.50130802 5524:0.50130802 5545:0.50130802 #
-7.0635712007220607944191215210594 388:0.57043302 3404:0.57043302 5520:0.57043302 #
-5.8518323942163448236897238530219 956:0.014634 4457:0.014634 5535:0.014634 5536:0.014634 5540:0.014634 5541:0.014634 5547:0.014634 #
-1.7914215070113366223836237622891 1001:0.64540398 4499:0.64540398 5530:0.64540398 5546:0.64540398 #
-4.6858893226463056436159604345448 1048:0.11477 3443:0.11477 5537:0.11477 #
-7.0635712007220607944191215210594 872:0.047031 3392:0.047031 5516:0.047031 #
-7.0635712007220607944191215210594 1071:0.033521 2844:0.033521 5517:0.033521 5530:0.033521 5531:0.033521 5534:0.033521 5536:0.033521 5538:0.033521 5539:0.033521 5545:0.033521 5548:0.033521 #
-7.0635712007220607944191215210594 1088:0.26724401 3010:0.26724401 5534:0.26724401 5541:0.26724401 5545:0.26724401 #
-7.0635712007220607944191215210594 388:0.22838201 2844:0.22838201 5520:0.22838201 5530:0.22838201 5531:0.22838201 5534:0.22838201 5536:0.22838201 5538:0.22838201 5539:0.22838201 5545:0.22838201 5548:0.22838201 #
-7.0635712007220607944191215210594 1242:0.044417001 4643:0.044417001 5514:0.044417001 5533:0.044417001 5548:0.044417001 #
7.0635712007220607944191215210594 1012:0.0037070001 2738:0.0037070001 5511:0.0037070001 #
-1.1438578830774759342858715172042 610:0.44139799 5483:0.44139799 5525:0.44139799 5537:0.44139799 #
7.0635712007220607944191215210594 1602:0.33446801 2996:0.33446801 5517:0.33446801 #
-0.58779796786777616102170895828749 451:0.43309501 2283:0.43309501 5545:0.43309501 #
7.0635712007220607944191215210594 453:0.172639 2350:0.172639 5530:0.172639 5531:0.172639 5532:0.172639 5533:0.172639 5534:0.172639 5535:0.172639 5536:0.172639 5537:0.172639 5538:0.172639 5539:0.172639 5540:0.172639 5541:0.172639 5542:0.172639 5544:0.172639 5545:0.172639 5546:0.172639 5547:0.172639 5548:0.172639 #
-5.5826796880153644053734751651064 919:0.063285001 2965:0.063285001 #
7.0635712007220607944191215210594 1602:0.28725401 3817:0.28725401 5517:0.28725401 #
-7.0635712007220607944191215210594 600:0.23367301 3010:0.23367301 5534:0.23367301 5541:0.23367301 5545:0.23367301 #
7.0635712007220607944191215210594 34:0.12068 4499:0.12068 5515:0.12068 5525:0.12068 5530:0.12068 5546:0.12068 #
7.0635712007220607944191215210594 1228:0.21200299 4784:0.21200299 5543:0.21200299 5547:0.21200299 #
-1.5109157149778753570501521608094 164:0.2762 4305:0.2762 5515:0.2762 #
-7.0635712007220607944191215210594 333:0.13665199 3131:0.13665199 5520:0.13665199 #
7.0635712007220607944191215210594 970:0.132883 3150:0.132883 5518:0.132883 5519:0.132883 5520:0.132883 5533:0.132883 5538:0.132883 5540:0.132883 5543:0.132883 #
-7.0635712007220607944191215210594 164:0.47916499 2037:0.47916499 5515:0.47916499 5533:0.47916499 5536:0.47916499 5541:0.47916499 #
7.0635712007220607944191215210594 1071:0.37657899 4441:0.37657899 5517:0.37657899 #
-6.5543636761703476523166500555817 1242:0.046741001 5488:0.046741001 5514:0.046741001 #
7.0635712007220607944191215210594 548:0.020075001 3828:0.020075001 5512:0.020075001 5513:0.020075001 5525:0.020075001 5529:0.020075001 5530:0.020075001 5533:0.020075001 5537:0.020075001 5538:0.020075001 5539:0.020075001 5540:0.020075001 5544:0.020075001 5546:0.020075001 #
7.0635712007220607944191215210594 466:0.071098 2350:0.071098 5530:0.071098 5531:0.071098 5532:0.071098 5533:0.071098 5534:0.071098 5535:0.071098 5536:0.071098 5537:0.071098 5538:0.071098 5539:0.071098 5540:0.071098 5541:0.071098 5542:0.071098 5544:0.071098 5545:0.071098 5546:0.071098 5547:0.071098 5548:0.071098 #
-0.58112237192306226418736514460761 428:0.050714001 3042:0.050714001 #
7.0635712007220607944191215210594 1306:0.190254 2350:0.190254 5511:0.190254 5523:0.190254 5530:0.190254 5531:0.190254 5532:0.190254 5533:0.190254 5534:0.190254 5535:0.190254 5536:0.190254 5537:0.190254 5538:0.190254 5539:0.190254 5540:0.190254 5541:0.190254 5542:0.190254 5544:0.190254 5545:0.190254 5546:0.190254 5547:0.190254 5548:0.190254 #
-7.0635712007220607944191215210594 1348:0.42267799 5314:0.42267799 5512:0.42267799 5518:0.42267799 5524:0.42267799 #
-6.7444726880951160197241733840201 1071:0.59836602 1823:0.59836602 5517:0.59836602 5544:0.59836602 #
-7.0635712007220607944191215210594 1242:0.19966801 3150:0.19966801 5514:0.19966801 5533:0.19966801 5538:0.19966801 5540:0.19966801 5543:0.19966801 #
7.0635712007220607944191215210594 298:0.77040398 2844:0.77040398 5515:0.77040398 5522:0.77040398 5530:0.77040398 5531:0.77040398 5534:0.77040398 5536:0.77040398 5538:0.77040398 5539:0.77040398 5545:0.77040398 5548:0.77040398 #
-1.8402847243898514673077215775265 848:0.67543697 4499:0.67543697 5530:0.67543697 5546:0.67543697 #
7.0635712007220607944191215210594 1020:0.081743002 2350:0.081743002 5530:0.081743002 5531:0.081743002 5532:0.081743002 5533:0.081743002 5534:0.081743002 5535:0.081743002 5536:0.081743002 5537:0.081743002 5538:0.081743002 5539:0.081743002 5540:0.081743002 5541:0.081743002 5542:0.081743002 5544:0.081743002 5545:0.081743002 5546:0.081743002 5547:0.081743002 5548:0.081743002 #
7.0635712007220607944191215210594 1584:0.158584 2350:0.158584 5530:0.158584 5531:0.158584 5532:0.158584 5533:0.158584 5534:0.158584 5535:0.158584 5536:0.158584 5537:0.158584 5538:0.158584 5539:0.158584 5540:0.158584 5541:0.158584 5542:0.158584 5544:0.158584 5545:0.158584 5546:0.158584 5547:0.158584 5548:0.158584 #
-1.1217745767896696307275306025986 239:0.76145202 2303:0.76145202 5543:0.76145202 #
7.0635712007220607944191215210594 1242:0.0093139997 2635:0.0093139997 5514:0.0093139997 #
-7.0635712007220607944191215210594 431:0.53416598 2350:0.53416598 5519:0.53416598 5530:0.53416598 5531:0.53416598 5532:0.53416598 5533:0.53416598 5534:0.53416598 5535:0.53416598 5536:0.53416598 5537:0.53416598 5538:0.53416598 5539:0.53416598 5540:0.53416598 5541:0.53416598 5542:0.53416598 5544:0.53416598 5545:0.53416598 5546:0.53416598 5547:0.53416598 5548:0.53416598 #
-7.0635712007220607944191215210594 91:0.64784598 2350:0.64784598 5513:0.64784598 5519:0.64784598 5530:0.64784598 5531:0.64784598 5532:0.64784598 5533:0.64784598 5534:0.64784598 5535:0.64784598 5536:0.64784598 5537:0.64784598 5538:0.64784598 5539:0.64784598 5540:0.64784598 5541:0.64784598 5542:0.64784598 5544:0.64784598 5545:0.64784598 5546:0.64784598 5547:0.64784598 5548:0.64784598 #
-7.0635712007220607944191215210594 1419:0.134176 2514:0.134176 5535:0.134176 #
7.0635712007220607944191215210594 803:0.182587 2350:0.182587 5530:0.182587 5531:0.182587 5532:0.182587 5533:0.182587 5534:0.182587 5535:0.182587 5536:0.182587 5537:0.182587 5538:0.182587 5539:0.182587 5540:0.182587 5541:0.182587 5542:0.182587 5544:0.182587 5545:0.182587 5546:0.182587 5547:0.182587 5548:0.182587 #
-0.76804264704837432731210355996154 1594:0.30266601 2528:0.30266601 5522:0.30266601 #
7.0635712007220607944191215210594 1340:0.65351099 3010:0.65351099 5510:0.65351099 5534:0.65351099 5541:0.65351099 5545:0.65351099 #
7.0635712007220607944191215210594 360:0.047561001 2863:0.047561001 #
7.0635712007220607944191215210594 610:0.35199201 3828:0.35199201 5525:0.35199201 5529:0.35199201 5530:0.35199201 5533:0.35199201 5537:0.35199201 5538:0.35199201 5539:0.35199201 5540:0.35199201 5544:0.35199201 5546:0.35199201 #
7.0635712007220607944191215210594 1372:0.56761903 3353:0.56761903 5536:0.56761903 5540:0.56761903 5544:0.56761903 5546:0.56761903 #
-6.0521255181078288387652719393373 211:0.052535001 1893:0.052535001 5523:0.052535001 #
7.0635712007220607944191215210594 846:0.114378 2350:0.114378 5530:0.114378 5531:0.114378 5532:0.114378 5533:0.114378 5534:0.114378 5535:0.114378 5536:0.114378 5537:0.114378 5538:0.114378 5539:0.114378 5540:0.114378 5541:0.114378 5542:0.114378 5544:0.114378 5545:0.114378 5546:0.114378 5547:0.114378 5548:0.114378 #
7.0635712007220607944191215210594 548:0.074671999 2357:0.074671999 5512:0.074671999 5513:0.074671999 5525:0.074671999 #
-7.0635712007220607944191215210594 363:0.0030680001 4784:0.0030680001 5543:0.0030680001 5547:0.0030680001 #
7.0635712007220607944191215210594 1242:0.065458 2309:0.065458 5514:0.065458 #
7.0635712007220607944191215210594 1340:0.35198599 4675:0.35198599 5510:0.35198599 #
-1.6813956344759151129153451620368 825:0.167789 4930:0.167789 5527:0.167789 #
7.0635712007220607944191215210594 919:0.058327999 2366:0.058327999 5531:0.058327999 5532:0.058327999 5540:0.058327999 5542:0.058327999 5548:0.058327999 #
-5.4836191926148964981280187203083 75:0.29228199 1819:0.29228199 #
-0.53140273044698327353785316518042 1162:0.65726399 4712:0.65726399 5525:0.65726399 #
-7.0635712007220607944191215210594 341:0.226978 4031:0.226978 5510:0.226978 5542:0.226978 5545:0.226978 #
-7.0635712007220607944191215210594 1372:0.83657902 4457:0.83657902 5535:0.83657902 5536:0.83657902 5540:0.83657902 5541:0.83657902 5547:0.83657902 #
-7.0635712007220607944191215210594 1077:0.724868 4457:0.724868 5521:0.724868 5535:0.724868 5536:0.724868 5540:0.724868 5541:0.724868 5547:0.724868 #
7.0635712007220607944191215210594 1348:0.00036100001 4031:0.00036100001 5512:0.00036100001 5518:0.00036100001 5524:0.00036100001 5542:0.00036100001 5545:0.00036100001 #
-6.5210190900393616431074406136759 1340:1.433677 1823:1.433677 5510:1.433677 5544:1.433677 #
7.0635712007220607944191215210594 800:0.48971301 2037:0.48971301 5512:0.48971301 5527:0.48971301 5533:0.48971301 5536:0.48971301 5541:0.48971301 #
7.0635712007220607944191215210594 1089:0.61041701 2037:0.61041701 5533:0.61041701 5536:0.61041701 5541:0.61041701 #
-7.0635712007220607944191215210594 702:0.074956 4457:0.074956 5519:0.074956 5535:0.074956 5536:0.074956 5540:0.074956 5541:0.074956 5547:0.074956 #
7.0635712007220607944191215210594 1041:0.094636001 2350:0.094636001 5530:0.094636001 5531:0.094636001 5532:0.094636001 5533:0.094636001 5534:0.094636001 5535:0.094636001 5536:0.094636001 5537:0.094636001 5538:0.094636001 5539:0.094636001 5540:0.094636001 5541:0.094636001 5542:0.094636001 5544:0.094636001 5545:0.094636001 5546:0.094636001 5547:0.094636001 5548:0.094636001 #
-3.676910903755984616481100601959 65:1.542136 3010:1.542136 5523:1.542136 5534:1.542136 5541:1.542136 5545:1.542136 #
-7.0635712007220607944191215210594 2:0.86757898 3010:0.86757898 5526:0.86757898 5534:0.86757898 5541:0.86757898 5545:0.86757898 #
-7.0635712007220607944191215210594 1220:0.54838699 2350:0.54838699 5515:0.54838699 5530:0.54838699 5531:0.54838699 5532:0.54838699 5533:0.54838699 5534:0.54838699 5535:0.54838699 5536:0.54838699 5537:0.54838699 5538:0.54838699 5539:0.54838699 5540:0.54838699 5541:0.54838699 5542:0.54838699 5544:0.54838699 5545:0.54838699 5546:0.54838699 5547:0.54838699 5548:0.54838699 #
-0.82986704704135660914943173338543 298:0.57884097 2221:0.57884097 5515:0.57884097 5522:0.57884097 #
7.0635712007220607944191215210594 919:0.054131001 3404:0.054131001 #
-7.0635712007220607944191215210594 73:0.0038040001 5123:0.0038040001 5535:0.0038040001 5541:0.0038040001 #
3.5459616448179258618722542450996 91:0.41464499 3852:0.41464499 5513:0.41464499 5519:0.41464499 5531:0.41464499 5540:0.41464499 #
-7.0635712007220607944191215210594 548:0.97781402 3010:0.97781402 5512:0.97781402 5513:0.97781402 5525:0.97781402 5534:0.97781402 5541:0.97781402 5545:0.97781402 #
7.0635712007220607944191215210594 164:0.45281801 4457:0.45281801 5515:0.45281801 5535:0.45281801 5536:0.45281801 5540:0.45281801 5541:0.45281801 5547:0.45281801 #
7.0635712007220607944191215210594 443:0.012699 2350:0.012699 5530:0.012699 5531:0.012699 5532:0.012699 5533:0.012699 5534:0.012699 5535:0.012699 5536:0.012699 5537:0.012699 5538:0.012699 5539:0.012699 5540:0.012699 5541:0.012699 5542:0.012699 5544:0.012699 5545:0.012699 5546:0.012699 5547:0.012699 5548:0.012699 #
-2.825566960582436060178679326782 1008:0.28445101 3828:0.28445101 5529:0.28445101 5530:0.28445101 5533:0.28445101 5537:0.28445101 5538:0.28445101 5539:0.28445101 5540:0.28445101 5544:0.28445101 5546:0.28445101 #
-7.0635712007220607944191215210594 482:0.016275 2350:0.016275 5517:0.016275 5530:0.016275 5531:0.016275 5532:0.016275 5533:0.016275 5534:0.016275 5535:0.016275 5536:0.016275 5537:0.016275 5538:0.016275 5539:0.016275 5540:0.016275 5541:0.016275 5542:0.016275 5544:0.016275 5545:0.016275 5546:0.016275 5547:0.016275 5548:0.016275 #
7.0635712007220607944191215210594 1655:0.35332301 1823:0.35332301 5523:0.35332301 5544:0.35332301 #
-3.4623357985552010163132763409521 307:0.116377 3567:0.116377 #
-2.322938426737612083172734855907 443:0.088894002 3199:0.088894002 #
-7.0635712007220607944191215210594 1162:0.014057 2844:0.014057 5525:0.014057 5530:0.014057 5531:0.014057 5534:0.014057 5536:0.014057 5538:0.014057 5539:0.014057 5545:0.014057 5548:0.014057 #
7.0635712007220607944191215210594 91:0.19390801 3404:0.19390801 5513:0.19390801 5519:0.19390801 #
7.0635712007220607944191215210594 1220:0.27253899 5314:0.27253899 5515:0.27253899 #
7.0635712007220607944191215210594 562:0.347269 3581:0.347269 5510:0.347269 #
-7.0635712007220607944191215210594 1577:0.12689801 2514:0.12689801 5535:0.12689801 #
6.5974299798531736982454276585486 919:0.51515198 2754:0.51515198 #
-0.73584328337320936697096840362065 1327:0.35319099 2004:0.35319099 5527:0.35319099 5532:0.35319099 #
7.0635712007220607944191215210594 1122:0.680861 2135:0.680861 5526:0.680861 #
3.5122777178181774360155031899922 1566:0.51021701 2350:0.51021701 5509:0.51021701 5530:0.51021701 5531:0.51021701 5532:0.51021701 5533:0.51021701 5534:0.51021701 5535:0.51021701 5536:0.51021701 5537:0.51021701 5538:0.51021701 5539:0.51021701 5540:0.51021701 5541:0.51021701 5542:0.51021701 5544:0.51021701 5545:0.51021701 5546:0.51021701 5547:0.51021701 5548:0.51021701 #
7.0635712007220607944191215210594 1070:0.30579501 1823:0.30579501 5526:0.30579501 5544:0.30579501 #
7.0635712007220607944191215210594 1572:0.18262 2350:0.18262 5517:0.18262 5530:0.18262 5531:0.18262 5532:0.18262 5533:0.18262 5534:0.18262 5535:0.18262 5536:0.18262 5537:0.18262 5538:0.18262 5539:0.18262 5540:0.18262 5541:0.18262 5542:0.18262 5544:0.18262 5545:0.18262 5546:0.18262 5547:0.18262 5548:0.18262 #
7.0635712007220607944191215210594 1315:0.27744401 2844:0.27744401 5509:0.27744401 5530:0.27744401 5531:0.27744401 5534:0.27744401 5536:0.27744401 5538:0.27744401 5539:0.27744401 5545:0.27744401 5548:0.27744401 #
7.0635712007220607944191215210594 211:0.366119 3904:0.366119 5523:0.366119 5544:0.366119 #
7.0635712007220607944191215210594 436:0.081336997 3642:0.081336997 5512:0.081336997 5530:0.081336997 #
7.0635712007220607944191215210594 94:0.66131401 3404:0.66131401 #
-7.0635712007220607944191215210594 1000:0.119974 2514:0.119974 5535:0.119974 #
-7.0635712007220607944191215210594 702:0.007336 5123:0.007336 5519:0.007336 5535:0.007336 5541:0.007336 #
7.0635712007220607944191215210594 431:0.021066001 2350:0.021066001 5519:0.021066001 5530:0.021066001 5531:0.021066001 5532:0.021066001 5533:0.021066001 5534:0.021066001 5535:0.021066001 5536:0.021066001 5537:0.021066001 5538:0.021066001 5539:0.021066001 5540:0.021066001 5541:0.021066001 5542:0.021066001 5544:0.021066001 5545:0.021066001 5546:0.021066001 5547:0.021066001 5548:0.021066001 #
-2.3158393755793422741362519445829 800:0.077292003 4036:0.077292003 5512:0.077292003 5527:0.077292003 #
-7.0635712007220607944191215210594 872:0.123345 2738:0.123345 5516:0.123345 #
7.0635712007220607944191215210594 1077:0.19989 3828:0.19989 5521:0.19989 5529:0.19989 5530:0.19989 5533:0.19989 5537:0.19989 5538:0.19989 5539:0.19989 5540:0.19989 5544:0.19989 5546:0.19989 #
-5.1340448751704217400515517510939 435:0.179198 3443:0.179198 5537:0.179198 #
7.0635712007220607944191215210594 1566:0.42267999 2350:0.42267999 5509:0.42267999 5530:0.42267999 5531:0.42267999 5532:0.42267999 5533:0.42267999 5534:0.42267999 5535:0.42267999 5536:0.42267999 5537:0.42267999 5538:0.42267999 5539:0.42267999 5540:0.42267999 5541:0.42267999 5542:0.42267999 5544:0.42267999 5545:0.42267999 5546:0.42267999 5547:0.42267999 5548:0.42267999 #
-0.44495840416825083174501287430758 1348:0.152016 3025:0.152016 5512:0.152016 5518:0.152016 5524:0.152016 #
-7.0635712007220607944191215210594 333:0.099104002 5123:0.099104002 5520:0.099104002 5535:0.099104002 5541:0.099104002 #
7.0635712007220607944191215210594 1280:0.47804299 4457:0.47804299 5535:0.47804299 5536:0.47804299 5540:0.47804299 5541:0.47804299 5547:0.47804299 #
7.0635712007220607944191215210594 1122:0.41864401 4457:0.41864401 5526:0.41864401 5535:0.41864401 5536:0.41864401 5540:0.41864401 5541:0.41864401 5547:0.41864401 #
7.0635712007220607944191215210594 1605:0.401876 4457:0.401876 5523:0.401876 5535:0.401876 5536:0.401876 5540:0.401876 5541:0.401876 5547:0.401876 #
5.882386516504234386104599252576 1609:0.513515 3020:0.513515 5539:0.513515 #
-7.0635712007220607944191215210594 1158:0.0046359999 1819:0.0046359999 #
-7.0635712007220607944191215210594 1048:0.149601 3443:0.149601 5537:0.149601 #
7.0635712007220607944191215210594 341:0.21547 3852:0.21547 5510:0.21547 5531:0.21547 5540:0.21547 #
-0.73708654352806624032723448181059 91:0.275967 2552:0.275967 5513:0.275967 5519:0.275967 #
7.0635712007220607944191215210594 134:0.55262703 2635:0.55262703 5516:0.55262703 5526:0.55262703 #
-7.0635712007220607944191215210594 800:0.108326 2095:0.108326 5512:0.108326 5527:0.108326 5548:0.108326 #
7.0635712007220607944191215210594 855:0.17026 3828:0.17026 5529:0.17026 5530:0.17026 5533:0.17026 5537:0.17026 5538:0.17026 5539:0.17026 5540:0.17026 5544:0.17026 5546:0.17026 #
7.0635712007220607944191215210594 970:0.183864 2844:0.183864 5518:0.183864 5519:0.183864 5520:0.183864 5530:0.183864 5531:0.183864 5534:0.183864 5536:0.183864 5538:0.183864 5539:0.183864 5545:0.183864 5548:0.183864 #
7.0635712007220607944191215210594 1001:0.22906099 1823:0.22906099 5544:0.22906099 #
-7.0635712007220607944191215210594 1183:0.105127 3777:0.105127 5510:0.105127 5531:0.105127 #
7.0635712007220607944191215210594 303:0.112541 3785:0.112541 5521:0.112541 #
-1.0277234982193006462836137870909 164:0.420632 4142:0.420632 5515:0.420632 #
7.0635712007220607944191215210594 692:0.20493101 1823:0.20493101 5544:0.20493101 #
-2.3772852904757373337929493573029 800:0.076196 5091:0.076196 5512:0.076196 5527:0.076196 #
7.0635712007220607944191215210594 762:0.116252 3828:0.116252 5529:0.116252 5530:0.116252 5533:0.116252 5537:0.116252 5538:0.116252 5539:0.116252 5540:0.116252 5544:0.116252 5546:0.116252 #
-2.4014448609820835400796568137594 702:0.335374 1916:0.335374 5519:0.335374 5532:0.335374 #
7.0635712007220607944191215210594 1029:0.49416199 2350:0.49416199 5512:0.49416199 5530:0.49416199 5531:0.49416199 5532:0.49416199 5533:0.49416199 5534:0.49416199 5535:0.49416199 5536:0.49416199 5537:0.49416199 5538:0.49416199 5539:0.49416199 5540:0.49416199 5541:0.49416199 5542:0.49416199 5544:0.49416199 5545:0.49416199 5546:0.49416199 5547:0.49416199 5548:0.49416199 #
-6.3179226983480880619481467874721 84:0.143912 3443:0.143912 5537:0.143912 #
7.0635712007220607944191215210594 2:0.079934001 4230:0.079934001 5526:0.079934001 #
-7.0635712007220607944191215210594 951:0.089584999 3443:0.089584999 5537:0.089584999 #
7.0635712007220607944191215210594 702:0.436764 2844:0.436764 5519:0.436764 5530:0.436764 5531:0.436764 5534:0.436764 5536:0.436764 5538:0.436764 5539:0.436764 5545:0.436764 5548:0.436764 #
-4.7699158844435700643771269824356 805:0.042551 5398:0.042551 5546:0.042551 #
-0.37439107850913666553083203325514 1348:0.24196 1928:0.24196 5512:0.24196 5518:0.24196 5524:0.24196 #
7.0635712007220607944191215210594 553:0.249156 3404:0.249156 #
-0.42548370530425827507059466370265 1348:0.180829 4869:0.180829 5512:0.180829 5518:0.180829 5524:0.180829 #
-0.10159836449024872706559108337387 1131:0.32715499 2912:0.32715499 5519:0.32715499 5520:0.32715499 #
7.0635712007220607944191215210594 34:0.056118999 2048:0.056118999 5515:0.056118999 5525:0.056118999 #
-7.0635712007220607944191215210594 743:0.086746 3443:0.086746 5519:0.086746 5537:0.086746 #
-7.0635712007220607944191215210594 304:0.112565 3443:0.112565 5537:0.112565 #
-7.0635712007220607944191215210594 800:0.621005 2350:0.621005 5512:0.621005 5527:0.621005 5530:0.621005 5531:0.621005 5532:0.621005 5533:0.621005 5534:0.621005 5535:0.621005 5536:0.621005 5537:0.621005 5538:0.621005 5539:0.621005 5540:0.621005 5541:0.621005 5542:0.621005 5544:0.621005 5545:0.621005 5546:0.621005 5547:0.621005 5548:0.621005 #
7.0635712007220607944191215210594 164:0.101164 2350:0.101164 5515:0.101164 5530:0.101164 5531:0.101164 5532:0.101164 5533:0.101164 5534:0.101164 5535:0.101164 5536:0.101164 5537:0.101164 5538:0.101164 5539:0.101164 5540:0.101164 5541:0.101164 5542:0.101164 5544:0.101164 5545:0.101164 5546:0.101164 5547:0.101164 5548:0.101164 #
7.0635712007220607944191215210594 1372:0.51849198 2426:0.51849198 #
-1.1523760264053353186142203412601 91:0.14908101 3367:0.14908101 5513:0.14908101 5519:0.14908101 #
-7.0635712007220607944191215210594 1148:0.0044880002 3463:0.0044880002 #
7.0635712007220607944191215210594 784:0.064283997 2350:0.064283997 5508:0.064283997 5530:0.064283997 5531:0.064283997 5532:0.064283997 5533:0.064283997 5534:0.064283997 5535:0.064283997 5536:0.064283997 5537:0.064283997 5538:0.064283997 5539:0.064283997 5540:0.064283997 5541:0.064283997 5542:0.064283997 5544:0.064283997 5545:0.064283997 5546:0.064283997 5547:0.064283997 5548:0.064283997 #
-0.76118825807469692179552112065721 1668:0.25550899 1821:0.25550899 #
7.0635712007220607944191215210594 1278:0.066472001 2350:0.066472001 5530:0.066472001 5531:0.066472001 5532:0.066472001 5533:0.066472001 5534:0.066472001 5535:0.066472001 5536:0.066472001 5537:0.066472001 5538:0.066472001 5539:0.066472001 5540:0.066472001 5541:0.066472001 5542:0.066472001 5544:0.066472001 5545:0.066472001 5546:0.066472001 5547:0.066472001 5548:0.066472001 #
1.6762990863005498010096516736667 1077:0.46102601 3852:0.46102601 5521:0.46102601 5531:0.46102601 5540:0.46102601 #
-1.8204262173682885794789854116971 1162:0.16822401 3836:0.16822401 5525:0.16822401 #
-2.223185665937982502526892858441 1162:0.12972599 2525:0.12972599 5525:0.12972599 #
7.0635712007220607944191215210594 1348:0.134004 2350:0.134004 5512:0.134004 5518:0.134004 5524:0.134004 5530:0.134004 5531:0.134004 5532:0.134004 5533:0.134004 5534:0.134004 5535:0.134004 5536:0.134004 5537:0.134004 5538:0.134004 5539:0.134004 5540:0.134004 5541:0.134004 5542:0.134004 5544:0.134004 5545:0.134004 5546:0.134004 5547:0.134004 5548:0.134004 #
-7.0635712007220607944191215210594 576:0.086861998 3443:0.086861998 5537:0.086861998 #
-0.2503750580511641121717048008577 1348:0.42412499 3406:0.42412499 5512:0.42412499 5518:0.42412499 5524:0.42412499 #
7.0635712007220607944191215210594 548:0.36391199 3010:0.36391199 5512:0.36391199 5513:0.36391199 5525:0.36391199 5534:0.36391199 5541:0.36391199 5545:0.36391199 #
7.0635712007220607944191215210594 164:0.25027499 4457:0.25027499 5515:0.25027499 5535:0.25027499 5536:0.25027499 5540:0.25027499 5541:0.25027499 5547:0.25027499 #
7.0635712007220607944191215210594 1071:0.61643201 4499:0.61643201 5517:0.61643201 5530:0.61643201 5546:0.61643201 #
7.0635712007220607944191215210594 1274:0.013022 3952:0.013022 5517:0.013022 #
7.0635712007220607944191215210594 34:0.40107 3010:0.40107 5515:0.40107 5525:0.40107 5534:0.40107 5541:0.40107 5545:0.40107 #
-1.18732000852958896608413397189 91:0.14908101 5496:0.14908101 5513:0.14908101 5519:0.14908101 #
-1.9699878008642741633593686856329 448:0.053996999 3353:0.053996999 5536:0.053996999 5540:0.053996999 5544:0.053996999 5546:0.053996999 #
7.0635712007220607944191215210594 1318:0.39958799 3010:0.39958799 5534:0.39958799 5541:0.39958799 5545:0.39958799 #
7.0635712007220607944191215210594 743:0.36364201 4499:0.36364201 5519:0.36364201 5530:0.36364201 5546:0.36364201 #
7.0635712007220607944191215210594 1736:0.53666002 3353:0.53666002 5536:0.53666002 5540:0.53666002 5544:0.53666002 5546:0.53666002 #
-7.0635712007220607944191215210594 1122:0.954382 4457:0.954382 5526:0.954382 5535:0.954382 5536:0.954382 5540:0.954382 5541:0.954382 5547:0.954382 #
-7.0635712007220607944191215210594 234:0.66449797 2366:0.66449797 5511:0.66449797 5531:0.66449797 5532:0.66449797 5540:0.66449797 5542:0.66449797 5548:0.66449797 #
7.0635712007220607944191215210594 604:0.32858101 3093:0.32858101 5525:0.32858101 #
-7.0635712007220607944191215210594 702:0.38510901 3010:0.38510901 5519:0.38510901 5534:0.38510901 5541:0.38510901 5545:0.38510901 #
-7.0635712007220607944191215210594 1566:1.1387351 2350:1.1387351 5509:1.1387351 5530:1.1387351 5531:1.1387351 5532:1.1387351 5533:1.1387351 5534:1.1387351 5535:1.1387351 5536:1.1387351 5537:1.1387351 5538:1.1387351 5539:1.1387351 5540:1.1387351 5541:1.1387351 5542:1.1387351 5544:1.1387351 5545:1.1387351 5546:1.1387351 5547:1.1387351 5548:1.1387351 #
7.0635712007220607944191215210594 743:0.29663101 3353:0.29663101 5519:0.29663101 5536:0.29663101 5540:0.29663101 5544:0.29663101 5546:0.29663101 #
-0.0038666360663371160399925940964749 1641:0.244837 3426:0.244837 #
-7.0635712007220607944191215210594 388:0.016698999 4457:0.016698999 5520:0.016698999 5535:0.016698999 5536:0.016698999 5540:0.016698999 5541:0.016698999 5547:0.016698999 #
-7.0635712007220607944191215210594 1626:0.88345098 2350:0.88345098 5530:0.88345098 5531:0.88345098 5532:0.88345098 5533:0.88345098 5534:0.88345098 5535:0.88345098 5536:0.88345098 5537:0.88345098 5538:0.88345098 5539:0.88345098 5540:0.88345098 5541:0.88345098 5542:0.88345098 5544:0.88345098 5545:0.88345098 5546:0.88345098 5547:0.88345098 5548:0.88345098 #
-7.0635712007220607944191215210594 1287:0.79064399 2350:0.79064399 5530:0.79064399 5531:0.79064399 5532:0.79064399 5533:0.79064399 5534:0.79064399 5535:0.79064399 5536:0.79064399 5537:0.79064399 5538:0.79064399 5539:0.79064399 5540:0.79064399 5541:0.79064399 5542:0.79064399 5544:0.79064399 5545:0.79064399 5546:0.79064399 5547:0.79064399 5548:0.79064399 #
-7.0635712007220607944191215210594 1071:0.74979699 2350:0.74979699 5517:0.74979699 5530:0.74979699 5531:0.74979699 5532:0.74979699 5533:0.74979699 5534:0.74979699 5535:0.74979699 5536:0.74979699 5537:0.74979699 5538:0.74979699 5539:0.74979699 5540:0.74979699 5541:0.74979699 5542:0.74979699 5544:0.74979699 5545:0.74979699 5546:0.74979699 5547:0.74979699 5548:0.74979699 #
-7.0635712007220607944191215210594 553:0.63157499 2350:0.63157499 5530:0.63157499 5531:0.63157499 5532:0.63157499 5533:0.63157499 5534:0.63157499 5535:0.63157499 5536:0.63157499 5537:0.63157499 5538:0.63157499 5539:0.63157499 5540:0.63157499 5541:0.63157499 5542:0.63157499 5544:0.63157499 5545:0.63157499 5546:0.63157499 5547:0.63157499 5548:0.63157499 #
-7.0635712007220607944191215210594 396:0.95063001 2350:0.95063001 5530:0.95063001 5531:0.95063001 5532:0.95063001 5533:0.95063001 5534:0.95063001 5535:0.95063001 5536:0.95063001 5537:0.95063001 5538:0.95063001 5539:0.95063001 5540:0.95063001 5541:0.95063001 5542:0.95063001 5544:0.95063001 5545:0.95063001 5546:0.95063001 5547:0.95063001 5548:0.95063001 #
-7.0635712007220607944191215210594 94:0.92690802 2350:0.92690802 5530:0.92690802 5531:0.92690802 5532:0.92690802 5533:0.92690802 5534:0.92690802 5535:0.92690802 5536:0.92690802 5537:0.92690802 5538:0.92690802 5539:0.92690802 5540:0.92690802 5541:0.92690802 5542:0.92690802 5544:0.92690802 5545:0.92690802 5546:0.92690802 5547:0.92690802 5548:0.92690802 #
-1.1062412821205254154222075158032 610:0.43616301 4447:0.43616301 5525:0.43616301 #
-7.0635712007220607944191215210594 1523:0.242715 2350:0.242715 5530:0.242715 5531:0.242715 5532:0.242715 5533:0.242715 5534:0.242715 5535:0.242715 5536:0.242715 5537:0.242715 5538:0.242715 5539:0.242715 5540:0.242715 5541:0.242715 5542:0.242715 5544:0.242715 5545:0.242715 5546:0.242715 5547:0.242715 5548:0.242715 #
-7.0635712007220607944191215210594 134:0.97369802 2350:0.97369802 5516:0.97369802 5526:0.97369802 5530:0.97369802 5531:0.97369802 5532:0.97369802 5533:0.97369802 5534:0.97369802 5535:0.97369802 5536:0.97369802 5537:0.97369802 5538:0.97369802 5539:0.97369802 5540:0.97369802 5541:0.97369802 5542:0.97369802 5544:0.97369802 5545:0.97369802 5546:0.97369802 5547:0.97369802 5548:0.97369802 #
-0.42605888198710983871819735213649 211:0.62177598 3392:0.62177598 5523:0.62177598 #
7.0635712007220607944191215210594 136:0.14571901 3904:0.14571901 5544:0.14571901 #
-7.0635712007220607944191215210594 1343:0.46463701 4198:0.46463701 5525:0.46463701 5530:0.46463701 5540:0.46463701 #
-1.2359372924654612457828761762357 384:0.38613099 3829:0.38613099 5521:0.38613099 #
7.0635712007220607944191215210594 1626:0.180869 4784:0.180869 5543:0.180869 5547:0.180869 #
-7.0635712007220607944191215210594 1645:0.0221 4457:0.0221 5535:0.0221 5536:0.0221 5540:0.0221 5541:0.0221 5547:0.0221 #
-7.0635712007220607944191215210594 298:0.33178401 2635:0.33178401 5515:0.33178401 5522:0.33178401 #
-7.0635712007220607944191215210594 1596:0.384691 3849:0.384691 5530:0.384691 5535:0.384691 5540:0.384691 5547:0.384691 #
-5.9011260476274500774707121308893 1655:0.39302799 4499:0.39302799 5523:0.39302799 5530:0.39302799 5546:0.39302799 #
-7.0635712007220607944191215210594 1661:0.365794 3849:0.365794 5530:0.365794 5535:0.365794 5540:0.365794 5547:0.365794 #
-0.17167075131677717036993158217228 384:0.35198301 1945:0.35198301 5521:0.35198301 #
-7.0635712007220607944191215210594 312:0.31949899 4675:0.31949899 #
7.0635712007220607944191215210594 604:0.321612 1878:0.321612 5525:0.321612 #
-7.0635712007220607944191215210594 855:0.240244 2350:0.240244 5530:0.240244 5531:0.240244 5532:0.240244 5533:0.240244 5534:0.240244 5535:0.240244 5536:0.240244 5537:0.240244 5538:0.240244 5539:0.240244 5540:0.240244 5541:0.240244 5542:0.240244 5544:0.240244 5545:0.240244 5546:0.240244 5547:0.240244 5548:0.240244 #
-7.0635712007220607944191215210594 926:0.58879 2350:0.58879 5530:0.58879 5531:0.58879 5532:0.58879 5533:0.58879 5534:0.58879 5535:0.58879 5536:0.58879 5537:0.58879 5538:0.58879 5539:0.58879 5540:0.58879 5541:0.58879 5542:0.58879 5544:0.58879 5545:0.58879 5546:0.58879 5547:0.58879 5548:0.58879 #
7.0635712007220607944191215210594 1217:0.450454 3010:0.450454 5510:0.450454 5534:0.450454 5541:0.450454 5545:0.450454 #
-7.0635712007220607944191215210594 536:0.020493999 3010:0.020493999 5534:0.020493999 5541:0.020493999 5545:0.020493999 #
-7.0635712007220607944191215210594 1067:0.68604201 2366:0.68604201 5511:0.68604201 5531:0.68604201 5532:0.68604201 5540:0.68604201 5542:0.68604201 5548:0.68604201 #
7.0635712007220607944191215210594 1306:0.099379003 1823:0.099379003 5511:0.099379003 5523:0.099379003 5544:0.099379003 #
-7.0635712007220607944191215210594 242:0.62480301 2350:0.62480301 5530:0.62480301 5531:0.62480301 5532:0.62480301 5533:0.62480301 5534:0.62480301 5535:0.62480301 5536:0.62480301 5537:0.62480301 5538:0.62480301 5539:0.62480301 5540:0.62480301 5541:0.62480301 5542:0.62480301 5544:0.62480301 5545:0.62480301 5546:0.62480301 5547:0.62480301 5548:0.62480301 #
7.0635712007220607944191215210594 1566:0.075823002 4198:0.075823002 5509:0.075823002 5530:0.075823002 5540:0.075823002 #
-7.0635712007220607944191215210594 1122:0.341479 3020:0.341479 5526:0.341479 5539:0.341479 #
7.0635712007220607944191215210594 659:0.030936999 2350:0.030936999 5530:0.030936999 5531:0.030936999 5532:0.030936999 5533:0.030936999 5534:0.030936999 5535:0.030936999 5536:0.030936999 5537:0.030936999 5538:0.030936999 5539:0.030936999 5540:0.030936999 5541:0.030936999 5542:0.030936999 5544:0.030936999 5545:0.030936999 5546:0.030936999 5547:0.030936999 5548:0.030936999 #
-7.0635712007220607944191215210594 1340:0.36906901 2350:0.36906901 5510:0.36906901 5530:0.36906901 5531:0.36906901 5532:0.36906901 5533:0.36906901 5534:0.36906901 5535:0.36906901 5536:0.36906901 5537:0.36906901 5538:0.36906901 5539:0.36906901 5540:0.36906901 5541:0.36906901 5542:0.36906901 5544:0.36906901 5545:0.36906901 5546:0.36906901 5547:0.36906901 5548:0.36906901 #
7.0635712007220607944191215210594 396:0.13598999 3020:0.13598999 5539:0.13598999 #
7.0635712007220607944191215210594 659:0.019095 3621:0.019095 #
-7.0635712007220607944191215210594 1348:0.01032 1819:0.01032 5512:0.01032 5518:0.01032 5524:0.01032 #
-4.6344310556032528580772122950293 814:0.248206 5314:0.248206 #
-7.0635712007220607944191215210594 1486:0.31166101 2350:0.31166101 5530:0.31166101 5531:0.31166101 5532:0.31166101 5533:0.31166101 5534:0.31166101 5535:0.31166101 5536:0.31166101 5537:0.31166101 5538:0.31166101 5539:0.31166101 5540:0.31166101 5541:0.31166101 5542:0.31166101 5544:0.31166101 5545:0.31166101 5546:0.31166101 5547:0.31166101 5548:0.31166101 #
-7.0635712007220607944191215210594 970:0.11525 3353:0.11525 5518:0.11525 5519:0.11525 5520:0.11525 5536:0.11525 5540:0.11525 5544:0.11525 5546:0.11525 #
7.0635712007220607944191215210594 604:0.193057 3353:0.193057 5525:0.193057 5536:0.193057 5540:0.193057 5544:0.193057 5546:0.193057 #
-7.0635712007220607944191215210594 1131:0.21426301 5123:0.21426301 5519:0.21426301 5520:0.21426301 5535:0.21426301 5541:0.21426301 #
-7.0635712007220607944191215210594 1220:0.48815301 2350:0.48815301 5515:0.48815301 5530:0.48815301 5531:0.48815301 5532:0.48815301 5533:0.48815301 5534:0.48815301 5535:0.48815301 5536:0.48815301 5537:0.48815301 5538:0.48815301 5539:0.48815301 5540:0.48815301 5541:0.48815301 5542:0.48815301 5544:0.48815301 5545:0.48815301 5546:0.48815301 5547:0.48815301 5548:0.48815301 #
-7.0635712007220607944191215210594 1525:0.076825999 2350:0.076825999 5530:0.076825999 5531:0.076825999 5532:0.076825999 5533:0.076825999 5534:0.076825999 5535:0.076825999 5536:0.076825999 5537:0.076825999 5538:0.076825999 5539:0.076825999 5540:0.076825999 5541:0.076825999 5542:0.076825999 5544:0.076825999 5545:0.076825999 5546:0.076825999 5547:0.076825999 5548:0.076825999 #
7.0635712007220607944191215210594 1129:0.443977 4499:0.443977 5530:0.443977 5546:0.443977 #
-7.0635712007220607944191215210594 1089:0.204189 2350:0.204189 5530:0.204189 5531:0.204189 5532:0.204189 5533:0.204189 5534:0.204189 5535:0.204189 5536:0.204189 5537:0.204189 5538:0.204189 5539:0.204189 5540:0.204189 5541:0.204189 5542:0.204189 5544:0.204189 5545:0.204189 5546:0.204189 5547:0.204189 5548:0.204189 #
-7.0635712007220607944191215210594 1162:0.129134 2844:0.129134 5525:0.129134 5530:0.129134 5531:0.129134 5534:0.129134 5536:0.129134 5538:0.129134 5539:0.129134 5545:0.129134 5548:0.129134 #
7.0635712007220607944191215210594 1534:0.106577 3010:0.106577 5534:0.106577 5541:0.106577 5545:0.106577 #
7.0635712007220607944191215210594 656:0.111355 2350:0.111355 5530:0.111355 5531:0.111355 5532:0.111355 5533:0.111355 5534:0.111355 5535:0.111355 5536:0.111355 5537:0.111355 5538:0.111355 5539:0.111355 5540:0.111355 5541:0.111355 5542:0.111355 5544:0.111355 5545:0.111355 5546:0.111355 5547:0.111355 5548:0.111355 #
-7.0635712007220607944191215210594 1071:0.451401 2350:0.451401 5517:0.451401 5530:0.451401 5531:0.451401 5532:0.451401 5533:0.451401 5534:0.451401 5535:0.451401 5536:0.451401 5537:0.451401 5538:0.451401 5539:0.451401 5540:0.451401 5541:0.451401 5542:0.451401 5544:0.451401 5545:0.451401 5546:0.451401 5547:0.451401 5548:0.451401 #
-1.3096841907929639425844925426645 298:0.35934901 4195:0.35934901 5515:0.35934901 5522:0.35934901 #
7.0635712007220607944191215210594 920:0.057868998 2844:0.057868998 5513:0.057868998 5530:0.057868998 5531:0.057868998 5534:0.057868998 5536:0.057868998 5538:0.057868998 5539:0.057868998 5545:0.057868998 5548:0.057868998 #
-7.0635712007220607944191215210594 387:0.40959999 2350:0.40959999 5530:0.40959999 5531:0.40959999 5532:0.40959999 5533:0.40959999 5534:0.40959999 5535:0.40959999 5536:0.40959999 5537:0.40959999 5538:0.40959999 5539:0.40959999 5540:0.40959999 5541:0.40959999 5542:0.40959999 5544:0.40959999 5545:0.40959999 5546:0.40959999 5547:0.40959999 5548:0.40959999 #
-7.0635712007220607944191215210594 1674:0.40631101 2350:0.40631101 5530:0.40631101 5531:0.40631101 5532:0.40631101 5533:0.40631101 5534:0.40631101 5535:0.40631101 5536:0.40631101 5537:0.40631101 5538:0.40631101 5539:0.40631101 5540:0.40631101 5541:0.40631101 5542:0.40631101 5544:0.40631101 5545:0.40631101 5546:0.40631101 5547:0.40631101 5548:0.40631101 #
-7.0635712007220607944191215210594 1067:0.66372901 2366:0.66372901 5511:0.66372901 5531:0.66372901 5532:0.66372901 5540:0.66372901 5542:0.66372901 5548:0.66372901 #
7.0635712007220607944191215210594 1348:0.0063049998 1823:0.0063049998 5512:0.0063049998 5518:0.0063049998 5524:0.0063049998 5544:0.0063049998 #
7.0635712007220607944191215210594 1306:0.146826 2350:0.146826 5511:0.146826 5523:0.146826 5530:0.146826 5531:0.146826 5532:0.146826 5533:0.146826 5534:0.146826 5535:0.146826 5536:0.146826 5537:0.146826 5538:0.146826 5539:0.146826 5540:0.146826 5541:0.146826 5542:0.146826 5544:0.146826 5545:0.146826 5546:0.146826 5547:0.146826 5548:0.146826 #
7.0635712007220607944191215210594 800:0.48409101 2844:0.48409101 5512:0.48409101 5527:0.48409101 5530:0.48409101 5531:0.48409101 5534:0.48409101 5536:0.48409101 5538:0.48409101 5539:0.48409101 5545:0.48409101 5548:0.48409101 #
7.0635712007220607944191215210594 778:0.10281 2350:0.10281 5530:0.10281 5531:0.10281 5532:0.10281 5533:0.10281 5534:0.10281 5535:0.10281 5536:0.10281 5537:0.10281 5538:0.10281 5539:0.10281 5540:0.10281 5541:0.10281 5542:0.10281 5544:0.10281 5545:0.10281 5546:0.10281 5547:0.10281 5548:0.10281 #
-7.0635712007220607944191215210594 1242:0.70277101 4457:0.70277101 5514:0.70277101 5535:0.70277101 5536:0.70277101 5540:0.70277101 5541:0.70277101 5547:0.70277101 #
7.0635712007220607944191215210594 94:0.66283298 2844:0.66283298 5530:0.66283298 5531:0.66283298 5534:0.66283298 5536:0.66283298 5538:0.66283298 5539:0.66283298 5545:0.66283298 5548:0.66283298 #
7.0635712007220607944191215210594 538:0.85672301 2844:0.85672301 5523:0.85672301 5530:0.85672301 5531:0.85672301 5534:0.85672301 5536:0.85672301 5538:0.85672301 5539:0.85672301 5545:0.85672301 5548:0.85672301 #
-7.0635712007220607944191215210594 1105:0.172094 3852:0.172094 5531:0.172094 5540:0.172094 #
7.0635712007220607944191215210594 1122:0.146578 4457:0.146578 5526:0.146578 5535:0.146578 5536:0.146578 5540:0.146578 5541:0.146578 5547:0.146578 #
-7.0635712007220607944191215210594 234:0.181638 2366:0.181638 5511:0.181638 5531:0.181638 5532:0.181638 5540:0.181638 5542:0.181638 5548:0.181638 #
-1.3509372961442209781779411059688 800:0.60399002 4685:0.60399002 5512:0.60399002 5527:0.60399002 #
-7.0635712007220607944191215210594 254:0.38239801 2350:0.38239801 5530:0.38239801 5531:0.38239801 5532:0.38239801 5533:0.38239801 5534:0.38239801 5535:0.38239801 5536:0.38239801 5537:0.38239801 5538:0.38239801 5539:0.38239801 5540:0.38239801 5541:0.38239801 5542:0.38239801 5544:0.38239801 5545:0.38239801 5546:0.38239801 5547:0.38239801 5548:0.38239801 #
7.0635712007220607944191215210594 1071:0.73672599 2844:0.73672599 5517:0.73672599 5530:0.73672599 5531:0.73672599 5534:0.73672599 5536:0.73672599 5538:0.73672599 5539:0.73672599 5545:0.73672599 5548:0.73672599 #
7.0635712007220607944191215210594 1573:0.005655 3353:0.005655 5536:0.005655 5540:0.005655 5544:0.005655 5546:0.005655 #
-1.7230798030795371200696308733313 94:0.96967202 4346:0.96967202 #
0.98450360939810588334353269601706 388:0.194791 2350:0.194791 5520:0.194791 5530:0.194791 5531:0.194791 5532:0.194791 5533:0.194791 5534:0.194791 5535:0.194791 5536:0.194791 5537:0.194791 5538:0.194791 5539:0.194791 5540:0.194791 5541:0.194791 5542:0.194791 5544:0.194791 5545:0.194791 5546:0.194791 5547:0.194791 5548:0.194791 #
-7.0635712007220607944191215210594 1070:0.02163 3353:0.02163 5526:0.02163 5536:0.02163 5540:0.02163 5544:0.02163 5546:0.02163 #
-2.678367431550034982734587174491 855:0.26423699 2632:0.26423699 #
7.0635712007220607944191215210594 548:0.137062 2350:0.137062 5512:0.137062 5513:0.137062 5525:0.137062 5530:0.137062 5531:0.137062 5532:0.137062 5533:0.137062 5534:0.137062 5535:0.137062 5536:0.137062 5537:0.137062 5538:0.137062 5539:0.137062 5540:0.137062 5541:0.137062 5542:0.137062 5544:0.137062 5545:0.137062 5546:0.137062 5547:0.137062 5548:0.137062 #
7.0635712007220607944191215210594 1217:0.064289004 1902:0.064289004 5510:0.064289004 #
-7.0635712007220607944191215210594 1217:0.73744899 2844:0.73744899 5510:0.73744899 5530:0.73744899 5531:0.73744899 5534:0.73744899 5536:0.73744899 5538:0.73744899 5539:0.73744899 5545:0.73744899 5548:0.73744899 #
7.0635712007220607944191215210594 1217:0.247356 3353:0.247356 5510:0.247356 5536:0.247356 5540:0.247356 5544:0.247356 5546:0.247356 #
7.0635712007220607944191215210594 1067:0.112658 1904:0.112658 5511:0.112658 #
-7.0635712007220607944191215210594 1158:0.13192099 3852:0.13192099 5531:0.13192099 5540:0.13192099 #
-1.6588264468051605593501562907477 1199:0.374704 4457:0.374704 5523:0.374704 5526:0.374704 5535:0.374704 5536:0.374704 5540:0.374704 5541:0.374704 5547:0.374704 #
-4.6752053176273165036036516539752 538:0.70532203 3131:0.70532203 5523:0.70532203 #
-7.0635712007220607944191215210594 628:0.008924 3020:0.008924 5523:0.008924 5539:0.008924 #
-2.0379651264203118010698290163418 1129:0.344219 4982:0.344219 #
-7.0635712007220607944191215210594 562:0.34177199 2844:0.34177199 5510:0.34177199 5530:0.34177199 5531:0.34177199 5534:0.34177199 5536:0.34177199 5538:0.34177199 5539:0.34177199 5545:0.34177199 5548:0.34177199 #
-4.0208935320202758845198331982829 1438:0.33652401 4457:0.33652401 5535:0.33652401 5536:0.33652401 5540:0.33652401 5541:0.33652401 5547:0.33652401 #
-7.0635712007220607944191215210594 1169:0.403844 2350:0.403844 5530:0.403844 5531:0.403844 5532:0.403844 5533:0.403844 5534:0.403844 5535:0.403844 5536:0.403844 5537:0.403844 5538:0.403844 5539:0.403844 5540:0.403844 5541:0.403844 5542:0.403844 5544:0.403844 5545:0.403844 5546:0.403844 5547:0.403844 5548:0.403844 #
7.0635712007220607944191215210594 2:0.064880997 3020:0.064880997 5526:0.064880997 5539:0.064880997 #
7.0635712007220607944191215210594 970:0.095207997 4827:0.095207997 5518:0.095207997 5519:0.095207997 5520:0.095207997 5548:0.095207997 #
7.0635712007220607944191215210594 1122:0.142895 4457:0.142895 5526:0.142895 5535:0.142895 5536:0.142895 5540:0.142895 5541:0.142895 5547:0.142895 #
7.0635712007220607944191215210594 1556:0.28650999 4930:0.28650999 #
7.0635712007220607944191215210594 1330:0.098296002 4457:0.098296002 5535:0.098296002 5536:0.098296002 5540:0.098296002 5541:0.098296002 5547:0.098296002 #
7.0635712007220607944191215210594 265:0.12566601 4457:0.12566601 5526:0.12566601 5535:0.12566601 5536:0.12566601 5540:0.12566601 5541:0.12566601 5547:0.12566601 #
7.0635712007220607944191215210594 1122:0.108623 4457:0.108623 5526:0.108623 5535:0.108623 5536:0.108623 5540:0.108623 5541:0.108623 5547:0.108623 #
7.0635712007220607944191215210594 1199:0.087800004 4545:0.087800004 5523:0.087800004 5526:0.087800004 #
7.0635712007220607944191215210594 1199:0.064061001 2635:0.064061001 5523:0.064061001 5526:0.064061001 #
7.0635712007220607944191215210594 754:0.045867 1823:0.045867 5519:0.045867 5544:0.045867 #
7.0635712007220607944191215210594 1122:0.074579 4457:0.074579 5526:0.074579 5535:0.074579 5536:0.074579 5540:0.074579 5541:0.074579 5547:0.074579 #
7.0635712007220607944191215210594 970:0.074458003 4685:0.074458003 5518:0.074458003 5519:0.074458003 5520:0.074458003 #
7.0635712007220607944191215210594 1310:0.19219901 4457:0.19219901 5535:0.19219901 5536:0.19219901 5540:0.19219901 5541:0.19219901 5547:0.19219901 #
7.0635712007220607944191215210594 1122:0.069599003 4457:0.069599003 5526:0.069599003 5535:0.069599003 5536:0.069599003 5540:0.069599003 5541:0.069599003 5547:0.069599003 #
7.0635712007220607944191215210594 162:0.085941002 3404:0.085941002 5519:0.085941002 #
-1.4819599299187942165190179366618 530:0.15271699 3353:0.15271699 5536:0.15271699 5540:0.15271699 5544:0.15271699 5546:0.15271699 #
-7.0635712007220607944191215210594 1194:0.39019999 4784:0.39019999 5543:0.39019999 5547:0.39019999 #
5.6976224358231508659855535370298 1148:0.55638701 3443:0.55638701 5537:0.55638701 #
7.0635712007220607944191215210594 34:0.203961 2350:0.203961 5515:0.203961 5525:0.203961 5530:0.203961 5531:0.203961 5532:0.203961 5533:0.203961 5534:0.203961 5535:0.203961 5536:0.203961 5537:0.203961 5538:0.203961 5539:0.203961 5540:0.203961 5541:0.203961 5542:0.203961 5544:0.203961 5545:0.203961 5546:0.203961 5547:0.203961 5548:0.203961 #
7.0635712007220607944191215210594 1242:0.78027898 4457:0.78027898 5514:0.78027898 5535:0.78027898 5536:0.78027898 5540:0.78027898 5541:0.78027898 5547:0.78027898 #
-7.0635712007220607944191215210594 970:0.50141001 2844:0.50141001 5518:0.50141001 5519:0.50141001 5520:0.50141001 5530:0.50141001 5531:0.50141001 5534:0.50141001 5536:0.50141001 5538:0.50141001 5539:0.50141001 5545:0.50141001 5548:0.50141001 #
-7.0635712007220607944191215210594 211:0.013854 4457:0.013854 5523:0.013854 5535:0.013854 5536:0.013854 5540:0.013854 5541:0.013854 5547:0.013854 #
-1.5769395650635811279016706976108 1459:0.1076 2635:0.1076 #
7.0635712007220607944191215210594 1348:0.130505 2350:0.130505 5512:0.130505 5518:0.130505 5524:0.130505 5530:0.130505 5531:0.130505 5532:0.130505 5533:0.130505 5534:0.130505 5535:0.130505 5536:0.130505 5537:0.130505 5538:0.130505 5539:0.130505 5540:0.130505 5541:0.130505 5542:0.130505 5544:0.130505 5545:0.130505 5546:0.130505 5547:0.130505 5548:0.130505 #
-0.13309550257142038764968106079323 590:0.318497 4907:0.318497 #
-7.0635712007220607944191215210594 1264:0.003306 3904:0.003306 5544:0.003306 #
5.3124577107798920394543529255316 242:0.68957198 4687:0.68957198 #
-7.0635712007220607944191215210594 548:0.766478 2350:0.766478 5512:0.766478 5513:0.766478 5525:0.766478 5530:0.766478 5531:0.766478 5532:0.766478 5533:0.766478 5534:0.766478 5535:0.766478 5536:0.766478 5537:0.766478 5538:0.766478 5539:0.766478 5540:0.766478 5541:0.766478 5542:0.766478 5544:0.766478 5545:0.766478 5546:0.766478 5547:0.766478 5548:0.766478 #
-7.0635712007220607944191215210594 1602:0.25962299 3020:0.25962299 5517:0.25962299 5539:0.25962299 #
-1.3108203163886769093693374088616 217:0.21858101 3780:0.21858101 #
-7.0635712007220607944191215210594 428:0.025496 4457:0.025496 5535:0.025496 5536:0.025496 5540:0.025496 5541:0.025496 5547:0.025496 #
-7.0635712007220607944191215210594 234:0.36021 2366:0.36021 5511:0.36021 5531:0.36021 5532:0.36021 5540:0.36021 5542:0.36021 5548:0.36021 #
-7.0635712007220607944191215210594 1001:0.24977501 3849:0.24977501 5530:0.24977501 5535:0.24977501 5540:0.24977501 5547:0.24977501 #
7.0635712007220607944191215210594 387:0.309894 4827:0.309894 5548:0.309894 #
-0.91003751671384425225852510266122 1070:0.52205801 3280:0.52205801 5526:0.52205801 #
-7.0635712007220607944191215210594 708:0.75772703 2350:0.75772703 5512:0.75772703 5530:0.75772703 5531:0.75772703 5532:0.75772703 5533:0.75772703 5534:0.75772703 5535:0.75772703 5536:0.75772703 5537:0.75772703 5538:0.75772703 5539:0.75772703 5540:0.75772703 5541:0.75772703 5542:0.75772703 5544:0.75772703 5545:0.75772703 5546:0.75772703 5547:0.75772703 5548:0.75772703 #
7.0635712007220607944191215210594 298:0.416769 4457:0.416769 5515:0.416769 5522:0.416769 5535:0.416769 5536:0.416769 5540:0.416769 5541:0.416769 5547:0.416769 #
-5.5001314068225548581381190160755 970:0.156414 3093:0.156414 5518:0.156414 5519:0.156414 5520:0.156414 #
-7.0635712007220607944191215210594 874:0.32265499 2350:0.32265499 5508:0.32265499 5530:0.32265499 5531:0.32265499 5532:0.32265499 5533:0.32265499 5534:0.32265499 5535:0.32265499 5536:0.32265499 5537:0.32265499 5538:0.32265499 5539:0.32265499 5540:0.32265499 5541:0.32265499 5542:0.32265499 5544:0.32265499 5545:0.32265499 5546:0.32265499 5547:0.32265499 5548:0.32265499 #
7.0635712007220607944191215210594 307:0.140697 2350:0.140697 5530:0.140697 5531:0.140697 5532:0.140697 5533:0.140697 5534:0.140697 5535:0.140697 5536:0.140697 5537:0.140697 5538:0.140697 5539:0.140697 5540:0.140697 5541:0.140697 5542:0.140697 5544:0.140697 5545:0.140697 5546:0.140697 5547:0.140697 5548:0.140697 #
7.0635712007220607944191215210594 1343:0.40036699 5493:0.40036699 5525:0.40036699 #
7.0635712007220607944191215210594 1566:0.50868797 2350:0.50868797 5509:0.50868797 5530:0.50868797 5531:0.50868797 5532:0.50868797 5533:0.50868797 5534:0.50868797 5535:0.50868797 5536:0.50868797 5537:0.50868797 5538:0.50868797 5539:0.50868797 5540:0.50868797 5541:0.50868797 5542:0.50868797 5544:0.50868797 5545:0.50868797 5546:0.50868797 5547:0.50868797 5548:0.50868797 #
-0.37118896070231954809059971012175 1217:0.47924101 2844:0.47924101 5510:0.47924101 5530:0.47924101 5531:0.47924101 5534:0.47924101 5536:0.47924101 5538:0.47924101 5539:0.47924101 5545:0.47924101 5548:0.47924101 #
7.0635712007220607944191215210594 848:0.24015801 3443:0.24015801 5537:0.24015801 #
-7.0635712007220607944191215210594 1348:0.54459298 2350:0.54459298 5512:0.54459298 5518:0.54459298 5524:0.54459298 5530:0.54459298 5531:0.54459298 5532:0.54459298 5533:0.54459298 5534:0.54459298 5535:0.54459298 5536:0.54459298 5537:0.54459298 5538:0.54459298 5539:0.54459298 5540:0.54459298 5541:0.54459298 5542:0.54459298 5544:0.54459298 5545:0.54459298 5546:0.54459298 5547:0.54459298 5548:0.54459298 #
7.0635712007220607944191215210594 428:0.050156999 2350:0.050156999 5530:0.050156999 5531:0.050156999 5532:0.050156999 5533:0.050156999 5534:0.050156999 5535:0.050156999 5536:0.050156999 5537:0.050156999 5538:0.050156999 5539:0.050156999 5540:0.050156999 5541:0.050156999 5542:0.050156999 5544:0.050156999 5545:0.050156999 5546:0.050156999 5547:0.050156999 5548:0.050156999 #
-1.0245831455256961817212868481874 1041:0.27159899 4103:0.27159899 5533:0.27159899 5546:0.27159899 5547:0.27159899 #
7.0635712007220607944191215210594 1564:0.156725 3849:0.156725 5509:0.156725 5530:0.156725 5535:0.156725 5540:0.156725 5547:0.156725 #
-1.0228604275610428953058317347313 136:1.157198 4856:1.157198 #
7.0635712007220607944191215210594 548:0.13367499 2550:0.13367499 5512:0.13367499 5513:0.13367499 5525:0.13367499 #
-1.0522952885574270442958777493914 538:0.44791999 3295:0.44791999 5523:0.44791999 #
-7.0635712007220607944191215210594 1217:0.24106801 2350:0.24106801 5510:0.24106801 5530:0.24106801 5531:0.24106801 5532:0.24106801 5533:0.24106801 5534:0.24106801 5535:0.24106801 5536:0.24106801 5537:0.24106801 5538:0.24106801 5539:0.24106801 5540:0.24106801 5541:0.24106801 5542:0.24106801 5544:0.24106801 5545:0.24106801 5546:0.24106801 5547:0.24106801 5548:0.24106801 #
7.0635712007220607944191215210594 702:0.30807701 3353:0.30807701 5519:0.30807701 5536:0.30807701 5540:0.30807701 5544:0.30807701 5546:0.30807701 #
-7.0635712007220607944191215210594 249:0.0037740001 3904:0.0037740001 5544:0.0037740001 #
-7.0235407571323964504017567378469 265:0.26763299 4457:0.26763299 5526:0.26763299 5535:0.26763299 5536:0.26763299 5540:0.26763299 5541:0.26763299 5547:0.26763299 #
-1.4837160173533170404169823086704 1310:0.28530499 4443:0.28530499 #
-7.0635712007220607944191215210594 431:0.176296 2350:0.176296 5519:0.176296 5530:0.176296 5531:0.176296 5532:0.176296 5533:0.176296 5534:0.176296 5535:0.176296 5536:0.176296 5537:0.176296 5538:0.176296 5539:0.176296 5540:0.176296 5541:0.176296 5542:0.176296 5544:0.176296 5545:0.176296 5546:0.176296 5547:0.176296 5548:0.176296 #
7.0635712007220607944191215210594 1012:0.057337001 2366:0.057337001 5511:0.057337001 5531:0.057337001 5532:0.057337001 5540:0.057337001 5542:0.057337001 5548:0.057337001 #
-0.38349036497772837073227947257692 1348:0.115439 3433:0.115439 5512:0.115439 5518:0.115439 5524:0.115439 #
-4.3063742544761263175701060390566 1129:0.015391 4655:0.015391 #
-7.0635712007220607944191215210594 1607:0.30622399 2350:0.30622399 5530:0.30622399 5531:0.30622399 5532:0.30622399 5533:0.30622399 5534:0.30622399 5535:0.30622399 5536:0.30622399 5537:0.30622399 5538:0.30622399 5539:0.30622399 5540:0.30622399 5541:0.30622399 5542:0.30622399 5544:0.30622399 5545:0.30622399 5546:0.30622399 5547:0.30622399 5548:0.30622399 #
-3.5592814672946926357610664126696 1405:0.135732 3273:0.135732 #
-0.84773955976021886371540858817752 758:0.57347298 2706:0.57347298 5516:0.57347298 #
7.0635712007220607944191215210594 1070:0.022056 3131:0.022056 5526:0.022056 #
-6.2763971330504455536924979242031 1736:0.162551 2578:0.162551 #
-7.0635712007220607944191215210594 702:0.019648001 4457:0.019648001 5519:0.019648001 5535:0.019648001 5536:0.019648001 5540:0.019648001 5541:0.019648001 5547:0.019648001 #
-7.0635712007220607944191215210594 702:0.109751 2426:0.109751 5519:0.109751 #
7.0635712007220607944191215210594 758:0.123774 2350:0.123774 5516:0.123774 5530:0.123774 5531:0.123774 5532:0.123774 5533:0.123774 5534:0.123774 5535:0.123774 5536:0.123774 5537:0.123774 5538:0.123774 5539:0.123774 5540:0.123774 5541:0.123774 5542:0.123774 5544:0.123774 5545:0.123774 5546:0.123774 5547:0.123774 5548:0.123774 #
7.0635712007220607944191215210594 702:0.350122 4828:0.350122 5519:0.350122 5540:0.350122 #
-1.6160174737472530193116426744382 743:0.19654 4553:0.19654 5519:0.19654 #
-7.0635712007220607944191215210594 1510:0.1236 3904:0.1236 5544:0.1236 #
7.0635712007220607944191215210594 402:0.13315199 2350:0.13315199 5530:0.13315199 5531:0.13315199 5532:0.13315199 5533:0.13315199 5534:0.13315199 5535:0.13315199 5536:0.13315199 5537:0.13315199 5538:0.13315199 5539:0.13315199 5540:0.13315199 5541:0.13315199 5542:0.13315199 5544:0.13315199 5545:0.13315199 5546:0.13315199 5547:0.13315199 5548:0.13315199 #
-7.0635712007220607944191215210594 334:0.27849799 2350:0.27849799 5530:0.27849799 5531:0.27849799 5532:0.27849799 5533:0.27849799 5534:0.27849799 5535:0.27849799 5536:0.27849799 5537:0.27849799 5538:0.27849799 5539:0.27849799 5540:0.27849799 5541:0.27849799 5542:0.27849799 5544:0.27849799 5545:0.27849799 5546:0.27849799 5547:0.27849799 5548:0.27849799 #
-7.0635712007220607944191215210594 1614:0.188903 4031:0.188903 5542:0.188903 5545:0.188903 #
-7.0635712007220607944191215210594 1077:0.032014001 2844:0.032014001 5521:0.032014001 5530:0.032014001 5531:0.032014001 5534:0.032014001 5536:0.032014001 5538:0.032014001 5539:0.032014001 5545:0.032014001 5548:0.032014001 #
-3.4616785561989402708604757208377 1457:0.474255 2844:0.474255 5510:0.474255 5530:0.474255 5531:0.474255 5534:0.474255 5536:0.474255 5538:0.474255 5539:0.474255 5545:0.474255 5548:0.474255 #
-7.0635712007220607944191215210594 1077:0.211353 2350:0.211353 5521:0.211353 5530:0.211353 5531:0.211353 5532:0.211353 5533:0.211353 5534:0.211353 5535:0.211353 5536:0.211353 5537:0.211353 5538:0.211353 5539:0.211353 5540:0.211353 5541:0.211353 5542:0.211353 5544:0.211353 5545:0.211353 5546:0.211353 5547:0.211353 5548:0.211353 #
-2.3645752657939702601197495823726 1242:0.19130901 3819:0.19130901 5514:0.19130901 #
-7.0635712007220607944191215210594 1564:0.142643 3849:0.142643 5509:0.142643 5530:0.142643 5535:0.142643 5540:0.142643 5547:0.142643 #
-7.0635712007220607944191215210594 1162:0.0061699999 1819:0.0061699999 5525:0.0061699999 #
7.0635712007220607944191215210594 1292:0.148965 3443:0.148965 5537:0.148965 #
-7.0635712007220607944191215210594 34:0.31179899 2350:0.31179899 5515:0.31179899 5525:0.31179899 5530:0.31179899 5531:0.31179899 5532:0.31179899 5533:0.31179899 5534:0.31179899 5535:0.31179899 5536:0.31179899 5537:0.31179899 5538:0.31179899 5539:0.31179899 5540:0.31179899 5541:0.31179899 5542:0.31179899 5544:0.31179899 5545:0.31179899 5546:0.31179899 5547:0.31179899 5548:0.31179899 #
7.0635712007220607944191215210594 25:0.139653 2366:0.139653 5531:0.139653 5532:0.139653 5540:0.139653 5542:0.139653 5548:0.139653 #
-1.006256565759221288658409321215 1594:0.047079999 3996:0.047079999 5522:0.047079999 #
-7.0635712007220607944191215210594 538:0.156781 4457:0.156781 5523:0.156781 5535:0.156781 5536:0.156781 5540:0.156781 5541:0.156781 5547:0.156781 #
-7.0635712007220607944191215210594 1348:0.467307 2350:0.467307 5512:0.467307 5518:0.467307 5524:0.467307 5530:0.467307 5531:0.467307 5532:0.467307 5533:0.467307 5534:0.467307 5535:0.467307 5536:0.467307 5537:0.467307 5538:0.467307 5539:0.467307 5540:0.467307 5541:0.467307 5542:0.467307 5544:0.467307 5545:0.467307 5546:0.467307 5547:0.467307 5548:0.467307 #
-7.0635712007220607944191215210594 164:0.050852999 3093:0.050852999 5515:0.050852999 #
-7.0635712007220607944191215210594 800:0.25955901 2350:0.25955901 5512:0.25955901 5527:0.25955901 5530:0.25955901 5531:0.25955901 5532:0.25955901 5533:0.25955901 5534:0.25955901 5535:0.25955901 5536:0.25955901 5537:0.25955901 5538:0.25955901 5539:0.25955901 5540:0.25955901 5541:0.25955901 5542:0.25955901 5544:0.25955901 5545:0.25955901 5546:0.25955901 5547:0.25955901 5548:0.25955901 #
-4.1974464510078739465370745165274 34:0.48254099 2844:0.48254099 5515:0.48254099 5525:0.48254099 5530:0.48254099 5531:0.48254099 5534:0.48254099 5536:0.48254099 5538:0.48254099 5539:0.48254099 5545:0.48254099 5548:0.48254099 #
-7.0635712007220607944191215210594 95:0.096135996 2514:0.096135996 5535:0.096135996 #
7.0635712007220607944191215210594 1274:0.041168001 2350:0.041168001 5517:0.041168001 5530:0.041168001 5531:0.041168001 5532:0.041168001 5533:0.041168001 5534:0.041168001 5535:0.041168001 5536:0.041168001 5537:0.041168001 5538:0.041168001 5539:0.041168001 5540:0.041168001 5541:0.041168001 5542:0.041168001 5544:0.041168001 5545:0.041168001 5546:0.041168001 5547:0.041168001 5548:0.041168001 #
-7.0635712007220607944191215210594 431:0.199577 4141:0.199577 5519:0.199577 5531:0.199577 5535:0.199577 #
-7.0635712007220607944191215210594 302:0.036520001 1963:0.036520001 5508:0.036520001 #
-7.0635712007220607944191215210594 1348:0.059149001 1819:0.059149001 5512:0.059149001 5518:0.059149001 5524:0.059149001 #
-7.0635712007220607944191215210594 134:0.435619 2350:0.435619 5516:0.435619 5526:0.435619 5530:0.435619 5531:0.435619 5532:0.435619 5533:0.435619 5534:0.435619 5535:0.435619 5536:0.435619 5537:0.435619 5538:0.435619 5539:0.435619 5540:0.435619 5541:0.435619 5542:0.435619 5544:0.435619 5545:0.435619 5546:0.435619 5547:0.435619 5548:0.435619 #
-1.2414755139635322844782194806612 428:0.100816 3302:0.100816 #
-7.0635712007220607944191215210594 1280:0.161401 2350:0.161401 5530:0.161401 5531:0.161401 5532:0.161401 5533:0.161401 5534:0.161401 5535:0.161401 5536:0.161401 5537:0.161401 5538:0.161401 5539:0.161401 5540:0.161401 5541:0.161401 5542:0.161401 5544:0.161401 5545:0.161401 5546:0.161401 5547:0.161401 5548:0.161401 #
7.0635712007220607944191215210594 250:0.14070401 2350:0.14070401 5530:0.14070401 5531:0.14070401 5532:0.14070401 5533:0.14070401 5534:0.14070401 5535:0.14070401 5536:0.14070401 5537:0.14070401 5538:0.14070401 5539:0.14070401 5540:0.14070401 5541:0.14070401 5542:0.14070401 5544:0.14070401 5545:0.14070401 5546:0.14070401 5547:0.14070401 5548:0.14070401 #
7.0635712007220607944191215210594 1566:0.492385 2350:0.492385 5509:0.492385 5530:0.492385 5531:0.492385 5532:0.492385 5533:0.492385 5534:0.492385 5535:0.492385 5536:0.492385 5537:0.492385 5538:0.492385 5539:0.492385 5540:0.492385 5541:0.492385 5542:0.492385 5544:0.492385 5545:0.492385 5546:0.492385 5547:0.492385 5548:0.492385 #
7.0635712007220607944191215210594 307:0.129907 2350:0.129907 5530:0.129907 5531:0.129907 5532:0.129907 5533:0.129907 5534:0.129907 5535:0.129907 5536:0.129907 5537:0.129907 5538:0.129907 5539:0.129907 5540:0.129907 5541:0.129907 5542:0.129907 5544:0.129907 5545:0.129907 5546:0.129907 5547:0.129907 5548:0.129907 #
-7.0635712007220607944191215210594 1480:0.24608199 2635:0.24608199 #
-7.0635712007220607944191215210594 1736:0.20794199 3828:0.20794199 5529:0.20794199 5530:0.20794199 5533:0.20794199 5537:0.20794199 5538:0.20794199 5539:0.20794199 5540:0.20794199 5544:0.20794199 5546:0.20794199 #
7.0635712007220607944191215210594 268:0.073496997 2350:0.073496997 5530:0.073496997 5531:0.073496997 5532:0.073496997 5533:0.073496997 5534:0.073496997 5535:0.073496997 5536:0.073496997 5537:0.073496997 5538:0.073496997 5539:0.073496997 5540:0.073496997 5541:0.073496997 5542:0.073496997 5544:0.073496997 5545:0.073496997 5546:0.073496997 5547:0.073496997 5548:0.073496997 #
-7.0635712007220607944191215210594 1258:0.107341 3616:0.107341 #
-1.659939719307672589820867870003 702:0.076205999 2438:0.076205999 5519:0.076205999 #
-0.67966813075476073535696741600987 702:0.34373799 5158:0.34373799 5519:0.34373799 #
-7.0635712007220607944191215210594 1566:0.47729099 2350:0.47729099 5509:0.47729099 5530:0.47729099 5531:0.47729099 5532:0.47729099 5533:0.47729099 5534:0.47729099 5535:0.47729099 5536:0.47729099 5537:0.47729099 5538:0.47729099 5539:0.47729099 5540:0.47729099 5541:0.47729099 5542:0.47729099 5544:0.47729099 5545:0.47729099 5546:0.47729099 5547:0.47729099 5548:0.47729099 #
7.0635712007220607944191215210594 1282:0.215647 3020:0.215647 5509:0.215647 5539:0.215647 #
-2.1208695755585029729672896792181 609:0.375173 3353:0.375173 5536:0.375173 5540:0.375173 5544:0.375173 5546:0.375173 #
-7.0635712007220607944191215210594 1315:0.079397999 2514:0.079397999 5509:0.079397999 5535:0.079397999 #
-2.8231177368658388893152277887566 78:0.099526003 4776:0.099526003 #
-3.096282688702466590058293149923 853:0.086393997 4679:0.086393997 #
7.0635712007220607944191215210594 850:0.141487 4784:0.141487 5543:0.141487 5547:0.141487 #
7.0635712007220607944191215210594 538:0.099854998 2366:0.099854998 5523:0.099854998 5531:0.099854998 5532:0.099854998 5540:0.099854998 5542:0.099854998 5548:0.099854998 #
7.0635712007220607944191215210594 805:0.152969 2350:0.152969 5530:0.152969 5531:0.152969 5532:0.152969 5533:0.152969 5534:0.152969 5535:0.152969 5536:0.152969 5537:0.152969 5538:0.152969 5539:0.152969 5540:0.152969 5541:0.152969 5542:0.152969 5544:0.152969 5545:0.152969 5546:0.152969 5547:0.152969 5548:0.152969 #
-7.0635712007220607944191215210594 1773:0.0022789999 1819:0.0022789999 #
-7.0635712007220607944191215210594 1165:0.045006 5207:0.045006 #
-0.34612457261962004118061031476827 1343:0.40680099 4307:0.40680099 5525:0.40680099 #
-7.0635712007220607944191215210594 1566:0.314349 2350:0.314349 5509:0.314349 5530:0.314349 5531:0.314349 5532:0.314349 5533:0.314349 5534:0.314349 5535:0.314349 5536:0.314349 5537:0.314349 5538:0.314349 5539:0.314349 5540:0.314349 5541:0.314349 5542:0.314349 5544:0.314349 5545:0.314349 5546:0.314349 5547:0.314349 5548:0.314349 #
-7.0635712007220607944191215210594 1602:0.27728099 2350:0.27728099 5517:0.27728099 5530:0.27728099 5531:0.27728099 5532:0.27728099 5533:0.27728099 5534:0.27728099 5535:0.27728099 5536:0.27728099 5537:0.27728099 5538:0.27728099 5539:0.27728099 5540:0.27728099 5541:0.27728099 5542:0.27728099 5544:0.27728099 5545:0.27728099 5546:0.27728099 5547:0.27728099 5548:0.27728099 #
-7.0635712007220607944191215210594 1735:0.008688 1819:0.008688 #
7.0635712007220607944191215210594 34:0.193213 2350:0.193213 5515:0.193213 5525:0.193213 5530:0.193213 5531:0.193213 5532:0.193213 5533:0.193213 5534:0.193213 5535:0.193213 5536:0.193213 5537:0.193213 5538:0.193213 5539:0.193213 5540:0.193213 5541:0.193213 5542:0.193213 5544:0.193213 5545:0.193213 5546:0.193213 5547:0.193213 5548:0.193213 #
-7.0635712007220607944191215210594 374:0.380472 2350:0.380472 5514:0.380472 5530:0.380472 5531:0.380472 5532:0.380472 5533:0.380472 5534:0.380472 5535:0.380472 5536:0.380472 5537:0.380472 5538:0.380472 5539:0.380472 5540:0.380472 5541:0.380472 5542:0.380472 5544:0.380472 5545:0.380472 5546:0.380472 5547:0.380472 5548:0.380472 #
-7.0635712007220607944191215210594 872:0.184986 3828:0.184986 5516:0.184986 5529:0.184986 5530:0.184986 5533:0.184986 5537:0.184986 5538:0.184986 5539:0.184986 5540:0.184986 5544:0.184986 5546:0.184986 #
-0.99011358034941032713049935409799 1242:0.49162999 5405:0.49162999 5514:0.49162999 #
-2.8205083892524953625979833304882 1242:0.47695899 5022:0.47695899 5514:0.47695899 #
-7.0635712007220607944191215210594 1220:0.026179999 2350:0.026179999 5515:0.026179999 5530:0.026179999 5531:0.026179999 5532:0.026179999 5533:0.026179999 5534:0.026179999 5535:0.026179999 5536:0.026179999 5537:0.026179999 5538:0.026179999 5539:0.026179999 5540:0.026179999 5541:0.026179999 5542:0.026179999 5544:0.026179999 5545:0.026179999 5546:0.026179999 5547:0.026179999 5548:0.026179999 #
-7.0635712007220607944191215210594 970:0.013833 1819:0.013833 5518:0.013833 5519:0.013833 5520:0.013833 #
7.0635712007220607944191215210594 1348:0.18569601 2350:0.18569601 5512:0.18569601 5518:0.18569601 5524:0.18569601 5530:0.18569601 5531:0.18569601 5532:0.18569601 5533:0.18569601 5534:0.18569601 5535:0.18569601 5536:0.18569601 5537:0.18569601 5538:0.18569601 5539:0.18569601 5540:0.18569601 5541:0.18569601 5542:0.18569601 5544:0.18569601 5545:0.18569601 5546:0.18569601 5547:0.18569601 5548:0.18569601 #
-1.2474849544654524891029723221436 702:0.160748 4476:0.160748 5519:0.160748 #
7.0635712007220607944191215210594 719:0.111279 2350:0.111279 5530:0.111279 5531:0.111279 5532:0.111279 5533:0.111279 5534:0.111279 5535:0.111279 5536:0.111279 5537:0.111279 5538:0.111279 5539:0.111279 5540:0.111279 5541:0.111279 5542:0.111279 5544:0.111279 5545:0.111279 5546:0.111279 5547:0.111279 5548:0.111279 #
-7.0635712007220607944191215210594 9:0.191608 3020:0.191608 5512:0.191608 5539:0.191608 #
-1.6271681857155879669107889640145 743:0.193536 4297:0.193536 5519:0.193536 #
-7.0635712007220607944191215210594 1067:0.26221499 2366:0.26221499 5511:0.26221499 5531:0.26221499 5532:0.26221499 5540:0.26221499 5542:0.26221499 5548:0.26221499 #
7.0635712007220607944191215210594 34:0.139383 2350:0.139383 5515:0.139383 5525:0.139383 5530:0.139383 5531:0.139383 5532:0.139383 5533:0.139383 5534:0.139383 5535:0.139383 5536:0.139383 5537:0.139383 5538:0.139383 5539:0.139383 5540:0.139383 5541:0.139383 5542:0.139383 5544:0.139383 5545:0.139383 5546:0.139383 5547:0.139383 5548:0.139383 #
-7.0635712007220607944191215210594 1122:0.22664601 2350:0.22664601 5526:0.22664601 5530:0.22664601 5531:0.22664601 5532:0.22664601 5533:0.22664601 5534:0.22664601 5535:0.22664601 5536:0.22664601 5537:0.22664601 5538:0.22664601 5539:0.22664601 5540:0.22664601 5541:0.22664601 5542:0.22664601 5544:0.22664601 5545:0.22664601 5546:0.22664601 5547:0.22664601 5548:0.22664601 #
-0.68435641453904860753709726850502 702:0.342942 3047:0.342942 5519:0.342942 #
-6.4089915562321788655708587612025 538:0.03297 4684:0.03297 5523:0.03297 #
-7.0635712007220607944191215210594 907:0.0032639999 3904:0.0032639999 5544:0.0032639999 #
-7.0635712007220607944191215210594 341:0.141537 4784:0.141537 5510:0.141537 5543:0.141537 5547:0.141537 #
7.0635712007220607944191215210594 655:0.029455001 2350:0.029455001 5530:0.029455001 5531:0.029455001 5532:0.029455001 5533:0.029455001 5534:0.029455001 5535:0.029455001 5536:0.029455001 5537:0.029455001 5538:0.029455001 5539:0.029455001 5540:0.029455001 5541:0.029455001 5542:0.029455001 5544:0.029455001 5545:0.029455001 5546:0.029455001 5547:0.029455001 5548:0.029455001 #
-3.3500173732298956785768950794591 1609:0.607072 2337:0.607072 #
-3.198977598483418560704194533173 1459:0.027070999 3358:0.027070999 #
7.0635712007220607944191215210594 265:0.31498101 4643:0.31498101 5526:0.31498101 5533:0.31498101 5548:0.31498101 #
7.0635712007220607944191215210594 874:0.34665999 3503:0.34665999 5508:0.34665999 #
-7.0635712007220607944191215210594 1122:0.60031998 4457:0.60031998 5526:0.60031998 5535:0.60031998 5536:0.60031998 5540:0.60031998 5541:0.60031998 5547:0.60031998 #
-7.0635712007220607944191215210594 1162:0.46625099 2350:0.46625099 5525:0.46625099 5530:0.46625099 5531:0.46625099 5532:0.46625099 5533:0.46625099 5534:0.46625099 5535:0.46625099 5536:0.46625099 5537:0.46625099 5538:0.46625099 5539:0.46625099 5540:0.46625099 5541:0.46625099 5542:0.46625099 5544:0.46625099 5545:0.46625099 5546:0.46625099 5547:0.46625099 5548:0.46625099 #
7.0635712007220607944191215210594 548:0.230184 3793:0.230184 5512:0.230184 5513:0.230184 5525:0.230184 #
-7.0635712007220607944191215210594 1566:1.089751 2350:1.089751 5509:1.089751 5530:1.089751 5531:1.089751 5532:1.089751 5533:1.089751 5534:1.089751 5535:1.089751 5536:1.089751 5537:1.089751 5538:1.089751 5539:1.089751 5540:1.089751 5541:1.089751 5542:1.089751 5544:1.089751 5545:1.089751 5546:1.089751 5547:1.089751 5548:1.089751 #
7.0635712007220607944191215210594 604:0.21133301 2710:0.21133301 5525:0.21133301 #
7.0635712007220607944191215210594 400:0.10476 2237:0.10476 5516:0.10476 #
7.0635712007220607944191215210594 53:0.154718 2350:0.154718 5530:0.154718 5531:0.154718 5532:0.154718 5533:0.154718 5534:0.154718 5535:0.154718 5536:0.154718 5537:0.154718 5538:0.154718 5539:0.154718 5540:0.154718 5541:0.154718 5542:0.154718 5544:0.154718 5545:0.154718 5546:0.154718 5547:0.154718 5548:0.154718 #
7.0635712007220607944191215210594 1067:0.160687 2366:0.160687 5511:0.160687 5531:0.160687 5532:0.160687 5540:0.160687 5542:0.160687 5548:0.160687 #
7.0635712007220607944191215210594 1120:0.16772901 2350:0.16772901 5530:0.16772901 5531:0.16772901 5532:0.16772901 5533:0.16772901 5534:0.16772901 5535:0.16772901 5536:0.16772901 5537:0.16772901 5538:0.16772901 5539:0.16772901 5540:0.16772901 5541:0.16772901 5542:0.16772901 5544:0.16772901 5545:0.16772901 5546:0.16772901 5547:0.16772901 5548:0.16772901 #
7.0635712007220607944191215210594 1348:0.00036100001 1819:0.00036100001 5512:0.00036100001 5518:0.00036100001 5524:0.00036100001 #
7.0635712007220607944191215210594 866:0.49630001 5284:0.49630001 5512:0.49630001 #
5.0695988303591406065606861375272 396:0.328834 2350:0.328834 5530:0.328834 5531:0.328834 5532:0.328834 5533:0.328834 5534:0.328834 5535:0.328834 5536:0.328834 5537:0.328834 5538:0.328834 5539:0.328834 5540:0.328834 5541:0.328834 5542:0.328834 5544:0.328834 5545:0.328834 5546:0.328834 5547:0.328834 5548:0.328834 #
7.0635712007220607944191215210594 788:0.144917 2350:0.144917 5530:0.144917 5531:0.144917 5532:0.144917 5533:0.144917 5534:0.144917 5535:0.144917 5536:0.144917 5537:0.144917 5538:0.144917 5539:0.144917 5540:0.144917 5541:0.144917 5542:0.144917 5544:0.144917 5545:0.144917 5546:0.144917 5547:0.144917 5548:0.144917 #
-1.3060487493704679984318772767438 702:0.15474799 5401:0.15474799 5519:0.15474799 #
-7.0635712007220607944191215210594 911:0.130082 3852:0.130082 5531:0.130082 5540:0.130082 #
-7.0635712007220607944191215210594 1492:0.189291 3849:0.189291 5509:0.189291 5530:0.189291 5535:0.189291 5540:0.189291 5547:0.189291 #
-2.371014609018374130755546502769 1220:0.430062 3353:0.430062 5515:0.430062 5536:0.430062 5540:0.430062 5544:0.430062 5546:0.430062 #
7.0635712007220607944191215210594 1071:0.29097199 2844:0.29097199 5517:0.29097199 5530:0.29097199 5531:0.29097199 5534:0.29097199 5536:0.29097199 5538:0.29097199 5539:0.29097199 5545:0.29097199 5548:0.29097199 #
7.0635712007220607944191215210594 1584:0.103748 5268:0.103748 #
-1.490779653006855998143009855994 866:0.031024 2784:0.031024 5512:0.031024 #
-4.6726133750494822649557136173826 1217:0.30516499 4545:0.30516499 5510:0.30516499 #
7.0635712007220607944191215210594 164:0.030747 2350:0.030747 5515:0.030747 5530:0.030747 5531:0.030747 5532:0.030747 5533:0.030747 5534:0.030747 5535:0.030747 5536:0.030747 5537:0.030747 5538:0.030747 5539:0.030747 5540:0.030747 5541:0.030747 5542:0.030747 5544:0.030747 5545:0.030747 5546:0.030747 5547:0.030747 5548:0.030747 #
7.0635712007220607944191215210594 1348:0.22208899 4198:0.22208899 5512:0.22208899 5518:0.22208899 5524:0.22208899 5530:0.22208899 5540:0.22208899 #
7.0635712007220607944191215210594 34:0.124306 2350:0.124306 5515:0.124306 5525:0.124306 5530:0.124306 5531:0.124306 5532:0.124306 5533:0.124306 5534:0.124306 5535:0.124306 5536:0.124306 5537:0.124306 5538:0.124306 5539:0.124306 5540:0.124306 5541:0.124306 5542:0.124306 5544:0.124306 5545:0.124306 5546:0.124306 5547:0.124306 5548:0.124306 #
7.0635712007220607944191215210594 1162:0.222839 2844:0.222839 5525:0.222839 5530:0.222839 5531:0.222839 5534:0.222839 5536:0.222839 5538:0.222839 5539:0.222839 5545:0.222839 5548:0.222839 #
7.0635712007220607944191215210594 1510:0.355988 4457:0.355988 5535:0.355988 5536:0.355988 5540:0.355988 5541:0.355988 5547:0.355988 #
7.0635712007220607944191215210594 874:0.230883 1819:0.230883 5508:0.230883 #
7.0635712007220607944191215210594 708:0.39803401 3010:0.39803401 5512:0.39803401 5534:0.39803401 5541:0.39803401 5545:0.39803401 #
-7.0635712007220607944191215210594 944:0.015355 3852:0.015355 5531:0.015355 5540:0.015355 #
7.0635712007220607944191215210594 321:0.054740999 3387:0.054740999 #
7.0635712007220607944191215210594 1340:0.206607 4856:0.206607 5510:0.206607 #
7.0635712007220607944191215210594 931:0.13991299 2350:0.13991299 5530:0.13991299 5531:0.13991299 5532:0.13991299 5533:0.13991299 5534:0.13991299 5535:0.13991299 5536:0.13991299 5537:0.13991299 5538:0.13991299 5539:0.13991299 5540:0.13991299 5541:0.13991299 5542:0.13991299 5544:0.13991299 5545:0.13991299 5546:0.13991299 5547:0.13991299 5548:0.13991299 #
-7.0635712007220607944191215210594 515:0.018402999 3283:0.018402999 #
-7.0635712007220607944191215210594 1361:0.199332 2350:0.199332 5530:0.199332 5531:0.199332 5532:0.199332 5533:0.199332 5534:0.199332 5535:0.199332 5536:0.199332 5537:0.199332 5538:0.199332 5539:0.199332 5540:0.199332 5541:0.199332 5542:0.199332 5544:0.199332 5545:0.199332 5546:0.199332 5547:0.199332 5548:0.199332 #
-2.2077105438037420981345348991454 798:0.739236 2844:0.739236 5530:0.739236 5531:0.739236 5534:0.739236 5536:0.739236 5538:0.739236 5539:0.739236 5545:0.739236 5548:0.739236 #
-6.6400422429969543358652117603924 1372:0.40102401 4457:0.40102401 5535:0.40102401 5536:0.40102401 5540:0.40102401 5541:0.40102401 5547:0.40102401 #
7.0635712007220607944191215210594 1490:0.52718699 2635:0.52718699 #
7.0635712007220607944191215210594 1122:0.25934601 4457:0.25934601 5526:0.25934601 5535:0.25934601 5536:0.25934601 5540:0.25934601 5541:0.25934601 5547:0.25934601 #
7.0635712007220607944191215210594 821:0.50765902 2844:0.50765902 5530:0.50765902 5531:0.50765902 5534:0.50765902 5536:0.50765902 5538:0.50765902 5539:0.50765902 5545:0.50765902 5548:0.50765902 #
7.0635712007220607944191215210594 952:0.128253 3353:0.128253 5536:0.128253 5540:0.128253 5544:0.128253 5546:0.128253 #
7.0635712007220607944191215210594 1607:0.105578 3463:0.105578 #
7.0635712007220607944191215210594 1071:0.21114101 2844:0.21114101 5517:0.21114101 5530:0.21114101 5531:0.21114101 5534:0.21114101 5536:0.21114101 5538:0.21114101 5539:0.21114101 5545:0.21114101 5548:0.21114101 #
7.0635712007220607944191215210594 842:0.39972299 2844:0.39972299 5530:0.39972299 5531:0.39972299 5534:0.39972299 5536:0.39972299 5538:0.39972299 5539:0.39972299 5545:0.39972299 5548:0.39972299 #
7.0635712007220607944191215210594 1162:0.028276 2350:0.028276 5525:0.028276 5530:0.028276 5531:0.028276 5532:0.028276 5533:0.028276 5534:0.028276 5535:0.028276 5536:0.028276 5537:0.028276 5538:0.028276 5539:0.028276 5540:0.028276 5541:0.028276 5542:0.028276 5544:0.028276 5545:0.028276 5546:0.028276 5547:0.028276 5548:0.028276 #
-1.6435787418146721172718116577016 538:0.27776101 4288:0.27776101 5523:0.27776101 #
-0.63739269376899576613482167886104 421:0.045340002 2183:0.045340002 5521:0.045340002 #
7.0635712007220607944191215210594 1624:0.199442 4031:0.199442 5542:0.199442 5545:0.199442 #
-7.0635712007220607944191215210594 1206:0.19910701 2350:0.19910701 5530:0.19910701 5531:0.19910701 5532:0.19910701 5533:0.19910701 5534:0.19910701 5535:0.19910701 5536:0.19910701 5537:0.19910701 5538:0.19910701 5539:0.19910701 5540:0.19910701 5541:0.19910701 5542:0.19910701 5544:0.19910701 5545:0.19910701 5546:0.19910701 5547:0.19910701 5548:0.19910701 #
7.0635712007220607944191215210594 1274:0.208894 2350:0.208894 5517:0.208894 5530:0.208894 5531:0.208894 5532:0.208894 5533:0.208894 5534:0.208894 5535:0.208894 5536:0.208894 5537:0.208894 5538:0.208894 5539:0.208894 5540:0.208894 5541:0.208894 5542:0.208894 5544:0.208894 5545:0.208894 5546:0.208894 5547:0.208894 5548:0.208894 #
7.0635712007220607944191215210594 970:0.158213 4198:0.158213 5518:0.158213 5519:0.158213 5520:0.158213 5530:0.158213 5540:0.158213 #
7.0635712007220607944191215210594 1092:0.18734699 4457:0.18734699 5527:0.18734699 5535:0.18734699 5536:0.18734699 5540:0.18734699 5541:0.18734699 5547:0.18734699 #
7.0635712007220607944191215210594 1717:0.166124 4346:0.166124 #
7.0635712007220607944191215210594 443:0.213827 2337:0.213827 #
-7.0635712007220607944191215210594 34:0.220404 2350:0.220404 5515:0.220404 5525:0.220404 5530:0.220404 5531:0.220404 5532:0.220404 5533:0.220404 5534:0.220404 5535:0.220404 5536:0.220404 5537:0.220404 5538:0.220404 5539:0.220404 5540:0.220404 5541:0.220404 5542:0.220404 5544:0.220404 5545:0.220404 5546:0.220404 5547:0.220404 5548:0.220404 #
7.0635712007220607944191215210594 538:0.61727601 2844:0.61727601 5523:0.61727601 5530:0.61727601 5531:0.61727601 5534:0.61727601 5536:0.61727601 5538:0.61727601 5539:0.61727601 5545:0.61727601 5548:0.61727601 #
7.0635712007220607944191215210594 1008:0.186942 2350:0.186942 5530:0.186942 5531:0.186942 5532:0.186942 5533:0.186942 5534:0.186942 5535:0.186942 5536:0.186942 5537:0.186942 5538:0.186942 5539:0.186942 5540:0.186942 5541:0.186942 5542:0.186942 5544:0.186942 5545:0.186942 5546:0.186942 5547:0.186942 5548:0.186942 #
7.0635712007220607944191215210594 250:0.080936 3150:0.080936 5533:0.080936 5538:0.080936 5540:0.080936 5543:0.080936 #
-3.9225973706993038092605274869129 131:0.35559899 3353:0.35559899 5536:0.35559899 5540:0.35559899 5544:0.35559899 5546:0.35559899 #
7.0635712007220607944191215210594 388:0.279717 4643:0.279717 5520:0.279717 5533:0.279717 5548:0.279717 #
-7.0635712007220607944191215210594 134:0.13671701 2350:0.13671701 5516:0.13671701 5526:0.13671701 5530:0.13671701 5531:0.13671701 5532:0.13671701 5533:0.13671701 5534:0.13671701 5535:0.13671701 5536:0.13671701 5537:0.13671701 5538:0.13671701 5539:0.13671701 5540:0.13671701 5541:0.13671701 5542:0.13671701 5544:0.13671701 5545:0.13671701 5546:0.13671701 5547:0.13671701 5548:0.13671701 #
7.0635712007220607944191215210594 601:0.26182601 3353:0.26182601 5536:0.26182601 5540:0.26182601 5544:0.26182601 5546:0.26182601 #
7.0635712007220607944191215210594 431:0.072437003 4457:0.072437003 5519:0.072437003 5535:0.072437003 5536:0.072437003 5540:0.072437003 5541:0.072437003 5547:0.072437003 #
7.0635712007220607944191215210594 1348:0.154282 3150:0.154282 5512:0.154282 5518:0.154282 5524:0.154282 5533:0.154282 5538:0.154282 5540:0.154282 5543:0.154282 #
7.0635712007220607944191215210594 800:0.41472399 2844:0.41472399 5512:0.41472399 5527:0.41472399 5530:0.41472399 5531:0.41472399 5534:0.41472399 5536:0.41472399 5538:0.41472399 5539:0.41472399 5545:0.41472399 5548:0.41472399 #
-0.1199475263892942344945424792968 1643:0.045635 4079:0.045635 #
7.0635712007220607944191215210594 970:0.18421499 3353:0.18421499 5518:0.18421499 5519:0.18421499 5520:0.18421499 5536:0.18421499 5540:0.18421499 5544:0.18421499 5546:0.18421499 #
-5.3431298289161794912160985404626 1174:0.24601801 4457:0.24601801 5535:0.24601801 5536:0.24601801 5540:0.24601801 5541:0.24601801 5547:0.24601801 #
7.0635712007220607944191215210594 1071:0.209857 4048:0.209857 5517:0.209857 #
7.0635712007220607944191215210594 1501:0.30038899 3353:0.30038899 5515:0.30038899 5536:0.30038899 5540:0.30038899 5544:0.30038899 5546:0.30038899 #
7.0635712007220607944191215210594 733:0.27035901 4856:0.27035901 #
7.0635712007220607944191215210594 1492:0.077880003 2844:0.077880003 5509:0.077880003 5530:0.077880003 5531:0.077880003 5534:0.077880003 5536:0.077880003 5538:0.077880003 5539:0.077880003 5545:0.077880003 5548:0.077880003 #
7.0635712007220607944191215210594 1614:0.18162499 3441:0.18162499 #
7.0635712007220607944191215210594 431:0.126688 4914:0.126688 5519:0.126688 #
7.0635712007220607944191215210594 431:0.249071 1819:0.249071 5519:0.249071 #
7.0635712007220607944191215210594 374:0.06089 2350:0.06089 5514:0.06089 5530:0.06089 5531:0.06089 5532:0.06089 5533:0.06089 5534:0.06089 5535:0.06089 5536:0.06089 5537:0.06089 5538:0.06089 5539:0.06089 5540:0.06089 5541:0.06089 5542:0.06089 5544:0.06089 5545:0.06089 5546:0.06089 5547:0.06089 5548:0.06089 #
7.0635712007220607944191215210594 1242:0.20212799 1826:0.20212799 5514:0.20212799 #
7.0635712007220607944191215210594 1314:0.20461699 2350:0.20461699 5514:0.20461699 5530:0.20461699 5531:0.20461699 5532:0.20461699 5533:0.20461699 5534:0.20461699 5535:0.20461699 5536:0.20461699 5537:0.20461699 5538:0.20461699 5539:0.20461699 5540:0.20461699 5541:0.20461699 5542:0.20461699 5544:0.20461699 5545:0.20461699 5546:0.20461699 5547:0.20461699 5548:0.20461699 #
7.0635712007220607944191215210594 1575:0.242483 4856:0.242483 #
7.0635712007220607944191215210594 814:0.099914998 2350:0.099914998 5530:0.099914998 5531:0.099914998 5532:0.099914998 5533:0.099914998 5534:0.099914998 5535:0.099914998 5536:0.099914998 5537:0.099914998 5538:0.099914998 5539:0.099914998 5540:0.099914998 5541:0.099914998 5542:0.099914998 5544:0.099914998 5545:0.099914998 5546:0.099914998 5547:0.099914998 5548:0.099914998 #
7.0635712007220607944191215210594 1217:0.064289004 2427:0.064289004 5510:0.064289004 #
