SVM-light Version V6.02
0 # kernel type
3 # kernel parameter -d 
1 # kernel parameter -g 
1 # kernel parameter -s 
1 # kernel parameter -r 
empty# kernel parameter -u 
5506 # highest feature index 
13289 # number of training documents 
5449 # number of support vectors plus 1 
1.0794687 # threshold b, each following line is a SV (starting with alpha*y)
-0.011973122397203272981869304203428 1095:1 4336:1 #
-0.011978968425993736374168818770158 162:1 3557:1 #
-0.01230354114050014047165859665256 785:1 1917:1 #
-0.49999999999988375964932174611022 785:1 3396:1 #
-0.10652872161177151522082340306952 9:1 2825:1 #
0.33186787134690864942143662119634 785:1 2340:1 #
-0.01230386107376446602756914217025 1206:1 4355:1 #
0.15175958516069065762366108174319 858:1 2340:1 #
0.49999999999988375964932174611022 34:1 2340:1 #
-0.49999999999988375964932174611022 34:1 2340:1 #
0.49999999999988375964932174611022 540:1 4438:1 #
0.49999999999988375964932174611022 1587:1 4438:1 #
0.49999999999988375964932174611022 378:1 4438:1 #
0.49999999999988375964932174611022 363:1 4438:1 #
0.49999999999988375964932174611022 433:1 4438:1 #
-0.49999999999988375964932174611022 378:1 2340:1 #
-0.49999999999988375964932174611022 533:1 2340:1 #
-0.49999999999988375964932174611022 474:1 2340:1 #
-0.49999999999988375964932174611022 1558:1 2340:1 #
0.49999999999988375964932174611022 34:1 2995:1 #
0.49999999999988375964932174611022 34:1 2040:1 #
0.49999999999988375964932174611022 34:1 3004:1 #
0.49999999999988375964932174611022 34:1 2825:1 #
0.49999999999988375964932174611022 34:1 3081:1 #
-0.45106028661810670943310697111883 34:1 2825:1 #
-0.00042612508759359846166603347228374 380:1 3939:1 #
0.28354775779705232441330053916317 785:1 2340:1 #
0.49999999999988375964932174611022 533:1 2340:1 #
-0.49999999999988375964932174611022 533:1 2340:1 #
0.49999999999988375964932174611022 474:1 4442:1 #
0.49999999999988375964932174611022 378:1 5297:1 #
0.49999999999988375964932174611022 378:1 4423:1 #
-0.49497452558530630195576804908342 34:1 3004:1 #
-0.17532343285997925574903888445988 34:1 2040:1 #
0.49999999999988375964932174611022 533:1 2340:1 #
0.4783968067290479408981695996772 1558:1 2340:1 #
-0.49999999999988375964932174611022 1558:1 2340:1 #
-0.49999999999988375964932174611022 433:1 4438:1 #
-0.49999999999988375964932174611022 750:1 2995:1 #
-0.49999999999988375964932174611022 135:1 2995:1 #
-0.49999999999988375964932174611022 392:1 2995:1 #
-0.49999999999988375964932174611022 1063:1 2995:1 #
0.49999999999988375964932174611022 1558:1 4483:1 #
0.49999999999988375964932174611022 1558:1 4181:1 #
0.49999999999988375964932174611022 1333:1 3396:1 #
0.49999999999988375964932174611022 924:1 3396:1 #
0.49999999999988375964932174611022 97:1 3396:1 #
-0.35777924430598939675718384023639 1558:1 3396:1 #
-0.0066407688732202929671188940119464 1567:1 4844:1 #
-0.49999999999988375964932174611022 1333:1 3396:1 #
0.49999999999988375964932174611022 533:1 2995:1 #
0.49999999999988375964932174611022 295:1 2995:1 #
0.49999999999988375964932174611022 1769:1 2995:1 #
-0.49999999999988375964932174611022 533:1 2995:1 #
-0.49999999999988375964932174611022 1691:1 2995:1 #
-0.49999999999988375964932174611022 752:1 2995:1 #
-0.49999999999988375964932174611022 583:1 2995:1 #
-0.49999999999988375964932174611022 375:1 4181:1 #
-0.49999999999988375964932174611022 295:1 2340:1 #
-0.49999999999988375964932174611022 295:1 4438:1 #
-0.49999999999988375964932174611022 924:1 2340:1 #
-0.49999999999988375964932174611022 97:1 2340:1 #
0.49999999999988375964932174611022 1063:1 2825:1 #
0.49999999999988375964932174611022 1063:1 3004:1 #
-0.49789364515506878694495185300184 1063:1 3004:1 #
-0.4794294198219718472486761129403 1063:1 2825:1 #
0.37695059883333620343037750899384 1558:1 2340:1 #
-0.49999999999988375964932174611022 1063:1 2340:1 #
-0.49999999999988375964932174611022 34:1 2340:1 #
0.49999999999988375964932174611022 392:1 3356:1 #
0.49999999999988375964932174611022 392:1 4726:1 #
0.49999999999988375964932174611022 392:1 2231:1 #
0.49999999999988375964932174611022 135:1 3834:1 #
-0.40970385491936212041252929338953 1769:1 5123:1 #
-0.029530590578735020634848496001723 1799:1 3942:1 #
-0.49999999999988375964932174611022 1558:1 2825:1 #
-0.49999999999988375964932174611022 135:1 3834:1 #
-0.49999999999988375964932174611022 380:1 3004:1 #
-0.45362906065342134542817120745894 1342:1 3004:1 #
-0.49999999999988375964932174611022 1211:1 3004:1 #
-0.49999999999988375964932174611022 33:1 3004:1 #
-0.49999999999988375964932174611022 1263:1 3004:1 #
0.49999999999988375964932174611022 1063:1 2340:1 #
-0.499115492020856477140000606596 1063:1 2825:1 #
0.49999999999988375964932174611022 1342:1 3004:1 #
0.49999999999988375964932174611022 1551:1 3004:1 #
0.49999999999988375964932174611022 422:1 3004:1 #
-0.49999999999988375964932174611022 422:1 3004:1 #
-0.49999999999988375964932174611022 1342:1 3004:1 #
-0.49999999999988375964932174611022 422:1 3834:1 #
0.49999999999988375964932174611022 1063:1 2825:1 #
0.49999999999988375964932174611022 1263:1 2825:1 #
0.49999999999988375964932174611022 921:1 2825:1 #
-0.49999999999988375964932174611022 1263:1 2825:1 #
-0.47653083652779232304297352129652 612:1 3004:1 #
-0.49999999999988375964932174611022 1010:1 3004:1 #
-0.49959116525839120104279800216318 373:1 3004:1 #
0.49999999999988375964932174611022 703:1 3834:1 #
0.49999999999988375964932174611022 1278:1 3834:1 #
0.49999999999988375964932174611022 1658:1 3834:1 #
0.49999999999988375964932174611022 1672:1 3834:1 #
-0.49999999999988375964932174611022 1658:1 3834:1 #
-0.49999999999988375964932174611022 703:1 3834:1 #
-0.49999999999988375964932174611022 825:1 3834:1 #
0.49999999999988375964932174611022 422:1 3004:1 #
0.49999999999988375964932174611022 1631:1 3004:1 #
-0.0098610422921437956844670225109439 1283:1 2582:1 #
-0.012024752302861096975306054446264 1631:1 2270:1 #
-0.49045631952402535258528359918273 1631:1 2348:1 #
-0.012233669546929171190186025341973 1631:1 5278:1 #
0.49999999999988375964932174611022 1010:1 4624:1 #
0.49999999999988375964932174611022 1484:1 3834:1 #
0.49999999999988375964932174611022 593:1 3834:1 #
-0.49999999999988375964932174611022 403:1 3834:1 #
-0.49999999999988375964932174611022 631:1 3834:1 #
-0.49999999999988375964932174611022 1721:1 3834:1 #
0.49999999999988375964932174611022 1631:1 3004:1 #
-0.0122055216924127837851976607908 955:1 3246:1 #
-0.49999999999988375964932174611022 593:1 2340:1 #
-0.49999999999988375964932174611022 1672:1 2340:1 #
-0.49999999999988375964932174611022 378:1 2340:1 #
-0.33733291252834562978790700071841 378:1 4624:1 #
0.49999999999988375964932174611022 1342:1 3811:1 #
0.49999999999988375964932174611022 380:1 3811:1 #
0.49999999999988375964932174611022 533:1 2348:1 #
0.49999999999988375964932174611022 1063:1 3811:1 #
-0.010180442624921605399013202486458 2:1 2498:1 #
-0.011078765291011150040390020876657 227:1 4032:1 #
0.49999999999988375964932174611022 373:1 2340:1 #
0.49999999999988375964932174611022 612:1 2340:1 #
-0.49999999999988375964932174611022 533:1 2340:1 #
-0.49999999999988375964932174611022 1342:1 2340:1 #
0.49999999999988375964932174611022 593:1 3811:1 #
-0.49999999999988375964932174611022 380:1 2825:1 #
0.49999999999988375964932174611022 1342:1 2340:1 #
-0.49999999999988375964932174611022 1342:1 4726:1 #
-0.011927390640480983741156251198845 162:1 1966:1 #
0.49999999999988375964932174611022 1597:1 2619:1 #
-0.012028491838894695559192271616666 1558:1 2081:1 #
0.49999999999988375964932174611022 1721:1 2340:1 #
0.49999999999988375964932174611022 403:1 2340:1 #
0.41127047901496593951264912902843 1631:1 2340:1 #
-0.49999999999988375964932174611022 380:1 2340:1 #
0.49999999999988375964932174611022 533:1 3811:1 #
0.49999999999988375964932174611022 34:1 3811:1 #
0.49999999999988375964932174611022 767:1 3811:1 #
-0.49999999999988375964932174611022 238:1 2340:1 #
-0.0040937088862728569088611507709174 34:1 5016:1 #
-0.49999999999988375964932174611022 593:1 3811:1 #
-0.49999999999988375964932174611022 767:1 3834:1 #
-0.010126763935932592275435126794036 849:1 4703:1 #
-0.49999999999988375964932174611022 533:1 2340:1 #
0.49999999999988375964932174611022 380:1 2995:1 #
0.48797505303697391587647302912956 380:1 2359:1 #
0.49999999999988375964932174611022 380:1 4624:1 #
-0.49999999999988375964932174611022 380:1 4438:1 #
-0.0099612209609486468409045301086735 1479:1 4629:1 #
-0.49999999999988375964932174611022 295:1 4624:1 #
-0.49999999999988375964932174611022 380:1 4438:1 #
0.49999999999988375964932174611022 767:1 3834:1 #
-0.49999999999988375964932174611022 418:1 3834:1 #
-0.49999999999988375964932174611022 881:1 3834:1 #
0.49999999999988375964932174611022 295:1 4438:1 #
0.49999999999988375964932174611022 97:1 2825:1 #
-0.49999999999988375964932174611022 767:1 4438:1 #
-0.49999999999988375964932174611022 227:1 2359:1 #
0.16433705370428797198911752275308 129:1 3834:1 #
0.42439854932534204490224283290445 80:1 3834:1 #
0.49999999999988375964932174611022 142:1 3834:1 #
0.49999999999988375964932174611022 367:1 3834:1 #
0.49999999999988375964932174611022 674:1 3834:1 #
-0.49999999999988375964932174611022 1592:1 3834:1 #
-0.49999999999988375964932174611022 43:1 3834:1 #
-0.49999999999988375964932174611022 1556:1 3834:1 #
-0.49999999999988375964932174611022 114:1 3834:1 #
0.49999999999988375964932174611022 227:1 2359:1 #
-0.33004854984922149530035540010431 674:1 2825:1 #
-0.49999999999988375964932174611022 915:1 3834:1 #
-0.49999999999988375964932174611022 397:1 3834:1 #
-0.49999999999988375964932174611022 936:1 3834:1 #
-0.49999999999988375964932174611022 1641:1 3834:1 #
0.49999999999988375964932174611022 955:1 4438:1 #
0.49999999999988375964932174611022 1061:1 4438:1 #
0.49999999999988375964932174611022 1145:1 4438:1 #
0.49999999999988375964932174611022 866:1 4438:1 #
-0.49999999999988375964932174611022 955:1 4438:1 #
0.49999999999988375964932174611022 1641:1 3834:1 #
0.49999999999988375964932174611022 397:1 3834:1 #
0.49999999999988375964932174611022 1556:1 3834:1 #
-0.49999999999988375964932174611022 1087:1 2359:1 #
-0.49999999999988375964932174611022 1059:1 2359:1 #
-0.49999999999988375964932174611022 749:1 2359:1 #
-0.49999999999988375964932174611022 227:1 2359:1 #
0.49999999999988375964932174611022 955:1 3004:1 #
0.49999999999988375964932174611022 2:1 3004:1 #
0.49999999999988375964932174611022 1171:1 3004:1 #
0.49999999999988375964932174611022 1335:1 3004:1 #
0.49999999999988375964932174611022 1206:1 3004:1 #
0.49999999999988375964932174611022 749:1 2359:1 #
0.49999999999988375964932174611022 1059:1 2359:1 #
-0.49999999999988375964932174611022 1335:1 4438:1 #
-0.49999999999988375964932174611022 955:1 4438:1 #
0.49999999999988375964932174611022 1063:1 2825:1 #
0.49999999999988375964932174611022 1263:1 2027:1 #
0.49999999999988375964932174611022 1263:1 3958:1 #
0.49999999999988375964932174611022 1263:1 2245:1 #
-0.49999999999988375964932174611022 1145:1 2825:1 #
-0.37342692473101146699576702303602 921:1 2027:1 #
-0.01232277413922262809808927386257 1206:1 4206:1 #
-0.49999999999988375964932174611022 142:1 2231:1 #
0.49999999999988375964932174611022 1473:1 4438:1 #
0.49999999999988375964932174611022 162:1 4438:1 #
0.49999999999988375964932174611022 411:1 4438:1 #
0.49999999999988375964932174611022 46:1 4438:1 #
-0.49999999999988375964932174611022 411:1 4438:1 #
-0.36969224996667282567841539275832 819:1 4438:1 #
-0.40989097235805005414732704593916 108:1 4438:1 #
-0.49999999999988375964932174611022 784:1 4438:1 #
-0.49999999999988375964932174611022 1333:1 4438:1 #
0.49999999999988375964932174611022 955:1 2231:1 #
0.49999999999988375964932174611022 784:1 2231:1 #
0.49999999999988375964932174611022 1335:1 3834:1 #
0.49999999999988375964932174611022 1145:1 3834:1 #
-0.49999999999988375964932174611022 162:1 3834:1 #
-0.49999999999988375964932174611022 955:1 3834:1 #
-0.0024295296238781016739949336624704 533:1 3991:1 #
0.49999999999988375964932174611022 1559:1 4438:1 #
0.49999999999988375964932174611022 1247:1 4438:1 #
0.49999999999988375964932174611022 1546:1 4438:1 #
-0.49999999999988375964932174611022 1209:1 4438:1 #
-0.49999999999988375964932174611022 784:1 4438:1 #
-0.013784625803161865142953956819838 768:1 3249:1 #
-0.013706578693694737580699438694865 768:1 3847:1 #
-0.49974099938737359671847571007675 427:1 2455:1 #
0.49999999999988375964932174611022 955:1 4669:1 #
0.49999999999988375964932174611022 955:1 3138:1 #
0.49999999999988375964932174611022 955:1 2617:1 #
-0.49999999999988375964932174611022 955:1 2617:1 #
-0.40800765249661646860701580408204 1559:1 2617:1 #
-0.49999999999988375964932174611022 1247:1 2617:1 #
-0.33494983038099734873327406603494 955:1 2617:1 #
0.49999999999988375964932174611022 162:1 4438:1 #
0.49999999999988375964932174611022 1229:1 4438:1 #
-0.49999999999988375964932174611022 1229:1 3138:1 #
-0.10454510817243700682155349568347 162:1 4669:1 #
-0.49999999999988375964932174611022 1229:1 4438:1 #
0.49999999999988375964932174611022 1333:1 2617:1 #
0.49999999999988375964932174611022 135:1 2617:1 #
0.49999999999988375964932174611022 33:1 2617:1 #
0.49999999999988375964932174611022 774:1 2617:1 #
0.49999999999988375964932174611022 628:1 2617:1 #
-0.38814958884278366602060827972309 1473:1 2617:1 #
-0.40804761480116324978695274694473 866:1 2617:1 #
-0.49493931668242696630954924330581 1333:1 2617:1 #
-0.14020590087267736922882477301755 237:1 2692:1 #
0.49999999999988375964932174611022 1229:1 3834:1 #
0.49999999999988375964932174611022 1229:1 2825:1 #
0.49999999999988375964932174611022 1229:1 1815:1 #
-0.49999999999988375964932174611022 1229:1 3834:1 #
-0.39833671533785119933668283920269 1229:1 2231:1 #
-0.009994390518908125367603112465531 1342:1 3242:1 #
0.49999999999988375964932174611022 681:1 2617:1 #
0.49999999999988375964932174611022 1031:1 2617:1 #
0.49999999999988375964932174611022 1322:1 2617:1 #
-0.3876555524410036923654843121767 1322:1 2617:1 #
-0.49999999999988375964932174611022 681:1 2825:1 #
-0.010128412014349885694741715269629 1401:1 4346:1 #
0.49999999999988375964932174611022 1229:1 1859:1 #
0.49999999999988375964932174611022 1229:1 4529:1 #
-0.49999999999988375964932174611022 1206:1 4529:1 #
-0.41209117931809657875419361516833 1335:1 1859:1 #
-0.49999999999988375964932174611022 135:1 2340:1 #
0.49999999999988375964932174611022 1505:1 4438:1 #
-0.099932869239816590756220193725312 1111:1 1859:1 #
0.49999999999988375964932174611022 784:1 5123:1 #
0.49999999999988375964932174611022 411:1 2027:1 #
0.49999999999988375964932174611022 1597:1 2027:1 #
0.49999999999988375964932174611022 1156:1 2027:1 #
0.49999999999988375964932174611022 538:1 2027:1 #
-0.47841269296391497611864451755537 1799:1 3428:1 #
0.49999999999988375964932174611022 1206:1 3834:1 #
0.49999999999988375964932174611022 1111:1 4438:1 #
0.0018890717405363561740005984290747 1059:1 2359:1 #
-0.0018526180973240657934297814790625 1799:1 3428:1 #
-0.18588473302906166617631811277533 142:1 3811:1 #
0.49999999999988375964932174611022 1597:1 3138:1 #
0.49999999999988375964932174611022 1335:1 3811:1 #
0.49999999999988375964932174611022 819:1 4976:1 #
0.49999999999988375964932174611022 375:1 3138:1 #
-0.34850639898645052738856975338422 1546:1 3811:1 #
-0.49999999999988375964932174611022 1278:1 3138:1 #
-0.012989853068692547299889383793925 1111:1 3480:1 #
0.49999999999988375964932174611022 1519:1 2027:1 #
-0.012205521692412769907409852976343 955:1 2137:1 #
-0.012151016353675788903010435149099 162:1 4191:1 #
0.49999999999988375964932174611022 1213:1 3811:1 #
0.49999999999988375964932174611022 770:1 3811:1 #
0.20683055552349316474902707341244 1187:1 2340:1 #
-0.0044466840339894425637723429645121 137:1 2492:1 #
-0.39511460317667534969388043464278 1061:1 3811:1 #
0.13854584535888769813993803836638 1729:1 2340:1 #
0.49999999999988375964932174611022 936:1 4570:1 #
0.49999999999988375964932174611022 936:1 3346:1 #
0.49999999999988375964932174611022 1547:1 4923:1 #
-0.42434035868346603459499988275638 1263:1 3346:1 #
-0.39124536366491896588470922324632 367:1 3346:1 #
-0.48495586530844270178874921839451 1484:1 3346:1 #
0.49999999999988375964932174611022 1623:1 4014:1 #
0.49999999999988375964932174611022 1053:1 3811:1 #
0.49999999999988375964932174611022 1068:1 3811:1 #
0.49999999999988375964932174611022 838:1 3811:1 #
0.49999999999988375964932174611022 743:1 3811:1 #
-0.013237042379581934539722887222979 1322:1 1948:1 #
0.49999999999988375964932174611022 1206:1 3346:1 #
0.49999999999988375964932174611022 955:1 3346:1 #
0.49999999999988375964932174611022 681:1 3346:1 #
0.49999999999988375964932174611022 1494:1 3346:1 #
-0.49999999999988375964932174611022 1156:1 2340:1 #
-0.49999999999988375964932174611022 1319:1 2359:1 #
0.099592795611840298497519086140528 782:1 2340:1 #
-0.37499999999991429078249893791508 1433:1 4923:1 #
-0.364562483286309246821588203602 1601:1 4923:1 #
0.49999999999988375964932174611022 606:1 3346:1 #
0.49999999999988375964932174611022 1367:1 3346:1 #
0.49999999999988375964932174611022 723:1 3346:1 #
0.49999999999988375964932174611022 854:1 3346:1 #
0.49999999999988375964932174611022 490:1 3346:1 #
-0.48102888525982773204603404337831 1068:1 3346:1 #
0.49999999999988375964932174611022 108:1 2340:1 #
-0.21031547949445850154148729416193 1741:1 1868:1 #
-0.19561765100065470202039819014317 723:1 3346:1 #
-0.20924147930949604790029638934357 1367:1 3346:1 #
-0.01206758821661269021063844775199 1206:1 1989:1 #
-0.21910953515508513333998052985407 1494:1 3346:1 #
0.49999999999988375964932174611022 1433:1 2825:1 #
0.49999999999988375964932174611022 1335:1 5492:1 #
0.49999999999988375964932174611022 1335:1 5019:1 #
-0.49999999999988375964932174611022 1335:1 2825:1 #
-0.49286426528351268139260810130509 936:1 2825:1 #
-0.49999999999988375964932174611022 1335:1 2359:1 #
0.49999999999988375964932174611022 988:1 3346:1 #
-0.49999999999988375964932174611022 988:1 3346:1 #
-0.012136728731583740908961388527132 162:1 4124:1 #
0.48217802942153659140345212108514 1335:1 2359:1 #
0.49999999999988375964932174611022 227:1 2359:1 #
-0.49999999999988375964932174611022 227:1 2359:1 #
0.49999999999988375964932174611022 784:1 2825:1 #
-0.49980053951705966097662781066902 1031:1 4438:1 #
-0.49999999999988375964932174611022 784:1 2359:1 #
-0.49999999999988375964932174611022 743:1 2340:1 #
-0.38926109615176562872562726624892 365:1 4570:1 #
0.49999999999988375964932174611022 1178:1 3811:1 #
0.49999999999988375964932174611022 1209:1 5317:1 #
-0.012117619424097378355575926889287 162:1 2119:1 #
-0.0018257695292351883153969538398087 1512:1 2191:1 #
0.13138299600610170436709722707747 915:1 2340:1 #
0.12676579296463430512886816359241 1278:1 2340:1 #
0.49099273166177792582232086715521 1558:1 2340:1 #
-0.49999999999988375964932174611022 1178:1 2340:1 #
-0.49999999999988375964932174611022 1213:1 2340:1 #
-0.49999999999988375964932174611022 1433:1 2340:1 #
-0.49999999999988375964932174611022 1209:1 2340:1 #
0.49999999999988375964932174611022 227:1 2359:1 #
-0.4668910587095196351725689964951 1063:1 5317:1 #
-0.49826973858163214892158521251986 628:1 4438:1 #
-0.49999999999988375964932174611022 1558:1 4438:1 #
0.49999999999988375964932174611022 1342:1 3430:1 #
0.49999999999988375964932174611022 1342:1 1811:1 #
0.49999999999988375964932174611022 1342:1 4014:1 #
-0.49999999999988375964932174611022 1342:1 2825:1 #
-0.49999999999988375964932174611022 363:1 1811:1 #
-0.49999999999988375964932174611022 1111:1 1811:1 #
-0.49999999999988375964932174611022 723:1 3430:1 #
0.49999999999988375964932174611022 1484:1 2825:1 #
0.49999999999988375964932174611022 72:1 2825:1 #
0.49999999999988375964932174611022 162:1 2825:1 #
-0.49999999999988375964932174611022 162:1 2825:1 #
-0.19382123966676123583141588824219 1342:1 2825:1 #
0.49999999999988375964932174611022 1333:1 1811:1 #
-0.49999999999988375964932174611022 1333:1 1811:1 #
-0.49999999999988375964932174611022 1333:1 2825:1 #
-0.49999999999988375964932174611022 1333:1 3138:1 #
0.49999999999988375964932174611022 1342:1 2340:1 #
-0.49999999999988375964932174611022 1342:1 2340:1 #
0.49999999999988375964932174611022 1333:1 4617:1 #
0.49999999999988375964932174611022 1333:1 2826:1 #
0.49999999999988375964932174611022 1333:1 5028:1 #
0.49999999999988375964932174611022 1333:1 2153:1 #
-0.013050937749905067164490901632234 72:1 3345:1 #
-0.012125603572900989224336854022113 1484:1 4982:1 #
-0.012014517345736386300103504254366 1484:1 2890:1 #
-0.012014517345736108744347347965231 1484:1 3839:1 #
-0.011894637486126402592390149948187 1484:1 3973:1 #
0.49999999999988375964932174611022 723:1 3834:1 #
0.49999999999988375964932174611022 474:1 2340:1 #
-0.49999999999988375964932174611022 743:1 3834:1 #
-0.49999999999988375964932174611022 1171:1 2340:1 #
0.49999999999988375964932174611022 1484:1 5018:1 #
0.49999999999988375964932174611022 1484:1 2412:1 #
-0.060161816273357704432100945268758 392:1 4630:1 #
-0.012125603572900989224336854022113 1484:1 3238:1 #
-0.0099532549234616490840821256824711 1059:1 3413:1 #
-0.48455419616946637795251717761857 1484:1 2329:1 #
-0.00210875360095136993310305228988 955:1 1873:1 #
0.49999999999988375964932174611022 1211:1 2340:1 #
0.49999999999988375964932174611022 397:1 2340:1 #
-0.49999999999988375964932174611022 397:1 2340:1 #
-0.49999999999988375964932174611022 1335:1 2340:1 #
-0.49999999999988375964932174611022 1333:1 2340:1 #
0.49999999999988375964932174611022 1111:1 3834:1 #
-0.49999999999988375964932174611022 1111:1 3834:1 #
0.31552578896282701403919190852321 1333:1 2340:1 #
-0.48254004899461155897455455487943 1333:1 2412:1 #
-0.49999999999988375964932174611022 1111:1 3834:1 #
0.49999999999988375964932174611022 397:1 3838:1 #
-0.16928038954646806857340379792731 397:1 2617:1 #
-0.49999999999988375964932174611022 1229:1 5018:1 #
0.49999999999988375964932174611022 1333:1 3834:1 #
0.49999999999988375964932174611022 1333:1 4309:1 #
0.49999999999988375964932174611022 1229:1 4529:1 #
0.49999999999988375964932174611022 1229:1 4776:1 #
0.49999999999988375964932174611022 1229:1 4682:1 #
0.49999999999988375964932174611022 1229:1 5468:1 #
0.49999999999988375964932174611022 1229:1 2500:1 #
-0.49999999999988375964932174611022 1229:1 3834:1 #
0.49999999999988375964932174611022 1333:1 2123:1 #
0.49999999999988375964932174611022 1333:1 4844:1 #
0.49999999999988375964932174611022 1333:1 3487:1 #
0.49999999999988375964932174611022 1333:1 4658:1 #
0.49999999999988375964932174611022 1333:1 2340:1 #
-0.49999999999988375964932174611022 770:1 2340:1 #
0.49999999999988375964932174611022 113:1 2825:1 #
0.49999999999988375964932174611022 422:1 2825:1 #
0.49999999999988375964932174611022 1257:1 2825:1 #
0.49999999999988375964932174611022 1305:1 2825:1 #
0.49999999999988375964932174611022 1691:1 2340:1 #
0.49999999999988375964932174611022 752:1 2340:1 #
-0.49999999999988375964932174611022 1305:1 2340:1 #
0.49999999999988375964932174611022 227:1 2359:1 #
0.49499210116745973042640116545954 1558:1 2340:1 #
-0.49999999999988375964932174611022 1558:1 2340:1 #
0.49999999999988375964932174611022 1111:1 3834:1 #
0.49999999999988375964932174611022 1209:1 2995:1 #
-0.49999999999988375964932174611022 1229:1 3834:1 #
0.49999999999988375964932174611022 1558:1 2340:1 #
-0.49999999999988375964932174611022 1558:1 2340:1 #
0.49999999999988375964932174611022 1305:1 3834:1 #
-0.49999999999988375964932174611022 214:1 3834:1 #
0.49999999999988375964932174611022 1558:1 2340:1 #
-0.49999999999988375964932174611022 1558:1 2340:1 #
0.49999999999988375964932174611022 784:1 3463:1 #
0.49999999999988375964932174611022 784:1 3076:1 #
-0.2596359917121541238671511564462 363:1 2617:1 #
0.48603297182493598871388940096949 1558:1 2340:1 #
-0.49999999999988375964932174611022 1305:1 2340:1 #
-0.49999999999988375964932174611022 1558:1 2340:1 #
0.49999999999988375964932174611022 1229:1 2617:1 #
0.49999999999988375964932174611022 1342:1 1811:1 #
-0.39491272653546000137581017952471 540:1 2617:1 #
-0.29094293618209826624010361229011 1587:1 2617:1 #
-0.18479606459760475334341833786311 1145:1 2617:1 #
0.49999999999988375964932174611022 1558:1 2340:1 #
-0.157178299959326445156548857085 1558:1 2412:1 #
-0.49999999999988375964932174611022 1558:1 5018:1 #
0.49999999999988375964932174611022 1335:1 2340:1 #
-0.49999999999988375964932174611022 1335:1 2340:1 #
-0.49999999999988375964932174611022 1342:1 2340:1 #
0.49999999999988375964932174611022 1597:1 2520:1 #
0.49999999999988375964932174611022 1342:1 4181:1 #
-0.49999999999988375964932174611022 784:1 3834:1 #
0.31677078296526961498358332391945 1335:1 2340:1 #
0.49999999999988375964932174611022 1343:1 3346:1 #
0.49999999999988375964932174611022 1760:1 3346:1 #
0.49999999999988375964932174611022 1566:1 3346:1 #
0.49999999999988375964932174611022 1729:1 3346:1 #
0.49999999999988375964932174611022 587:1 3346:1 #
0.49999999999988375964932174611022 397:1 2340:1 #
0.49999999999988375964932174611022 1111:1 3834:1 #
-0.030798302891301643224863937575719 324:1 2308:1 #
0.42733568945441219311121017199184 784:1 2340:1 #
0.49999999999988375964932174611022 955:1 2617:1 #
0.49999999999988375964932174611022 1229:1 2617:1 #
0.49999999999988375964932174611022 1558:1 2340:1 #
0.49999999999988375964932174611022 514:1 3834:1 #
0.24813350452681126601106598172919 507:1 3834:1 #
-0.49999999999988375964932174611022 1304:1 3834:1 #
-0.49999999999988375964932174611022 918:1 3834:1 #
-0.49999999999988375964932174611022 1496:1 3834:1 #
-0.49999999999988375964932174611022 1798:1 3834:1 #
-0.49999999999988375964932174611022 559:1 3834:1 #
0.49999999999988375964932174611022 784:1 2340:1 #
-0.49999999999988375964932174611022 1552:1 3834:1 #
-0.49999999999988375964932174611022 1695:1 3834:1 #
-0.49999999999988375964932174611022 1472:1 3834:1 #
-0.49999999999988375964932174611022 642:1 3834:1 #
-0.49999999999988375964932174611022 689:1 3834:1 #
0.49999999999988375964932174611022 1114:1 3346:1 #
0.49999999999988375964932174611022 329:1 3346:1 #
0.49999999999988375964932174611022 795:1 3346:1 #
0.49999999999988375964932174611022 1494:1 3346:1 #
0.49999999999988375964932174611022 1304:1 3834:1 #
0.24810868322742907210454177402426 398:1 3834:1 #
0.49999999999988375964932174611022 127:1 3834:1 #
0.49999999999988375964932174611022 998:1 3834:1 #
0.49999999999988375964932174611022 260:1 3834:1 #
-0.49999999999988375964932174611022 1068:1 3834:1 #
-0.49999999999988375964932174611022 104:1 3834:1 #
-0.49999999999988375964932174611022 985:1 3834:1 #
-0.49999999999988375964932174611022 849:1 3834:1 #
0.49999999999988375964932174611022 533:1 2536:1 #
0.49999999999988375964932174611022 1401:1 3834:1 #
0.49999999999988375964932174611022 877:1 3834:1 #
-0.030710340953745293712806585517683 324:1 2863:1 #
0.49999999999988375964932174611022 1162:1 3834:1 #
0.49999999999988375964932174611022 1578:1 3834:1 #
0.49999999999988375964932174611022 986:1 3834:1 #
0.16405472895952058487445412993111 1123:1 3834:1 #
-0.49999999999988375964932174611022 1560:1 3834:1 #
0.49999999999988375964932174611022 1074:1 3834:1 #
0.33749444618067747647671694721794 755:1 3834:1 #
0.16422237317120658151026191262645 278:1 3834:1 #
0.49999999999988375964932174611022 417:1 3834:1 #
0.49999999999988375964932174611022 17:1 3834:1 #
0.49999999999988375964932174611022 1648:1 4624:1 #
0.49999999999988375964932174611022 1209:1 5317:1 #
0.49999999999988375964932174611022 768:1 4624:1 #
0.49999999999988375964932174611022 1209:1 4470:1 #
0.49999999999988375964932174611022 729:1 4624:1 #
0.49999999999988375964932174611022 932:1 3834:1 #
0.16405472895952058487445412993111 1408:1 3834:1 #
-0.031026927982435590497312105640049 324:1 4092:1 #
0.49999999999988375964932174611022 765:1 3834:1 #
0.49999999999988375964932174611022 1032:1 3834:1 #
0.49999999999988375964932174611022 1558:1 2340:1 #
0.49999999999988375964932174611022 592:1 3834:1 #
0.49559794826524972144454750377918 915:1 2359:1 #
0.49999999999988375964932174611022 955:1 4816:1 #
0.49999999999988375964932174611022 955:1 3800:1 #
0.49999999999988375964932174611022 1342:1 1811:1 #
0.49999999999988375964932174611022 1342:1 3939:1 #
0.49999999999988375964932174611022 1342:1 4082:1 #
0.49999999999988375964932174611022 1342:1 2275:1 #
-0.49999999999988375964932174611022 1597:1 2340:1 #
-0.49999999999988375964932174611022 955:1 2340:1 #
0.49999999999988375964932174611022 380:1 2995:1 #
0.49999999999988375964932174611022 689:1 2995:1 #
0.49999999999988375964932174611022 1601:1 4438:1 #
0.49999999999988375964932174611022 593:1 4438:1 #
0.49999999999988375964932174611022 208:1 4438:1 #
0.49999999999988375964932174611022 411:1 4438:1 #
-0.49572768296110325536574237048626 1229:1 3346:1 #
-0.46467099340977413568509746255586 1209:1 3346:1 #
0.49999999999988375964932174611022 936:1 4923:1 #
0.49999999999988375964932174611022 246:1 2617:1 #
0.49999999999988375964932174611022 510:1 2617:1 #
0.49999999999988375964932174611022 739:1 2617:1 #
0.49999999999988375964932174611022 917:1 2617:1 #
-0.49999999999988375964932174611022 936:1 4423:1 #
-0.49999999999988375964932174611022 227:1 2359:1 #
0.49999999999988375964932174611022 1229:1 3834:1 #
0.49999999999988375964932174611022 1746:1 5018:1 #
0.49999999999988375964932174611022 1720:1 2412:1 #
0.49999999999988375964932174611022 1367:1 2412:1 #
-0.49999999999988375964932174611022 1342:1 2825:1 #
-0.49999999999988375964932174611022 1342:1 4014:1 #
0.49999999999988375964932174611022 642:1 3603:1 #
0.49999999999988375964932174611022 1063:1 4499:1 #
0.49999999999988375964932174611022 1063:1 4033:1 #
0.49999999999988375964932174611022 1063:1 4483:1 #
-0.36803232215894343681839018245228 986:1 2617:1 #
-0.47637836773184544236769966119027 1578:1 2617:1 #
-0.40949670845849539535521444122423 46:1 2500:1 #
-0.49999999999988375964932174611022 1401:1 3838:1 #
-0.080163920308847225193460417358438 1551:1 4470:1 #
0.49999999999988375964932174611022 1342:1 2340:1 #
0.49999999999988375964932174611022 549:1 3568:1 #
0.49999999999988375964932174611022 689:1 2329:1 #
0.49999999999988375964932174611022 1111:1 4438:1 #
-0.49999999999988375964932174611022 1111:1 2340:1 #
-0.49999999999988375964932174611022 1111:1 3004:1 #
-0.4077595376103755331342881618184 1032:1 3603:1 #
0.49999999999988375964932174611022 1068:1 1811:1 #
0.49999999999988375964932174611022 1187:1 2617:1 #
0.49999999999988375964932174611022 1079:1 2617:1 #
0.49999999999988375964932174611022 893:1 2617:1 #
-0.36227220394681014514759453959414 533:1 1811:1 #
-0.49999999999988375964932174611022 422:1 1811:1 #
-0.49644733454296718910825347848004 1342:1 1811:1 #
0.49999999999988375964932174611022 1111:1 2995:1 #
0.49999999999988375964932174611022 1111:1 4438:1 #
-0.49999999999988375964932174611022 955:1 4438:1 #
-0.029943646687528718830506591075391 1799:1 3469:1 #
-0.49999999999988375964932174611022 417:1 2617:1 #
-0.49999999999988375964932174611022 1333:1 2617:1 #
-0.00304332989265609921147870409186 1089:1 4789:1 #
-0.35199888662708933573242120473878 260:1 4844:1 #
-0.49999999999988375964932174611022 375:1 2329:1 #
-0.40254623935752120722497693350306 774:1 3453:1 #
-0.10474065303540343319088634643776 1589:1 2602:1 #
0.49999999999988375964932174611022 1063:1 4855:1 #
-0.49956334405681307453406247987004 1206:1 3346:1 #
-0.4757218709920144061875646457338 587:1 3346:1 #
0.49999999999988375964932174611022 380:1 4295:1 #
-0.49999999999988375964932174611022 1746:1 2340:1 #
-0.49999999999988375964932174611022 1063:1 2340:1 #
-0.11748136728210067936117866338464 1335:1 4855:1 #
-0.49364358830159715818552967903088 1063:1 3939:1 #
-0.49999999999988375964932174611022 329:1 3346:1 #
-0.4922734505926856241053712892608 1494:1 3346:1 #
0.22372594837033421555361201171763 1597:1 2340:1 #
-0.35590229186227517743645876180381 1342:1 5317:1 #
-0.49999999999988375964932174611022 1342:1 2340:1 #
0.49999999999988375964932174611022 93:1 2995:1 #
0.49999999999988375964932174611022 304:1 2995:1 #
0.49999999999988375964932174611022 1528:1 2995:1 #
0.49999999999988375964932174611022 1309:1 2995:1 #
0.49999999999988375964932174611022 903:1 2995:1 #
-0.49999999999988375964932174611022 1229:1 2995:1 #
0.00014034388988859447522372647654265 1342:1 2340:1 #
-0.49667858977961371058640338560508 1342:1 4181:1 #
0.49999999999988375964932174611022 1062:1 2995:1 #
0.49999999999988375964932174611022 416:1 2995:1 #
0.49999999999988375964932174611022 1150:1 2995:1 #
-0.10345004243360840512355736109384 1333:1 2275:1 #
-0.012050909058886184396786056538531 1209:1 4586:1 #
0.49999999999988375964932174611022 643:1 4438:1 #
-0.49999999999988375964932174611022 784:1 4776:1 #
-0.49999999999988375964932174611022 510:1 4776:1 #
-0.49999999999988375964932174611022 422:1 4682:1 #
0.49999999999988375964932174611022 260:1 4438:1 #
-0.49999999999988375964932174611022 1597:1 2340:1 #
-0.49999999999988375964932174611022 1263:1 2340:1 #
-0.49999999999988375964932174611022 1063:1 2825:1 #
-0.49999999999988375964932174611022 955:1 4438:1 #
-0.49999999999988375964932174611022 681:1 4483:1 #
-0.30644306760026207570035694516264 260:1 3346:1 #
-0.46771781611306773029923533613328 397:1 3346:1 #
0.49999999999988375964932174611022 422:1 4438:1 #
-0.49999999999988375964932174611022 1229:1 4438:1 #
-0.49999999999988375964932174611022 1333:1 3346:1 #
0.49999999999988375964932174611022 290:1 4438:1 #
-0.49999999999988375964932174611022 1342:1 3800:1 #
-0.49999999999988375964932174611022 1150:1 4033:1 #
-0.41856505825295264866525712932344 549:1 2825:1 #
-0.013202220703756928354977162598516 723:1 3833:1 #
-0.49999999999988375964932174611022 1257:1 4181:1 #
-0.1174310295837216189251961395712 1333:1 2153:1 #
-0.012151016353675755943264391589764 162:1 4645:1 #
0.49999999999988375964932174611022 380:1 4181:1 #
0.49999999999988375964932174611022 667:1 2617:1 #
-0.052404883165283161483571916505753 1206:1 3487:1 #
-0.45987509221578387608175830791879 422:1 3487:1 #
-0.40028811568612820970258781017037 1343:1 3377:1 #
-0.49999999999988375964932174611022 1799:1 3428:1 #
-0.40758041701590108640829157593544 1114:1 4669:1 #
-0.0098699485834572945469611582325342 1479:1 5440:1 #
-0.36232508626403270302063219787669 1111:1 4624:1 #
-0.091605570304694003413992220430373 1333:1 4624:1 #
0.49999999999988375964932174611022 422:1 4438:1 #
0.49999999999988375964932174611022 1088:1 4438:1 #
0.49999999999988375964932174611022 1300:1 4438:1 #
-0.49999999999988375964932174611022 955:1 4438:1 #
-0.49999999999988375964932174611022 1229:1 4438:1 #
0.49999999999988375964932174611022 262:1 2617:1 #
-0.49999999999988375964932174611022 716:1 2340:1 #
-0.40297435588800234462780736066634 304:1 4658:1 #
0.49999999999988375964932174611022 1111:1 4438:1 #
-0.49999999999988375964932174611022 1111:1 4181:1 #
-0.49499524027897451317059562825307 1063:1 4181:1 #
-0.49999999999988375964932174611022 397:1 4181:1 #
-0.014078806036176956528738202223394 768:1 3047:1 #
-0.014078806036176949589844298316166 768:1 2574:1 #
0.49999999999988375964932174611022 1499:1 2617:1 #
0.49999999999988375964932174611022 1432:1 2617:1 #
0.49999999999988375964932174611022 889:1 2617:1 #
0.49999999999988375964932174611022 505:1 2617:1 #
0.49999999999988375964932174611022 611:1 2617:1 #
0.090464954055994611925584081291163 1575:1 2340:1 #
-0.32707995632877134850602374172013 417:1 2617:1 #
-0.49999999999988375964932174611022 1556:1 3834:1 #
-0.39312998807122967459548590341001 380:1 3346:1 #
-0.07068317414569427747927932159655 1280:1 3958:1 #
-0.012157646496590382781399775069531 915:1 5111:1 #
-0.01188125272943296728556106245378 915:1 2923:1 #
-0.012157646496590382781399775069531 915:1 4322:1 #
-0.47417828709855214253110489153187 270:1 4816:1 #
0.49999999999988375964932174611022 1401:1 3834:1 #
-0.39515224651274294398461961463909 1720:1 3346:1 #
-0.20276233925150421999461514133145 1333:1 3346:1 #
0.49999999999988375964932174611022 1482:1 2617:1 #
0.49999999999988375964932174611022 64:1 2617:1 #
0.49999999999988375964932174611022 1653:1 2617:1 #
0.49999999999988375964932174611022 1062:1 2617:1 #
-0.0060126280633617384951961071237747 433:1 2617:1 #
-0.49999999999988375964932174611022 1342:1 2995:1 #
0.49999999999988375964932174611022 1802:1 4438:1 #
0.49999999999988375964932174611022 433:1 4438:1 #
-0.49516910629357185902321702997142 260:1 2412:1 #
-0.49999999999988375964932174611022 797:1 4617:1 #
-0.2474098500122471344653263258806 1229:1 2617:1 #
0.49999999999988375964932174611022 1206:1 2995:1 #
0.49999999999988375964932174611022 790:1 2995:1 #
0.49999999999988375964932174611022 1659:1 2995:1 #
0.49999999999988375964932174611022 34:1 2995:1 #
0.49999999999988375964932174611022 681:1 2995:1 #
-0.49999999999988375964932174611022 34:1 5019:1 #
-0.40065234701454260912711902165029 1760:1 3081:1 #
-0.010008873167807630366610283090267 849:1 2880:1 #
0.49999999999988375964932174611022 689:1 4617:1 #
0.49999999999988375964932174611022 1016:1 4438:1 #
0.49999999999988375964932174611022 1635:1 4438:1 #
-0.49999999999988375964932174611022 1660:1 2340:1 #
-0.49716261885677776044545339573233 1063:1 1811:1 #
-0.047527520110793267105186998833233 1648:1 3296:1 #
-0.047527520110793267105186998833233 1648:1 2824:1 #
-0.49949354052526240277387614696636 784:1 4483:1 #
-0.47408991795358368381840818983619 1723:1 4529:1 #
-0.49999999999988375964932174611022 324:1 5123:1 #
-0.21014249816955665739470759945107 729:1 4035:1 #
-0.49999999999988375964932174611022 324:1 5297:1 #
-0.060400574050289604355334915908315 392:1 3825:1 #
0.49999999999988375964932174611022 1401:1 3834:1 #
0.49999999999988375964932174611022 329:1 3834:1 #
0.49999999999988375964932174611022 912:1 4438:1 #
0.49999999999988375964932174611022 354:1 4438:1 #
-0.017374093647036570331465554772876 127:1 3152:1 #
-0.017315987754190409475540946004912 127:1 3853:1 #
-0.017022668799650420012881113507319 127:1 4484:1 #
-0.083925079147371017818102245655609 398:1 3010:1 #
-0.026097573533205631335363250400405 998:1 2932:1 #
-0.49999999999988375964932174611022 1229:1 2617:1 #
0.49999999999988375964932174611022 1322:1 4438:1 #
0.49999999999988375964932174611022 162:1 4438:1 #
-0.49999999999988375964932174611022 1367:1 4438:1 #
-0.49094528297396444749267629958922 1187:1 4438:1 #
-0.37086275792851486343693068192806 1079:1 4438:1 #
0.38298888395912789039954304826097 1209:1 2340:1 #
-0.49999999999988375964932174611022 64:1 2995:1 #
-0.49999999999988375964932174611022 1333:1 2995:1 #
-0.49999999999988375964932174611022 1079:1 2995:1 #
-0.49999999999988375964932174611022 1333:1 4438:1 #
0.49999999999988375964932174611022 1342:1 4181:1 #
0.49999999999988375964932174611022 260:1 4483:1 #
0.49999999999988375964932174611022 955:1 3396:1 #
0.49999999999988375964932174611022 955:1 2500:1 #
0.49999999999988375964932174611022 955:1 2269:1 #
-0.043019698672276174278295002295636 689:1 2617:1 #
0.36101169912256025895658240187913 1333:1 2359:1 #
-0.49999999999988375964932174611022 955:1 4438:1 #
-0.49999999999988375964932174611022 260:1 4438:1 #
-0.49999999999988375964932174611022 1367:1 4438:1 #
0.49999999999988375964932174611022 559:1 3838:1 #
0.49999999999988375964932174611022 797:1 3408:1 #
0.49999999999988375964932174611022 681:1 3346:1 #
0.49999999999988375964932174611022 324:1 5123:1 #
-0.49999999999988375964932174611022 1234:1 3834:1 #
-0.49999999999988375964932174611022 135:1 3834:1 #
-0.49999999999988375964932174611022 1063:1 4499:1 #
-0.0098815702652587100729419944400433 468:1 5072:1 #
0.49999999999988375964932174611022 511:1 4438:1 #
0.49999999999988375964932174611022 1195:1 4438:1 #
0.49999999999988375964932174611022 1269:1 4438:1 #
-0.49999999999988375964932174611022 681:1 4438:1 #
0.49999999999988375964932174611022 135:1 2340:1 #
-0.49999999999988375964932174611022 689:1 2340:1 #
-0.35015923904890433604464305972215 1401:1 4438:1 #
0.49999999999988375964932174611022 1063:1 2825:1 #
0.49999999999988375964932174611022 260:1 2617:1 #
0.49999999999988375964932174611022 587:1 3081:1 #
-0.18708666311144186988890680822806 1269:1 2617:1 #
-0.46017842700797084720676366487169 1659:1 2520:1 #
-0.065134802750575815366573806386441 1597:1 3568:1 #
-0.49999999999988375964932174611022 433:1 2617:1 #
0.28065456759732343439139867768972 1229:1 2340:1 #
0.44636794728873424586979012929078 417:1 2340:1 #
0.49999999999988375964932174611022 849:1 2340:1 #
-0.49999999999988375964932174611022 689:1 2340:1 #
0.49999999999988375964932174611022 988:1 1811:1 #
0.49999999999988375964932174611022 1779:1 3453:1 #
0.49999999999988375964932174611022 1239:1 3453:1 #
-0.49999999999988375964932174611022 681:1 2995:1 #
-0.49999999999988375964932174611022 533:1 2995:1 #
-0.49999999999988375964932174611022 1558:1 2995:1 #
-0.49999999999988375964932174611022 339:1 2995:1 #
-0.49999999999988375964932174611022 521:1 2995:1 #
0.49999999999988375964932174611022 1342:1 4014:1 #
-0.33813350910101847013322640123079 784:1 4483:1 #
0.49999999999988375964932174611022 1367:1 5026:1 #
0.49999999999988375964932174611022 1367:1 3891:1 #
-0.49999999999988375964932174611022 681:1 4438:1 #
0.49999999999988375964932174611022 1119:1 4483:1 #
0.49999999999988375964932174611022 723:1 4483:1 #
0.49999999999988375964932174611022 1171:1 4483:1 #
0.49999999999988375964932174611022 1715:1 4483:1 #
0.49999999999988375964932174611022 34:1 4483:1 #
-0.49999999999988375964932174611022 784:1 4483:1 #
-0.0097161166235780836025748286033377 34:1 5019:1 #
-0.016163440436281369810833652422843 1062:1 1865:1 #
-0.42577309384417960647084555603215 1062:1 3595:1 #
0.49999999999988375964932174611022 44:1 4438:1 #
0.49999999999988375964932174611022 364:1 4438:1 #
0.49999999999988375964932174611022 1082:1 4438:1 #
0.49999999999988375964932174611022 1133:1 4438:1 #
-0.49999999999988375964932174611022 44:1 4438:1 #
-0.49999999999988375964932174611022 611:1 4438:1 #
-0.39979091690424667371317468678171 1432:1 4438:1 #
-0.45681720963087246722977852186887 889:1 4438:1 #
-0.39985774685891040114427141816122 505:1 4438:1 #
0.49999999999988375964932174611022 784:1 2825:1 #
-0.35985436322998820557472754444461 514:1 4438:1 #
-0.39963877585461771158037436180166 893:1 4438:1 #
-0.49999999999988375964932174611022 260:1 4438:1 #
0.49999999999988375964932174611022 681:1 4243:1 #
0.49999999999988375964932174611022 681:1 4819:1 #
-0.49999999999988375964932174611022 79:1 2995:1 #
-0.3845872661285892890603577143338 1619:1 2995:1 #
-0.49999999999988375964932174611022 943:1 2995:1 #
-0.49999999999988375964932174611022 2:1 2995:1 #
-0.49999999999988375964932174611022 694:1 2995:1 #
0.49999999999988375964932174611022 360:1 4438:1 #
-0.49999999999988375964932174611022 208:1 4438:1 #
-0.49999999999988375964932174611022 93:1 4438:1 #
0.49999999999988375964932174611022 1062:1 2995:1 #
-0.016254000368746579496814774756785 1062:1 4443:1 #
-0.016163440436281373280280604376458 1062:1 4601:1 #
-0.011978100658626367192027828423306 1206:1 3484:1 #
-0.016163440436281810430596550531845 1062:1 3567:1 #
-0.016053219158905673857873352972092 1062:1 2378:1 #
0.49999999999988375964932174611022 295:1 4438:1 #
0.49999999999988375964932174611022 1111:1 4438:1 #
0.49999999999988375964932174611022 1799:1 4014:1 #
-0.47298345618280435154190399771323 1039:1 4529:1 #
-0.40788055110460469387945181551913 360:1 2617:1 #
0.49999999999988375964932174611022 1342:1 2340:1 #
0.38676061462837629800759486897732 1063:1 2340:1 #
0.49999999999988375964932174611022 533:1 2340:1 #
0.49999999999988375964932174611022 422:1 3138:1 #
-0.49999999999988375964932174611022 681:1 4438:1 #
-0.49999999999988375964932174611022 1111:1 4438:1 #
0.49999999999988375964932174611022 1062:1 1811:1 #
0.49999999999988375964932174611022 260:1 2617:1 #
0.49999999999988375964932174611022 93:1 3595:1 #
-0.49999999999988375964932174611022 295:1 2617:1 #
0.49999999999988375964932174611022 1111:1 4438:1 #
-0.49999999999988375964932174611022 1111:1 4438:1 #
0.49999999999988375964932174611022 2:1 4214:1 #
-0.40804237414573707454223949753214 354:1 2617:1 #
-0.39515201549609335618384875488118 1082:1 2617:1 #
-0.40807543233756060629957573837601 1088:1 2617:1 #
-0.38152594657787652909775033549522 1300:1 2617:1 #
-0.49999999999988375964932174611022 1499:1 2617:1 #
0.49999999999988375964932174611022 1111:1 4438:1 #
0.49999999999988375964932174611022 422:1 4438:1 #
-0.49999999999988375964932174611022 422:1 4438:1 #
-0.49999999999988375964932174611022 1111:1 4438:1 #
-0.22616402853851513832239561452297 611:1 2617:1 #
0.49999999999988375964932174611022 1111:1 4438:1 #
-0.49999999999988375964932174611022 290:1 4438:1 #
-0.49999999999988375964932174611022 1111:1 4438:1 #
0.49999999999988375964932174611022 1499:1 4380:1 #
-0.49999999999988375964932174611022 260:1 4438:1 #
-0.49999999999988375964932174611022 1367:1 4438:1 #
0.49999999999988375964932174611022 179:1 4082:1 #
0.49999999999988375964932174611022 1520:1 4082:1 #
0.49999999999988375964932174611022 1111:1 4181:1 #
0.49999999999988375964932174611022 1153:1 4776:1 #
0.49999999999988375964932174611022 1589:1 4776:1 #
-0.49999999999988375964932174611022 1229:1 4776:1 #
0.49999999999988375964932174611022 290:1 4438:1 #
-0.41141741592526237525362375890836 290:1 2617:1 #
-0.49999999999988375964932174611022 1332:1 2995:1 #
0.49999999999988375964932174611022 44:1 4438:1 #
-0.49999999999988375964932174611022 1322:1 4438:1 #
-0.49999999999988375964932174611022 643:1 4438:1 #
-0.49999999999988375964932174611022 1111:1 4438:1 #
0.49999999999988375964932174611022 260:1 4624:1 #
-0.38405824820741485403630122164031 1093:1 2995:1 #
-0.38457853399361696666858279058943 1094:1 2995:1 #
-0.49999999999988375964932174611022 1513:1 2995:1 #
-0.49999999999988375964932174611022 1263:1 2995:1 #
-0.38350653635054654522207329137018 1080:1 2995:1 #
0.49999999999988375964932174611022 1111:1 4438:1 #
0.49999999999988375964932174611022 290:1 4438:1 #
-0.49999999999988375964932174611022 1111:1 4438:1 #
-0.49999999999988375964932174611022 93:1 4438:1 #
-0.012070580365437511005666237906553 1729:1 3423:1 #
-0.0099574633262621836671257824491477 1187:1 3179:1 #
-0.01178273556188276852130236704852 1729:1 3456:1 #
0.49999999999988375964932174611022 1322:1 4438:1 #
0.49999999999988375964932174611022 1039:1 3430:1 #
0.49999999999988375964932174611022 1111:1 4438:1 #
0.49999999999988375964932174611022 1263:1 3939:1 #
0.49999999999988375964932174611022 312:1 3377:1 #
0.49999999999988375964932174611022 434:1 2329:1 #
0.49999999999988375964932174611022 681:1 4181:1 #
0.49999999999988375964932174611022 1187:1 4529:1 #
-0.49999999999988375964932174611022 1062:1 3939:1 #
-0.14008168025134193346303845828515 1655:1 1918:1 #
-0.49999999999988375964932174611022 312:1 4438:1 #
0.49999999999988375964932174611022 324:1 4064:1 #
0.49999999999988375964932174611022 324:1 3385:1 #
0.49999999999988375964932174611022 34:1 3778:1 #
0.49999999999988375964932174611022 34:1 3804:1 #
0.49999999999988375964932174611022 34:1 2040:1 #
-0.49999999999988375964932174611022 955:1 4920:1 #
-0.060118514100377606901304261555197 392:1 4919:1 #
-0.059965751635186914647590583626879 392:1 3162:1 #
-0.060011606977573572763162701448891 392:1 2117:1 #
-0.059708176072414631541107610246399 392:1 2095:1 #
0.49999999999988375964932174611022 312:1 4150:1 #
-0.46983640330337028689910994216916 34:1 4438:1 #
-0.49999999999988375964932174611022 1187:1 4438:1 #
0.49999999999988375964932174611022 768:1 3234:1 #
0.49999999999988375964932174611022 1063:1 4423:1 #
0.49999999999988375964932174611022 49:1 4181:1 #
0.49999999999988375964932174611022 1059:1 2359:1 #
-0.0083807968461315496266905711308937 1558:1 2364:1 #
0.49999999999988375964932174611022 433:1 4438:1 #
-0.49847565331206528105312258958293 49:1 4438:1 #
-0.49999999999988375964932174611022 422:1 4438:1 #
0.49999999999988375964932174611022 427:1 4181:1 #
0.49999999999988375964932174611022 201:1 4181:1 #
0.49999999999988375964932174611022 422:1 2022:1 #
0.49999999999988375964932174611022 422:1 4907:1 #
0.12595091712013517515345029096352 422:1 2340:1 #
0.49999999999988375964932174611022 422:1 1866:1 #
0.49999999999988375964932174611022 871:1 4776:1 #
0.49999999999988375964932174611022 92:1 4776:1 #
0.49999999999988375964932174611022 832:1 4776:1 #
0.49999999999988375964932174611022 1586:1 4776:1 #
0.49999999999988375964932174611022 1229:1 2500:1 #
0.49999999999988375964932174611022 739:1 4438:1 #
0.49999999999988375964932174611022 290:1 4438:1 #
0.49999999999988375964932174611022 162:1 4438:1 #
0.49999999999988375964932174611022 839:1 2453:1 #
0.49999999999988375964932174611022 1424:1 3025:1 #
0.49999999999988375964932174611022 1799:1 3428:1 #
0.49999999999988375964932174611022 606:1 4574:1 #
0.49999999999988375964932174611022 1111:1 2372:1 #
0.49999999999988375964932174611022 489:1 4906:1 #
0.49999999999988375964932174611022 665:1 5271:1 #
0.49999999999988375964932174611022 241:1 2908:1 #
0.49999999999988375964932174611022 1250:1 2615:1 #
0.49999999999988375964932174611022 1479:1 4964:1 #
0.49999999999988375964932174611022 767:1 3119:1 #
0.49999999999988375964932174611022 1603:1 3453:1 #
0.49999999999988375964932174611022 840:1 3453:1 #
0.49999999999988375964932174611022 920:1 3453:1 #
0.49999999999988375964932174611022 1766:1 3453:1 #
0.49999999999988375964932174611022 33:1 2115:1 #
-0.49999999999988375964932174611022 162:1 2340:1 #
-0.49999999999988375964932174611022 422:1 2340:1 #
0.49999999999988375964932174611022 1333:1 2995:1 #
0.49999999999988375964932174611022 1062:1 5443:1 #
0.49999999999988375964932174611022 1062:1 5085:1 #
0.49999999999988375964932174611022 1062:1 3119:1 #
0.49999999999988375964932174611022 1597:1 2995:1 #
-0.49999999999988375964932174611022 903:1 4181:1 #
-0.11447214510522618624577262380626 1479:1 4438:1 #
-0.49868418033539574363288693348295 33:1 4181:1 #
-0.49999999999988375964932174611022 739:1 3396:1 #
-0.36813406116958957703388932714006 434:1 2825:1 #
-0.49999999999988375964932174611022 162:1 2340:1 #
-0.49999999999988375964932174611022 411:1 2340:1 #
-0.49999999999988375964932174611022 587:1 2340:1 #
-0.49999999999988375964932174611022 877:1 2340:1 #
-0.49999999999988375964932174611022 1063:1 2340:1 #
0.49999999999988375964932174611022 784:1 2825:1 #
0.49999999999988375964932174611022 1080:1 2825:1 #
-0.49999999999988375964932174611022 17:1 2825:1 #
-0.49999999999988375964932174611022 723:1 2825:1 #
-0.49999999999988375964932174611022 1206:1 2825:1 #
0.49999999999988375964932174611022 1021:1 3396:1 #
0.49999999999988375964932174611022 93:1 3396:1 #
0.49999999999988375964932174611022 1312:1 3396:1 #
0.49999999999988375964932174611022 1150:1 3396:1 #
-0.34484292150205198002055340111838 1482:1 3396:1 #
-0.24303887829761072758572026941692 93:1 3396:1 #
-0.37825016483972800918067491693364 1150:1 3396:1 #
0.49999999999988375964932174611022 805:1 2825:1 #
0.49999999999988375964932174611022 1305:1 2825:1 #
0.49999999999988375964932174611022 523:1 2825:1 #
0.49999999999988375964932174611022 1763:1 2825:1 #
0.49999999999988375964932174611022 703:1 2825:1 #
-0.49999999999988375964932174611022 427:1 2825:1 #
-0.49999999999988375964932174611022 1342:1 2825:1 #
-0.49999999999988375964932174611022 162:1 2825:1 #
0.49999999999988375964932174611022 158:1 3396:1 #
0.49999999999988375964932174611022 538:1 3396:1 #
0.49999999999988375964932174611022 902:1 3396:1 #
-0.27074218785554060584530589039787 902:1 3396:1 #
-0.39455317400078088185821911793028 903:1 3396:1 #
-0.21053995587262630539981955735129 511:1 2192:1 #
-0.49999999999988375964932174611022 681:1 3396:1 #
0.49999999999988375964932174611022 784:1 2825:1 #
0.49999999999988375964932174611022 1466:1 2825:1 #
0.49999999999988375964932174611022 82:1 2825:1 #
0.49999999999988375964932174611022 1230:1 2825:1 #
-0.49999999999988375964932174611022 587:1 2825:1 #
-0.49999999999988375964932174611022 1063:1 2825:1 #
0.49999999999988375964932174611022 1338:1 3396:1 #
0.49999999999988375964932174611022 162:1 4438:1 #
-0.49999999999988375964932174611022 1230:1 3453:1 #
-0.49999999999988375964932174611022 523:1 3453:1 #
-0.49999999999988375964932174611022 805:1 3453:1 #
-0.45957353703380654508237057598308 1305:1 2500:1 #
-0.49999999999988375964932174611022 1528:1 4014:1 #
0.49999999999988375964932174611022 587:1 1868:1 #
0.49999999999988375964932174611022 587:1 2692:1 #
0.49999999999988375964932174611022 427:1 4905:1 #
0.49999999999988375964932174611022 427:1 3624:1 #
-0.0077297157541913463774108095094562 1499:1 3382:1 #
-0.0082764680749742788878897670201695 1403:1 3505:1 #
-0.49999999999988375964932174611022 587:1 3838:1 #
-0.48319253466877648550692470053036 427:1 4483:1 #
0.49999999999988375964932174611022 1206:1 1890:1 #
0.49999999999988375964932174611022 1206:1 2413:1 #
0.49999999999988375964932174611022 1206:1 2465:1 #
0.49999999999988375964932174611022 681:1 5270:1 #
0.00019238147912103986669762889505364 1059:1 2359:1 #
-0.49999999999988375964932174611022 1206:1 2040:1 #
-0.49999999999988375964932174611022 1206:1 2340:1 #
-0.49999999999988375964932174611022 1802:1 4776:1 #
-0.49999999999988375964932174611022 790:1 4776:1 #
0.49999999999988375964932174611022 1121:1 3838:1 #
0.49999999999988375964932174611022 1420:1 3838:1 #
0.49999999999988375964932174611022 574:1 3838:1 #
-0.49999999999988375964932174611022 606:1 3838:1 #
-0.49999999999988375964932174611022 1111:1 3838:1 #
-0.3777942987527169171890761845134 66:1 3838:1 #
-0.3783843855850709259058817224286 1251:1 3838:1 #
-0.49999999999988375964932174611022 417:1 3838:1 #
0.49999999999988375964932174611022 1216:1 4776:1 #
0.49999999999988375964932174611022 1100:1 4776:1 #
0.49999999999988375964932174611022 1452:1 4776:1 #
0.49999999999988375964932174611022 1803:1 4776:1 #
0.49999999999988375964932174611022 1756:1 4776:1 #
-0.49999999999988375964932174611022 1803:1 4776:1 #
-0.49999999999988375964932174611022 1589:1 4776:1 #
0.49999999999988375964932174611022 1761:1 3838:1 #
0.49999999999988375964932174611022 705:1 3838:1 #
0.49999999999988375964932174611022 332:1 3838:1 #
0.49999999999988375964932174611022 1183:1 3838:1 #
0.49999999999988375964932174611022 1364:1 3838:1 #
-0.37913231826371923682827969059872 831:1 3838:1 #
-0.37779429875271652861101756570861 192:1 3838:1 #
-0.37781754738462047793490228286828 1539:1 3838:1 #
-0.37913231826371923682827969059872 182:1 3838:1 #
-0.49999999999988375964932174611022 927:1 3838:1 #
0.49999999999988375964932174611022 1111:1 2127:1 #
-0.49999999999988375964932174611022 1121:1 5123:1 #
0.49999999999988375964932174611022 903:1 4792:1 #
0.49999999999988375964932174611022 903:1 4922:1 #
-0.0070518727163998429219304853177164 902:1 4181:1 #
-0.49999999999988375964932174611022 433:1 3119:1 #
-2.2204460492503130808472633361816e-16 1499:1 3428:1 #
-0.46782042461393746890507827629335 1322:1 3891:1 #
-0.38063886732708396287705454597017 1505:1 3891:1 #
0.49999999999988375964932174611022 1121:1 5123:1 #
-0.49999999999988375964932174611022 1121:1 5123:1 #
0.49999999999988375964932174611022 1068:1 3838:1 #
0.49999999999988375964932174611022 27:1 3838:1 #
0.49999999999988375964932174611022 805:1 4470:1 #
-0.39970370624549789173585168100544 1021:1 1811:1 #
-0.49999999999988375964932174611022 34:1 5270:1 #
-0.46047048092416542619531583113712 1250:1 4243:1 #
-0.013370991313231772590341961404192 312:1 5061:1 #
-0.49999999999988375964932174611022 765:1 3004:1 #
0.49999999999988375964932174611022 1121:1 5123:1 #
-0.49999999999988375964932174611022 1121:1 5123:1 #
0.49999999999988375964932174611022 162:1 1950:1 #
0.49999999999988375964932174611022 162:1 3300:1 #
0.49999999999988375964932174611022 1623:1 4014:1 #
-0.49999999999988375964932174611022 681:1 3119:1 #
0.49999999999988375964932174611022 1121:1 5123:1 #
0.49999999999988375964932174611022 16:1 5123:1 #
-0.49999999999988375964932174611022 1121:1 5123:1 #
0.49999999999988375964932174611022 934:1 3891:1 #
0.49999999999988375964932174611022 208:1 3891:1 #
0.49999999999988375964932174611022 643:1 3891:1 #
-0.39984618411916827973584531719098 932:1 5123:1 #
-0.49999999999988375964932174611022 324:1 5123:1 #
-0.44046296163109732724194600450573 1119:1 5123:1 #
0.49999999999988375964932174611022 1121:1 4687:1 #
0.49999999999988375964932174611022 1002:1 2719:1 #
0.49999999999988375964932174611022 1713:1 4330:1 #
0.49999999999988375964932174611022 424:1 1929:1 #
0.49999999999988375964932174611022 1468:1 4723:1 #
-0.49999999999988375964932174611022 1153:1 1811:1 #
-0.49999999999988375964932174611022 765:1 3804:1 #
0.49999999999988375964932174611022 1687:1 5123:1 #
0.49999999999988375964932174611022 1246:1 5123:1 #
0.49999999999988375964932174611022 422:1 5123:1 #
-0.49999999999988375964932174611022 1121:1 5123:1 #
-0.49999999999988375964932174611022 681:1 5123:1 #
0.49999999999988375964932174611022 128:1 3804:1 #
0.49999999999988375964932174611022 611:1 1811:1 #
0.49999999999988375964932174611022 1611:1 3428:1 #
0.49999999999988375964932174611022 1121:1 5123:1 #
0.49999999999988375964932174611022 681:1 4464:1 #
-0.40432437012723509983658232158632 703:1 3891:1 #
0.49999999999988375964932174611022 765:1 4017:1 #
0.49999999999988375964932174611022 1247:1 3119:1 #
-0.012039913032284688121364979451755 1121:1 4277:1 #
-0.029317662457486026034159110054134 1799:1 2276:1 #
0.49999999999988375964932174611022 372:1 3891:1 #
0.49999999999988375964932174611022 137:1 3891:1 #
0.49999999999988375964932174611022 1153:1 4776:1 #
0.49999999999988375964932174611022 1589:1 4776:1 #
-0.49999999999988375964932174611022 1589:1 4776:1 #
-0.19112011408605511508795871122857 1188:1 4776:1 #
-0.49999999999988375964932174611022 1237:1 4776:1 #
-0.49999999999988375964932174611022 1533:1 4776:1 #
0.49999999999988375964932174611022 244:1 3004:1 #
0.49999999999988375964932174611022 650:1 3004:1 #
0.49999999999988375964932174611022 889:1 3004:1 #
0.49999999999988375964932174611022 1295:1 3004:1 #
0.49999999999988375964932174611022 629:1 3004:1 #
-0.47495363312578020575926984747639 1171:1 3804:1 #
-0.49999999999988375964932174611022 988:1 3838:1 #
0.49999999999988375964932174611022 1710:1 4776:1 #
0.49999999999988375964932174611022 320:1 4776:1 #
0.49999999999988375964932174611022 740:1 4776:1 #
0.49999999999988375964932174611022 674:1 4776:1 #
0.49999999999988375964932174611022 400:1 4776:1 #
-0.49999999999988375964932174611022 320:1 4776:1 #
-0.49999999999988375964932174611022 1589:1 4776:1 #
0.29267900173136596198020242809434 857:1 2340:1 #
0.49999999999988375964932174611022 681:1 3119:1 #
-0.37842592371460681555106475570938 892:1 3838:1 #
-0.37844206682782177697532688398496 700:1 3838:1 #
-0.37897317250935419474799914496543 571:1 3838:1 #
-0.3791501157539093336268365419528 1391:1 3838:1 #
-0.37897317250935419474799914496543 537:1 3838:1 #
0.49999999999988375964932174611022 1589:1 4776:1 #
0.49999999999988375964932174611022 1121:1 5123:1 #
-0.49999999999988375964932174611022 1121:1 5123:1 #
-0.49999999999988375964932174611022 324:1 5123:1 #
0.49999999999988375964932174611022 903:1 2995:1 #
0.49999999999988375964932174611022 1121:1 5123:1 #
0.49999999999988375964932174611022 1171:1 2338:1 #
0.49999999999988375964932174611022 1171:1 4567:1 #
-0.00028748051795718376766330948157702 606:1 4438:1 #
-0.012166710960018665976800633643506 955:1 2641:1 #
-0.49999999999988375964932174611022 1121:1 5123:1 #
0.49999999999988375964932174611022 320:1 4776:1 #
0.49999999999988375964932174611022 1589:1 4776:1 #
-0.49999999999988375964932174611022 320:1 4776:1 #
-0.19113642842746084160587827227573 91:1 4776:1 #
-0.1911364284274609803837563504203 888:1 4776:1 #
-0.49999999999988375964932174611022 843:1 4776:1 #
0.49999999999988375964932174611022 1342:1 2995:1 #
-0.00062160085434193046438622332061641 1799:1 3428:1 #
-0.1911760640959715429332277381036 520:1 4776:1 #
-0.49999999999988375964932174611022 132:1 4776:1 #
-0.19117207387292545206491922726855 946:1 4776:1 #
-0.0097351955037121261360422153074978 34:1 4990:1 #
0.49999999999988375964932174611022 955:1 2995:1 #
-0.19101584774284430245927524083527 121:1 4776:1 #
-0.19115427793214134766230927198194 573:1 4776:1 #
-0.19117207387292553533164607415529 1734:1 4776:1 #
-0.19070829592961371923287572371919 566:1 4776:1 #
-0.19117207387292564635394853667094 388:1 4776:1 #
-0.19076749516154317687366415157157 610:1 4776:1 #
-0.19117606409597151517765212247468 1092:1 4776:1 #
-0.19076749516154328789596661408723 1238:1 4776:1 #
-0.19114256045496291758212237255066 1796:1 4776:1 #
-0.19113642842746075833915142538899 899:1 4776:1 #
0.49999999999988375964932174611022 1415:1 4243:1 #
0.49999999999988375964932174611022 1181:1 4243:1 #
0.49999999999988375964932174611022 832:1 4776:1 #
0.49999999999988375964932174611022 899:1 4482:1 #
0.49999999999988375964932174611022 1452:1 4776:1 #
0.49999999999988375964932174611022 1586:1 4776:1 #
0.49999999999988375964932174611022 1589:1 4776:1 #
-0.19117207387292586839855346170225 1154:1 4776:1 #
-0.19076749516154378749632769540767 1595:1 4776:1 #
-0.19076749516154309360693730468483 853:1 4776:1 #
-0.19070829592961385801075380186376 55:1 4776:1 #
-0.19117207387292545206491922726855 24:1 4776:1 #
-0.1911760640959717649778326631349 1281:1 4776:1 #
-0.19069590146063053470726345040021 355:1 4776:1 #
-0.19117606409597170946668143187708 666:1 4776:1 #
-0.1911760640959715429332277381036 247:1 4776:1 #
-0.19113642842746125793951250670943 1574:1 4776:1 #
-0.1911364284274609803837563504203 1182:1 4776:1 #
-0.49999999999988375964932174611022 292:1 4776:1 #
0.090883522173828626411484776781435 1610:1 2340:1 #
-0.49999999999988375964932174611022 716:1 2340:1 #
-0.29977798912277620058119964596699 1452:1 2825:1 #
-0.012906778739761141927555598840627 1111:1 5295:1 #
-0.49999999999988375964932174611022 955:1 3004:1 #
0.49999999999988375964932174611022 988:1 3838:1 #
0.11022436574354363414407487198332 1805:1 2340:1 #
0.49999999999988375964932174611022 765:1 3838:1 #
-0.15377877913307572144141488479363 832:1 3205:1 #
-0.15377877913307572144141488479363 832:1 4706:1 #
-0.15274876465030062799854704280733 832:1 4446:1 #
-0.15392009860932354126106247349526 832:1 4020:1 #
-0.46943052375826532784941491627251 767:1 2127:1 #
0.14480977565055772049440463433712 1484:1 2340:1 #
0.014347070781945081563435451244004 1121:1 2340:1 #
-0.49999999999988375964932174611022 1342:1 2340:1 #
-0.49999999999988375964932174611022 128:1 2340:1 #
-0.49999999999988375964932174611022 1597:1 2340:1 #
-0.49999999999988375964932174611022 1068:1 2340:1 #
0.49999999999988375964932174611022 260:1 3838:1 #
-0.22840469542261532254201483738143 364:1 4464:1 #
-0.32042627922006927665421471829177 1246:1 4464:1 #
-0.48110586950828498897791973831772 34:1 3465:1 #
-0.1537640206766266448568103442085 1586:1 3164:1 #
-0.15410623166754344737228166195564 1586:1 3787:1 #
0.46395809947192145905603410938056 1209:1 2340:1 #
0.37892053572629269542204610843328 689:1 2340:1 #
0.49999999999988375964932174611022 135:1 2340:1 #
0.49999999999988375964932174611022 474:1 2340:1 #
0.49999999999988375964932174611022 1558:1 2340:1 #
0.12699616476810945964182053558034 1257:1 2340:1 #
0.49999999999988375964932174611022 93:1 3838:1 #
0.49999999999988375964932174611022 324:1 3838:1 #
0.49999999999988375964932174611022 422:1 3838:1 #
0.49999999999988375964932174611022 681:1 3838:1 #
0.49999999999988375964932174611022 1184:1 3838:1 #
-0.49999999999988375964932174611022 1338:1 2340:1 #
-0.012123336839355368377280086633618 162:1 3778:1 #
-0.005551802348588458224654118566832 137:1 2492:1 #
-0.46512953276498636423497146097361 162:1 4483:1 #
0.49999999999988375964932174611022 1342:1 2995:1 #
0.49999999999988375964932174611022 1063:1 2340:1 #
-0.49999999999988375964932174611022 1342:1 2340:1 #
-0.49999999999988375964932174611022 422:1 2340:1 #
0.49999999999988375964932174611022 927:1 2340:1 #
0.41075334806813579291429050499573 363:1 2340:1 #
0.49999999999988375964932174611022 1560:1 2340:1 #
-0.49999999999988375964932174611022 93:1 2340:1 #
-0.49999999999988375964932174611022 674:1 2340:1 #
-0.49999999999988375964932174611022 1799:1 4014:1 #
0.49999999999988375964932174611022 365:1 2340:1 #
0.43454920748645875505644653458148 1145:1 2340:1 #
0.49999999999988375964932174611022 1079:1 2340:1 #
-0.49999999999988375964932174611022 903:1 2340:1 #
-0.49999999999988375964932174611022 681:1 2340:1 #
-0.49999999999988375964932174611022 1479:1 2340:1 #
0.49999999999988375964932174611022 1342:1 2995:1 #
-0.49999999999988375964932174611022 1761:1 2995:1 #
-0.49999999999988375964932174611022 1761:1 3430:1 #
-0.01146592654604021085940068758191 1558:1 2086:1 #
-0.10478089666594948836664258351448 1589:1 4407:1 #
-0.10456641505703778705083095701411 1589:1 2078:1 #
0.48080575590240570704736455809325 417:1 2340:1 #
0.49999999999988375964932174611022 1121:1 2340:1 #
-0.49999999999988375964932174611022 1342:1 2340:1 #
-0.49999999999988375964932174611022 290:1 3891:1 #
-0.49999999999988375964932174611022 34:1 2340:1 #
0.49999999999988375964932174611022 1723:1 2340:1 #
-0.012077659949739128625312289955218 1558:1 4005:1 #
0.49999999999988375964932174611022 809:1 2340:1 #
0.49999999999988375964932174611022 1558:1 2340:1 #
-0.49999999999988375964932174611022 1111:1 2340:1 #
-0.49999999999988375964932174611022 784:1 2340:1 #
-0.49999999999988375964932174611022 538:1 2340:1 #
0.49999999999988375964932174611022 1342:1 2995:1 #
-0.2531192438810747069588558133546 889:1 3891:1 #
-0.48105898125948309829169602380716 417:1 3891:1 #
-0.49999999999988375964932174611022 290:1 3891:1 #
0.49999999999988375964932174611022 227:1 2359:1 #
-0.49999999999988375964932174611022 411:1 3891:1 #
0.073538770636336736608029696071753 1760:1 2340:1 #
-0.49999999999988375964932174611022 1342:1 2340:1 #
-0.49999999999988375964932174611022 643:1 2340:1 #
-0.48986523357689215618648859162931 16:1 3396:1 #
-0.40389294271292847104959378157218 137:1 2500:1 #
-0.49999999999988375964932174611022 260:1 2453:1 #
-0.49999999999988375964932174611022 1002:1 2359:1 #
-0.00084431797825867960227697039954364 533:1 2891:1 #
0.012154993487291765319469050155021 1631:1 2340:1 #
-0.49999999999988375964932174611022 1074:1 2340:1 #
-0.49999999999988375964932174611022 805:1 2340:1 #
-0.49999999999988375964932174611022 1424:1 2340:1 #
-0.49999999999988375964932174611022 955:1 2340:1 #
-0.49999999999988375964932174611022 1713:1 2340:1 #
-0.49999999999988375964932174611022 1171:1 2340:1 #
-0.49999999999988375964932174611022 422:1 2340:1 #
-0.34598352984886071581627220439259 241:1 2719:1 #
-0.13477868328393505237272620433941 681:1 2719:1 #
0.018751437189286457307701994068339 549:1 2340:1 #
0.09988891009751921234993687903625 805:1 2340:1 #
0.49999999999988375964932174611022 397:1 2340:1 #
-0.49999999999988375964932174611022 244:1 2340:1 #
-0.49999999999988375964932174611022 629:1 2340:1 #
-0.49999999999988375964932174611022 422:1 2825:1 #
-0.0039605846413776433362352591416311 1030:1 4519:1 #
0.49999999999988375964932174611022 694:1 2340:1 #
0.46579203793961626578479240379238 1433:1 2340:1 #
0.49999999999988375964932174611022 843:1 2340:1 #
0.49999999999988375964932174611022 132:1 2340:1 #
-0.49999999999988375964932174611022 1342:1 2340:1 #
-0.4971509407256883283920956273505 27:1 3138:1 #
-0.49999999999988375964932174611022 397:1 3138:1 #
-0.49999999999988375964932174611022 955:1 3004:1 #
-0.49999999999988375964932174611022 611:1 3004:1 #
0.49999999999988375964932174611022 1237:1 2340:1 #
0.49999999999988375964932174611022 1533:1 2340:1 #
-0.012068983653472642458837071899325 1558:1 5165:1 #
-0.49999999999988375964932174611022 422:1 2340:1 #
0.49999999999988375964932174611022 1342:1 2995:1 #
0.49999999999988375964932174611022 422:1 3004:1 #
-0.0130009890221691754713662092513 1111:1 3240:1 #
-0.49999999999988375964932174611022 1333:1 3004:1 #
-0.46919770818185080329953962063882 784:1 3004:1 #
0.46895194756466612728829090883664 417:1 2340:1 #
-0.020168285875998948064591331785778 1451:1 4844:1 #
-0.49999999999988375964932174611022 903:1 2340:1 #
-0.49999999999988375964932174611022 1269:1 2340:1 #
-0.49811213000077325663284000256681 1295:1 2500:1 #
-0.49999999999988375964932174611022 1153:1 3778:1 #
0.090172150816683754870339839726512 850:1 2340:1 #
-0.49999999999988375964932174611022 857:1 3004:1 #
0.35086678767532647471583118203853 1333:1 2340:1 #
-0.49999999999988375964932174611022 1333:1 4243:1 #
0.49999999999988375964932174611022 784:1 2340:1 #
-0.49999999999988375964932174611022 784:1 2340:1 #
-0.48600116019699002301024393091211 1631:1 4483:1 #
-0.48868268256861058240758666215697 903:1 4483:1 #
0.49999999999988375964932174611022 784:1 2340:1 #
-0.49999999999988375964932174611022 784:1 4819:1 #
-0.49999999999988375964932174611022 1111:1 2340:1 #
0.11062518585302461016084407674498 1124:1 2340:1 #
-0.49999999999988375964932174611022 1558:1 2340:1 #
-0.0098598175412390638705506518135735 1059:1 4323:1 #
-0.49999999999988375964932174611022 1597:1 2340:1 #
-0.49999999999988375964932174611022 1304:1 2340:1 #
-0.49999999999988375964932174611022 1080:1 2340:1 #
-0.49999999999988375964932174611022 474:1 2340:1 #
0.49999999999988375964932174611022 1558:1 2340:1 #
-0.49999999999988375964932174611022 1558:1 2340:1 #
-0.49999999999988375964932174611022 397:1 4792:1 #
-0.46046915312028313671532941953046 1184:1 5054:1 #
-0.49950347094423852567501853627618 1452:1 4438:1 #
-0.12003837952355966844919521463453 1111:1 4330:1 #
0.49999999999988375964932174611022 1558:1 2340:1 #
-0.49999999999988375964932174611022 1558:1 2340:1 #
0.36167253373817448425242560006154 770:1 2340:1 #
-0.49999999999988375964932174611022 357:1 2340:1 #
-0.49999999999988375964932174611022 213:1 2340:1 #
-0.49999999999988375964932174611022 124:1 2340:1 #
-0.49999999999988375964932174611022 1273:1 2340:1 #
-0.49999999999988375964932174611022 1403:1 2340:1 #
0.49845792624193174802371686382685 1558:1 2340:1 #
-0.49999999999988375964932174611022 1558:1 2340:1 #
-0.49999999999988375964932174611022 37:1 2340:1 #
0.089912739271844899224817027061363 1010:1 2340:1 #
-0.49999999999988375964932174611022 29:1 2340:1 #
-0.49999999999988375964932174611022 1507:1 2340:1 #
-0.49999999999988375964932174611022 1517:1 2340:1 #
-0.49999999999988375964932174611022 523:1 2340:1 #
-0.49999999999988375964932174611022 1150:1 2340:1 #
0.49999999999988375964932174611022 1558:1 2340:1 #
-0.49999999999988375964932174611022 1547:1 2340:1 #
0.2896553023159511575101987546077 1269:1 2340:1 #
0.34097353103690758446830955108453 611:1 2340:1 #
0.05371235581750943843815093714511 1059:1 2359:1 #
-0.49999999999988375964932174611022 1558:1 2340:1 #
-0.49999999999988375964932174611022 525:1 2340:1 #
0.49999999999988375964932174611022 474:1 2340:1 #
0.48318543071870423410985040391097 1304:1 2340:1 #
-0.49999999999988375964932174611022 474:1 2340:1 #
0.49999999999988375964932174611022 1558:1 2340:1 #
-0.49999999999988375964932174611022 1558:1 2340:1 #
0.49999999999988375964932174611022 1080:1 2340:1 #
-0.49999999999988375964932174611022 1080:1 2340:1 #
0.49999999999988375964932174611022 1558:1 2340:1 #
-0.49999999999988375964932174611022 156:1 2340:1 #
0.49999999999988375964932174611022 474:1 2340:1 #
0.49999999999988375964932174611022 1080:1 2340:1 #
-0.49999999999988375964932174611022 1080:1 2340:1 #
0.49999999999988375964932174611022 292:1 2340:1 #
-0.49999999999988375964932174611022 474:1 2340:1 #
0.45119369361534455986628699974972 397:1 2340:1 #
-0.49999999999988375964932174611022 522:1 2340:1 #
-0.49999999999988375964932174611022 325:1 2340:1 #
-0.49999999999988375964932174611022 789:1 2340:1 #
0.49999999999988375964932174611022 1080:1 2340:1 #
-0.49999999999988375964932174611022 1080:1 2340:1 #
-0.49999999999988375964932174611022 1558:1 2340:1 #
0.49999999999988375964932174611022 474:1 2340:1 #
0.10305999219903122510189064087172 522:1 2340:1 #
0.49999999999988375964932174611022 789:1 2340:1 #
-0.49999999999988375964932174611022 474:1 2340:1 #
0.49999999999988375964932174611022 1558:1 2340:1 #
-0.49999999999988375964932174611022 789:1 2340:1 #
-0.49999999999988375964932174611022 249:1 2340:1 #
0.49999999999988375964932174611022 1080:1 2340:1 #
0.49999999999988375964932174611022 213:1 2340:1 #
0.49999999999988375964932174611022 1273:1 2340:1 #
0.49999999999988375964932174611022 474:1 2340:1 #
0.49999999999988375964932174611022 357:1 2340:1 #
0.49999999999988375964932174611022 789:1 2340:1 #
0.49999999999988375964932174611022 523:1 2340:1 #
0.49999999999988375964932174611022 29:1 2340:1 #
0.49999999999988375964932174611022 1150:1 2340:1 #
0.11816150306132927605418103667034 903:1 2340:1 #
0.20774866424761428973511101503391 1333:1 2340:1 #
0.13086756384717412871054875722621 1374:1 2340:1 #
0.49999999999988375964932174611022 784:1 2340:1 #
-0.49999999999988375964932174611022 857:1 2340:1 #
-0.49999999999988375964932174611022 422:1 2340:1 #
-0.49999999999988375964932174611022 1342:1 2340:1 #
0.49999999999988375964932174611022 955:1 2500:1 #
0.49999999999988375964932174611022 955:1 4119:1 #
0.49999999999988375964932174611022 1597:1 2981:1 #
0.49999999999988375964932174611022 1403:1 2122:1 #
0.49999999999988375964932174611022 1403:1 4004:1 #
-0.49999999999988375964932174611022 1484:1 3453:1 #
-0.0048256414666428826265587304078508 1206:1 3799:1 #
-0.01218668312609209360142248357306 1206:1 2806:1 #
-0.011945294250800042590299199218862 1206:1 2596:1 #
0.49999999999988375964932174611022 422:1 5123:1 #
0.49999999999988375964932174611022 1342:1 3138:1 #
0.49999999999988375964932174611022 422:1 3004:1 #
0.34571898598548395087348694687535 857:1 2340:1 #
-0.49999999999988375964932174611022 770:1 2825:1 #
-0.49999999999988375964932174611022 422:1 2340:1 #
0.49999999999988375964932174611022 1589:1 4776:1 #
0.49999999999988375964932174611022 162:1 4082:1 #
0.49999999999988375964932174611022 1761:1 3750:1 #
0.49999999999988375964932174611022 433:1 3390:1 #
0.49999999999988375964932174611022 1799:1 4014:1 #
0.49999999999988375964932174611022 298:1 1811:1 #
0.49999999999988375964932174611022 1578:1 1811:1 #
0.49999999999988375964932174611022 767:1 4422:1 #
0.49999999999988375964932174611022 1202:1 4844:1 #
0.27685067081991243664873536545201 770:1 2340:1 #
-0.49999999999988375964932174611022 955:1 2340:1 #
-0.49999999999988375964932174611022 1342:1 2340:1 #
-0.49999999999988375964932174611022 474:1 2340:1 #
0.49999999999988375964932174611022 1111:1 3891:1 #
0.49999999999988375964932174611022 422:1 2825:1 #
0.49999999999988375964932174611022 422:1 4819:1 #
0.49999999999988375964932174611022 422:1 4633:1 #
0.41202720919333502003212288400391 397:1 2340:1 #
0.4682270557589305326473549939692 1209:1 2340:1 #
-0.49999999999988375964932174611022 1209:1 2340:1 #
0.49999999999988375964932174611022 1342:1 4014:1 #
0.49999999999988375964932174611022 1209:1 2340:1 #
0.090124650813311418806605956888234 36:1 2340:1 #
-0.49999999999988375964932174611022 1209:1 2340:1 #
-0.49999999999988375964932174611022 332:1 2340:1 #
0.49999999999988375964932174611022 955:1 2995:1 #
0.49999999999988375964932174611022 295:1 4483:1 #
0.49830862526364838593906370078912 1002:1 2359:1 #
-0.012193228927198318523039688443532 858:1 4397:1 #
-0.49999999999988375964932174611022 1006:1 2340:1 #
-0.49999999999988375964932174611022 1080:1 2340:1 #
-0.49999999999988375964932174611022 1053:1 2340:1 #
-0.49999999999988375964932174611022 9:1 2340:1 #
-0.49999999999988375964932174611022 789:1 2340:1 #
0.49999999999988375964932174611022 1802:1 3004:1 #
0.49999999999988375964932174611022 9:1 3004:1 #
0.49999999999988375964932174611022 387:1 3004:1 #
0.49999999999988375964932174611022 1179:1 3004:1 #
0.49999999999988375964932174611022 144:1 3004:1 #
-0.012055172236227290616383811538981 1333:1 4555:1 #
0.49999999999988375964932174611022 1209:1 2340:1 #
0.49999999999988375964932174611022 411:1 3417:1 #
0.49999999999988375964932174611022 411:1 2301:1 #
0.49999999999988375964932174611022 1589:1 4776:1 #
0.47000766917896968921652955941681 587:1 2340:1 #
0.49999999999988375964932174611022 523:1 2340:1 #
0.49999999999988375964932174611022 1295:1 2340:1 #
0.49999999999988375964932174611022 522:1 3138:1 #
0.49999999999988375964932174611022 1528:1 3430:1 #
0.49999999999988375964932174611022 1059:1 2248:1 #
0.49999999999988375964932174611022 1260:1 3430:1 #
0.49999999999988375964932174611022 838:1 1850:1 #
-0.0119661002707900365749082993716 427:1 5235:1 #
-0.013414247506713272706235784426099 1567:1 5035:1 #
0.49999999999988375964932174611022 1276:1 5189:1 #
0.49999999999988375964932174611022 193:1 3234:1 #
0.49999999999988375964932174611022 1070:1 4682:1 #
0.49999999999988375964932174611022 1070:1 3893:1 #
0.49999999999988375964932174611022 1383:1 4840:1 #
0.49999999999988375964932174611022 1451:1 4061:1 #
0.49999999999988375964932174611022 902:1 2736:1 #
0.49999999999988375964932174611022 857:1 2859:1 #
0.49999999999988375964932174611022 374:1 4643:1 #
0.49999999999988375964932174611022 1261:1 2584:1 #
0.49999999999988375964932174611022 857:1 3493:1 #
-0.49999999999988375964932174611022 422:1 4014:1 #
-0.39533259847413382281899885128951 1611:1 4014:1 #
0.49999999999988375964932174611022 840:1 3453:1 #
-0.49999999999988375964932174611022 902:1 2340:1 #
-0.011009985724287435493451425827516 1616:1 5210:1 #
-0.009719117189146463456350666376693 34:1 1901:1 #
0.15695490615524598787544618971879 855:1 2340:1 #
-0.49999999999988375964932174611022 1111:1 2372:1 #
-0.49999999999988375964932174611022 523:1 3838:1 #
-0.010063799681158669407921024685493 1187:1 4988:1 #
-0.0011658942781533898624957146239467 1063:1 2445:1 #
-0.49999999999988375964932174611022 840:1 4624:1 #
-0.49999999999988375964932174611022 1276:1 2340:1 #
-0.49999999999988375964932174611022 838:1 2340:1 #
-0.16441577899847614752104618673911 1451:1 4061:1 #
-0.34857962951195098355583468219265 1383:1 4061:1 #
-0.49999999999988375964932174611022 1239:1 4643:1 #
-0.49999999999988375964932174611022 82:1 4643:1 #
-0.11719136675837327210558669321472 295:1 3234:1 #
-0.49999999999988375964932174611022 411:1 3138:1 #
-0.49999999999988375964932174611022 857:1 3004:1 #
-0.49999999999988375964932174611022 387:1 2340:1 #
-0.49999999999988375964932174611022 523:1 2340:1 #
-0.4919261791925670923575353299384 312:1 3234:1 #
-0.16212585621099706578718269156525 1016:1 3234:1 #
-0.49999999999988375964932174611022 375:1 1929:1 #
-0.49999999999988375964932174611022 767:1 5271:1 #
-0.49999999999988375964932174611022 1558:1 2995:1 #
-0.49999999999988375964932174611022 1558:1 1811:1 #
-0.49999999999988375964932174611022 1558:1 3138:1 #
-0.49999999999988375964932174611022 1342:1 3004:1 #
-0.49999999999988375964932174611022 1290:1 3004:1 #
-0.49999999999988375964932174611022 784:1 3004:1 #
-0.49999999999988375964932174611022 375:1 1811:1 #
-0.49984339280744394251598805567482 1295:1 2825:1 #
-0.49999999999988375964932174611022 1002:1 2359:1 #
-0.49733823438887336809699490913772 422:1 4844:1 #
-0.49999999999988375964932174611022 422:1 2301:1 #
-0.010013576496018942660337636141321 1063:1 3827:1 #
-0.49999999999988375964932174611022 1059:1 2359:1 #
-0.49999999999988375964932174611022 955:1 2825:1 #
-0.37799172912004741498037674318766 746:1 3838:1 #
-0.49999999999988375964932174611022 135:1 3838:1 #
-0.49999999999988375964932174611022 1403:1 4004:1 #
-0.012952440031486878169175724906381 411:1 5066:1 #
0.001555747167302903855023998858087 533:1 2340:1 #
-0.13203530309993644076271834819636 1070:1 3700:1 #
-0.13203530309993644076271834819636 1070:1 4139:1 #
-0.1316658411736550959858504938893 1070:1 1986:1 #
-0.13187722709809635013300521677593 1070:1 3022:1 #
-0.49999999999988375964932174611022 25:1 2340:1 #
0.4932571742723803609464994224254 784:1 2359:1 #
0.49999999999988375964932174611022 784:1 2825:1 #
0.49999999999988375964932174611022 1342:1 4014:1 #
-0.49999999999988375964932174611022 1312:1 4014:1 #
-0.49999999999988375964932174611022 1799:1 4014:1 #
0.49999999999988375964932174611022 1558:1 2340:1 #
-0.49999999999988375964932174611022 1068:1 2340:1 #
-0.49999999999988375964932174611022 2:1 2340:1 #
-0.49999999999988375964932174611022 74:1 2340:1 #
-0.49999999999988375964932174611022 365:1 2340:1 #
0.49999999999988375964932174611022 1153:1 5123:1 #
0.49999999999988375964932174611022 1599:1 4643:1 #
0.49999999999988375964932174611022 375:1 3138:1 #
0.49999999999988375964932174611022 324:1 5123:1 #
-0.49999999999988375964932174611022 375:1 2825:1 #
0.33323131460401445025354405515827 1290:1 2340:1 #
0.49999999999988375964932174611022 365:1 2340:1 #
0.28116605348721235291264974875958 1068:1 2340:1 #
-0.49999999999988375964932174611022 1599:1 2340:1 #
-0.49999999999988375964932174611022 784:1 3004:1 #
-0.43989714954324288243014962063171 1342:1 1850:1 #
-0.49999999999988375964932174611022 380:1 3750:1 #
0.49999999999988375964932174611022 375:1 4920:1 #
0.49999999999988375964932174611022 375:1 4014:1 #
0.49999999999988375964932174611022 2:1 2340:1 #
-0.022511071946471561400215932735591 1551:1 3947:1 #
-0.022511071946471561400215932735591 1551:1 3731:1 #
-0.022511071946471561400215932735591 1551:1 2311:1 #
0.49999999999988375964932174611022 1605:1 3004:1 #
0.49999999999988375964932174611022 146:1 3004:1 #
0.49999999999988375964932174611022 1272:1 3004:1 #
0.49999999999988375964932174611022 681:1 2825:1 #
-0.49999999999988375964932174611022 375:1 2825:1 #
-0.49999999999988375964932174611022 1597:1 3004:1 #
-0.40000807904029533901280046848115 639:1 3004:1 #
-0.014210284156148882128700705607116 208:1 3607:1 #
-0.49999999999988375964932174611022 146:1 2340:1 #
-0.49999999999988375964932174611022 1458:1 2340:1 #
-0.49999999999988375964932174611022 70:1 2340:1 #
-0.49999999999988375964932174611022 1057:1 2340:1 #
-0.49999999999988375964932174611022 1263:1 2340:1 #
0.49999999999988375964932174611022 1589:1 4776:1 #
0.49999999999988375964932174611022 1059:1 1893:1 #
0.49999999999988375964932174611022 1456:1 4719:1 #
0.49999999999988375964932174611022 235:1 4672:1 #
-0.10478089666594941897770354444219 1589:1 4837:1 #
-0.1050393298839094047281150778872 1589:1 3017:1 #
-0.10503932988390923819466138411372 1589:1 3381:1 #
-0.10478089666594969653345970073133 1589:1 4271:1 #
-0.10478089666594971041124750854578 1589:1 2705:1 #
0.18837661381447473596395525419211 1263:1 2340:1 #
-0.4839974291459699928807935975783 1059:1 4819:1 #
-0.49999999999988375964932174611022 1059:1 2359:1 #
0.49999999999988375964932174611022 34:1 2340:1 #
-0.012387884883445964001591477199327 424:1 1957:1 #
-0.013255384414257664893455057608662 839:1 5352:1 #
-0.14031305004065308672522860433673 439:1 2692:1 #
-0.012127887022198304348141739694711 587:1 2236:1 #
-0.022778701271626681373883016590298 603:1 4723:1 #
0.39143063604528771648460860888008 1616:1 2340:1 #
0.23322185939797646092586091981502 380:1 2340:1 #
-0.49999999999988375964932174611022 235:1 2340:1 #
-0.49999999999988375964932174611022 1263:1 2340:1 #
0.49999999999988375964932174611022 130:1 4658:1 #
0.49999999999988375964932174611022 352:1 2842:1 #
0.49999999999988375964932174611022 234:1 5410:1 #
0.49999999999988375964932174611022 1187:1 3722:1 #
0.49999999999988375964932174611022 1049:1 2271:1 #
0.4314383068934258269599979485065 1263:1 2340:1 #
-0.49999999999988375964932174611022 1263:1 2340:1 #
0.49999999999988375964932174611022 580:1 4470:1 #
0.49999999999988375964932174611022 362:1 2709:1 #
0.49999999999988375964932174611022 1567:1 4844:1 #
0.49999999999988375964932174611022 570:1 3053:1 #
0.49999999999988375964932174611022 1599:1 2220:1 #
0.49999999999988375964932174611022 1263:1 2340:1 #
0.49999999999988375964932174611022 1263:1 3939:1 #
0.49999999999988375964932174611022 135:1 2340:1 #
0.49999999999988375964932174611022 1342:1 4014:1 #
0.49999999999988375964932174611022 639:1 2340:1 #
0.49999999999988375964932174611022 523:1 2359:1 #
0.49999999999988375964932174611022 1589:1 4776:1 #
0.49999999999988375964932174611022 1799:1 3428:1 #
0.49999999999988375964932174611022 312:1 4816:1 #
0.49999999999988375964932174611022 1059:1 2359:1 #
0.49999999999988375964932174611022 1150:1 2825:1 #
0.49999999999988375964932174611022 824:1 2825:1 #
0.49999999999988375964932174611022 903:1 2825:1 #
0.49999999999988375964932174611022 422:1 2825:1 #
0.49923543580807799857623763273295 1558:1 2340:1 #
0.49999999999988375964932174611022 1239:1 4378:1 #
0.49999999999988375964932174611022 188:1 3814:1 #
0.49999999999988375964932174611022 1502:1 4077:1 #
0.49999999999988375964932174611022 244:1 3138:1 #
0.49999999999988375964932174611022 390:1 3138:1 #
0.49999999999988375964932174611022 672:1 1811:1 #
0.49999999999988375964932174611022 1652:1 1811:1 #
0.49999999999988375964932174611022 1126:1 3121:1 #
0.49999999999988375964932174611022 1403:1 5447:1 #
0.49999999999988375964932174611022 260:1 4489:1 #
0.49999999999988375964932174611022 1655:1 1995:1 #
0.49999999999988375964932174611022 1704:1 3058:1 #
0.49999999999988375964932174611022 643:1 3120:1 #
0.49999999999988375964932174611022 1295:1 2233:1 #
0.49999999999988375964932174611022 801:1 3465:1 #
0.49999999999988375964932174611022 290:1 3334:1 #
0.49999999999988375964932174611022 992:1 4169:1 #
0.49999999999988375964932174611022 203:1 5271:1 #
0.49999999999988375964932174611022 1307:1 3117:1 #
0.49999999999988375964932174611022 1479:1 2727:1 #
-0.0099718799903175010801437139207337 1342:1 3261:1 #
0.49999999999988375964932174611022 1451:1 3836:1 #
0.49554435629340465307990371002234 1002:1 2359:1 #
0.49999999999988375964932174611022 713:1 4844:1 #
0.49999999999988375964932174611022 324:1 2500:1 #
0.49999999999988375964932174611022 1597:1 2981:1 #
-0.009371938223861953076720965327695 889:1 4581:1 #
-0.49999999999988375964932174611022 1502:1 2359:1 #
-0.49999999999988375964932174611022 390:1 2340:1 #
-0.49999999999988375964932174611022 1799:1 3428:1 #
0.49999999999988375964932174611022 1184:1 5129:1 #
0.49999999999988375964932174611022 1621:1 4181:1 #
0.49999999999988375964932174611022 295:1 3772:1 #
-0.49999999999988375964932174611022 681:1 3390:1 #
-0.39617204345937151455103730768315 665:1 3939:1 #
-0.49999999999988375964932174611022 1652:1 1811:1 #
-0.42058351975326196958704372264037 1605:1 2825:1 #
0.4505395678737293962967669358477 1209:1 2340:1 #
0.49999999999988375964932174611022 1799:1 3428:1 #
-0.49999999999988375964932174611022 1799:1 4014:1 #
-0.0021354348741631223873582712258212 1119:1 4392:1 #
-0.010389374474331747322253249876667 93:1 4638:1 #
-0.010235931839140288701628378476016 1119:1 3021:1 #
0.49999999999988375964932174611022 1095:1 3939:1 #
-0.39341083042221469678878520426224 1272:1 4181:1 #
-0.49999999999988375964932174611022 1479:1 2340:1 #
-0.31779145511454265360384852101561 1209:1 3939:1 #
-0.49999999999988375964932174611022 1187:1 2340:1 #
-0.30263363192560899239680338723701 1150:1 3939:1 #
0.49999999999988375964932174611022 1799:1 3428:1 #
0.49999999999988375964932174611022 375:1 4014:1 #
-0.0014281897534538234850742810522206 1529:1 2013:1 #
-0.49999999999988375964932174611022 422:1 4014:1 #
0.49999999999988375964932174611022 390:1 2340:1 #
-0.49999999999988375964932174611022 135:1 2340:1 #
-0.49999999999988375964932174611022 1236:1 2340:1 #
0.49999999999988375964932174611022 739:1 2799:1 #
0.49999999999988375964932174611022 1342:1 4014:1 #
-0.49999999999988375964932174611022 1342:1 4014:1 #
0.49999999999988375964932174611022 523:1 2340:1 #
-0.49999999999988375964932174611022 1150:1 1811:1 #
-0.41077617937499122380273774979287 390:1 4920:1 #
-0.49999999999988375964932174611022 1451:1 4844:1 #
0.49999999999988375964932174611022 1342:1 4014:1 #
-0.49999999999988375964932174611022 1342:1 4014:1 #
0.49999999999988375964932174611022 1637:1 4920:1 #
0.49999999999988375964932174611022 208:1 3800:1 #
-0.49975723053660636718831256075646 260:1 3417:1 #
-0.49999999999988375964932174611022 912:1 1995:1 #
-0.16602825824681904931523490631662 1295:1 2825:1 #
-0.013263001359534502821002632799718 295:1 4388:1 #
-0.013190527539392170319754171714521 295:1 2214:1 #
0.49999999999988375964932174611022 1342:1 4014:1 #
-0.49999999999988375964932174611022 1342:1 4014:1 #
-0.010389374474331747322253249876667 93:1 1914:1 #
-0.49999999999988375964932174611022 1637:1 2340:1 #
-0.13293418689145819477914756134851 739:1 4470:1 #
-0.49999999999988375964932174611022 1799:1 4014:1 #
-0.012125277099364506483425429905765 162:1 2942:1 #
-0.011473792840630969366855218538603 1558:1 4598:1 #
0.49999999999988375964932174611022 1342:1 4014:1 #
-0.43824890332523702696221334917936 1342:1 3138:1 #
0.49999999999988375964932174611022 1799:1 3428:1 #
-0.32415751436821915731911758484785 1528:1 4470:1 #
-0.48504737518218532521530050871661 375:1 4470:1 #
-0.0084768441689250170756331215216051 1403:1 2558:1 #
0.49999999999988375964932174611022 880:1 3417:1 #
0.49999999999988375964932174611022 912:1 3907:1 #
-0.39611853324348167415536181579228 713:1 3417:1 #
0.49999999999988375964932174611022 1342:1 4014:1 #
-0.49999999999988375964932174611022 1342:1 4014:1 #
0.30116566764425212188172054084134 1597:1 2340:1 #
-0.49999999999988375964932174611022 422:1 2825:1 #
-0.34098060099505012043863416693057 1652:1 2825:1 #
0.49999999999988375964932174611022 1342:1 4014:1 #
0.49999999999988375964932174611022 375:1 4014:1 #
-0.49999999999988375964932174611022 1342:1 4014:1 #
-0.44254621990961373612094575946685 903:1 4844:1 #
-0.49999999999988375964932174611022 227:1 2359:1 #
-0.49999999999988375964932174611022 1059:1 2359:1 #
-0.49999999999988375964932174611022 749:1 2359:1 #
-0.39261627201290272282108162471559 234:1 2842:1 #
-0.12066569753091216377072214527288 1456:1 2842:1 #
0.4987925312362956331568852874625 1502:1 2359:1 #
-0.40970385491936245347943668093649 352:1 5123:1 #
-0.49999999999988375964932174611022 1558:1 4014:1 #
-0.49999999999988375964932174611022 1342:1 4014:1 #
-0.49999999999988375964932174611022 899:1 2340:1 #
-0.49999999999988375964932174611022 1193:1 2340:1 #
-0.49999999999988375964932174611022 1335:1 2340:1 #
0.49999999999988375964932174611022 1342:1 4014:1 #
-0.49999999999988375964932174611022 1342:1 4014:1 #
0.49654696060973846361008554595173 1068:1 2340:1 #
-0.49999999999988375964932174611022 1597:1 3138:1 #
-0.49999999999988375964932174611022 1068:1 2825:1 #
-0.49999999999988375964932174611022 1567:1 4844:1 #
0.28358628424999771100445400406898 1290:1 2340:1 #
-0.0098603207032402634402146190950589 1342:1 5015:1 #
-0.49999999999988375964932174611022 1747:1 2340:1 #
-0.49999999999988375964932174611022 1757:1 2340:1 #
-0.49999999999988375964932174611022 164:1 2340:1 #
-0.49999999999988375964932174611022 1235:1 2340:1 #
-0.49999999999988375964932174611022 1273:1 2340:1 #
-0.030111109560042370603127892536577 324:1 1941:1 #
-0.030004048769589952705416635581059 324:1 2101:1 #
-0.030610928905270395894433477224084 324:1 3173:1 #
-0.030085808552286041894774371030508 324:1 5435:1 #
-0.49999999999988375964932174611022 221:1 2340:1 #
-0.49999999999988375964932174611022 1404:1 2340:1 #
-0.49999999999988375964932174611022 533:1 2340:1 #
-0.49999999999988375964932174611022 552:1 2340:1 #
-0.49999999999988375964932174611022 1195:1 2340:1 #
0.49999999999988375964932174611022 1789:1 1890:1 #
0.49999999999988375964932174611022 1789:1 2413:1 #
0.21019808523450522752540337023675 313:1 4617:1 #
-0.49999999999988375964932174611022 849:1 1890:1 #
-0.23011102389723214756145353021566 726:1 1890:1 #
-0.22959588625637883385621762499795 1427:1 1890:1 #
-0.23056392931419578129492720108829 1297:1 1890:1 #
0.49999999999988375964932174611022 1209:1 2340:1 #
0.40026353655827551225598881501355 1597:1 2340:1 #
-0.49999999999988375964932174611022 1209:1 4243:1 #
-0.4786348565330384441374178550177 1295:1 2709:1 #
-0.49999999999988375964932174611022 1545:1 2359:1 #
0.49999999999988375964932174611022 548:1 1890:1 #
0.49999999999988375964932174611022 1763:1 4368:1 #
0.49999999999988375964932174611022 378:1 4423:1 #
0.49999999999988375964932174611022 1169:1 4816:1 #
-0.49999999999988375964932174611022 239:1 4423:1 #
-0.47274542881830183826963320825598 492:1 4816:1 #
-0.49999999999988375964932174611022 1169:1 2340:1 #
-0.013263001359534285980568135698832 295:1 2380:1 #
-0.0013668607327980124982458320914702 1342:1 2430:1 #
0.49999999999988375964932174611022 1766:1 2455:1 #
0.49999999999988375964932174611022 1766:1 2589:1 #
-0.28432987184066327301934506976977 1766:1 2693:1 #
-0.28366709108930887595079184393398 1766:1 5160:1 #
-0.28357599687869805560325175974867 1766:1 4156:1 #
-0.28484779326897202711421641652123 1766:1 5242:1 #
0.49670111929044619136774940670875 1068:1 2340:1 #
-0.49999999999988375964932174611022 34:1 2340:1 #
-0.49999999999988375964932174611022 1603:1 2340:1 #
0.49999999999988375964932174611022 830:1 3430:1 #
0.49999999999988375964932174611022 1282:1 3430:1 #
0.49999999999988375964932174611022 1342:1 4014:1 #
-0.0294509509901307309220896968327 329:1 4991:1 #
0.090101158760881872034076423005899 323:1 2340:1 #
0.49999999999988375964932174611022 1597:1 2340:1 #
-0.49999999999988375964932174611022 1342:1 4014:1 #
-0.0046575839552104314478242486075033 1209:1 2825:1 #
-0.49999999999988375964932174611022 320:1 4014:1 #
-0.49999999999988375964932174611022 1597:1 2825:1 #
-0.23468765264964086547649912972702 1403:1 5447:1 #
0.49999999999988375964932174611022 1342:1 4014:1 #
-0.49999999999988375964932174611022 282:1 2340:1 #
-0.49999999999988375964932174611022 703:1 2340:1 #
-0.49999999999988375964932174611022 1062:1 4483:1 #
-0.41138684030107552924704350516549 417:1 2500:1 #
-0.49999999999988375964932174611022 1121:1 4920:1 #
-0.084012188773053275703261988383019 1261:1 3656:1 #
-0.084330148676382332695311561110429 1261:1 5004:1 #
-0.083780182214896581349705684260698 1261:1 3139:1 #
-0.21046041991550545890987677921657 472:1 5410:1 #
0.047938908073587360725298367469804 1597:1 2340:1 #
-0.49999999999988375964932174611022 1494:1 2340:1 #
-0.49999999999988375964932174611022 754:1 2340:1 #
-0.49999999999988375964932174611022 909:1 2340:1 #
-0.49999999999988375964932174611022 1142:1 2340:1 #
-0.49999999999988375964932174611022 9:1 2340:1 #
-0.49999999999988375964932174611022 1342:1 4014:1 #
-0.49999999999988375964932174611022 141:1 3430:1 #
-0.011973122397203272981869304203428 1095:1 2076:1 #
-0.011973122397203272981869304203428 1095:1 4120:1 #
0.0006165645738973601908128330251202 1068:1 2340:1 #
0.49999999999988375964932174611022 523:1 2340:1 #
-0.012906478971261514665513914223993 433:1 3207:1 #
-0.047108291272622282441773222672055 1153:1 4875:1 #
-0.046488781289750313874264975311235 1153:1 2023:1 #
-0.045827672130019814211721040919656 1153:1 3293:1 #
-0.49999999999988375964932174611022 689:1 3408:1 #
-0.13998874465867172656174943767837 871:1 4127:1 #
-0.025719986100034897269495104410453 593:1 2867:1 #
-0.33797547584696385758462611192954 489:1 2412:1 #
-0.013239136672854590059955626202282 489:1 2088:1 #
-0.013239136672854590059955626202282 489:1 2342:1 #
-0.10533950518373924598591884205234 416:1 5076:1 #
-0.21058014954217452174844993351144 1779:1 2434:1 #
-0.21058014954217452174844993351144 92:1 4184:1 #
-0.14064760041014423563865420874208 1216:1 5097:1 #
-0.013212599474975142768706781737365 312:1 3582:1 #
0.49888021005463656365463975816965 142:1 4617:1 #
-0.49999999999988375964932174611022 1623:1 5038:1 #
-0.3074320987948067074313485136372 246:1 4380:1 #
-0.017447266257318488902328112999385 1202:1 4086:1 #
-0.026051882892220601384281053469749 1239:1 3690:1 #
-0.025690486500392073487830657541053 1239:1 4282:1 #
0.49999999999988375964932174611022 375:1 4014:1 #
-0.39518595088488428501705129747279 1144:1 4014:1 #
-0.49999999999988375964932174611022 1429:1 4014:1 #
-0.39335303683516298356437346228631 659:1 4014:1 #
-0.49999999999988375964932174611022 1611:1 4014:1 #
0.32284517307312332601298976442195 1502:1 2359:1 #
-0.49999999999988375964932174611022 1022:1 2359:1 #
-0.49999999999988375964932174611022 979:1 2359:1 #
-0.49999999999988375964932174611022 1222:1 2359:1 #
-0.013218409026826888341688004402386 1802:1 4006:1 #
-0.060314915427456594620991836563917 1133:1 2541:1 #
-0.013218409026826897015305384286421 1802:1 4228:1 #
-0.013218409026826893545858432332807 1802:1 4357:1 #
-0.013218409026826888341688004402386 1802:1 1960:1 #
-0.0047686876823713753026368067367002 34:1 2087:1 #
-0.49999999999988375964932174611022 1502:1 4077:1 #
-0.49999999999988375964932174611022 1502:1 2359:1 #
-0.49860893987947951799810653028544 523:1 5123:1 #
-0.49724274159911152626278862953768 411:1 3120:1 #
0.49999999999988375964932174611022 903:1 2825:1 #
0.49999999999988375964932174611022 681:1 2825:1 #
0.49999999999988375964932174611022 1153:1 2825:1 #
0.49999999999988375964932174611022 1567:1 4844:1 #
0.49999999999988375964932174611022 34:1 2340:1 #
-0.013130865800872609794325285292871 375:1 4699:1 #
-0.020805254407115503223479890948511 375:1 1936:1 #
-0.02252798040983157445982243416438 375:1 4897:1 #
-0.022487550804205502785748649330344 375:1 3813:1 #
0.49999999999988375964932174611022 324:1 5123:1 #
0.49999999999988375964932174611022 1319:1 2359:1 #
-0.011881565073443012270359986359836 1068:1 2479:1 #
-0.011881565073443026148147794174292 1068:1 3803:1 #
-0.011881565073442956759208755102009 1068:1 4783:1 #
-0.011894637486126569125843843721668 1068:1 4478:1 #
-0.011881565073442984514784370730922 1068:1 4759:1 #
0.46936039298434661937164946721168 689:1 2359:1 #
0.49999999999988375964932174611022 141:1 2359:1 #
0.49999999999988375964932174611022 749:1 2359:1 #
0.49999999999988375964932174611022 227:1 2359:1 #
-0.49999999999988375964932174611022 1682:1 2359:1 #
0.49999999999988375964932174611022 324:1 5123:1 #
-0.26601096749043029454639963660156 523:1 5123:1 #
-0.013094925961156689275810549588641 540:1 3337:1 #
-0.016254000368746551741239159127872 1062:1 3072:1 #
0.49215480298310010365270272814087 422:1 2359:1 #
-0.047108291272622254686197607043141 1153:1 2645:1 #
-0.047108291272622247747303703135913 1153:1 2909:1 #
0.49999999999988375964932174611022 1059:1 2359:1 #
0.23428485528421594263903671162552 422:1 2359:1 #
0.49999999999988375964932174611022 1319:1 2359:1 #
-0.49999999999988375964932174611022 1059:1 2359:1 #
0.49999999999988375964932174611022 1502:1 4077:1 #
0.49999999999988375964932174611022 375:1 4014:1 #
0.49999999999988375964932174611022 1142:1 1811:1 #
-0.49999999999988375964932174611022 1319:1 2359:1 #
-0.49999999999988375964932174611022 1597:1 2825:1 #
0.49578277763334521743843197327806 1682:1 2340:1 #
0.49999999999988375964932174611022 1545:1 2340:1 #
0.49999999999988375964932174611022 1295:1 1811:1 #
-0.49999999999988375964932174611022 1342:1 1811:1 #
0.49999999999988375964932174611022 239:1 2340:1 #
0.49681303464303833150594869039196 1494:1 2340:1 #
0.49999999999988375964932174611022 1273:1 2340:1 #
0.49580910369036618190463627797726 703:1 2340:1 #
0.49999999999988375964932174611022 1335:1 2340:1 #
0.49999999999988375964932174611022 1402:1 1811:1 #
0.49999999999988375964932174611022 1111:1 1811:1 #
0.49999999999988375964932174611022 735:1 1811:1 #
-0.49999999999988375964932174611022 227:1 2359:1 #
0.49999999999988375964932174611022 1342:1 2340:1 #
-0.49999999999988375964932174611022 1342:1 1811:1 #
0.49999999999988375964932174611022 9:1 2340:1 #
0.49999999999988375964932174611022 227:1 2359:1 #
-0.49999999999988375964932174611022 227:1 2359:1 #
-0.49999999999988375964932174611022 749:1 2359:1 #
0.49999999999988375964932174611022 1652:1 2340:1 #
0.49999999999988375964932174611022 749:1 2359:1 #
0.49999999999988375964932174611022 227:1 2359:1 #
-0.49999999999988375964932174611022 227:1 2359:1 #
0.49999999999988375964932174611022 533:1 2340:1 #
0.49999999999988375964932174611022 135:1 2340:1 #
-0.49999999999988375964932174611022 227:1 2359:1 #
-0.49999999999988375964932174611022 227:1 2359:1 #
0.49999999999988375964932174611022 1342:1 2340:1 #
0.49999999999988375964932174611022 227:1 2359:1 #
0.49999999999988375964932174611022 1623:1 4014:1 #
0.49999999999988375964932174611022 1429:1 2340:1 #
0.49999999999988375964932174611022 849:1 2340:1 #
0.49999999999988375964932174611022 1059:1 2359:1 #
0.49999999999988375964932174611022 709:1 2465:1 #
0.49999999999988375964932174611022 749:1 2359:1 #
0.49999999999988375964932174611022 1319:1 2359:1 #
0.49999999999988375964932174611022 227:1 2359:1 #
0.49999999999988375964932174611022 1799:1 4014:1 #
0.49999999999988375964932174611022 227:1 2359:1 #
0.49999999999988375964932174611022 375:1 4014:1 #
0.49999999999988375964932174611022 903:1 4922:1 #
0.49999999999988375964932174611022 375:1 4920:1 #
-0.49999999999988375964932174611022 1059:1 2359:1 #
0.49999999999988375964932174611022 411:1 4423:1 #
-0.49999999999988375964932174611022 34:1 2340:1 #
-0.49999999999988375964932174611022 749:1 2359:1 #
-0.49999999999988375964932174611022 1319:1 2359:1 #
-0.49999999999988375964932174611022 1335:1 2359:1 #
-0.49999999999988375964932174611022 1059:1 2359:1 #
