SVM-light Version V6.02
0 # kernel type
3 # kernel parameter -d 
1 # kernel parameter -g 
1 # kernel parameter -s 
1 # kernel parameter -r 
empty# kernel parameter -u 
5564 # highest feature index 
13406 # number of training documents 
5428 # number of support vectors plus 1 
1.0842994 # threshold b, each following line is a SV (starting with alpha*y)
-0.012731839767691252585102290595387 1179:1 2367:1 #
-0.015683402692793002586313377832994 863:1 2035:1 #
-0.013130066985231447773685431457125 806:1 1954:1 #
-0.022240948031208778584710827885829 805:1 4503:1 #
-0.013340137444399324806454387726262 445:1 3856:1 #
0.12315873916855590852748036923003 806:1 2384:1 #
-0.013262731269192430325065679141971 168:1 4157:1 #
0.4999999999998833155601118960476 881:1 2384:1 #
0.4999999999998833155601118960476 35:1 2384:1 #
-0.4999999999998833155601118960476 35:1 2384:1 #
0.4999999999998833155601118960476 556:1 4503:1 #
0.4999999999998833155601118960476 1621:1 4503:1 #
0.4999999999998833155601118960476 388:1 4503:1 #
0.4999999999998833155601118960476 374:1 4503:1 #
0.4999999999998833155601118960476 444:1 4503:1 #
-0.4999999999998833155601118960476 388:1 2384:1 #
-0.4999999999998833155601118960476 550:1 2384:1 #
-0.4999999999998833155601118960476 486:1 2384:1 #
-0.4999999999998833155601118960476 1592:1 2384:1 #
0.4999999999998833155601118960476 35:1 3047:1 #
0.4999999999998833155601118960476 35:1 2081:1 #
0.4999999999998833155601118960476 35:1 3057:1 #
0.4999999999998833155601118960476 35:1 2877:1 #
0.4999999999998833155601118960476 35:1 3129:1 #
-0.48767447036110428415511819366657 35:1 2877:1 #
-0.014487437211159498451351623771188 790:1 4329:1 #
0.4999999999998833155601118960476 550:1 2384:1 #
0.4999999999998833155601118960476 1592:1 2384:1 #
-0.36306819282135516235854311162257 35:1 2081:1 #
-0.25227597290616160519149957508489 35:1 3129:1 #
0.4999999999998833155601118960476 1592:1 2877:1 #
0.4999999999998833155601118960476 486:1 2384:1 #
-0.4999999999998833155601118960476 1592:1 2384:1 #
0.4999999999998833155601118960476 35:1 3877:1 #
0.4999999999998833155601118960476 35:1 2338:1 #
-0.4999999999998833155601118960476 386:1 2877:1 #
-0.36471883017876771670984226147993 704:1 3396:1 #
0.4999999999998833155601118960476 388:1 5355:1 #
0.4999999999998833155601118960476 388:1 4487:1 #
0.4999999999998833155601118960476 388:1 4877:1 #
0.4999999999998833155601118960476 1363:1 3447:1 #
-0.4999999999998833155601118960476 1363:1 4503:1 #
-0.49564571055500888929756797551818 1363:1 3447:1 #
0.4999999999998833155601118960476 550:1 3047:1 #
0.4999999999998833155601118960476 1592:1 3047:1 #
0.4999999999998833155601118960476 486:1 2384:1 #
0.4999999999998833155601118960476 1363:1 4675:1 #
0.4999999999998833155601118960476 1363:1 2878:1 #
0.4999999999998833155601118960476 1363:1 2672:1 #
-0.0047103379587327687261222308734432 1179:1 1853:1 #
-0.4999999999998833155601118960476 1592:1 3047:1 #
-0.022811644563024792431438214634909 337:1 4834:1 #
-0.4999999999998833155601118960476 773:1 3047:1 #
0.4999999999998833155601118960476 977:1 4503:1 #
0.4999999999998833155601118960476 1086:1 4503:1 #
0.4999999999998833155601118960476 1174:1 4503:1 #
0.4999999999998833155601118960476 891:1 4503:1 #
-0.4999999999998833155601118960476 977:1 4503:1 #
0.4999999999998833155601118960476 1363:1 3047:1 #
-0.00047420742323267539575226692249998 821:1 3877:1 #
-0.39992433821412209926648984037456 1086:1 3877:1 #
-0.18690946029673494166445379960351 878:1 2319:1 #
-0.021327856056067295842382236514823 1174:1 2672:1 #
0.4999999999998833155601118960476 977:1 3047:1 #
-0.4999999999998833155601118960476 1363:1 3047:1 #
-0.4999999999998833155601118960476 550:1 3047:1 #
-0.4999999999998833155601118960476 139:1 3047:1 #
-0.4999999999998833155601118960476 401:1 3047:1 #
0.4999999999998833155601118960476 486:1 4507:1 #
-0.4999999999998833155601118960476 486:1 2384:1 #
0.4999999999998833155601118960476 386:1 4080:1 #
-0.4999999999998833155601118960476 977:1 4503:1 #
0.4999999999998833155601118960476 486:1 2384:1 #
-0.4999999999998833155601118960476 388:1 2384:1 #
-0.4999999999998833155601118960476 1363:1 2384:1 #
-0.4999999999998833155601118960476 35:1 2384:1 #
0.4999999999998833155601118960476 977:1 3047:1 #
-0.4999999999998833155601118960476 977:1 4503:1 #
-0.4999999999998833155601118960476 444:1 4503:1 #
-0.011204868787587996328825035163845 550:1 3284:1 #
-0.013739495344126845949306314764726 422:1 5029:1 #
-0.4999999999998833155601118960476 1088:1 3047:1 #
-0.4999999999998833155601118960476 1727:1 3047:1 #
-0.4999999999998833155601118960476 1592:1 4503:1 #
-0.4999999999998833155601118960476 1363:1 4503:1 #
-0.35797000822185831570010350333177 842:1 4503:1 #
0.4999999999998833155601118960476 307:1 3047:1 #
0.4999999999998833155601118960476 1813:1 3047:1 #
0.4999999999998833155601118960476 1632:1 3047:1 #
-0.4999999999998833155601118960476 1632:1 3057:1 #
-0.4999999999998833155601118960476 775:1 3047:1 #
-0.4999999999998833155601118960476 599:1 3047:1 #
-0.4999999999998833155601118960476 351:1 3047:1 #
-0.4999999999998833155601118960476 1372:1 3047:1 #
-0.4999999999998833155601118960476 307:1 4503:1 #
-0.016358205800209413283141657302622 1190:1 3603:1 #
-0.013108562955519764692269291117555 390:1 2199:1 #
-0.0027118489843823328014349449688325 1632:1 2081:1 #
-0.27196811452018865296054173086304 1621:1 3469:1 #
0.4999999999998833155601118960476 1372:1 3047:1 #
-0.4999999999998833155601118960476 1372:1 4080:1 #
-0.24252568509716265765518983243965 374:1 2672:1 #
-0.38521300468887997858757898939075 556:1 2672:1 #
-0.12978993075912609311828305180825 1621:1 2672:1 #
-0.013018731432682090209951297765656 374:1 3949:1 #
-0.013018731432682312254556222796964 374:1 5552:1 #
-0.4999999999998833155601118960476 35:1 2384:1 #
0.4999999999998833155601118960476 1592:1 4248:1 #
0.4999999999998833155601118960476 950:1 3447:1 #
0.4999999999998833155601118960476 99:1 3447:1 #
0.4999999999998833155601118960476 1045:1 3447:1 #
0.4999999999998833155601118960476 95:1 3447:1 #
-0.40482609213990172758457219970296 1813:1 5179:1 #
-0.013344042895174657026302611484425 1689:1 4640:1 #
-0.4999999999998833155601118960476 386:1 4248:1 #
-0.012365815472155466253623146144491 374:1 2888:1 #
-0.013018731432682062454375682136742 374:1 5504:1 #
-0.01122757212744068290588561609411 35:1 2138:1 #
-0.47061995824828217749313807871658 35:1 2338:1 #
-0.4999999999998833155601118960476 35:1 3057:1 #
0.096083212668842538084490456640196 1232:1 2384:1 #
0.4999999999998833155601118960476 1343:1 3447:1 #
0.4999999999998833155601118960476 1179:1 3447:1 #
0.4999999999998833155601118960476 165:1 3447:1 #
0.4999999999998833155601118960476 554:1 3447:1 #
0.4999999999998833155601118960476 486:1 2384:1 #
0.4999999999998833155601118960476 386:1 4080:1 #
-0.4999999999998833155601118960476 1592:1 2384:1 #
0.4999999999998833155601118960476 1372:1 3047:1 #
-0.4999999999998833155601118960476 1372:1 4080:1 #
0.4999999999998833155601118960476 1592:1 2384:1 #
-0.4999999999998833155601118960476 1592:1 2384:1 #
0.4999999999998833155601118960476 926:1 3447:1 #
-0.4999999999998833155601118960476 926:1 2384:1 #
-0.4999999999998833155601118960476 550:1 2384:1 #
0.4999999999998833155601118960476 1372:1 3047:1 #
0.4999999999998833155601118960476 1363:1 3899:1 #
-0.4999999999998833155601118960476 1592:1 3047:1 #
0.4999999999998833155601118960476 1592:1 2384:1 #
-0.4999999999998833155601118960476 1372:1 4080:1 #
0.4999999999998833155601118960476 1592:1 2384:1 #
-0.4999999999998833155601118960476 1363:1 2384:1 #
0.4999999999998833155601118960476 386:1 4080:1 #
-0.016074480747562163579500449372972 386:1 4758:1 #
-0.4999999999998833155601118960476 386:1 2069:1 #
-0.015921818569146817257120574140572 386:1 1976:1 #
-0.4999999999998833155601118960476 386:1 1853:1 #
0.4999999999998833155601118960476 486:1 2384:1 #
0.4999999999998833155601118960476 1363:1 1853:1 #
0.4999999999998833155601118960476 386:1 3181:1 #
0.4999999999998833155601118960476 386:1 4983:1 #
-0.4999999999998833155601118960476 1343:1 4080:1 #
-0.4999999999998833155601118960476 1592:1 2384:1 #
0.4999999999998833155601118960476 1372:1 3047:1 #
0.4999999999998833155601118960476 1363:1 5090:1 #
0.4999999999998833155601118960476 1363:1 2193:1 #
0.4999999999998833155601118960476 1363:1 4372:1 #
0.4999999999998833155601118960476 1592:1 2384:1 #
0.4999999999998833155601118960476 390:1 3047:1 #
0.4999999999998833155601118960476 316:1 3047:1 #
0.4999999999998833155601118960476 1368:1 3447:1 #
0.4999999999998833155601118960476 1237:1 3047:1 #
0.4999999999998833155601118960476 1234:1 3047:1 #
0.4999999999998833155601118960476 1136:1 3047:1 #
0.4999999999998833155601118960476 386:1 4080:1 #
0.4999999999998833155601118960476 35:1 3047:1 #
0.4999999999998833155601118960476 1592:1 2384:1 #
0.4999999999998833155601118960476 386:1 4080:1 #
-0.4999999999998833155601118960476 1372:1 4080:1 #
0.4999999999998833155601118960476 1372:1 3047:1 #
0.4999999999998833155601118960476 1560:1 3047:1 #
-0.4999999999998833155601118960476 1363:1 3447:1 #
-0.4999999999998833155601118960476 386:1 3447:1 #
0.0076023146006624631176862294523744 83:1 2384:1 #
0.4999999999998833155601118960476 550:1 3877:1 #
0.4999999999998833155601118960476 1088:1 3877:1 #
0.4999999999998833155601118960476 1088:1 3057:1 #
0.4999999999998833155601118960476 139:1 2672:1 #
0.4999999999998833155601118960476 1372:1 3877:1 #
-0.4999999999998833155601118960476 538:1 3047:1 #
-0.4999999999998833155601118960476 80:1 3047:1 #
-0.4999999999998833155601118960476 1652:1 3047:1 #
-0.4999999999998833155601118960476 968:1 3047:1 #
-0.4999999999998833155601118960476 1258:1 3047:1 #
0.4999999999998833155601118960476 401:1 3407:1 #
0.4999999999998833155601118960476 401:1 4784:1 #
0.4999999999998833155601118960476 401:1 2271:1 #
0.4999999999998833155601118960476 422:1 2069:1 #
-0.4999999999998833155601118960476 486:1 2384:1 #
-0.4999999999998833155601118960476 422:1 2384:1 #
0.4999999999998833155601118960476 704:1 3047:1 #
0.4999999999998833155601118960476 1340:1 3047:1 #
0.4999999999998833155601118960476 927:1 3047:1 #
-0.4999999999998833155601118960476 1363:1 3181:1 #
-0.4999999999998833155601118960476 390:1 3181:1 #
-0.4999999999998833155601118960476 704:1 3047:1 #
-0.4999999999998833155601118960476 1136:1 3899:1 #
0.4999999999998833155601118960476 1258:1 4503:1 #
0.4999999999998833155601118960476 1258:1 1857:1 #
0.4999999999998833155601118960476 1258:1 1896:1 #
0.4999999999998833155601118960476 1258:1 4592:1 #
-0.49550088413798387687592139627668 1258:1 3447:1 #
-0.4999999999998833155601118960476 1363:1 4503:1 #
-0.43107500136476972762977766251424 1363:1 2271:1 #
0.4999999999998833155601118960476 842:1 5039:1 #
0.4999999999998833155601118960476 1146:1 5179:1 #
0.4999999999998833155601118960476 337:1 5179:1 #
-0.4999999999998833155601118960476 1146:1 3047:1 #
-0.01324332673951986519278456455595 1363:1 5549:1 #
-0.013190122540132596939965736737577 1363:1 2933:1 #
-0.013160828302194145858483587119281 1363:1 4948:1 #
-0.013326966644206857115495523657955 1363:1 3910:1 #
-0.013190122540132590001071832830348 1363:1 3861:1 #
0.4999999999998833155601118960476 1087:1 3047:1 #
-0.4999999999998833155601118960476 2:1 3047:1 #
-0.4999999999998833155601118960476 718:1 3047:1 #
-0.4999999999998833155601118960476 1362:1 3047:1 #
-0.4999999999998833155601118960476 1120:1 3047:1 #
-0.4999999999998833155601118960476 550:1 3047:1 #
-0.028806543492932122629834879035116 1841:1 2105:1 #
-0.49678208757550512686407273577061 1234:1 3447:1 #
-0.49640485168840586815974802448181 927:1 3447:1 #
0.4999999999998833155601118960476 1196:1 4877:1 #
0.4166101218069833134194368540193 428:1 3047:1 #
0.4999999999998833155601118960476 812:1 3047:1 #
0.4999999999998833155601118960476 1693:1 3047:1 #
0.4999999999998833155601118960476 712:1 3047:1 #
0.4999999999998833155601118960476 977:1 3047:1 #
-0.4999999999998833155601118960476 1119:1 3047:1 #
-0.4999999999998833155601118960476 1067:1 3047:1 #
-0.4999999999998833155601118960476 1805:1 3047:1 #
-0.4999999999998833155601118960476 65:1 3047:1 #
-0.4999999999998833155601118960476 83:1 3047:1 #
-0.49861306533348498382096636305505 95:1 3447:1 #
-0.051434073919461975599176639661891 1179:1 3447:1 #
-0.39972801764518528511160866401042 704:1 3442:1 #
-0.4999999999998833155601118960476 554:1 2384:1 #
-0.4999999999998833155601118960476 99:1 2384:1 #
-0.4999999999998833155601118960476 950:1 2384:1 #
-0.4999999999998833155601118960476 1045:1 2384:1 #
0.4999999999998833155601118960476 789:1 3047:1 #
0.4999999999998833155601118960476 927:1 3047:1 #
0.4999999999998833155601118960476 390:1 3047:1 #
-0.4999999999998833155601118960476 365:1 3047:1 #
0.4999999999998833155601118960476 2:1 3057:1 #
-0.4999999999998833155601118960476 386:1 2371:1 #
-0.016124230799359356297584255912625 386:1 4960:1 #
-0.4999999999998833155601118960476 863:1 4685:1 #
-0.015921818569146817257120574140572 386:1 3879:1 #
-0.016074480747562389093552326357894 386:1 2835:1 #
0.4999999999998833155601118960476 550:1 2583:1 #
0.4999999999998833155601118960476 550:1 3841:1 #
0.4999999999998833155601118960476 550:1 2033:1 #
0.4999999999998833155601118960476 2:1 4281:1 #
0.4999999999998833155601118960476 1805:1 3903:1 #
0.4999999999998833155601118960476 1805:1 3813:1 #
0.4999999999998833155601118960476 445:1 2371:1 #
-0.013326966644206628131996694719419 1363:1 4269:1 #
-0.21007002509684769009368210390676 1363:1 3167:1 #
-0.0058415164874332514699517560075037 977:1 5155:1 #
-0.013163558916446937985256226966158 1363:1 4535:1 #
-0.01333924417175880172692359337816 1363:1 2715:1 #
0.4999999999998833155601118960476 1504:1 4503:1 #
0.4999999999998833155601118960476 168:1 4503:1 #
0.4999999999998833155601118960476 47:1 4503:1 #
0.4999999999998833155601118960476 609:1 4503:1 #
0.4999999999998833155601118960476 1593:1 4503:1 #
-0.4999999999998833155601118960476 1372:1 4080:1 #
-0.091679996816533271264404447720153 789:1 3447:1 #
-0.4999999999998833155601118960476 1136:1 3899:1 #
0.4999999999998833155601118960476 1372:1 1853:1 #
-0.4999999999998833155601118960476 1372:1 4080:1 #
0.4999999999998833155601118960476 1278:1 3167:1 #
0.4999999999998833155601118960476 704:1 3167:1 #
-0.4999999999998833155601118960476 1363:1 1853:1 #
-0.4999999999998833155601118960476 1363:1 3167:1 #
0.4999999999998833155601118960476 1146:1 4746:1 #
-0.22456040343873462372670246622874 927:1 3447:1 #
-0.49552758390654616516002306525479 390:1 3447:1 #
-0.49035968834458804055387304288161 1592:1 3181:1 #
0.4999999999998833155601118960476 1182:1 4833:1 #
0.4999999999998833155601118960476 862:1 2500:1 #
0.4999999999998833155601118960476 1396:1 5088:1 #
0.4999999999998833155601118960476 946:1 2877:1 #
0.4999999999998833155601118960476 95:1 3047:1 #
0.4999999999998833155601118960476 444:1 3442:1 #
0.4999999999998833155601118960476 1455:1 3076:1 #
0.4999999999998833155601118960476 1526:1 3396:1 #
0.4999999999998833155601118960476 1841:1 3485:1 #
-0.4999999999998833155601118960476 1258:1 4503:1 #
0.49463118422905583138060592318652 1363:1 2384:1 #
-0.4999999999998833155601118960476 337:1 5179:1 #
-0.4999999999998833155601118960476 977:1 4983:1 #
-0.4999999999998833155601118960476 1146:1 4983:1 #
0.4999999999998833155601118960476 386:1 4080:1 #
0.4999999999998833155601118960476 386:1 3181:1 #
-0.014765146638875736861962195689557 878:1 3853:1 #
-0.4999999999998833155601118960476 445:1 2877:1 #
-0.4999999999998833155601118960476 1087:1 3396:1 #
-0.012664970877486241007670031422094 1179:1 2301:1 #
-0.49915679175050664539980971312616 554:1 2193:1 #
0.4999999999998833155601118960476 977:1 3447:1 #
0.4999999999998833155601118960476 65:1 2672:1 #
0.4999999999998833155601118960476 1136:1 3899:1 #
-0.4999999999998833155601118960476 401:1 3877:1 #
-0.4999999999998833155601118960476 977:1 3057:1 #
-0.05199114790188086310251946997596 401:1 3891:1 #
0.22084282008289390919486550046713 374:1 2384:1 #
0.4999999999998833155601118960476 1363:1 2384:1 #
-0.4999999999998833155601118960476 812:1 4833:1 #
0.4999999999998833155601118960476 1655:1 4080:1 #
-0.4999999999998833155601118960476 1693:1 3903:1 #
-0.011437284796566358699432264245388 961:1 3406:1 #
0.4999999999998833155601118960476 539:1 3181:1 #
0.4999999999998833155601118960476 252:1 3181:1 #
0.4999999999998833155601118960476 399:1 3181:1 #
0.4999999999998833155601118960476 1632:1 3181:1 #
0.4999999999998833155601118960476 434:1 3181:1 #
-0.4999999999998833155601118960476 1258:1 3181:1 #
-0.4999999999998833155601118960476 1136:1 1896:1 #
-0.4999999999998833155601118960476 1234:1 4592:1 #
0.4999999999998833155601118960476 1592:1 2384:1 #
-0.4999999999998833155601118960476 235:1 2401:1 #
-0.4999999999998833155601118960476 1113:1 2401:1 #
0.4999999999998833155601118960476 1146:1 3903:1 #
0.4999999999998833155601118960476 1241:1 3877:1 #
0.4999999999998833155601118960476 792:1 3877:1 #
0.4999999999998833155601118960476 1078:1 3877:1 #
-0.072871490151195095208436214306857 165:1 3877:1 #
-0.059372526138234738013466085249092 1161:1 2589:1 #
-0.011833778201073230640361089172075 1039:1 4946:1 #
-0.011377684357336116313663687549251 35:1 4381:1 #
0.4999999999998833155601118960476 1084:1 2401:1 #
0.4999999999998833155601118960476 1644:1 3485:1 #
0.4999999999998833155601118960476 1363:1 2163:1 #
0.4999999999998833155601118960476 1363:1 4910:1 #
0.4999999999998833155601118960476 1363:1 3546:1 #
-0.014524494461749193341404406965012 1108:1 1988:1 #
0.4999999999998833155601118960476 1094:1 3877:1 #
0.4999999999998833155601118960476 861:1 3877:1 #
0.4999999999998833155601118960476 1365:1 3877:1 #
0.4999999999998833155601118960476 765:1 3877:1 #
0.4999999999998833155601118960476 1206:1 3877:1 #
-0.4999999999998833155601118960476 434:1 3903:1 #
-0.16397043298935576327579610733665 862:1 3877:1 #
-0.013459313995690502796520604533725 927:1 2894:1 #
0.4999999999998833155601118960476 434:1 3903:1 #
0.4999999999998833155601118960476 434:1 2877:1 #
0.4999999999998833155601118960476 434:1 2062:1 #
-0.4999999999998833155601118960476 434:1 2877:1 #
-0.49345435612788102197612261079485 434:1 3546:1 #
-0.49970497590004853138978546667204 434:1 4910:1 #
-0.4999999999998833155601118960476 434:1 3899:1 #
0.4999999999998833155601118960476 789:1 3877:1 #
-0.011227572127440656885033476442004 35:1 3178:1 #
-0.011190464545345113478447274246719 1267:1 5247:1 #
0.4999999999998833155601118960476 434:1 4970:1 #
0.4999999999998833155601118960476 434:1 4880:1 #
-0.011086523839770451999031664058748 1686:1 2896:1 #
-0.4999999999998833155601118960476 434:1 2877:1 #
-0.4999999999998833155601118960476 1655:1 2069:1 #
0.4999999999998833155601118960476 1365:1 5081:1 #
0.4999999999998833155601118960476 1136:1 3899:1 #
-0.4999999999998833155601118960476 765:1 3899:1 #
-0.013007201582510119486357780260732 1365:1 1896:1 #
-0.4999999999998833155601118960476 1136:1 3903:1 #
0.4999999999998833155601118960476 434:1 2877:1 #
0.4999999999998833155601118960476 1295:1 2069:1 #
0.4999999999998833155601118960476 1186:1 2069:1 #
0.4999999999998833155601118960476 1552:1 2069:1 #
-0.40420392613571465290078776888549 388:1 2069:1 #
-0.4999999999998833155601118960476 1182:1 2069:1 #
-0.3676314956669378686271443257283 946:1 2069:1 #
-0.01146990268282355174278563936241 74:1 3245:1 #
0.4999999999998833155601118960476 1136:1 3899:1 #
0.4999999999998833155601118960476 269:1 3903:1 #
0.4999999999998833155601118960476 1211:1 3903:1 #
0.4999999999998833155601118960476 576:1 3903:1 #
-0.26168674304243189077112674567616 67:1 3903:1 #
-0.26168674304243189077112674567616 1282:1 3903:1 #
-0.4999999999998833155601118960476 429:1 3903:1 #
-0.26168674304243194628227797693398 855:1 3903:1 #
-0.4999999999998833155601118960476 1430:1 3903:1 #
0.4999999999998833155601118960476 1632:1 2069:1 #
0.4999999999998833155601118960476 1105:1 2069:1 #
0.4999999999998833155601118960476 805:1 2069:1 #
-0.013102552195280800159671308335874 390:1 4185:1 #
0.4999999999998833155601118960476 1451:1 3903:1 #
0.4999999999998833155601118960476 787:1 3903:1 #
0.4999999999998833155601118960476 1011:1 3903:1 #
0.4999999999998833155601118960476 590:1 3903:1 #
0.4999999999998833155601118960476 728:1 3903:1 #
-0.4999999999998833155601118960476 269:1 2500:1 #
-0.4999999999998833155601118960476 576:1 3899:1 #
-0.4999999999998833155601118960476 1094:1 3899:1 #
-0.046543826617401973244625423831167 778:1 1877:1 #
-0.013202421622320215099932738667121 91:1 3169:1 #
0.4999999999998833155601118960476 1230:1 4910:1 #
0.4999999999998833155601118960476 736:1 4910:1 #
0.4999999999998833155601118960476 1601:1 4910:1 #
0.4999999999998833155601118960476 56:1 4910:1 #
0.4999999999998833155601118960476 622:1 3396:1 #
-0.38961682821350873684451698863995 1295:1 3396:1 #
-0.49903519414416064314821142033907 128:1 2384:1 #
-0.4999999999998833155601118960476 704:1 3396:1 #
0.4999999999998833155601118960476 269:1 4685:1 #
0.4999999999998833155601118960476 269:1 4544:1 #
0.4999999999998833155601118960476 269:1 4551:1 #
0.4999999999998833155601118960476 269:1 2558:1 #
-0.0022291571883679139887135534081608 1084:1 2447:1 #
-0.014473085264085210413509408056143 269:1 4733:1 #
-0.014374730145891093102683555571275 269:1 5025:1 #
-0.014565000210017081672120298208029 269:1 5200:1 #
0.4999999999998833155601118960476 961:1 3396:1 #
0.4999999999998833155601118960476 745:1 3396:1 #
0.4999999999998833155601118960476 877:1 3396:1 #
0.4999999999998833155601118960476 502:1 3396:1 #
-0.015583784496855712653484715701779 1277:1 3599:1 #
-0.4999999999998833155601118960476 168:1 3396:1 #
-0.4999999999998833155601118960476 1084:1 2401:1 #
-0.4999999999998833155601118960476 1632:1 4544:1 #
-0.38402749944540709448048687590926 1179:1 4544:1 #
-0.4999999999998833155601118960476 704:1 4544:1 #
-0.33821826317349867885297953762347 1504:1 4685:1 #
0.4999999999998833155601118960476 1373:1 3396:1 #
0.4999999999998833155601118960476 1804:1 3396:1 #
0.4999999999998833155601118960476 1600:1 3396:1 #
0.4999999999998833155601118960476 1767:1 3396:1 #
0.4999999999998833155601118960476 603:1 3396:1 #
-0.4999999999998833155601118960476 269:1 3396:1 #
-0.36628073811342487520192889860482 1094:1 3396:1 #
-0.23387517899203624782700217110687 434:1 3396:1 #
0.4999999999998833155601118960476 1144:1 4544:1 #
0.4999999999998833155601118960476 1198:1 4544:1 #
0.4999999999998833155601118960476 1750:1 4544:1 #
0.4999999999998833155601118960476 307:1 4544:1 #
-0.39212676982901895073041487194132 1136:1 4544:1 #
-0.4593229007894463200578627493087 927:1 4544:1 #
-0.27235906676186105723758146268665 1372:1 4544:1 #
0.4999999999998833155601118960476 434:1 1902:1 #
0.4999999999998833155601118960476 434:1 4693:1 #
0.4999999999998833155601118960476 1033:1 4685:1 #
-0.4999999999998833155601118960476 622:1 3903:1 #
-0.4999999999998833155601118960476 1033:1 2877:1 #
-0.4999999999998833155601118960476 961:1 4487:1 #
-0.36641566070321929249331560640712 1146:1 4503:1 #
-0.013673727837231475223944698882406 1011:1 3064:1 #
0.4999999999998833155601118960476 745:1 4544:1 #
-0.4999999999998833155601118960476 1084:1 2343:1 #
-0.014381510666847535651058365147037 269:1 4766:1 #
0.38664384374250093667768624072778 235:1 2401:1 #
0.01571649062040875177714838173415 50:1 2384:1 #
0.4999999999998833155601118960476 882:1 3955:1 #
0.4999999999998833155601118960476 184:1 4208:1 #
0.4999999999998833155601118960476 302:1 2877:1 #
0.4999999999998833155601118960476 526:1 4000:1 #
-0.4999999999998833155601118960476 745:1 2877:1 #
-0.4999999999998833155601118960476 184:1 5090:1 #
-0.4999999999998833155601118960476 603:1 2877:1 #
-0.4999999999998833155601118960476 1087:1 4544:1 #
0.4999999999998833155601118960476 1094:1 3903:1 #
-0.4999999999998833155601118960476 603:1 3903:1 #
-0.4999999999998833155601118960476 390:1 4000:1 #
-0.4999999999998833155601118960476 1011:1 3903:1 #
0.4999999999998833155601118960476 1372:1 4080:1 #
-0.4999999999998833155601118960476 818:1 4675:1 #
-0.4999999999998833155601118960476 302:1 5081:1 #
-0.4999999999998833155601118960476 1372:1 4784:1 #
-0.42319783764097240741364203131525 681:1 4080:1 #
0.4999999999998833155601118960476 1139:1 3396:1 #
0.4999999999998833155601118960476 341:1 3396:1 #
0.4999999999998833155601118960476 816:1 3396:1 #
0.4999999999998833155601118960476 600:1 3396:1 #
0.4999999999998833155601118960476 928:1 3396:1 #
-0.4999999999998833155601118960476 434:1 3396:1 #
-0.31672523209165154289834731571318 576:1 3396:1 #
-0.44866444908429381488446097137057 168:1 2877:1 #
0.4999999999998833155601118960476 818:1 3460:1 #
0.4999999999998833155601118960476 1182:1 2877:1 #
0.4999999999998833155601118960476 805:1 2877:1 #
-0.10169198302250603838103870657505 550:1 2877:1 #
-0.40996198816815221377396483148914 792:1 2877:1 #
0.4999999999998833155601118960476 1396:1 3396:1 #
0.4999999999998833155601118960476 1011:1 3396:1 #
-0.052180114983105374548699728620704 805:1 3396:1 #
0.4999999999998833155601118960476 73:1 2877:1 #
0.4999999999998833155601118960476 116:1 2877:1 #
0.4999999999998833155601118960476 1289:1 2877:1 #
-0.013239009016524694306582432545838 1365:1 4285:1 #
0.4999999999998833155601118960476 805:1 3521:1 #
0.4999999999998833155601118960476 805:1 3124:1 #
0.4999999999998833155601118960476 805:1 5374:1 #
-0.4999999999998833155601118960476 805:1 4880:1 #
-0.49639540540560422865468126474298 805:1 3955:1 #
-0.4999999999998833155601118960476 805:1 4503:1 #
0.4999999999998833155601118960476 1094:1 3903:1 #
0.4999999999998833155601118960476 344:1 3903:1 #
-0.45752419783661013585884802523651 468:1 3867:1 #
-0.2614776531439200191186955635203 1573:1 3903:1 #
-0.26168674304243216832688290196529 187:1 3903:1 #
-0.4999999999998833155601118960476 1094:1 2877:1 #
-0.4999999999998833155601118960476 953:1 3903:1 #
-0.26049403156246309087862300657434 916:1 3903:1 #
-0.2604057749264426790958282253996 1420:1 3903:1 #
-0.2611644227703286968989004890318 553:1 3903:1 #
0.4999999999998833155601118960476 805:1 2877:1 #
0.4999999999998833155601118960476 959:1 3955:1 #
0.4999999999998833155601118960476 212:1 3955:1 #
-0.014740681243633473040954839916594 878:1 4971:1 #
-0.015728028707829144056118408911971 1087:1 3404:1 #
-0.4999999999998833155601118960476 1146:1 5374:1 #
-0.38593366051856720089219265901193 961:1 2877:1 #
-0.39516313327023466772658366608084 316:1 4717:1 #
0.4999999999998833155601118960476 1210:1 3903:1 #
0.4999999999998833155601118960476 407:1 3903:1 #
0.4999999999998833155601118960476 27:1 3903:1 #
-0.4999999999998833155601118960476 139:1 3903:1 #
-0.4999999999998833155601118960476 1174:1 3903:1 #
-0.26026660228103870586835455469554 770:1 3903:1 #
-0.26110223151275946396054905562778 624:1 3903:1 #
-0.2604057749264426790958282253996 642:1 3903:1 #
0.4999999999998833155601118960476 134:1 4717:1 #
0.4999999999998833155601118960476 1623:1 4833:1 #
0.4999999999998833155601118960476 896:1 4833:1 #
0.4999999999998833155601118960476 94:1 4833:1 #
-0.4999999999998833155601118960476 805:1 4833:1 #
-0.0047296137583011481353434390939583 235:1 2343:1 #
-0.26040577492644256807352576288395 887:1 3903:1 #
-0.2616867430424323903714878269966 512:1 3903:1 #
-0.02883621066802764462688735136453 1841:1 4467:1 #
0.4999999999998833155601118960476 805:1 2877:1 #
-0.4999999999998833155601118960476 1237:1 2877:1 #
0.4999999999998833155601118960476 139:1 4308:1 #
0.4999999999998833155601118960476 856:1 4833:1 #
-0.46231062056621086142627063964028 139:1 5088:1 #
-0.457846780699170285977572802949 1211:1 5117:1 #
0.4999999999998833155601118960476 1336:1 2877:1 #
0.4999999999998833155601118960476 827:1 2877:1 #
0.4999999999998833155601118960476 1465:1 2877:1 #
0.4999999999998833155601118960476 540:1 2877:1 #
-0.021228690358797468878959691096497 1777:1 4780:1 #
0.4999999999998833155601118960476 603:1 3129:1 #
0.4999999999998833155601118960476 603:1 1905:1 #
0.4999999999998833155601118960476 603:1 2749:1 #
0.4999999999998833155601118960476 1211:1 5185:1 #
-0.4999999999998833155601118960476 390:1 3813:1 #
0.15237291211171566374105168506503 1315:1 2384:1 #
-0.083285596562659103270220839476679 428:1 2496:1 #
0.4999999999998833155601118960476 961:1 4629:1 #
0.4999999999998833155601118960476 961:1 4987:1 #
-0.4999999999998833155601118960476 1340:1 4487:1 #
-0.015952092068084455789289677341003 1560:1 4411:1 #
-0.32719527503195466877627950452734 1560:1 4532:1 #
0.4999999999998833155601118960476 1632:1 2674:1 #
0.4999999999998833155601118960476 1632:1 2568:1 #
0.4999999999998833155601118960476 1632:1 3033:1 #
-0.4999999999998833155601118960476 283:1 4877:1 #
-0.4999999999998833155601118960476 505:1 4877:1 #
-0.4999999999998833155601118960476 337:1 5355:1 #
-0.4999999999998833155601118960476 1759:1 4592:1 #
0.4999999999998833155601118960476 595:1 4532:1 #
0.4999999999998833155601118960476 553:1 5374:1 #
0.4999999999998833155601118960476 1372:1 4080:1 #
0.4999999999998833155601118960476 1363:1 4717:1 #
0.4999999999998833155601118960476 805:1 2877:1 #
0.4999999999998833155601118960476 184:1 4149:1 #
-0.013431599093414708923077682811709 1234:1 3671:1 #
-0.39677265814761208950756099511636 1065:1 4592:1 #
0.4999999999998833155601118960476 1065:1 3487:1 #
0.4999999999998833155601118960476 622:1 4633:1 #
0.4999999999998833155601118960476 501:1 4969:1 #
0.4999999999998833155601118960476 689:1 5329:1 #
0.4999999999998833155601118960476 168:1 1991:1 #
0.4999999999998833155601118960476 1824:1 3511:1 #
0.4999999999998833155601118960476 249:1 2959:1 #
0.4999999999998833155601118960476 1281:1 2671:1 #
0.4999999999998833155601118960476 1510:1 5027:1 #
0.4999999999998833155601118960476 1270:1 4444:1 #
0.4999999999998833155601118960476 761:1 2849:1 #
0.4999999999998833155601118960476 34:1 2155:1 #
0.4999999999998833155601118960476 1025:1 2778:1 #
0.4999999999998833155601118960476 1748:1 4394:1 #
0.4999999999998833155601118960476 1121:1 4000:1 #
0.4999999999998833155601118960476 1788:1 5080:1 #
0.4999999999998833155601118960476 436:1 1968:1 #
0.4999999999998833155601118960476 1499:1 4780:1 #
0.4999999999998833155601118960476 1833:1 1927:1 #
0.4999999999998833155601118960476 564:1 2458:1 #
0.4999999999998833155601118960476 439:1 4968:1 #
0.4999999999998833155601118960476 1682:1 4685:1 #
0.4999999999998833155601118960476 1084:1 2289:1 #
0.4999999999998833155601118960476 1308:1 5245:1 #
0.4999999999998833155601118960476 197:1 3282:1 #
-0.4999999999998833155601118960476 959:1 4080:1 #
-0.17538831997766390902171451671165 1601:1 4910:1 #
0.4999999999998833155601118960476 390:1 3877:1 #
0.4999999999998833155601118960476 337:1 3903:1 #
0.4999999999998833155601118960476 269:1 3899:1 #
0.4999999999998833155601118960476 139:1 3899:1 #
-0.4999999999998833155601118960476 1632:1 2384:1 #
-0.013108562955519542647664366086246 390:1 5237:1 #
0.4999999999998833155601118960476 554:1 2069:1 #
0.4999999999998833155601118960476 1258:1 4592:1 #
0.4999999999998833155601118960476 386:1 4983:1 #
-0.4999999999998833155601118960476 1396:1 3955:1 #
-0.4999999999998833155601118960476 1805:1 3487:1 #
-0.36263821146721630928055901676998 56:1 4910:1 #
-0.4999999999998833155601118960476 1258:1 3955:1 #
0.4999999999998833155601118960476 1174:1 3899:1 #
0.4999999999998833155601118960476 1430:1 3899:1 #
-0.4999999999998833155601118960476 407:1 3899:1 #
-0.4999999999998833155601118960476 961:1 3899:1 #
-0.4999999999998833155601118960476 168:1 3899:1 #
-0.45809100323164930745889478203026 1281:1 4308:1 #
-0.40317636948230506366286363117979 1465:1 4987:1 #
0.4999999999998833155601118960476 429:1 4877:1 #
0.4999999999998833155601118960476 704:1 2672:1 #
0.4999999999998833155601118960476 1087:1 2672:1 #
-0.4999999999998833155601118960476 1278:1 2672:1 #
-0.4999999999998833155601118960476 307:1 2672:1 #
-0.4999999999998833155601118960476 212:1 2672:1 #
0.4999999999998833155601118960476 1088:1 4544:1 #
0.4999999999998833155601118960476 1146:1 5179:1 #
-0.4999999999998833155601118960476 1144:1 5179:1 #
-0.4999999999998833155601118960476 1088:1 5374:1 #
-0.4999999999998833155601118960476 540:1 5179:1 #
0.4999999999998833155601118960476 977:1 2672:1 #
0.4999999999998833155601118960476 235:1 2401:1 #
-0.4999999999998833155601118960476 27:1 3181:1 #
-0.4999999999998833155601118960476 1841:1 4080:1 #
0.4999999999998833155601118960476 1727:1 2384:1 #
0.4999999999998833155601118960476 775:1 2384:1 #
0.4999999999998833155601118960476 83:1 2384:1 #
-0.40107026234424092425712160547846 728:1 4685:1 #
-0.49781306177022532910569907471654 1088:1 2877:1 #
-0.32836864217714323288532796141226 1336:1 3181:1 #
-0.4999999999998833155601118960476 388:1 5179:1 #
-0.24749557311007713833461707508832 307:1 2672:1 #
0.4999999999998833155601118960476 390:1 4685:1 #
0.4999999999998833155601118960476 390:1 2877:1 #
0.4999999999998833155601118960476 390:1 4248:1 #
-0.0014294814673635851398625362662642 95:1 3396:1 #
0.4999999999998833155601118960476 1258:1 2672:1 #
0.4999999999998833155601118960476 1146:1 5179:1 #
0.4999999999998833155601118960476 95:1 3903:1 #
0.4999999999998833155601118960476 1214:1 4592:1 #
0.4999999999998833155601118960476 790:1 4685:1 #
0.4999999999998833155601118960476 751:1 4685:1 #
-0.4999999999998833155601118960476 1088:1 2877:1 #
0.4999999999998833155601118960476 337:1 5179:1 #
0.4999999999998833155601118960476 1396:1 2457:1 #
-0.4999999999998833155601118960476 1841:1 4080:1 #
0.4999999999998833155601118960476 1841:1 3485:1 #
0.4999999999998833155601118960476 1234:1 3899:1 #
-0.4999999999998833155601118960476 540:1 5179:1 #
0.4999999999998833155601118960476 726:1 3899:1 #
0.4999999999998833155601118960476 1310:1 3899:1 #
0.4999999999998833155601118960476 1692:1 3899:1 #
0.4999999999998833155601118960476 1707:1 3899:1 #
0.4999999999998833155601118960476 1516:1 3899:1 #
-0.4999999999998833155601118960476 307:1 2672:1 #
-0.011317559612888092313021104473592 35:1 2306:1 #
-0.4999999999998833155601118960476 1841:1 4080:1 #
0.4999999999998833155601118960476 924:1 4543:1 #
0.4999999999998833155601118960476 1096:1 4741:1 #
0.4999999999998833155601118960476 1096:1 3958:1 #
0.4999999999998833155601118960476 1412:1 4904:1 #
0.4999999999998833155601118960476 712:1 2371:1 #
0.4999999999998833155601118960476 565:1 3630:1 #
0.4999999999998833155601118960476 1483:1 4127:1 #
0.4999999999998833155601118960476 1807:1 4435:1 #
-0.4999999999998833155601118960476 1088:1 2877:1 #
0.4999999999998833155601118960476 325:1 4877:1 #
0.4999999999998833155601118960476 926:1 2793:1 #
0.4999999999998833155601118960476 880:1 2911:1 #
0.4999999999998833155601118960476 385:1 4702:1 #
0.4999999999998833155601118960476 1293:1 2637:1 #
-0.22952685974520747880234239346464 1328:1 1927:1 #
-0.4999999999998833155601118960476 95:1 2384:1 #
-0.4999999999998833155601118960476 1198:1 2384:1 #
-0.4999999999998833155601118960476 1214:1 2384:1 #
0.4999999999998833155601118960476 1088:1 4487:1 #
0.4999999999998833155601118960476 1088:1 2877:1 #
-0.4999999999998833155601118960476 1258:1 3899:1 #
-0.4999999999998833155601118960476 1011:1 3899:1 #
-0.4999999999998833155601118960476 805:1 3899:1 #
0.4999999999998833155601118960476 1372:1 4080:1 #
-0.26883308209212031236745588103076 1510:1 4248:1 #
-0.4999999999998833155601118960476 1025:1 2401:1 #
-0.0057083237135517519295069277518451 772:1 3644:1 #
-0.4999999999998833155601118960476 1084:1 2401:1 #
0.4999999999998833155601118960476 307:1 3834:1 #
0.4999999999998833155601118960476 434:1 5179:1 #
0.4999999999998833155601118960476 796:1 2672:1 #
0.4999999999998833155601118960476 648:1 2672:1 #
-0.4999999999998833155601118960476 337:1 2672:1 #
-0.3941393612357785292132916765695 796:1 3511:1 #
-0.39149851358974929738110404286999 648:1 2877:1 #
-0.0040890117181511254074166572536342 629:1 5163:1 #
0.48803168391504136991443374427035 718:1 2401:1 #
0.4999999999998833155601118960476 1088:1 4561:1 #
0.4999999999998833155601118960476 1088:1 4098:1 #
-0.4999999999998833155601118960476 434:1 4629:1 #
-0.4999999999998833155601118960476 1623:1 4833:1 #
-0.4999999999998833155601118960476 712:1 3460:1 #
0.4999999999998833155601118960476 1057:1 2672:1 #
0.4999999999998833155601118960476 1353:1 2672:1 #
0.4999999999998833155601118960476 253:1 2672:1 #
0.4999999999998833155601118960476 525:1 2672:1 #
0.4999999999998833155601118960476 942:1 2672:1 #
-0.40181057332908676205107667556149 882:1 2672:1 #
-0.34346537236324536923604000548949 1353:1 2672:1 #
-0.088561281032759509024288036016515 622:1 2672:1 #
-0.4999999999998833155601118960476 790:1 2672:1 #
-0.4999999999998833155601118960476 444:1 2672:1 #
-0.4999999999998833155601118960476 1206:1 2384:1 #
-0.4999999999998833155601118960476 609:1 2384:1 #
-0.4999999999998833155601118960476 827:1 2384:1 #
-0.4999999999998833155601118960476 526:1 2384:1 #
0.4999999999998833155601118960476 434:1 5179:1 #
-0.4999999999998833155601118960476 1146:1 5179:1 #
0.4999999999998833155601118960476 1841:1 4080:1 #
-0.4999999999998833155601118960476 390:1 2877:1 #
-0.4999999999998833155601118960476 95:1 2877:1 #
-0.49830534788828906300750531954691 439:1 2877:1 #
-0.49396663662935402783205063315108 1372:1 2877:1 #
0.4999999999998833155601118960476 1488:1 4776:1 #
0.4999999999998833155601118960476 243:1 4730:1 #
0.4999999999998833155601118960476 364:1 2897:1 #
-0.49745082023072040300348817254417 745:1 2371:1 #
-0.011404586413071340564306943576867 35:1 5002:1 #
-0.37292267421743968691671966553258 1488:1 2672:1 #
-0.4999999999998833155601118960476 1143:1 3899:1 #
-0.48026638195728321711897024215432 73:1 3396:1 #
-0.47448135589529860656199389268295 249:1 2778:1 #
-0.25289618950523418128284447448095 1214:1 3396:1 #
0.4999999999998833155601118960476 242:1 5470:1 #
0.4999999999998833155601118960476 937:1 3971:1 #
0.4999999999998833155601118960476 1074:1 2314:1 #
-0.4999999999998833155601118960476 1096:1 4208:1 #
-0.4999999999998833155601118960476 1483:1 4910:1 #
-0.40486718021766610053902013532934 364:1 5179:1 #
-0.4999999999998833155601118960476 1270:1 4702:1 #
-0.12953327618914317609366548822436 1623:1 3924:1 #
-0.39575056206726250129790400933416 787:1 3871:1 #
0.4999999999998833155601118960476 1483:1 3901:1 #
0.4999999999998833155601118960476 1623:1 4833:1 #
-0.4999999999998833155601118960476 434:1 4741:1 #
-0.24769897373290139519497188302921 1483:1 4910:1 #
0.4999999999998833155601118960476 132:1 3871:1 #
-0.12011408939806654527782114882939 1198:1 3871:1 #
-0.20778570589391187617422929179156 1451:1 2219:1 #
-0.013395980458720257999516434210818 1289:1 4463:1 #
-0.013395980458720257999516434210818 1289:1 5012:1 #
-0.013372753835789286114277274464257 1289:1 5026:1 #
0.4999999999998833155601118960476 1146:1 5179:1 #
0.4999999999998833155601118960476 337:1 5179:1 #
-0.4999999999998833155601118960476 337:1 5179:1 #
-0.4999999999998833155601118960476 1146:1 5179:1 #
0.4999999999998833155601118960476 373:1 2768:1 #
0.4999999999998833155601118960476 1432:1 5510:1 #
0.4999999999998833155601118960476 662:1 3673:1 #
0.4999999999998833155601118960476 1531:1 4446:1 #
0.4999999999998833155601118960476 732:1 2512:1 #
-0.015715988154407480037466626754394 590:1 4963:1 #
-0.015715988154407480037466626754394 590:1 4921:1 #
-0.011284322244705213833526613598224 1039:1 5371:1 #
-0.20777915671918256723671447616653 134:1 3444:1 #
-0.016303157295950887473168222641107 1750:1 4318:1 #
0.4999999999998833155601118960476 1146:1 5179:1 #
0.4999999999998833155601118960476 337:1 5179:1 #
0.4999999999998833155601118960476 1689:1 2035:1 #
-0.4999999999998833155601118960476 337:1 5179:1 #
-0.4999999999998833155601118960476 1146:1 5179:1 #
0.4999999999998833155601118960476 1739:1 3107:1 #
0.4999999999998833155601118960476 663:1 3168:1 #
0.4999999999998833155601118960476 1326:1 2273:1 #
0.4999999999998833155601118960476 821:1 3523:1 #
0.4999999999998833155601118960476 302:1 3383:1 #
0.10730575181360169079169963879394 1233:1 2384:1 #
-0.013102552195280794955500880405452 390:1 4825:1 #
0.4999999999998833155601118960476 1146:1 5179:1 #
0.4999999999998833155601118960476 337:1 5179:1 #
0.4999999999998833155601118960476 1015:1 4237:1 #
0.4999999999998833155601118960476 1810:1 2502:1 #
0.4999999999998833155601118960476 1338:1 3165:1 #
-0.4999999999998833155601118960476 341:1 3396:1 #
-0.4999999999998833155601118960476 1258:1 2959:1 #
-0.35038475056984941247151255083736 501:1 2457:1 #
-0.02821803145618778652092828451714 341:1 4231:1 #
0.4999999999998833155601118960476 1268:1 3231:1 #
0.4999999999998833155601118960476 1267:1 4679:1 #
0.4999999999998833155601118960476 1522:1 5192:1 #
-0.015728028707829161403353168680042 1087:1 5034:1 #
-0.4999999999998833155601118960476 648:1 5192:1 #
-0.4999999999998833155601118960476 235:1 3124:1 #
-0.27168704760488604499357734312071 34:1 3168:1 #
0.4999999999998833155601118960476 872:1 5346:1 #
0.4999999999998833155601118960476 1612:1 5328:1 #
-0.31985744186745723727227641575155 1396:1 3282:1 #
-0.4999999999998833155601118960476 872:1 3899:1 #
-0.4999999999998833155601118960476 1396:1 4503:1 #
-0.4999999999998833155601118960476 1612:1 4503:1 #
0.4999999999998833155601118960476 352:1 1955:1 #
0.4999999999998833155601118960476 1671:1 3434:1 #
0.4999999999998833155601118960476 1473:1 4458:1 #
0.4999999999998833155601118960476 1372:1 4080:1 #
-0.01136466076379627487824564013863 1146:1 5261:1 #
-0.070055680780549578479110550688347 1096:1 2026:1 #
-0.05841965085016184722199739098869 1372:1 4394:1 #
-0.011286270488409987089450936537105 1372:1 3523:1 #
-0.4999999999998833155601118960476 726:1 3899:1 #
-0.4999999999998833155601118960476 1516:1 3899:1 #
-0.4999999999998833155601118960476 662:1 3899:1 #
-0.4999999999998833155601118960476 789:1 3899:1 #
0.4999999999998833155601118960476 1841:1 3485:1 #
-0.011334808244013533373717450558615 35:1 2614:1 #
-0.00059020464125083464766025054260012 434:1 3569:1 #
-0.18473176159061335810385173772374 197:1 2672:1 #
-0.34612619598394089859283440091531 736:1 4685:1 #
-0.4999999999998833155601118960476 663:1 3396:1 #
-0.12959740961563989691818221672293 1623:1 3600:1 #
-0.015788561392091095270107103942792 1230:1 4153:1 #
-0.087521223737831221889393873425433 663:1 3282:1 #
-0.014109971157704292998857908969512 47:1 2000:1 #
0.4999999999998833155601118960476 1104:1 2672:1 #
0.4999999999998833155601118960476 917:1 2672:1 #
0.4999999999998833155601118960476 691:1 2672:1 #
0.4999999999998833155601118960476 272:1 2672:1 #
0.4999999999998833155601118960476 1463:1 2672:1 #
-0.2030510084229444900394412343303 302:1 2672:1 #
-0.028836210668027439929517186101293 1841:1 4243:1 #
-0.010333248044221643446860525727971 847:1 4450:1 #
-0.46471067781084141046221702708863 1592:1 5080:1 #
-0.013355342986051010889525514357956 1121:1 3705:1 #
-0.0025364737525075398139051685575396 74:1 2197:1 #
0.4999999999998833155601118960476 628:1 2672:1 #
0.4999999999998833155601118960476 1513:1 2672:1 #
0.4999999999998833155601118960476 1687:1 2672:1 #
0.4999999999998833155601118960476 66:1 2672:1 #
-0.10297458781587129350576503838965 628:1 2672:1 #
-0.087365666695849247824767758174858 212:1 3434:1 #
-0.4999999999998833155601118960476 1531:1 2672:1 #
-0.4999999999998833155601118960476 325:1 2672:1 #
0.096160879190823500550777680473402 543:1 2384:1 #
-0.4999999999998833155601118960476 386:1 1968:1 #
-0.014404583638589318894673851900734 436:1 2909:1 #
-0.01453439822717624702042016338055 436:1 4547:1 #
-0.1039763347084550204613151436206 1499:1 3200:1 #
-0.10426331957541701278557866316987 1499:1 3922:1 #
0.4999999999998833155601118960476 325:1 3430:1 #
0.4999999999998833155601118960476 325:1 4219:1 #
0.4999999999998833155601118960476 1531:1 2672:1 #
-0.014652668430589526477048067931719 325:1 3646:1 #
-0.014595240783688455052380383847321 325:1 3198:1 #
-0.014652668430589065040603458101032 325:1 2612:1 #
-0.39751987856475623495100535365054 1373:1 3430:1 #
-0.49922345621643382518328735386604 439:1 3231:1 #
-0.49294008120657140104015070392052 1326:1 3396:1 #
-0.40273969396932085551554791891249 1338:1 3396:1 #
0.4999999999998833155601118960476 880:1 3552:1 #
-0.4999999999998833155601118960476 1146:1 5179:1 #
-0.013013971497246146213910833466798 880:1 4299:1 #
-0.012051955921228513224363609879219 880:1 3658:1 #
-0.4999999999998833155601118960476 880:1 3057:1 #
-0.012051955921228471591000186435849 880:1 5335:1 #
-0.013311533868537006597421168407891 880:1 2874:1 #
0.4999999999998833155601118960476 1810:1 2642:1 #
-0.4999999999998833155601118960476 184:1 3958:1 #
-0.023094742195936490691821063592215 337:1 1982:1 #
-0.2078938504328107228502631187439 1824:1 2480:1 #
-0.022831292546306558577384748787154 337:1 2142:1 #
-0.02281077710942839426033756922152 337:1 3219:1 #
-0.4999999999998833155601118960476 1841:1 3485:1 #
-0.012671503816350848659055827738484 603:1 3982:1 #
-0.4999999999998833155601118960476 603:1 4987:1 #
-0.013168501555165246230671982630156 603:1 2791:1 #
-0.013231692198540404362128164450496 603:1 2925:1 #
0.4999999999998833155601118960476 1841:1 3485:1 #
-0.013208965206298661776429526071297 445:1 4641:1 #
-0.11121946911803065605184315245424 977:1 3630:1 #
-0.31717850831005645062532494193874 302:1 3129:1 #
-0.123387919272639701162574965565 434:1 1955:1 #
-0.13893197943642565661548360367306 451:1 2749:1 #
-0.028806543492931862421313482514051 1841:1 2383:1 #
0.42963433084449309529162519538659 25:1 2384:1 #
-0.4999999999998833155601118960476 1267:1 4833:1 #
-0.083336475549310451427231782872695 1293:1 3725:1 #
-0.083713384412495650543917236063862 1293:1 5066:1 #
0.4999999999998833155601118960476 1623:1 4833:1 #
-0.4999999999998833155601118960476 1182:1 1853:1 #
-0.37475961286888670453976146745845 1412:1 4127:1 #
-0.013391211738017492691166232532396 926:1 3493:1 #
-0.01335973402908958301837927251654 926:1 2713:1 #
-0.0047071518101260978461652939586202 1717:1 4018:1 #
-0.013468130911495160631496936787244 1748:1 4878:1 #
-0.13797794628999338062413926309091 896:1 4200:1 #
-0.13903133793333888323928704267018 896:1 4195:1 #
-0.20783166765052718538697718031472 94:1 4251:1 #
-0.028417410066726708078865826223591 1841:1 5091:1 #
-0.4999999999998833155601118960476 444:1 2672:1 #
0.4999999999998833155601118960476 1372:1 4080:1 #
-0.4999999999998833155601118960476 1372:1 3523:1 #
-0.025297862128108639101498056334094 1372:1 3181:1 #
0.4999999999998833155601118960476 1088:1 2877:1 #
-0.49972272008512796936940958403284 565:1 2877:1 #
-0.4999999999998833155601118960476 525:1 4833:1 #
-0.11369709239620862106789900281001 1079:1 3442:1 #
-0.13127445974400231420986528974026 856:1 3251:1 #
-0.13127445974400231420986528974026 856:1 4764:1 #
-0.082550304594935952628986797208199 937:1 5152:1 #
-0.30563520820849043868605576790287 1833:1 3751:1 #
-0.30469765746469046341360353835626 1833:1 4260:1 #
-0.045861937779847816720746322971536 1682:1 3088:1 #
-0.058476888385532846403869200457848 252:1 3660:1 #
0.4999999999998833155601118960476 1372:1 4080:1 #
-0.4999999999998833155601118960476 139:1 4969:1 #
-0.13883245116779596717293543406413 600:1 2473:1 #
-0.2076561937250901435092487190559 1286:1 2637:1 #
-0.20750712017996097991101578372763 751:1 4100:1 #
-0.49877324120215460467875345784705 1139:1 4727:1 #
-0.20808263353126210670751561337966 1780:1 1905:1 #
-0.029162588706650449665858104708605 252:1 4149:1 #
-0.04641625850603673525407444344637 1682:1 2410:1 #
-0.4999999999998833155601118960476 872:1 1927:1 #
-0.22853072868901924685758331179386 1458:1 1927:1 #
-0.22845670687993757663747373953811 748:1 1927:1 #
-0.4999999999998833155601118960476 1841:1 4080:1 #
-0.47346467182784118810090490114817 1088:1 5328:1 #
-0.4999999999998833155601118960476 1088:1 4561:1 #
-0.4217673352915971562993036059197 1226:1 4080:1 #
0.016453205200341731312407844711743 332:1 2384:1 #
0.076301764016225792630621072021313 374:1 2384:1 #
-0.014740681243633473040954839916594 878:1 2114:1 #
0.4999999999998833155601118960476 444:1 4503:1 #
0.4999999999998833155601118960476 269:1 4503:1 #
0.4999999999998833155601118960476 307:1 4503:1 #
0.4999999999998833155601118960476 1198:1 3057:1 #
0.4999999999998833155601118960476 977:1 4727:1 #
0.4999999999998833155601118960476 1258:1 3899:1 #
0.4999999999998833155601118960476 1136:1 1853:1 #
0.4999999999998833155601118960476 1094:1 1853:1 #
0.4999999999998833155601118960476 1326:1 1853:1 #
0.4999999999998833155601118960476 609:1 3877:1 #
0.4999999999998833155601118960476 235:1 2401:1 #
0.4999999999998833155601118960476 1396:1 3955:1 #
0.4999999999998833155601118960476 927:1 2877:1 #
0.4999999999998833155601118960476 422:1 3469:1 #
0.4999999999998833155601118960476 540:1 2877:1 #
0.23809962887043942258991080507258 27:1 2384:1 #
0.49929384509100538380721445719246 576:1 2384:1 #
0.4999999999998833155601118960476 1372:1 4149:1 #
0.4999999999998833155601118960476 1179:1 2877:1 #
0.4999999999998833155601118960476 1372:1 3181:1 #
0.4999999999998833155601118960476 1372:1 3487:1 #
0.4999999999998833155601118960476 1372:1 4000:1 #
0.49951501538579673455942042892275 1214:1 2384:1 #
0.4999999999998833155601118960476 95:1 3660:1 #
0.4999999999998833155601118960476 2:1 2384:1 #
0.4999999999998833155601118960476 439:1 3693:1 #
0.4999999999998833155601118960476 1237:1 4532:1 #
0.4999999999998833155601118960476 827:1 4532:1 #
0.4999999999998833155601118960476 341:1 3899:1 #
0.4999999999998833155601118960476 1516:1 5080:1 #
0.4999999999998833155601118960476 927:1 4852:1 #
0.4999999999998833155601118960476 927:1 4985:1 #
0.4999999999998833155601118960476 540:1 2051:1 #
0.4999999999998833155601118960476 789:1 3899:1 #
0.4999999999998833155601118960476 704:1 3396:1 #
0.4999999999998833155601118960476 856:1 4833:1 #
0.4999999999998833155601118960476 704:1 4308:1 #
0.4999999999998833155601118960476 704:1 4880:1 #
0.4999999999998833155601118960476 805:1 5179:1 #
0.4999999999998833155601118960476 805:1 2271:1 #
0.34615415228944590442239359617815 805:1 2401:1 #
0.4999999999998833155601118960476 977:1 3396:1 #
0.4999999999998833155601118960476 790:1 3282:1 #
0.4999999999998833155601118960476 1583:1 4987:1 #
0.4999999999998833155601118960476 337:1 2547:1 #
0.4999999999998833155601118960476 252:1 3057:1 #
-0.0029580897716964893798263780411162 1372:1 2355:1 #
0.4999999999998833155601118960476 1560:1 3487:1 #
0.4999999999998833155601118960476 1234:1 1927:1 #
0.4999999999998833155601118960476 1214:1 3785:1 #
0.4999999999998833155601118960476 434:1 2877:1 #
-0.11732724202540756319734782664455 622:1 4503:1 #
0.4999999999998833155601118960476 1136:1 4248:1 #
0.4999999999998833155601118960476 1136:1 2415:1 #
0.4999999999998833155601118960476 1136:1 2167:1 #
0.31764405607240986384454117796849 880:1 2384:1 #
0.136963230941168190302192897434 1748:1 2384:1 #
0.4999999999998833155601118960476 1516:1 2457:1 #
0.4999999999998833155601118960476 1258:1 3899:1 #
0.4999999999998833155601118960476 712:1 4675:1 #
0.4999999999998833155601118960476 1270:1 3511:1 #
0.4999999999998833155601118960476 1295:1 4020:1 #
0.4999999999998833155601118960476 1295:1 2286:1 #
0.4999999999998833155601118960476 1087:1 5505:1 #
0.4999999999998833155601118960476 168:1 3347:1 #
-0.22601499188802631756800565199228 977:1 3447:1 #
0.4999999999998833155601118960476 337:1 4130:1 #
0.4999999999998833155601118960476 337:1 3437:1 #
0.4999999999998833155601118960476 787:1 4082:1 #
0.4999999999998833155601118960476 34:1 2672:1 #
0.4999999999998833155601118960476 761:1 2672:1 #
0.4999999999998833155601118960476 977:1 3867:1 #
0.4999999999998833155601118960476 977:1 2312:1 #
0.4999999999998833155601118960476 1623:1 4833:1 #
0.4999999999998833155601118960476 1620:1 4833:1 #
0.4999999999998833155601118960476 1244:1 4833:1 #
0.4999999999998833155601118960476 1126:1 4833:1 #
0.4999999999998833155601118960476 861:1 1888:1 #
-0.4999999999998833155601118960476 805:1 2384:1 #
-0.4999999999998833155601118960476 1455:1 2384:1 #
0.4999999999998833155601118960476 564:1 1927:1 #
0.4999999999998833155601118960476 977:1 4187:1 #
0.4999999999998833155601118960476 1084:1 1930:1 #
0.4999999999998833155601118960476 388:1 4487:1 #
-0.4999999999998833155601118960476 352:1 2401:1 #
-0.4999999999998833155601118960476 1057:1 4503:1 #
-0.39225304855543380311289070050407 917:1 4503:1 #
-0.39226363814842846178265745038516 1463:1 4503:1 #
-0.4999999999998833155601118960476 66:1 4503:1 #
0.4999999999998833155601118960476 1553:1 4149:1 #
0.4999999999998833155601118960476 390:1 4360:1 #
0.4999999999998833155601118960476 1510:1 2784:1 #
-0.4999999999998833155601118960476 1432:1 2384:1 #
-0.4999999999998833155601118960476 1583:1 2384:1 #
-0.4999999999998833155601118960476 539:1 2384:1 #
-0.4999999999998833155601118960476 1234:1 2384:1 #
-0.4999999999998833155601118960476 1671:1 2384:1 #
0.4999999999998833155601118960476 663:1 4503:1 #
0.4999999999998833155601118960476 302:1 4503:1 #
-0.4999999999998833155601118960476 1632:1 2877:1 #
-0.4999999999998833155601118960476 390:1 2877:1 #
0.4999999999998833155601118960476 434:1 4503:1 #
-0.46077825323387172629097108256246 1510:1 4503:1 #
-0.4999999999998833155601118960476 422:1 4503:1 #
-0.30555403902911382196805334388046 253:1 4446:1 #
-0.30495313231322429547986985198804 691:1 4446:1 #
-0.35822568363539997182698471078766 1009:1 2672:1 #
-0.49955021901560098251948716097104 434:1 2768:1 #
-0.012061777666964146327188700524857 1237:1 2426:1 #
-0.25791982117810358099418976962625 970:1 4833:1 #
-0.37075789916491386222219261981081 1239:1 3057:1 #
-0.4999999999998833155601118960476 1258:1 4833:1 #
0.4999999999998833155601118960476 444:1 4503:1 #
0.4999999999998833155601118960476 390:1 3453:1 #
-0.4999999999998833155601118960476 390:1 4503:1 #
-0.4999999999998833155601118960476 302:1 4503:1 #
-0.4999999999998833155601118960476 1136:1 4503:1 #
0.4999999999998833155601118960476 1258:1 4741:1 #
0.4999999999998833155601118960476 1258:1 5530:1 #
0.4999999999998833155601118960476 1258:1 2343:1 #
0.4999999999998833155601118960476 1198:1 2382:1 #
-0.4999999999998833155601118960476 269:1 3396:1 #
-0.47246085006729998667651670984924 1258:1 1888:1 #
-0.0043750775833575339390790759352967 976:1 4596:1 #
-0.39511997899408735079873622453306 242:1 2897:1 #
0.4999999999998833155601118960476 302:1 4503:1 #
0.4999999999998833155601118960476 307:1 4503:1 #
0.4999999999998833155601118960476 434:1 4503:1 #
-0.4999999999998833155601118960476 434:1 4503:1 #
-0.4999999999998833155601118960476 434:1 4080:1 #
0.4999999999998833155601118960476 1258:1 4833:1 #
-0.30548649556215656808433323021745 564:1 3992:1 #
-0.30487254623898996097608460331685 564:1 2342:1 #
-0.4999999999998833155601118960476 1767:1 2384:1 #
-0.4999999999998833155601118960476 132:1 2384:1 #
-0.4999999999998833155601118960476 1196:1 2384:1 #
0.4999999999998833155601118960476 434:1 3057:1 #
0.4999999999998833155601118960476 434:1 4503:1 #
-0.4999999999998833155601118960476 434:1 4503:1 #
-0.4999999999998833155601118960476 434:1 3057:1 #
-0.4999999999998833155601118960476 1268:1 2384:1 #
-0.4999999999998833155601118960476 302:1 3955:1 #
-0.013623145213421580454471460086552 1136:1 5267:1 #
0.4999999999998833155601118960476 789:1 3167:1 #
0.4999999999998833155601118960476 789:1 4486:1 #
-0.4999999999998833155601118960476 789:1 5329:1 #
-0.4999999999998833155601118960476 789:1 4503:1 #
-0.4999999999998833155601118960476 1237:1 4503:1 #
-0.0081738676568597345983846480521606 388:1 3761:1 #
0.4999999999998833155601118960476 704:1 5328:1 #
0.4999999999998833155601118960476 704:1 4527:1 #
0.4999999999998833155601118960476 704:1 5538:1 #
-0.011174500325553898480435144335843 872:1 2010:1 #
0.4999999999998833155601118960476 302:1 4503:1 #
-0.4999999999998833155601118960476 704:1 4503:1 #
-0.4999999999998833155601118960476 1214:1 3487:1 #
-0.14279709773806315009636591639719 712:1 3107:1 #
0.4999999999998833155601118960476 168:1 4149:1 #
0.4999999999998833155601118960476 1237:1 5374:1 #
-0.4999999999998833155601118960476 168:1 1853:1 #
-0.0024563615058894039400172459863825 550:1 4340:1 #
0.4999999999998833155601118960476 302:1 4503:1 #
0.4999999999998833155601118960476 1208:1 4308:1 #
0.4999999999998833155601118960476 1372:1 2319:1 #
-0.4999999999998833155601118960476 1237:1 4503:1 #
-0.4999999999998833155601118960476 1179:1 4098:1 #
-0.028923309508501637843380649428582 861:1 2271:1 #
-0.4999999999998833155601118960476 1295:1 3057:1 #
0.4999999999998833155601118960476 168:1 4833:1 #
0.4999999999998833155601118960476 1258:1 2672:1 #
-0.4999999999998833155601118960476 1623:1 4833:1 #
-0.28926324704371098039956677894224 1215:1 4833:1 #
-0.4999999999998833155601118960476 1566:1 4833:1 #
-0.28893561150362112588396712453687 1670:1 4833:1 #
0.4999999999998833155601118960476 434:1 3057:1 #
0.4999999999998833155601118960476 1586:1 3057:1 #
0.4999999999998833155601118960476 1663:1 3057:1 #
-0.37093057460828315896606000023894 1739:1 3057:1 #
-0.4999999999998833155601118960476 302:1 2672:1 #
0.4999999999998833155601118960476 1182:1 4833:1 #
0.4999999999998833155601118960476 1484:1 4833:1 #
0.4999999999998833155601118960476 1846:1 4833:1 #
0.4999999999998833155601118960476 1799:1 4833:1 #
0.4999999999998833155601118960476 1745:1 4833:1 #
-0.4999999999998833155601118960476 1846:1 4833:1 #
-0.28880239128954876548505126265809 93:1 4833:1 #
-0.28893561150362112588396712453687 913:1 4833:1 #
-0.46620473791396044305201940005645 689:1 4000:1 #
-0.28310230814036552171586436088546 1810:1 2750:1 #
-0.28277051199534641856558891959139 1810:1 5217:1 #
-0.28350722952632811946216406795429 1810:1 4224:1 #
-0.28329556184677029406770998321008 1810:1 5300:1 #
0.4999999999998833155601118960476 17:1 4675:1 #
0.18714450380169733723079161791247 326:1 4675:1 #
0.4999999999998833155601118960476 1637:1 3511:1 #
-0.4999999999998833155601118960476 1136:1 1853:1 #
-0.4999999999998833155601118960476 1623:1 4833:1 #
-0.4999999999998833155601118960476 333:1 4833:1 #
-0.4999999999998833155601118960476 866:1 4833:1 #
-0.4999999999998833155601118960476 1372:1 4080:1 #
-0.040023417241276143530015474425454 1372:1 1888:1 #
0.4999999999998833155601118960476 1623:1 4833:1 #
-0.014481570146377704261242413963373 878:1 3937:1 #
-0.29007709158497041457280829490628 537:1 4833:1 #
0.4999999999998833155601118960476 1372:1 5214:1 #
-0.012391713235104795387542253592983 1516:1 2940:1 #
0.4999999999998833155601118960476 333:1 4833:1 #
0.4999999999998833155601118960476 1623:1 4833:1 #
-0.4999999999998833155601118960476 422:1 3181:1 #
-0.36985448798624598332196455885423 712:1 3107:1 #
-0.4999999999998833155601118960476 704:1 4503:1 #
0.4999999999998833155601118960476 762:1 4833:1 #
0.4999999999998833155601118960476 697:1 4833:1 #
0.4999999999998833155601118960476 410:1 4833:1 #
0.4999999999998833155601118960476 1796:1 4833:1 #
0.4999999999998833155601118960476 1657:1 4833:1 #
-0.28939112258445343073276490031276 1657:1 4833:1 #
-0.4999999999998833155601118960476 333:1 4833:1 #
-0.4999999999998833155601118960476 136:1 4833:1 #
-0.031994325078115032345849044759234 970:1 4833:1 #
-0.28895509399571311925924987917824 124:1 4833:1 #
-0.28901401543693039375426678816439 589:1 4833:1 #
-0.28895509399571311925924987917824 1774:1 4833:1 #
-0.4999999999998833155601118960476 1845:1 4833:1 #
-0.2890281656888776806724195012066 582:1 4833:1 #
-0.23506521105429800666541950704413 977:1 2271:1 #
-0.4999999999998833155601118960476 1087:1 2672:1 #
0.4999999999998833155601118960476 1437:1 4833:1 #
0.4999999999998833155601118960476 1720:1 4833:1 #
-0.4999999999998833155601118960476 1513:1 1853:1 #
-0.4999999999998833155601118960476 243:1 2384:1 #
-0.40178095377969158530362392411917 1668:1 2672:1 #
-0.0070956583731952571625356540607754 977:1 5155:1 #
-0.12971229617708390779995397679158 1623:1 3618:1 #
0.4999999999998833155601118960476 333:1 4833:1 #
-0.2891553740443075781740844831802 397:1 4833:1 #
-0.28886091976872441122736745455768 626:1 4833:1 #
-0.2890281656888776806724195012066 1118:1 4833:1 #
-0.38848281397668987802163087508234 608:1 3396:1 #
-0.28939112258445431891118460043799 1269:1 4833:1 #
-0.28912080620880364900671111172414 1838:1 4833:1 #
-0.4999999999998833155601118960476 1258:1 4503:1 #
-0.28995238856940441785070561309112 1184:1 4833:1 #
-0.28924813019674566749728228387539 57:1 4833:1 #
-0.4999999999998833155601118960476 1372:1 4080:1 #
-0.28939112258445431891118460043799 1629:1 4833:1 #
-0.28984078463473716968934468241059 876:1 4833:1 #
-0.28994807437587288845293187478092 24:1 4833:1 #
-0.28994807437587288845293187478092 1313:1 4833:1 #
-0.28926324704371081386611308516876 254:1 4833:1 #
-0.28880239128954937610771480649419 1608:1 4833:1 #
-0.28886091976872441122736745455768 1209:1 4833:1 #
-0.4999999999998833155601118960476 304:1 4833:1 #
-0.28879811088279311315218933486904 211:1 4833:1 #
-0.28991414625621875211791689253005 544:1 4833:1 #
-0.2900770915849708586620181449689 1826:1 4833:1 #
-0.28986814336864497043677602050593 1398:1 4833:1 #
-0.28997455429389629166792019532295 1112:1 4833:1 #
-0.4999999999998833155601118960476 540:1 3511:1 #
-0.4999999999998833155601118960476 827:1 3511:1 #
-0.4999999999998833155601118960476 1516:1 3511:1 #
-0.4999999999998833155601118960476 1084:1 2401:1 #
-0.13181787055658761298460035504831 2:1 3511:1 #
0.4999999999998833155601118960476 139:1 2384:1 #
-0.4999999999998833155601118960476 927:1 4248:1 #
-0.046680867225797118003072228020756 778:1 2533:1 #
-0.35573819446179266723362388802343 1258:1 2547:1 #
-0.1398962427358061422211221724865 1258:1 2167:1 #
-0.0014012862114072734825986898954397 550:1 5519:1 #
0.4999999999998833155601118960476 1655:1 4080:1 #
-0.3741581276357659469056216039462 1484:1 2877:1 #
-0.02821803145618778652092828451714 341:1 1887:1 #
-0.4999999999998833155601118960476 1484:1 3383:1 #
-0.4999999999998833155601118960476 977:1 2877:1 #
-0.00042272440925195109429068907047622 1076:1 4458:1 #
0.4999999999998833155601118960476 1845:1 4503:1 #
0.4999999999998833155601118960476 422:1 4503:1 #
0.4999999999998833155601118960476 1278:1 4503:1 #
0.4999999999998833155601118960476 1582:1 4503:1 #
0.4999999999998833155601118960476 977:1 2271:1 #
0.4999999999998833155601118960476 386:1 4080:1 #
0.4999999999998833155601118960476 1214:1 2672:1 #
-0.4999999999998833155601118960476 1136:1 3057:1 #
0.4999999999998833155601118960476 1592:1 2384:1 #
0.4999999999998833155601118960476 310:1 1853:1 #
0.4999999999998833155601118960476 1612:1 1853:1 #
0.4999999999998833155601118960476 695:1 1853:1 #
0.4999999999998833155601118960476 1686:1 1853:1 #
0.4999999999998833155601118960476 1431:1 1853:1 #
-0.3226124498659290740221194937476 444:1 3167:1 #
-0.48221319286120745140067356260261 761:1 4532:1 #
-0.29182003631243746966106300533284 787:1 4532:1 #
-0.28599496916491740083898775992566 790:1 3167:1 #
0.4999999999998833155601118960476 648:1 2384:1 #
0.4999999999998833155601118960476 810:1 2384:1 #
-0.4999999999998833155601118960476 704:1 2457:1 #
-0.4999999999998833155601118960476 704:1 5179:1 #
-0.4999999999998833155601118960476 1237:1 4308:1 #
-0.38919425337864888003736041355296 410:1 3396:1 #
-0.4999999999998833155601118960476 1258:1 3899:1 #
0.4999999999998833155601118960476 1372:1 4080:1 #
-0.4999999999998833155601118960476 1372:1 3867:1 #
-0.4999999999998833155601118960476 1372:1 5374:1 #
-0.4836978691892960258158495889802 1372:1 2415:1 #
0.4999999999998833155601118960476 1833:1 2458:1 #
0.4999999999998833155601118960476 207:1 5329:1 #
0.4999999999998833155601118960476 383:1 3955:1 #
0.4999999999998833155601118960476 141:1 3955:1 #
-0.4999999999998833155601118960476 977:1 2502:1 #
-0.20603574262401136429900816438021 337:1 4527:1 #
-0.013259496165111741075581797133509 168:1 5554:1 #
0.4999999999998833155601118960476 1372:1 4080:1 #
-0.4999999999998833155601118960476 540:1 5179:1 #
-0.48482490092238339496333310307818 1084:1 4880:1 #
-0.41657131533330615802412921766518 789:1 2547:1 #
-0.37338106785397895404088330906234 789:1 2167:1 #
0.4999999999998833155601118960476 1087:1 5143:1 #
0.4999999999998833155601118960476 1455:1 2338:1 #
0.4999999999998833155601118960476 1087:1 3047:1 #
-0.013378697608395431414840537343025 168:1 2021:1 #
0.4999999999998833155601118960476 1363:1 2384:1 #
-0.47818852956984880808732896184665 977:1 2338:1 #
0.4999999999998833155601118960476 1484:1 4833:1 #
0.4999999999998833155601118960476 1845:1 3057:1 #
0.4999999999998833155601118960476 1136:1 4503:1 #
-0.4999999999998833155601118960476 927:1 3057:1 #
-0.4999999999998833155601118960476 787:1 3057:1 #
-0.49999999999988326004896066478977 34:1 3057:1 #
-0.4999999999998833155601118960476 805:1 3057:1 #
0.152259342013939980020609255007 789:1 2384:1 #
0.4999999999998833155601118960476 977:1 2672:1 #
0.4999999999998833155601118960476 831:1 2384:1 #
-0.4999999999998833155601118960476 1136:1 3396:1 #
0.4999999999998833155601118960476 1234:1 3396:1 #
-0.41459566837746708589662603117176 386:1 4532:1 #
-0.01452449446174941538600933199632 1108:1 4813:1 #
-0.015859600919861605028415851847967 386:1 4842:1 #
-0.01270595557910099773768486386416 390:1 3082:1 #
-0.35862861287540831467524071740627 1531:1 3282:1 #
0.4999999999998833155601118960476 136:1 2384:1 #
-0.45742739751182082130753769888543 1516:1 3396:1 #
-0.1047623807519421079703647592396 1312:1 4020:1 #
-0.20816747849519257052008924802067 484:1 5470:1 #
-0.029796342813838118390723508355222 1182:1 4939:1 #
0.4999999999998833155601118960476 422:1 2343:1 #
0.4999999999998833155601118960476 1372:1 1853:1 #
-0.4999999999998833155601118960476 805:1 2401:1 #
-0.4999999999998833155601118960476 434:1 2343:1 #
0.4999999999998833155601118960476 1136:1 4503:1 #
-0.4999999999998833155601118960476 1258:1 3899:1 #
-0.024921212725545205390886849272647 1136:1 3167:1 #
0.4999999999998833155601118960476 663:1 3955:1 #
-0.12971229617708407433340767056507 1623:1 5172:1 #
-0.12971229617708382453322712990484 1623:1 3608:1 #
-0.0290785213778268492035294912057 1841:1 3192:1 #
0.4999999999998833155601118960476 434:1 2384:1 #
-0.29007709158497041457280829490628 1205:1 4833:1 #
-0.28903720326545601082557368499693 155:1 4833:1 #
-0.28880239128954965366347096278332 288:1 4833:1 #
-0.28880239128954893201850495643157 54:1 4833:1 #
-0.43971927320640435965515280258842 25:1 5328:1 #
0.4999999999998833155601118960476 212:1 4503:1 #
0.4999999999998833155601118960476 1114:1 4503:1 #
0.4999999999998833155601118960476 1331:1 4503:1 #
0.4999999999998833155601118960476 1636:1 4503:1 #
-0.4999999999998833155601118960476 145:1 3487:1 #
-0.4999999999998833155601118960476 1841:1 3485:1 #
-0.15284495703060177462795365954662 1620:1 4538:1 #
-0.13036843007515980241706188280659 1623:1 4473:1 #
-0.016394018547064594798490233529265 609:1 2917:1 #
0.4999999999998833155601118960476 1623:1 4833:1 #
-0.13034042289918804091719550797279 1623:1 2121:1 #
-0.13036843007515980241706188280659 1623:1 4901:1 #
-0.13034042289918773560586373605474 1623:1 3068:1 #
-0.13044608848599825723368894614396 1623:1 3433:1 #
-0.13055736944103948915518742524 1623:1 4334:1 #
-0.014675708411618693105538113741204 388:1 4255:1 #
-0.13830741451758599147581207944313 1244:1 5153:1 #
-0.014505140211447567488711740679719 388:1 4128:1 #
-0.014675708411618682697197257880362 388:1 4249:1 #
-0.01625466974075878701100350554043 1198:1 3827:1 #
0.4999999999998833155601118960476 1623:1 4833:1 #
0.4999999999998833155601118960476 422:1 4487:1 #
-0.4999999999998833155601118960476 247:1 4487:1 #
-0.40598390744344770020290980028221 1340:1 4487:1 #
-0.058783980899403065478736607474275 1473:1 3443:1 #
-0.058525370162288904707370562618962 1473:1 3737:1 #
-0.059596763364979432608947718108539 1473:1 4811:1 #
0.4999999999998833155601118960476 1623:1 4833:1 #
0.4999999999998833155601118960476 1620:1 4833:1 #
0.4999999999998833155601118960476 1011:1 1853:1 #
0.4999999999998833155601118960476 628:1 1853:1 #
0.4999999999998833155601118960476 1623:1 4833:1 #
-0.4999999999998833155601118960476 1637:1 2384:1 #
-0.4999999999998833155601118960476 252:1 2384:1 #
-0.4999999999998833155601118960476 663:1 4503:1 #
-0.4999999999998833155601118960476 1198:1 2384:1 #
0.4999999999998833155601118960476 1084:1 2401:1 #
-0.4999999999998833155601118960476 422:1 3955:1 #
-0.4999999999998833155601118960476 1214:1 4503:1 #
-0.4999999999998833155601118960476 704:1 4503:1 #
-0.4999999999998833155601118960476 704:1 2384:1 #
0.4999999999998833155601118960476 1237:1 5374:1 #
0.4999999999998833155601118960476 787:1 3899:1 #
0.4999999999998833155601118960476 99:1 2877:1 #
0.4999999999998833155601118960476 1336:1 2877:1 #
-0.4999999999998833155601118960476 1372:1 1853:1 #
-0.33666937559275278424308908142848 1686:1 1853:1 #
0.4999999999998833155601118960476 704:1 3396:1 #
0.4999999999998833155601118960476 704:1 4248:1 #
0.4999999999998833155601118960476 1365:1 3057:1 #
0.4999999999998833155601118960476 672:1 3057:1 #
0.4999999999998833155601118960476 914:1 3057:1 #
-0.4999999999998833155601118960476 1336:1 2384:1 #
0.4999999999998833155601118960476 16:1 5179:1 #
0.4999999999998833155601118960476 1723:1 5179:1 #
0.4999999999998833155601118960476 1277:1 5179:1 #
0.4999999999998833155601118960476 1372:1 3057:1 #
-0.4999999999998833155601118960476 1372:1 4080:1 #
-0.49939656002897314657218430511421 422:1 2672:1 #
-0.4999999999998833155601118960476 1560:1 4080:1 #
-0.4999999999998833155601118960476 1372:1 4080:1 #
0.4999999999998833155601118960476 1198:1 4626:1 #
0.4999999999998833155601118960476 977:1 2547:1 #
-0.4999999999998833155601118960476 977:1 4503:1 #
0.4999999999998833155601118960476 1632:1 3867:1 #
0.4999999999998833155601118960476 1755:1 2457:1 #
0.4999999999998833155601118960476 863:1 3511:1 #
0.4999999999998833155601118960476 945:1 3511:1 #
0.4999999999998833155601118960476 977:1 3181:1 #
0.4999999999998833155601118960476 977:1 4248:1 #
0.4999999999998833155601118960476 977:1 2877:1 #
-0.4999999999998833155601118960476 1632:1 1853:1 #
-0.4999999999998833155601118960476 977:1 4503:1 #
-0.4999999999998833155601118960476 212:1 4503:1 #
-0.3478592743370687578874367318349 141:1 4503:1 #
0.4999999999998833155601118960476 1171:1 1853:1 #
0.4999999999998833155601118960476 757:1 1853:1 #
0.4999999999998833155601118960476 878:1 1853:1 #
0.4999999999998833155601118960476 745:1 3899:1 #
-0.32802554316378063070658299693605 1094:1 1853:1 #
-0.40556983903616494746557918915641 168:1 1853:1 #
0.22572865272228737065773884751252 745:1 2384:1 #
-0.022613668010818988030052878457354 337:1 1900:1 #
0.4999999999998833155601118960476 1372:1 4080:1 #
-0.4999999999998833155601118960476 1372:1 1853:1 #
0.1849303636105053272320475343804 25:1 2401:1 #
0.4999999999998833155601118960476 927:1 2877:1 #
0.4999999999998833155601118960476 168:1 2877:1 #
0.4999999999998833155601118960476 1372:1 4080:1 #
-0.31900870525749547290672580857063 1045:1 1853:1 #
-0.31581850335834105170107477533747 841:1 1853:1 #
-0.014373348150526488176126349571859 506:1 3215:1 #
-0.12991723797867796297289544327214 1088:1 1853:1 #
0.4999999999998833155601118960476 1372:1 3057:1 #
-0.4999999999998833155601118960476 1372:1 1853:1 #
0.4999999999998833155601118960476 1623:1 4833:1 #
0.4999999999998833155601118960476 1516:1 2512:1 #
0.4999999999998833155601118960476 1292:1 3487:1 #
0.4999999999998833155601118960476 1258:1 2547:1 #
0.4999999999998833155601118960476 977:1 2547:1 #
0.4999999999998833155601118960476 1258:1 2343:1 #
0.4999999999998833155601118960476 1258:1 3899:1 #
0.4999999999998833155601118960476 1372:1 4080:1 #
-0.4999999999998833155601118960476 1372:1 1853:1 #
0.39294184707230728204052638830035 805:1 2401:1 #
0.49359614525749195834691818163265 145:1 2401:1 #
0.4999999999998833155601118960476 1810:1 3511:1 #
0.4999999999998833155601118960476 434:1 3057:1 #
-0.49966144718192495588482415769249 434:1 1853:1 #
-0.36650284163651553059892762576055 978:1 1853:1 #
0.16295183130372239976857429155643 812:1 2384:1 #
-0.013114465252775188430778285919587 66:1 2801:1 #
-0.13774035005494589256613835459575 1592:1 1853:1 #
0.4999999999998833155601118960476 1372:1 4248:1 #
0.4999999999998833155601118960476 1314:1 3487:1 #
0.4999999999998833155601118960476 1163:1 3487:1 #
0.4999999999998833155601118960476 1632:1 3033:1 #
0.4999999999998833155601118960476 878:1 1853:1 #
-0.053887093709071520741815675137332 1459:1 1853:1 #
-0.36859106947559572287076434804476 1246:1 1853:1 #
0.12332716029973603277802851607703 1805:1 2384:1 #
0.18996937121492557531965417183528 445:1 2384:1 #
-0.36708626458183379881461405602749 890:1 1853:1 #
0.4999999999998833155601118960476 1237:1 5374:1 #
0.4999999999998833155601118960476 927:1 4985:1 #
0.4999999999998833155601118960476 212:1 3867:1 #
0.4999999999998833155601118960476 1136:1 3955:1 #
0.4999999999998833155601118960476 1087:1 3167:1 #
-0.4999999999998833155601118960476 878:1 2547:1 #
-0.4999999999998833155601118960476 1365:1 2401:1 #
-0.4999999999998833155601118960476 1636:1 2877:1 #
-0.4999999999998833155601118960476 235:1 2401:1 #
0.4999999999998833155601118960476 540:1 2384:1 #
-0.4999999999998833155601118960476 1087:1 2069:1 #
-0.015909347937433371278359572897898 1087:1 1901:1 #
-0.45591394070288226991749525041087 1087:1 3660:1 #
-0.015759083144974463108756168594482 1087:1 4508:1 #
-0.015728028707829369570170285896893 1087:1 4658:1 #
0.4999999999998833155601118960476 1372:1 1853:1 #
0.4999999999998833155601118960476 247:1 2384:1 #
0.4999999999998833155601118960476 1340:1 2384:1 #
0.4999999999998833155601118960476 866:1 2384:1 #
-0.4999999999998833155601118960476 1372:1 2877:1 #
-0.49970925001206534243891610458377 1372:1 4248:1 #
0.4999999999998833155601118960476 1040:1 4503:1 #
0.4999999999998833155601118960476 1668:1 4503:1 #
0.4999999999998833155601118960476 366:1 4503:1 #
0.4999999999998833155601118960476 1353:1 4503:1 #
-0.4999999999998833155601118960476 628:1 3057:1 #
-0.4999999999998833155601118960476 745:1 3487:1 #
-0.4999999999998833155601118960476 772:1 2401:1 #
0.4999999999998833155601118960476 1537:1 4503:1 #
0.4999999999998833155601118960476 422:1 4503:1 #
0.4999999999998833155601118960476 526:1 4503:1 #
-0.39333908323437494214402931902441 1636:1 4248:1 #
-0.4999999999998833155601118960476 977:1 3057:1 #
-0.016394018547064567042914617900351 609:1 2485:1 #
-0.4999999999998833155601118960476 977:1 2877:1 #
-0.4999999999998833155601118960476 1581:1 2401:1 #
-0.4999999999998833155601118960476 1046:1 2401:1 #
-0.4999999999998833155601118960476 1002:1 2401:1 #
-0.39236738486852429375062456529122 1537:1 3955:1 #
-0.4999999999998833155601118960476 977:1 2877:1 #
-0.49550769381287856907292166397383 914:1 3955:1 #
0.4999999999998833155601118960476 1759:1 2384:1 #
0.4999999999998833155601118960476 136:1 2384:1 #
-0.4999999999998833155601118960476 849:1 3899:1 #
-0.4999999999998833155601118960476 413:1 3899:1 #
-0.4999999999998833155601118960476 651:1 3899:1 #
-0.4999999999998833155601118960476 1757:1 3899:1 #
-0.4999999999998833155601118960476 430:1 3899:1 #
-0.4999999999998833155601118960476 1353:1 3955:1 #
-0.4999999999998833155601118960476 333:1 4080:1 #
-0.4999999999998833155601118960476 1460:1 4080:1 #
0.00085137163359857125077834183457526 1088:1 2384:1 #
-0.4999999999998833155601118960476 1632:1 3181:1 #
-0.4999999999998833155601118960476 1363:1 3057:1 #
-0.4999999999998833155601118960476 390:1 3057:1 #
-0.4999999999998833155601118960476 1256:1 3867:1 #
-0.45780600000340987421054705919232 819:1 5374:1 #
-0.45801340966082826344774048266117 1008:1 2512:1 #
-0.01130736520214026263886353262933 993:1 3487:1 #
-0.01130736520214026263886353262933 960:1 3487:1 #
-0.011205925020984830453585345821921 1736:1 3487:1 #
-0.011444553977457305737885917551466 419:1 3487:1 #
-0.01145878287371693282636897492921 88:1 3487:1 #
-0.01139597378691947771045533954748 58:1 2442:1 #
-0.13034042289918748580568319539452 1623:1 2657:1 #
-0.1303404228991874302945319641367 1623:1 2764:1 #
-0.13036843007515958037245695777528 1623:1 4979:1 #
-0.4999999999998833155601118960476 927:1 2384:1 #
-0.4999999999998833155601118960476 1136:1 2384:1 #
0.4999999999998833155601118960476 1087:1 1853:1 #
0.4999999999998833155601118960476 1365:1 3899:1 #
0.12962902105425577747865872879629 133:1 3899:1 #
0.27018949209184273119177532862523 81:1 3899:1 #
0.4999999999998833155601118960476 147:1 3899:1 #
-0.4999999999998833155601118960476 1258:1 4503:1 #
0.4999999999998833155601118960476 977:1 3057:1 #
0.4999999999998833155601118960476 772:1 2401:1 #
-0.4999999999998833155601118960476 1171:1 2384:1 #
-0.4999999999998833155601118960476 1612:1 2384:1 #
-0.4999999999998833155601118960476 1011:1 2384:1 #
-0.4999999999998833155601118960476 526:1 2384:1 #
-0.4999999999998833155601118960476 307:1 2384:1 #
0.4999999999998833155601118960476 390:1 2877:1 #
0.4999999999998833155601118960476 1088:1 2877:1 #
0.4999999999998833155601118960476 1326:1 3057:1 #
0.4999999999998833155601118960476 649:1 3057:1 #
-0.4999999999998833155601118960476 1326:1 4503:1 #
-0.4999999999998833155601118960476 386:1 2877:1 #
-0.45377861169587940803893388874712 1088:1 3057:1 #
0.4999999999998833155601118960476 872:1 2384:1 #
0.4999999999998833155601118960476 1239:1 2384:1 #
-0.011227572127440669028097808279654 35:1 5333:1 #
-0.4999999999998833155601118960476 649:1 2384:1 #
-0.4999999999998833155601118960476 17:1 2384:1 #
-0.4999999999998833155601118960476 1632:1 2384:1 #
-0.4999999999998833155601118960476 1237:1 2384:1 #
0.4999999999998833155601118960476 50:1 4248:1 #
0.4999999999998833155601118960476 1623:1 4833:1 #
0.4999999999998833155601118960476 1258:1 2547:1 #
-0.4999999999998833155601118960476 1258:1 4503:1 #
-0.4999999999998833155601118960476 168:1 4248:1 #
0.4999999999998833155601118960476 1484:1 2384:1 #
0.4999999999998833155601118960476 819:1 2384:1 #
0.4999999999998833155601118960476 1146:1 2384:1 #
0.25260405629688298390078671218362 603:1 2384:1 #
0.4999999999998833155601118960476 953:1 2384:1 #
0.4999999999998833155601118960476 1566:1 2384:1 #
0.4999999999998833155601118960476 1084:1 2384:1 #
-0.4999999999998833155601118960476 927:1 2384:1 #
-0.4999999999998833155601118960476 1094:1 2384:1 #
-0.4999999999998833155601118960476 872:1 2384:1 #
-0.4999999999998833155601118960476 1365:1 2384:1 #
0.4999999999998833155601118960476 235:1 2401:1 #
-0.4999999999998833155601118960476 861:1 2384:1 #
-0.4999999999998833155601118960476 977:1 2384:1 #
0.4999999999998833155601118960476 8:1 3057:1 #
-0.40674317917018276702378898335155 8:1 3057:1 #
-0.39091726943890803269709977030288 629:1 3057:1 #
-0.40314827623668764156050769997819 1033:1 3057:1 #
-0.10602515638979176371137214118789 384:1 3057:1 #
-0.016178499558534120694730518152937 147:1 3368:1 #
0.22613618189348350107081841997569 1513:1 2384:1 #
0.4999999999998833155601118960476 413:1 2384:1 #
0.4999999999998833155601118960476 1757:1 2384:1 #
0.4999999999998833155601118960476 849:1 2384:1 #
0.4999999999998833155601118960476 1638:1 3057:1 #
0.4999999999998833155601118960476 152:1 3057:1 #
0.4999999999998833155601118960476 1303:1 3057:1 #
0.4999999999998833155601118960476 434:1 3057:1 #
-0.49098081465242482401833967742277 50:1 4503:1 #
0.4999999999998833155601118960476 1459:1 2384:1 #
0.46492770314204173720540325120965 1246:1 2384:1 #
0.4640870383388669973001583457517 890:1 2384:1 #
-0.4999999999998833155601118960476 1459:1 2384:1 #
-0.4999999999998833155601118960476 434:1 2384:1 #
-0.010179951597904485921519679436642 772:1 4892:1 #
0.10621626691647134688167852800689 34:1 2401:1 #
-0.4999999999998833155601118960476 712:1 2384:1 #
-0.4999999999998833155601118960476 152:1 2384:1 #
-0.4999999999998833155601118960476 1094:1 2384:1 #
0.4999999999998833155601118960476 103:1 3057:1 #
-0.0025049198852580695229264051704376 1084:1 2237:1 #
-0.4757563216334196876111661822506 65:1 4458:1 #
-0.01452449446174941538600933199632 1108:1 5136:1 #
-0.40314827623668758604935646872036 1321:1 3057:1 #
-0.38147896642756962126696862469544 805:1 3057:1 #
-0.39137539723212699804832936933963 659:1 3057:1 #
-0.4999999999998833155601118960476 434:1 4080:1 #
-0.4999999999998833155601118960476 1353:1 4503:1 #
-0.4999999999998833155601118960476 603:1 2384:1 #
-0.4999999999998833155601118960476 1241:1 2384:1 #
-0.4999999999998833155601118960476 819:1 2384:1 #
0.4999999999998833155601118960476 1372:1 4080:1 #
0.4999999999998833155601118960476 1841:1 4080:1 #
-0.4999999999998833155601118960476 1644:1 4080:1 #
-0.42298266658450422994519612984732 1173:1 4080:1 #
-0.4999999999998833155601118960476 1372:1 2384:1 #
0.4999999999998833155601118960476 1590:1 3899:1 #
0.4999999999998833155601118960476 1654:1 4248:1 #
0.4999999999998833155601118960476 206:1 4248:1 #
0.4999999999998833155601118960476 1372:1 4080:1 #
-0.4999999999998833155601118960476 1372:1 2384:1 #
0.4999999999998833155601118960476 379:1 3899:1 #
0.4999999999998833155601118960476 697:1 3899:1 #
0.4999999999998833155601118960476 530:1 3899:1 #
-0.38149792999867931930779718641134 1847:1 3057:1 #
-0.39259441136649803061331454046012 1115:1 3057:1 #
-0.25115394480608399518928308680188 35:1 3057:1 #
0.4999999999998833155601118960476 1675:1 3899:1 #
0.17673034995988512463327424484305 522:1 3899:1 #
0.17686994071422790231196131571778 408:1 3899:1 #
0.4999999999998833155601118960476 1335:1 3899:1 #
0.4999999999998833155601118960476 1336:1 3899:1 #
-0.42299269267779904257764655994833 48:1 4080:1 #
-0.42298266658450422994519612984732 1384:1 4080:1 #
0.4999999999998833155601118960476 1234:1 3057:1 #
0.4999999999998833155601118960476 1663:1 3057:1 #
-0.4999999999998833155601118960476 977:1 3057:1 #
0.4999999999998833155601118960476 1372:1 4080:1 #
0.4999999999998833155601118960476 1088:1 2877:1 #
0.4999999999998833155601118960476 148:1 4248:1 #
-0.4999999999998833155601118960476 1372:1 2384:1 #
0.33983398696680433559436096402351 805:1 2401:1 #
0.4999999999998833155601118960476 977:1 4877:1 #
0.14175735788074739218700415221974 183:1 2384:1 #
0.2416322548109123280468679695332 333:1 2384:1 #
-0.014765146638875736861962195689557 878:1 2265:1 #
-0.4999999999998833155601118960476 1073:1 5179:1 #
0.4999999999998833155601118960476 1011:1 2877:1 #
0.4999999999998833155601118960476 704:1 2877:1 #
0.4999999999998833155601118960476 1516:1 2877:1 #
0.4999999999998833155601118960476 726:1 2877:1 #
-0.42319783764097240741364203131525 514:1 4080:1 #
-0.42301372155355543291932463034755 1016:1 4080:1 #
0.4999999999998833155601118960476 1182:1 5179:1 #
-0.40393414431304619505169739568373 1484:1 4503:1 #
-0.4029838891270070000416581024183 726:1 4503:1 #
-0.49551080516335466175092960838811 1675:1 4503:1 #
-0.4999999999998833155601118960476 1258:1 4503:1 #
-0.12971229617708418535571013308072 1623:1 5539:1 #
-0.12957175656255737195010624418501 1623:1 4046:1 #
-0.12957175656255745521683309107175 1623:1 4366:1 #
0.4999999999998833155601118960476 1841:1 4080:1 #
0.4999999999998833155601118960476 609:1 3899:1 #
-0.42173490992121109854906535474584 344:1 4080:1 #
-0.42319783764097240741364203131525 393:1 4080:1 #
0.4999999999998833155601118960476 131:1 3899:1 #
0.4999999999998833155601118960476 1021:1 3899:1 #
0.4999999999998833155601118960476 903:1 3899:1 #
0.4999999999998833155601118960476 1190:1 3899:1 #
0.4999999999998833155601118960476 1372:1 4248:1 #
-0.4999999999998833155601118960476 103:1 3899:1 #
-0.4999999999998833155601118960476 1335:1 3899:1 #
-0.4999999999998833155601118960476 1675:1 3899:1 #
-0.4999999999998833155601118960476 1234:1 2877:1 #
0.4999999999998833155601118960476 1636:1 2384:1 #
-0.4031950053014077273161319681094 1303:1 4248:1 #
-0.4999999999998833155601118960476 1234:1 2877:1 #
0.4999999999998833155601118960476 168:1 4503:1 #
0.4999999999998833155601118960476 1353:1 4503:1 #
-0.4999999999998833155601118960476 805:1 2401:1 #
-0.4999999999998833155601118960476 1365:1 2401:1 #
-0.4999999999998833155601118960476 235:1 2401:1 #
-0.4999999999998833155601118960476 772:1 2401:1 #
0.4999999999998833155601118960476 1581:1 2384:1 #
0.32767870480198646454539357364411 861:1 2384:1 #
0.4999999999998833155601118960476 1321:1 2384:1 #
0.4999999999998833155601118960476 772:1 2401:1 #
-0.4999999999998833155601118960476 1372:1 4248:1 #
0.4999999999998833155601118960476 235:1 2401:1 #
-0.4999999999998833155601118960476 235:1 2401:1 #
0.4999999999998833155601118960476 863:1 3511:1 #
0.4999999999998833155601118960476 1222:1 4503:1 #
0.4999999999998833155601118960476 1300:1 4503:1 #
0.4999999999998833155601118960476 45:1 4503:1 #
-0.49907949826735598097826596131199 1638:1 2877:1 #
0.4999999999998833155601118960476 235:1 2401:1 #
-0.4999999999998833155601118960476 235:1 2401:1 #
0.4999999999998833155601118960476 1106:1 2877:1 #
0.4999999999998833155601118960476 848:1 2877:1 #
0.4999999999998833155601118960476 1793:1 2877:1 #
0.4999999999998833155601118960476 659:1 2384:1 #
-0.4999999999998833155601118960476 1234:1 2877:1 #
-0.4999999999998833155601118960476 168:1 2877:1 #
0.4999999999998833155601118960476 235:1 2401:1 #
0.4999999999998833155601118960476 872:1 2384:1 #
0.27308922276629016279159145597077 1363:1 2384:1 #
0.4999999999998833155601118960476 168:1 4503:1 #
0.4999999999998833155601118960476 375:1 4503:1 #
0.4999999999998833155601118960476 1108:1 4503:1 #
0.47594493048647790178762306823046 1094:1 2384:1 #
0.49306795424252225501504653948359 1675:1 2401:1 #
0.4999999999998833155601118960476 819:1 2384:1 #
0.15046721021458175915341826112126 1234:1 2384:1 #
0.4999999999998833155601118960476 1161:1 4503:1 #
0.4999999999998833155601118960476 371:1 4503:1 #
0.4999999999998833155601118960476 1445:1 4503:1 #
0.4999999999998833155601118960476 506:1 4503:1 #
0.4999999999998833155601118960476 1498:1 4503:1 #
-0.4999999999998833155601118960476 148:1 2384:1 #
-0.4999999999998833155601118960476 1106:1 2384:1 #
0.4999999999998833155601118960476 1234:1 2512:1 #
0.4999999999998833155601118960476 1258:1 2877:1 #
0.4708876625482297795244335247844 1365:1 2384:1 #
-0.4999999999998833155601118960476 269:1 4503:1 #
-0.34715650126345759529655765618372 530:1 4503:1 #
-0.32398787816303653563920761371264 697:1 4503:1 #
-0.4999999999998833155601118960476 45:1 4503:1 #
-0.48138191668619983998311795403424 2:1 4503:1 #
0.44406189576504229155062830614042 1237:1 2384:1 #
-0.4999999999998833155601118960476 1088:1 2384:1 #
-0.4999999999998833155601118960476 1336:1 2384:1 #
-0.4999999999998833155601118960476 903:1 2384:1 #
0.4999999999998833155601118960476 805:1 2384:1 #
-0.38089414941464094788159400195582 377:1 4503:1 #
-0.051998172820427179807722950499738 401:1 2158:1 #
-0.014546859240960033701761666691255 878:1 2453:1 #
-0.013376045172943884509209055977408 1632:1 3990:1 #
-0.035844083837190260366512006839912 422:1 2672:1 #
0.4999999999998833155601118960476 540:1 2384:1 #
0.11009623242250970998057368888112 91:1 2384:1 #
0.10763456180755870406073881895281 363:1 2384:1 #
-0.011261341195967389250398582589696 35:1 5053:1 #
0.49419739626177811020468766400882 1372:1 2384:1 #
-0.4999999999998833155601118960476 1372:1 2384:1 #
0.4999999999998833155601118960476 45:1 4503:1 #
0.4999999999998833155601118960476 1136:1 4503:1 #
-0.4999999999998833155601118960476 1136:1 2384:1 #
-0.4999999999998833155601118960476 540:1 2384:1 #
-0.4999999999998833155601118960476 704:1 2877:1 #
-0.4999999999998833155601118960476 906:1 3899:1 #
-0.4999999999998833155601118960476 1626:1 3899:1 #
-0.4999999999998833155601118960476 44:1 3899:1 #
-0.4999999999998833155601118960476 1590:1 3899:1 #
0.4999999999998833155601118960476 1372:1 2384:1 #
-0.4999999999998833155601118960476 168:1 2384:1 #
-0.4999999999998833155601118960476 1372:1 2384:1 #
0.4999999999998833155601118960476 1590:1 3899:1 #
-0.4999999999998833155601118960476 1516:1 2877:1 #
-0.4999999999998833155601118960476 1363:1 2877:1 #
-0.4999999999998833155601118960476 1692:1 3899:1 #
0.4999999999998833155601118960476 1372:1 2384:1 #
-0.49443026925598554388585625929409 1372:1 4248:1 #
-0.22019316185386572648496894544223 34:1 4248:1 #
-0.4999999999998833155601118960476 434:1 4248:1 #
0.4999999999998833155601118960476 1094:1 2384:1 #
-0.4999999999998833155601118960476 861:1 2384:1 #
-0.4999999999998833155601118960476 1222:1 2384:1 #
-0.4999999999998833155601118960476 1300:1 2384:1 #
0.4999999999998833155601118960476 168:1 4503:1 #
-0.4999999999998833155601118960476 1136:1 4503:1 #
-0.4999999999998833155601118960476 1094:1 4503:1 #
0.4999999999998833155601118960476 377:1 2384:1 #
0.4999999999998833155601118960476 35:1 2384:1 #
-0.4999999999998833155601118960476 35:1 2384:1 #
0.4999999999998833155601118960476 1136:1 4503:1 #
-0.4999999999998833155601118960476 1136:1 4503:1 #
-0.4999999999998833155601118960476 1258:1 4503:1 #
0.4999999999998833155601118960476 1094:1 2384:1 #
0.4999999999998833155601118960476 35:1 2384:1 #
-0.4999999999998833155601118960476 35:1 2384:1 #
-0.4999999999998833155601118960476 168:1 2384:1 #
0.4999999999998833155601118960476 1136:1 4503:1 #
-0.4999999999998833155601118960476 805:1 4503:1 #
0.33506298055254302159511325953645 168:1 2384:1 #
-0.4999999999998833155601118960476 168:1 2384:1 #
-0.4999999999998833155601118960476 1136:1 2384:1 #
-0.4999999999998833155601118960476 235:1 2401:1 #
-0.4999999999998833155601118960476 1084:1 2401:1 #
0.4999999999998833155601118960476 805:1 2384:1 #
-0.4999999999998833155601118960476 805:1 2384:1 #
0.4999999999998833155601118960476 1084:1 2401:1 #
-0.4999999999998833155601118960476 1237:1 2384:1 #
0.4999999999998833155601118960476 35:1 2384:1 #
-0.4999999999998833155601118960476 1510:1 2384:1 #
-0.4999999999998833155601118960476 1106:1 2384:1 #
-0.4999999999998833155601118960476 486:1 2384:1 #
-0.4999999999998833155601118960476 368:1 2384:1 #
0.4999999999998833155601118960476 235:1 2401:1 #
0.4999999999998833155601118960476 1847:1 2384:1 #
0.4999999999998833155601118960476 1115:1 2384:1 #
0.24286323256684494431567600258859 1632:1 2384:1 #
-0.4999999999998833155601118960476 218:1 2384:1 #
-0.4999999999998833155601118960476 1707:1 2384:1 #
-0.4999999999998833155601118960476 128:1 2384:1 #
-0.4999999999998833155601118960476 1304:1 2384:1 #
-0.4999999999998833155601118960476 30:1 2384:1 #
0.4999999999998833155601118960476 1612:1 3899:1 #
0.4999999999998833155601118960476 30:1 2384:1 #
0.4999999999998833155601118960476 218:1 2384:1 #
0.4999999999998833155601118960476 1304:1 2384:1 #
-0.4999999999998833155601118960476 697:1 2384:1 #
0.4999999999998833155601118960476 1136:1 4503:1 #
0.4999999999998833155601118960476 1009:1 3899:1 #
0.13004204162118163101702350559208 1148:1 3899:1 #
0.4999999999998833155601118960476 1099:1 3899:1 #
0.22346451474250605961913151986664 778:1 3899:1 #
0.2046070175678324221113513203818 927:1 2384:1 #
-0.4999999999998833155601118960476 1099:1 2384:1 #
-0.4999999999998833155601118960476 218:1 2384:1 #
-0.4999999999998833155601118960476 1335:1 2384:1 #
-0.4999999999998833155601118960476 1304:1 2384:1 #
0.4999999999998833155601118960476 1459:1 2384:1 #
0.15022150998801525600967465834401 184:1 2384:1 #
-0.4999999999998833155601118960476 1539:1 2384:1 #
-0.4999999999998833155601118960476 1550:1 2384:1 #
-0.4999999999998833155601118960476 542:1 2384:1 #
-0.4999999999998833155601118960476 739:1 2384:1 #
0.4999999999998833155601118960476 384:1 2384:1 #
0.4999999999998833155601118960476 629:1 2384:1 #
0.4999999999998833155601118960476 1033:1 2384:1 #
-0.4999999999998833155601118960476 162:1 2384:1 #
-0.4999999999998833155601118960476 338:1 2384:1 #
-0.4999999999998833155601118960476 810:1 2384:1 #
-0.4999999999998833155601118960476 1748:1 2384:1 #
-0.4999999999998833155601118960476 256:1 2384:1 #
0.4999999999998833155601118960476 304:1 2384:1 #
0.4999999999998833155601118960476 1335:1 2384:1 #
0.4999999999998833155601118960476 1304:1 2384:1 #
-0.4999999999998833155601118960476 1295:1 2384:1 #
-0.4999999999998833155601118960476 792:1 2384:1 #
-0.4999999999998833155601118960476 1029:1 2384:1 #
-0.012817050913154187652409632391937 168:1 5083:1 #
0.4999999999998833155601118960476 810:1 2384:1 #
0.4999999999998833155601118960476 218:1 2384:1 #
0.30795176497914200641758952770033 1295:1 2384:1 #
0.4999999999998833155601118960476 792:1 2384:1 #
0.13713587291761186737204525343259 1289:1 2384:1 #
-0.4999999999998833155601118960476 1295:1 2384:1 #
-0.4999999999998833155601118960476 1078:1 2384:1 #
-0.4999999999998833155601118960476 8:1 2384:1 #
0.4999999999998833155601118960476 1073:1 2384:1 #
0.043172120516202006079709008190548 1258:1 2384:1 #
-0.4999999999998833155601118960476 75:1 2384:1 #
-0.4999999999998833155601118960476 377:1 2384:1 #
-0.4999999999998833155601118960476 1490:1 2384:1 #
-0.4999999999998833155601118960476 71:1 2384:1 #
0.4999999999998833155601118960476 8:1 2384:1 #
-0.4999999999998833155601118960476 8:1 2384:1 #
-0.4999999999998833155601118960476 810:1 2384:1 #
-0.4999999999998833155601118960476 407:1 2384:1 #
0.4999999999998833155601118960476 168:1 4503:1 #
0.4999999999998833155601118960476 1136:1 4503:1 #
0.4999999999998833155601118960476 8:1 2384:1 #
0.4999999999998833155601118960476 2:1 2384:1 #
-0.4999999999998833155601118960476 2:1 2384:1 #
-0.4999999999998833155601118960476 139:1 2384:1 #
-0.4999999999998833155601118960476 1266:1 2384:1 #
0.4999999999998833155601118960476 697:1 2384:1 #
0.4999999999998833155601118960476 407:1 2384:1 #
-0.4999999999998833155601118960476 697:1 2384:1 #
-0.4999999999998833155601118960476 1657:1 2384:1 #
-0.010066911516929928985253361872765 235:1 2067:1 #
-0.4999999999998833155601118960476 1465:1 2384:1 #
-0.4999999999998833155601118960476 1220:1 2384:1 #
-0.4999999999998833155601118960476 1789:1 2384:1 #
-0.4999999999998833155601118960476 1800:1 2384:1 #
-0.4999999999998833155601118960476 169:1 2384:1 #
0.4999999999998833155601118960476 1256:1 2384:1 #
0.4999999999998833155601118960476 468:1 2384:1 #
0.4999999999998833155601118960476 2:1 2384:1 #
-0.4999999999998833155601118960476 1265:1 2384:1 #
-0.4999999999998833155601118960476 228:1 2384:1 #
-0.4999999999998833155601118960476 1433:1 2384:1 #
0.4999999999998833155601118960476 1465:1 2384:1 #
0.4999999999998833155601118960476 139:1 2384:1 #
-0.4999999999998833155601118960476 139:1 2384:1 #
-0.4999999999998833155601118960476 765:1 2384:1 #
0.4999999999998833155601118960476 139:1 2384:1 #
-0.4999999999998833155601118960476 139:1 2384:1 #
0.4999999999998833155601118960476 1460:1 2384:1 #
0.4999999999998833155601118960476 333:1 2384:1 #
0.35070923024203121132202909393527 861:1 2384:1 #
0.49647082464764835663117992226034 1179:1 2384:1 #
-0.4999999999998833155601118960476 568:1 2384:1 #
-0.4999999999998833155601118960476 293:1 2384:1 #
-0.4999999999998833155601118960476 726:1 2384:1 #
-0.4999999999998833155601118960476 777:1 2384:1 #
0.4999999999998833155601118960476 139:1 2384:1 #
-0.4999999999998833155601118960476 934:1 2384:1 #
-0.4999999999998833155601118960476 1470:1 2384:1 #
-0.4999999999998833155601118960476 944:1 2384:1 #
-0.4999999999998833155601118960476 1436:1 2384:1 #
0.4999999999998833155601118960476 726:1 2384:1 #
0.4999999999998833155601118960476 1592:1 2384:1 #
-0.4999999999998833155601118960476 1694:1 2384:1 #
-0.4999999999998833155601118960476 1386:1 2384:1 #
-0.4999999999998833155601118960476 1186:1 2384:1 #
-0.4999999999998833155601118960476 246:1 2384:1 #
0.4999999999998833155601118960476 50:1 2384:1 #
0.47599460576330226979635540374147 978:1 2384:1 #
-0.4999999999998833155601118960476 420:1 2384:1 #
-0.4999999999998833155601118960476 1634:1 2384:1 #
-0.4999999999998833155601118960476 382:1 2384:1 #
-0.4999999999998833155601118960476 1514:1 2384:1 #
-0.4999999999998833155601118960476 1394:1 2384:1 #
-0.4999999999998833155601118960476 221:1 2384:1 #
-0.4999999999998833155601118960476 663:1 2384:1 #
-0.4999999999998833155601118960476 1283:1 2384:1 #
-0.4999999999998833155601118960476 209:1 2384:1 #
0.13012357264477514284806147770723 113:1 2384:1 #
0.34318896435487566964894767806982 880:1 2384:1 #
-0.01331288173950151421109922011965 184:1 3319:1 #
-0.4999999999998833155601118960476 961:1 2384:1 #
-0.4999999999998833155601118960476 1235:1 2384:1 #
-0.4999999999998833155601118960476 480:1 2384:1 #
-0.4999999999998833155601118960476 1801:1 2384:1 #
-0.4999999999998833155601118960476 779:1 2384:1 #
0.27544370330171619176695685382583 663:1 2384:1 #
0.48572408806626571342590636959358 1088:1 2384:1 #
-0.4999999999998833155601118960476 1308:1 2384:1 #
-0.4999999999998833155601118960476 1590:1 2384:1 #
-0.4999999999998833155601118960476 399:1 2384:1 #
0.4999999999998833155601118960476 961:1 2384:1 #
0.4999999999998833155601118960476 480:1 2384:1 #
-0.4999999999998833155601118960476 616:1 2384:1 #
-0.4999999999998833155601118960476 1552:1 2384:1 #
-0.4999999999998833155601118960476 835:1 2384:1 #
0.4999999999998833155601118960476 1510:1 2384:1 #
0.4999999999998833155601118960476 486:1 2384:1 #
0.4999999999998833155601118960476 368:1 2384:1 #
-0.4999999999998833155601118960476 486:1 2384:1 #
-0.4999999999998833155601118960476 1510:1 2384:1 #
0.18935016721001307615779296611436 1552:1 2384:1 #
0.4999999999998833155601118960476 1106:1 2384:1 #
-0.4999999999998833155601118960476 1106:1 2384:1 #
0.451324284259674302077769425523 712:1 2384:1 #
-0.4999999999998833155601118960476 486:1 2384:1 #
0.4999999999998833155601118960476 1106:1 2384:1 #
-0.4999999999998833155601118960476 1106:1 2384:1 #
0.4999999999998833155601118960476 1372:1 2384:1 #
-0.4999999999998833155601118960476 1372:1 2384:1 #
0.4999999999998833155601118960476 377:1 2384:1 #
-0.028029329894329380046258393122116 1841:1 2887:1 #
0.4999999999998833155601118960476 805:1 2384:1 #
-0.4999999999998833155601118960476 390:1 2384:1 #
0.4999999999998833155601118960476 1372:1 2384:1 #
-0.4999999999998833155601118960476 1372:1 2384:1 #
-0.4999999999998833155601118960476 1372:1 2384:1 #
0.49801070203973440975175890343962 390:1 2384:1 #
0.4999999999998833155601118960476 1372:1 2384:1 #
-0.4999999999998833155601118960476 805:1 2384:1 #
-0.4999999999998833155601118960476 439:1 2384:1 #
-0.4999999999998833155601118960476 1368:1 2384:1 #
0.29608849676944481998930314148311 1295:1 2384:1 #
0.4999999999998833155601118960476 550:1 2384:1 #
-0.4999999999998833155601118960476 550:1 2384:1 #
0.4999999999998833155601118960476 805:1 2384:1 #
-0.4999999999998833155601118960476 550:1 2384:1 #
0.4999999999998833155601118960476 439:1 2384:1 #
-0.4999999999998833155601118960476 805:1 2384:1 #
-0.4999999999998833155601118960476 1448:1 2384:1 #
-0.4999999999998833155601118960476 1842:1 2384:1 #
-0.4999999999998833155601118960476 553:1 2384:1 #
0.4999999999998833155601118960476 550:1 2384:1 #
-0.4999999999998833155601118960476 1522:1 2384:1 #
-0.4999999999998833155601118960476 566:1 2384:1 #
0.4999999999998833155601118960476 1045:1 2384:1 #
0.41215513702478834279219199743238 841:1 2384:1 #
-0.4999999999998833155601118960476 1045:1 2384:1 #
-0.4999999999998833155601118960476 550:1 2384:1 #
0.2699969889672231282418124465039 977:1 2384:1 #
-0.4999999999998833155601118960476 977:1 2384:1 #
0.4999999999998833155601118960476 434:1 2384:1 #
-0.4999999999998833155601118960476 434:1 2384:1 #
-0.011256656707228760230798947361563 35:1 2321:1 #
0.4999999999998833155601118960476 1106:1 2384:1 #
0.4999999999998833155601118960476 1510:1 2384:1 #
-0.4999999999998833155601118960476 1106:1 2384:1 #
0.4934991293908953524649518840306 434:1 2384:1 #
-0.4999999999998833155601118960476 434:1 2384:1 #
-0.4999999999998833155601118960476 434:1 2384:1 #
-0.011211165871537698279780670418404 35:1 5141:1 #
0.2238438295491541607518115597486 1079:1 2384:1 #
0.4999999999998833155601118960476 805:1 2384:1 #
-0.4999999999998833155601118960476 1372:1 2384:1 #
0.4999999999998833155601118960476 434:1 2384:1 #
0.4999999999998833155601118960476 1372:1 2384:1 #
-0.4999999999998833155601118960476 977:1 2384:1 #
0.46741831776647219109932507308258 1045:1 2384:1 #
0.4999999999998833155601118960476 434:1 2384:1 #
-0.4999999999998833155601118960476 434:1 2384:1 #
-0.4999999999998833155601118960476 1105:1 2384:1 #
-0.4999999999998833155601118960476 1411:1 2384:1 #
0.31804993751581478456103013741085 977:1 2384:1 #
-0.4999999999998833155601118960476 130:1 2384:1 #
-0.4999999999998833155601118960476 1705:1 2384:1 #
-0.4999999999998833155601118960476 1365:1 2384:1 #
0.4999999999998833155601118960476 550:1 2384:1 #
0.1625395301564475369904272383792 130:1 2384:1 #
-0.4999999999998833155601118960476 1237:1 2384:1 #
-0.4999999999998833155601118960476 1372:1 2384:1 #
0.48901765223242699143213485513115 1365:1 2384:1 #
-0.4999999999998833155601118960476 1365:1 2384:1 #
0.4999999999998833155601118960476 1372:1 2384:1 #
0.4999999999998833155601118960476 550:1 2384:1 #
-0.4999999999998833155601118960476 1372:1 2384:1 #
0.23148696157024634123544615249557 977:1 2384:1 #
-0.4999999999998833155601118960476 977:1 2384:1 #
0.4999999999998833155601118960476 1372:1 2384:1 #
-0.4999999999998833155601118960476 1372:1 2384:1 #
0.4999999999998833155601118960476 1106:1 2384:1 #
0.26034857663648236503206589986803 977:1 2384:1 #
