SVM-light Version V6.02
0 # kernel type
3 # kernel parameter -d 
1 # kernel parameter -g 
1 # kernel parameter -s 
1 # kernel parameter -r 
empty# kernel parameter -u 
8121 # highest feature index 
17746 # number of training documents 
7033 # number of support vectors plus 1 
1.240236 # threshold b, each following line is a SV (starting with alpha*y)
-0.47999286194638907110388004184642 2359:1 4997:1 #
-0.032419032919082768628982194059063 1631:1 4855:1 #
-0.0034366253584288131150970002636313 2629:1 7613:1 #
-0.21870771479875572573803310660878 2714:1 3885:1 #
-0.068907711650014094595384506192204 1398:1 4319:1 #
0.49999999999987054799532870674739 2629:1 4319:1 #
0.49999999999987054799532870674739 223:1 4319:1 #
0.49999999999987054799532870674739 2256:1 5847:1 #
0.49999999999987054799532870674739 2256:1 5856:1 #
0.49999999999987054799532870674739 2477:1 5897:1 #
-0.49999999999987054799532870674739 2256:1 5847:1 #
-0.49999999999987054799532870674739 2256:1 5856:1 #
-0.49999999999987054799532870674739 2477:1 5856:1 #
-0.094549435176873641850647800310981 1660:1 4319:1 #
0.49999999999987054799532870674739 2471:1 7386:1 #
0.49999999999987054799532870674739 1763:1 3770:1 #
0.49999999999987054799532870674739 1826:1 3770:1 #
0.49999999999987054799532870674739 435:1 3770:1 #
0.49999999999987054799532870674739 2053:1 3770:1 #
-0.49999999999987054799532870674739 1405:1 5141:1 #
0.49999999999987054799532870674739 938:1 5856:1 #
0.38268364277885436042225819619489 2952:1 5856:1 #
0.49999999999987054799532870674739 979:1 5856:1 #
-0.49999999999987054799532870674739 1982:1 5141:1 #
0.49999999999987054799532870674739 866:1 4997:1 #
0.49999999999987054799532870674739 2010:1 4997:1 #
0.49999999999987054799532870674739 1026:1 4997:1 #
0.49999999999987054799532870674739 1980:1 4997:1 #
0.49999999999987054799532870674739 521:1 4997:1 #
-0.23527561159634624576852957034134 882:1 5897:1 #
-0.49999999999987054799532870674739 1845:1 5897:1 #
-0.49999999999987054799532870674739 2216:1 5897:1 #
-0.49999999999987054799532870674739 921:1 5897:1 #
-0.49999999999987054799532870674739 2560:1 5897:1 #
0.49999999999987054799532870674739 938:1 5847:1 #
0.49999999999987054799532870674739 807:1 5141:1 #
-0.49999999999987054799532870674739 938:1 5856:1 #
0.49999999999987054799532870674739 1746:1 5897:1 #
0.49999999999987054799532870674739 2350:1 5897:1 #
0.49999999999987054799532870674739 1606:1 5897:1 #
0.49999999999987054799532870674739 872:1 5897:1 #
0.49999999999987054799532870674739 1883:1 5897:1 #
-0.49999999999987054799532870674739 485:1 5897:1 #
-0.49999999999987054799532870674739 2250:1 5897:1 #
-0.23544746834126462076142161095049 2975:1 5897:1 #
-0.23527561159634621801295395471243 656:1 5897:1 #
-0.2354474683412648428060265359818 929:1 5897:1 #
0.49999999999987054799532870674739 938:1 5856:1 #
-0.49999999999987054799532870674739 872:1 5856:1 #
-0.094501912197215945377060108967271 2350:1 4319:1 #
-0.49999999999987054799532870674739 1026:1 4319:1 #
0.49999999999987054799532870674739 2285:1 5141:1 #
0.49999999999987054799532870674739 2560:1 3934:1 #
0.49999999999987054799532870674739 2560:1 5277:1 #
0.49999999999987054799532870674739 921:1 5988:1 #
0.49999999999987054799532870674739 921:1 6742:1 #
-0.49999999999987054799532870674739 2053:1 6742:1 #
-0.49999999999987054799532870674739 2285:1 4291:1 #
-0.23166194068407697237432785186684 2296:1 5856:1 #
0.49999999999987054799532870674739 787:1 4319:1 #
0.49999999999987054799532870674739 699:1 4319:1 #
0.49999999999987054799532870674739 2881:1 4319:1 #
0.49999999999987054799532870674739 736:1 4319:1 #
0.49999999999987054799532870674739 734:1 4319:1 #
-0.49999999999987054799532870674739 699:1 4319:1 #
-0.49999999999987054799532870674739 2881:1 4319:1 #
-0.49999999999987054799532870674739 736:1 4319:1 #
-0.49999999999987054799532870674739 3027:1 4319:1 #
0.49999999999987054799532870674739 872:1 5856:1 #
0.49999999999987054799532870674739 872:1 6742:1 #
0.49999999999987054799532870674739 2540:1 5897:1 #
-0.49999999999987054799532870674739 872:1 6742:1 #
-0.49999999999987054799532870674739 463:1 5897:1 #
-0.49999999999987054799532870674739 2383:1 5897:1 #
-0.20799065217523882154182501835749 2098:1 5971:1 #
-0.090849093578963424633343493042048 872:1 4487:1 #
0.49999999999987054799532870674739 3027:1 4319:1 #
-0.47641322602878577452401032132911 3027:1 5277:1 #
-0.49999999999987054799532870674739 866:1 5277:1 #
-0.41990197473072887746070591674652 2540:1 5081:1 #
-0.41990197473072837786034483542608 2540:1 3223:1 #
-0.47510719114225119508176931049093 491:1 5277:1 #
0.49999999999987054799532870674739 1518:1 4142:1 #
0.49999999999987054799532870674739 2303:1 4142:1 #
0.49999999999987054799532870674739 1339:1 4142:1 #
0.49999999999987054799532870674739 2386:1 4142:1 #
0.49999999999987054799532870674739 445:1 4142:1 #
-0.0085132489945609329112796714866818 982:1 4688:1 #
-0.31579181212645884846423882663657 872:1 4142:1 #
-0.15311463642754419289815359661588 2053:1 4142:1 #
0.49999999999987054799532870674739 580:1 5277:1 #
0.49999999999987054799532870674739 1672:1 5277:1 #
0.49999999999987054799532870674739 2908:1 5277:1 #
0.49999999999987054799532870674739 2569:1 5277:1 #
-0.49999999999987054799532870674739 1672:1 5277:1 #
-0.38637503092508618252054475306068 1072:1 5277:1 #
-0.49999999999987054799532870674739 938:1 5856:1 #
-0.28658373958372268530681026277307 2379:1 6270:1 #
-0.026032038404905200046357549581444 1065:1 7096:1 #
0.49999999999987054799532870674739 872:1 5141:1 #
0.49999999999987054799532870674739 2053:1 5141:1 #
0.49999999999987054799532870674739 979:1 5888:1 #
0.49999999999987054799532870674739 979:1 4887:1 #
-0.49999999999987054799532870674739 2010:1 5141:1 #
-0.49999999999987054799532870674739 1518:1 5856:1 #
-0.49999999999987054799532870674739 1339:1 5856:1 #
0.49999999999987054799532870674739 1417:1 5277:1 #
0.49999999999987054799532870674739 95:1 5277:1 #
0.49999999999987054799532870674739 1055:1 5277:1 #
0.49999999999987054799532870674739 2788:1 5277:1 #
-0.071686648738258140767243276059162 95:1 5277:1 #
-0.49999999999987054799532870674739 95:1 5897:1 #
-0.49999999999987054799532870674739 1903:1 5277:1 #
-0.030095968284789997859718368999893 1571:1 4001:1 #
-0.029770161437464914833128659665817 1571:1 6118:1 #
0.49999999999987054799532870674739 2646:1 5856:1 #
-0.1709913109811358467027275764849 2039:1 3942:1 #
-0.17475247155956430411549717973685 2621:1 3942:1 #
-0.00028734102031580111002995181479491 2491:1 7272:1 #
-0.20121985442435180724274346175662 1371:1 3942:1 #
0.49999999999987054799532870674739 1915:1 4142:1 #
0.49999999999987054799532870674739 2010:1 6742:1 #
-0.49999999999987054799532870674739 2788:1 6742:1 #
-0.49999999999987054799532870674739 2386:1 6742:1 #
-0.39569291815786006294430876550905 2303:1 6742:1 #
-0.39585499188757078403710920611047 445:1 6742:1 #
0.49999999999987054799532870674739 1845:1 5856:1 #
-0.49999999999987054799532870674739 2326:1 5856:1 #
-0.49999999999987054799532870674739 1362:1 5856:1 #
-0.49999999999987054799532870674739 2296:1 5856:1 #
-0.49999999999987054799532870674739 727:1 5856:1 #
0.49999999999987054799532870674739 485:1 6742:1 #
0.49999999999987054799532870674739 1399:1 6742:1 #
0.49999999999987054799532870674739 1178:1 6742:1 #
0.49999999999987054799532870674739 680:1 6742:1 #
-0.02967600759558131073845288483426 1965:1 3514:1 #
-0.49999999999987054799532870674739 2010:1 6742:1 #
0.49999999999987054799532870674739 979:1 5856:1 #
0.49999999999987054799532870674739 2326:1 5856:1 #
0.49999999999987054799532870674739 2296:1 5856:1 #
-0.49999999999987054799532870674739 979:1 5346:1 #
0.49999999999987054799532870674739 1416:1 6742:1 #
0.49999999999987054799532870674739 2845:1 6742:1 #
0.49999999999987054799532870674739 2086:1 6742:1 #
-0.49999999999987054799532870674739 1853:1 5988:1 #
-0.49999999999987054799532870674739 2386:1 6742:1 #
0.49999999999987054799532870674739 2010:1 6277:1 #
0.49999999999987054799532870674739 2010:1 4675:1 #
0.49999999999987054799532870674739 2010:1 3713:1 #
0.49999999999987054799532870674739 2010:1 6270:1 #
0.49999999999987054799532870674739 1072:1 7104:1 #
-0.49999999999987054799532870674739 2010:1 5141:1 #
-0.49999999999987054799532870674739 2010:1 4675:1 #
-0.49999999999987054799532870674739 2010:1 4997:1 #
-0.10530409702808715688426843826164 2152:1 7898:1 #
0.49999999999987054799532870674739 1853:1 6742:1 #
0.49999999999987054799532870674739 1853:1 3770:1 #
-0.49999999999987054799532870674739 1853:1 3770:1 #
-0.49999999999987054799532870674739 1853:1 6742:1 #
0.49999999999987054799532870674739 2540:1 5897:1 #
0.49999999999987054799532870674739 2386:1 4675:1 #
0.49999999999987054799532870674739 1241:1 5897:1 #
0.49999999999987054799532870674739 1824:1 5897:1 #
0.49999999999987054799532870674739 553:1 5897:1 #
-0.49999999999987054799532870674739 1746:1 7104:1 #
-0.49999999999987054799532870674739 521:1 4675:1 #
-0.12378097532819154480421275366098 2560:1 6230:1 #
-0.43123815303923385133799683899269 2692:1 5303:1 #
-0.024056558676147438841086412253389 2113:1 6163:1 #
0.49999999999987054799532870674739 1853:1 6742:1 #
0.49999999999987054799532870674739 1853:1 3770:1 #
0.49999999999987054799532870674739 1853:1 5141:1 #
-0.3514620845370893809089807291457 1853:1 3770:1 #
-0.49999999999987054799532870674739 1853:1 6742:1 #
-0.49999999999987054799532870674739 1853:1 5856:1 #
0.49999999999987054799532870674739 521:1 3157:1 #
0.49999999999987054799532870674739 521:1 8104:1 #
-0.12997959048912754997928686861997 521:1 3278:1 #
-0.49999999999987054799532870674739 521:1 6976:1 #
-0.48002482352673114807117826785543 2252:1 4997:1 #
-0.49999999999987054799532870674739 244:1 4997:1 #
0.49999999999987054799532870674739 1853:1 5856:1 #
-0.49999999999987054799532870674739 2908:1 4319:1 #
-0.0055893331023043613114964500709902 1763:1 5223:1 #
-0.22561099830234754293201149266679 1763:1 7622:1 #
-0.10887780154747750405164197218255 787:1 4251:1 #
0.49999999999987054799532870674739 1773:1 6500:1 #
0.49999999999987054799532870674739 1984:1 6500:1 #
0.49999999999987054799532870674739 1874:1 6500:1 #
-0.49999999999987054799532870674739 1773:1 6742:1 #
0.49999999999987054799532870674739 3027:1 4319:1 #
-0.49999999999987054799532870674739 3027:1 4319:1 #
0.49999999999987054799532870674739 1773:1 6742:1 #
0.49999999999987054799532870674739 860:1 6742:1 #
0.49999999999987054799532870674739 128:1 6742:1 #
0.49999999999987054799532870674739 162:1 6742:1 #
0.49999999999987054799532870674739 423:1 6742:1 #
-0.49999999999987054799532870674739 423:1 4997:1 #
0.49999999999987054799532870674739 200:1 4251:1 #
-0.49999999999987054799532870674739 162:1 5856:1 #
-0.49999999999987054799532870674739 1874:1 6742:1 #
0.49999999999987054799532870674739 423:1 4997:1 #
0.49999999999987054799532870674739 423:1 5971:1 #
0.49999999999987054799532870674739 423:1 7770:1 #
-0.49999999999987054799532870674739 423:1 4997:1 #
-0.23360560065238719640312581304897 734:1 4338:1 #
-0.086931463345438442225088238046737 2901:1 3236:1 #
-0.49999999999987054799532870674739 2010:1 5141:1 #
0.49999999999987054799532870674739 727:1 5856:1 #
0.49999999999987054799532870674739 162:1 4487:1 #
-0.49999999999987054799532870674739 162:1 5856:1 #
-0.3953274016036510407623438823066 162:1 6742:1 #
-0.49999999999987054799532870674739 162:1 5897:1 #
0.49999999999987054799532870674739 938:1 4997:1 #
-0.49999999999987054799532870674739 938:1 4997:1 #
-0.49999999999987054799532870674739 1982:1 4997:1 #
-0.49999999999987054799532870674739 2529:1 4997:1 #
-0.48062197287108721077686368516879 714:1 4997:1 #
0.49999999999987054799532870674739 162:1 6742:1 #
0.49999999999987054799532870674739 162:1 4020:1 #
0.49999999999987054799532870674739 162:1 5141:1 #
0.49999999999987054799532870674739 162:1 4142:1 #
-0.39524951720772427687933259221609 866:1 6742:1 #
-0.028978754442119947221101483592065 2138:1 4622:1 #
0.49999999999987054799532870674739 2010:1 4997:1 #
0.49999999999987054799532870674739 938:1 4997:1 #
-0.49999999999987054799532870674739 938:1 4997:1 #
-0.0010316019610150384266944456612691 1845:1 4995:1 #
0.49999999999987054799532870674739 1982:1 6742:1 #
0.49999999999987054799532870674739 2296:1 3770:1 #
0.49999999999987054799532870674739 2529:1 5856:1 #
0.49999999999987054799532870674739 244:1 3770:1 #
-0.49999999999987054799532870674739 2296:1 5856:1 #
0.49999999999987054799532870674739 664:1 4997:1 #
0.49999999999987054799532870674739 700:1 4997:1 #
0.49999999999987054799532870674739 2466:1 4997:1 #
0.49999999999987054799532870674739 2097:1 4997:1 #
0.49999999999987054799532870674739 1863:1 4997:1 #
-0.028579625481443160506245249052881 2574:1 8055:1 #
-0.49999999999987054799532870674739 1606:1 3770:1 #
-0.32625562096552063184873304635403 2529:1 6742:1 #
-0.028624007433510567643963895534398 2858:1 8097:1 #
0.49999999999987054799532870674739 75:1 5971:1 #
-0.49999999999987054799532870674739 75:1 6742:1 #
-0.23250437752322461459897340319003 223:1 8010:1 #
0.49999999999987054799532870674739 3029:1 7622:1 #
0.49999999999987054799532870674739 1339:1 7622:1 #
-0.49999999999987054799532870674739 1339:1 3770:1 #
0.49999999999987054799532870674739 3027:1 4319:1 #
-0.49999999999987054799532870674739 2845:1 4319:1 #
-0.49999999999987054799532870674739 244:1 4319:1 #
-0.49999999999987054799532870674739 1915:1 4319:1 #
0.49999999999987054799532870674739 1976:1 3770:1 #
0.49999999999987054799532870674739 234:1 3770:1 #
0.49999999999987054799532870674739 2758:1 3770:1 #
-0.2249121298328627949203450953064 234:1 3770:1 #
0.49999999999987054799532870674739 736:1 4319:1 #
-0.49999999999987054799532870674739 2758:1 3770:1 #
-0.41005298329813089086570698782452 1372:1 5613:1 #
-0.47695400112974073447702494377154 1883:1 3131:1 #
-0.49999999999987054799532870674739 1773:1 3770:1 #
0.49999999999987054799532870674739 234:1 4319:1 #
0.49999999999987054799532870674739 1128:1 4319:1 #
0.49999999999987054799532870674739 307:1 4319:1 #
0.49999999999987054799532870674739 830:1 4319:1 #
0.49999999999987054799532870674739 2080:1 4319:1 #
-0.49999999999987054799532870674739 1128:1 4319:1 #
-0.49999999999987054799532870674739 3027:1 4319:1 #
0.49999999999987054799532870674739 387:1 3770:1 #
0.49999999999987054799532870674739 2613:1 3770:1 #
0.49999999999987054799532870674739 294:1 3770:1 #
-0.4992700602162284395646452139772 234:1 3770:1 #
0.49999999999987054799532870674739 3027:1 7104:1 #
0.49999999999987054799532870674739 3027:1 3571:1 #
-0.49999999999987054799532870674739 1976:1 5856:1 #
-0.49999999999987054799532870674739 2613:1 5856:1 #
-0.028587207995416218098139182757222 2952:1 6255:1 #
-0.49999999999987054799532870674739 938:1 4675:1 #
-0.02858720799541665524845512891261 2952:1 7569:1 #
0.49999999999987054799532870674739 234:1 6742:1 #
0.49999999999987054799532870674739 234:1 4675:1 #
-0.49999999999987054799532870674739 234:1 6742:1 #
-0.49999999999987054799532870674739 234:1 4997:1 #
-0.01317061778228661994560866332904 95:1 3672:1 #
0.35408401788045479330335751910752 1976:1 5856:1 #
0.49999999999987054799532870674739 2250:1 5856:1 #
0.49999999999987054799532870674739 1874:1 5856:1 #
-0.49999999999987054799532870674739 2296:1 5856:1 #
-0.49999999999987054799532870674739 2646:1 5856:1 #
-0.49999999999987054799532870674739 2379:1 5856:1 #
0.49999999999987054799532870674739 234:1 8091:1 #
-0.49999999999987054799532870674739 1853:1 5897:1 #
-0.49999999999987054799532870674739 1439:1 5897:1 #
-0.49999999999987054799532870674739 2760:1 5897:1 #
-0.23548667403180756352298885758501 1414:1 5897:1 #
0.49999999999987054799532870674739 2646:1 4997:1 #
0.49999999999987054799532870674739 2379:1 5856:1 #
0.49999999999987054799532870674739 2296:1 5856:1 #
-0.49999999999987054799532870674739 2646:1 5856:1 #
0.49999999999987054799532870674739 1439:1 5897:1 #
-0.49999999999987054799532870674739 234:1 5856:1 #
0.49999999999987054799532870674739 1666:1 5897:1 #
-0.49999999999987054799532870674739 1889:1 5897:1 #
-0.49999999999987054799532870674739 2748:1 5897:1 #
-0.49999999999987054799532870674739 1805:1 5897:1 #
-0.23544345632640609200514347776334 2196:1 5897:1 #
0.49999999999987054799532870674739 2646:1 5856:1 #
-0.49999999999987054799532870674739 1666:1 4319:1 #
-0.20911516216546077728821728669573 1606:1 7149:1 #
-0.11043581259062673627369122186792 1606:1 4814:1 #
-0.10991794980804710235577914545502 1606:1 7175:1 #
0.49999999999987054799532870674739 1853:1 5856:1 #
-0.49999999999987054799532870674739 2646:1 5856:1 #
0.49999999999987054799532870674739 234:1 3770:1 #
0.49999999999987054799532870674739 815:1 4319:1 #
0.49999999999987054799532870674739 1398:1 4319:1 #
-0.49999999999987054799532870674739 1874:1 6742:1 #
0.49999999999987054799532870674739 2646:1 5856:1 #
-0.49999999999987054799532870674739 2646:1 5856:1 #
0.49999999999987054799532870674739 1758:1 3131:1 #
0.49999999999987054799532870674739 2482:1 3131:1 #
0.49999999999987054799532870674739 231:1 3131:1 #
0.49999999999987054799532870674739 1557:1 3131:1 #
0.49999999999987054799532870674739 2958:1 3131:1 #
-0.49999999999987054799532870674739 866:1 4675:1 #
0.49999999999987054799532870674739 2646:1 5856:1 #
-0.49999999999987054799532870674739 2646:1 5856:1 #
0.49999999999987054799532870674739 3005:1 6976:1 #
0.49999999999987054799532870674739 2497:1 6976:1 #
0.49999999999987054799532870674739 2646:1 5856:1 #
0.49999999999987054799532870674739 1874:1 6742:1 #
0.49999999999987054799532870674739 532:1 3627:1 #
0.49999999999987054799532870674739 1940:1 3627:1 #
0.49999999999987054799532870674739 1637:1 4338:1 #
0.49999999999987054799532870674739 2728:1 4338:1 #
0.49999999999987054799532870674739 54:1 4338:1 #
0.49999999999987054799532870674739 2874:1 5971:1 #
0.49999999999987054799532870674739 2030:1 5971:1 #
0.49999999999987054799532870674739 1420:1 5971:1 #
0.49999999999987054799532870674739 529:1 5971:1 #
0.49999999999987054799532870674739 234:1 5856:1 #
0.49999999999987054799532870674739 3027:1 4319:1 #
0.49999999999987054799532870674739 2219:1 8010:1 #
0.49999999999987054799532870674739 1889:1 4997:1 #
0.49999999999987054799532870674739 1606:1 5897:1 #
0.49999999999987054799532870674739 938:1 4997:1 #
0.49999999999987054799532870674739 865:1 5277:1 #
0.49999999999987054799532870674739 538:1 5277:1 #
0.49999999999987054799532870674739 1762:1 5897:1 #
0.49999999999987054799532870674739 336:1 5897:1 #
0.49999999999987054799532870674739 959:1 5897:1 #
0.49999999999987054799532870674739 491:1 7236:1 #
0.49999999999987054799532870674739 244:1 6410:1 #
0.49999999999987054799532870674739 1675:1 5277:1 #
0.49999999999987054799532870674739 2483:1 5277:1 #
0.49999999999987054799532870674739 773:1 5277:1 #
0.49999999999987054799532870674739 1081:1 5897:1 #
0.49999999999987054799532870674739 972:1 5897:1 #
0.49999999999987054799532870674739 2784:1 5897:1 #
0.49999999999987054799532870674739 1776:1 5897:1 #
0.49999999999987054799532870674739 1903:1 7990:1 #
0.49999999999987054799532870674739 1903:1 6027:1 #
0.49999999999987054799532870674739 95:1 4842:1 #
0.49999999999987054799532870674739 95:1 7898:1 #
0.49999999999987054799532870674739 1915:1 6642:1 #
0.49999999999987054799532870674739 2644:1 3770:1 #
0.49999999999987054799532870674739 345:1 3770:1 #
0.49999999999987054799532870674739 2285:1 3770:1 #
0.49999999999987054799532870674739 51:1 3770:1 #
0.49999999999987054799532870674739 1197:1 3770:1 #
0.49999999999987054799532870674739 2540:1 4319:1 #
0.49999999999987054799532870674739 866:1 5141:1 #
0.49999999999987054799532870674739 617:1 3770:1 #
0.49999999999987054799532870674739 2749:1 3770:1 #
0.49999999999987054799532870674739 2825:1 3770:1 #
0.49999999999987054799532870674739 5:1 3770:1 #
0.49999999999987054799532870674739 1657:1 3770:1 #
0.49999999999987054799532870674739 431:1 5897:1 #
0.49999999999987054799532870674739 41:1 5897:1 #
0.49999999999987054799532870674739 731:1 5897:1 #
0.49999999999987054799532870674739 1181:1 5897:1 #
0.49999999999987054799532870674739 2383:1 5897:1 #
0.49999999999987054799532870674739 1351:1 6742:1 #
0.49999999999987054799532870674739 29:1 6742:1 #
0.49999999999987054799532870674739 2733:1 6742:1 #
0.49999999999987054799532870674739 2823:1 5897:1 #
0.49999999999987054799532870674739 2495:1 5897:1 #
0.49999999999987054799532870674739 723:1 5897:1 #
0.49999999999987054799532870674739 1384:1 5897:1 #
0.49999999999987054799532870674739 463:1 5897:1 #
0.49999999999987054799532870674739 1915:1 5676:1 #
0.49999999999987054799532870674739 2529:1 3902:1 #
0.49999999999987054799532870674739 2529:1 4453:1 #
0.49999999999987054799532870674739 244:1 5856:1 #
0.49999999999987054799532870674739 1154:1 5897:1 #
0.49999999999987054799532870674739 886:1 5897:1 #
0.49999999999987054799532870674739 173:1 5897:1 #
0.49999999999987054799532870674739 2419:1 5897:1 #
0.49999999999987054799532870674739 2968:1 5897:1 #
-0.49999999999987054799532870674739 2219:1 5141:1 #
-0.49999999999987054799532870674739 865:1 5888:1 #
-0.49999999999987054799532870674739 2483:1 5141:1 #
-0.49999999999987054799532870674739 2219:1 6270:1 #
0.49999999999987054799532870674739 1606:1 7104:1 #
-0.49999999999987054799532870674739 3027:1 7104:1 #
-0.49999999999987054799532870674739 2419:1 7104:1 #
-0.49999999999987054799532870674739 2728:1 7104:1 #
-0.18088326378234992342086684402602 2980:1 3942:1 #
-0.49999999999987054799532870674739 2285:1 5897:1 #
-0.027814326120414567533600802562432 1654:1 6413:1 #
-0.072804321371371605309263941308018 1399:1 8091:1 #
-0.20469762974977434577539270321722 532:1 6277:1 #
-0.095617755461601561250972736161202 529:1 6277:1 #
-0.028587110035119489559463090699865 2138:1 5679:1 #
-0.49999999999987054799532870674739 1874:1 7236:1 #
-0.46779301060172107096235549761332 29:1 4142:1 #
-0.23267424654418511487108389701461 2733:1 4142:1 #
-0.49944506421629530912298378098058 2086:1 4142:1 #
-0.082323510908382135919936217760551 2483:1 4142:1 #
-0.39588168628381259495085942035075 2497:1 6742:1 #
-0.49999999999987054799532870674739 773:1 6742:1 #
-0.49999999999987054799532870674739 128:1 6742:1 #
-0.49999999999987054799532870674739 860:1 6742:1 #
-0.068062659599128383369759376364527 1439:1 4319:1 #
-0.49999999999987054799532870674739 2529:1 5141:1 #
-0.49999999999987054799532870674739 2165:1 3131:1 #
-0.023033593670124474783733603544533 2285:1 6434:1 #
-0.026867958598631114242039075179491 2645:1 6824:1 #
-0.49999999999987054799532870674739 5:1 5856:1 #
-0.49999999999987054799532870674739 938:1 5856:1 #
-0.14219078072389945699427471481613 2958:1 4842:1 #
-0.49999999999987054799532870674739 95:1 4319:1 #
-0.23170232187198136486472321848851 387:1 7622:1 #
-0.026244139117966705510021085956396 2219:1 5770:1 #
-0.49999999999987054799532870674739 51:1 7622:1 #
-0.028864159997398882578911738505667 2138:1 7488:1 #
-0.032452929283189213549576379591599 1631:1 7101:1 #
-0.17877240628610174821844225334644 1903:1 3770:1 #
-0.10122088901601011823316866866662 1874:1 3770:1 #
-0.49999999999987054799532870674739 736:1 4319:1 #
-0.49999999999987054799532870674739 423:1 6500:1 #
-0.49999999999987054799532870674739 423:1 7770:1 #
-0.49999999999987054799532870674739 3027:1 4319:1 #
-0.29981488496623132089524688126403 345:1 3770:1 #
-0.49999999999987054799532870674739 2285:1 3770:1 #
-0.49249775524343353261258471320616 234:1 4338:1 #
-0.49999999999987054799532870674739 234:1 6742:1 #
-0.49999999999987054799532870674739 2825:1 4997:1 #
-0.49999999999987054799532870674739 234:1 6270:1 #
-0.49999999999987054799532870674739 234:1 5141:1 #
-0.028579625481442938461640324021573 2574:1 4833:1 #
-0.30582504456073184018194410782598 773:1 5971:1 #
-0.0038629686234848970016741986910347 2138:1 6699:1 #
-0.02934010519790334475809245873279 864:1 6311:1 #
-0.028289416768873421048624550167006 2193:1 4447:1 #
-0.48062197287108693322110752887966 1263:1 4997:1 #
-0.49999999999987054799532870674739 2875:1 4997:1 #
-0.48062197287108787691067846026272 682:1 4997:1 #
-0.028441559103509761463612903753528 2574:1 3847:1 #
-0.49999999999987054799532870674739 1826:1 5856:1 #
-0.49999999999987054799532870674739 1405:1 5141:1 #
-0.026653779646151225246608618135724 234:1 7634:1 #
-0.047192191395015792299005852328264 216:1 7066:1 #
-0.1031658684976628492790950986091 3006:1 6277:1 #
-0.44014225485209945709641488065245 617:1 7990:1 #
0.49999999999987054799532870674739 1793:1 4675:1 #
-0.49999999999987054799532870674739 1154:1 3571:1 #
-0.49999999999987054799532870674739 700:1 3627:1 #
-0.49999999999987054799532870674739 1976:1 3627:1 #
-0.49999999999987054799532870674739 2419:1 5897:1 #
-0.41015882419801413805160450465337 860:1 3770:1 #
-0.3524180274188070116636595230375 95:1 3131:1 #
-0.49999999999987054799532870674739 231:1 5897:1 #
-0.49999999999987054799532870674739 1557:1 5897:1 #
-0.49999999999987054799532870674739 2495:1 5897:1 #
-0.10522287138795349825670655263821 1241:1 5888:1 #
-0.49999999999987054799532870674739 29:1 4319:1 #
-0.49999999999987054799532870674739 1398:1 4319:1 #
-0.020207344882255395823733579163672 1736:1 5814:1 #
-0.49999999999987054799532870674739 51:1 8091:1 #
-0.49999999999987054799532870674739 51:1 5141:1 #
-0.49999999999987054799532870674739 691:1 5897:1 #
-0.23527561159634713394694927046658 1756:1 5897:1 #
-0.23544746834126473178372407346615 284:1 5897:1 #
-0.23527561159634696741349557669309 1840:1 5897:1 #
-0.49999999999987054799532870674739 1874:1 5971:1 #
-0.49999999999987054799532870674739 1853:1 5971:1 #
-0.026695156764838714330556612708278 1604:1 7334:1 #
-0.028419365875335778071075765183195 1790:1 7743:1 #
-0.49999999999987054799532870674739 950:1 5897:1 #
-0.23544746834126450973911914843484 1578:1 5897:1 #
-0.23515934304987440306433654768625 863:1 5897:1 #
-0.2354434563264066193610801747127 2534:1 5897:1 #
-0.49999999999987054799532870674739 2285:1 5277:1 #
-0.49999999999987054799532870674739 943:1 4997:1 #
-0.49999999999987054799532870674739 2646:1 4997:1 #
-0.49999999999987054799532870674739 1219:1 4997:1 #
-0.49999999999987054799532870674739 2001:1 4997:1 #
-0.49999999999987054799532870674739 339:1 5897:1 #
-0.49999999999987054799532870674739 362:1 5897:1 #
-0.49999999999987054799532870674739 1896:1 5897:1 #
-0.23544345632640686916126071537292 3003:1 5897:1 #
-0.23544746834126506485063146101311 2183:1 5897:1 #
-0.23358184459400144206142613256816 658:1 5971:1 #
-0.032582616243709575098996822362096 1631:1 3487:1 #
-0.028605367544445425842525310144993 1790:1 4410:1 #
-0.18256716146054011162824792791071 996:1 5971:1 #
-0.12650706372278480715820592195087 2587:1 8010:1 #
-0.12723147021827996283604989002924 580:1 7923:1 #
-0.029083353782139151344487970618502 2138:1 6925:1 #
-0.065317238292691981449422655714443 3029:1 7952:1 #
-0.064926391368064328979414767673006 3029:1 4099:1 #
-0.1270696640588994119624999257212 580:1 5470:1 #
-0.23544345632640681365010948411509 1205:1 5897:1 #
-0.13006099549017446914689344339422 311:1 7394:1 #
-0.23527561159634680088004188291961 1496:1 5897:1 #
0.45128892667748021771956246084301 243:1 5141:1 #
-0.49999999999987054799532870674739 1199:1 5897:1 #
-0.49999999999987054799532870674739 2644:1 4319:1 #
-0.094390365512722340657347785963793 2383:1 4319:1 #
-0.39589713728738529230355425170274 173:1 6742:1 #
-0.49999999999987054799532870674739 2874:1 6742:1 #
-0.49999999999987054799532870674739 1420:1 6742:1 #
-0.49999999999987054799532870674739 1776:1 4842:1 #
0.49999999999987054799532870674739 2285:1 4142:1 #
0.49999999999987054799532870674739 2010:1 5888:1 #
0.49999999999987054799532870674739 3005:1 4142:1 #
-0.0286495413694880518562513316283 2758:1 3921:1 #
-0.49999999999987054799532870674739 39:1 5897:1 #
0.49999999999987054799532870674739 950:1 6742:1 #
0.49999999999987054799532870674739 51:1 6742:1 #
0.49999999999987054799532870674739 1853:1 6742:1 #
0.49999999999987054799532870674739 1896:1 6742:1 #
0.49999999999987054799532870674739 2646:1 6742:1 #
-0.49999999999987054799532870674739 1420:1 6742:1 #
0.49999999999987054799532870674739 234:1 5141:1 #
0.49999999999987054799532870674739 866:1 5141:1 #
0.49999999999987054799532870674739 691:1 4842:1 #
-0.49999999999987054799532870674739 1657:1 5141:1 #
0.49999999999987054799532870674739 2285:1 4142:1 #
-0.49932741346454539987931298128387 2285:1 5676:1 #
-0.16751295913427033390519227395998 1942:1 3721:1 #
0.49999999999987054799532870674739 2760:1 4830:1 #
0.49999999999987054799532870674739 2748:1 3942:1 #
0.49999999999987054799532870674739 39:1 6742:1 #
0.49999999999987054799532870674739 929:1 7104:1 #
-0.49999999999987054799532870674739 41:1 4842:1 #
-0.21949260679623827652306999880238 1758:1 4842:1 #
-0.49999999999987054799532870674739 1853:1 6642:1 #
-0.33525752728242730338337196371867 2646:1 3713:1 #
0.49999999999987054799532870674739 2285:1 5971:1 #
0.49999999999987054799532870674739 2285:1 4675:1 #
0.49999999999987054799532870674739 2285:1 6558:1 #
0.49999999999987054799532870674739 2285:1 6797:1 #
0.49999999999987054799532870674739 2285:1 7910:1 #
-0.49999999999987054799532870674739 2285:1 4887:1 #
-0.24039603109529861235671432950767 2285:1 4453:1 #
0.49999999999987054799532870674739 3027:1 4842:1 #
0.49999999999987054799532870674739 1853:1 4319:1 #
0.49999999999987054799532870674739 1853:1 8091:1 #
0.49999999999987054799532870674739 2646:1 6582:1 #
0.49999999999987054799532870674739 2646:1 6163:1 #
-0.23105316653710061824966714993934 664:1 6797:1 #
-0.49999999999987054799532870674739 2749:1 4675:1 #
-0.49999999999987054799532870674739 200:1 4675:1 #
-0.49999999999987054799532870674739 1762:1 6163:1 #
-0.027862643724060442984580276970519 837:1 4291:1 #
0.49999999999987054799532870674739 2025:1 4453:1 #
0.49999999999987054799532870674739 51:1 4453:1 #
0.49999999999987054799532870674739 2165:1 5897:1 #
0.49999999999987054799532870674739 2646:1 4887:1 #
-0.49945791014462137535900865259464 51:1 3942:1 #
0.49999999999987054799532870674739 938:1 4675:1 #
0.49999999999987054799532870674739 2875:1 4675:1 #
-0.047155925272623633315305369251291 1417:1 6436:1 #
-0.047155925272623855359910294282599 1417:1 3632:1 #
-0.046993068857636099977526100701652 1417:1 7046:1 #
0.49999999999987054799532870674739 773:1 5141:1 #
0.49999999999987054799532870674739 2383:1 5141:1 #
0.49999999999987054799532870674739 1420:1 3357:1 #
0.49999999999987054799532870674739 1417:1 3885:1 #
0.49999999999987054799532870674739 2644:1 6586:1 #
0.49999999999987054799532870674739 3005:1 7896:1 #
-0.13110521108354689090447209309787 1303:1 5971:1 #
-0.13259465849630036604622773666051 294:1 4487:1 #
-0.13386592131585117737557766304235 2569:1 5684:1 #
-0.13007527959843911968818019886385 1055:1 3994:1 #
-0.12924793907011622451364019070752 2097:1 3603:1 #
0.49999999999987054799532870674739 2483:1 5141:1 #
-0.1405067799777693915430631932395 2631:1 3157:1 #
-0.49999999999987054799532870674739 2823:1 7104:1 #
-0.025267304090416220496706500853179 708:1 5067:1 #
-0.49999999999987054799532870674739 801:1 5971:1 #
-0.49999999999987054799532870674739 364:1 3902:1 #
0.49999999999987054799532870674739 234:1 3550:1 #
0.49999999999987054799532870674739 2219:1 7451:1 #
0.49999999999987054799532870674739 234:1 5856:1 #
0.49999999999987054799532870674739 364:1 7171:1 #
0.49999999999987054799532870674739 364:1 4721:1 #
0.49999999999987054799532870674739 1874:1 4487:1 #
0.49999999999987054799532870674739 51:1 4274:1 #
-0.23241091856196693932190555642592 1197:1 4441:1 #
-0.064440712936028182733494418243936 1637:1 6917:1 #
-0.065084348428807795028383509361447 1637:1 7823:1 #
-0.065084348428807795028383509361447 1637:1 3569:1 #
-0.093491220800843682914305077247263 2150:1 4319:1 #
0.49999999999987054799532870674739 2631:1 6742:1 #
0.49999999999987054799532870674739 1199:1 4338:1 #
0.49999999999987054799532870674739 865:1 7149:1 #
0.49999999999987054799532870674739 2419:1 3770:1 #
0.49999999999987054799532870674739 547:1 6839:1 #
-0.13002275646308969481168560378137 1094:1 4004:1 #
-0.49999999999987054799532870674739 54:1 4251:1 #
0.49999999999987054799532870674739 1853:1 4441:1 #
0.49999999999987054799532870674739 326:1 4441:1 #
0.49999999999987054799532870674739 673:1 4441:1 #
0.49999999999987054799532870674739 1520:1 4441:1 #
0.49999999999987054799532870674739 2986:1 4441:1 #
-0.38013897487706671540763636585325 336:1 5629:1 #
0.49999999999987054799532870674739 1325:1 4251:1 #
0.49999999999987054799532870674739 2355:1 3068:1 #
0.49999999999987054799532870674739 2355:1 3760:1 #
0.49999999999987054799532870674739 1263:1 4031:1 #
-0.00058707803687074733289819050696678 2097:1 7122:1 #
-0.13386592131585095533097273801104 2569:1 7950:1 #
-0.089492123800743783590405655559152 2569:1 6190:1 #
-0.13403132397826578170452194171958 2569:1 6238:1 #
0.49999999999987054799532870674739 2216:1 7104:1 #
0.49999999999987054799532870674739 1555:1 7104:1 #
0.49999999999987054799532870674739 1167:1 4487:1 #
0.49999999999987054799532870674739 860:1 5971:1 #
0.49999999999987054799532870674739 253:1 4463:1 #
0.49999999999987054799532870674739 2865:1 4463:1 #
0.49999999999987054799532870674739 2418:1 4463:1 #
0.49999999999987054799532870674739 2282:1 4997:1 #
0.49999999999987054799532870674739 51:1 7236:1 #
0.49999999999987054799532870674739 1874:1 3800:1 #
0.49999999999987054799532870674739 1874:1 3066:1 #
0.49999999999987054799532870674739 1216:1 6163:1 #
-0.093481839914671793767553253928781 625:1 4319:1 #
0.49999999999987054799532870674739 2400:1 4997:1 #
0.49999999999987054799532870674739 629:1 4997:1 #
0.49999999999987054799532870674739 2067:1 4997:1 #
0.49999999999987054799532870674739 1339:1 4997:1 #
0.49999999999987054799532870674739 605:1 4997:1 #
0.49999999999987054799532870674739 2219:1 6277:1 #
0.49999999999987054799532870674739 1439:1 4319:1 #
0.49999999999987054799532870674739 362:1 4319:1 #
-0.38763371798213286378853581481962 1339:1 3157:1 #
0.49999999999987054799532870674739 943:1 3713:1 #
0.49999999999987054799532870674739 1219:1 5986:1 #
0.49999999999987054799532870674739 761:1 4997:1 #
0.49999999999987054799532870674739 856:1 4997:1 #
0.49999999999987054799532870674739 2339:1 4997:1 #
0.49999999999987054799532870674739 680:1 3157:1 #
0.49999999999987054799532870674739 2729:1 6270:1 #
0.49999999999987054799532870674739 1915:1 6270:1 #
0.49999999999987054799532870674739 1504:1 6270:1 #
0.49999999999987054799532870674739 194:1 6270:1 #
0.49999999999987054799532870674739 1805:1 7898:1 #
0.49999999999987054799532870674739 1495:1 4319:1 #
0.49999999999987054799532870674739 1339:1 4846:1 #
0.49999999999987054799532870674739 1339:1 6784:1 #
0.49999999999987054799532870674739 1339:1 7627:1 #
0.49999999999987054799532870674739 215:1 8091:1 #
0.49999999999987054799532870674739 2419:1 5897:1 #
0.49999999999987054799532870674739 812:1 6230:1 #
0.49999999999987054799532870674739 1117:1 3627:1 #
0.49999999999987054799532870674739 1059:1 3627:1 #
0.49999999999987054799532870674739 847:1 3627:1 #
0.49999999999987054799532870674739 2292:1 6230:1 #
0.49999999999987054799532870674739 566:1 6230:1 #
0.49999999999987054799532870674739 1525:1 6230:1 #
0.49999999999987054799532870674739 2424:1 6230:1 #
0.49999999999987054799532870674739 1047:1 6230:1 #
-0.02905666515432636654026055111899 1374:1 7813:1 #
-0.49999999999987054799532870674739 128:1 5141:1 #
-0.28398133230069855237331921671284 1065:1 3357:1 #
-0.028771136457927809493284598829632 51:1 6032:1 #
-0.49999999999987054799532870674739 2015:1 3157:1 #
0.49999999999987054799532870674739 691:1 4842:1 #
0.49999999999987054799532870674739 231:1 5897:1 #
0.49999999999987054799532870674739 234:1 5897:1 #
0.49999999999987054799532870674739 1158:1 5897:1 #
0.49999999999987054799532870674739 1264:1 5897:1 #
0.49999999999987054799532870674739 116:1 3708:1 #
0.49999999999987054799532870674739 2015:1 5321:1 #
0.49999999999987054799532870674739 2015:1 6881:1 #
0.49999999999987054799532870674739 2015:1 5964:1 #
0.49999999999987054799532870674739 2296:1 7585:1 #
0.49999999999987054799532870674739 2793:1 5897:1 #
0.49999999999987054799532870674739 527:1 5897:1 #
0.49999999999987054799532870674739 316:1 5897:1 #
0.49999999999987054799532870674739 93:1 5897:1 #
0.49999999999987054799532870674739 1059:1 5897:1 #
0.49999999999987054799532870674739 1896:1 4628:1 #
0.49999999999987054799532870674739 1896:1 3272:1 #
0.49999999999987054799532870674739 1896:1 5888:1 #
0.49999999999987054799532870674739 2296:1 6269:1 #
0.49999999999987054799532870674739 2296:1 3629:1 #
-0.028663378381718354614982047223748 2788:1 5411:1 #
-0.13005070978785682189737826774945 606:1 4867:1 #
-0.39601801644271755753479169470666 2522:1 6742:1 #
0.49999999999987054799532870674739 950:1 6797:1 #
0.49999999999987054799532870674739 2326:1 4887:1 #
0.49999999999987054799532870674739 53:1 4887:1 #
0.49999999999987054799532870674739 3048:1 4887:1 #
0.49999999999987054799532870674739 742:1 4887:1 #
0.49999999999987054799532870674739 2822:1 4887:1 #
0.49999999999987054799532870674739 569:1 4997:1 #
0.49999999999987054799532870674739 850:1 4997:1 #
0.49999999999987054799532870674739 902:1 4997:1 #
0.49999999999987054799532870674739 241:1 4997:1 #
0.49999999999987054799532870674739 3014:1 4018:1 #
0.49999999999987054799532870674739 1337:1 5847:1 #
0.49999999999987054799532870674739 2379:1 5781:1 #
0.49999999999987054799532870674739 1604:1 6512:1 #
0.49999999999987054799532870674739 1604:1 7761:1 #
0.49999999999987054799532870674739 1887:1 4708:1 #
0.37134213562686368970133798939059 772:1 6513:1 #
0.49999999999987054799532870674739 205:1 3961:1 #
0.49999999999987054799532870674739 1077:1 7272:1 #
-0.1292827290403421036657505283074 2339:1 7951:1 #
-0.13500440289437576346642799762776 1314:1 6696:1 #
-0.49999999999987054799532870674739 2680:1 5141:1 #
0.49999999999987054799532870674739 766:1 5971:1 #
0.49999999999987054799532870674739 2639:1 5971:1 #
0.49999999999987054799532870674739 1998:1 5971:1 #
0.49999999999987054799532870674739 982:1 5971:1 #
0.49999999999987054799532870674739 1261:1 5971:1 #
-0.49999999999987054799532870674739 1896:1 7104:1 #
-0.49999999999987054799532870674739 2784:1 7104:1 #
-0.49999999999987054799532870674739 431:1 7104:1 #
-0.49999999999987054799532870674739 93:1 7104:1 #
-0.49999999999987054799532870674739 972:1 7104:1 #
0.49999999999987054799532870674739 1575:1 7990:1 #
0.49999999999987054799532870674739 1475:1 7990:1 #
0.49999999999987054799532870674739 1856:1 7990:1 #
0.49999999999987054799532870674739 465:1 7990:1 #
0.49999999999987054799532870674739 1146:1 4887:1 #
-0.028350893331571508371169443307735 2015:1 4012:1 #
-0.49999999999987054799532870674739 2067:1 4997:1 #
-0.49999999999987054799532870674739 766:1 4997:1 #
-0.49999999999987054799532870674739 1604:1 4997:1 #
0.49999999999987054799532870674739 2296:1 5224:1 #
0.49999999999987054799532870674739 2296:1 4693:1 #
0.49999999999987054799532870674739 2296:1 5844:1 #
-0.025746855909880881491114124060005 1065:1 6688:1 #
-0.49999999999987054799532870674739 2936:1 7104:1 #
0.49999999999987054799532870674739 938:1 4997:1 #
0.49999999999987054799532870674739 1771:1 4997:1 #
0.49999999999987054799532870674739 586:1 4997:1 #
0.49999999999987054799532870674739 1212:1 4997:1 #
-0.49999999999987054799532870674739 1059:1 6742:1 #
-0.029808361849305575752566710434621 1965:1 4856:1 #
-0.49999999999987054799532870674739 2793:1 4319:1 #
-0.027647965006224350936747669038596 1856:1 7052:1 #
-0.49999999999987054799532870674739 234:1 6500:1 #
0.49999999999987054799532870674739 1604:1 3259:1 #
0.49999999999987054799532870674739 1604:1 7681:1 #
0.49999999999987054799532870674739 1604:1 5688:1 #
0.49999999999987054799532870674739 1604:1 5337:1 #
-0.49999999999987054799532870674739 1604:1 5856:1 #
-0.38987773538167691533828929095762 1604:1 3259:1 #
0.49999999999987054799532870674739 996:1 4319:1 #
-0.49999999999987054799532870674739 1604:1 4319:1 #
-0.49999999999987054799532870674739 1604:1 4693:1 #
-0.49999999999987054799532870674739 1604:1 5224:1 #
0.49999999999987054799532870674739 1468:1 3672:1 #
0.49999999999987054799532870674739 1353:1 7958:1 #
0.49999999999987054799532870674739 425:1 5448:1 #
0.49999999999987054799532870674739 730:1 7570:1 #
0.49999999999987054799532870674739 1110:1 4245:1 #
-0.49999999999987054799532870674739 2466:1 4675:1 #
-0.49999999999987054799532870674739 465:1 5277:1 #
-0.085595463205410782236981503956486 2892:1 5888:1 #
-0.11843636860821415979216908453964 2419:1 3961:1 #
0.49999999999987054799532870674739 1604:1 4693:1 #
0.49999999999987054799532870674739 1604:1 5112:1 #
0.49999999999987054799532870674739 1604:1 3866:1 #
0.49999999999987054799532870674739 1604:1 5253:1 #
-0.21176996602659545199109913937718 1604:1 3866:1 #
-0.32416412805748728853671991601004 1604:1 4693:1 #
-0.16079004909301414238953498170304 1604:1 5448:1 #
-0.25172412910460395529810284642735 629:1 6687:1 #
0.49999999999987054799532870674739 982:1 5192:1 #
0.49999999999987054799532870674739 689:1 5224:1 #
0.49999999999987054799532870674739 2103:1 5224:1 #
-0.025274920469947947943012422911124 2176:1 5059:1 #
0.49999999999987054799532870674739 675:1 5141:1 #
-0.15473858353009184440907120006159 241:1 5224:1 #
-0.49999999999987054799532870674739 2285:1 5224:1 #
0.49999999999987054799532870674739 2702:1 6797:1 #
0.49999999999987054799532870674739 312:1 6797:1 #
-0.29030568503384296397129560318717 312:1 6797:1 #
-0.0086839223731955510199309600238848 982:1 6531:1 #
-0.3188129164723039754569811066176 1856:1 6797:1 #
-0.49999999999987054799532870674739 2655:1 5141:1 #
0.49999999999987054799532870674739 680:1 5224:1 #
0.49999999999987054799532870674739 2723:1 5224:1 #
0.49999999999987054799532870674739 312:1 5224:1 #
-0.49999999999987054799532870674739 1604:1 5224:1 #
0.49999999999987054799532870674739 241:1 6797:1 #
0.49999999999987054799532870674739 2285:1 6797:1 #
0.49999999999987054799532870674739 1933:1 6797:1 #
0.49999999999987054799532870674739 1631:1 6797:1 #
-0.39652090169564047084094227102469 231:1 5192:1 #
-0.49999999999987054799532870674739 1630:1 5141:1 #
-0.49999999999987054799532870674739 2723:1 5844:1 #
-0.16501453054898651551241073320853 1529:1 3942:1 #
-0.49999999999987054799532870674739 1167:1 5888:1 #
0.49999999999987054799532870674739 978:1 6797:1 #
0.49999999999987054799532870674739 2191:1 6797:1 #
0.49999999999987054799532870674739 1216:1 3368:1 #
0.49999999999987054799532870674739 1216:1 3506:1 #
0.49999999999987054799532870674739 1216:1 3236:1 #
-0.49999999999987054799532870674739 1216:1 5141:1 #
0.49999999999987054799532870674739 1013:1 5888:1 #
0.49999999999987054799532870674739 2712:1 5888:1 #
0.49999999999987054799532870674739 82:1 5888:1 #
0.49999999999987054799532870674739 1865:1 5888:1 #
-0.0017389599434451952220115344971418 2186:1 4142:1 #
-0.4960370027098742751192617106426 2639:1 6797:1 #
0.49999999999987054799532870674739 1604:1 5856:1 #
-0.029451701165504662327521145925857 1565:1 5025:1 #
-0.26099521945579851056606912607094 1339:1 6797:1 #
0.49999999999987054799532870674739 2645:1 5844:1 #
0.49999999999987054799532870674739 1405:1 5844:1 #
0.49999999999987054799532870674739 2921:1 5844:1 #
0.49999999999987054799532870674739 1870:1 5844:1 #
-0.029336537611106400930127691140115 396:1 7051:1 #
-0.3941137127863605371658195508644 194:1 5844:1 #
-0.34764063631303315782261620370264 423:1 4142:1 #
-0.1548579262462129735311577860557 2285:1 6797:1 #
0.49999999999987054799532870674739 1065:1 5141:1 #
-0.49999999999987054799532870674739 1059:1 6797:1 #
-0.49721149221969812570520730332646 2015:1 6797:1 #
0.47660568348308862685058784336434 2986:1 5856:1 #
0.49999999999987054799532870674739 938:1 3653:1 #
0.49999999999987054799532870674739 938:1 5489:1 #
0.49999999999987054799532870674739 2296:1 6982:1 #
-0.027241798907695624620828311890364 1856:1 5961:1 #
-0.056009331880733259634297382945078 2890:1 7451:1 #
-0.02672595942133471069723782420624 1903:1 3996:1 #
0.49999999999987054799532870674739 1916:1 7104:1 #
-0.028519806557909754829438497836236 1277:1 4316:1 #
0.49999999999987054799532870674739 2285:1 6797:1 #
-0.49999999999987054799532870674739 691:1 5888:1 #
0.49999999999987054799532870674739 938:1 6269:1 #
0.49999999999987054799532870674739 1845:1 3975:1 #
-0.49999999999987054799532870674739 1984:1 3627:1 #
-0.49999999999987054799532870674739 1181:1 3627:1 #
-0.49999999999987054799532870674739 1932:1 4319:1 #
-0.39518781332378982718012139230268 527:1 6742:1 #
-0.49999999999987054799532870674739 812:1 3885:1 #
0.49999999999987054799532870674739 1339:1 5888:1 #
0.49999999999987054799532870674739 2820:1 5888:1 #
0.49999999999987054799532870674739 3060:1 5888:1 #
0.49999999999987054799532870674739 2606:1 5888:1 #
0.49999999999987054799532870674739 1653:1 5888:1 #
-0.49999999999987054799532870674739 1339:1 5888:1 #
-0.38005806561366750617736443018657 950:1 4122:1 #
-0.49999999999987054799532870674739 2025:1 5141:1 #
-0.04682575134496724800214906281326 616:1 5566:1 #
0.49999999999987054799532870674739 246:1 3259:1 #
0.49999999999987054799532870674739 2800:1 3259:1 #
-0.49999999999987054799532870674739 2986:1 3259:1 #
-0.34159170536398342221673374297097 2379:1 3259:1 #
-0.49999999999987054799532870674739 2321:1 7104:1 #
0.0024383590702069524169814940250944 1035:1 5141:1 #
0.49999999999987054799532870674739 2067:1 5888:1 #
0.49999999999987054799532870674739 663:1 5888:1 #
0.49999999999987054799532870674739 1767:1 5888:1 #
0.49999999999987054799532870674739 2473:1 5888:1 #
-0.099340628969698308026181621244177 312:1 4142:1 #
-0.046847213346518645771254796272842 616:1 6161:1 #
-0.33689920524318561767529445205582 2282:1 5888:1 #
-0.49999999999987054799532870674739 2473:1 4997:1 #
-0.028574464342042988490577570814821 2952:1 3846:1 #
-0.49999999999987054799532870674739 1856:1 5888:1 #
-0.49999999999987054799532870674739 2646:1 4997:1 #
-0.12026717585586399472674656863092 2473:1 7681:1 #
0.49999999999987054799532870674739 2282:1 3956:1 #
0.49999999999987054799532870674739 2282:1 4291:1 #
0.49999999999987054799532870674739 2282:1 5779:1 #
0.49999999999987054799532870674739 2282:1 4918:1 #
-0.02557300898814757195154356850253 2282:1 4788:1 #
-0.49999999999987054799532870674739 2282:1 5897:1 #
-0.49999999999987054799532870674739 2282:1 3066:1 #
0.49999999999987054799532870674739 1856:1 7014:1 #
0.49999999999987054799532870674739 1998:1 6924:1 #
0.49999999999987054799532870674739 2473:1 3691:1 #
-0.49999999999987054799532870674739 312:1 6742:1 #
-0.44916678300832790782237680105027 1077:1 7272:1 #
0.49999999999987054799532870674739 982:1 3066:1 #
0.49999999999987054799532870674739 1773:1 3066:1 #
-0.49999999999987054799532870674739 1520:1 3066:1 #
-0.49999999999987054799532870674739 982:1 3066:1 #
-0.49999999999987054799532870674739 1853:1 3066:1 #
-0.49999999999987054799532870674739 1896:1 3066:1 #
-0.49999999999987054799532870674739 1216:1 5141:1 #
-0.20369703194275229352072642541316 1178:1 4846:1 #
0.49999999999987054799532870674739 2282:1 3403:1 #
0.49999999999987054799532870674739 689:1 3939:1 #
0.49999999999987054799532870674739 2723:1 5224:1 #
-0.14920473497378325400397613975656 1353:1 6230:1 #
-0.49999999999987054799532870674739 605:1 6270:1 #
-0.39706063547822334491854689986212 1771:1 6269:1 #
-0.23167166707347164322783328316291 1384:1 4487:1 #
-0.13012068886397110123454012864386 815:1 6972:1 #
0.49999999999987054799532870674739 1889:1 4846:1 #
0.49999999999987054799532870674739 1672:1 4846:1 #
0.49999999999987054799532870674739 2138:1 3066:1 #
0.49999999999987054799532870674739 1138:1 3066:1 #
-0.49999999999987054799532870674739 312:1 4846:1 #
-0.005636549233409060555288760951953 850:1 4846:1 #
-0.017943188002132848257730302066193 2464:1 3627:1 #
0.49999999999987054799532870674739 2067:1 6270:1 #
0.49999999999987054799532870674739 1983:1 6270:1 #
0.49999999999987054799532870674739 1422:1 6270:1 #
0.49999999999987054799532870674739 1762:1 6270:1 #
-0.49999999999987054799532870674739 982:1 3066:1 #
0.49999999999987054799532870674739 850:1 7576:1 #
0.49999999999987054799532870674739 850:1 3496:1 #
0.49999999999987054799532870674739 605:1 4784:1 #
0.49999999999987054799532870674739 1124:1 6269:1 #
0.49999999999987054799532870674739 582:1 6230:1 #
-0.49999999999987054799532870674739 1604:1 6270:1 #
-0.34818362552389880981706937745912 1339:1 3068:1 #
-0.49999999999987054799532870674739 2067:1 4997:1 #
0.49999999999987054799532870674739 1896:1 3066:1 #
0.49999999999987054799532870674739 51:1 3066:1 #
-0.49999999999987054799532870674739 1896:1 3672:1 #
-0.49913595582972158926082784091705 1896:1 5224:1 #
-0.23046740205262122858087536769744 1416:1 7164:1 #
-0.13022480812737113886612405622145 307:1 3845:1 #
0.49999999999987054799532870674739 312:1 4997:1 #
-0.49999999999987054799532870674739 2296:1 5856:1 #
-0.47999286194638951519308989190904 924:1 4997:1 #
-0.49999999999987054799532870674739 380:1 4997:1 #
0.49999999999987054799532870674739 38:1 7164:1 #
0.49999999999987054799532870674739 2396:1 7164:1 #
0.49999999999987054799532870674739 2945:1 7164:1 #
0.49999999999987054799532870674739 273:1 7164:1 #
-0.49999999999987054799532870674739 205:1 4319:1 #
-0.49999999999987054799532870674739 2282:1 3066:1 #
-0.12992005231745473725624151484226 2080:1 5294:1 #
0.49999999999987054799532870674739 147:1 4997:1 #
0.49999999999987054799532870674739 1215:1 4997:1 #
0.49999999999987054799532870674739 2683:1 4997:1 #
0.49999999999987054799532870674739 2444:1 4997:1 #
-0.49999999999987054799532870674739 147:1 4997:1 #
-0.47999286194638957070424112316687 1782:1 4997:1 #
-0.49999999999987054799532870674739 2406:1 4997:1 #
-0.49999999999987054799532870674739 2256:1 4997:1 #
-0.49999999999987054799532870674739 2565:1 4997:1 #
0.49999999999987054799532870674739 66:1 5113:1 #
-0.028318040683659909118041753117723 2030:1 3895:1 #
-0.0280145900711321615972337895073 2030:1 6264:1 #
-0.02817949718777046363982208276866 2030:1 4075:1 #
-0.23451445342245635927724833891261 314:1 6512:1 #
-0.12987661683905404874650457713869 1351:1 6620:1 #
0.49999999999987054799532870674739 2565:1 7373:1 #
0.49999999999987054799532870674739 2256:1 4503:1 #
0.49999999999987054799532870674739 982:1 3066:1 #
-0.11218576467793800466310472074838 2968:1 7124:1 #
-0.11218576467793785200743883478935 2968:1 3868:1 #
-0.11215235751506125172483052665484 2968:1 4771:1 #
-0.11218576467793797690752910511947 2968:1 7423:1 #
0.49999999999987054799532870674739 555:1 3672:1 #
0.49999999999987054799532870674739 1094:1 3672:1 #
0.49999999999987054799532870674739 1091:1 3672:1 #
0.49999999999987054799532870674739 2329:1 3672:1 #
-0.093413070125824476663822792943392 2809:1 4319:1 #
-0.028663378381718583598480876162284 2788:1 3601:1 #
-0.30868121019937433402446913532913 1915:1 3672:1 #
-0.49999999999987054799532870674739 2067:1 3672:1 #
0.49999999999987054799532870674739 1622:1 3197:1 #
0.49999999999987054799532870674739 864:1 6930:1 #
-0.49999999999987054799532870674739 2329:1 7898:1 #
-0.13003271458128484727723161995527 1824:1 4010:1 #
-0.27254596469670544500729647552362 1167:1 7373:1 #
0.49999999999987054799532870674739 2974:1 3672:1 #
0.49999999999987054799532870674739 2090:1 3672:1 #
0.49999999999987054799532870674739 1950:1 3672:1 #
0.49999999999987054799532870674739 2935:1 3672:1 #
0.49999999999987054799532870674739 1125:1 3672:1 #
-0.07840793588280678405588730583986 1762:1 4663:1 #
0.49999999999987054799532870674739 2486:1 3168:1 #
0.49999999999987054799532870674739 2559:1 5888:1 #
0.49999999999987054799532870674739 1339:1 4279:1 #
0.49999999999987054799532870674739 1405:1 5844:1 #
-0.49999999999987054799532870674739 2841:1 7104:1 #
-0.49999999999987054799532870674739 553:1 7632:1 #
-0.49999999999987054799532870674739 2241:1 5141:1 #
-0.37978151005700055975466966629028 538:1 7983:1 #
-0.19037615985432698728629929973977 1081:1 7581:1 #
-0.030985871067530368350162461865693 1863:1 3239:1 #
0.49999999999987054799532870674739 1147:1 7018:1 #
0.49999999999987054799532870674739 1726:1 6434:1 #
0.49999999999987054799532870674739 1564:1 3703:1 #
0.49999999999987054799532870674739 414:1 3582:1 #
-0.051635844476158765381512694148114 1940:1 5574:1 #
-0.05195829962808273805308090231847 1940:1 5362:1 #
-0.051789056750352502334067139599938 1940:1 4861:1 #
-0.13772319353898654359369402300217 886:1 5127:1 #
-0.052340101485887413623743213975104 1940:1 6083:1 #
0.49999999999987054799532870674739 2139:1 7632:1 #
0.49999999999987054799532870674739 628:1 7632:1 #
0.49999999999987054799532870674739 375:1 4924:1 #
0.49999999999987054799532870674739 2511:1 4177:1 #
0.49999999999987054799532870674739 755:1 3680:1 #
-0.13018161990756116352940807701088 723:1 6183:1 #
-0.027658875406075922320781046437332 988:1 4977:1 #
-0.028935088963196593098148312606099 2494:1 5510:1 #
-0.029791077669651166992537127953256 258:1 7505:1 #
-0.38001176472678166451402148595662 152:1 3430:1 #
0.49999999999987054799532870674739 128:1 5215:1 #
0.49999999999987054799532870674739 1685:1 7272:1 #
0.49999999999987054799532870674739 2531:1 5337:1 #
0.49999999999987054799532870674739 822:1 5969:1 #
0.49999999999987054799532870674739 822:1 4436:1 #
-0.47976098982738202280984296521638 1138:1 5337:1 #
-0.17998899766637108110778342506819 1146:1 5215:1 #
-0.49999999999987054799532870674739 1475:1 5856:1 #
-0.36524934521508378715282105986262 116:1 7896:1 #
0.49999999999987054799532870674739 2282:1 5856:1 #
0.49999999999987054799532870674739 801:1 6174:1 #
0.49999999999987054799532870674739 2221:1 3852:1 #
0.49999999999987054799532870674739 1506:1 6693:1 #
0.49999999999987054799532870674739 2861:1 5588:1 #
0.49999999999987054799532870674739 2787:1 5750:1 #
-0.33509033461894299765759797082865 2646:1 5112:1 #
-0.49999999999987054799532870674739 673:1 6784:1 #
-0.49999999999987054799532870674739 673:1 5847:1 #
-0.49999999999987054799532870674739 673:1 4887:1 #
-0.12988989313224297283966279792367 1158:1 7206:1 #
0.49999999999987054799532870674739 1475:1 6251:1 #
0.49999999999987054799532870674739 2926:1 5337:1 #
-0.086605725068673256039630814484553 1264:1 5238:1 #
-0.49999999999987054799532870674739 582:1 3885:1 #
-0.035525607554043214797445671138121 2396:1 7681:1 #
0.49999999999987054799532870674739 2646:1 6163:1 #
0.49999999999987054799532870674739 2323:1 5238:1 #
0.49999999999987054799532870674739 1625:1 7681:1 #
0.49999999999987054799532870674739 46:1 6784:1 #
0.49999999999987054799532870674739 1391:1 5847:1 #
0.49999999999987054799532870674739 2498:1 5847:1 #
-0.49999999999987054799532870674739 2646:1 5856:1 #
0.49999999999987054799532870674739 2086:1 5888:1 #
0.49999999999987054799532870674739 1203:1 5888:1 #
0.49999999999987054799532870674739 2744:1 5888:1 #
0.49999999999987054799532870674739 2507:1 5888:1 #
0.49999999999987054799532870674739 2021:1 5888:1 #
-0.49999999999987054799532870674739 1998:1 5856:1 #
0.49999999999987054799532870674739 938:1 4997:1 #
0.49999999999987054799532870674739 727:1 4887:1 #
0.49999999999987054799532870674739 1968:1 5847:1 #
0.49999999999987054799532870674739 2643:1 5847:1 #
-0.19831199500106777566799109990825 1863:1 6629:1 #
0.49999999999987054799532870674739 397:1 5971:1 #
0.49999999999987054799532870674739 1901:1 5971:1 #
0.49999999999987054799532870674739 774:1 6629:1 #
0.49999999999987054799532870674739 1456:1 5847:1 #
0.49999999999987054799532870674739 274:1 5847:1 #
0.49999999999987054799532870674739 1473:1 5847:1 #
-0.19009275741246345337032153111068 1081:1 4086:1 #
-0.13012811853092742797599612458725 553:1 7420:1 #
-0.13765634812785118579192555898771 886:1 5841:1 #
0.49999999999987054799532870674739 203:1 8047:1 #
0.49999999999987054799532870674739 1632:1 3716:1 #
0.49999999999987054799532870674739 2723:1 5856:1 #
-0.49999999999987054799532870674739 2646:1 5856:1 #
-0.49999999999987054799532870674739 629:1 5856:1 #
0.49999999999987054799532870674739 1518:1 7396:1 #
0.49999999999987054799532870674739 299:1 7677:1 #
0.49999999999987054799532870674739 2375:1 3572:1 #
0.49999999999987054799532870674739 1113:1 6403:1 #
0.49999999999987054799532870674739 2146:1 7597:1 #
0.49999999999987054799532870674739 629:1 3800:1 #
0.49999999999987054799532870674739 2917:1 5380:1 #
0.49999999999987054799532870674739 454:1 3815:1 #
0.49999999999987054799532870674739 2407:1 4992:1 #
-0.026738181048151621332920058193849 1146:1 6055:1 #
0.49999999999987054799532870674739 589:1 3721:1 #
0.49999999999987054799532870674739 726:1 6851:1 #
0.49999999999987054799532870674739 819:1 4850:1 #
0.49999999999987054799532870674739 1499:1 7991:1 #
0.49999999999987054799532870674739 2494:1 5320:1 #
-0.13729790882881598435005798819475 886:1 3481:1 #
-0.13765634812785143559210609964794 886:1 3675:1 #
0.49999999999987054799532870674739 1096:1 6784:1 #
0.49999999999987054799532870674739 288:1 6784:1 #
0.49999999999987054799532870674739 967:1 6784:1 #
0.49999999999987054799532870674739 2700:1 6784:1 #
0.49999999999987054799532870674739 3000:1 6784:1 #
-0.49999999999987054799532870674739 51:1 7164:1 #
-0.49999999999987054799532870674739 2444:1 6163:1 #
-0.49999999999987054799532870674739 2787:1 6163:1 #
-0.028647863318468136384353783796541 2138:1 3267:1 #
0.49999999999987054799532870674739 673:1 5856:1 #
-0.49999999999987054799532870674739 465:1 6742:1 #
-0.49999999999987054799532870674739 1933:1 6784:1 #
-0.49999999999987054799532870674739 2444:1 6163:1 #
0.47687492903165973334722593790502 886:1 7104:1 #
0.49999999999987054799532870674739 2569:1 7104:1 #
0.49999999999987054799532870674739 2067:1 5141:1 #
0.49999999999987054799532870674739 1874:1 5856:1 #
-0.49999999999987054799532870674739 414:1 3582:1 #
-0.49999999999987054799532870674739 2138:1 6434:1 #
0.49999999999987054799532870674739 3027:1 3885:1 #
0.49999999999987054799532870674739 93:1 4319:1 #
0.49999999999987054799532870674739 1081:1 4319:1 #
0.49999999999987054799532870674739 2644:1 7898:1 #
0.49999999999987054799532870674739 689:1 6742:1 #
-0.49999999999987054799532870674739 1631:1 6982:1 #
-0.41419251967698056393629713056725 801:1 3852:1 #
-0.49999999999987054799532870674739 1477:1 4319:1 #
-0.49999999999987054799532870674739 246:1 5971:1 #
0.49999999999987054799532870674739 1604:1 3770:1 #
0.49999999999987054799532870674739 529:1 5141:1 #
0.49999999999987054799532870674739 1975:1 5141:1 #
0.49999999999987054799532870674739 339:1 5141:1 #
0.49999999999987054799532870674739 234:1 5141:1 #
-0.49999999999987054799532870674739 1726:1 5141:1 #
-0.49999999999987054799532870674739 1672:1 5141:1 #
-0.49999999999987054799532870674739 2221:1 5141:1 #
-0.49999999999987054799532870674739 2861:1 5141:1 #
0.49999999999987054799532870674739 2406:1 4675:1 #
0.49999999999987054799532870674739 1167:1 6008:1 #
0.49999999999987054799532870674739 2001:1 4675:1 #
0.49999999999987054799532870674739 924:1 4675:1 #
0.49999999999987054799532870674739 380:1 4675:1 #
-0.49999999999987054799532870674739 128:1 4675:1 #
-0.49999999999987054799532870674739 2683:1 4675:1 #
-0.49999999999987054799532870674739 2822:1 4675:1 #
-0.42537147813461573253590586318751 586:1 4675:1 #
-0.49999999999987054799532870674739 605:1 4675:1 #
0.49999999999987054799532870674739 1582:1 5141:1 #
0.49999999999987054799532870674739 29:1 5141:1 #
0.49999999999987054799532870674739 116:1 5141:1 #
0.49999999999987054799532870674739 383:1 5141:1 #
0.49999999999987054799532870674739 2282:1 5141:1 #
-0.49999999999987054799532870674739 950:1 5141:1 #
-0.49999999999987054799532870674739 755:1 5141:1 #
-0.49999999999987054799532870674739 375:1 5141:1 #
0.49999999999987054799532870674739 938:1 4675:1 #
-0.49999999999987054799532870674739 2339:1 5141:1 #
-0.49999999999987054799532870674739 2486:1 5141:1 #
-0.49999999999987054799532870674739 38:1 5141:1 #
-0.49999999999987054799532870674739 2921:1 5141:1 #
-0.49999999999987054799532870674739 1901:1 5141:1 #
0.49999999999987054799532870674739 3010:1 4487:1 #
0.49999999999987054799532870674739 2340:1 4487:1 #
0.49999999999987054799532870674739 1182:1 4487:1 #
0.49999999999987054799532870674739 1401:1 4487:1 #
-0.49999999999987054799532870674739 864:1 4487:1 #
-0.39496461892039314012237127826666 2964:1 6742:1 #
-0.20258961591277635516661348447087 2945:1 4487:1 #
-0.33212220864934394182199639544706 2645:1 4487:1 #
-0.23157905435149875317257794904435 397:1 4487:1 #
0.49999999999987054799532870674739 2473:1 5141:1 #
0.49999999999987054799532870674739 465:1 5141:1 #
0.49999999999987054799532870674739 2396:1 5141:1 #
-0.49999999999987054799532870674739 425:1 5141:1 #
-0.49999999999987054799532870674739 1773:1 5141:1 #
0.49999999999987054799532870674739 2116:1 4487:1 #
0.49999999999987054799532870674739 642:1 4487:1 #
0.49999999999987054799532870674739 969:1 4487:1 #
0.49999999999987054799532870674739 580:1 5277:1 #
0.49999999999987054799532870674739 2968:1 5897:1 #
-0.49999999999987054799532870674739 865:1 3716:1 #
-0.49999999999987054799532870674739 982:1 6742:1 #
-0.49999999999987054799532870674739 822:1 3770:1 #
-0.065528234865606549419680959545076 1147:1 7632:1 #
-0.49999999999987054799532870674739 2787:1 7272:1 #
0.49999999999987054799532870674739 673:1 5856:1 #
-0.49999999999987054799532870674739 850:1 5856:1 #
-0.49999999999987054799532870674739 629:1 5856:1 #
-0.32517633297406739467660941045324 850:1 5588:1 #
-0.33257349048834894400528128244332 727:1 4291:1 #
0.49999999999987054799532870674739 2015:1 5141:1 #
-0.49999999999987054799532870674739 2015:1 3939:1 #
-0.49999999999987054799532870674739 2473:1 5337:1 #
-0.49999999999987054799532870674739 2723:1 3368:1 #
-0.49999999999987054799532870674739 1874:1 8047:1 #
0.49999999999987054799532870674739 2793:1 7104:1 #
0.49999999999987054799532870674739 553:1 7104:1 #
0.49999999999987054799532870674739 2067:1 6742:1 #
-0.49999999999987054799532870674739 203:1 6742:1 #
0.49999999999987054799532870674739 950:1 4846:1 #
-0.040677602051399669447206974837172 2235:1 4319:1 #
-0.12992934048599791285738547230721 1820:1 6684:1 #
-0.17919628788194263968591712909983 2340:1 4441:1 #
-0.49999999999987054799532870674739 2191:1 5888:1 #
0.49999999999987054799532870674739 1773:1 3071:1 #
0.49999999999987054799532870674739 1773:1 4253:1 #
-0.49999999999987054799532870674739 1773:1 6742:1 #
-0.49999999999987054799532870674739 1773:1 5588:1 #
-0.49999999999987054799532870674739 1773:1 5141:1 #
0.49999999999987054799532870674739 1179:1 5888:1 #
0.49999999999987054799532870674739 1830:1 5888:1 #
-0.49999999999987054799532870674739 3048:1 5888:1 #
-0.20766630071302155657875232463994 2820:1 5888:1 #
-0.49999999999987054799532870674739 1203:1 5888:1 #
-0.49999999999987054799532870674739 969:1 5888:1 #
-0.49999999999987054799532870674739 375:1 5888:1 #
0.49999999999987054799532870674739 1856:1 5141:1 #
-0.47794363179362886473455773739261 1179:1 4887:1 #
-0.49999999999987054799532870674739 1856:1 4675:1 #
-0.49999999999987054799532870674739 2375:1 7272:1 #
0.49999999999987054799532870674739 658:1 5856:1 #
0.49999999999987054799532870674739 314:1 5856:1 #
0.49999999999987054799532870674739 689:1 6742:1 #
-0.49999999999987054799532870674739 1736:1 6742:1 #
-0.39572862322297130965864653262543 847:1 6742:1 #
0.49999999999987054799532870674739 938:1 4675:1 #
-0.49999999999987054799532870674739 1113:1 4675:1 #
-0.49999999999987054799532870674739 730:1 4675:1 #
-0.3959000664819674053518383516348 2353:1 6742:1 #
-0.49999999999987054799532870674739 53:1 4675:1 #
0.49999999999987054799532870674739 1179:1 3744:1 #
-0.19638687830994278060714464118064 1834:1 3942:1 #
-0.49999999999987054799532870674739 2311:1 5897:1 #
0.49999999999987054799532870674739 938:1 4675:1 #
0.49999999999987054799532870674739 425:1 6449:1 #
-0.49999999999987054799532870674739 2511:1 4319:1 #
-0.49999999999987054799532870674739 1999:1 3066:1 #
0.49999999999987054799532870674739 22:1 7378:1 #
0.49999999999987054799532870674739 671:1 3314:1 #
0.49999999999987054799532870674739 2882:1 6703:1 #
0.49999999999987054799532870674739 502:1 7112:1 #
-0.39415617137684844095701919286512 425:1 4291:1 #
-0.029368441534615707944055884581758 2921:1 7839:1 #
-0.49999999999987054799532870674739 425:1 7990:1 #
0.49999999999987054799532870674739 1241:1 6062:1 #
0.49999999999987054799532870674739 2841:1 6801:1 #
-0.029204055989944910365352370718028 810:1 4171:1 #
-0.39625504785128778939551352777926 1985:1 6742:1 #
-0.12991960115203093906188769324217 2050:1 6760:1 #
-0.028727804859929761960302130319178 1933:1 5523:1 #
-0.49999999999987054799532870674739 2282:1 3653:1 #
0.49999999999987054799532870674739 1869:1 6942:1 #
0.49999999999987054799532870674739 2443:1 6826:1 #
0.49999999999987054799532870674739 837:1 6554:1 #
0.49999999999987054799532870674739 1226:1 5303:1 #
-0.49999999999987054799532870674739 837:1 5844:1 #
-0.47496439702877257804658484019455 1869:1 5277:1 #
-0.030019852466208009345027818426388 272:1 4340:1 #
0.49999999999987054799532870674739 401:1 3721:1 #
0.49999999999987054799532870674739 2282:1 6742:1 #
0.49999999999987054799532870674739 1604:1 6742:1 #
0.49999999999987054799532870674739 2067:1 6742:1 #
0.49999999999987054799532870674739 242:1 5528:1 #
0.49999999999987054799532870674739 2121:1 6218:1 #
0.49999999999987054799532870674739 1219:1 5141:1 #
0.49999999999987054799532870674739 2015:1 5141:1 #
0.49999999999987054799532870674739 364:1 5141:1 #
0.49999999999987054799532870674739 1222:1 6113:1 #
0.49999999999987054799532870674739 780:1 7392:1 #
0.49999999999987054799532870674739 758:1 6039:1 #
0.49999999999987054799532870674739 2570:1 7214:1 #
0.49999999999987054799532870674739 602:1 3076:1 #
0.49999999999987054799532870674739 1306:1 5888:1 #
0.49999999999987054799532870674739 1169:1 5888:1 #
0.49999999999987054799532870674739 3048:1 7503:1 #
0.49999999999987054799532870674739 446:1 5888:1 #
0.49999999999987054799532870674739 1345:1 7951:1 #
-0.32323773807907524302507340507873 3010:1 5847:1 #
-0.23102679535368431107400510882144 1598:1 6797:1 #
-0.39588168628381315006237173292902 1261:1 6742:1 #
-0.49999999999987054799532870674739 774:1 5856:1 #
0.49999999999987054799532870674739 375:1 4675:1 #
0.49999999999987054799532870674739 425:1 4291:1 #
0.49999999999987054799532870674739 744:1 4675:1 #
0.49999999999987054799532870674739 605:1 4675:1 #
-0.49999999999987054799532870674739 2121:1 4628:1 #
-0.49999999999987054799532870674739 2443:1 5141:1 #
-0.49999999999987054799532870674739 1226:1 5141:1 #
-0.49999999999987054799532870674739 1475:1 5897:1 #
0.49999999999987054799532870674739 1216:1 6163:1 #
0.49999999999987054799532870674739 2645:1 6163:1 #
-0.068319287194645250682611958836787 471:1 4563:1 #
0.49999999999987054799532870674739 1773:1 5141:1 #
-0.49999999999987054799532870674739 2645:1 5888:1 #
-0.49999999999987054799532870674739 2282:1 5489:1 #
0.49999999999987054799532870674739 2921:1 3852:1 #
0.49999999999987054799532870674739 1579:1 3852:1 #
0.49999999999987054799532870674739 2787:1 7272:1 #
-0.49999999999987054799532870674739 1094:1 7104:1 #
-0.49999999999987054799532870674739 744:1 7104:1 #
-0.49999999999987054799532870674739 1456:1 5141:1 #
0.49999999999987054799532870674739 2756:1 5588:1 #
0.49999999999987054799532870674739 641:1 3770:1 #
0.49999999999987054799532870674739 2147:1 3770:1 #
0.49999999999987054799532870674739 659:1 3770:1 #
0.49999999999987054799532870674739 2319:1 3770:1 #
-0.20563181680363395997801490011625 2116:1 3770:1 #
-0.028978754442120169265706408623373 2138:1 6658:1 #
-0.028579625481443160506245249052881 2574:1 4194:1 #
0.49999999999987054799532870674739 2968:1 7104:1 #
0.49999999999987054799532870674739 2444:1 7104:1 #
0.49999999999987054799532870674739 375:1 7104:1 #
-0.49999999999987054799532870674739 231:1 7104:1 #
-0.49999999999987054799532870674739 234:1 7104:1 #
-0.49999999999987054799532870674739 2445:1 7104:1 #
-0.49999999999987054799532870674739 1686:1 7104:1 #
-0.49999999999987054799532870674739 1932:1 7104:1 #
0.49999999999987054799532870674739 2061:1 3770:1 #
0.49999999999987054799532870674739 2724:1 3770:1 #
0.49999999999987054799532870674739 2206:1 3770:1 #
0.49999999999987054799532870674739 2019:1 3770:1 #
0.49999999999987054799532870674739 203:1 3770:1 #
-0.49999999999987054799532870674739 1887:1 3770:1 #
-0.019101400557464676133179182215827 2407:1 4992:1 #
-0.49999999999987054799532870674739 1865:1 3770:1 #
0.49999999999987054799532870674739 2025:1 5844:1 #
-0.49999999999987054799532870674739 738:1 4319:1 #
-0.49999999999987054799532870674739 1983:1 5844:1 #
-0.20793945984694733875031147363188 628:1 4463:1 #
0.49999999999987054799532870674739 2314:1 3770:1 #
0.49999999999987054799532870674739 1974:1 3770:1 #
0.49999999999987054799532870674739 2486:1 4142:1 #
0.49999999999987054799532870674739 629:1 5337:1 #
-0.49999999999987054799532870674739 1222:1 5141:1 #
-0.02908335378213890154430742995828 2138:1 6610:1 #
-0.053968891015651165865563143597683 900:1 3582:1 #
-0.029355826396195695837665340377498 242:1 7203:1 #
-0.42364978669917130460476073494647 2396:1 4142:1 #
0.49999999999987054799532870674739 2025:1 5844:1 #
0.49999999999987054799532870674739 2646:1 5844:1 #
-0.086365948385292767852661199867725 2395:1 5238:1 #
-0.47495849546795054774150912635378 1127:1 5277:1 #
-0.030003473516993839353972362005152 2067:1 5844:1 #
-0.36171999883795691310695019637933 1848:1 5844:1 #
0.49999999999987054799532870674739 1773:1 4142:1 #
0.49999999999987054799532870674739 1604:1 4142:1 #
-0.49999999999987054799532870674739 2702:1 5141:1 #
-0.27061144676408321885219265823252 1604:1 3691:1 #
-0.44408082500493423205867316028161 1604:1 6113:1 #
-0.49999999999987054799532870674739 1604:1 4887:1 #
-0.2650417040338282070877085061511 1604:1 4721:1 #
-0.49999999999987054799532870674739 1604:1 8091:1 #
0.49999999999987054799532870674739 1604:1 7236:1 #
0.49999999999987054799532870674739 837:1 4291:1 #
0.49999999999987054799532870674739 2375:1 7272:1 #
0.49999999999987054799532870674739 375:1 7104:1 #
0.49999999999987054799532870674739 2787:1 7272:1 #
0.49999999999987054799532870674739 2646:1 5844:1 #
0.49999999999987054799532870674739 2646:1 4675:1 #
0.49999999999987054799532870674739 2646:1 6163:1 #
0.49999999999987054799532870674739 1773:1 4142:1 #
0.49999999999987054799532870674739 1216:1 6270:1 #
0.49999999999987054799532870674739 2357:1 6270:1 #
0.49999999999987054799532870674739 191:1 6270:1 #
-0.49999999999987054799532870674739 1773:1 7236:1 #
-0.49999999999987054799532870674739 2787:1 7272:1 #
0.49999999999987054799532870674739 2282:1 4142:1 #
0.49999999999987054799532870674739 2396:1 4142:1 #
0.49999999999987054799532870674739 1604:1 5141:1 #
-0.49999999999987054799532870674739 375:1 5141:1 #
-0.49999999999987054799532870674739 253:1 6163:1 #
-0.16183589614113402799233654150157 375:1 7164:1 #
-0.49999999999987054799532870674739 215:1 6163:1 #
0.43605101187654865535492376693583 886:1 7104:1 #
0.49999999999987054799532870674739 234:1 7104:1 #
0.49999999999987054799532870674739 231:1 7104:1 #
0.49999999999987054799532870674739 1932:1 7104:1 #
-0.49999999999987054799532870674739 2206:1 7104:1 #
0.49999999999987054799532870674739 774:1 5141:1 #
-0.49999999999987054799532870674739 629:1 4675:1 #
-0.49999999999987054799532870674739 1264:1 7104:1 #
0.49999999999987054799532870674739 689:1 5856:1 #
-0.18117483987737814654650492229848 2507:1 6270:1 #
-0.49999999999987054799532870674739 659:1 5856:1 #
-0.49999999999987054799532870674739 2319:1 5856:1 #
-0.49999999999987054799532870674739 364:1 5856:1 #
-0.49999999999987054799532870674739 1219:1 5856:1 #
0.49999999999987054799532870674739 2645:1 6163:1 #
0.49999999999987054799532870674739 850:1 6163:1 #
-0.024056558676147615782880961887713 2917:1 6163:1 #
-0.49999999999987054799532870674739 850:1 5141:1 #
-0.24946488882566275613328343752073 707:1 6270:1 #
0.49999999999987054799532870674739 1604:1 5856:1 #
-0.49999999999987054799532870674739 2282:1 5844:1 #
-0.15568940358378291488605782433297 146:1 6270:1 #
0.49999999999987054799532870674739 629:1 5018:1 #
0.49999999999987054799532870674739 2661:1 4142:1 #
0.49999999999987054799532870674739 1046:1 4142:1 #
0.49999999999987054799532870674739 2964:1 4142:1 #
0.49999999999987054799532870674739 685:1 4142:1 #
-0.49999999999987054799532870674739 1773:1 4142:1 #
-0.028731822807630459648553511442515 2436:1 4342:1 #
0.49999999999987054799532870674739 2282:1 4675:1 #
-0.42502620684754049973363976278051 1216:1 4675:1 #
-0.49999999999987054799532870674739 902:1 4675:1 #
-0.49999999999987054799532870674739 241:1 4675:1 #
-0.49999999999987054799532870674739 1604:1 4675:1 #
0.49999999999987054799532870674739 2646:1 4142:1 #
0.49999999999987054799532870674739 1405:1 4142:1 #
0.49999999999987054799532870674739 326:1 4142:1 #
-0.12689102264459634072935045878694 299:1 4142:1 #
-0.020499641322894335271342924897908 2407:1 4962:1 #
-0.15023685535466979601437742530834 1518:1 4142:1 #
-0.49999999999987054799532870674739 203:1 4142:1 #
0.49999999999987054799532870674739 2296:1 4675:1 #
0.49999999999987054799532870674739 1278:1 4675:1 #
0.49999999999987054799532870674739 2920:1 4675:1 #
-0.23318677424771971917749624481075 278:1 3357:1 #
-0.49999999999987054799532870674739 2646:1 4675:1 #
0.49999999999987054799532870674739 31:1 4142:1 #
0.49999999999987054799532870674739 3010:1 4142:1 #
0.49999999999987054799532870674739 2967:1 4142:1 #
0.49999999999987054799532870674739 2058:1 4142:1 #
0.49999999999987054799532870674739 2280:1 4142:1 #
-0.49999999999987054799532870674739 2920:1 5856:1 #
-0.49999999999987054799532870674739 2645:1 5888:1 #
-0.073949705735189524835604402142053 364:1 4142:1 #
0.49999999999987054799532870674739 2646:1 4675:1 #
-0.49999999999987054799532870674739 2646:1 4675:1 #
0.49999999999987054799532870674739 375:1 3430:1 #
0.49999999999987054799532870674739 1604:1 5856:1 #
-0.026694830473297754408479320886727 1874:1 4774:1 #
-0.49999999999987054799532870674739 928:1 3770:1 #
-0.03000100935632832310773210338084 879:1 4640:1 #
-0.13011038167201227633285043339129 2164:1 4491:1 #
-0.026770523763912645875961970887147 1874:1 3536:1 #
0.49999999999987054799532870674739 2787:1 7272:1 #
-0.086332927190007069384591886773705 544:1 3066:1 #
0.49999999999987054799532870674739 1282:1 7272:1 #
0.49999999999987054799532870674739 2296:1 4675:1 #
0.49999999999987054799532870674739 1203:1 4675:1 #
0.49999999999987054799532870674739 535:1 4675:1 #
-0.49999999999987054799532870674739 1339:1 4279:1 #
-0.2334565648240797819390479617141 281:1 5971:1 #
-0.49999999999987054799532870674739 375:1 5141:1 #
-0.41389105311438134648938103055116 2930:1 5847:1 #
-0.0060377662239757823314789675350767 605:1 3824:1 #
-0.087023724707943950207322814094368 2876:1 3930:1 #
-0.09875813157309853984600067633437 2424:1 6230:1 #
-0.029133612151181709215563842008123 2890:1 4523:1 #
0.49999999999987054799532870674739 1773:1 5141:1 #
-0.16909036225646578710524181587971 2155:1 6230:1 #
-0.028567031200374293220534127613064 2574:1 3240:1 #
-0.49999999999987054799532870674739 1773:1 5141:1 #
-0.49999999999987054799532870674739 1339:1 6270:1 #
-0.49999999999987054799532870674739 1339:1 6924:1 #
-0.49999999999987054799532870674739 1579:1 3672:1 #
-0.49999999999987054799532870674739 1845:1 6784:1 #
-0.49999999999987054799532870674739 1337:1 6784:1 #
0.49999999999987054799532870674739 1604:1 5141:1 #
-0.49999999999987054799532870674739 1405:1 5141:1 #
0.49999999999987054799532870674739 1773:1 5141:1 #
0.49999999999987054799532870674739 1853:1 4675:1 #
0.49999999999987054799532870674739 689:1 5856:1 #
0.49999999999987054799532870674739 3049:1 6163:1 #
0.49999999999987054799532870674739 1339:1 4142:1 #
0.49999999999987054799532870674739 928:1 4142:1 #
0.49999999999987054799532870674739 375:1 5141:1 #
0.49999999999987054799532870674739 744:1 7104:1 #
0.49999999999987054799532870674739 2121:1 7104:1 #
-0.093514534972830257175679946612945 1532:1 4319:1 #
-0.49999999999987054799532870674739 1773:1 4142:1 #
0.49999999999987054799532870674739 1874:1 5856:1 #
0.49999999999987054799532870674739 2445:1 5856:1 #
0.49999999999987054799532870674739 241:1 5856:1 #
0.49999999999987054799532870674739 1845:1 5856:1 #
0.49999999999987054799532870674739 1405:1 5856:1 #
-0.49999999999987054799532870674739 1853:1 4675:1 #
-0.15196930857708207396328248250938 2326:1 3770:1 #
-0.49999999999987054799532870674739 2729:1 3770:1 #
0.49999999999987054799532870674739 326:1 6742:1 #
0.49999999999987054799532870674739 2155:1 3885:1 #
0.49999999999987054799532870674739 1078:1 3885:1 #
-0.49999999999987054799532870674739 1525:1 3885:1 #
-0.49999999999987054799532870674739 1047:1 3885:1 #
-0.49999999999987054799532870674739 2292:1 3885:1 #
-0.014233969704428917069094495673198 312:1 8091:1 #
0.49999999999987054799532870674739 2424:1 5915:1 #
0.49999999999987054799532870674739 3052:1 6230:1 #
-0.25711631181130006895685369272542 2061:1 3852:1 #
-0.49999999999987054799532870674739 2282:1 7171:1 #
-0.49999999999987054799532870674739 273:1 6174:1 #
-0.49999999999987054799532870674739 242:1 5141:1 #
0.49999999999987054799532870674739 2917:1 5277:1 #
-0.019106222835195141307451649481663 242:1 6538:1 #
-0.49999999999987054799532870674739 2935:1 5277:1 #
-0.23241091856196638421039324384765 539:1 4441:1 #
0.49999999999987054799532870674739 231:1 7889:1 #
-0.2920855148097805109586033722735 854:1 3770:1 #
-0.028245864014954463749873525557632 2723:1 3357:1 #
-0.029879207354281067665624505025335 2801:1 4305:1 #
-0.072660046198835731567911011552496 66:1 5856:1 #
-0.49999999999987054799532870674739 2921:1 4142:1 #
0.49999999999987054799532870674739 2683:1 6742:1 #
0.49999999999987054799532870674739 2495:1 4441:1 #
-0.49999999999987054799532870674739 2495:1 7104:1 #
-0.49999999999987054799532870674739 2724:1 6742:1 #
-0.49999999999987054799532870674739 1046:1 6742:1 #
-0.02876550241987552158917651468073 2565:1 7902:1 #
-0.021508967167445436352579690719722 2486:1 4441:1 #
-0.41735336989685822839390993976849 2061:1 4441:1 #
-0.49999999999987054799532870674739 1759:1 5141:1 #
-0.25159917100873979700637050882506 3010:1 4142:1 #
-0.4993603595856749843839850200311 231:1 7392:1 #
0.49999999999987054799532870674739 1732:1 7898:1 #
0.49999999999987054799532870674739 414:1 3942:1 #
0.49999999999987054799532870674739 2483:1 3942:1 #
0.49999999999987054799532870674739 854:1 3368:1 #
0.49999999999987054799532870674739 2723:1 5292:1 #
-0.41837301222095479857898681075312 2314:1 3942:1 #
-0.49999999999987054799532870674739 1870:1 3942:1 #
-0.49999999999987054799532870674739 273:1 3942:1 #
-0.026529770905489691301681887125596 2486:1 4288:1 #
0.49999999999987054799532870674739 928:1 3357:1 #
-0.15323520984254471177798961889494 2683:1 4142:1 #
-0.49999999999987054799532870674739 2483:1 4142:1 #
0.49999999999987054799532870674739 345:1 3942:1 #
0.49999999999987054799532870674739 850:1 3942:1 #
0.49999999999987054799532870674739 1337:1 3942:1 #
0.49999999999987054799532870674739 1229:1 3942:1 #
0.49999999999987054799532870674739 1942:1 3942:1 #
-0.49999999999987054799532870674739 2723:1 6270:1 #
0.49999999999987054799532870674739 2483:1 6742:1 #
0.49999999999987054799532870674739 557:1 7236:1 #
0.49999999999987054799532870674739 1984:1 6826:1 #
-0.39590006648195674721080195013201 31:1 6742:1 #
-0.39499086027504792806297473362065 2967:1 6742:1 #
-0.39589713728738540332585671421839 2058:1 6742:1 #
-0.069909667625349780628596363385441 1372:1 5239:1 #
0.49999999999987054799532870674739 1976:1 7589:1 #
0.49999999999987054799532870674739 700:1 6982:1 #
0.49999999999987054799532870674739 704:1 6982:1 #
0.49999999999987054799532870674739 2157:1 6982:1 #
0.49999999999987054799532870674739 520:1 3068:1 #
-0.49999999999987054799532870674739 605:1 6982:1 #
-0.025589293606836704952911532018334 2424:1 5601:1 #
-0.029355826396195716654347052099183 242:1 3230:1 #
-0.31779359470281043353878658308531 928:1 4441:1 #
0.49999999999987054799532870674739 1420:1 6742:1 #
0.49999999999987054799532870674739 2887:1 6742:1 #
0.49999999999987054799532870674739 1069:1 6742:1 #
0.49999999999987054799532870674739 1224:1 6742:1 #
-0.49999999999987054799532870674739 1046:1 6742:1 #
-0.49999999999987054799532870674739 671:1 6742:1 #
-0.39589713728738623599312518308579 502:1 6742:1 #
0.49999999999987054799532870674739 1599:1 3068:1 #
0.49999999999987054799532870674739 226:1 3357:1 #
0.49999999999987054799532870674739 128:1 3357:1 #
-0.097222185360675950072106843435904 1069:1 5303:1 #
-0.49999999999987054799532870674739 1604:1 3357:1 #
0.49999999999987054799532870674739 203:1 6742:1 #
0.49999999999987054799532870674739 1774:1 6742:1 #
0.49999999999987054799532870674739 2807:1 6742:1 #
0.49999999999987054799532870674739 2544:1 6742:1 #
0.49999999999987054799532870674739 1441:1 6742:1 #
-0.49999999999987054799532870674739 1441:1 4997:1 #
-0.49999999999987054799532870674739 520:1 5141:1 #
-0.49999999999987054799532870674739 928:1 5141:1 #
-0.49999999999987054799532870674739 1599:1 5141:1 #
-0.49999999999987054799532870674739 2887:1 5141:1 #
0.49999999999987054799532870674739 2723:1 6757:1 #
0.49999999999987054799532870674739 1846:1 8010:1 #
0.49999999999987054799532870674739 1042:1 3586:1 #
0.49999999999987054799532870674739 2908:1 7321:1 #
0.49999999999987054799532870674739 1515:1 6154:1 #
-0.49999999999987054799532870674739 2723:1 5847:1 #
-0.49999999999987054799532870674739 2660:1 7272:1 #
-0.028845655289824578826340939485817 2788:1 7692:1 #
-0.14802909288241039575950708240271 2375:1 7272:1 #
-0.37289111234003380346280209778342 1240:1 7272:1 #
0.49999999999987054799532870674739 326:1 5141:1 #
-0.064894100673276056134852751711151 874:1 4678:1 #
-0.49999999999987054799532870674739 241:1 5337:1 #
-0.49999999999987054799532870674739 2285:1 7990:1 #
0.49999999999987054799532870674739 1339:1 5141:1 #
0.49999999999987054799532870674739 326:1 5141:1 #
0.49999999999987054799532870674739 2660:1 5076:1 #
0.49999999999987054799532870674739 2660:1 7519:1 #
-0.49999999999987054799532870674739 2660:1 7272:1 #
0.49999999999987054799532870674739 2646:1 3320:1 #
0.49999999999987054799532870674739 2646:1 5111:1 #
0.49999999999987054799532870674739 2646:1 7054:1 #
0.49999999999987054799532870674739 2646:1 4887:1 #
0.49999999999987054799532870674739 2646:1 5224:1 #
-0.19187120252179457047247979062377 2517:1 3272:1 #
-0.026513871692827262194214199553244 2553:1 6586:1 #
-0.029481025045321462840774984215386 1371:1 3423:1 #
-0.044277895734507133340684958966449 1504:1 5165:1 #
-0.49999999999987054799532870674739 893:1 4319:1 #
-0.25245168814407475954553206065611 1773:1 6797:1 #
-0.49999999999987054799532870674739 2282:1 5844:1 #
-0.49999999999987054799532870674739 2646:1 5856:1 #
0.49999999999987054799532870674739 680:1 6364:1 #
0.49999999999987054799532870674739 2491:1 6523:1 #
-0.047311714222874945434682558698114 1579:1 4142:1 #
-0.18236389629163651804333312611561 1968:1 5847:1 #
-0.49999999999987054799532870674739 1856:1 5847:1 #
-0.49999999999987054799532870674739 1518:1 6742:1 #
-0.068240111754033216939774320053402 471:1 5461:1 #
-0.25355988241985938369538189363084 629:1 3368:1 #
-0.39382016275603048960363139485708 1317:1 5844:1 #
-0.13367603920352955082506696271594 2186:1 5215:1 #
-0.08716305711864757999052244485938 1309:1 3744:1 #
-0.49999999999987054799532870674739 1564:1 4842:1 #
-0.064484716000177022543482507899171 1564:1 3598:1 #
-0.065274400308125479774901123164454 1564:1 3616:1 #
0.49999999999987054799532870674739 2646:1 3368:1 #
0.49999999999987054799532870674739 415:1 5480:1 #
0.49999999999987054799532870674739 675:1 3724:1 #
-0.45736708806507109237315944483271 675:1 7378:1 #
-0.29278516141114929727251592339599 242:1 3724:1 #
-0.49999999999987054799532870674739 2646:1 5856:1 #
0.49999999999987054799532870674739 2667:1 3582:1 #
-0.49999999999987054799532870674739 1337:1 6784:1 #
-0.064894100673276056134852751711151 874:1 5552:1 #
-0.3663237081147635576527932244062 1223:1 4820:1 #
-0.49999999999987054799532870674739 222:1 6784:1 #
-0.207807891057698146397569871624 2744:1 6784:1 #
0.49999999999987054799532870674739 2728:1 6245:1 #
0.49999999999987054799532870674739 2645:1 5564:1 #
0.49999999999987054799532870674739 2981:1 5489:1 #
0.49999999999987054799532870674739 2144:1 6217:1 #
-0.49999999999987054799532870674739 3000:1 6742:1 #
-0.49999999999987054799532870674739 2728:1 7104:1 #
-0.10558288999983347911104658578552 673:1 3770:1 #
-0.087154884532628984494806445582071 1889:1 3403:1 #
0.49999999999987054799532870674739 2820:1 4336:1 #
-0.2334987672510369649536698943848 439:1 4463:1 #
-0.0022710670900426919299741612690013 928:1 3770:1 #
-0.22678422940968989696131075106678 2015:1 3942:1 #
0.49999999999987054799532870674739 680:1 6742:1 #
0.49999999999987054799532870674739 1507:1 6742:1 #
0.49999999999987054799532870674739 2108:1 6742:1 #
0.49999999999987054799532870674739 1576:1 6742:1 #
-0.39585499188756867461336241831305 46:1 6742:1 #
-0.3951878133237876067340721419896 685:1 6742:1 #
-0.027015183441045420575932212159387 2645:1 4838:1 #
-0.49999999999987054799532870674739 2494:1 6742:1 #
-0.10493320678998674377879751773435 1116:1 7898:1 #
0.49999999999987054799532870674739 859:1 6742:1 #
0.49999999999987054799532870674739 75:1 6742:1 #
0.49999999999987054799532870674739 163:1 6742:1 #
0.49999999999987054799532870674739 2845:1 6742:1 #
0.49999999999987054799532870674739 908:1 6742:1 #
-0.064111542296144907737698304117657 255:1 3357:1 #
-0.12997310265633066350687840895262 1005:1 6449:1 #
-0.13012163964371259439189998374786 1481:1 3703:1 #
-0.074548989039540103362924128305167 825:1 3197:1 #
-0.064812865686798670772361674607964 1096:1 4310:1 #
0.49999999999987054799532870674739 1423:1 6696:1 #
0.49999999999987054799532870674739 2680:1 5277:1 #
-0.028451144890322521696646163036348 22:1 3116:1 #
-0.23197067247231467623791445475945 2032:1 4441:1 #
-0.028423568640476348790002703026403 22:1 6285:1 #
-0.028739446570466231634100040537305 22:1 3293:1 #
-0.028536293221561925825824346247828 967:1 4083:1 #
0.49999999999987054799532870674739 2555:1 3550:1 #
0.49999999999987054799532870674739 1985:1 4918:1 #
0.49999999999987054799532870674739 903:1 6714:1 #
0.49999999999987054799532870674739 597:1 6759:1 #
0.49999999999987054799532870674739 2439:1 4616:1 #
-0.49999999999987054799532870674739 2439:1 7104:1 #
-0.23047220250478095415758161834674 742:1 6976:1 #
-0.38016775786487000399205271605751 1452:1 6008:1 #
-0.20847729068082354597635230675223 1895:1 4338:1 #
-0.026758223114925150376564033649629 2690:1 3936:1 #
0.49999999999987054799532870674739 1065:1 5422:1 #
0.49999999999987054799532870674739 690:1 6034:1 #
0.49999999999987054799532870674739 1972:1 3630:1 #
0.49999999999987054799532870674739 1454:1 3385:1 #
0.49999999999987054799532870674739 1666:1 5613:1 #
-0.008683922373195554489377911977499 982:1 6722:1 #
-0.12997351604943307989969980553724 2147:1 3793:1 #
-0.086533050827811597294214607245522 2019:1 5274:1 #
-0.086906687021990169927931901838747 2019:1 7883:1 #
0.49999999999987054799532870674739 1418:1 4749:1 #
0.49999999999987054799532870674739 2464:1 5346:1 #
0.49999999999987054799532870674739 2464:1 7373:1 #
0.49999999999987054799532870674739 1982:1 5112:1 #
-0.2056484963273945698603029086371 1345:1 7373:1 #
-0.064778554830878687376127800234826 1625:1 5128:1 #
-0.065233073849490785800497860691394 1625:1 3777:1 #
-0.065233073849490785800497860691394 1625:1 4603:1 #
-0.21813196383174379699987355252233 2357:1 7164:1 #
0.49999999999987054799532870674739 2574:1 6691:1 #
0.49999999999987054799532870674739 2462:1 6642:1 #
0.49999999999987054799532870674739 2641:1 4177:1 #
0.49999999999987054799532870674739 2429:1 6522:1 #
0.49999999999987054799532870674739 1945:1 5601:1 #
-0.19027085796270692963361170768621 2122:1 6693:1 #
-0.18936586932692967000235739760683 1948:1 6693:1 #
-0.19023255623344126341578430583468 2747:1 6693:1 #
-0.068240111754033216939774320053402 471:1 4125:1 #
0.49999999999987054799532870674739 246:1 6873:1 #
0.49999999999987054799532870674739 1736:1 5729:1 #
0.49999999999987054799532870674739 1493:1 4576:1 #
0.49999999999987054799532870674739 875:1 3165:1 #
-0.0010626332499391599739624325593468 629:1 6687:1 #
-0.008457027602937511323588637424109 680:1 5337:1 #
-0.37753003217453506845657784651848 2396:1 7951:1 #
0.47964535683179077008020385619602 2997:1 5141:1 #
0.49999999999987054799532870674739 1077:1 6853:1 #
0.49999999999987054799532870674739 2435:1 7095:1 #
0.49999999999987054799532870674739 2:1 6590:1 #
-0.36591064398688277758964204622316 246:1 5320:1 #
-0.17986657936810190872023440533667 383:1 5320:1 #
-0.20674865238937456535239789445768 2086:1 5320:1 #
-0.087171374274504720425227333180374 1685:1 3516:1 #
-0.15430514205968670626845096194302 2531:1 5215:1 #
-0.36610217823629620514935822939151 837:1 6590:1 #
-0.086954546893917683547670094412751 2894:1 7112:1 #
-0.028657339495265832240988856938202 2574:1 5447:1 #
-0.028506651319178843984047944104532 2574:1 5590:1 #
-0.49999999999987054799532870674739 318:1 3314:1 #
-0.45468968384590435771741567805293 2133:1 3770:1 #
-0.49999999999987054799532870674739 2407:1 4992:1 #
-0.4869316962213037225382095130044 345:1 4487:1 #
-0.08654313622069831346550472517265 1401:1 7753:1 #
-0.086862189921453961116704078904149 1401:1 3803:1 #
-0.065425914083256708764224640617613 918:1 7585:1 #
-0.37991684062447472758350386357051 1233:1 3800:1 #
-0.037666753622845550175668449810473 3013:1 4278:1 #
-0.20721060668542390370561179224751 1306:1 5888:1 #
-0.02860932521895172275794294591833 3048:1 4193:1 #
-0.18098594997002404038966005828115 1182:1 4721:1 #
-0.49999999999987054799532870674739 2285:1 5224:1 #
-0.49999999999987054799532870674739 526:1 4997:1 #
-0.47930341903748230336645974603016 985:1 4997:1 #
-0.47955208999755782883767096791416 1135:1 4997:1 #
-0.4795520899975574957707635803672 12:1 4997:1 #
-0.49999999999987054799532870674739 2015:1 5888:1 #
-0.086478468908345096366474535898305 157:1 4018:1 #
-0.0018481561028982351757576907402836 1513:1 7375:1 #
-0.086478468908345096366474535898305 823:1 4018:1 #
-0.49999999999987054799532870674739 2921:1 6742:1 #
-0.49999999999987054799532870674739 2406:1 3713:1 #
-0.49999999999987054799532870674739 2219:1 5321:1 #
-0.42377578898178402955210231084493 1077:1 7272:1 #
-0.49999999999987054799532870674739 3010:1 6742:1 #
-0.39496461892039058660941464040661 2280:1 6742:1 #
-0.49999999999987054799532870674739 605:1 3759:1 #
-0.13015260439003684123093762536882 1013:1 6556:1 #
-0.49999999999987054799532870674739 2712:1 3540:1 #
-0.49999999999987054799532870674739 1604:1 4675:1 #
0.3290456251556956868142833627644 1035:1 5141:1 #
-0.49999999999987054799532870674739 2723:1 4675:1 #
-0.49999999999987054799532870674739 1306:1 4675:1 #
-0.49999999999987054799532870674739 744:1 4675:1 #
-0.49999999999987054799532870674739 2418:1 4319:1 #
-0.079595922937123919638224833761342 431:1 6316:1 #
-0.49999999999987054799532870674739 2723:1 6270:1 #
-0.14703255392712555327250356640434 2800:1 5847:1 #
-0.49999999999987054799532870674739 2574:1 6270:1 #
-0.079284140168573671858531781708734 1762:1 5585:1 #
-0.13019034641300653021289690514095 2661:1 4994:1 #
-0.087044711710553945849255796929356 2865:1 3690:1 #
-0.02971667195680716133665555389598 726:1 4637:1 #
-0.029725887481197865724880102789029 726:1 5005:1 #
-0.12996136953062142893600139359478 1499:1 6085:1 #
-0.029931915865408182525486679992355 726:1 3261:1 #
-0.49999999999987054799532870674739 1693:1 5141:1 #
-0.129961271615043338911732462293 1215:1 6092:1 #
-0.056269499830230274017850433665444 3000:1 3550:1 #
-0.13000476584432218984943574469071 53:1 4906:1 #
-0.030041308861277281339052791508948 2997:1 3507:1 #
-0.02877113645792784071830716641216 51:1 8035:1 #
-0.02877113645792762561259614528808 51:1 5673:1 #
-0.13017564684962723564609632376232 454:1 6465:1 #
-0.028771136457927646429277857009765 51:1 5464:1 #
-0.13017074945968454269262792877271 991:1 3815:1 #
-0.47930341903748230336645974603016 1643:1 4997:1 #
-0.49999999999987054799532870674739 121:1 4997:1 #
-0.086797624021530794813372722273925 3060:1 7337:1 #
-0.086780404342975625553435747860931 3060:1 3967:1 #
-0.085805184606277173919863798801089 2121:1 5784:1 #
-0.087282445810126563223718676454155 2121:1 4100:1 #
-0.49999999999987054799532870674739 326:1 6742:1 #
-0.49999999999987054799532870674739 2146:1 5856:1 #
-0.49999999999987054799532870674739 2643:1 5856:1 #
-0.49999999999987054799532870674739 2667:1 5856:1 #
-0.49999999999987054799532870674739 1065:1 5856:1 #
0.49999999999987054799532870674739 2033:1 6693:1 #
-0.0085921951624705061867359745519934 1845:1 3619:1 #
0.49999999999987054799532870674739 1434:1 7951:1 #
0.49999999999987054799532870674739 1854:1 7951:1 #
0.49999999999987054799532870674739 2723:1 6784:1 #
0.49999999999987054799532870674739 1604:1 5856:1 #
-0.17456968581779730431691177727771 2157:1 5888:1 #
-0.060108883433945159424638404743746 2173:1 7321:1 #
-0.49999999999987054799532870674739 2544:1 5888:1 #
0.49999999999987054799532870674739 2280:1 5856:1 #
0.49543466140839287348285324696917 1046:1 5856:1 #
-0.38007741905294045725582918748842 1732:1 5480:1 #
-0.49999999999987054799532870674739 2078:1 6982:1 #
-0.15731438268962327775568610377377 75:1 7236:1 #
-0.08629512353861756857043019408593 2187:1 3790:1 #
-0.49999999999987054799532870674739 938:1 6982:1 #
0.49999999999987054799532870674739 2219:1 4319:1 #
0.49999999999987054799532870674739 2285:1 3770:1 #
0.49999999999987054799532870674739 2517:1 7104:1 #
0.49999999999987054799532870674739 2646:1 6163:1 #
-0.49999999999987054799532870674739 850:1 5277:1 #
-0.19163470687308659101688590453705 1493:1 6270:1 #
-0.49999999999987054799532870674739 2429:1 5856:1 #
-0.47001210094434853203892998863012 680:1 4887:1 #
-0.027891243057167725005740521737607 1618:1 6929:1 #
0.49999999999987054799532870674739 1240:1 7272:1 #
0.49999999999987054799532870674739 1222:1 4820:1 #
-0.49999999999987054799532870674739 1454:1 3672:1 #
-0.38662210497678228815487955216668 2660:1 6853:1 #
-0.49999999999987054799532870674739 326:1 5141:1 #
0.49999999999987054799532870674739 1306:1 7779:1 #
0.49999999999987054799532870674739 616:1 3885:1 #
0.49999999999987054799532870674739 2173:1 3885:1 #
0.49999999999987054799532870674739 216:1 3885:1 #
0.49999999999987054799532870674739 109:1 3885:1 #
-0.16552728412185113704424566094531 128:1 6696:1 #
0.49999999999987054799532870674739 2673:1 4319:1 #
-0.054750740987434320938831433522864 908:1 3582:1 #
-0.29524688751377903273009906115476 246:1 6826:1 #
-0.02933415770734421057497343099385 2464:1 3460:1 #
0.49999999999987054799532870674739 3010:1 5141:1 #
0.49999999999987054799532870674739 1452:1 5141:1 #
0.49999999999987054799532870674739 1604:1 5141:1 #
-0.49999999999987054799532870674739 326:1 5141:1 #
0.49999999999987054799532870674739 2800:1 5320:1 #
0.49999999999987054799532870674739 2788:1 5320:1 #
0.49999999999987054799532870674739 2050:1 3540:1 #
0.49999999999987054799532870674739 1887:1 6270:1 #
0.49999999999987054799532870674739 242:1 5337:1 #
-0.49999999999987054799532870674739 109:1 5601:1 #
-0.20665593027179141039084697695216 557:1 5224:1 #
-0.49999999999987054799532870674739 557:1 6742:1 #
-0.49999999999987054799532870674739 1203:1 6742:1 #
-0.49999999999987054799532870674739 2820:1 6742:1 #
0.49999999999987054799532870674739 1181:1 7392:1 #
0.49999999999987054799532870674739 318:1 4142:1 #
0.49999999999987054799532870674739 1874:1 4487:1 #
0.49999999999987054799532870674739 3000:1 5058:1 #
0.49999999999987054799532870674739 1826:1 4675:1 #
-0.49999999999987054799532870674739 2464:1 4142:1 #
-0.49999999999987054799532870674739 1846:1 4463:1 #
-0.49999999999987054799532870674739 680:1 4675:1 #
-0.026887762813216399548910118255662 1874:1 5763:1 #
0.49999999999987054799532870674739 1998:1 6742:1 #
0.49999999999987054799532870674739 2396:1 6742:1 #
0.49999999999987054799532870674739 2282:1 6742:1 #
-0.39542917439327113227065524370119 1434:1 6742:1 #
-0.029927296411315862378899055329384 879:1 6377:1 #
-0.39496461892039314012237127826666 2498:1 6742:1 #
-0.49999999999987054799532870674739 1473:1 6742:1 #
-0.49999999999987054799532870674739 203:1 6742:1 #
0.49999999999987054799532870674739 1853:1 5224:1 #
0.49999999999987054799532870674739 2935:1 3672:1 #
0.49999999999987054799532870674739 1285:1 3672:1 #
0.49999999999987054799532870674739 1004:1 3672:1 #
0.49999999999987054799532870674739 1802:1 3672:1 #
-0.47588988288171174545482244866434 1515:1 3672:1 #
-0.093533964478958550592402332313213 1961:1 4319:1 #
-0.49999999999987054799532870674739 2728:1 3672:1 #
-0.49999999999987054799532870674739 1853:1 6522:1 #
0.49999999999987054799532870674739 2282:1 6742:1 #
-0.49999999999987054799532870674739 2282:1 5856:1 #
0.49999999999987054799532870674739 121:1 4675:1 #
0.49999999999987054799532870674739 837:1 4675:1 #
0.49999999999987054799532870674739 2986:1 7990:1 #
0.49999999999987054799532870674739 741:1 4675:1 #
0.49999999999987054799532870674739 2282:1 6742:1 #
0.49999999999987054799532870674739 1564:1 3703:1 #
0.49999999999987054799532870674739 2494:1 4142:1 #
0.49999999999987054799532870674739 2386:1 4142:1 #
0.49999999999987054799532870674739 764:1 4142:1 #
-0.019296648142813177528864798659924 2386:1 4749:1 #
0.49999999999987054799532870674739 3004:1 3672:1 #
-0.38744646158510209765779563895194 2491:1 6523:1 #
-0.27621344274562575904496952716727 2935:1 3385:1 #
-0.20338983906022900516319396047038 1984:1 3866:1 #
0.49999999999987054799532870674739 2728:1 5897:1 #
0.49999999999987054799532870674739 2728:1 4319:1 #
0.49999999999987054799532870674739 1762:1 4842:1 #
0.49999999999987054799532870674739 46:1 7112:1 #
0.49999999999987054799532870674739 1853:1 4997:1 #
-0.087092635568492005049279214290436 1110:1 4266:1 #
-0.086106268829847398826871085475432 1110:1 4160:1 #
-0.02864517323029580619930811735685 854:1 7719:1 #
-0.028368745639306358619080583594041 854:1 5454:1 #
0.49999999999987054799532870674739 2491:1 7272:1 #
0.49999999999987054799532870674739 2921:1 6590:1 #
-0.38744646158510209765779563895194 2491:1 3165:1 #
0.49999999999987054799532870674739 1504:1 6270:1 #
0.49999999999987054799532870674739 2407:1 4901:1 #
0.49999999999987054799532870674739 2407:1 8044:1 #
0.49999999999987054799532870674739 928:1 4168:1 #
-0.085934619238467679913640040467726 822:1 6617:1 #
-0.030845988910855361153640075144722 1942:1 3112:1 #
-0.087071492835533059739816508226795 822:1 4381:1 #
0.49999999999987054799532870674739 2660:1 7272:1 #
0.49999999999987054799532870674739 1773:1 3066:1 #
0.49999999999987054799532870674739 89:1 3112:1 #
-0.49999999999987054799532870674739 2449:1 5856:1 #
-0.21854091599433786430317638860288 2219:1 6270:1 #
-0.49999999999987054799532870674739 2052:1 5856:1 #
-0.10610864399640196342744502544519 2644:1 4319:1 #
0.49999999999987054799532870674739 1475:1 5141:1 #
0.49999999999987054799532870674739 1343:1 5141:1 #
0.49999999999987054799532870674739 1856:1 5141:1 #
0.49999999999987054799532870674739 1864:1 7104:1 #
0.49999999999987054799532870674739 1405:1 5141:1 #
-0.49999999999987054799532870674739 1773:1 6826:1 #
-0.028232605777731123453122563660145 2570:1 6421:1 #
-0.49999999999987054799532870674739 1185:1 7898:1 #
0.49999999999987054799532870674739 1336:1 3062:1 #
0.49999999999987054799532870674739 675:1 7077:1 #
0.49999999999987054799532870674739 691:1 5826:1 #
0.49999999999987054799532870674739 2673:1 4611:1 #
0.49999999999987054799532870674739 2606:1 4358:1 #
-0.028517164518665261141450173454359 1976:1 4165:1 #
-0.028620397163863959405505354993693 1976:1 7463:1 #
-0.02833092959104643870915651859832 704:1 4333:1 #
-0.49999999999987054799532870674739 707:1 3320:1 #
-0.18221847283392722527395335418987 1519:1 5971:1 #
0.49999999999987054799532870674739 1046:1 6534:1 #
0.49999999999987054799532870674739 615:1 3929:1 #
0.49999999999987054799532870674739 2311:1 7926:1 #
0.49999999999987054799532870674739 2858:1 5289:1 #
-0.21359568241811605071589497129025 2574:1 8091:1 #
-0.093439857857808505947616595221916 2514:1 4319:1 #
-0.49999999999987054799532870674739 2858:1 5277:1 #
-0.04973060884481705912207871733699 627:1 5613:1 #
-0.028080187055731453682483333977871 1059:1 4455:1 #
0.49999999999987054799532870674739 2703:1 6924:1 #
0.49999999999987054799532870674739 1631:1 3222:1 #
0.49999999999987054799532870674739 1003:1 5067:1 #
0.49999999999987054799532870674739 467:1 4805:1 #
0.49999999999987054799532870674739 1674:1 3591:1 #
0.49999999999987054799532870674739 1339:1 5141:1 #
-0.12619048578991409748084606690099 226:1 4805:1 #
-0.037823138874507278295311607507756 3013:1 6686:1 #
-0.13009707856571695039349378930638 415:1 7399:1 #
-0.25322163944960474069034717103932 569:1 7907:1 #
0.49999999999987054799532870674739 1902:1 3727:1 #
0.49999999999987054799532870674739 2907:1 5125:1 #
0.49999999999987054799532870674739 1591:1 6687:1 #
