SVM-light Version V6.02
0 # kernel type
3 # kernel parameter -d 
1 # kernel parameter -g 
1 # kernel parameter -s 
1 # kernel parameter -r 
empty# kernel parameter -u 
5445 # highest feature index 
12851 # number of training documents 
5290 # number of support vectors plus 1 
1.0804712 # threshold b, each following line is a SV (starting with alpha*y)
-0.016483416371643112852130030887565 1421:1 4948:1 #
-0.013424556775293156746231559850457 959:1 5107:1 #
-0.013695231394380408956878980575311 792:1 1907:1 #
-0.49999999999988564702846360887634 959:1 2322:1 #
-0.12695826764955442378379757428775 1453:1 2809:1 #
0.12116016220570871575468174796697 792:1 2322:1 #
0.09304822529062561908830275569926 1225:1 2322:1 #
0.36746202400396277276684031676268 862:1 2322:1 #
0.49999999999988564702846360887634 35:1 2322:1 #
-0.49999999999988564702846360887634 35:1 2322:1 #
0.49999999999988564702846360887634 552:1 4385:1 #
0.49999999999988564702846360887634 1581:1 4385:1 #
0.49999999999988564702846360887634 389:1 4385:1 #
0.49999999999988564702846360887634 374:1 4385:1 #
0.49999999999988564702846360887634 444:1 4385:1 #
-0.49999999999988564702846360887634 389:1 2322:1 #
-0.49999999999988564702846360887634 546:1 2322:1 #
-0.49999999999988564702846360887634 481:1 2322:1 #
-0.49999999999988564702846360887634 1555:1 2322:1 #
0.49999999999988564702846360887634 35:1 2956:1 #
0.49999999999988564702846360887634 35:1 2030:1 #
0.49999999999988564702846360887634 35:1 2965:1 #
0.49999999999988564702846360887634 35:1 2789:1 #
0.49999999999988564702846360887634 35:1 3037:1 #
-0.011163996562674638468593002471607 1061:1 2664:1 #
-0.49999999999988564702846360887634 35:1 2789:1 #
-0.011098682830219972969554298458661 1061:1 2365:1 #
0.49999999999988564702846360887634 546:1 2322:1 #
-0.49999999999988564702846360887634 546:1 2322:1 #
0.49999999999988564702846360887634 1555:1 2789:1 #
0.49999999999988564702846360887634 389:1 5232:1 #
-0.49999999999988564702846360887634 444:1 4385:1 #
-0.49999999999988564702846360887634 1555:1 2956:1 #
-0.31064511594271437822101233905414 35:1 3037:1 #
0.49999999999988564702846360887634 546:1 2322:1 #
-0.49999999999988564702846360887634 546:1 2322:1 #
0.49999999999988564702846360887634 481:1 4389:1 #
0.49999999999988564702846360887634 1335:1 3345:1 #
0.49999999999988564702846360887634 931:1 3345:1 #
0.49999999999988564702846360887634 100:1 3345:1 #
0.49999999999988564702846360887634 1021:1 3345:1 #
-0.49999999999988564702846360887634 1335:1 2965:1 #
-0.49999999999988564702846360887634 386:1 3345:1 #
-0.2048444677002978497881713337847 862:1 3345:1 #
-0.49999999999988564702846360887634 391:1 2965:1 #
-0.49999999999988564702846360887634 1342:1 2965:1 #
0.49999999999988564702846360887634 546:1 2322:1 #
-0.49999999999988564702846360887634 546:1 2322:1 #
-0.49999999999988564702846360887634 931:1 2322:1 #
-0.49999999999988564702846360887634 1335:1 2789:1 #
-0.49999999999988564702846360887634 35:1 2789:1 #
0.49999999999988564702846360887634 546:1 2322:1 #
0.02397879580296413681850253851735 844:1 2322:1 #
0.49999999999988564702846360887634 389:1 4371:1 #
0.49999999999988564702846360887634 389:1 4763:1 #
-0.49999999999988564702846360887634 1335:1 4385:1 #
0.49999999999988564702846360887634 96:1 3345:1 #
0.49999999999988564702846360887634 959:1 3345:1 #
0.49999999999988564702846360887634 1315:1 3345:1 #
0.49999999999988564702846360887634 1154:1 3345:1 #
0.49999999999988564702846360887634 167:1 3345:1 #
-0.49999999999988564702846360887634 35:1 3037:1 #
0.019108868019679925431830724846805 1335:1 2322:1 #
-0.32218757603447395476692349802761 1154:1 3345:1 #
-0.0038890452014244906303597204555444 1323:1 5287:1 #
0.49999999999988564702846360887634 35:1 3764:1 #
0.49999999999988564702846360887634 35:1 3726:1 #
-0.014979930563491004533172024082432 305:1 5016:1 #
-0.49999999999988564702846360887634 35:1 2965:1 #
-0.013735167534953462986635486231535 35:1 5076:1 #
-0.49999999999988564702846360887634 35:1 4427:1 #
-0.013896681810466243733870328469493 35:1 4047:1 #
0.49999999999988564702846360887634 481:1 2322:1 #
-0.49999999999988564702846360887634 96:1 2789:1 #
-0.49999999999988564702846360887634 959:1 2789:1 #
0.49999999999988564702846360887634 1555:1 4427:1 #
0.49999999999988564702846360887634 1342:1 3764:1 #
0.49999999999988564702846360887634 391:1 3764:1 #
0.49999999999988564702846360887634 386:1 3968:1 #
-0.33349108100938928966883167959168 35:1 4427:1 #
0.49999999999988564702846360887634 959:1 2789:1 #
0.49999999999988564702846360887634 927:1 2789:1 #
0.49999999999988564702846360887634 74:1 2789:1 #
0.49999999999988564702846360887634 171:1 2789:1 #
0.49999999999988564702846360887634 118:1 2789:1 #
-0.0034186350242453311665258297580294 236:1 5133:1 #
0.49999999999988564702846360887634 35:1 4427:1 #
0.49999999999988564702846360887634 791:1 2789:1 #
0.49999999999988564702846360887634 433:1 2789:1 #
0.49999999999988564702846360887634 699:1 2789:1 #
-0.49999999999988564702846360887634 1123:1 5065:1 #
-0.49009729550725122937393507527304 699:1 3345:1 #
0.49999999999988564702846360887634 1335:1 4562:1 #
0.49999999999988564702846360887634 1335:1 2790:1 #
0.49999999999988564702846360887634 1335:1 2594:1 #
0.14932737795475437003744900721358 1371:1 2335:1 #
0.49999999999988564702846360887634 1335:1 3788:1 #
-0.31869821060597547379700245073764 1335:1 2594:1 #
-0.013643026761709231217678528480519 1335:1 5428:1 #
-0.013554407353817521375560772867175 1335:1 2848:1 #
-0.013618777443226731671543916490918 1335:1 4835:1 #
0.49999999999988564702846360887634 1342:1 2965:1 #
0.49999999999988564702846360887634 433:1 2965:1 #
-0.49999999999988564702846360887634 433:1 2789:1 #
0.49999999999988564702846360887634 1555:1 2956:1 #
-0.49263206443106299925460689337342 959:1 3345:1 #
0.49999999999988564702846360887634 391:1 2789:1 #
-0.49999999999988564702846360887634 1342:1 2789:1 #
0.49999999999988564702846360887634 959:1 2965:1 #
0.49999999999988564702846360887634 35:1 3758:1 #
0.49999999999988564702846360887634 35:1 2030:1 #
-0.49999999999988564702846360887634 1072:1 4094:1 #
-0.009463869112450673526382161071524 1114:1 2594:1 #
-0.0037979539206981494103843033371959 1065:1 3094:1 #
0.49999999999988564702846360887634 1342:1 2965:1 #
-0.49999999999988564702846360887634 433:1 2789:1 #
-0.49999999999988564702846360887634 391:1 2789:1 #
-0.48629841614430463492269041125837 1342:1 2789:1 #
-0.013909406068592367056169223360484 35:1 4100:1 #
0.49999999999988564702846360887634 433:1 2789:1 #
0.49999999999988564702846360887634 391:1 2789:1 #
-0.49999999999988564702846360887634 959:1 2789:1 #
-0.013609377930912838761123850872536 1335:1 3800:1 #
-0.26888693705462152205853954001213 1335:1 2018:1 #
-0.013530101665885391204469101467112 1335:1 3748:1 #
0.49999999999988564702846360887634 35:1 2278:1 #
-0.49999999999988564702846360887634 35:1 2278:1 #
-0.49999999999988564702846360887634 35:1 4427:1 #
-0.49999999999988564702846360887634 35:1 2030:1 #
0.49999999999988564702846360887634 1335:1 4975:1 #
0.49999999999988564702846360887634 1335:1 1806:1 #
0.49999999999988564702846360887634 1335:1 2137:1 #
-0.49702691441085927737120186975517 1335:1 2137:1 #
-0.49999999999988564702846360887634 1335:1 1806:1 #
-0.082896480144318496208200031105662 391:1 3345:1 #
-0.49999999999988564702846360887634 481:1 2322:1 #
0.49999999999988564702846360887634 1065:1 2789:1 #
0.49999999999988564702846360887634 1262:1 2789:1 #
0.49999999999988564702846360887634 1309:1 2789:1 #
0.49999999999988564702846360887634 813:1 2789:1 #
0.49999999999988564702846360887634 1335:1 4259:1 #
-0.49187213965618792332890052421135 1335:1 2594:1 #
-0.013575532847210011744287783130858 1335:1 4155:1 #
0.49999999999988564702846360887634 1335:1 2109:1 #
0.49999999999988564702846360887634 1335:1 4797:1 #
0.49999999999988564702846360887634 1335:1 3436:1 #
0.49999999999988564702846360887634 1615:1 3968:1 #
-1.6653345369377348106354475021362e-16 1335:1 2285:1 #
-0.013530101665885349571105678023741 1335:1 4418:1 #
0.49999999999988564702846360887634 959:1 4385:1 #
0.49999999999988564702846360887634 959:1 2594:1 #
-0.012825172126646987302844848954919 600:1 4925:1 #
-0.49999999999988564702846360887634 1232:1 4385:1 #
-0.19667461531850291556189347375039 1065:1 3345:1 #
0.49999999999988564702846360887634 35:1 2322:1 #
-0.49999999999988564702846360887634 35:1 4385:1 #
-0.49355053606411325439751180965686 35:1 2030:1 #
0.49999999999988564702846360887634 776:1 3075:1 #
-0.013643026761709656224930142798257 1335:1 2631:1 #
-0.013530101665885779782527720271901 1335:1 4233:1 #
-0.0042826986911304130295485848023418 1342:1 4442:1 #
0.49999999999988564702846360887634 433:1 4385:1 #
-0.49999999999988564702846360887634 1335:1 4385:1 #
-0.013657103777576562464446396916173 1335:1 2529:1 #
-0.013621596576652322818645757251943 1335:1 2024:1 #
-0.013584611535064544662887442427746 1335:1 2624:1 #
-0.49999999999988564702846360887634 1335:1 3094:1 #
-0.49999999999988564702846360887634 1335:1 4195:1 #
0.49999999999988564702846360887634 1335:1 2956:1 #
-0.013561362342442401240916183269292 1335:1 3543:1 #
-0.013575532847210178277741476904339 1335:1 4999:1 #
-0.01351192197105033354631586917094 1335:1 3145:1 #
-0.013609377930913064275175727857459 1335:1 4995:1 #
-0.016242871532500331027693007968082 1421:1 2708:1 #
-0.49999999999988564702846360887634 1189:1 3380:1 #
0.49999999999988564702846360887634 96:1 3546:1 #
0.49999999999988564702846360887634 96:1 3792:1 #
0.49999999999988564702846360887634 421:1 2018:1 #
0.49999999999988564702846360887634 1268:1 2018:1 #
-0.49999999999988564702846360887634 389:1 2322:1 #
-0.49999999999988564702846360887634 100:1 2322:1 #
-0.49999999999988564702846360887634 1021:1 2322:1 #
-0.011407460765032517713279958115891 1371:1 4812:1 #
-0.49999999999988564702846360887634 1021:1 2322:1 #
-0.49999999999988564702846360887634 433:1 2322:1 #
0.49999999999988564702846360887634 35:1 2322:1 #
-0.20970480533992119642761053910363 886:1 3467:1 #
0.49999999999988564702846360887634 135:1 3758:1 #
0.49999999999988564702846360887634 1065:1 4427:1 #
0.49999999999988564702846360887634 600:1 3037:1 #
-0.49999999999988564702846360887634 236:1 2335:1 #
-0.49999999999988564702846360887634 1089:1 2335:1 #
-0.49999999999988564702846360887634 1061:1 2335:1 #
-0.49999999999988564702846360887634 762:1 2335:1 #
-0.014911212310392274460468797769863 1064:1 2743:1 #
-0.49999999999988564702846360887634 135:1 2322:1 #
0.49999999999988564702846360887634 1061:1 2235:1 #
0.49999999999988564702846360887634 1061:1 1884:1 #
0.49999999999988564702846360887634 536:1 3094:1 #
0.49999999999988564702846360887634 252:1 3094:1 #
0.49999999999988564702846360887634 401:1 3094:1 #
-0.49999999999988564702846360887634 1061:1 2335:1 #
-0.014732050373927996211875779408729 1494:1 5216:1 #
-0.49999999999988564702846360887634 1315:1 3968:1 #
-0.49999999999988564702846360887634 959:1 3788:1 #
-0.46526221743273921127581616019597 391:1 3094:1 #
-0.48813933258078612276165131333983 1309:1 3094:1 #
-0.49999999999988564702846360887634 1268:1 2956:1 #
-0.013159881012581808867878407909302 1563:1 5019:1 #
0.49999999999988564702846360887634 699:1 4195:1 #
0.49999999999988564702846360887634 1411:1 4195:1 #
0.49999999999988564702846360887634 142:1 4195:1 #
0.49999999999988564702846360887634 1252:1 3075:1 #
0.49999999999988564702846360887634 1268:1 2789:1 #
0.49999999999988564702846360887634 1268:1 3908:1 #
0.49999999999988564702846360887634 1268:1 2232:1 #
0.49999999999988564702846360887634 1268:1 3890:1 #
0.49999999999988564702846360887634 959:1 3094:1 #
0.49999999999988564702846360887634 1591:1 3094:1 #
0.49999999999988564702846360887634 1342:1 3094:1 #
0.49999999999988564702846360887634 386:1 3094:1 #
0.4454181708623072277752896752645 35:1 2322:1 #
-0.49999999999988564702846360887634 1268:1 2322:1 #
-0.49999999999988564702846360887634 142:1 2322:1 #
0.49999999999988564702846360887634 762:1 2335:1 #
0.49999999999988564702846360887634 236:1 2335:1 #
-0.49999999999988564702846360887634 699:1 4385:1 #
-0.49999999999988564702846360887634 699:1 2789:1 #
-0.49999999999988564702846360887634 776:1 4385:1 #
0.47988642036599271634145225107204 35:1 2322:1 #
-0.049360520320040096597935530553514 1342:1 3436:1 #
-0.49999999999988564702846360887634 536:1 2322:1 #
-0.49999999999988564702846360887634 252:1 2322:1 #
-0.49999999999988564702846360887634 401:1 2322:1 #
-0.0070514926102829833531870917795459 75:1 5314:1 #
-0.49999999999988564702846360887634 600:1 2322:1 #
-0.49999999999988564702846360887634 1591:1 2322:1 #
0.49999999999988564702846360887634 391:1 2956:1 #
0.49999999999988564702846360887634 391:1 4572:1 #
0.49999999999988564702846360887634 391:1 4134:1 #
0.49999999999988564702846360887634 391:1 4247:1 #
-0.45313298262576351405073182831984 391:1 3890:1 #
-0.49999999999988564702846360887634 1232:1 4385:1 #
-0.49970486283590248577368697624479 391:1 2789:1 #
-0.49999999999988564702846360887634 391:1 4385:1 #
0.49999999999988564702846360887634 35:1 2322:1 #
-0.49999999999988564702846360887634 131:1 2322:1 #
-0.083632527118790683795523932531069 1748:1 4897:1 #
-0.49999999999988564702846360887634 707:1 2322:1 #
-0.014869609053405390131086249994041 328:1 3141:1 #
-0.49999999999988564702846360887634 1211:1 4195:1 #
-0.012213453729711498674248559836997 1189:1 2344:1 #
-0.013544027234338413406833367957915 1065:1 3726:1 #
-0.49999999999988564702846360887634 1252:1 2594:1 #
-0.45398489157389443349188695719931 171:1 4797:1 #
-0.30208528735819617505597989293165 374:1 4572:1 #
0.49999999999988564702846360887634 959:1 4615:1 #
0.49999999999988564702846360887634 1591:1 2596:1 #
0.49999999999988564702846360887634 1591:1 2498:1 #
0.49999999999988564702846360887634 1591:1 2944:1 #
0.0017418457134791703877496615859855 645:1 2322:1 #
-0.49999999999988564702846360887634 1591:1 2965:1 #
-0.49692206804947225418089828963275 1591:1 4427:1 #
-0.014840997023419495379203958407288 1591:1 3037:1 #
0.49999999999988564702846360887634 171:1 1944:1 #
0.49999999999988564702846360887634 171:1 3250:1 #
0.49999999999988564702846360887634 171:1 4039:1 #
0.49999999999988564702846360887634 171:1 4719:1 #
-0.10882421288725317720658125608679 171:1 4615:1 #
-0.013717832225826245839961359251902 1211:1 5144:1 #
-0.49999999999988564702846360887634 171:1 2789:1 #
0.49999999999988564702846360887634 1591:1 3754:1 #
0.49999999999988564702846360887634 1591:1 2018:1 #
0.49999999999988564702846360887634 1342:1 3380:1 #
0.49999999999988564702846360887634 1342:1 1806:1 #
-0.49999999999988564702846360887634 1591:1 1806:1 #
-0.49999999999988564702846360887634 1342:1 1806:1 #
-0.05662384831897300518921412049167 1591:1 2018:1 #
0.49999999999988564702846360887634 1009:1 4572:1 #
0.49999999999988564702846360887634 1642:1 4572:1 #
0.49999999999988564702846360887634 270:1 4572:1 #
-0.034340503877573813618084841436939 959:1 4572:1 #
0.49999999999988564702846360887634 312:1 1806:1 #
0.49999999999988564702846360887634 1572:1 1806:1 #
-0.49999999999988564702846360887634 805:1 4562:1 #
-0.01226782669562664906948157295119 167:1 1860:1 #
-0.067387536181309548588558300252771 167:1 3764:1 #
-0.32396073902813804501477079611504 167:1 2262:1 #
0.49999999999988564702846360887634 1342:1 1806:1 #
0.49999999999988564702846360887634 959:1 2479:1 #
0.49999999999988564702846360887634 959:1 2256:1 #
-0.49999999999988564702846360887634 959:1 2965:1 #
-0.49999999999988564702846360887634 959:1 2322:1 #
0.49999999999988564702846360887634 805:1 3357:1 #
0.49999999999988564702846360887634 1215:1 3764:1 #
0.49999999999988564702846360887634 779:1 3764:1 #
0.49999999999988564702846360887634 1055:1 3764:1 #
0.49999999999988564702846360887634 1070:1 3764:1 #
-0.49999999999988564702846360887634 1342:1 3754:1 #
-0.014944507641648192147743046120922 1084:1 1941:1 #
0.49999999999988564702846360887634 35:1 2322:1 #
-0.49999999999988564702846360887634 35:1 2322:1 #
0.49999999999988564702846360887634 1342:1 2262:1 #
-0.011098682830219979908448202365889 1061:1 4431:1 #
9.1795264158867073689407334313728e-05 309:1 2322:1 #
0.49999999999988564702846360887634 1065:1 2965:1 #
0.49999999999988564702846360887634 1061:1 2335:1 #
-0.49999999999988564702846360887634 1065:1 1806:1 #
-0.49999999999988564702846360887634 1065:1 2956:1 #
-0.49999999999988564702846360887634 1065:1 4134:1 #
-0.1392761845641337092871481218026 373:1 4928:1 #
0.49999999999988564702846360887634 844:1 3764:1 #
0.49999999999988564702846360887634 1336:1 3764:1 #
0.49999999999988564702846360887634 755:1 3764:1 #
0.49999999999988564702846360887634 546:1 3764:1 #
0.49999999999988564702846360887634 606:1 3764:1 #
-0.083451881851390574684756984424894 1748:1 5387:1 #
0.49999999999988564702846360887634 1065:1 4444:1 #
0.49999999999988564702846360887634 1065:1 3987:1 #
0.49999999999988564702846360887634 1065:1 4809:1 #
-0.49999999999988564702846360887634 188:1 4975:1 #
-0.49999999999988564702846360887634 546:1 2789:1 #
0.49999999999988564702846360887634 1342:1 4134:1 #
0.49999999999988564702846360887634 1342:1 4039:1 #
0.49999999999988564702846360887634 1342:1 5101:1 #
-0.013334349025932112908776616677642 1211:1 2359:1 #
0.49999999999988564702846360887634 188:1 4094:1 #
-0.227938025495988572100003466403 1336:1 4134:1 #
-0.45974128839504080357158954939223 707:1 3357:1 #
-0.20501637298129482545050450426061 776:1 2479:1 #
-0.47606274504158613281035172803968 1336:1 4385:1 #
-0.2098960406698708869299707657774 1411:1 2379:1 #
0.49999999999988564702846360887634 270:1 4427:1 #
0.49999999999988564702846360887634 1122:1 4427:1 #
0.49999999999988564702846360887634 737:1 4427:1 #
-0.30094626414191621988081237759616 1342:1 4427:1 #
0.49999999999988564702846360887634 707:1 2311:1 #
0.49999999999988564702846360887634 959:1 4134:1 #
0.49999999999988564702846360887634 1336:1 5432:1 #
-0.49999999999988564702846360887634 737:1 3380:1 #
-0.38137675199027937233964280494547 270:1 4039:1 #
-0.45565087912680091175587904217537 96:1 3890:1 #
0.49999999999988564702846360887634 1342:1 3890:1 #
-0.42889721968519600725500140470103 1342:1 3094:1 #
0.32059033587130369991058387313387 35:1 2322:1 #
-0.49999999999988564702846360887634 1342:1 2322:1 #
0.49999999999988564702846360887634 188:1 4039:1 #
0.49999999999988564702846360887634 1336:1 4966:1 #
-0.42956786065218943715393606908037 421:1 3075:1 #
-0.0023754528626423465631489762017736 1555:1 3455:1 #
0.49999999999988564702846360887634 690:1 1806:1 #
0.49999999999988564702846360887634 1645:1 1806:1 #
0.49999999999988564702846360887634 1300:1 1806:1 #
0.49999999999988564702846360887634 1398:1 1806:1 #
0.49999999999988564702846360887634 1114:1 1806:1 #
-0.43233246264297248151464714283065 1645:1 1806:1 #
-0.49999999999988564702846360887634 386:1 1806:1 #
-0.49999999999988564702846360887634 1070:1 1806:1 #
-0.49999999999988564702846360887634 1065:1 1806:1 #
0.49999999999988564702846360887634 421:1 3364:1 #
0.49999999999988564702846360887634 421:1 2284:1 #
-0.077412789488565447726386992144398 421:1 2018:1 #
-0.49999999999988564702846360887634 421:1 3844:1 #
-0.014722759062510006045076949021677 421:1 5014:1 #
-0.30298252118639312779890815363615 421:1 3331:1 #
0.001418647849317583586881141854974 1555:1 2322:1 #
0.49999999999988564702846360887634 1070:1 1806:1 #
0.49999999999988564702846360887634 988:1 1806:1 #
0.49999999999988564702846360887634 626:1 1806:1 #
0.49999999999988564702846360887634 1146:1 1806:1 #
-0.49999999999988564702846360887634 1157:1 1806:1 #
-0.44356824341805783928904816093564 1478:1 1806:1 #
-0.40673153590140320723378408729332 824:1 1806:1 #
-0.49999999999988564702846360887634 386:1 2311:1 #
-0.49999999999988564702846360887634 386:1 4134:1 #
-0.39762253052069723713302096257394 1581:1 3364:1 #
-0.016385117863938036819604349147994 386:1 4646:1 #
0.49999999999988564702846360887634 1065:1 2789:1 #
-0.0006351274475146773124123456000234 699:1 4405:1 #
-0.49999999999988564702846360887634 1065:1 2789:1 #
0.49999999999988564702846360887634 1367:1 3844:1 #
0.49999999999988564702846360887634 940:1 3844:1 #
0.49999999999988564702846360887634 216:1 3844:1 #
0.49999999999988564702846360887634 658:1 3844:1 #
-0.49999999999988564702846360887634 844:1 2322:1 #
-0.49999999999988564702846360887634 606:1 2322:1 #
-0.49999999999988564702846360887634 755:1 2322:1 #
-0.49999999999988564702846360887634 35:1 2322:1 #
0.49999999999988564702846360887634 1065:1 2789:1 #
0.49999999999988564702846360887634 1157:1 2789:1 #
0.49999999999988564702846360887634 1631:1 3331:1 #
0.49999999999988564702846360887634 1157:1 5065:1 #
-0.49999999999988564702846360887634 1065:1 2789:1 #
0.49999999999988564702846360887634 35:1 2322:1 #
-0.49999999999988564702846360887634 389:1 5065:1 #
-0.35513579963740027345409089321038 134:1 4039:1 #
-0.49999999999988564702846360887634 988:1 3792:1 #
-0.49999999999988564702846360887634 626:1 2965:1 #
-0.015851961080127097147851600311697 860:1 4785:1 #
0.49999999999988564702846360887634 1064:1 3075:1 #
0.49999999999988564702846360887634 1174:1 4427:1 #
0.49999999999988564702846360887634 1704:1 4427:1 #
-0.49999999999988564702846360887634 1114:1 3075:1 #
0.49999999999988564702846360887634 1326:1 4385:1 #
-0.20228485794440809186767182836775 699:1 3075:1 #
-0.013570836504965731739158485424923 1335:1 3782:1 #
0.49999999999988564702846360887634 1209:1 3788:1 #
0.49999999999988564702846360887634 1160:1 2018:1 #
-0.0017425260906024364615518607024569 1001:1 4351:1 #
-0.015143014649810188076983763494354 216:1 2285:1 #
-0.49999999999988564702846360887634 283:1 4763:1 #
-0.47254871167326950587295186778647 247:1 4371:1 #
-0.49999999999988564702846360887634 500:1 4763:1 #
0.49999999999988564702846360887634 1065:1 2789:1 #
0.49999999999988564702846360887634 1081:1 2018:1 #
0.49999999999988564702846360887634 791:1 2018:1 #
-0.013296055976880105653492591955001 1065:1 2018:1 #
0.49999999999988564702846360887634 959:1 3294:1 #
0.49999999999988564702846360887634 959:1 4076:1 #
-0.49999999999988564702846360887634 791:1 4719:1 #
-0.49894509648713603056080501119141 791:1 4385:1 #
0.49999999999988564702846360887634 445:1 2311:1 #
-0.45397055299308297637850273531512 445:1 2789:1 #
-0.4746111619408562853905664269405 1300:1 2789:1 #
-0.49999999999988564702846360887634 1268:1 2789:1 #
-0.48839913718736960301924909799709 779:1 2789:1 #
0.49999999999988564702846360887634 791:1 2218:1 #
0.49999999999988564702846360887634 791:1 3411:1 #
0.49999999999988564702846360887634 791:1 3034:1 #
0.49999999999988564702846360887634 791:1 5252:1 #
-0.49999999999988564702846360887634 791:1 2965:1 #
-0.28458206144799791381672093848465 752:1 3758:1 #
0.49999999999988564702846360887634 1431:1 2789:1 #
0.49999999999988564702846360887634 537:1 2789:1 #
0.49999999999988564702846360887634 1757:1 2789:1 #
0.49999999999988564702846360887634 1154:1 2789:1 #
-0.49999999999988564702846360887634 1615:1 2018:1 #
-0.22693824591167877091635318720364 1154:1 3890:1 #
-0.32744137803269662834182440747099 252:1 2018:1 #
0.49999999999988564702846360887634 699:1 3075:1 #
0.49999999999988564702846360887634 791:1 2789:1 #
-0.49999999999988564702846360887634 1070:1 2789:1 #
-0.014847581029052148160474189353408 846:1 1963:1 #
-0.49999999999988564702846360887634 737:1 2789:1 #
0.49999999999988564702846360887634 270:1 4434:1 #
0.49999999999988564702846360887634 270:1 2490:1 #
0.49999999999988564702846360887634 1300:1 2220:1 #
-0.40695488409276003860526316202595 1707:1 4385:1 #
-0.01464808098821486839757888276381 270:1 4656:1 #
-0.49999999999988564702846360887634 2:1 2789:1 #
0.49999999999988564702846360887634 863:1 3844:1 #
0.49999999999988564702846360887634 1001:1 2335:1 #
0.49999999999988564702846360887634 305:1 2789:1 #
0.49999999999988564702846360887634 546:1 1984:1 #
-0.49862018339551461565406498266384 546:1 3094:1 #
-0.30085497992575449544006005453411 1300:1 2479:1 #
-0.48583123254938087587362360864063 546:1 1806:1 #
0.49999999999988564702846360887634 1481:1 2789:1 #
0.49999999999988564702846360887634 720:1 2789:1 #
0.49999999999988564702846360887634 909:1 2789:1 #
-0.49999999999988564702846360887634 1481:1 2789:1 #
-0.48427713985458392675909067293105 1154:1 2789:1 #
0.49999999999988564702846360887634 546:1 2513:1 #
0.49999999999988564702846360887634 546:1 2327:1 #
0.49999999999988564702846360887634 546:1 3727:1 #
-0.014929059803575395193320218822919 552:1 3644:1 #
-0.014929059803575395193320218822919 552:1 3285:1 #
-0.49923509193199522293582504062215 270:1 2218:1 #
-0.49999999999988564702846360887634 909:1 4134:1 #
0.49999999999988564702846360887634 2:1 4169:1 #
0.49999999999988564702846360887634 338:1 2479:1 #
0.49999999999988564702846360887634 1232:1 2479:1 #
-0.29425073412413194073877775736037 1232:1 2479:1 #
-0.49999999999988564702846360887634 1232:1 4572:1 #
-0.49999999999988564702846360887634 221:1 2322:1 #
-0.016395074298959148167975641285921 606:1 2417:1 #
-0.49999999999988564702846360887634 338:1 3075:1 #
-0.49999999999988564702846360887634 699:1 2956:1 #
-0.49999999999988564702846360887634 1262:1 4134:1 #
-0.002940402753753013076476463538711 384:1 2965:1 #
0.49999999999988564702846360887634 1232:1 2789:1 #
0.49999999999988564702846360887634 1232:1 4719:1 #
0.49999999999988564702846360887634 777:1 4572:1 #
-0.49999999999988564702846360887634 1232:1 4719:1 #
-0.017196667129115050798304764612112 768:1 1829:1 #
-0.49999999999988564702846360887634 959:1 4385:1 #
0.49999999999988564702846360887634 699:1 4134:1 #
0.49999999999988564702846360887634 1613:1 4134:1 #
0.49999999999988564702846360887634 50:1 4134:1 #
0.49999999999988564702846360887634 438:1 4134:1 #
0.49999999999988564702846360887634 210:1 4134:1 #
-0.49999999999988564702846360887634 171:1 4134:1 #
-0.49999999999988564702846360887634 1114:1 4134:1 #
-0.49999999999988564702846360887634 34:1 4134:1 #
-0.49999999999988564702846360887634 959:1 3294:1 #
-0.49999999999988564702846360887634 959:1 2789:1 #
0.49999999999988564702846360887634 1114:1 4134:1 #
0.49999999999988564702846360887634 151:1 4134:1 #
0.49999999999988564702846360887634 1114:1 2348:1 #
0.49999999999988564702846360887634 34:1 2101:1 #
-0.44297340306057847447718245348369 438:1 3094:1 #
-0.22202769174384151540380116784945 546:1 3094:1 #
0.49999999999988564702846360887634 959:1 3754:1 #
0.49999999999988564702846360887634 386:1 4868:1 #
-0.49999999999988564702846360887634 1230:1 3754:1 #
-0.45947432205537608318479669833323 467:1 3754:1 #
-0.49999999999988564702846360887634 959:1 4868:1 #
-0.49999999999988564702846360887634 386:1 2789:1 #
-0.0018456618154403987581285706554013 1342:1 3137:1 #
-0.49999999999988564702846360887634 537:1 3792:1 #
-0.052649679526976189691822582972236 1642:1 2999:1 #
-0.052619520053467150333403878903482 1642:1 2343:1 #
0.49999999999988564702846360887634 737:1 3294:1 #
0.49999999999988564702846360887634 438:1 4854:1 #
0.49999999999988564702846360887634 1232:1 1810:1 #
0.49999999999988564702846360887634 1232:1 1850:1 #
0.49999999999988564702846360887634 1232:1 4473:1 #
-0.10927616329717682042144133447437 1232:1 4572:1 #
-0.47187122328418684702455720980652 1268:1 3294:1 #
-0.49999999999988564702846360887634 270:1 3294:1 #
0.49999999999988564702846360887634 1070:1 3792:1 #
0.49999999999988564702846360887634 270:1 3792:1 #
-0.49999999999988564702846360887634 1114:1 3792:1 #
-0.49999999999988564702846360887634 600:1 3792:1 #
-0.27666708985812116239344504720066 68:1 3792:1 #
-0.27690247708900828094158441672334 1255:1 3792:1 #
0.49999999999988564702846360887634 1268:1 3890:1 #
0.49999999999988564702846360887634 1489:1 3294:1 #
0.49999999999988564702846360887634 619:1 3294:1 #
0.49999999999988564702846360887634 942:1 3294:1 #
0.49999999999988564702846360887634 988:1 3792:1 #
0.49999999999988564702846360887634 1186:1 3792:1 #
0.49999999999988564702846360887634 1123:1 3792:1 #
0.49999999999988564702846360887634 571:1 3792:1 #
0.49999999999988564702846360887634 1417:1 3792:1 #
-0.49999999999988564702846360887634 270:1 3294:1 #
-0.49999999999988564702846360887634 942:1 4371:1 #
0.49999999999988564702846360887634 774:1 3792:1 #
0.49999999999988564702846360887634 587:1 3792:1 #
0.49999999999988564702846360887634 1756:1 3792:1 #
0.49999999999988564702846360887634 722:1 3792:1 #
-0.49999999999988564702846360887634 619:1 3792:1 #
-0.49999999999988564702846360887634 428:1 3792:1 #
-0.27648409473918300616190890650614 837:1 3792:1 #
-0.49999999999988564702846360887634 1397:1 3792:1 #
-0.27556246477955043117091804560914 201:1 3792:1 #
0.49999999999988564702846360887634 600:1 3294:1 #
0.49999999999988564702846360887634 600:1 1859:1 #
0.49999999999988564702846360887634 600:1 2663:1 #
0.49999999999988564702846360887634 537:1 2000:1 #
-0.49150128672320775313764329439437 600:1 2789:1 #
-0.49999999999988564702846360887634 1756:1 3380:1 #
-0.48851640203386170746568950562505 438:1 2789:1 #
0.49999999999988564702846360887634 345:1 3792:1 #
0.49999999999988564702846360887634 1185:1 3792:1 #
0.49999999999988564702846360887634 1364:1 3792:1 #
0.49999999999988564702846360887634 338:1 3792:1 #
0.49999999999988564702846360887634 408:1 3792:1 #
-0.27558273552764822600380512085394 1535:1 3792:1 #
-0.27594048349177069390236738399835 191:1 3792:1 #
-0.49999999999988564702846360887634 934:1 3792:1 #
-0.27672379386053647110088604677003 898:1 3792:1 #
0.49999999999988564702846360887634 1463:1 2789:1 #
0.49999999999988564702846360887634 84:1 2789:1 #
0.49999999999988564702846360887634 1233:1 2789:1 #
0.49999999999988564702846360887634 1082:1 2789:1 #
-0.16148899798160754048836906804354 2:1 2789:1 #
-0.41456477884716969040113099254086 408:1 4134:1 #
-0.27648409473918300616190890650614 718:1 3792:1 #
-0.27667590126463348365604133505258 584:1 3792:1 #
-0.27690247708900828094158441672334 1389:1 3792:1 #
-0.27690247708900828094158441672334 549:1 3792:1 #
0.49999999999988564702846360887634 831:1 2789:1 #
0.49999999999988564702846360887634 1746:1 2789:1 #
0.49999999999988564702846360887634 909:1 2789:1 #
-0.013686737485117062007589083805215 1335:1 4429:1 #
-0.33692611798225186037214484713331 66:1 2789:1 #
-0.013987315383719944872353835307877 1209:1 2039:1 #
-0.40542158646549442124751294613816 722:1 4572:1 #
-0.49999999999988564702846360887634 391:1 3890:1 #
0.49999999999988564702846360887634 1522:1 3380:1 #
0.49999999999988564702846360887634 1265:1 3380:1 #
0.49999999999988564702846360887634 836:1 3380:1 #
0.49999999999988564702846360887634 1287:1 3380:1 #
0.49999999999988564702846360887634 1138:1 3380:1 #
-0.070425282379011244771049859991763 1285:1 3908:1 #
0.49999999999988564702846360887634 1123:1 5065:1 #
-0.070448878861969488340832867834251 1140:1 3908:1 #
-0.35477351709808990776195969374385 1611:1 2956:1 #
0.49999999999988564702846360887634 860:1 1806:1 #
0.49999999999988564702846360887634 619:1 4519:1 #
0.49999999999988564702846360887634 942:1 4515:1 #
-0.42214112457786562293549081914534 1489:1 1806:1 #
-0.34044279453610248875605748253292 50:1 1806:1 #
-0.39652912329611966768538877659012 960:1 1806:1 #
-0.48930057919252539777588140168518 1335:1 3294:1 #
-0.16666245620319297682243586677941 1425:1 1806:1 #
0.49999999999988564702846360887634 403:1 2218:1 #
-0.013701444240117632497599764462848 1268:1 3228:1 #
-0.013701444240117391371036603686662 1268:1 3816:1 #
-0.013712889170054962106881646377587 1268:1 1853:1 #
-0.013706431392065877850061639264823 1268:1 2759:1 #
-0.020729019232954261353629732411719 1798:1 3331:1 #
-0.40675809476344437776162976660999 1221:1 1806:1 #
-0.49999999999988564702846360887634 730:1 2322:1 #
-0.49999999999988564702846360887634 236:1 2335:1 #
-0.012483199193507450025508731528134 1209:1 1986:1 #
-0.49022369958935357869833637778356 1555:1 1806:1 #
0.49999999999988564702846360887634 1582:1 4719:1 #
0.49999999999988564702846360887634 876:1 4719:1 #
0.49999999999988564702846360887634 95:1 4719:1 #
-0.013841889209197821841712539026048 1149:1 2376:1 #
-0.49999999999988564702846360887634 1582:1 4719:1 #
-0.083431917376703301769680365396198 1266:1 3095:1 #
-0.012309244418776899010481429286301 25:1 2171:1 #
-0.33584189020574384265671596949687 942:1 2789:1 #
-0.49999999999988564702846360887634 403:1 2956:1 #
-0.46008915751174250807764565252 1254:1 4195:1 #
-0.013332491516960032207350650423905 813:1 3398:1 #
-0.019683505654510713434035551472334 776:1 3345:1 #
0.49999999999988564702846360887634 1211:1 4416:1 #
0.018544384992753279450816705775651 133:1 2322:1 #
0.49999999999988564702846360887634 1582:1 4719:1 #
-0.49999999999988564702846360887634 1582:1 4719:1 #
-0.26232138651262987272261284488195 1190:1 4719:1 #
-0.49999999999988564702846360887634 1241:1 4719:1 #
-0.49999999999988564702846360887634 1528:1 4719:1 #
-0.26232138651263003925606653865543 1630:1 4719:1 #
0.49999999999988564702846360887634 942:1 4872:1 #
0.49999999999988564702846360887634 844:1 1842:1 #
0.49999999999988564702846360887634 17:1 5065:1 #
-0.42564196894659134251526211301098 1595:1 4134:1 #
-0.40443196801584180288813286097138 908:1 4134:1 #
-0.14027692246448841828510012419429 597:1 4871:1 #
0.49999999999988564702846360887634 838:1 4719:1 #
0.49999999999988564702846360887634 1580:1 4719:1 #
0.49999999999988564702846360887634 1219:1 4719:1 #
0.49999999999988564702846360887634 1102:1 4719:1 #
-0.26131839560504249719841141086363 94:1 4719:1 #
-0.26232138651262981721146161362412 894:1 4719:1 #
-0.49999999999988564702846360887634 522:1 4719:1 #
-0.49999999999988564702846360887634 334:1 4719:1 #
-0.49999999999988564702846360887634 1157:1 3726:1 #
0.49999999999988564702846360887634 334:1 4719:1 #
0.49999999999988564702846360887634 1449:1 4719:1 #
0.49999999999988564702846360887634 1582:1 4719:1 #
-0.49999999999988564702846360887634 334:1 4719:1 #
-0.49999999999988564702846360887634 816:1 4719:1 #
-0.49999999999988564702846360887634 849:1 4719:1 #
-0.26206244540223166961112610806595 534:1 4719:1 #
-0.49999999999988564702846360887634 1449:1 2789:1 #
-0.27558273552764833702610758336959 622:1 3792:1 #
-0.27556246477955026463746435183566 639:1 3792:1 #
-0.2755827355276479484480489645648 868:1 3792:1 #
-0.27558273552764800395920019582263 509:1 3792:1 #
0.49999999999988564702846360887634 1157:1 4719:1 #
0.49999999999988564702846360887634 1799:1 4719:1 #
0.49999999999988564702846360887634 1751:1 4719:1 #
-0.49999999999988564702846360887634 1799:1 4719:1 #
-0.49999999999988564702846360887634 139:1 4719:1 #
-0.26195687160154779160592397602159 951:1 4719:1 #
-0.26210529350713945850870345566364 1617:1 4719:1 #
0.49999999999988564702846360887634 1070:1 3792:1 #
0.4039620808449717048738136782049 1342:1 2322:1 #
0.49999999999988564702846360887634 1617:1 4719:1 #
0.49999999999988564702846360887634 1699:1 4719:1 #
-0.26151805639786979140737344096124 127:1 4719:1 #
-0.26127341006668736156370869139209 586:1 4719:1 #
-0.26131839560504332986567987973103 1728:1 4719:1 #
-0.49999999999988564702846360887634 1798:1 4719:1 #
0.49999999999988564702846360887634 791:1 2789:1 #
0.49999999999988564702846360887634 1449:1 4719:1 #
0.49999999999988564702846360887634 753:1 4719:1 #
0.49999999999988564702846360887634 692:1 4719:1 #
0.49999999999988564702846360887634 1748:1 4719:1 #
0.49999999999988564702846360887634 1403:1 4719:1 #
-0.26128442062666562550887761062768 577:1 4719:1 #
-0.26128442062666645817614607949508 399:1 4719:1 #
-0.26131839560504294128762126092624 624:1 4719:1 #
-0.2615214154489327036401391524123 1094:1 4719:1 #
-0.26232138651263015027836900117109 1243:1 4719:1 #
0.49999999999988564702846360887634 1673:1 4719:1 #
-0.209811095682237547244142206182 1650:1 2498:1 #
-0.26164993027191119079333248009789 1791:1 4719:1 #
-0.49999999999988564702846360887634 798:1 4719:1 #
-0.26210529350713962504215714943712 905:1 4719:1 #
-0.26132376213090169336794588161865 1159:1 4719:1 #
-0.26178872635022576442764830062515 1588:1 4719:1 #
-0.26220653058784310074358359088365 858:1 4719:1 #
-0.26127341006668769463061607893906 58:1 4719:1 #
-0.26128442062666601408693622943247 24:1 4719:1 #
-0.26151805639787029100773452228168 1286:1 4719:1 #
-0.26128442062666579204233130440116 367:1 4719:1 #
-0.26132376213090169336794588161865 684:1 4719:1 #
-0.49999999999988564702846360887634 142:1 4719:1 #
-0.26131839560504277475416756715276 255:1 4719:1 #
0.49999999999988564702846360887634 699:1 3792:1 #
0.49999999999988564702846360887634 1675:1 5065:1 #
-0.2623213865126291510776468385302 1568:1 4719:1 #
-0.2618788947845304138084543410514 1184:1 4719:1 #
-0.26235330721701277667534668580629 1776:1 4719:1 #
-0.26127341006668680645219637881382 1369:1 4719:1 #
-0.26131839560504283026531879841059 1088:1 4719:1 #
-0.26128442062666534795312145433854 1180:1 4719:1 #
-0.26127341006668680645219637881382 158:1 4719:1 #
-0.26132376213090124927873603155604 288:1 4719:1 #
-0.2614116932374539459260631701909 55:1 4719:1 #
0.49999999999988564702846360887634 1157:1 4719:1 #
0.49999999999988564702846360887634 1580:1 4719:1 #
0.49999999999988564702846360887634 838:1 4719:1 #
0.49999999999988564702846360887634 1582:1 4719:1 #
-0.49376679291073521937960322247818 791:1 3844:1 #
-0.49999999999988564702846360887634 791:1 2335:1 #
-0.49999999999988564702846360887634 791:1 5065:1 #
0.0099644079725747791709267175974674 531:1 2322:1 #
0.49999999999988564702846360887634 1650:1 2956:1 #
-0.014526031305324080267205033578648 909:1 3803:1 #
-0.49999999999988564702846360887634 148:1 3380:1 #
-0.012675481589651788061345882852038 25:1 5378:1 #
0.12839674270267695255220985472988 1656:1 2322:1 #
0.27210836418183081963917402390507 1425:1 2322:1 #
-0.012675481589651788061345882852038 25:1 2567:1 #
0.49999999999988564702846360887634 421:1 4385:1 #
0.49999999999988564702846360887634 1595:1 4385:1 #
0.49999999999988564702846360887634 1198:1 4385:1 #
0.49999999999988564702846360887634 270:1 4385:1 #
-0.083649334417335019509209814714268 1070:1 3294:1 #
-0.49999999999988564702846360887634 1064:1 4427:1 #
-0.45921763915130731081859494224773 1082:1 4427:1 #
0.49999999999988564702846360887634 2:1 2965:1 #
0.49999999999988564702846360887634 1798:1 2965:1 #
0.49999999999988564702846360887634 433:1 2965:1 #
0.49999999999988564702846360887634 66:1 2594:1 #
-0.039609653443620662649493624485331 537:1 2348:1 #
-0.18786252448681350912806919950526 1449:1 2327:1 #
-0.49999999999988564702846360887634 587:1 4809:1 #
-0.4069020301001217143621602190251 1431:1 4872:1 #
-0.43664097997887219015922255493933 1123:1 4872:1 #
0.49999999999988564702846360887634 1154:1 2956:1 #
-0.013248597600555411801792615733575 1563:1 2399:1 #
0.49999999999988564702846360887634 1342:1 2956:1 #
-0.49999999999988564702846360887634 1146:1 2322:1 #
-0.49999999999988564702846360887634 1160:1 2322:1 #
-0.49999999999988564702846360887634 692:1 2322:1 #
-0.49999999999988564702846360887634 988:1 2322:1 #
0.49999999999988564702846360887634 386:1 3968:1 #
-0.49999999999988564702846360887634 1061:1 2284:1 #
-0.49999999999988564702846360887634 305:1 4966:1 #
-0.012629481240134361741400681466985 571:1 5241:1 #
-0.23757645758540468783337473723805 860:1 3764:1 #
-0.0014903268293580129721931371022947 476:1 5012:1 #
-0.49999999999988564702846360887634 1081:1 2322:1 #
-0.49999999999988564702846360887634 1572:1 2322:1 #
-0.49999999999988564702846360887634 151:1 2322:1 #
-0.49999999999988564702846360887634 1631:1 2322:1 #
-0.49999999999988564702846360887634 338:1 5065:1 #
0.49999999999988564702846360887634 1254:1 2592:1 #
0.49999999999988564702846360887634 428:1 4763:1 #
0.49999999999988564702846360887634 1065:1 4371:1 #
0.49999999999988564702846360887634 707:1 4562:1 #
-0.49999999999988564702846360887634 1065:1 4444:1 #
-0.49999999999988564702846360887634 1522:1 3968:1 #
-0.49999999999988564702846360887634 1065:1 2789:1 #
0.49999999999988564702846360887634 1021:1 2322:1 #
-0.011811434237943174707652360666543 333:1 4252:1 #
0.49999999999988564702846360887634 1707:1 2322:1 #
-0.49999999999988564702846360887634 844:1 2592:1 #
-0.39236342040210303583336326482822 1157:1 4039:1 #
0.49999999999988564702846360887634 1656:1 2322:1 #
0.49999999999988564702846360887634 791:1 2789:1 #
0.49999999999988564702846360887634 908:1 2702:1 #
-0.49999999999988564702846360887634 791:1 4385:1 #
-0.49999999999988564702846360887634 791:1 2965:1 #
0.49999999999988564702846360887634 1397:1 3788:1 #
0.49999999999988564702846360887634 743:1 4572:1 #
-0.49999999999988564702846360887634 571:1 3788:1 #
-0.49999999999988564702846360887634 988:1 3788:1 #
-0.32285320775394332759589133274858 692:1 2789:1 #
-0.49999999999988564702846360887634 433:1 4515:1 #
-0.18438338233406725841234674589941 1580:1 4421:1 #
0.49999999999988564702846360887634 791:1 2789:1 #
-0.010837520327888835666718669870079 1323:1 4120:1 #
-0.49999999999988564702846360887634 791:1 2322:1 #
0.49999999999988564702846360887634 523:1 3890:1 #
0.49999999999988564702846360887634 1241:1 4566:1 #
0.49999999999988564702846360887634 905:1 4426:1 #
0.49999999999988564702846360887634 959:1 2594:1 #
0.49999999999988564702846360887634 1309:1 3788:1 #
-0.32276392989911989461759844743938 777:1 2594:1 #
-0.49999999999988564702846360887634 1342:1 5252:1 #
-0.35139684602505916188874834915623 546:1 2789:1 #
0.13293224499681188799371511777281 1262:1 2322:1 #
-0.00069589521004126408953993632167112 1342:1 5335:1 #
-0.49999999999988564702846360887634 1431:1 2322:1 #
-0.49999999999988564702846360887634 1336:1 2322:1 #
0.49999999999988564702846360887634 522:1 2594:1 #
0.49999999999988564702846360887634 142:1 2594:1 #
0.49999999999988564702846360887634 1478:1 2594:1 #
-0.077426401408814696236682095786819 305:1 2594:1 #
-0.13906553223743434166692622966366 619:1 2594:1 #
0.49999999999988564702846360887634 247:1 2322:1 #
0.10697309901586044000865172165504 813:1 2322:1 #
0.49999999999988564702846360887634 1230:1 2322:1 #
0.49999999999988564702846360887634 467:1 2322:1 #
-0.00040683355991355529823749748175032 606:1 3764:1 #
-0.13853519324318711025689765392599 1582:1 4355:1 #
-0.13853519324318730454592696332838 1582:1 2070:1 #
-0.15365432199074202657129717408679 838:1 3159:1 #
-0.15365432199074202657129717408679 838:1 4653:1 #
0.49999999999988564702846360887634 1342:1 3968:1 #
-0.49462103115108646544939574596356 1342:1 1842:1 #
-0.40395260154867695945313244010322 1398:1 3764:1 #
-0.49999999999988564702846360887634 774:1 3764:1 #
-0.3710409802842272730671879799047 1463:1 3764:1 #
0.49999999999988564702846360887634 252:1 2965:1 #
0.49999999999988564702846360887634 305:1 4385:1 #
-0.36296358429210595630820535006933 836:1 3294:1 #
-0.49999999999988564702846360887634 1154:1 3987:1 #
-0.13928917393855966277982361134491 1051:1 3135:1 #
0.43401096243624132098304357896268 1335:1 2322:1 #
-0.49999999999988564702846360887634 1070:1 3788:1 #
0.49999999999988564702846360887634 148:1 2322:1 #
0.49999999999988564702846360887634 35:1 2322:1 #
-0.49999999999988564702846360887634 537:1 2322:1 #
0.49999999999988564702846360887634 270:1 3788:1 #
0.49999999999988564702846360887634 537:1 2789:1 #
0.49999999999988564702846360887634 988:1 2789:1 #
0.49999999999988564702846360887634 934:1 2322:1 #
-0.49999999999988564702846360887634 537:1 2322:1 #
0.49999999999988564702846360887634 433:1 2011:1 #
0.49999999999988564702846360887634 433:1 4856:1 #
0.49999999999988564702846360887634 433:1 4766:1 #
0.32014534567454056013247054579551 1268:1 2322:1 #
-0.49999999999988564702846360887634 1336:1 2322:1 #
0.49999999999988564702846360887634 1555:1 2322:1 #
0.49999999999988564702846360887634 832:1 2322:1 #
0.49999999999988564702846360887634 1221:1 2322:1 #
0.49999999999988564702846360887634 1528:1 2322:1 #
0.49999999999988564702846360887634 139:1 2322:1 #
-0.49999999999988564702846360887634 1082:1 2322:1 #
-0.49999999999988564702846360887634 1070:1 2322:1 #
0.49999999999988564702846360887634 1336:1 2965:1 #
0.49999999999988564702846360887634 776:1 2956:1 #
0.49999999999988564702846360887634 1397:1 3788:1 #
-0.011773874056282052080746325373184 304:1 4200:1 #
-0.011978418654696731948661181377247 27:1 3013:1 #
-0.011501584689343258283145132736536 1061:1 5181:1 #
-0.49999999999988564702846360887634 1336:1 2322:1 #
0.49999999999988564702846360887634 389:1 4371:1 #
0.49999999999988564702846360887634 421:1 4371:1 #
0.49999999999988564702846360887634 171:1 4385:1 #
0.49832090661675387810447546144133 391:1 2322:1 #
-0.49999999999988564702846360887634 1082:1 2322:1 #
0.49999999999988564702846360887634 782:1 2594:1 #
0.49999999999988564702846360887634 645:1 2594:1 #
0.49527008894516766357440928914002 1154:1 2322:1 #
-0.49999999999988564702846360887634 537:1 2322:1 #
-0.49999999999988564702846360887634 692:1 2322:1 #
0.49999999999988564702846360887634 1582:1 4719:1 #
0.49999999999988564702846360887634 142:1 3788:1 #
0.49999999999988564702846360887634 1582:1 4719:1 #
0.49999999999988564702846360887634 1241:1 2322:1 #
-0.49999999999988564702846360887634 1070:1 2322:1 #
0.49999999999988564702846360887634 1582:1 4719:1 #
0.49999999999988564702846360887634 849:1 2322:1 #
0.49999999999988564702846360887634 816:1 2322:1 #
0.49999999999988564702846360887634 1342:1 2322:1 #
-0.49999999999988564702846360887634 35:1 2789:1 #
0.49999999999988564702846360887634 1798:1 4385:1 #
0.49999999999988564702846360887634 1063:1 4385:1 #
0.49999999999988564702846360887634 1149:1 4385:1 #
0.49999999999988564702846360887634 707:1 2322:1 #
0.49999999999988564702846360887634 959:1 4763:1 #
0.49999999999988564702846360887634 433:1 1857:1 #
-0.49057469332431979935904564626981 776:1 2594:1 #
0.49999999999988564702846360887634 1342:1 3968:1 #
0.49999999999988564702846360887634 1034:1 2594:1 #
-0.49898794097103849054519741912372 942:1 4385:1 #
-0.46248541776552648530085320999206 433:1 4385:1 #
-0.49999999999988564702846360887634 270:1 4385:1 #
-0.43876927104644847243974936645827 1001:1 4385:1 #
0.49999999999988564702846360887634 1064:1 1806:1 #
0.49999999999988564702846360887634 860:1 1806:1 #
0.49999999999988564702846360887634 791:1 5065:1 #
0.49999999999988564702846360887634 1514:1 4039:1 #
0.49999999999988564702846360887634 692:1 3788:1 #
-0.49999999999988564702846360887634 1215:1 2322:1 #
-0.49999999999988564702846360887634 1055:1 2322:1 #
-0.49999999999988564702846360887634 1174:1 2322:1 #
-0.49999999999988564702846360887634 523:1 2322:1 #
0.49999999999988564702846360887634 433:1 4385:1 #
-0.49999999999988564702846360887634 433:1 3968:1 #
-0.49999999999988564702846360887634 171:1 2789:1 #
-0.49999999999988564702846360887634 1232:1 3788:1 #
0.49999999999988564702846360887634 421:1 4385:1 #
0.49999999999988564702846360887634 871:1 4385:1 #
0.49999999999988564702846360887634 1469:1 4385:1 #
0.49999999999988564702846360887634 47:1 4385:1 #
0.49999999999988564702846360887634 606:1 4385:1 #
-0.49999999999988564702846360887634 216:1 4385:1 #
-0.49999999999988564702846360887634 959:1 4385:1 #
-0.005158099516372619333659521601021 35:1 2025:1 #
-0.49999999999988564702846360887634 84:1 2956:1 #
-0.49999999999988564702846360887634 433:1 3968:1 #
-0.49999999999988564702846360887634 909:1 2965:1 #
0.49999999999988564702846360887634 1556:1 4385:1 #
0.49999999999988564702846360887634 1252:1 4385:1 #
0.49999999999988564702846360887634 1544:1 4385:1 #
0.49999999999988564702846360887634 1090:1 4385:1 #
0.49999999999988564702846360887634 1305:1 4385:1 #
-0.34734256385172390668714115236071 1397:1 4385:1 #
-0.49626116775109041512337171297986 142:1 4385:1 #
-0.49999999999988564702846360887634 959:1 4385:1 #
-0.49999999999988564702846360887634 1122:1 5065:1 #
-0.13847824044945150623320273552963 1582:1 4788:1 #
-0.13847824044945153398877835115854 1582:1 2977:1 #
-0.13847824044945156174435396678746 1582:1 3330:1 #
-0.13847824044945156174435396678746 1582:1 4224:1 #
-0.49999999999988564702846360887634 523:1 2322:1 #
-0.49999999999988564702846360887634 433:1 2322:1 #
-0.49999999999988564702846360887634 1232:1 4385:1 #
-0.49999999999988564702846360887634 1064:1 2594:1 #
-0.40519507891451245207292686245637 1556:1 2594:1 #
-0.39097921759958365051090822817059 1090:1 2594:1 #
-0.37593990657694775769925854547182 1305:1 2594:1 #
-0.49999999999988564702846360887634 421:1 2322:1 #
0.49999999999988564702846360887634 305:1 4385:1 #
0.49999999999988564702846360887634 444:1 4385:1 #
-0.33673361218342118261759310371417 645:1 2789:1 #
-0.49999999999988564702846360887634 832:1 3788:1 #
-0.49999999999988564702846360887634 1149:1 2789:1 #
-0.49999999999988564702846360887634 305:1 3844:1 #
-0.49999999999988564702846360887634 1309:1 2322:1 #
-0.49999999999988564702846360887634 305:1 3844:1 #
-0.49878336542912882212164049633429 428:1 3844:1 #
-0.49999999999988564702846360887634 1611:1 2322:1 #
-0.3710531649222373884455805637117 1326:1 3844:1 #
-0.49999999999988564702846360887634 658:1 2322:1 #
-0.49999999999988564702846360887634 1342:1 2322:1 #
-0.49999999999988564702846360887634 1335:1 2322:1 #
-0.49999999999988564702846360887634 1342:1 2789:1 #
-0.49999999999988564702846360887634 444:1 2594:1 #
-0.2045516540561360674388424740755 1367:1 2594:1 #
-0.49999999999988564702846360887634 776:1 2594:1 #
-0.49999999999988564702846360887634 433:1 2322:1 #
0.49999999999988564702846360887634 305:1 4385:1 #
-0.40516914798737646563608905125875 863:1 2594:1 #
-0.49999999999988564702846360887634 1312:1 4371:1 #
-0.49999999999988564702846360887634 707:1 3788:1 #
-0.49999999999988564702846360887634 414:1 3788:1 #
0.49999999999988564702846360887634 433:1 4385:1 #
0.49999999999988564702846360887634 752:1 4385:1 #
-0.49999999999988564702846360887634 959:1 4385:1 #
-0.49999999999988564702846360887634 1114:1 2965:1 #
-0.49999999999988564702846360887634 1591:1 2789:1 #
-0.49999999999988564702846360887634 1114:1 1850:1 #
0.49999999999988564702846360887634 1016:1 4385:1 #
0.49999999999988564702846360887634 1628:1 4385:1 #
0.49999999999988564702846360887634 918:1 4385:1 #
0.49999999999988564702846360887634 366:1 4385:1 #
0.49999999999988564702846360887634 309:1 4385:1 #
-0.49999999999988564702846360887634 1232:1 4385:1 #
-0.49999999999988564702846360887634 959:1 4385:1 #
-0.49999999999988564702846360887634 34:1 2965:1 #
0.49999999999988564702846360887634 1114:1 4385:1 #
-0.4993102524009237486168899522454 1034:1 4385:1 #
-0.49999999999988564702846360887634 1114:1 4385:1 #
0.49999999999988564702846360887634 1232:1 2594:1 #
0.49999999999988564702846360887634 1232:1 4628:1 #
0.49999999999988564702846360887634 1232:1 5409:1 #
0.49999999999988564702846360887634 1232:1 2284:1 #
-0.49999999999988564702846360887634 305:1 4385:1 #
-0.49999999999988564702846360887634 391:1 4385:1 #
-0.49999999999988564702846360887634 1326:1 4385:1 #
-0.49999999999988564702846360887634 658:1 4385:1 #
-0.49879791446048393765977380098775 309:1 4385:1 #
0.40355971339405383169207652827026 959:1 2322:1 #
0.49999999999988564702846360887634 1232:1 4385:1 #
0.48496429398051343895303944009356 1070:1 2322:1 #
-0.49999999999988564702846360887634 699:1 4385:1 #
-0.49999999999988564702846360887634 1367:1 4385:1 #
0.49999999999988564702846360887634 1082:1 2322:1 #
0.49999999999988564702846360887634 1336:1 3788:1 #
0.45348134947113105663873966477695 537:1 2335:1 #
0.49999999999988564702846360887634 959:1 2956:1 #
0.49999999999988564702846360887634 537:1 2322:1 #
0.49999999999988564702846360887634 549:1 5252:1 #
0.49999999999988564702846360887634 776:1 3764:1 #
0.49999999999988564702846360887634 216:1 3754:1 #
0.43225350084556624086218334923615 959:1 2322:1 #
0.49999999999988564702846360887634 1309:1 2789:1 #
0.49999999999988564702846360887634 699:1 2789:1 #
0.49999999999988564702846360887634 100:1 2789:1 #
0.49999999999988564702846360887634 1114:1 3844:1 #
0.49999999999988564702846360887634 1114:1 4385:1 #
0.49999999999988564702846360887634 254:1 2594:1 #
0.49999999999988564702846360887634 923:1 2594:1 #
0.49999999999988564702846360887634 1189:1 2594:1 #
0.49999999999988564702846360887634 1080:1 2594:1 #
0.49999999999988564702846360887634 899:1 2594:1 #
0.49999999999988564702846360887634 1326:1 2594:1 #
0.49999999999988564702846360887634 383:1 3844:1 #
0.49999999999988564702846360887634 391:1 3350:1 #
0.49999999999988564702846360887634 685:1 2594:1 #
0.49999999999988564702846360887634 273:1 2594:1 #
0.49999999999988564702846360887634 658:1 4385:1 #
0.49999999999988564702846360887634 1500:1 4385:1 #
0.49999999999988564702846360887634 699:1 2594:1 #
0.49999999999988564702846360887634 1494:1 2594:1 #
0.49999999999988564702846360887634 1429:1 2594:1 #
0.49999999999988564702846360887634 895:1 2594:1 #
0.49999999999988564702846360887634 515:1 2594:1 #
0.49999999999988564702846360887634 305:1 4385:1 #
0.49999999999988564702846360887634 433:1 2965:1 #
0.49999999999988564702846360887634 1582:1 4719:1 #
0.49999999999988564702846360887634 1367:1 4973:1 #
0.49999999999988564702846360887634 1367:1 3294:1 #
0.49999999999988564702846360887634 1342:1 3968:1 #
0.49999999999988564702846360887634 1545:1 4872:1 #
0.49999999999988564702846360887634 1582:1 4719:1 #
0.49999999999988564702846360887634 428:1 3788:1 #
0.49999999999988564702846360887634 1548:1 2965:1 #
0.49999999999988564702846360887634 1623:1 2965:1 #
0.49999999999988564702846360887634 1174:1 2965:1 #
0.49999999999988564702846360887634 1582:1 4719:1 #
0.49999999999988564702846360887634 386:1 3968:1 #
0.49999999999988564702846360887634 845:1 2431:1 #
0.49999999999988564702846360887634 444:1 3339:1 #
0.49999999999988564702846360887634 1421:1 2986:1 #
0.49999999999988564702846360887634 1794:1 3378:1 #
0.49999999999988564702846360887634 1123:1 5065:1 #
0.49999999999988564702846360887634 496:1 4855:1 #
0.49999999999988564702846360887634 683:1 5204:1 #
0.49999999999988564702846360887634 1773:1 3402:1 #
0.49999999999988564702846360887634 249:1 2870:1 #
0.49999999999988564702846360887634 403:1 3304:1 #
0.49999999999988564702846360887634 1475:1 4909:1 #
0.49999999999988564702846360887634 1244:1 4327:1 #
0.49999999999988564702846360887634 776:1 4370:1 #
0.49999999999988564702846360887634 1001:1 2686:1 #
0.49999999999988564702846360887634 1702:1 4280:1 #
0.49999999999988564702846360887634 1740:1 4965:1 #
0.49999999999988564702846360887634 435:1 1922:1 #
0.49999999999988564702846360887634 1064:1 5384:1 #
0.49999999999988564702846360887634 1582:1 4719:1 #
0.49999999999988564702846360887634 1335:1 2322:1 #
-0.49999999999988564702846360887634 1545:1 2322:1 #
-0.49999999999988564702846360887634 699:1 2322:1 #
-0.49999999999988564702846360887634 1174:1 2322:1 #
-0.49999999999988564702846360887634 1740:1 2322:1 #
-0.49999999999988564702846360887634 1189:1 2322:1 #
0.49999999999988564702846360887634 1465:1 4670:1 #
0.49999999999988564702846360887634 1784:1 1881:1 #
0.49999999999988564702846360887634 1784:1 2390:1 #
0.49999999999988564702846360887634 1205:1 4797:1 #
0.49999999999988564702846360887634 774:1 3971:1 #
-0.49999999999988564702846360887634 774:1 2965:1 #
-0.013735759655566448511621047146036 1211:1 4048:1 #
-0.13857741932694705999651318961696 1582:1 2578:1 #
-0.13853519324318724903477573207056 1582:1 2674:1 #
-0.13857741932694700448536195835914 1582:1 4864:1 #
-0.13809717517048791801670404311153 1582:1 5417:1 #
-0.1377086111744288687841475393725 1582:1 3933:1 #
-0.1384391941418156302123776413282 1582:1 4254:1 #
-0.40516914798737652114724028251658 383:1 2594:1 #
-0.49999999999988564702846360887634 389:1 2594:1 #
-0.49999999999988564702846360887634 1080:1 2956:1 #
0.44624816696995645015633158436685 1268:1 2322:1 #
-0.49999999999988564702846360887634 1001:1 2335:1 #
-0.49999999999988564702846360887634 1794:1 3968:1 #
0.49999999999988564702846360887634 1312:1 2322:1 #
0.49999999999988564702846360887634 414:1 2322:1 #
0.49999999999988564702846360887634 707:1 2322:1 #
0.49678839221773885004296289480408 571:1 2322:1 #
0.49999999999988564702846360887634 1431:1 2322:1 #
-0.49999999999988564702846360887634 1475:1 2322:1 #
-0.49999999999988564702846360887634 1702:1 2322:1 #
-0.49999999999988564702846360887634 1421:1 2322:1 #
-0.49999999999988564702846360887634 433:1 2322:1 #
0.13589003142720501582374481586157 34:1 2335:1 #
0.49999999999988564702846360887634 34:1 2594:1 #
0.49999999999988564702846360887634 1794:1 3968:1 #
-0.49999999999988564702846360887634 444:1 2594:1 #
-0.35815640086359751270705942260975 389:1 2594:1 #
0.48990519565368167986818548342853 1070:1 2322:1 #
0.49999999999988564702846360887634 1082:1 2322:1 #
-0.49999999999988564702846360887634 1794:1 3968:1 #
-0.1384391941418156302123776413282 1582:1 2493:1 #
-0.13785696178404305278775154874893 1582:1 2990:1 #
0.49999999999988564702846360887634 626:1 2594:1 #
0.49999999999988564702846360887634 67:1 2594:1 #
-0.29640125751737733672541708074277 626:1 2594:1 #
-0.49999999999988564702846360887634 216:1 2594:1 #
-0.39056940448023252931974980128871 1469:1 2594:1 #
-0.39033882709379641440250452433247 871:1 2594:1 #
-0.32719189614370813856680797471199 1500:1 2594:1 #
0.49999999999988564702846360887634 1421:1 2278:1 #
0.49999999999988564702846360887634 692:1 2322:1 #
0.49814453583933976377196017892857 1335:1 2322:1 #
-0.49999999999988564702846360887634 1065:1 2322:1 #
-0.49999999999988564702846360887634 1309:1 2322:1 #
0.49999999999988564702846360887634 270:1 2594:1 #
0.49999999999988564702846360887634 1232:1 2594:1 #
-0.49999999999988564702846360887634 270:1 2594:1 #
-0.3372670872177386813817179245234 1232:1 2594:1 #
0.29319633107920728409823141191737 959:1 2322:1 #
-0.39617251818669441121301133534871 782:1 3402:1 #
-0.49943755006654577677238648902858 1233:1 3402:1 #
-0.4597393695693461346252206567442 1138:1 5204:1 #
0.49999999999988564702846360887634 1794:1 3968:1 #
-0.49999999999988564702846360887634 1794:1 3968:1 #
-0.49999999999988564702846360887634 236:1 2335:1 #
-0.49999999999988564702846360887634 762:1 2335:1 #
0.49999999999988564702846360887634 1174:1 2320:1 #
0.49999999999988564702846360887634 1174:1 4512:1 #
0.49999999999988564702846360887634 433:1 5065:1 #
0.49999999999988564702846360887634 762:1 2335:1 #
-0.22937047561423795638546607733588 860:1 2686:1 #
-0.49999999999988564702846360887634 1123:1 5065:1 #
0.49999999999988564702846360887634 236:1 2335:1 #
-0.39042199510458547306868126725021 74:1 3294:1 #
-0.37764482915281671893126258510165 600:1 3294:1 #
-0.38730271853226894140931335641653 1241:1 4973:1 #
-0.37471395672203944293698896217393 433:1 4797:1 #
-0.49999999999988564702846360887634 1232:1 2956:1 #
0.49999999999988564702846360887634 1794:1 3968:1 #
-0.49999999999988564702846360887634 1794:1 3968:1 #
-0.49999999999988564702846360887634 433:1 3968:1 #
-0.49999999999988564702846360887634 1426:1 3968:1 #
-0.35128049289400870014432598509302 675:1 3968:1 #
0.49999999999988564702846360887634 1597:1 3402:1 #
-0.49999999999988564702846360887634 1597:1 2322:1 #
-0.49999999999988564702846360887634 762:1 2335:1 #
-0.49999999999988564702846360887634 236:1 2335:1 #
0.49999999999988564702846360887634 1794:1 3968:1 #
-0.49999999999988564702846360887634 1367:1 2278:1 #
-0.30646467911728425548290033475496 1784:1 3636:1 #
-0.30658908394833983557248302531661 1784:1 4145:1 #
0.49999999999988564702846360887634 960:1 2322:1 #
0.49999999999988564702846360887634 1425:1 2322:1 #
-0.49999999999988564702846360887634 1342:1 2322:1 #
0.49059629728337939003068868260016 791:1 2335:1 #
0.49999999999988564702846360887634 236:1 2335:1 #
-0.49999999999988564702846360887634 791:1 2335:1 #
0.49999999999988564702846360887634 1342:1 3968:1 #
-0.49999999999988564702846360887634 1342:1 3968:1 #
0.49999999999988564702846360887634 846:1 3402:1 #
-0.39670800736836797639739415899385 100:1 4280:1 #
-0.49999999999988564702846360887634 270:1 2431:1 #
0.49999999999988564702846360887634 1342:1 3968:1 #
-0.49999999999988564702846360887634 1342:1 3968:1 #
0.49999999999988564702846360887634 909:1 4739:1 #
0.49999999999988564702846360887634 909:1 4870:1 #
0.49999999999988564702846360887634 1281:1 5130:1 #
0.49999999999988564702846360887634 202:1 3187:1 #
0.49999999999988564702846360887634 1072:1 3847:1 #
-0.49999999999988564702846360887634 1543:1 2335:1 #
-0.49999999999988564702846360887634 1022:1 2335:1 #
-0.49999999999988564702846360887634 982:1 2335:1 #
-0.49999999999988564702846360887634 1224:1 2335:1 #
0.49999999999988564702846360887634 1342:1 3968:1 #
-0.49999999999988564702846360887634 1342:1 3968:1 #
0.49999999999988564702846360887634 1383:1 4791:1 #
0.49999999999988564702846360887634 559:1 3518:1 #
0.49999999999988564702846360887634 1448:1 4018:1 #
0.49999999999988564702846360887634 861:1 2824:1 #
-0.40281386756994919107199848440359 831:1 3518:1 #
-0.49943378353264544777800892916275 67:1 4385:1 #
-0.49999999999988564702846360887634 909:1 2322:1 #
-0.49999999999988564702846360887634 1281:1 2322:1 #
0.49999999999988564702846360887634 1342:1 3968:1 #
-0.49999999999988564702846360887634 1342:1 3968:1 #
-0.011901735651287048689539460610831 546:1 3734:1 #
-0.49999999999988564702846360887634 1591:1 2322:1 #
-0.49999999999988564702846360887634 1425:1 2322:1 #
-0.49999999999988564702846360887634 959:1 2322:1 #
0.49999999999988564702846360887634 1342:1 3968:1 #
-0.49999999999988564702846360887634 1342:1 3968:1 #
0.49999999999988564702846360887634 35:1 2322:1 #
-0.49999999999988564702846360887634 35:1 2322:1 #
0.49999999999988564702846360887634 1342:1 3968:1 #
0.49999999999988564702846360887634 1274:1 4385:1 #
-0.19987088048879497748089306696784 1274:1 2594:1 #
-0.43438625182097034826966819309746 559:1 2789:1 #
-0.39065582229194434349395237404678 1016:1 2594:1 #
-0.4052776224883513633834297706926 366:1 2594:1 #
-0.40528867592495948501962743648619 1628:1 2594:1 #
0.49999999999988564702846360887634 35:1 2322:1 #
-0.49999999999988564702846360887634 35:1 2322:1 #
0.49999999999988564702846360887634 385:1 4589:1 #
0.49999999999988564702846360887634 1266:1 2560:1 #
0.49999999999988564702846360887634 1453:1 4666:1 #
0.49999999999988564702846360887634 243:1 4618:1 #
-0.36381892874011262373201702757797 1157:1 2018:1 #
-0.13934330165429076320293688695529 450:1 2663:1 #
-0.49999999999988564702846360887634 384:1 4766:1 #
-0.014930525440355502109213148287381 1157:1 4826:1 #
-0.014943752378856700602227647323161 1157:1 2013:1 #
0.49999999999988564702846360887634 35:1 2322:1 #
-0.49999999999988564702846360887634 35:1 2322:1 #
0.49999999999988564702846360887634 328:1 3326:1 #
0.49999999999988564702846360887634 328:1 4106:1 #
0.49999999999988564702846360887634 825:1 4922:1 #
0.49999999999988564702846360887634 137:1 4604:1 #
0.49999999999988564702846360887634 364:1 2809:1 #
-0.40744805427967711874970291319187 364:1 5065:1 #
-0.0149498942302976143420290000563 927:1 3886:1 #
-0.35242393999526988590531573208864 927:1 4039:1 #
-0.14014444993451136145523605591734 876:1 4083:1 #
-0.209406313954648481967524276115 95:1 4137:1 #
0.49999999999988564702846360887634 35:1 2322:1 #
-0.49999999999988564702846360887634 1268:1 2965:1 #
0.49999999999988564702846360887634 133:1 3788:1 #
-0.070592087425574101544611949066166 1072:1 1979:1 #
-0.013407640076214949464983305915666 1300:1 3030:1 #
-0.013407640076215032731710152802407 1300:1 2248:1 #
0.49999999999988564702846360887634 236:1 2335:1 #
0.48978329448802465639900560745446 1591:1 2322:1 #
0.49999999999988564702846360887634 1342:1 2322:1 #
0.49999999999988564702846360887634 103:1 2965:1 #
0.49999999999988564702846360887634 959:1 2322:1 #
-0.49999999999988564702846360887634 35:1 2322:1 #
0.49999999999988564702846360887634 988:1 3294:1 #
0.49999999999988564702846360887634 859:1 3294:1 #
0.49999999999988564702846360887634 699:1 3294:1 #
0.49999999999988564702846360887634 497:1 3294:1 #
0.49999999999988564702846360887634 1343:1 3294:1 #
-0.49999999999988564702846360887634 236:1 2335:1 #
0.49999999999988564702846360887634 242:1 5350:1 #
0.49999999999988564702846360887634 1189:1 3670:1 #
0.49999999999988564702846360887634 1051:1 2258:1 #
0.49999999999988564702846360887634 593:1 4416:1 #
-0.49999999999988564702846360887634 103:1 3788:1 #
-0.49999999999988564702846360887634 861:1 2965:1 #
-0.49999999999988564702846360887634 1342:1 2965:1 #
-0.0014068561016494784965402686793823 1497:1 4766:1 #
0.49999999999988564702846360887634 373:1 2678:1 #
0.49999999999988564702846360887634 1209:1 2444:1 #
0.49999999999988564702846360887634 886:1 3364:1 #
0.49999999999988564702846360887634 583:1 3012:1 #
-0.49999999999988564702846360887634 1209:1 2322:1 #
-0.49999999999988564702846360887634 1209:1 4473:1 #
-0.49999999999988564702846360887634 1274:1 2322:1 #
-0.49999999999988564702846360887634 1061:1 2335:1 #
-0.49999999999988564702846360887634 1336:1 2335:1 #
0.49999999999988564702846360887634 1300:1 2965:1 #
0.49999999999988564702846360887634 861:1 3440:1 #
-0.49999999999988564702846360887634 861:1 2965:1 #
-0.18006695227571051232118293228268 1300:1 3294:1 #
0.49999999999988564702846360887634 1342:1 2322:1 #
-0.49999999999988564702846360887634 861:1 2322:1 #
-0.49999999999988564702846360887634 243:1 2322:1 #
-0.49999999999988564702846360887634 391:1 2322:1 #
-0.49999999999988564702846360887634 908:1 2322:1 #
-0.49999999999988564702846360887634 1591:1 2322:1 #
0.49999999999988564702846360887634 1209:1 3788:1 #
0.49999999999988564702846360887634 1061:1 2335:1 #
-0.49999999999988564702846360887634 1061:1 2335:1 #
0.49999999999988564702846360887634 35:1 2322:1 #
-0.49999999999988564702846360887634 1342:1 3968:1 #
0.49999999999988564702846360887634 1061:1 2335:1 #
-0.49999999999988564702846360887634 1061:1 2335:1 #
0.49999999999988564702846360887634 1342:1 2322:1 #
-0.49999999999988564702846360887634 699:1 3339:1 #
-0.49999999999988564702846360887634 1300:1 2678:1 #
-0.13991719813467395905348666929058 1219:1 5042:1 #
-0.46001813608208230732543597696349 1186:1 5002:1 #
0.49999999999988564702846360887634 1061:1 2335:1 #
-0.49999999999988564702846360887634 1061:1 2335:1 #
0.49999999999988564702846360887634 699:1 5203:1 #
0.49999999999988564702846360887634 699:1 5416:1 #
-0.20972839915681906752809027238982 1417:1 2164:1 #
-0.10551290204873953193498437030939 1102:1 3741:1 #
-0.10457408743068308254464682249818 1102:1 3367:1 #
-0.10555787118423831660862788339728 17:1 3917:1 #
0.49999999999988564702846360887634 1061:1 2335:1 #
-0.49999999999988564702846360887634 1061:1 2335:1 #
0.49999999999988564702846360887634 1209:1 2965:1 #
0.49999999999988564702846360887634 1593:1 2206:1 #
0.49999999999988564702846360887634 197:1 3768:1 #
0.49999999999988564702846360887634 1399:1 2108:1 #
0.49999999999988564702846360887634 1399:1 3958:1 #
-0.2097340231244702035695581798791 1751:1 2190:1 #
-0.016285084232456892294749195571057 1704:1 4205:1 #
-0.016197149016582500224981089331777 1704:1 4513:1 #
-0.016480213336952154179471108363941 1704:1 5237:1 #
-0.016197149016582271241482260393241 1704:1 3516:1 #
0.49999999999988564702846360887634 1061:1 2335:1 #
-0.49999999999988564702846360887634 1061:1 2335:1 #
0.49999999999988564702846360887634 1631:1 4868:1 #
0.49999999999988564702846360887634 1497:1 4033:1 #
0.49999999999988564702846360887634 1128:1 3078:1 #
0.49999999999988564702846360887634 338:1 4021:1 #
-0.016147076164464570224854611524279 606:1 2832:1 #
-0.10501372173789835784418755793013 1699:1 4311:1 #
-0.10536643068725315419698063124088 1699:1 2145:1 #
-0.18373977751561987314943280580337 1580:1 3121:1 #
-0.084177643245828548401732405181974 1675:1 4246:1 #
0.49999999999988564702846360887634 1061:1 2335:1 #
0.49999999999988564702846360887634 1709:1 2389:1 #
0.49999999999988564702846360887634 657:1 3560:1 #
0.49999999999988564702846360887634 1646:1 1986:1 #
0.49999999999988564702846360887634 1693:1 3017:1 #
0.49999999999988564702846360887634 658:1 3076:1 #
0.49978110801987241096355774061522 1336:1 2335:1 #
0.49999999999988564702846360887634 762:1 2335:1 #
0.49999999999988564702846360887634 798:1 2956:1 #
0.49999999999988564702846360887634 908:1 2335:1 #
0.38147389976721579607499279518379 391:1 2335:1 #
0.49999999999988564702846360887634 270:1 2594:1 #
0.49999999999988564702846360887634 791:1 2322:1 #
0.49999999999988564702846360887634 824:1 2322:1 #
-0.0055747223433316173135665394511307 217:1 4973:1 #
0.49999999999988564702846360887634 212:1 5204:1 #
0.49999999999988564702846360887634 1232:1 4473:1 #
0.49999999999988564702846360887634 1755:1 3294:1 #
0.49999999999988564702846360887634 1562:1 3294:1 #
0.49999999999988564702846360887634 1721:1 3294:1 #
0.49999999999988564702846360887634 1489:1 3294:1 #
0.49999999999988564702846360887634 1117:1 3294:1 #
0.49999999999988564702846360887634 343:1 3294:1 #
0.49999999999988564702846360887634 597:1 3294:1 #
0.49999999999988564702846360887634 433:1 5065:1 #
0.49999999999988564702846360887634 926:1 3402:1 #
0.49999999999988564702846360887634 1563:1 4797:1 #
0.49999999999988564702846360887634 729:1 4797:1 #
0.49999999999988564702846360887634 57:1 4797:1 #
0.49999999999988564702846360887634 809:1 3413:1 #
0.49999999999988564702846360887634 1242:1 3142:1 #
0.49999999999988564702846360887634 1486:1 5078:1 #
0.49999999999988564702846360887634 855:1 5222:1 #
0.49999999999988564702846360887634 353:1 1908:1 #
0.49999999999988564702846360887634 1439:1 4340:1 #
0.49999999999988564702846360887634 1209:1 2956:1 #
0.49999999999988564702846360887634 1342:1 3968:1 #
0.49999999999988564702846360887634 1591:1 2956:1 #
0.49999999999988564702846360887634 1425:1 2322:1 #
0.49999999999988564702846360887634 334:1 2322:1 #
0.49999999999988564702846360887634 1268:1 2322:1 #
0.49999999999988564702846360887634 1615:1 3968:1 #
0.49999999999988564702846360887634 1448:1 3790:1 #
0.35336940528179139331399483126006 1591:1 2322:1 #
0.49999999999988564702846360887634 338:1 3334:1 #
0.49999999999988564702846360887634 1186:1 5071:1 #
0.49999999999988564702846360887634 236:1 2335:1 #
0.49999999999988564702846360887634 1399:1 5389:1 #
0.49999999999988564702846360887634 1603:1 3378:1 #
0.49999999999988564702846360887634 666:1 2965:1 #
0.49999999999988564702846360887634 646:1 2965:1 #
0.49999999999988564702846360887634 9:1 2965:1 #
0.49999999999988564702846360887634 398:1 2965:1 #
0.49999999999988564702846360887634 752:1 2594:1 #
0.49999999999988564702846360887634 918:1 3859:1 #
-0.49999999999988564702846360887634 1242:1 2322:1 #
-0.49999999999988564702846360887634 1593:1 2322:1 #
-0.49999999999988564702846360887634 855:1 2322:1 #
-0.49999999999988564702846360887634 1486:1 2322:1 #
-0.49999999999988564702846360887634 328:1 4385:1 #
0.49999999999988564702846360887634 403:1 4674:1 #
0.014079963967658482015821164168301 844:1 2322:1 #
-0.46802973344748688422356508453959 699:1 3294:1 #
-0.0066458660163919835300871952199486 35:1 1958:1 #
-0.49999999999988564702846360887634 959:1 2322:1 #
-0.49999999999988564702846360887634 1342:1 2956:1 #
-0.39513821178314356696859022122226 899:1 4385:1 #
-0.39520574247896533837121069154819 1429:1 4385:1 #
-0.49999999999988564702846360887634 895:1 4385:1 #
-0.39056566030135064782058407217846 515:1 4385:1 #
-0.49756953814577009609365632059053 1189:1 4385:1 #
0.49999999999988564702846360887634 1593:1 4589:1 #
-0.37606559087460700308014338588691 1693:1 2965:1 #
-0.49999999999988564702846360887634 1448:1 4797:1 #
-0.29087319027166147478169477835763 1631:1 5203:1 #
-0.49999999999988564702846360887634 338:1 5065:1 #
-0.38795004749102435237517738642055 242:1 2809:1 #
-0.49999999999988564702846360887634 1244:1 4589:1 #
-0.49999999999988564702846360887634 1232:1 4965:1 #
-0.40695488409275965002720454322116 1593:1 4385:1 #
-0.35601421818586775902559793394175 1383:1 4018:1 #
-0.15864221956696245019458046954242 1448:1 4018:1 #
-0.011098682830219960826489966621011 1061:1 3759:1 #
0.49999999999988564702846360887634 726:1 2444:1 #
0.49999999999988564702846360887634 1481:1 2444:1 #
0.49999999999988564702846360887634 386:1 3968:1 #
-0.22953288084692569093192560103489 1232:1 3294:1 #
-0.20423083069776315490173601574497 988:1 3294:1 #
-0.31494776860468898238565316205495 658:1 3294:1 #
-0.39055177087389530976579976595531 1709:1 3294:1 #
0.3117114493815570375190304730495 408:1 2322:1 #
0.49999999999988564702846360887634 523:1 4385:1 #
-0.49999999999988564702846360887634 1497:1 4033:1 #
-0.49999999999988564702846360887634 1399:1 2322:1 #
-0.49999999999988564702846360887634 1497:1 2335:1 #
-0.23588765795936272873234429425793 1563:1 4797:1 #
-0.083380075050206170494959678762825 1266:1 4635:1 #
0.49141681144174820250469792881631 1300:1 2322:1 #
-0.49999999999988564702846360887634 1342:1 2322:1 #
0.49999999999988564702846360887634 1123:1 5065:1 #
0.49999999999988564702846360887634 1572:1 5203:1 #
-0.49999999999988564702846360887634 918:1 1986:1 #
-0.49999999999988564702846360887634 699:1 3076:1 #
-0.26190835572892923188703662162879 699:1 2389:1 #
-0.01114209354382342080647116944192 1061:1 2580:1 #
0.30739168480268164174162848212291 1274:1 2322:1 #
0.49999999999988564702846360887634 384:1 2322:1 #
0.49999999999988564702846360887634 1426:1 2322:1 #
-0.49999999999988564702846360887634 1721:1 2322:1 #
-0.49999999999988564702846360887634 1489:1 2322:1 #
-0.49999999999988564702846360887634 9:1 2322:1 #
-0.49999999999988564702846360887634 646:1 2322:1 #
0.49999999999988564702846360887634 1497:1 4033:1 #
0.49999999999988564702846360887634 1543:1 2322:1 #
-0.49999999999988564702846360887634 398:1 2322:1 #
-0.49999999999988564702846360887634 909:1 2322:1 #
-0.37977988305531262813730108973687 729:1 3364:1 #
-0.43014760431865400880369065816922 1123:1 4868:1 #
-0.49999999999988564702846360887634 236:1 2284:1 #
0.49999999999988564702846360887634 861:1 2322:1 #
-0.49999999999988564702846360887634 9:1 2965:1 #
-0.49999999999988564702846360887634 1213:1 2965:1 #
-0.49999999999988564702846360887634 627:1 2965:1 #
-0.014823001642767771879327654005465 737:1 2773:1 #
-0.014262078683730342390512113581735 683:1 4221:1 #
0.15503348624131157995620355904975 1309:1 2322:1 #
0.35314446088090234443512827056111 1065:1 2322:1 #
-0.40687241556330489000714578651241 1646:1 1908:1 #
-0.052570660474845043452774007164408 403:1 3779:1 #
-0.052862583797357531878446934570093 403:1 4578:1 #
-0.052402517196794340392784761206713 403:1 3188:1 #
-0.052311470118479030944058649765793 403:1 4867:1 #
0.49999999999988564702846360887634 1335:1 2322:1 #
-0.49999999999988564702846360887634 1342:1 2322:1 #
0.49999999999988564702846360887634 171:1 4385:1 #
-0.49999999999988564702846360887634 1209:1 3294:1 #
0.49999999999988564702846360887634 216:1 4385:1 #
0.49999999999988564702846360887634 45:1 4385:1 #
0.49999999999988564702846360887634 1410:1 4385:1 #
-0.49999999999988564702846360887634 1232:1 4385:1 #
-0.49999999999988564702846360887634 353:1 2335:1 #
-0.49999999999988564702846360887634 1553:1 2322:1 #
-0.12681673277073535199832576836343 1798:1 3326:1 #
-0.49999999999988564702846360887634 343:1 3294:1 #
-0.40530050306797577031048263052071 1128:1 3294:1 #
-0.49999999999988564702846360887634 1064:1 3294:1 #
-0.49999999999988564702846360887634 1123:1 2956:1 #
-0.016258975424262467335267956514144 1548:1 2294:1 #
-0.35879217794186329948402658374107 496:1 3294:1 #
-0.47335615964424559987122620441369 1399:1 3958:1 #
-0.49180239861935437506446078259614 1494:1 3187:1 #
-0.49999999999988564702846360887634 657:1 3788:1 #
-0.45997382050350754667533692554571 57:1 3790:1 #
-0.35177838921551618511784909060225 1603:1 3968:1 #
-0.49999999999988564702846360887634 1794:1 3378:1 #
-0.022613109557002464278241404826986 328:1 3187:1 #
0.49999999999988564702846360887634 1794:1 3378:1 #
0.49999999999988564702846360887634 774:1 3788:1 #
-0.49999999999988564702846360887634 1794:1 3378:1 #
-0.49999999999988564702846360887634 1481:1 3788:1 #
-0.49999999999988564702846360887634 648:1 3788:1 #
-0.49999999999988564702846360887634 1711:1 3788:1 #
-0.49999999999988564702846360887634 429:1 3788:1 #
0.49999999999988564702846360887634 1794:1 3378:1 #
-0.49999999999988564702846360887634 1794:1 3378:1 #
-0.49999999999988564702846360887634 776:1 5204:1 #
-0.2412930561671354778852105482656 1572:1 3560:1 #
-0.40469614559254696306567211649963 197:1 4797:1 #
0.49999999999988564702846360887634 1794:1 3378:1 #
-0.49999999999988564702846360887634 1794:1 3378:1 #
-0.004665765362845818164938549443832 1061:1 4955:1 #
-0.49782578077407235728202294922085 391:1 5203:1 #
-0.0019343614550584864453242062154459 699:1 4427:1 #
-0.12417615061773723539317870745435 1209:1 4604:1 #
0.49999999999988564702846360887634 1794:1 3378:1 #
0.49999999999988564702846360887634 1123:1 5065:1 #
-0.49999999999988564702846360887634 1794:1 3378:1 #
0.49999999999988564702846360887634 1209:1 1881:1 #
0.49999999999988564702846360887634 1209:1 2390:1 #
0.49999999999988564702846360887634 501:1 4385:1 #
-0.49999999999988564702846360887634 699:1 5065:1 #
-0.49999999999988564702846360887634 1295:1 2965:1 #
-0.016472952026066578490315350791207 1548:1 3679:1 #
-0.49999999999988564702846360887634 855:1 1881:1 #
-0.22988556756793743218736381095368 740:1 1881:1 #
-0.45979004380978538701896241036593 1713:1 4473:1 #
0.49999999999988564702846360887634 1211:1 5252:1 #
-0.49999999999988564702846360887634 171:1 5252:1 #
-0.49999999999988564702846360887634 1065:1 5252:1 #
-0.46003384938803082437885905164876 806:1 5252:1 #
-0.39818229989098097298949596734019 1211:1 3294:1 #
0.49999999999988564702846360887634 558:1 1881:1 #
-0.49999999999988564702846360887634 386:1 1922:1 #
-0.23025392575286357521591185104626 1302:1 1881:1 #
-0.014032022967520811629338339798778 1209:1 3994:1 #
-0.014032022967520820302955719682814 1209:1 2648:1 #
0.49999999999988564702846360887634 1211:1 5252:1 #
-0.49212842724045791076292744037346 959:1 3294:1 #
-0.012059608779045792592565788936554 309:1 4933:1 #
-0.49999999999988564702846360887634 334:1 3968:1 #
-0.49999999999988564702846360887634 1603:1 3968:1 #
-0.49999999999988564702846360887634 862:1 3402:1 #
0.49999999999988564702846360887634 236:1 2335:1 #
-0.023050743119917949108810262259794 1596:1 4670:1 #
-0.023080607962506105579336690425407 1011:1 4670:1 #
-0.022967995169115296150152971677016 881:1 4670:1 #
0.49999999999988564702846360887634 386:1 3968:1 #
-0.084290601055324931856205239455448 1266:1 3610:1 #
-0.084424969470749844369095171714434 1266:1 4951:1 #
0.49999999999988564702846360887634 806:1 2322:1 #
-0.49999999999988564702846360887634 9:1 2322:1 #
-0.49999999999988564702846360887634 1342:1 2322:1 #
0.49999999999988564702846360887634 1211:1 5252:1 #
0.49738073220854372991084346722346 1065:1 2322:1 #
-0.016509139333558305040572378175057 1421:1 5321:1 #
-0.014966694099978777865445067618566 846:1 5194:1 #
0.093172853187009518904915239545517 230:1 2322:1 #
0.49999999999988564702846360887634 537:1 2322:1 #
0.10744212845311643111934074568126 92:1 2322:1 #
0.49999999999988564702846360887634 1335:1 2322:1 #
-0.0049358457156065682625012414064258 1591:1 3094:1 #
0.49999999999988564702846360887634 1065:1 2322:1 #
-0.48791599127482371267561234162713 537:1 3142:1 #
-0.042311169119787161996271152020199 435:1 1952:1 #
-0.3238236163442651527333282501786 2:1 3402:1 #
-0.013831902725433303791291450579592 845:1 5289:1 #
0.49999999999988564702846360887634 386:1 3968:1 #
-0.016380820518718069295216466230158 1174:1 3712:1 #
-0.011984350734203230715024801611435 333:1 3903:1 #
-0.016380820518717826433929829477165 1174:1 3291:1 #
-0.016380820518718051947981706462087 1174:1 1985:1 #
-0.49963748011465614062842632847605 1174:1 3758:1 #
-0.21006389057610153070498881788808 479:1 5350:1 #
-0.016509139333558527085177303206365 1421:1 5067:1 #
-0.031359169688717214441453506879043 338:1 1935:1 #
-0.28522810860518565956311931586242 249:1 2686:1 #
-0.39736563768354160597340296590119 654:1 2965:1 #
-0.38696164715289715907431400410132 1801:1 2965:1 #
-0.39729483844085211607932706101565 1091:1 2965:1 #
-0.49999999999988564702846360887634 1009:1 2965:1 #
-0.014000599274549441197734722663881 1209:1 3423:1 #
-0.0081714844258006652522041690644983 777:1 3075:1 #
-0.013322940348664276399848205301168 1209:1 1974:1 #
0.49999999999988564702846360887634 171:1 4385:1 #
-0.49999999999988564702846360887634 1211:1 4385:1 #
-0.49999999999988564702846360887634 1211:1 2322:1 #
0.49999999999988564702846360887634 699:1 3294:1 #
0.49999999999988564702846360887634 699:1 4766:1 #
-0.0016604515199573743194916275456308 433:1 4049:1 #
-0.49991568430175170600904266393627 1123:1 5065:1 #
0.49999999999988564702846360887634 1342:1 2956:1 #
-0.49951122434451317166903550059942 202:1 4385:1 #
-0.49999999999988564702846360887634 171:1 2322:1 #
-0.35204631968339006320434236840811 825:1 4385:1 #
0.49999999999988564702846360887634 1342:1 2956:1 #
-0.49999999999988564702846360887634 2:1 2956:1 #
-0.49999999999988564702846360887634 1082:1 2956:1 #
-0.49999999999988564702846360887634 763:1 2956:1 #
-0.49999999999988564702846360887634 1679:1 2956:1 #
-0.49999999999988564702846360887634 765:1 2956:1 #
-0.49999999999988564702846360887634 1335:1 2322:1 #
-0.49999999999988564702846360887634 1198:1 2322:1 #
-0.49999999999988564702846360887634 1065:1 2322:1 #
-0.49999999999988564702846360887634 438:1 2322:1 #
-0.49999999999988564702846360887634 1308:1 2322:1 #
0.49999999999988564702846360887634 1342:1 2956:1 #
-0.49878632199446454320579391605861 45:1 4385:1 #
-0.49999999999988564702846360887634 959:1 4385:1 #
-0.49999999999988564702846360887634 1572:1 4385:1 #
-0.49890647176766816928150660714891 428:1 4385:1 #
-0.016460876485748687086951846936245 386:1 1930:1 #
-0.011978418654696731948661181377247 27:1 3408:1 #
-0.016496678044033985521821250586072 386:1 4846:1 #
-0.016496678044033985521821250586072 386:1 3766:1 #
-0.016460876485748440756218258229637 386:1 2750:1 #
-0.49999999999988564702846360887634 1342:1 2322:1 #
-0.49999999999988564702846360887634 537:1 4385:1 #
-0.49999999999988564702846360887634 1335:1 4385:1 #
-0.49999999999988564702846360887634 433:1 2322:1 #
-0.49999999999988564702846360887634 481:1 2322:1 #
-0.49999999999988564702846360887634 369:1 2322:1 #
-0.49999999999988564702846360887634 596:1 2956:1 #
-0.49999999999988564702846360887634 352:1 2956:1 #
-0.49999999999988564702846360887634 535:1 2956:1 #
-0.49999999999988564702846360887634 81:1 2956:1 #
0.49999999999988564702846360887634 9:1 2322:1 #
-0.49999999999988564702846360887634 1114:1 2322:1 #
-0.49999999999988564702846360887634 171:1 2322:1 #
-0.49999999999988564702846360887634 1661:1 2322:1 #
-0.49999999999988564702846360887634 131:1 2322:1 #
-0.49999999999988564702846360887634 1277:1 2322:1 #
0.49999999999988564702846360887634 1232:1 3788:1 #
0.49999999999988564702846360887634 1211:1 2956:1 #
0.49999999999988564702846360887634 1553:1 3788:1 #
-0.49999999999988564702846360887634 948:1 2956:1 #
0.49999999999988564702846360887634 334:1 2322:1 #
0.49759667212580976913827157659398 1335:1 2322:1 #
-0.49999999999988564702846360887634 1211:1 2322:1 #
0.49999999999988564702846360887634 171:1 4385:1 #
0.49999999999988564702846360887634 1114:1 4385:1 #
0.48297354112068269227364680773462 1211:1 2322:1 #
-0.49999999999988564702846360887634 1211:1 2322:1 #
0.49999999999988564702846360887634 910:1 3294:1 #
0.49999999999988564702846360887634 1661:1 3788:1 #
0.49945583840138429998489755234914 537:1 2322:1 #
0.49999999999988564702846360887634 1464:1 4385:1 #
0.49999999999988564702846360887634 1084:1 4385:1 #
0.49999999999988564702846360887634 444:1 4385:1 #
0.49999999999988564702846360887634 270:1 4385:1 #
0.49999999999988564702846360887634 428:1 2322:1 #
-0.49999999999988564702846360887634 1114:1 2322:1 #
-0.013306745046744006266692395001883 1211:1 3444:1 #
0.49932725904162861274571127978561 1211:1 2322:1 #
-0.49999999999988564702846360887634 1211:1 2322:1 #
-0.49999999999988564702846360887634 30:1 2322:1 #
-0.49999999999988564702846360887634 1502:1 2322:1 #
-0.49999999999988564702846360887634 1511:1 2322:1 #
0.49999999999988564702846360887634 1114:1 4385:1 #
0.49999999999988564702846360887634 1308:1 3788:1 #
0.49999999999988564702846360887634 1114:1 2956:1 #
-0.49999999999988564702846360887634 713:1 2956:1 #
-0.49999999999988564702846360887634 1334:1 2956:1 #
-0.49999999999988564702846360887634 1507:1 2956:1 #
-0.49999999999988564702846360887634 546:1 2956:1 #
-0.35509078845370212196286274775048 1095:1 2956:1 #
0.49999999999988564702846360887634 30:1 2322:1 #
0.49999999999988564702846360887634 1211:1 2322:1 #
-0.49999999999988564702846360887634 1114:1 2322:1 #
0.49999999999988564702846360887634 959:1 2956:1 #
0.49999999999988564702846360887634 369:1 2322:1 #
0.49999999999988564702846360887634 481:1 2322:1 #
0.49999999999988564702846360887634 1711:1 2322:1 #
0.49999999999988564702846360887634 546:1 2956:1 #
0.49999999999988564702846360887634 1481:1 4965:1 #
0.49999999999988564702846360887634 1181:1 2965:1 #
0.49999999999988564702846360887634 153:1 2965:1 #
-0.49999999999988564702846360887634 1042:1 2956:1 #
-0.49999999999988564702846360887634 365:1 2956:1 #
-0.49999999999988564702846360887634 142:1 2956:1 #
0.49947603444016680507289152046724 433:1 2322:1 #
-0.49999999999988564702846360887634 1211:1 2322:1 #
-0.49999999999988564702846360887634 1154:1 2322:1 #
-0.49999999999988564702846360887634 539:1 2322:1 #
0.49999999999988564702846360887634 96:1 2956:1 #
0.49999999999988564702846360887634 909:1 2956:1 #
0.49999999999988564702846360887634 309:1 2956:1 #
-0.49999999999988564702846360887634 1555:1 2956:1 #
0.49999999999988564702846360887634 1277:1 2322:1 #
0.49999999999988564702846360887634 221:1 2322:1 #
-0.49999999999988564702846360887634 1277:1 2322:1 #
-0.49999999999988564702846360887634 96:1 2322:1 #
-0.49999999999988564702846360887634 309:1 2322:1 #
0.49999999999988564702846360887634 1244:1 3402:1 #
0.49999999999988564702846360887634 846:1 3402:1 #
0.49999999999988564702846360887634 1762:1 2956:1 #
0.49999999999988564702846360887634 319:1 2956:1 #
-0.40104021798686106947684493206907 221:1 3402:1 #
0.49376155316988523669152755246614 1154:1 2322:1 #
0.49999999999988564702846360887634 713:1 2322:1 #
0.49279358229054637252630755028804 1211:1 2322:1 #
0.49999999999988564702846360887634 1599:1 2965:1 #
0.49999999999988564702846360887634 895:1 2965:1 #
0.4996344568395492680146219299786 862:1 2322:1 #
-0.056532385464781009787316179426853 345:1 3968:1 #
0.49999999999988564702846360887634 1522:1 2956:1 #
0.49999999999988564702846360887634 1312:1 2956:1 #
0.49999999999988564702846360887634 1064:1 2956:1 #
0.49999999999988564702846360887634 9:1 2322:1 #
0.49999999999988564702846360887634 438:1 2322:1 #
0.49999999999988564702846360887634 427:1 2956:1 #
0.49999999999988564702846360887634 959:1 2956:1 #
0.49999999999988564702846360887634 1277:1 2322:1 #
0.49999999999988564702846360887634 481:1 2322:1 #
0.49999999999988564702846360887634 1494:1 4329:1 #
-0.49999999999988564702846360887634 421:1 4385:1 #
0.49999999999988564702846360887634 1232:1 2284:1 #
0.47504693009122628266638344030071 391:1 2335:1 #
0.49999999999988564702846360887634 909:1 2956:1 #
0.49999999999988564702846360887634 699:1 2956:1 #
0.49999999999988564702846360887634 1064:1 2956:1 #
0.49999999999988564702846360887634 171:1 4385:1 #
0.49999999999988564702846360887634 752:1 2762:1 #
0.49999999999988564702846360887634 18:1 4562:1 #
0.17194103742973543269556557788746 329:1 4562:1 #
-0.49999999999988564702846360887634 171:1 2322:1 #
-0.49999999999988564702846360887634 18:1 2322:1 #
-0.49999999999988564702846360887634 433:1 2322:1 #
-0.49999999999988564702846360887634 699:1 4385:1 #
-0.49999999999988564702846360887634 165:1 2322:1 #
0.49999999999988564702846360887634 1757:1 4317:1 #
0.49999999999988564702846360887634 1794:1 3968:1 #
-0.49999999999988564702846360887634 1232:1 3788:1 #
-0.49999999999988564702846360887634 1232:1 2870:1 #
-0.49999999999988564702846360887634 1342:1 3968:1 #
0.49999999999988564702846360887634 142:1 2322:1 #
-0.49999999999988564702846360887634 339:1 2322:1 #
-0.49999999999988564702846360887634 257:1 2322:1 #
-0.49999999999988564702846360887634 779:1 2322:1 #
-0.49999999999988564702846360887634 345:1 2322:1 #
-0.49999999999988564702846360887634 1005:1 2322:1 #
0.49999999999988564702846360887634 18:1 3788:1 #
0.49999999999988564702846360887634 720:1 3788:1 #
0.49999999999988564702846360887634 1283:1 3788:1 #
-0.49999999999988564702846360887634 720:1 3788:1 #
0.49715060016967532741105628701916 1082:1 2322:1 #
-0.40744805427967661914934183187142 1762:1 5065:1 #
-0.30708227656321662735194877313916 254:1 4329:1 #
-0.30579959022810776492207196497475 685:1 4329:1 #
-0.47383106646487205271256470950902 1312:1 4371:1 #
0.49999999999988564702846360887634 855:1 2322:1 #
0.49999999999988564702846360887634 796:1 2322:1 #
0.49999999999988564702846360887634 1123:1 5065:1 #
0.49999999999988564702846360887634 1189:1 4473:1 #
0.49999999999988564702846360887634 1172:1 4763:1 #
-0.49999999999988564702846360887634 887:1 3788:1 #
0.49999999999988564702846360887634 1555:1 2322:1 #
-0.49999999999988564702846360887634 762:1 2335:1 #
-0.49999999999988564702846360887634 1001:1 2335:1 #
-0.49999999999988564702846360887634 1323:1 2335:1 #
0.49999999999988564702846360887634 481:1 2322:1 #
0.49999999999988564702846360887634 2:1 2322:1 #
0.49999999999988564702846360887634 1323:1 2335:1 #
-0.016290734815314362321503338648654 752:1 4387:1 #
0.49999999999988564702846360887634 1001:1 2335:1 #
0.49999999999988564702846360887634 762:1 2335:1 #
0.49999999999988564702846360887634 236:1 2335:1 #
-0.49999999999988564702846360887634 1497:1 2335:1 #
-0.49999999999988564702846360887634 1670:1 2335:1 #
-0.49999999999988564702846360887634 1336:1 2335:1 #
0.49999999999988564702846360887634 779:1 2322:1 #
-0.49999999999988564702846360887634 1061:1 2335:1 #
0.49999999999988564702846360887634 765:1 2322:1 #
0.49999999999988564702846360887634 1679:1 2322:1 #
0.49999999999988564702846360887634 1091:1 2322:1 #
0.49999999999988564702846360887634 1801:1 2322:1 #
0.18897608296527823590338357462315 1009:1 2322:1 #
-0.35177838921551679574051263443835 49:1 3968:1 #
-0.2245021609150025243550885534205 25:1 5203:1 #
-0.35112729176949597498236244064174 1354:1 3968:1 #
0.49999999999988564702846360887634 1061:1 2335:1 #
-0.49999999999988564702846360887634 1232:1 3788:1 #
-0.49999999999988564702846360887634 1585:1 3788:1 #
-0.49999999999988564702846360887634 1553:1 3788:1 #
-0.49999999999988564702846360887634 44:1 3788:1 #
0.49999999999988564702846360887634 1342:1 3968:1 #
0.49980317233333193538413752321503 1670:1 2335:1 #
0.49999999999988564702846360887634 1497:1 2335:1 #
0.49999999999988564702846360887634 1553:1 3788:1 #
0.49999999999988564702846360887634 1649:1 3788:1 #
0.097381355815005066212108886247734 136:1 3788:1 #
0.13249568694680696756549309611728 82:1 3788:1 #
-0.49999999999988564702846360887634 1061:1 2335:1 #
0.3387087820036017715707998831931 150:1 3788:1 #
0.49999999999988564702846360887634 378:1 3788:1 #
0.49999999999988564702846360887634 527:1 3788:1 #
0.49999999999988564702846360887634 1635:1 3788:1 #
0.11496047269437803528546737652505 519:1 3788:1 #
-0.49999999999988564702846360887634 1635:1 3788:1 #
-0.49999999999988564702846360887634 1553:1 3788:1 #
-0.49999999999988564702846360887634 1649:1 3788:1 #
-0.49999999999988564702846360887634 119:1 3788:1 #
0.49999999999988564702846360887634 1061:1 2335:1 #
-0.49999999999988564702846360887634 270:1 4385:1 #
-0.49999999999988564702846360887634 921:1 3788:1 #
-0.49999999999988564702846360887634 408:1 3788:1 #
-0.49999999999988564702846360887634 942:1 3788:1 #
-0.49999999999988564702846360887634 222:1 3788:1 #
-0.49999999999988564702846360887634 1061:1 2335:1 #
-0.49999999999988564702846360887634 1308:1 3788:1 #
-0.49999999999988564702846360887634 924:1 3788:1 #
-0.49999999999988564702846360887634 1491:1 3788:1 #
-0.49999999999988564702846360887634 755:1 3788:1 #
0.49999999999988564702846360887634 1061:1 2335:1 #
0.49999999999988564702846360887634 408:1 3788:1 #
0.1149253867423783437295981002535 409:1 3788:1 #
0.49999999999988564702846360887634 737:1 3788:1 #
0.49999999999988564702846360887634 134:1 3788:1 #
0.49999999999988564702846360887634 997:1 3788:1 #
0.49967107268740562631137436255813 1308:1 2335:1 #
-0.49999999999988564702846360887634 1323:1 2335:1 #
-0.49999999999988564702846360887634 1336:1 2335:1 #
0.49999999999988564702846360887634 883:1 3788:1 #
0.32941457354050140970969096088083 1165:1 3788:1 #
0.49999999999988564702846360887634 1572:1 3788:1 #
0.49999999999988564702846360887634 986:1 3788:1 #
-0.49999999999988564702846360887634 1793:1 3788:1 #
-0.49999999999988564702846360887634 1238:1 3788:1 #
-0.49999999999988564702846360887634 1549:1 3788:1 #
0.49999999999988564702846360887634 1323:1 2335:1 #
-0.49999999999988564702846360887634 1323:1 2335:1 #
-0.49999999999988564702846360887634 1683:1 3788:1 #
-0.49999999999988564702846360887634 108:1 3788:1 #
-0.49999999999988564702846360887634 1121:1 3788:1 #
0.49999999999988564702846360887634 1342:1 3968:1 #
0.49999999999988564702846360887634 386:1 3968:1 #
-0.35089704604497351514424963170313 511:1 3968:1 #
-0.35177838921551674022936140318052 992:1 3968:1 #
0.097381355815003317610845101626182 1125:1 3788:1 #
0.20186514382108999843268293261644 343:1 3788:1 #
0.49999999999988564702846360887634 1075:1 3788:1 #
0.1316149832989728096777071186807 768:1 3788:1 #
0.49999999999988564702846360887634 1323:1 2335:1 #
-0.49999999999988564702846360887634 1323:1 2335:1 #
-0.49999999999988564702846360887634 1335:1 4385:1 #
0.49999999999988564702846360887634 1794:1 3968:1 #
-0.35177838921551723982972248450096 1110:1 3968:1 #
-0.35090873817579570914659825575654 394:1 3968:1 #
-0.35177838921551768391893233456358 1148:1 3968:1 #
0.49999999999988564702846360887634 1323:1 2335:1 #
-0.27996166124221172344377350782452 752:1 4416:1 #
-0.016404549951337388247196713564335 752:1 2590:1 #
-0.016292291112404544417557872293401 752:1 3323:1 #
0.49999999999988564702846360887634 776:1 3788:1 #
0.097381564272094600642759587572073 291:1 3788:1 #
0.49999999999988564702846360887634 1397:1 3788:1 #
0.49999999999988564702846360887634 938:1 3788:1 #
0.36953247092275431917585137853166 1035:1 3788:1 #
0.49990657456452924911616264580516 921:1 2335:1 #
0.49277420911553421190021140319004 791:1 2335:1 #
-0.40679202100907563277587541961111 720:1 4385:1 #
0.49999999999988564702846360887634 1149:1 3788:1 #
0.11448162241142292860907048179797 625:1 3788:1 #
-0.49999999999988564702846360887634 1342:1 2322:1 #
-0.49999999999988564702846360887634 1172:1 2322:1 #
-0.49999999999988564702846360887634 883:1 2322:1 #
0.49999999999988564702846360887634 1114:1 4385:1 #
-0.49999999999988564702846360887634 133:1 2322:1 #
0.49999999999988564702846360887634 1623:1 2965:1 #
-0.49999999999988564702846360887634 236:1 2335:1 #
0.49999999999988564702846360887634 1232:1 3788:1 #
-0.49999999999988564702846360887634 791:1 3788:1 #
-0.49999999999988564702846360887634 1075:1 2322:1 #
-0.49999999999988564702846360887634 142:1 3788:1 #
-0.49999999999988564702846360887634 1342:1 2322:1 #
-0.028473712726009736684318340849131 1794:1 3892:1 #
-0.02850438574319813511692700558342 1794:1 4156:1 #
-0.028747977715403865567322938545658 1794:1 4349:1 #
0.49999999999988564702846360887634 1232:1 3788:1 #
-0.014526031305324295372916054702728 909:1 5388:1 #
-0.014402711763936315580991731621907 909:1 3858:1 #
-0.014402711763936315580991731621907 909:1 4293:1 #
-0.014402711763936315580991731621907 909:1 3286:1 #
-0.014982670518125629222083716740599 1064:1 1856:1 #
-0.49999985441843758371405215257255 1064:1 3546:1 #
-0.014853885686374579400137463380815 1064:1 4390:1 #
-0.015029005037820534693149276961321 1064:1 4545:1 #
-0.015029005037820300505480020092364 1064:1 3517:1 #
-0.49999999999988564702846360887634 1382:1 2322:1 #
-0.014559060754644859159157022077125 909:1 2636:1 #
-0.49999999999988564702846360887634 561:1 2322:1 #
-0.39591923426711539413247464835877 938:1 5065:1 #
-0.49999999999988564702846360887634 1114:1 4385:1 #
-0.49999999999988564702846360887634 1189:1 4385:1 #
0.49999999999988564702846360887634 1336:1 2322:1 #
-0.49999999999988564702846360887634 236:1 2335:1 #
0.49999999999988564702846360887634 338:1 5065:1 #
0.49999999999988564702846360887634 720:1 2322:1 #
0.49999999999988564702846360887634 942:1 2322:1 #
-0.49999999999988564702846360887634 1615:1 4985:1 #
-0.014494432139594854574982107919823 1623:1 2257:1 #
-0.29373376226869302163535735417099 1623:1 2327:1 #
-0.014494432139594854574982107919823 1623:1 5211:1 #
-0.014439658376486677951455739332687 1623:1 4984:1 #
0.49999999999988564702846360887634 1794:1 3968:1 #
0.49999999999988564702846360887634 142:1 2322:1 #
-0.49999999999988564702846360887634 796:1 2322:1 #
-0.49999999999988564702846360887634 481:1 2322:1 #
-0.49999999999988564702846360887634 2:1 2322:1 #
-0.49999999999988564702846360887634 35:1 2322:1 #
-0.49999999999988564702846360887634 76:1 2322:1 #
-0.49999999999988564702846360887634 376:1 2322:1 #
-0.0021338923743929143206354837047911 1794:1 3378:1 #
0.49999999999988564702846360887634 654:1 2322:1 #
-0.49999999999988564702846360887634 1268:1 2322:1 #
-0.49999999999988564702846360887634 707:1 2322:1 #
-0.49999999999988564702846360887634 1455:1 2322:1 #
0.49999999999988564702846360887634 1213:1 2322:1 #
-0.49999999999988564702846360887634 844:1 2322:1 #
-0.49999999999988564702846360887634 72:1 2322:1 #
-0.49999999999988564702846360887634 408:1 2322:1 #
-0.49999999999988564702846360887634 546:1 2322:1 #
-0.49999999999988564702846360887634 1240:1 2322:1 #
-0.013109539802583780598865814681631 537:1 4275:1 #
0.49999999999988564702846360887634 627:1 2322:1 #
-0.49999999999988564702846360887634 142:1 2322:1 #
-0.49999999999988564702846360887634 1617:1 2322:1 #
0.49999999999988564702846360887634 1295:1 2322:1 #
-0.49999999999988564702846360887634 1268:1 2322:1 #
-0.49999999999988564702846360887634 1114:1 4385:1 #
0.49999999999988564702846360887634 142:1 2322:1 #
-0.49999999999988564702846360887634 142:1 2322:1 #
-0.49999999999988564702846360887634 905:1 2322:1 #
-0.49999999999988564702846360887634 1195:1 2322:1 #
-0.49999999999988564702846360887634 1741:1 2322:1 #
-0.012700692284080994376438411563868 600:1 2841:1 #
0.49999999999988564702846360887634 1114:1 4385:1 #
-0.34776298572090963423519838215725 527:1 4385:1 #
0.49999999999988564702846360887634 2:1 2322:1 #
0.49999999999988564702846360887634 376:1 2322:1 #
-0.49999999999988564702846360887634 1268:1 2322:1 #
-0.49999999999988564702846360887634 1752:1 2322:1 #
0.49999999999988564702846360887634 1114:1 4385:1 #
0.49999999999988564702846360887634 338:1 5065:1 #
-0.49999999999988564702846360887634 1114:1 4385:1 #
-0.014508367218451681535107411491481 1114:1 2485:1 #
-0.014273356453562202617035836738069 1114:1 4967:1 #
-0.014521068211505895953483680216323 1114:1 4057:1 #
0.49999999999988564702846360887634 35:1 2322:1 #
0.49999999999988564702846360887634 1342:1 2322:1 #
0.49999999999988564702846360887634 796:1 2322:1 #
0.49999999999988564702846360887634 481:1 2322:1 #
0.49999999999988564702846360887634 1114:1 4385:1 #
0.21196484345444008279280012629897 476:1 2322:1 #
0.49999999999988564702846360887634 408:1 2322:1 #
0.49999999999988564702846360887634 844:1 2322:1 #
0.49999999999988564702846360887634 1114:1 4385:1 #
0.49999999999988564702846360887634 546:1 2322:1 #
0.49999999999988564702846360887634 142:1 2322:1 #
0.49999999999988564702846360887634 1336:1 2322:1 #
0.49999999999988564702846360887634 433:1 2322:1 #
-0.012825172126647188530768062264542 600:1 4938:1 #
0.48855677373515038475204619317083 1300:1 2322:1 #
0.092997679036070812763625781371957 1303:1 2322:1 #
0.092702745839464209542946093733917 422:1 2322:1 #
0.49999999999988564702846360887634 1615:1 3968:1 #
0.49999999999988564702846360887634 1794:1 3968:1 #
-0.49999999999988564702846360887634 796:1 2322:1 #
-0.49999999999988564702846360887634 481:1 2322:1 #
0.49999999999988564702846360887634 236:1 2335:1 #
-0.49999999999988564702846360887634 142:1 3788:1 #
-0.49999999999988564702846360887634 35:1 2322:1 #
-0.49999999999988564702846360887634 173:1 2322:1 #
-0.49999999999988564702846360887634 1239:1 2322:1 #
0.49999999999988564702846360887634 481:1 2322:1 #
0.49999999999988564702846360887634 791:1 2322:1 #
-0.49999999999988564702846360887634 791:1 2322:1 #
0.49999999999988564702846360887634 35:1 2322:1 #
-0.49999999999988564702846360887634 35:1 2322:1 #
0.49999999999988564702846360887634 142:1 2322:1 #
-0.49999999999988564702846360887634 481:1 2322:1 #
0.49999999999988564702846360887634 35:1 2322:1 #
-0.49999999999988564702846360887634 35:1 2322:1 #
-0.49999999999988564702846360887634 791:1 2322:1 #
0.49999999999988564702846360887634 1072:1 4628:1 #
0.49999999999988564702846360887634 791:1 2322:1 #
-0.49999999999988564702846360887634 229:1 2322:1 #
-0.49999999999988564702846360887634 1400:1 2322:1 #
-0.49999999999988564702846360887634 563:1 2322:1 #
0.49999999999988564702846360887634 35:1 2322:1 #
-0.49999999999988564702846360887634 35:1 2322:1 #
-0.49999999999988564702846360887634 295:1 2322:1 #
-0.49999999999988564702846360887634 720:1 2322:1 #
0.49999999999988564702846360887634 791:1 2322:1 #
-0.49999999999988564702846360887634 791:1 2322:1 #
