SVM-light Version V6.02
0 # kernel type
3 # kernel parameter -d 
1 # kernel parameter -g 
1 # kernel parameter -s 
1 # kernel parameter -r 
empty# kernel parameter -u 
41 # highest feature index 
13071 # number of training documents 
2753 # number of support vectors plus 1 
0.99948739 # threshold b, each following line is a SV (starting with alpha*y)
-10.054668255044166613743072957732 23:0.00072000001 24:0.00072000001 25:0.00072000001 28:0.00072000001 38:0.00072000001 39:0.00072000001 #
10.054668255044166613743072957732 15:0.042394999 34:0.042394999 #
-10.054668255044166613743072957732 22:1.278632 23:1.278632 24:1.278632 25:1.278632 26:1.278632 27:1.278632 28:1.278632 29:1.278632 30:1.278632 31:1.278632 32:1.278632 36:1.278632 38:1.278632 39:1.278632 40:1.278632 41:1.278632 #
-10.054668255044166613743072957732 35:0.066344 #
-10.054668255044166613743072957732 #
10.054668255044166613743072957732 17:0.102505 31:0.102505 38:0.102505 #
-10.054668255044166613743072957732 17:0.462883 #
10.054668255044166613743072957732 15:0.0087649999 20:0.0087649999 22:0.0087649999 23:0.0087649999 24:0.0087649999 25:0.0087649999 26:0.0087649999 27:0.0087649999 28:0.0087649999 29:0.0087649999 30:0.0087649999 31:0.0087649999 32:0.0087649999 36:0.0087649999 38:0.0087649999 39:0.0087649999 40:0.0087649999 41:0.0087649999 #
10.054668255044166613743072957732 9:0.571459 34:0.571459 #
-10.054668255044166613743072957732 8:0.024148 22:0.024148 24:0.024148 25:0.024148 26:0.024148 27:0.024148 29:0.024148 31:0.024148 32:0.024148 33:0.024148 34:0.024148 36:0.024148 #
-10.054668255044166613743072957732 4:0.051862001 29:0.051862001 30:0.051862001 34:0.051862001 40:0.051862001 41:0.051862001 #
-10.054668255044166613743072957732 16:0.35319099 22:0.35319099 37:0.35319099 #
10.054668255044166613743072957732 13:0.35332301 34:0.35332301 #
-10.054668255044166613743072957732 10:0.43834901 23:0.43834901 24:0.43834901 25:0.43834901 28:0.43834901 38:0.43834901 39:0.43834901 #
-10.054668255044166613743072957732 22:0.116944 23:0.116944 24:0.116944 25:0.116944 26:0.116944 27:0.116944 28:0.116944 29:0.116944 30:0.116944 31:0.116944 32:0.116944 36:0.116944 38:0.116944 39:0.116944 40:0.116944 41:0.116944 #
10.054668255044166613743072957732 25:0.52843499 #
10.054668255044166613743072957732 22:0.121249 23:0.121249 24:0.121249 25:0.121249 26:0.121249 27:0.121249 28:0.121249 29:0.121249 30:0.121249 31:0.121249 32:0.121249 36:0.121249 38:0.121249 39:0.121249 40:0.121249 41:0.121249 #
10.054668255044166613743072957732 19:0.73672599 29:0.73672599 30:0.73672599 34:0.73672599 40:0.73672599 41:0.73672599 #
-10.054668255044166613743072957732 15:1.229146 20:1.229146 22:1.229146 23:1.229146 24:1.229146 25:1.229146 26:1.229146 27:1.229146 28:1.229146 29:1.229146 30:1.229146 31:1.229146 32:1.229146 36:1.229146 38:1.229146 39:1.229146 40:1.229146 41:1.229146 #
-10.054668255044166613743072957732 15:0.615821 20:0.615821 29:0.615821 30:0.615821 34:0.615821 40:0.615821 41:0.615821 #
10.054668255044166613743072957732 15:0.55852598 20:0.55852598 #
-10.054668255044166613743072957732 23:0.001906 24:0.001906 25:0.001906 28:0.001906 38:0.001906 39:0.001906 #
-10.054668255044166613743072957732 11:1.07961 22:1.07961 23:1.07961 24:1.07961 25:1.07961 26:1.07961 27:1.07961 28:1.07961 29:1.07961 30:1.07961 31:1.07961 32:1.07961 36:1.07961 38:1.07961 39:1.07961 40:1.07961 41:1.07961 #
10.054668255044166613743072957732 8:0.54788703 15:0.54788703 36:0.54788703 #
-10.054668255044166613743072957732 8:0.59490597 15:0.59490597 29:0.59490597 30:0.59490597 #
10.054668255044166613743072957732 22:0.135406 23:0.135406 24:0.135406 25:0.135406 26:0.135406 27:0.135406 28:0.135406 29:0.135406 30:0.135406 31:0.135406 32:0.135406 36:0.135406 38:0.135406 39:0.135406 40:0.135406 41:0.135406 #
10.054668255044166613743072957732 11:0.364104 20:0.364104 26:0.364104 38:0.364104 41:0.364104 #
10.054668255044166613743072957732 11:0.33446801 20:0.33446801 #
-10.054668255044166613743072957732 23:0.0028820001 24:0.0028820001 25:0.0028820001 28:0.0028820001 38:0.0028820001 39:0.0028820001 #
-10.054668255044166613743072957732 3:1.121956 22:1.121956 23:1.121956 24:1.121956 25:1.121956 26:1.121956 27:1.121956 28:1.121956 29:1.121956 30:1.121956 31:1.121956 32:1.121956 36:1.121956 38:1.121956 39:1.121956 40:1.121956 41:1.121956 #
-0.37795564717214891192753611903754 18:0.49162999 20:0.49162999 #
-10.054668255044166613743072957732 8:0.033025999 22:0.033025999 24:0.033025999 25:0.033025999 26:0.033025999 27:0.033025999 29:0.033025999 31:0.033025999 32:0.033025999 33:0.033025999 34:0.033025999 36:0.033025999 #
10.054668255044166613743072957732 3:0.568645 24:0.568645 28:0.568645 #
-10.054668255044166613743072957732 20:0.057285 #
10.054668255044166613743072957732 3:0.34742901 16:0.34742901 #
-10.054668255044166613743072957732 15:0.141994 20:0.141994 29:0.141994 30:0.141994 34:0.141994 40:0.141994 41:0.141994 #
-10.054668255044166613743072957732 #
10.054668255044166613743072957732 17:0.084683001 22:0.084683001 23:0.084683001 24:0.084683001 25:0.084683001 26:0.084683001 27:0.084683001 28:0.084683001 29:0.084683001 30:0.084683001 31:0.084683001 32:0.084683001 36:0.084683001 38:0.084683001 39:0.084683001 40:0.084683001 41:0.084683001 #
-10.054668255044166613743072957732 17:0.13462199 #
-10.054668255044166613743072957732 18:0.039299 23:0.039299 24:0.039299 25:0.039299 28:0.039299 38:0.039299 39:0.039299 #
10.054668255044166613743072957732 18:0.13270301 20:0.13270301 22:0.13270301 23:0.13270301 24:0.13270301 25:0.13270301 26:0.13270301 27:0.13270301 28:0.13270301 29:0.13270301 30:0.13270301 31:0.13270301 32:0.13270301 36:0.13270301 38:0.13270301 39:0.13270301 40:0.13270301 41:0.13270301 #
-8.364265237405231090406232397072 17:0.57043302 #
-10.054668255044166613743072957732 17:0.047928002 27:0.047928002 30:0.047928002 #
-10.054668255044166613743072957732 19:0.209488 22:0.209488 23:0.209488 24:0.209488 25:0.209488 26:0.209488 27:0.209488 28:0.209488 29:0.209488 30:0.209488 31:0.209488 32:0.209488 36:0.209488 38:0.209488 39:0.209488 40:0.209488 41:0.209488 #
10.054668255044166613743072957732 1:0.41472399 13:0.41472399 29:0.41472399 30:0.41472399 34:0.41472399 40:0.41472399 41:0.41472399 #
-10.054668255044166613743072957732 5:1.083871 22:1.083871 23:1.083871 24:1.083871 25:1.083871 26:1.083871 27:1.083871 28:1.083871 29:1.083871 30:1.083871 31:1.083871 32:1.083871 36:1.083871 38:1.083871 39:1.083871 40:1.083871 41:1.083871 #
10.054668255044166613743072957732 29:0.390057 30:0.390057 34:0.390057 40:0.390057 41:0.390057 #
-10.054668255044166613743072957732 13:0.014936 17:0.014936 23:0.014936 24:0.014936 25:0.014936 28:0.014936 38:0.014936 39:0.014936 #
-10.054668255044166613743072957732 19:0.99184102 22:0.99184102 23:0.99184102 24:0.99184102 25:0.99184102 26:0.99184102 27:0.99184102 28:0.99184102 29:0.99184102 30:0.99184102 31:0.99184102 32:0.99184102 36:0.99184102 38:0.99184102 39:0.99184102 40:0.99184102 41:0.99184102 #
10.054668255044166613743072957732 5:0.57919902 #
-10.054668255044166613743072957732 19:0.025947999 22:0.025947999 23:0.025947999 24:0.025947999 25:0.025947999 26:0.025947999 27:0.025947999 28:0.025947999 29:0.025947999 30:0.025947999 31:0.025947999 32:0.025947999 36:0.025947999 38:0.025947999 39:0.025947999 40:0.025947999 41:0.025947999 #
10.054668255044166613743072957732 15:0.36391199 19:0.36391199 26:0.36391199 38:0.36391199 41:0.36391199 #
-10.054668255044166613743072957732 4:0.97369802 22:0.97369802 23:0.97369802 24:0.97369802 25:0.97369802 26:0.97369802 27:0.97369802 28:0.97369802 29:0.97369802 30:0.97369802 31:0.97369802 32:0.97369802 36:0.97369802 38:0.97369802 39:0.97369802 40:0.97369802 41:0.97369802 #
10.054668255044166613743072957732 15:0.62555701 20:0.62555701 22:0.62555701 24:0.62555701 25:0.62555701 26:0.62555701 27:0.62555701 29:0.62555701 31:0.62555701 32:0.62555701 33:0.62555701 34:0.62555701 36:0.62555701 #
10.054668255044166613743072957732 19:0.347083 22:0.347083 24:0.347083 25:0.347083 26:0.347083 27:0.347083 29:0.347083 31:0.347083 32:0.347083 33:0.347083 34:0.347083 36:0.347083 #
10.054668255044166613743072957732 8:0.25114101 15:0.25114101 22:0.25114101 26:0.25114101 32:0.25114101 36:0.25114101 #
10.054668255044166613743072957732 22:0.129907 23:0.129907 24:0.129907 25:0.129907 26:0.129907 27:0.129907 28:0.129907 29:0.129907 30:0.129907 31:0.129907 32:0.129907 36:0.129907 38:0.129907 39:0.129907 40:0.129907 41:0.129907 #
-10.054668255044166613743072957732 6:1.542136 26:1.542136 38:1.542136 41:1.542136 #
-10.054668255044166613743072957732 31:0.032079998 38:0.032079998 #
10.054668255044166613743072957732 12:0.048475001 29:0.048475001 30:0.048475001 #
10.054668255044166613743072957732 4:0.505454 29:0.505454 30:0.505454 34:0.505454 40:0.505454 41:0.505454 #
-10.054668255044166613743072957732 30:0.192725 #
10.054668255044166613743072957732 4:0.55262703 #
-10.054668255044166613743072957732 15:0.32223001 19:0.32223001 22:0.32223001 23:0.32223001 24:0.32223001 25:0.32223001 26:0.32223001 27:0.32223001 28:0.32223001 29:0.32223001 30:0.32223001 31:0.32223001 32:0.32223001 36:0.32223001 38:0.32223001 39:0.32223001 40:0.32223001 41:0.32223001 #
-9.8065701875034267942510268767364 34:0.29816601 #
-0.00024252807053893189314502931708262 17:0.042566001 #
10.054668255044166613743072957732 3:0.350122 16:0.350122 24:0.350122 #
-0.053020282616195776870249289913772 1:0.376304 #
-10.054668255044166613743072957732 29:0.60601997 30:0.60601997 #
10.054668255044166613743072957732 27:0.309894 #
-10.054668255044166613743072957732 39:0.134176 #
-10.054668255044166613743072957732 24:0.012965 #
10.054668255044166613743072957732 19:0.130729 27:0.130729 30:0.130729 #
-10.054668255044166613743072957732 31:0.0096279997 38:0.0096279997 #
10.054668255044166613743072957732 22:0.014955 23:0.014955 24:0.014955 25:0.014955 26:0.014955 27:0.014955 28:0.014955 29:0.014955 30:0.014955 31:0.014955 32:0.014955 36:0.014955 38:0.014955 39:0.014955 40:0.014955 41:0.014955 #
-10.054668255044166613743072957732 29:1.258599 30:1.258599 34:1.258599 40:1.258599 41:1.258599 #
-10.054668255044166613743072957732 9:0.0056079999 29:0.0056079999 30:0.0056079999 34:0.0056079999 40:0.0056079999 41:0.0056079999 #
-10.054668255044166613743072957732 36:0.77937698 41:0.77937698 #
-10.054668255044166613743072957732 41:0.134997 #
10.054668255044166613743072957732 #
10.054668255044166613743072957732 29:0.39972299 30:0.39972299 34:0.39972299 40:0.39972299 41:0.39972299 #
-10.054668255044166613743072957732 18:0.0060459999 23:0.0060459999 24:0.0060459999 25:0.0060459999 28:0.0060459999 38:0.0060459999 39:0.0060459999 #
10.054668255044166613743072957732 2:0.0062600002 29:0.0062600002 30:0.0062600002 34:0.0062600002 40:0.0062600002 41:0.0062600002 #
-10.054668255044166613743072957732 36:0.073642001 41:0.073642001 #
-10.054668255044166613743072957732 8:0.182744 #
-10.054668255044166613743072957732 1:0.65672398 #
-10.054668255044166613743072957732 29:0.018285001 #
-10.054668255044166613743072957732 16:0.68604201 22:0.68604201 30:0.68604201 35:0.68604201 37:0.68604201 #
-10.054668255044166613743072957732 14:0.66449797 22:0.66449797 30:0.66449797 35:0.66449797 37:0.66449797 #
-10.054668255044166613743072957732 18:0.38878599 24:0.38878599 26:0.38878599 28:0.38878599 #
10.054668255044166613743072957732 17:0.095976003 22:0.095976003 23:0.095976003 24:0.095976003 25:0.095976003 26:0.095976003 27:0.095976003 28:0.095976003 29:0.095976003 30:0.095976003 31:0.095976003 32:0.095976003 36:0.095976003 38:0.095976003 39:0.095976003 40:0.095976003 41:0.095976003 #
-10.054668255044166613743072957732 17:0.061398 #
10.054668255044166613743072957732 18:0.67121899 26:0.67121899 37:0.67121899 #
-0.39153138939410592200829341891222 18:0.32631999 20:0.32631999 #
-5.2803325243502774455350845528301 2:0.81420499 #
-10.054668255044166613743072957732 2:0.147249 23:0.147249 24:0.147249 25:0.147249 28:0.147249 38:0.147249 39:0.147249 #
7.0350281282401452287444953981321 6:0.87046802 29:0.87046802 30:0.87046802 #
10.054668255044166613743072957732 22:0.216463 23:0.216463 24:0.216463 25:0.216463 26:0.216463 27:0.216463 28:0.216463 29:0.216463 30:0.216463 31:0.216463 32:0.216463 36:0.216463 38:0.216463 39:0.216463 40:0.216463 41:0.216463 #
10.054668255044166613743072957732 1:0.48971301 13:0.48971301 34:0.48971301 36:0.48971301 41:0.48971301 #
10.054668255044166613743072957732 34:0.61041701 36:0.61041701 41:0.61041701 #
-0.00030620227121938429267616887941017 17:0.032404002 #
10.054668255044166613743072957732 18:0.78027898 20:0.78027898 23:0.78027898 24:0.78027898 25:0.78027898 28:0.78027898 38:0.78027898 39:0.78027898 #
10.054668255044166613743072957732 23:0.57033402 24:0.57033402 25:0.57033402 28:0.57033402 38:0.57033402 39:0.57033402 #
-0.16898657876850009529334784019738 13:0.11525 17:0.11525 24:0.11525 26:0.11525 28:0.11525 #
-10.054668255044166613743072957732 9:0.73744899 29:0.73744899 30:0.73744899 34:0.73744899 40:0.73744899 41:0.73744899 #
10.054668255044166613743072957732 3:0.436764 16:0.436764 29:0.436764 30:0.436764 34:0.436764 40:0.436764 41:0.436764 #
10.054668255044166613743072957732 24:0.856107 32:0.856107 34:0.856107 #
-10.054668255044166613743072957732 22:0.95063001 23:0.95063001 24:0.95063001 25:0.95063001 26:0.95063001 27:0.95063001 28:0.95063001 29:0.95063001 30:0.95063001 31:0.95063001 32:0.95063001 36:0.95063001 38:0.95063001 39:0.95063001 40:0.95063001 41:0.95063001 #
-10.054668255044166613743072957732 26:0.23367301 38:0.23367301 41:0.23367301 #
10.054668255044166613743072957732 3:0.414233 16:0.414233 24:0.414233 28:0.414233 #
10.054668255044166613743072957732 13:0.012549 17:0.012549 #
10.054668255044166613743072957732 15:0.46102601 24:0.46102601 28:0.46102601 #
-10.054668255044166613743072957732 8:0.74977797 15:0.74977797 29:0.74977797 30:0.74977797 #
10.054668255044166613743072957732 8:0.22208899 15:0.22208899 26:0.22208899 37:0.22208899 #
10.054668255044166613743072957732 15:0.038169 22:0.038169 23:0.038169 24:0.038169 25:0.038169 26:0.038169 27:0.038169 28:0.038169 29:0.038169 30:0.038169 31:0.038169 32:0.038169 36:0.038169 38:0.038169 39:0.038169 40:0.038169 41:0.038169 #
10.054668255044166613743072957732 15:0.230184 19:0.230184 #
-10.054668255044166613743072957732 23:0.24601801 24:0.24601801 25:0.24601801 28:0.24601801 38:0.24601801 39:0.24601801 #
-10.054668255044166613743072957732 8:0.31665301 15:0.31665301 41:0.31665301 #
-10.054668255044166613743072957732 24:0.56237203 25:0.56237203 31:0.56237203 39:0.56237203 #
-10.054668255044166613743072957732 24:0.40631101 26:0.40631101 28:0.40631101 #
-10.054668255044166613743072957732 5:1.222573 13:1.222573 22:1.222573 23:1.222573 24:1.222573 25:1.222573 26:1.222573 27:1.222573 28:1.222573 29:1.222573 30:1.222573 31:1.222573 32:1.222573 36:1.222573 38:1.222573 39:1.222573 40:1.222573 41:1.222573 #
10.054668255044166613743072957732 11:0.136943 22:0.136943 23:0.136943 24:0.136943 25:0.136943 26:0.136943 27:0.136943 28:0.136943 29:0.136943 30:0.136943 31:0.136943 32:0.136943 36:0.136943 38:0.136943 39:0.136943 40:0.136943 41:0.136943 #
-10.054668255044166613743072957732 16:0.66372901 22:0.66372901 30:0.66372901 35:0.66372901 37:0.66372901 #
10.054668255044166613743072957732 15:0.193213 20:0.193213 22:0.193213 23:0.193213 24:0.193213 25:0.193213 26:0.193213 27:0.193213 28:0.193213 29:0.193213 30:0.193213 31:0.193213 32:0.193213 36:0.193213 38:0.193213 39:0.193213 40:0.193213 41:0.193213 #
-10.054668255044166613743072957732 15:0.075404003 23:0.075404003 24:0.075404003 25:0.075404003 28:0.075404003 38:0.075404003 39:0.075404003 #
-10.054668255044166613743072957732 18:0.70277101 20:0.70277101 23:0.70277101 24:0.70277101 25:0.70277101 28:0.70277101 38:0.70277101 39:0.70277101 #
-10.054668255044166613743072957732 24:0.143444 26:0.143444 28:0.143444 #
-10.054668255044166613743072957732 23:0.00336 39:0.00336 #
10.054668255044166613743072957732 1:0.34283999 13:0.34283999 29:0.34283999 30:0.34283999 34:0.34283999 40:0.34283999 41:0.34283999 #
-10.054668255044166613743072957732 23:0.0059199999 24:0.0059199999 25:0.0059199999 28:0.0059199999 38:0.0059199999 39:0.0059199999 #
-10.054668255044166613743072957732 19:0.54978901 26:0.54978901 38:0.54978901 41:0.54978901 #
-10.054668255044166613743072957732 10:0.21426301 31:0.21426301 38:0.21426301 #
-10.054668255044166613743072957732 1:0.0081740003 #
10.054668255044166613743072957732 29:0.620812 30:0.620812 34:0.620812 40:0.620812 41:0.620812 #
10.054668255044166613743072957732 5:0.120016 22:0.120016 23:0.120016 24:0.120016 25:0.120016 26:0.120016 27:0.120016 28:0.120016 29:0.120016 30:0.120016 31:0.120016 32:0.120016 36:0.120016 38:0.120016 39:0.120016 40:0.120016 41:0.120016 #
10.054668255044166613743072957732 2:0.77040398 29:0.77040398 30:0.77040398 34:0.77040398 40:0.77040398 41:0.77040398 #
10.054668255044166613743072957732 15:0.065893002 19:0.065893002 22:0.065893002 23:0.065893002 24:0.065893002 25:0.065893002 26:0.065893002 27:0.065893002 28:0.065893002 29:0.065893002 30:0.065893002 31:0.065893002 32:0.065893002 36:0.065893002 38:0.065893002 39:0.065893002 40:0.065893002 41:0.065893002 #
-10.054668255044166613743072957732 1:0.70532203 #
10.054668255044166613743072957732 14:0.221663 22:0.221663 30:0.221663 35:0.221663 37:0.221663 #
-10.054668255044166613743072957732 18:0.47695899 20:0.47695899 28:0.47695899 #
10.054668255044166613743072957732 22:0.18707 23:0.18707 24:0.18707 25:0.18707 26:0.18707 27:0.18707 28:0.18707 29:0.18707 30:0.18707 31:0.18707 32:0.18707 36:0.18707 38:0.18707 39:0.18707 40:0.18707 41:0.18707 #
10.054668255044166613743072957732 8:0.50130802 15:0.50130802 29:0.50130802 #
-10.054668255044166613743072957732 24:0.623568 26:0.623568 28:0.623568 #
-10.054668255044166613743072957732 8:0.474814 29:0.474814 #
-10.054668255044166613743072957732 24:0.60230303 26:0.60230303 28:0.60230303 #
-10.054668255044166613743072957732 15:0.97781402 19:0.97781402 26:0.97781402 38:0.97781402 41:0.97781402 #
10.054668255044166613743072957732 7:0.244059 24:0.244059 28:0.244059 #
10.054668255044166613743072957732 5:0.347269 #
-9.1854863642447739380259008612484 22:1.1249599 26:1.1249599 32:1.1249599 36:1.1249599 #
10.054668255044166613743072957732 1:0.48409101 13:0.48409101 29:0.48409101 30:0.48409101 34:0.48409101 40:0.48409101 41:0.48409101 #
-10.054668255044166613743072957732 23:0.83657902 24:0.83657902 25:0.83657902 28:0.83657902 38:0.83657902 39:0.83657902 #
10.054668255044166613743072957732 18:0.69905603 34:0.69905603 #
-10.054668255044166613743072957732 18:0.35760301 27:0.35760301 30:0.35760301 #
10.054668255044166613743072957732 8:0.38022 15:0.38022 22:0.38022 24:0.38022 25:0.38022 26:0.38022 27:0.38022 29:0.38022 31:0.38022 32:0.38022 33:0.38022 34:0.38022 36:0.38022 #
-2.8967819197424184984868134051794 22:1.0093139 24:1.0093139 25:1.0093139 26:1.0093139 27:1.0093139 29:1.0093139 31:1.0093139 32:1.0093139 33:1.0093139 34:1.0093139 36:1.0093139 #
10.054668255044166613743072957732 17:0.85943401 22:0.85943401 24:0.85943401 25:0.85943401 26:0.85943401 27:0.85943401 29:0.85943401 31:0.85943401 32:0.85943401 33:0.85943401 34:0.85943401 36:0.85943401 #
10.054668255044166613743072957732 16:0.044893 22:0.044893 30:0.044893 35:0.044893 37:0.044893 #
10.054668255044166613743072957732 9:0.70623702 24:0.70623702 26:0.70623702 #
10.054668255044166613743072957732 19:0.190623 22:0.190623 23:0.190623 24:0.190623 25:0.190623 26:0.190623 27:0.190623 28:0.190623 29:0.190623 30:0.190623 31:0.190623 32:0.190623 36:0.190623 38:0.190623 39:0.190623 40:0.190623 41:0.190623 #
-10.054668255044166613743072957732 8:0.0097129997 #
10.054668255044166613743072957732 4:0.35199201 22:0.35199201 24:0.35199201 25:0.35199201 26:0.35199201 27:0.35199201 29:0.35199201 31:0.35199201 32:0.35199201 33:0.35199201 34:0.35199201 36:0.35199201 #
10.054668255044166613743072957732 19:0.61643201 24:0.61643201 26:0.61643201 #
10.054668255044166613743072957732 11:0.401876 23:0.401876 24:0.401876 25:0.401876 28:0.401876 38:0.401876 39:0.401876 #
10.054668255044166613743072957732 22:0.78557497 26:0.78557497 32:0.78557497 36:0.78557497 #
10.054668255044166613743072957732 10:0.63629299 #
10.054668255044166613743072957732 4:0.113116 22:0.113116 23:0.113116 24:0.113116 25:0.113116 26:0.113116 27:0.113116 28:0.113116 29:0.113116 30:0.113116 31:0.113116 32:0.113116 36:0.113116 38:0.113116 39:0.113116 40:0.113116 41:0.113116 #
-10.054668255044166613743072957732 #
-10.054668255044166613743072957732 29:0.022944 30:0.022944 34:0.022944 40:0.022944 41:0.022944 #
10.054668255044166613743072957732 2:0.005473 23:0.005473 #
10.054668255044166613743072957732 16:0.0031649999 22:0.0031649999 30:0.0031649999 35:0.0031649999 37:0.0031649999 #
10.054668255044166613743072957732 22:0.005475 23:0.005475 24:0.005475 25:0.005475 26:0.005475 27:0.005475 28:0.005475 29:0.005475 30:0.005475 31:0.005475 32:0.005475 36:0.005475 38:0.005475 39:0.005475 40:0.005475 41:0.005475 #
-10.054668255044166613743072957732 16:0.01432 24:0.01432 #
10.054668255044166613743072957732 22:0.17453501 23:0.17453501 24:0.17453501 25:0.17453501 26:0.17453501 27:0.17453501 28:0.17453501 29:0.17453501 30:0.17453501 31:0.17453501 32:0.17453501 36:0.17453501 38:0.17453501 39:0.17453501 40:0.17453501 41:0.17453501 #
10.054668255044166613743072957732 29:0.73959398 30:0.73959398 34:0.73959398 40:0.73959398 41:0.73959398 #
-10.054668255044166613743072957732 3:0.108534 #
10.054668255044166613743072957732 29:0.50765902 30:0.50765902 34:0.50765902 40:0.50765902 41:0.50765902 #
10.054668255044166613743072957732 1:0.116419 13:0.116419 #
10.054668255044166613743072957732 7:0.31498101 27:0.31498101 30:0.31498101 #
10.054668255044166613743072957732 15:0.23425101 20:0.23425101 23:0.23425101 #
10.054668255044166613743072957732 15:0.19989 22:0.19989 24:0.19989 25:0.19989 26:0.19989 27:0.19989 29:0.19989 31:0.19989 32:0.19989 33:0.19989 34:0.19989 36:0.19989 #
-10.054668255044166613743072957732 3:0.419516 24:0.419516 26:0.419516 #
10.054668255044166613743072957732 13:0.317792 23:0.317792 24:0.317792 25:0.317792 28:0.317792 38:0.317792 39:0.317792 #
10.054668255044166613743072957732 13:0.20266099 17:0.20266099 22:0.20266099 23:0.20266099 24:0.20266099 25:0.20266099 26:0.20266099 27:0.20266099 28:0.20266099 29:0.20266099 30:0.20266099 31:0.20266099 32:0.20266099 36:0.20266099 38:0.20266099 39:0.20266099 40:0.20266099 41:0.20266099 #
-10.054668255044166613743072957732 #
-10.054668255044166613743072957732 9:0.46765301 26:0.46765301 38:0.46765301 41:0.46765301 #
10.054668255044166613743072957732 29:0.178863 39:0.178863 #
-10.054668255044166613743072957732 3:0.38510901 16:0.38510901 26:0.38510901 38:0.38510901 41:0.38510901 #
-10.054668255044166613743072957732 41:0.0077519999 #
10.054668255044166613743072957732 22:0.0092770001 23:0.0092770001 24:0.0092770001 25:0.0092770001 26:0.0092770001 27:0.0092770001 28:0.0092770001 29:0.0092770001 30:0.0092770001 31:0.0092770001 32:0.0092770001 36:0.0092770001 38:0.0092770001 39:0.0092770001 40:0.0092770001 41:0.0092770001 #
10.054668255044166613743072957732 3:0.27744401 13:0.27744401 29:0.27744401 30:0.27744401 34:0.27744401 40:0.27744401 41:0.27744401 #
10.054668255044166613743072957732 14:0.214513 22:0.214513 30:0.214513 35:0.214513 37:0.214513 #
-10.054668255044166613743072957732 22:0.88345098 23:0.88345098 24:0.88345098 25:0.88345098 26:0.88345098 27:0.88345098 28:0.88345098 29:0.88345098 30:0.88345098 31:0.88345098 32:0.88345098 36:0.88345098 38:0.88345098 39:0.88345098 40:0.88345098 41:0.88345098 #
-10.054668255044166613743072957732 3:0.0070679998 16:0.0070679998 23:0.0070679998 24:0.0070679998 25:0.0070679998 28:0.0070679998 38:0.0070679998 39:0.0070679998 #
-10.054668255044166613743072957732 15:0.63119203 20:0.63119203 29:0.63119203 30:0.63119203 34:0.63119203 40:0.63119203 41:0.63119203 #
-10.054668255044166613743072957732 15:0.766478 19:0.766478 22:0.766478 23:0.766478 24:0.766478 25:0.766478 26:0.766478 27:0.766478 28:0.766478 29:0.766478 30:0.766478 31:0.766478 32:0.766478 36:0.766478 38:0.766478 39:0.766478 40:0.766478 41:0.766478 #
10.054668255044166613743072957732 7:0.256201 #
-10.054668255044166613743072957732 23:0.001648 24:0.001648 25:0.001648 28:0.001648 38:0.001648 39:0.001648 #
-10.054668255044166613743072957732 29:0.0091730002 30:0.0091730002 34:0.0091730002 40:0.0091730002 41:0.0091730002 #
10.054668255044166613743072957732 1:0.366119 22:0.366119 #
-10.054668255044166613743072957732 8:0.302203 36:0.302203 41:0.302203 #
-6.9680313507480224899381937575527 14:0.234602 #
10.054668255044166613743072957732 6:0.076063998 22:0.076063998 23:0.076063998 24:0.076063998 25:0.076063998 26:0.076063998 27:0.076063998 28:0.076063998 29:0.076063998 30:0.076063998 31:0.076063998 32:0.076063998 36:0.076063998 38:0.076063998 39:0.076063998 40:0.076063998 41:0.076063998 #
-10.054668255044166613743072957732 26:0.29398501 37:0.29398501 #
10.054668255044166613743072957732 22:0.045350999 23:0.045350999 24:0.045350999 25:0.045350999 26:0.045350999 27:0.045350999 28:0.045350999 29:0.045350999 30:0.045350999 31:0.045350999 32:0.045350999 36:0.045350999 38:0.045350999 39:0.045350999 40:0.045350999 41:0.045350999 #
10.054668255044166613743072957732 1:0.85672301 29:0.85672301 30:0.85672301 34:0.85672301 40:0.85672301 41:0.85672301 #
-10.054668255044166613743072957732 16:0.118688 35:0.118688 #
10.054668255044166613743072957732 4:0.037767999 22:0.037767999 23:0.037767999 24:0.037767999 25:0.037767999 26:0.037767999 27:0.037767999 28:0.037767999 29:0.037767999 30:0.037767999 31:0.037767999 32:0.037767999 36:0.037767999 38:0.037767999 39:0.037767999 40:0.037767999 41:0.037767999 #
10.054668255044166613743072957732 34:0.72332901 #
10.054668255044166613743072957732 15:0.20902801 19:0.20902801 22:0.20902801 23:0.20902801 24:0.20902801 25:0.20902801 26:0.20902801 27:0.20902801 28:0.20902801 29:0.20902801 30:0.20902801 31:0.20902801 32:0.20902801 36:0.20902801 38:0.20902801 39:0.20902801 40:0.20902801 41:0.20902801 #
-10.054668255044166613743072957732 19:0.74979699 22:0.74979699 23:0.74979699 24:0.74979699 25:0.74979699 26:0.74979699 27:0.74979699 28:0.74979699 29:0.74979699 30:0.74979699 31:0.74979699 32:0.74979699 36:0.74979699 38:0.74979699 39:0.74979699 40:0.74979699 41:0.74979699 #
-10.054668255044166613743072957732 7:0.54838699 20:0.54838699 22:0.54838699 23:0.54838699 24:0.54838699 25:0.54838699 26:0.54838699 27:0.54838699 28:0.54838699 29:0.54838699 30:0.54838699 31:0.54838699 32:0.54838699 36:0.54838699 38:0.54838699 39:0.54838699 40:0.54838699 41:0.54838699 #
-10.054668255044166613743072957732 20:0.030577 24:0.030577 26:0.030577 #
10.054668255044166613743072957732 19:0.18016499 22:0.18016499 23:0.18016499 24:0.18016499 25:0.18016499 26:0.18016499 27:0.18016499 28:0.18016499 29:0.18016499 30:0.18016499 31:0.18016499 32:0.18016499 36:0.18016499 38:0.18016499 39:0.18016499 40:0.18016499 41:0.18016499 #
10.054668255044166613743072957732 11:0.16449 20:0.16449 22:0.16449 23:0.16449 24:0.16449 25:0.16449 26:0.16449 27:0.16449 28:0.16449 29:0.16449 30:0.16449 31:0.16449 32:0.16449 36:0.16449 38:0.16449 39:0.16449 40:0.16449 41:0.16449 #
-10.054668255044166613743072957732 29:0.0046100002 30:0.0046100002 34:0.0046100002 40:0.0046100002 41:0.0046100002 #
10.054668255044166613743072957732 4:0.45281801 23:0.45281801 24:0.45281801 25:0.45281801 28:0.45281801 38:0.45281801 39:0.45281801 #
-10.054668255044166613743072957732 #
-10.054668255044166613743072957732 23:0.005142 #
-0.67335296397059474227120290379389 1:0.44327101 29:0.44327101 #
-10.054668255044166613743072957732 22:0.0076299999 #
-10.054668255044166613743072957732 26:0.017726 37:0.017726 #
10.054668255044166613743072957732 9:0.35198599 #
-10.054668255044166613743072957732 #
10.054668255044166613743072957732 29:0.35978499 30:0.35978499 #
10.054668255044166613743072957732 22:0.066472001 23:0.066472001 24:0.066472001 25:0.066472001 26:0.066472001 27:0.066472001 28:0.066472001 29:0.066472001 30:0.066472001 31:0.066472001 32:0.066472001 36:0.066472001 38:0.066472001 39:0.066472001 40:0.066472001 41:0.066472001 #
10.054668255044166613743072957732 1:0.61727601 29:0.61727601 30:0.61727601 34:0.61727601 40:0.61727601 41:0.61727601 #
10.054668255044166613743072957732 4:0.39939201 22:0.39939201 26:0.39939201 32:0.39939201 36:0.39939201 #
-10.054668255044166613743072957732 20:0.003214 #
-0.98038994602153040069936196232447 3:0.56868899 34:0.56868899 36:0.56868899 41:0.56868899 #
10.054668255044166613743072957732 3:0.252029 #
-10.054668255044166613743072957732 22:0.0042320001 28:0.0042320001 #
-10.054668255044166613743072957732 22:0.79064399 23:0.79064399 24:0.79064399 25:0.79064399 26:0.79064399 27:0.79064399 28:0.79064399 29:0.79064399 30:0.79064399 31:0.79064399 32:0.79064399 36:0.79064399 38:0.79064399 39:0.79064399 40:0.79064399 41:0.79064399 #
-4.0157018128859727212898178549949 16:0.50514799 37:0.50514799 #
-10.054668255044166613743072957732 24:0.42750201 26:0.42750201 #
10.054668255044166613743072957732 24:0.26182601 26:0.26182601 28:0.26182601 #
-10.054668255044166613743072957732 34:0.033535 #
10.054668255044166613743072957732 16:0.160687 22:0.160687 30:0.160687 35:0.160687 37:0.160687 #
10.054668255044166613743072957732 3:0.114708 22:0.114708 23:0.114708 24:0.114708 25:0.114708 26:0.114708 27:0.114708 28:0.114708 29:0.114708 30:0.114708 31:0.114708 32:0.114708 36:0.114708 38:0.114708 39:0.114708 40:0.114708 41:0.114708 #
-10.054668255044166613743072957732 22:0.036901001 23:0.036901001 24:0.036901001 25:0.036901001 26:0.036901001 27:0.036901001 28:0.036901001 29:0.036901001 30:0.036901001 31:0.036901001 32:0.036901001 36:0.036901001 38:0.036901001 39:0.036901001 40:0.036901001 41:0.036901001 #
10.054668255044166613743072957732 15:0.074671999 19:0.074671999 #
-10.054668255044166613743072957732 3:0.079662003 29:0.079662003 39:0.079662003 #
-10.048444165521308590882654243615 19:0.010478 #
-10.054668255044166613743072957732 3:0.046672001 23:0.046672001 24:0.046672001 25:0.046672001 28:0.046672001 38:0.046672001 39:0.046672001 #
-10.054668255044166613743072957732 15:0.75772703 22:0.75772703 23:0.75772703 24:0.75772703 25:0.75772703 26:0.75772703 27:0.75772703 28:0.75772703 29:0.75772703 30:0.75772703 31:0.75772703 32:0.75772703 36:0.75772703 38:0.75772703 39:0.75772703 40:0.75772703 41:0.75772703 #
10.054668255044166613743072957732 9:0.65351099 26:0.65351099 38:0.65351099 41:0.65351099 #
-10.054668255044166613743072957732 3:0.335374 16:0.335374 35:0.335374 #
-10.054668255044166613743072957732 #
10.054668255044166613743072957732 23:0.002656 24:0.002656 25:0.002656 28:0.002656 38:0.002656 39:0.002656 #
10.054668255044166613743072957732 7:0.42232299 20:0.42232299 #
10.054668255044166613743072957732 19:0.49630001 #
-10.054668255044166613743072957732 17:0.064336002 #
-10.054668255044166613743072957732 29:0.088926002 #
10.054668255044166613743072957732 19:0.37657899 #
10.054668255044166613743072957732 8:0.153997 15:0.153997 22:0.153997 23:0.153997 24:0.153997 25:0.153997 26:0.153997 27:0.153997 28:0.153997 29:0.153997 30:0.153997 31:0.153997 32:0.153997 36:0.153997 38:0.153997 39:0.153997 40:0.153997 41:0.153997 #
-10.054668255044166613743072957732 22:0.64784598 23:0.64784598 24:0.64784598 25:0.64784598 26:0.64784598 27:0.64784598 28:0.64784598 29:0.64784598 30:0.64784598 31:0.64784598 32:0.64784598 36:0.64784598 38:0.64784598 39:0.64784598 40:0.64784598 41:0.64784598 #
-10.054668255044166613743072957732 26:0.094639003 38:0.094639003 41:0.094639003 #
10.054668255044166613743072957732 22:0.12214 23:0.12214 24:0.12214 25:0.12214 26:0.12214 27:0.12214 28:0.12214 29:0.12214 30:0.12214 31:0.12214 32:0.12214 36:0.12214 38:0.12214 39:0.12214 40:0.12214 41:0.12214 #
-10.054668255044166613743072957732 5:1.1387351 13:1.1387351 22:1.1387351 23:1.1387351 24:1.1387351 25:1.1387351 26:1.1387351 27:1.1387351 28:1.1387351 29:1.1387351 30:1.1387351 31:1.1387351 32:1.1387351 36:1.1387351 38:1.1387351 39:1.1387351 40:1.1387351 41:1.1387351 #
10.054668255044166613743072957732 8:0.054496001 15:0.054496001 22:0.054496001 23:0.054496001 24:0.054496001 25:0.054496001 26:0.054496001 27:0.054496001 28:0.054496001 29:0.054496001 30:0.054496001 31:0.054496001 32:0.054496001 36:0.054496001 38:0.054496001 39:0.054496001 40:0.054496001 41:0.054496001 #
10.054668255044166613743072957732 22:0.079970002 23:0.079970002 24:0.079970002 25:0.079970002 26:0.079970002 27:0.079970002 28:0.079970002 29:0.079970002 30:0.079970002 31:0.079970002 32:0.079970002 36:0.079970002 38:0.079970002 39:0.079970002 40:0.079970002 41:0.079970002 #
10.054668255044166613743072957732 5:0.01344 26:0.01344 38:0.01344 41:0.01344 #
10.054668255044166613743072957732 3:0.006213 #
-10.054668255044166613743072957732 24:0.593629 28:0.593629 #
-10.054668255044166613743072957732 29:0.011704 #
-10.054668255044166613743072957732 2:0.392398 #
10.054668255044166613743072957732 22:0.091453999 23:0.091453999 24:0.091453999 25:0.091453999 26:0.091453999 27:0.091453999 28:0.091453999 29:0.091453999 30:0.091453999 31:0.091453999 32:0.091453999 36:0.091453999 38:0.091453999 39:0.091453999 40:0.091453999 41:0.091453999 #
-3.4517210164575917730189758003689 #
-10.054668255044166613743072957732 11:0.86757898 26:0.86757898 38:0.86757898 41:0.86757898 #
-9.8176251612677685187691167811863 15:0.771559 29:0.771559 30:0.771559 34:0.771559 40:0.771559 41:0.771559 #
-10.054668255044166613743072957732 16:0.26221499 22:0.26221499 30:0.26221499 35:0.26221499 37:0.26221499 #
-10.054668255044166613743072957732 29:0.0095319999 30:0.0095319999 34:0.0095319999 40:0.0095319999 41:0.0095319999 #
-10.054668255044166613743072957732 10:0.010752 22:0.010752 23:0.010752 24:0.010752 25:0.010752 26:0.010752 27:0.010752 28:0.010752 29:0.010752 30:0.010752 31:0.010752 32:0.010752 36:0.010752 38:0.010752 39:0.010752 40:0.010752 41:0.010752 #
10.054668255044166613743072957732 22:0.056108002 23:0.056108002 24:0.056108002 25:0.056108002 26:0.056108002 27:0.056108002 28:0.056108002 29:0.056108002 30:0.056108002 31:0.056108002 32:0.056108002 36:0.056108002 38:0.056108002 39:0.056108002 40:0.056108002 41:0.056108002 #
10.054668255044166613743072957732 8:0.052772 22:0.052772 23:0.052772 24:0.052772 25:0.052772 26:0.052772 27:0.052772 28:0.052772 29:0.052772 30:0.052772 31:0.052772 32:0.052772 36:0.052772 38:0.052772 39:0.052772 40:0.052772 41:0.052772 #
10.054668255044166613743072957732 #
10.054668255044166613743072957732 18:0.680861 #
-10.054668255044166613743072957732 2:0.474255 29:0.474255 30:0.474255 34:0.474255 40:0.474255 41:0.474255 #
-10.054668255044166613743072957732 18:0.954382 23:0.954382 24:0.954382 25:0.954382 28:0.954382 38:0.954382 39:0.954382 #
-10.054668255044166613743072957732 1:0.621005 13:0.621005 22:0.621005 23:0.621005 24:0.621005 25:0.621005 26:0.621005 27:0.621005 28:0.621005 29:0.621005 30:0.621005 31:0.621005 32:0.621005 36:0.621005 38:0.621005 39:0.621005 40:0.621005 41:0.621005 #
-10.054668255044166613743072957732 4:0.27852699 29:0.27852699 30:0.27852699 34:0.27852699 40:0.27852699 41:0.27852699 #
-10.054668255044166613743072957732 3:0.14149199 34:0.14149199 #
-10.054668255044166613743072957732 4:0.76901001 22:0.76901001 23:0.76901001 24:0.76901001 25:0.76901001 26:0.76901001 27:0.76901001 28:0.76901001 29:0.76901001 30:0.76901001 31:0.76901001 32:0.76901001 36:0.76901001 38:0.76901001 39:0.76901001 40:0.76901001 41:0.76901001 #
-10.054668255044166613743072957732 22:0.63157499 23:0.63157499 24:0.63157499 25:0.63157499 26:0.63157499 27:0.63157499 28:0.63157499 29:0.63157499 30:0.63157499 31:0.63157499 32:0.63157499 36:0.63157499 38:0.63157499 39:0.63157499 40:0.63157499 41:0.63157499 #
-10.054668255044166613743072957732 23:0.39019999 39:0.39019999 #
-10.054668255044166613743072957732 1:0.011174 29:0.011174 30:0.011174 34:0.011174 40:0.011174 41:0.011174 #
-10.054668255044166613743072957732 9:0.024637001 #
-10.054668255044166613743072957732 8:0.019758999 15:0.019758999 29:0.019758999 30:0.019758999 34:0.019758999 40:0.019758999 41:0.019758999 #
10.054668255044166613743072957732 23:0.30632699 39:0.30632699 #
-10.054668255044166613743072957732 1:0.25955901 13:0.25955901 22:0.25955901 23:0.25955901 24:0.25955901 25:0.25955901 26:0.25955901 27:0.25955901 28:0.25955901 29:0.25955901 30:0.25955901 31:0.25955901 32:0.25955901 36:0.25955901 38:0.25955901 39:0.25955901 40:0.25955901 41:0.25955901 #
10.054668255044166613743072957732 36:0.55638701 #
-10.054668255044166613743072957732 24:0.400877 25:0.400877 31:0.400877 39:0.400877 #
-10.054668255044166613743072957732 26:0.32302001 38:0.32302001 41:0.32302001 #
-10.054668255044166613743072957732 5:1.089751 13:1.089751 22:1.089751 23:1.089751 24:1.089751 25:1.089751 26:1.089751 27:1.089751 28:1.089751 29:1.089751 30:1.089751 31:1.089751 32:1.089751 36:1.089751 38:1.089751 39:1.089751 40:1.089751 41:1.089751 #
10.054668255044166613743072957732 17:0.54569399 24:0.54569399 28:0.54569399 #
-10.054668255044166613743072957732 14:0.36021 22:0.36021 30:0.36021 35:0.36021 37:0.36021 #
-10.054668255044166613743072957732 15:0.72127002 19:0.72127002 22:0.72127002 23:0.72127002 24:0.72127002 25:0.72127002 26:0.72127002 27:0.72127002 28:0.72127002 29:0.72127002 30:0.72127002 31:0.72127002 32:0.72127002 36:0.72127002 38:0.72127002 39:0.72127002 40:0.72127002 41:0.72127002 #
10.054668255044166613743072957732 5:0.222839 29:0.222839 30:0.222839 34:0.222839 40:0.222839 41:0.222839 #
-10.054668255044166613743072957732 16:0.29122001 22:0.29122001 30:0.29122001 35:0.29122001 37:0.29122001 #
-10.054668255044166613743072957732 22:0.62480301 23:0.62480301 24:0.62480301 25:0.62480301 26:0.62480301 27:0.62480301 28:0.62480301 29:0.62480301 30:0.62480301 31:0.62480301 32:0.62480301 36:0.62480301 38:0.62480301 39:0.62480301 40:0.62480301 41:0.62480301 #
10.054668255044166613743072957732 9:0.247356 24:0.247356 26:0.247356 28:0.247356 #
10.054668255044166613743072957732 5:0.32858101 #
-10.054668255044166613743072957732 24:0.061427999 28:0.061427999 #
-10.054668255044166613743072957732 8:0.54459298 15:0.54459298 22:0.54459298 23:0.54459298 24:0.54459298 25:0.54459298 26:0.54459298 27:0.54459298 28:0.54459298 29:0.54459298 30:0.54459298 31:0.54459298 32:0.54459298 36:0.54459298 38:0.54459298 39:0.54459298 40:0.54459298 41:0.54459298 #
10.054668255044166613743072957732 1:0.042300999 13:0.042300999 22:0.042300999 30:0.042300999 35:0.042300999 37:0.042300999 #
10.054668255044166613743072957732 18:0.39705601 20:0.39705601 #
10.054668255044166613743072957732 11:0.28725401 20:0.28725401 #
10.054668255044166613743072957732 22:0.24326301 24:0.24326301 25:0.24326301 26:0.24326301 27:0.24326301 29:0.24326301 31:0.24326301 32:0.24326301 33:0.24326301 34:0.24326301 36:0.24326301 #
10.054668255044166613743072957732 8:0.21840701 15:0.21840701 26:0.21840701 37:0.21840701 #
10.054668255044166613743072957732 19:0.29097199 29:0.29097199 30:0.29097199 34:0.29097199 40:0.29097199 41:0.29097199 #
-10.054668255044166613743072957732 22:0.58879 23:0.58879 24:0.58879 25:0.58879 26:0.58879 27:0.58879 28:0.58879 29:0.58879 30:0.58879 31:0.58879 32:0.58879 36:0.58879 38:0.58879 39:0.58879 40:0.58879 41:0.58879 #
-10.054668255044166613743072957732 22:0.29019701 37:0.29019701 #
10.054668255044166613743072957732 26:0.132534 38:0.132534 41:0.132534 #
10.054668255044166613743072957732 1:0.178699 13:0.178699 29:0.178699 30:0.178699 34:0.178699 40:0.178699 41:0.178699 #
10.054668255044166613743072957732 8:0.154282 15:0.154282 24:0.154282 32:0.154282 34:0.154282 #
10.054668255044166613743072957732 24:0.20096999 25:0.20096999 31:0.20096999 39:0.20096999 #
10.054668255044166613743072957732 27:0.174793 #
10.054668255044166613743072957732 13:0.158213 17:0.158213 26:0.158213 37:0.158213 #
-10.054668255044166613743072957732 3:0.007336 16:0.007336 31:0.007336 38:0.007336 #
-3.8355701669119950381059425126296 14:0.55791301 22:0.55791301 37:0.55791301 #
10.054668255044166613743072957732 13:0.132883 17:0.132883 24:0.132883 32:0.132883 34:0.132883 #
10.054668255044166613743072957732 18:0.56463999 #
10.054668255044166613743072957732 10:0.33968499 #
10.054668255044166613743072957732 9:0.139663 22:0.139663 23:0.139663 24:0.139663 25:0.139663 26:0.139663 27:0.139663 28:0.139663 29:0.139663 30:0.139663 31:0.139663 32:0.139663 36:0.139663 38:0.139663 39:0.139663 40:0.139663 41:0.139663 #
10.054668255044166613743072957732 18:0.146578 23:0.146578 24:0.146578 25:0.146578 28:0.146578 38:0.146578 39:0.146578 #
10.054668255044166613743072957732 22:0.13991299 23:0.13991299 24:0.13991299 25:0.13991299 26:0.13991299 27:0.13991299 28:0.13991299 29:0.13991299 30:0.13991299 31:0.13991299 32:0.13991299 36:0.13991299 38:0.13991299 39:0.13991299 40:0.13991299 41:0.13991299 #
-10.054668255044166613743072957732 22:0.30622399 26:0.30622399 32:0.30622399 36:0.30622399 #
10.054668255044166613743072957732 24:0.53666002 26:0.53666002 28:0.53666002 #
-10.054668255044166613743072957732 7:0.40813899 23:0.40813899 24:0.40813899 25:0.40813899 28:0.40813899 38:0.40813899 39:0.40813899 #
-10.054668255044166613743072957732 18:0.60031998 23:0.60031998 24:0.60031998 25:0.60031998 28:0.60031998 38:0.60031998 39:0.60031998 #
-10.054668255044166613743072957732 1:0.353268 #
-10.054668255044166613743072957732 22:0.38954201 23:0.38954201 24:0.38954201 25:0.38954201 26:0.38954201 27:0.38954201 28:0.38954201 29:0.38954201 30:0.38954201 31:0.38954201 32:0.38954201 36:0.38954201 38:0.38954201 39:0.38954201 40:0.38954201 41:0.38954201 #
10.054668255044166613743072957732 19:0.23725399 29:0.23725399 30:0.23725399 #
10.054668255044166613743072957732 7:0.177525 20:0.177525 22:0.177525 23:0.177525 24:0.177525 25:0.177525 26:0.177525 27:0.177525 28:0.177525 29:0.177525 30:0.177525 31:0.177525 32:0.177525 36:0.177525 38:0.177525 39:0.177525 40:0.177525 41:0.177525 #
10.054668255044166613743072957732 15:0.31928 24:0.31928 28:0.31928 #
10.054668255044166613743072957732 3:0.36364201 24:0.36364201 26:0.36364201 #
-10.054668255044166613743072957732 11:0.77807403 22:0.77807403 23:0.77807403 24:0.77807403 25:0.77807403 26:0.77807403 27:0.77807403 28:0.77807403 29:0.77807403 30:0.77807403 31:0.77807403 32:0.77807403 36:0.77807403 38:0.77807403 39:0.77807403 40:0.77807403 41:0.77807403 #
-10.054668255044166613743072957732 4:0.55058098 22:0.55058098 23:0.55058098 24:0.55058098 25:0.55058098 26:0.55058098 27:0.55058098 28:0.55058098 29:0.55058098 30:0.55058098 31:0.55058098 32:0.55058098 36:0.55058098 38:0.55058098 39:0.55058098 40:0.55058098 41:0.55058098 #
-10.054668255044166613743072957732 22:0.40959999 23:0.40959999 24:0.40959999 25:0.40959999 26:0.40959999 27:0.40959999 28:0.40959999 29:0.40959999 30:0.40959999 31:0.40959999 32:0.40959999 36:0.40959999 38:0.40959999 39:0.40959999 40:0.40959999 41:0.40959999 #
10.054668255044166613743072957732 1:0.054079998 22:0.054079998 23:0.054079998 24:0.054079998 25:0.054079998 26:0.054079998 27:0.054079998 28:0.054079998 29:0.054079998 30:0.054079998 31:0.054079998 32:0.054079998 36:0.054079998 38:0.054079998 39:0.054079998 40:0.054079998 41:0.054079998 #
-10.054668255044166613743072957732 24:0.24977501 25:0.24977501 31:0.24977501 39:0.24977501 #
-9.6905878898589872250113330665044 26:0.367405 37:0.367405 #
-10.054668255044166613743072957732 8:0.023302 34:0.023302 36:0.023302 41:0.023302 #
-10.054668255044166613743072957732 22:0.40631101 23:0.40631101 24:0.40631101 25:0.40631101 26:0.40631101 27:0.40631101 28:0.40631101 29:0.40631101 30:0.40631101 31:0.40631101 32:0.40631101 36:0.40631101 38:0.40631101 39:0.40631101 40:0.40631101 41:0.40631101 #
-10.054668255044166613743072957732 24:0.172682 25:0.172682 31:0.172682 39:0.172682 #
-10.054668255044166613743072957732 14:0.105993 35:0.105993 #
-10.054668255044166613743072957732 8:0.30565301 15:0.30565301 22:0.30565301 23:0.30565301 24:0.30565301 25:0.30565301 26:0.30565301 27:0.30565301 28:0.30565301 29:0.30565301 30:0.30565301 31:0.30565301 32:0.30565301 36:0.30565301 38:0.30565301 39:0.30565301 40:0.30565301 41:0.30565301 #
-10.054668255044166613743072957732 17:0.065768003 #
10.054668255044166613743072957732 5:0.193057 24:0.193057 26:0.193057 28:0.193057 #
-9.1674083723170571857963295769878 4:0.33821499 34:0.33821499 #
-10.054668255044166613743072957732 22:0.403844 23:0.403844 24:0.403844 25:0.403844 26:0.403844 27:0.403844 28:0.403844 29:0.403844 30:0.403844 31:0.403844 32:0.403844 36:0.403844 38:0.403844 39:0.403844 40:0.403844 41:0.403844 #
-10.054668255044166613743072957732 1:0.380472 22:0.380472 23:0.380472 24:0.380472 25:0.380472 26:0.380472 27:0.380472 28:0.380472 29:0.380472 30:0.380472 31:0.380472 32:0.380472 36:0.380472 38:0.380472 39:0.380472 40:0.380472 41:0.380472 #
10.054668255044166613743072957732 22:0.183432 23:0.183432 24:0.183432 25:0.183432 26:0.183432 27:0.183432 28:0.183432 29:0.183432 30:0.183432 31:0.183432 32:0.183432 36:0.183432 38:0.183432 39:0.183432 40:0.183432 41:0.183432 #
-10.054668255044166613743072957732 5:0.88424599 13:0.88424599 22:0.88424599 23:0.88424599 24:0.88424599 25:0.88424599 26:0.88424599 27:0.88424599 28:0.88424599 29:0.88424599 30:0.88424599 31:0.88424599 32:0.88424599 36:0.88424599 38:0.88424599 39:0.88424599 40:0.88424599 41:0.88424599 #
10.054668255044166613743072957732 22:0.186942 23:0.186942 24:0.186942 25:0.186942 26:0.186942 27:0.186942 28:0.186942 29:0.186942 30:0.186942 31:0.186942 32:0.186942 36:0.186942 38:0.186942 39:0.186942 40:0.186942 41:0.186942 #
-10.054668255044166613743072957732 4:0.435619 22:0.435619 23:0.435619 24:0.435619 25:0.435619 26:0.435619 27:0.435619 28:0.435619 29:0.435619 30:0.435619 31:0.435619 32:0.435619 36:0.435619 38:0.435619 39:0.435619 40:0.435619 41:0.435619 #
10.054668255044166613743072957732 5:0.075823002 13:0.075823002 26:0.075823002 37:0.075823002 #
-10.054668255044166613743072957732 8:0.467307 15:0.467307 22:0.467307 23:0.467307 24:0.467307 25:0.467307 26:0.467307 27:0.467307 28:0.467307 29:0.467307 30:0.467307 31:0.467307 32:0.467307 36:0.467307 38:0.467307 39:0.467307 40:0.467307 41:0.467307 #
10.054668255044166613743072957732 8:0.227045 15:0.227045 #
-10.054668255044166613743072957732 22:0.004828 #
10.054668255044166613743072957732 15:0.12068 20:0.12068 24:0.12068 26:0.12068 #
10.054668255044166613743072957732 11:0.168414 #
-10.047265073952157621306469081901 8:0.457535 15:0.457535 #
-10.054668255044166613743072957732 19:0.451401 22:0.451401 23:0.451401 24:0.451401 25:0.451401 26:0.451401 27:0.451401 28:0.451401 29:0.451401 30:0.451401 31:0.451401 32:0.451401 36:0.451401 38:0.451401 39:0.451401 40:0.451401 41:0.451401 #
10.054668255044166613743072957732 22:0.169761 23:0.169761 24:0.169761 25:0.169761 26:0.169761 27:0.169761 28:0.169761 29:0.169761 30:0.169761 31:0.169761 32:0.169761 36:0.169761 38:0.169761 39:0.169761 40:0.169761 41:0.169761 #
-10.054668255044166613743072957732 22:0.34319299 23:0.34319299 24:0.34319299 25:0.34319299 26:0.34319299 27:0.34319299 28:0.34319299 29:0.34319299 30:0.34319299 31:0.34319299 32:0.34319299 36:0.34319299 38:0.34319299 39:0.34319299 40:0.34319299 41:0.34319299 #
-10.054668255044166613743072957732 24:0.20114399 25:0.20114399 31:0.20114399 39:0.20114399 #
10.054668255044166613743072957732 22:0.178137 23:0.178137 24:0.178137 25:0.178137 26:0.178137 27:0.178137 28:0.178137 29:0.178137 30:0.178137 31:0.178137 32:0.178137 36:0.178137 38:0.178137 39:0.178137 40:0.178137 41:0.178137 #
-10.054668255044166613743072957732 24:0.375173 26:0.375173 28:0.375173 #
10.054668255044166613743072957732 #
10.054668255044166613743072957732 24:0.451098 26:0.451098 28:0.451098 #
10.054668255044166613743072957732 7:0.27253899 20:0.27253899 #
-10.054668255044166613743072957732 3:0.028468 27:0.028468 30:0.028468 #
-10.054668255044166613743072957732 22:0.31166101 23:0.31166101 24:0.31166101 25:0.31166101 26:0.31166101 27:0.31166101 28:0.31166101 29:0.31166101 30:0.31166101 31:0.31166101 32:0.31166101 36:0.31166101 38:0.31166101 39:0.31166101 40:0.31166101 41:0.31166101 #
-10.054668255044166613743072957732 12:0.32265499 22:0.32265499 23:0.32265499 24:0.32265499 25:0.32265499 26:0.32265499 27:0.32265499 28:0.32265499 29:0.32265499 30:0.32265499 31:0.32265499 32:0.32265499 36:0.32265499 38:0.32265499 39:0.32265499 40:0.32265499 41:0.32265499 #
10.054668255044166613743072957732 22:0.118106 23:0.118106 24:0.118106 25:0.118106 26:0.118106 27:0.118106 28:0.118106 29:0.118106 30:0.118106 31:0.118106 32:0.118106 36:0.118106 38:0.118106 39:0.118106 40:0.118106 41:0.118106 #
10.054668255044166613743072957732 34:0.30579501 #
10.054668255044166613743072957732 12:0.34665999 #
10.054668255044166613743072957732 8:0.28236899 15:0.28236899 29:0.28236899 30:0.28236899 #
10.054668255044166613743072957732 8:0.283252 15:0.283252 29:0.283252 30:0.283252 #
-10.054668255044166613743072957732 13:0.135143 23:0.135143 24:0.135143 25:0.135143 28:0.135143 38:0.135143 39:0.135143 #
-10.054668255044166613743072957732 22:0.30622399 23:0.30622399 24:0.30622399 25:0.30622399 26:0.30622399 27:0.30622399 28:0.30622399 29:0.30622399 30:0.30622399 31:0.30622399 32:0.30622399 36:0.30622399 38:0.30622399 39:0.30622399 40:0.30622399 41:0.30622399 #
10.054668255044166613743072957732 22:0.165014 23:0.165014 24:0.165014 25:0.165014 26:0.165014 27:0.165014 28:0.165014 29:0.165014 30:0.165014 31:0.165014 32:0.165014 36:0.165014 38:0.165014 39:0.165014 40:0.165014 41:0.165014 #
-10.054668255044166613743072957732 10:0.189291 24:0.189291 25:0.189291 31:0.189291 39:0.189291 #
-10.054668255044166613743072957732 26:0.26724401 38:0.26724401 41:0.26724401 #
-9.3664949061412965392037222045474 36:1.080207 #
10.054668255044166613743072957732 5:0.0080899997 13:0.0080899997 22:0.0080899997 23:0.0080899997 24:0.0080899997 25:0.0080899997 26:0.0080899997 27:0.0080899997 28:0.0080899997 29:0.0080899997 30:0.0080899997 31:0.0080899997 32:0.0080899997 36:0.0080899997 38:0.0080899997 39:0.0080899997 40:0.0080899997 41:0.0080899997 #
10.054668255044166613743072957732 36:0.24015801 #
-10.054668255044166613743072957732 23:0.155462 24:0.155462 25:0.155462 28:0.155462 38:0.155462 39:0.155462 #
-10.054668255044166613743072957732 22:0.154871 34:0.154871 41:0.154871 #
10.054668255044166613743072957732 24:0.199038 26:0.199038 28:0.199038 #
10.054668255044166613743072957732 9:0.041687001 22:0.041687001 23:0.041687001 24:0.041687001 25:0.041687001 26:0.041687001 27:0.041687001 28:0.041687001 29:0.041687001 30:0.041687001 31:0.041687001 32:0.041687001 36:0.041687001 38:0.041687001 39:0.041687001 40:0.041687001 41:0.041687001 #
10.054668255044166613743072957732 3:0.30038899 24:0.30038899 26:0.30038899 28:0.30038899 #
10.054668255044166613743072957732 5:0.203602 24:0.203602 26:0.203602 #
10.054668255044166613743072957732 19:0.209857 #
-10.054668255044166613743072957732 1:0.156781 23:0.156781 24:0.156781 25:0.156781 28:0.156781 38:0.156781 39:0.156781 #
10.054668255044166613743072957732 19:0.21114101 29:0.21114101 30:0.21114101 34:0.21114101 40:0.21114101 41:0.21114101 #
10.054668255044166613743072957732 7:0.12566601 23:0.12566601 24:0.12566601 25:0.12566601 28:0.12566601 38:0.12566601 39:0.12566601 #
10.054668255044166613743072957732 9:0.197128 22:0.197128 30:0.197128 35:0.197128 37:0.197128 #
-10.054668255044166613743072957732 22:0.131699 34:0.131699 41:0.131699 #
10.054668255044166613743072957732 18:0.142895 23:0.142895 24:0.142895 25:0.142895 28:0.142895 38:0.142895 39:0.142895 #
10.054668255044166613743072957732 2:0.134965 22:0.134965 30:0.134965 35:0.134965 37:0.134965 #
-4.604049927597858804517727548955 24:0.64540398 26:0.64540398 #
10.054668255044166613743072957732 19:0.144223 36:0.144223 #
-10.054668255044166613743072957732 23:0.019664999 #
10.054668255044166613743072957732 17:0.194791 22:0.194791 23:0.194791 24:0.194791 25:0.194791 26:0.194791 27:0.194791 28:0.194791 29:0.194791 30:0.194791 31:0.194791 32:0.194791 36:0.194791 38:0.194791 39:0.194791 40:0.194791 41:0.194791 #
-10.054668255044166613743072957732 8:0.36329401 15:0.36329401 22:0.36329401 23:0.36329401 24:0.36329401 25:0.36329401 26:0.36329401 27:0.36329401 28:0.36329401 29:0.36329401 30:0.36329401 31:0.36329401 32:0.36329401 36:0.36329401 38:0.36329401 39:0.36329401 40:0.36329401 41:0.36329401 #
-10.054668255044166613743072957732 7:0.26763299 23:0.26763299 24:0.26763299 25:0.26763299 28:0.26763299 38:0.26763299 39:0.26763299 #
10.054668255044166613743072957732 5:0.0088889999 13:0.0088889999 22:0.0088889999 23:0.0088889999 24:0.0088889999 25:0.0088889999 26:0.0088889999 27:0.0088889999 28:0.0088889999 29:0.0088889999 30:0.0088889999 31:0.0088889999 32:0.0088889999 36:0.0088889999 38:0.0088889999 39:0.0088889999 40:0.0088889999 41:0.0088889999 #
-10.054668255044166613743072957732 24:0.400722 26:0.400722 #
10.054668255044166613743072957732 22:0.20095 23:0.20095 24:0.20095 25:0.20095 26:0.20095 27:0.20095 28:0.20095 29:0.20095 30:0.20095 31:0.20095 32:0.20095 36:0.20095 38:0.20095 39:0.20095 40:0.20095 41:0.20095 #
-10.054668255044166613743072957732 8:0.28097299 15:0.28097299 22:0.28097299 23:0.28097299 24:0.28097299 25:0.28097299 26:0.28097299 27:0.28097299 28:0.28097299 29:0.28097299 30:0.28097299 31:0.28097299 32:0.28097299 36:0.28097299 38:0.28097299 39:0.28097299 40:0.28097299 41:0.28097299 #
-10.054668255044166613743072957732 23:0.15349799 24:0.15349799 25:0.15349799 28:0.15349799 38:0.15349799 39:0.15349799 #
-10.054668255044166613743072957732 5:0.47729099 13:0.47729099 22:0.47729099 23:0.47729099 24:0.47729099 25:0.47729099 26:0.47729099 27:0.47729099 28:0.47729099 29:0.47729099 30:0.47729099 31:0.47729099 32:0.47729099 36:0.47729099 38:0.47729099 39:0.47729099 40:0.47729099 41:0.47729099 #
10.054668255044166613743072957732 16:0.18741199 22:0.18741199 30:0.18741199 35:0.18741199 37:0.18741199 #
10.054668255044166613743072957732 13:0.103748 #
-10.054668255044166613743072957732 9:0.47924101 29:0.47924101 30:0.47924101 34:0.47924101 40:0.47924101 41:0.47924101 #
-3.1067738204900119391993484896375 6:0.39457101 29:0.39457101 30:0.39457101 34:0.39457101 40:0.39457101 41:0.39457101 #
10.054668255044166613743072957732 2:0.60712498 26:0.60712498 38:0.60712498 41:0.60712498 #
10.054668255044166613743072957732 14:0.089217998 22:0.089217998 30:0.089217998 35:0.089217998 37:0.089217998 #
10.054668255044166613743072957732 16:0.039542999 22:0.039542999 30:0.039542999 35:0.039542999 37:0.039542999 #
10.054668255044166613743072957732 7:0.354752 20:0.354752 22:0.354752 34:0.354752 41:0.354752 #
-10.054668255044166613743072957732 23:0.76145202 #
-10.054668255044166613743072957732 3:0.65777498 #
-1.9035985656818263933587331848685 18:0.19966801 20:0.19966801 24:0.19966801 32:0.19966801 34:0.19966801 #
-10.054668255044166613743072957732 10:0.110808 31:0.110808 38:0.110808 #
10.054668255044166613743072957732 22:0.19950099 23:0.19950099 24:0.19950099 25:0.19950099 26:0.19950099 27:0.19950099 28:0.19950099 29:0.19950099 30:0.19950099 31:0.19950099 32:0.19950099 36:0.19950099 38:0.19950099 39:0.19950099 40:0.19950099 41:0.19950099 #
10.054668255044166613743072957732 4:0.164046 22:0.164046 23:0.164046 24:0.164046 25:0.164046 26:0.164046 27:0.164046 28:0.164046 29:0.164046 30:0.164046 31:0.164046 32:0.164046 36:0.164046 38:0.164046 39:0.164046 40:0.164046 41:0.164046 #
10.054668255044166613743072957732 1:0.175791 22:0.175791 30:0.175791 35:0.175791 37:0.175791 #
10.054668255044166613743072957732 18:0.64786398 26:0.64786398 38:0.64786398 41:0.64786398 #
10.054668255044166613743072957732 4:0.25027499 23:0.25027499 24:0.25027499 25:0.25027499 28:0.25027499 38:0.25027499 39:0.25027499 #
-10.054668255044166613743072957732 #
10.054668255044166613743072957732 8:0.188061 15:0.188061 22:0.188061 23:0.188061 24:0.188061 25:0.188061 26:0.188061 27:0.188061 28:0.188061 29:0.188061 30:0.188061 31:0.188061 32:0.188061 36:0.188061 38:0.188061 39:0.188061 40:0.188061 41:0.188061 #
10.054668255044166613743072957732 22:0.094306 23:0.094306 24:0.094306 25:0.094306 26:0.094306 27:0.094306 28:0.094306 29:0.094306 30:0.094306 31:0.094306 32:0.094306 36:0.094306 38:0.094306 39:0.094306 40:0.094306 41:0.094306 #
-9.8101667758400470376045632292517 18:0.57828403 #
-10.054668255044166613743072957732 15:0.724868 23:0.724868 24:0.724868 25:0.724868 28:0.724868 38:0.724868 39:0.724868 #
10.054668255044166613743072957732 15:0.151585 20:0.151585 22:0.151585 23:0.151585 24:0.151585 25:0.151585 26:0.151585 27:0.151585 28:0.151585 29:0.151585 30:0.151585 31:0.151585 32:0.151585 36:0.151585 38:0.151585 39:0.151585 40:0.151585 41:0.151585 #
10.054668255044166613743072957732 7:0.226706 24:0.226706 28:0.226706 #
-10.054668255044166613743072957732 17:0.099104002 31:0.099104002 38:0.099104002 #
-10.054668255044166613743072957732 31:0.114099 38:0.114099 #
10.054668255044166613743072957732 22:0.17026 24:0.17026 25:0.17026 26:0.17026 27:0.17026 29:0.17026 31:0.17026 32:0.17026 33:0.17026 34:0.17026 36:0.17026 #
-5.4894326827018264935986735508777 8:0.14075699 15:0.14075699 24:0.14075699 32:0.14075699 34:0.14075699 #
-10.054668255044166613743072957732 18:0.22664601 22:0.22664601 23:0.22664601 24:0.22664601 25:0.22664601 26:0.22664601 27:0.22664601 28:0.22664601 29:0.22664601 30:0.22664601 31:0.22664601 32:0.22664601 36:0.22664601 38:0.22664601 39:0.22664601 40:0.22664601 41:0.22664601 #
10.054668255044166613743072957732 6:0.18734699 23:0.18734699 24:0.18734699 25:0.18734699 28:0.18734699 38:0.18734699 39:0.18734699 #
-10.054668255044166613743072957732 17:0.37486899 #
-10.054668255044166613743072957732 23:0.0027679999 24:0.0027679999 25:0.0027679999 28:0.0027679999 38:0.0027679999 39:0.0027679999 #
10.054668255044166613743072957732 18:0.41864401 23:0.41864401 24:0.41864401 25:0.41864401 28:0.41864401 38:0.41864401 39:0.41864401 #
-10.054668255044166613743072957732 7:0.226978 29:0.226978 39:0.226978 #
10.054668255044166613743072957732 1:0.40036699 #
-10.054668255044166613743072957732 7:0.141537 23:0.141537 39:0.141537 #
-10.054668255044166613743072957732 23:0.13187 39:0.13187 #
-10.054668255044166613743072957732 16:0.224604 22:0.224604 30:0.224604 35:0.224604 37:0.224604 #
10.054668255044166613743072957732 13:0.54676801 17:0.54676801 26:0.54676801 38:0.54676801 41:0.54676801 #
10.054668255044166613743072957732 15:0.39803401 26:0.39803401 38:0.39803401 41:0.39803401 #
-10.054668255044166613743072957732 23:0.54786301 24:0.54786301 25:0.54786301 28:0.54786301 38:0.54786301 39:0.54786301 #
10.054668255044166613743072957732 13:0.18421499 17:0.18421499 24:0.18421499 26:0.18421499 28:0.18421499 #
10.054668255044166613743072957732 13:0.32080501 17:0.32080501 26:0.32080501 38:0.32080501 41:0.32080501 #
-8.4004768515024643704691698076203 19:0.450836 29:0.450836 30:0.450836 34:0.450836 40:0.450836 41:0.450836 #
10.054668255044166613743072957732 26:0.115091 38:0.115091 41:0.115091 #
-10.054668255044166613743072957732 20:0.016107 #
-10.054668255044166613743072957732 9:0.37761399 22:0.37761399 23:0.37761399 24:0.37761399 25:0.37761399 26:0.37761399 27:0.37761399 28:0.37761399 29:0.37761399 30:0.37761399 31:0.37761399 32:0.37761399 36:0.37761399 38:0.37761399 39:0.37761399 40:0.37761399 41:0.37761399 #
10.054668255044166613743072957732 9:0.450454 26:0.450454 38:0.450454 41:0.450454 #
10.054668255044166613743072957732 22:0.144724 23:0.144724 24:0.144724 25:0.144724 26:0.144724 27:0.144724 28:0.144724 29:0.144724 30:0.144724 31:0.144724 32:0.144724 36:0.144724 38:0.144724 39:0.144724 40:0.144724 41:0.144724 #
10.054668255044166613743072957732 3:0.053684998 16:0.053684998 22:0.053684998 30:0.053684998 35:0.053684998 37:0.053684998 #
10.054668255044166613743072957732 2:0.416769 23:0.416769 24:0.416769 25:0.416769 28:0.416769 38:0.416769 39:0.416769 #
-10.054668255044166613743072957732 3:0.199577 26:0.199577 39:0.199577 #
-10.054668255044166613743072957732 15:0.57277799 20:0.57277799 29:0.57277799 30:0.57277799 34:0.57277799 40:0.57277799 41:0.57277799 #
-10.054668255044166613743072957732 #
-10.054668255044166613743072957732 22:0.002968 24:0.002968 25:0.002968 26:0.002968 27:0.002968 29:0.002968 31:0.002968 32:0.002968 33:0.002968 34:0.002968 36:0.002968 #
-10.054668255044166613743072957732 1:0.62177598 #
10.054668255044166613743072957732 23:0.47804299 24:0.47804299 25:0.47804299 28:0.47804299 38:0.47804299 39:0.47804299 #
-10.054668255044166613743072957732 22:0.0058240001 #
10.054668255044166613743072957732 22:0.040589001 30:0.040589001 35:0.040589001 37:0.040589001 #
-10.054668255044166613743072957732 9:0.36906901 22:0.36906901 23:0.36906901 24:0.36906901 25:0.36906901 26:0.36906901 27:0.36906901 28:0.36906901 29:0.36906901 30:0.36906901 31:0.36906901 32:0.36906901 36:0.36906901 38:0.36906901 39:0.36906901 40:0.36906901 41:0.36906901 #
-7.733526079284224863386043580249 13:0.40412199 17:0.40412199 27:0.40412199 30:0.40412199 #
10.054668255044166613743072957732 15:0.100776 #
-10.054668255044166613743072957732 19:0.33395201 29:0.33395201 30:0.33395201 #
10.054668255044166613743072957732 1:0.057043999 22:0.057043999 30:0.057043999 35:0.057043999 37:0.057043999 #
10.054668255044166613743072957732 7:0.21547 24:0.21547 28:0.21547 #
-10.054668255044166613743072957732 22:0.240244 23:0.240244 24:0.240244 25:0.240244 26:0.240244 27:0.240244 28:0.240244 29:0.240244 30:0.240244 31:0.240244 32:0.240244 36:0.240244 38:0.240244 39:0.240244 40:0.240244 41:0.240244 #
-10.054668255044166613743072957732 5:0.26254299 22:0.26254299 23:0.26254299 24:0.26254299 25:0.26254299 26:0.26254299 27:0.26254299 28:0.26254299 29:0.26254299 30:0.26254299 31:0.26254299 32:0.26254299 36:0.26254299 38:0.26254299 39:0.26254299 40:0.26254299 41:0.26254299 #
10.054668255044166613743072957732 15:0.203961 20:0.203961 22:0.203961 23:0.203961 24:0.203961 25:0.203961 26:0.203961 27:0.203961 28:0.203961 29:0.203961 30:0.203961 31:0.203961 32:0.203961 36:0.203961 38:0.203961 39:0.203961 40:0.203961 41:0.203961 #
10.054668255044166613743072957732 2:0.085527003 23:0.085527003 24:0.085527003 25:0.085527003 28:0.085527003 38:0.085527003 39:0.085527003 #
10.054668255044166613743072957732 9:0.11513 22:0.11513 30:0.11513 35:0.11513 37:0.11513 #
-10.054668255044166613743072957732 11:0.25962299 20:0.25962299 29:0.25962299 30:0.25962299 #
10.054668255044166613743072957732 14:0.085276 22:0.085276 30:0.085276 35:0.085276 37:0.085276 #
10.054668255044166613743072957732 18:0.25934601 23:0.25934601 24:0.25934601 25:0.25934601 28:0.25934601 38:0.25934601 39:0.25934601 #
-9.9636141890368890017271041870117 18:0.46764901 20:0.46764901 #
-10.054668255044166613743072957732 18:0.341479 29:0.341479 30:0.341479 #
-10.054668255044166613743072957732 19:0.271631 22:0.271631 23:0.271631 24:0.271631 25:0.271631 26:0.271631 27:0.271631 28:0.271631 29:0.271631 30:0.271631 31:0.271631 32:0.271631 36:0.271631 38:0.271631 39:0.271631 40:0.271631 41:0.271631 #
10.054668255044166613743072957732 8:0.435458 15:0.435458 26:0.435458 38:0.435458 41:0.435458 #
10.054668255044166613743072957732 22:0.011842 23:0.011842 24:0.011842 25:0.011842 26:0.011842 27:0.011842 28:0.011842 29:0.011842 30:0.011842 31:0.011842 32:0.011842 36:0.011842 38:0.011842 39:0.011842 40:0.011842 41:0.011842 #
10.054668255044166613743072957732 23:0.449121 24:0.449121 25:0.449121 28:0.449121 38:0.449121 39:0.449121 #
10.054668255044166613743072957732 23:0.32970199 39:0.32970199 #
-10.054668255044166613743072957732 15:0.0038739999 20:0.0038739999 #
-10.054668255044166613743072957732 26:0.133817 38:0.133817 41:0.133817 #
10.054668255044166613743072957732 14:0.056115001 22:0.056115001 30:0.056115001 35:0.056115001 37:0.056115001 #
-10.054668255044166613743072957732 31:0.097816996 38:0.097816996 #
10.054668255044166613743072957732 8:0.25645399 15:0.25645399 26:0.25645399 38:0.25645399 41:0.25645399 #
10.054668255044166613743072957732 7:0.098296002 23:0.098296002 24:0.098296002 25:0.098296002 28:0.098296002 38:0.098296002 39:0.098296002 #
10.054668255044166613743072957732 22:0.17355999 30:0.17355999 35:0.17355999 37:0.17355999 #
-10.054668255044166613743072957732 23:0.013419 #
-10.054668255044166613743072957732 14:0.200737 22:0.200737 30:0.200737 35:0.200737 37:0.200737 #
10.054668255044166613743072957732 12:0.17905299 22:0.17905299 23:0.17905299 24:0.17905299 25:0.17905299 26:0.17905299 27:0.17905299 28:0.17905299 29:0.17905299 30:0.17905299 31:0.17905299 32:0.17905299 36:0.17905299 38:0.17905299 39:0.17905299 40:0.17905299 41:0.17905299 #
10.054668255044166613743072957732 4:0.172363 23:0.172363 24:0.172363 25:0.172363 28:0.172363 38:0.172363 39:0.172363 #
10.054668255044166613743072957732 15:0.40107 20:0.40107 26:0.40107 38:0.40107 41:0.40107 #
10.054668255044166613743072957732 22:0.213967 23:0.213967 24:0.213967 25:0.213967 26:0.213967 27:0.213967 28:0.213967 29:0.213967 30:0.213967 31:0.213967 32:0.213967 36:0.213967 38:0.213967 39:0.213967 40:0.213967 41:0.213967 #
10.054668255044166613743072957732 8:0.15930299 15:0.15930299 22:0.15930299 23:0.15930299 24:0.15930299 25:0.15930299 26:0.15930299 27:0.15930299 28:0.15930299 29:0.15930299 30:0.15930299 31:0.15930299 32:0.15930299 36:0.15930299 38:0.15930299 39:0.15930299 40:0.15930299 41:0.15930299 #
10.054668255044166613743072957732 16:0.19350301 22:0.19350301 30:0.19350301 35:0.19350301 37:0.19350301 #
10.054668255044166613743072957732 16:0.036708001 22:0.036708001 30:0.036708001 35:0.036708001 37:0.036708001 #
10.054668255044166613743072957732 9:0.068930998 14:0.068930998 22:0.068930998 30:0.068930998 35:0.068930998 37:0.068930998 #
-2.3831895431009471053585002664477 29:0.50556701 #
-10.054668255044166613743072957732 7:0.374704 23:0.374704 24:0.374704 25:0.374704 28:0.374704 38:0.374704 39:0.374704 #
-10.054668255044166613743072957732 7:0.48815301 20:0.48815301 22:0.48815301 23:0.48815301 24:0.48815301 25:0.48815301 26:0.48815301 27:0.48815301 28:0.48815301 29:0.48815301 30:0.48815301 31:0.48815301 32:0.48815301 36:0.48815301 38:0.48815301 39:0.48815301 40:0.48815301 41:0.48815301 #
10.054668255044166613743072957732 3:0.30807701 16:0.30807701 24:0.30807701 26:0.30807701 28:0.30807701 #
-10.054668255044166613743072957732 9:0.132443 14:0.132443 35:0.132443 #
10.054668255044166613743072957732 4:0.126168 22:0.126168 23:0.126168 24:0.126168 25:0.126168 26:0.126168 27:0.126168 28:0.126168 29:0.126168 30:0.126168 31:0.126168 32:0.126168 36:0.126168 38:0.126168 39:0.126168 40:0.126168 41:0.126168 #
-10.054668255044166613743072957732 22:0.258037 24:0.258037 25:0.258037 26:0.258037 27:0.258037 29:0.258037 31:0.258037 32:0.258037 33:0.258037 34:0.258037 36:0.258037 #
10.054668255044166613743072957732 13:0.183864 17:0.183864 29:0.183864 30:0.183864 34:0.183864 40:0.183864 41:0.183864 #
10.054668255044166613743072957732 23:0.0055769999 39:0.0055769999 #
10.054668255044166613743072957732 2:0.077069998 22:0.077069998 23:0.077069998 24:0.077069998 25:0.077069998 26:0.077069998 27:0.077069998 28:0.077069998 29:0.077069998 30:0.077069998 31:0.077069998 32:0.077069998 36:0.077069998 38:0.077069998 39:0.077069998 40:0.077069998 41:0.077069998 #
-10.054668255044166613743072957732 16:0.168312 22:0.168312 30:0.168312 35:0.168312 37:0.168312 #
-10.054668255044166613743072957732 24:0.29456499 26:0.29456499 28:0.29456499 #
10.054668255044166613743072957732 16:0.058015998 22:0.058015998 30:0.058015998 35:0.058015998 37:0.058015998 #
-10.054668255044166613743072957732 15:0.31179899 20:0.31179899 22:0.31179899 23:0.31179899 24:0.31179899 25:0.31179899 26:0.31179899 27:0.31179899 28:0.31179899 29:0.31179899 30:0.31179899 31:0.31179899 32:0.31179899 36:0.31179899 38:0.31179899 39:0.31179899 40:0.31179899 41:0.31179899 #
-10.054668255044166613743072957732 1:0.040925998 27:0.040925998 30:0.040925998 #
10.054668255044166613743072957732 17:0.213076 29:0.213076 30:0.213076 34:0.213076 40:0.213076 41:0.213076 #
-10.054668255044166613743072957732 23:0.33652401 24:0.33652401 25:0.33652401 28:0.33652401 38:0.33652401 39:0.33652401 #
-10.054668255044166613743072957732 11:0.27728099 20:0.27728099 22:0.27728099 23:0.27728099 24:0.27728099 25:0.27728099 26:0.27728099 27:0.27728099 28:0.27728099 29:0.27728099 30:0.27728099 31:0.27728099 32:0.27728099 36:0.27728099 38:0.27728099 39:0.27728099 40:0.27728099 41:0.27728099 #
10.054668255044166613743072957732 23:0.19219901 24:0.19219901 25:0.19219901 28:0.19219901 38:0.19219901 39:0.19219901 #
-10.054668255044166613743072957732 9:0.24106801 22:0.24106801 23:0.24106801 24:0.24106801 25:0.24106801 26:0.24106801 27:0.24106801 28:0.24106801 29:0.24106801 30:0.24106801 31:0.24106801 32:0.24106801 36:0.24106801 38:0.24106801 39:0.24106801 40:0.24106801 41:0.24106801 #
10.054668255044166613743072957732 9:0.0044920002 #
-10.054668255044166613743072957732 16:0.033025999 22:0.033025999 30:0.033025999 35:0.033025999 37:0.033025999 #
10.054668255044166613743072957732 22:0.124171 30:0.124171 35:0.124171 37:0.124171 #
-10.054668255044166613743072957732 26:0.122644 38:0.122644 41:0.122644 #
-10.054668255044166613743072957732 2:0.006172 #
10.054668255044166613743072957732 22:0.057337001 30:0.057337001 35:0.057337001 37:0.057337001 #
-10.054668255044166613743072957732 22:0.204189 23:0.204189 24:0.204189 25:0.204189 26:0.204189 27:0.204189 28:0.204189 29:0.204189 30:0.204189 31:0.204189 32:0.204189 36:0.204189 38:0.204189 39:0.204189 40:0.204189 41:0.204189 #
-10.054668255044166613743072957732 14:0.181638 22:0.181638 30:0.181638 35:0.181638 37:0.181638 #
10.054668255044166613743072957732 3:0.29663101 24:0.29663101 26:0.29663101 28:0.29663101 #
-10.054668255044166613743072957732 3:0.176296 22:0.176296 23:0.176296 24:0.176296 25:0.176296 26:0.176296 27:0.176296 28:0.176296 29:0.176296 30:0.176296 31:0.176296 32:0.176296 36:0.176296 38:0.176296 39:0.176296 40:0.176296 41:0.176296 #
-4.1476144346487018310654093511403 4:0.50462401 #
-10.054668255044166613743072957732 22:0.199332 23:0.199332 24:0.199332 25:0.199332 26:0.199332 27:0.199332 28:0.199332 29:0.199332 30:0.199332 31:0.199332 32:0.199332 36:0.199332 38:0.199332 39:0.199332 40:0.199332 41:0.199332 #
10.054668255044166613743072957732 14:0.186111 22:0.186111 30:0.186111 35:0.186111 37:0.186111 #
-10.054668255044166613743072957732 22:0.254668 24:0.254668 25:0.254668 26:0.254668 27:0.254668 29:0.254668 31:0.254668 32:0.254668 33:0.254668 34:0.254668 36:0.254668 #
-10.054668255044166613743072957732 3:0.070102997 16:0.070102997 29:0.070102997 30:0.070102997 34:0.070102997 40:0.070102997 41:0.070102997 #
10.054668255044166613743072957732 22:0.058327999 30:0.058327999 35:0.058327999 37:0.058327999 #
10.054668255044166613743072957732 16:0.083614998 22:0.083614998 30:0.083614998 35:0.083614998 37:0.083614998 #
-10.054668255044166613743072957732 15:0.13381501 24:0.13381501 25:0.13381501 31:0.13381501 39:0.13381501 #
10.054668255044166613743072957732 8:0.127166 15:0.127166 22:0.127166 23:0.127166 24:0.127166 25:0.127166 26:0.127166 27:0.127166 28:0.127166 29:0.127166 30:0.127166 31:0.127166 32:0.127166 36:0.127166 38:0.127166 39:0.127166 40:0.127166 41:0.127166 #
-10.054668255044166613743072957732 15:0.220404 20:0.220404 22:0.220404 23:0.220404 24:0.220404 25:0.220404 26:0.220404 27:0.220404 28:0.220404 29:0.220404 30:0.220404 31:0.220404 32:0.220404 36:0.220404 38:0.220404 39:0.220404 40:0.220404 41:0.220404 #
10.054668255044166613743072957732 2:0.163359 23:0.163359 24:0.163359 25:0.163359 28:0.163359 38:0.163359 39:0.163359 #
10.054668255044166613743072957732 1:0.084985003 22:0.084985003 30:0.084985003 35:0.084985003 37:0.084985003 #
-10.054668255044166613743072957732 14:0.149065 22:0.149065 30:0.149065 35:0.149065 37:0.149065 #
-10.054668255044166613743072957732 22:0.19910701 23:0.19910701 24:0.19910701 25:0.19910701 26:0.19910701 27:0.19910701 28:0.19910701 29:0.19910701 30:0.19910701 31:0.19910701 32:0.19910701 36:0.19910701 38:0.19910701 39:0.19910701 40:0.19910701 41:0.19910701 #
10.054668255044166613743072957732 4:0.124402 22:0.124402 23:0.124402 24:0.124402 25:0.124402 26:0.124402 27:0.124402 28:0.124402 29:0.124402 30:0.124402 31:0.124402 32:0.124402 36:0.124402 38:0.124402 39:0.124402 40:0.124402 41:0.124402 #
10.054668255044166613743072957732 4:0.116262 22:0.116262 23:0.116262 24:0.116262 25:0.116262 26:0.116262 27:0.116262 28:0.116262 29:0.116262 30:0.116262 31:0.116262 32:0.116262 36:0.116262 38:0.116262 39:0.116262 40:0.116262 41:0.116262 #
-10.054668255044166613743072957732 22:0.0063550002 23:0.0063550002 24:0.0063550002 25:0.0063550002 26:0.0063550002 27:0.0063550002 28:0.0063550002 29:0.0063550002 30:0.0063550002 31:0.0063550002 32:0.0063550002 36:0.0063550002 38:0.0063550002 39:0.0063550002 40:0.0063550002 41:0.0063550002 #
10.054668255044166613743072957732 13:0.171766 24:0.171766 25:0.171766 31:0.171766 39:0.171766 #
-10.054668255044166613743072957732 22:0.18080001 23:0.18080001 24:0.18080001 25:0.18080001 26:0.18080001 27:0.18080001 28:0.18080001 29:0.18080001 30:0.18080001 31:0.18080001 32:0.18080001 36:0.18080001 38:0.18080001 39:0.18080001 40:0.18080001 41:0.18080001 #
10.054668255044166613743072957732 16:0.084117003 22:0.084117003 30:0.084117003 35:0.084117003 37:0.084117003 #
10.054668255044166613743072957732 14:0.111759 22:0.111759 30:0.111759 35:0.111759 37:0.111759 #
-10.054668255044166613743072957732 15:0.211353 22:0.211353 23:0.211353 24:0.211353 25:0.211353 26:0.211353 27:0.211353 28:0.211353 29:0.211353 30:0.211353 31:0.211353 32:0.211353 36:0.211353 38:0.211353 39:0.211353 40:0.211353 41:0.211353 #
10.054668255044166613743072957732 16:0.092008002 22:0.092008002 30:0.092008002 35:0.092008002 37:0.092008002 #
10.054668255044166613743072957732 22:0.183338 23:0.183338 24:0.183338 25:0.183338 26:0.183338 27:0.183338 28:0.183338 29:0.183338 30:0.183338 31:0.183338 32:0.183338 36:0.183338 38:0.183338 39:0.183338 40:0.183338 41:0.183338 #
-10.054668255044166613743072957732 4:0.100159 23:0.100159 24:0.100159 25:0.100159 28:0.100159 38:0.100159 39:0.100159 #
-10.054668255044166613743072957732 15:0.109509 20:0.109509 23:0.109509 24:0.109509 25:0.109509 28:0.109509 38:0.109509 39:0.109509 #
-10.054668255044166613743072957732 10:0.078553997 31:0.078553997 38:0.078553997 #
10.054668255044166613743072957732 1:0.090033002 22:0.090033002 30:0.090033002 35:0.090033002 37:0.090033002 #
-10.054668255044166613743072957732 39:0.096135996 #
10.054668255044166613743072957732 12:0.187057 22:0.187057 23:0.187057 24:0.187057 25:0.187057 26:0.187057 27:0.187057 28:0.187057 29:0.187057 30:0.187057 31:0.187057 32:0.187057 36:0.187057 38:0.187057 39:0.187057 40:0.187057 41:0.187057 #
-10.054668255044166613743072957732 1:0.113055 24:0.113055 25:0.113055 31:0.113055 39:0.113055 #
-10.054668255044166613743072957732 15:0.16877601 20:0.16877601 22:0.16877601 23:0.16877601 24:0.16877601 25:0.16877601 26:0.16877601 27:0.16877601 28:0.16877601 29:0.16877601 30:0.16877601 31:0.16877601 32:0.16877601 36:0.16877601 38:0.16877601 39:0.16877601 40:0.16877601 41:0.16877601 #
-10.054668255044166613743072957732 16:0.08241 22:0.08241 30:0.08241 35:0.08241 37:0.08241 #
-10.054668255044166613743072957732 14:0.089745 22:0.089745 30:0.089745 35:0.089745 37:0.089745 #
10.054668255044166613743072957732 3:0.20653801 22:0.20653801 23:0.20653801 24:0.20653801 25:0.20653801 26:0.20653801 27:0.20653801 28:0.20653801 29:0.20653801 30:0.20653801 31:0.20653801 32:0.20653801 36:0.20653801 38:0.20653801 39:0.20653801 40:0.20653801 41:0.20653801 #
10.054668255044166613743072957732 14:0.18204001 22:0.18204001 30:0.18204001 35:0.18204001 37:0.18204001 #
-10.054668255044166613743072957732 16:0.081289001 22:0.081289001 30:0.081289001 35:0.081289001 37:0.081289001 #
10.054668255044166613743072957732 24:0.020763 25:0.020763 31:0.020763 39:0.020763 #
-10.054668255044166613743072957732 22:0.161401 23:0.161401 24:0.161401 25:0.161401 26:0.161401 27:0.161401 28:0.161401 29:0.161401 30:0.161401 31:0.161401 32:0.161401 36:0.161401 38:0.161401 39:0.161401 40:0.161401 41:0.161401 #
-10.054668255044166613743072957732 22:0.178313 23:0.178313 24:0.178313 25:0.178313 26:0.178313 27:0.178313 28:0.178313 29:0.178313 30:0.178313 31:0.178313 32:0.178313 36:0.178313 38:0.178313 39:0.178313 40:0.178313 41:0.178313 #
10.054668255044166613743072957732 1:0.093162999 22:0.093162999 30:0.093162999 35:0.093162999 37:0.093162999 #
-10.054668255044166613743072957732 22:0.16224299 23:0.16224299 24:0.16224299 25:0.16224299 26:0.16224299 27:0.16224299 28:0.16224299 29:0.16224299 30:0.16224299 31:0.16224299 32:0.16224299 36:0.16224299 38:0.16224299 39:0.16224299 40:0.16224299 41:0.16224299 #
10.054668255044166613743072957732 16:0.138006 22:0.138006 30:0.138006 35:0.138006 37:0.138006 #
10.054668255044166613743072957732 22:0.18819299 23:0.18819299 24:0.18819299 25:0.18819299 26:0.18819299 27:0.18819299 28:0.18819299 29:0.18819299 30:0.18819299 31:0.18819299 32:0.18819299 36:0.18819299 38:0.18819299 39:0.18819299 40:0.18819299 41:0.18819299 #
10.054668255044166613743072957732 8:0.27197 15:0.27197 26:0.27197 38:0.27197 41:0.27197 #
-10.050902348280224885002098744735 4:0.44031999 #
10.054668255044166613743072957732 1:0.099854998 22:0.099854998 30:0.099854998 35:0.099854998 37:0.099854998 #
10.054668255044166613743072957732 3:0.097845003 22:0.097845003 30:0.097845003 35:0.097845003 37:0.097845003 #
-10.054668255044166613743072957732 3:0.13244499 22:0.13244499 23:0.13244499 24:0.13244499 25:0.13244499 26:0.13244499 27:0.13244499 28:0.13244499 29:0.13244499 30:0.13244499 31:0.13244499 32:0.13244499 36:0.13244499 38:0.13244499 39:0.13244499 40:0.13244499 41:0.13244499 #
10.054668255044166613743072957732 16:0.14580099 22:0.14580099 30:0.14580099 35:0.14580099 37:0.14580099 #
-10.054668255044166613743072957732 22:0.155646 23:0.155646 24:0.155646 25:0.155646 26:0.155646 27:0.155646 28:0.155646 29:0.155646 30:0.155646 31:0.155646 32:0.155646 36:0.155646 38:0.155646 39:0.155646 40:0.155646 41:0.155646 #
-10.054668255044166613743072957732 8:0.134858 15:0.134858 22:0.134858 23:0.134858 24:0.134858 25:0.134858 26:0.134858 27:0.134858 28:0.134858 29:0.134858 30:0.134858 31:0.134858 32:0.134858 36:0.134858 38:0.134858 39:0.134858 40:0.134858 41:0.134858 #
10.054668255044166613743072957732 22:0.139653 30:0.139653 35:0.139653 37:0.139653 #
-10.054668255044166613743072957732 5:0.10268 13:0.10268 26:0.10268 38:0.10268 41:0.10268 #
-10.054668255044166613743072957732 4:0.13671701 22:0.13671701 23:0.13671701 24:0.13671701 25:0.13671701 26:0.13671701 27:0.13671701 28:0.13671701 29:0.13671701 30:0.13671701 31:0.13671701 32:0.13671701 36:0.13671701 38:0.13671701 39:0.13671701 40:0.13671701 41:0.13671701 #
10.054668255044166613743072957732 19:0.092804998 #
-10.054668255044166613743072957732 23:0.090957999 24:0.090957999 25:0.090957999 28:0.090957999 38:0.090957999 39:0.090957999 #
-10.054668255044166613743072957732 24:0.10852 25:0.10852 31:0.10852 39:0.10852 #
-10.054668255044166613743072957732 22:0.142483 23:0.142483 24:0.142483 25:0.142483 26:0.142483 27:0.142483 28:0.142483 29:0.142483 30:0.142483 31:0.142483 32:0.142483 36:0.142483 38:0.142483 39:0.142483 40:0.142483 41:0.142483 #
10.054668255044166613743072957732 22:0.140843 30:0.140843 35:0.140843 37:0.140843 #
10.054668255044166613743072957732 3:0.184669 16:0.184669 22:0.184669 30:0.184669 35:0.184669 37:0.184669 #
-10.054668255044166613743072957732 #
-10.054668255044166613743072957732 39:0.0069360002 #
10.054668255044166613743072957732 16:0.176834 22:0.176834 30:0.176834 35:0.176834 37:0.176834 #
10.054668255044166613743072957732 22:0.163837 30:0.163837 35:0.163837 37:0.163837 #
-10.054668255044166613743072957732 22:0.13985001 23:0.13985001 24:0.13985001 25:0.13985001 26:0.13985001 27:0.13985001 28:0.13985001 29:0.13985001 30:0.13985001 31:0.13985001 32:0.13985001 36:0.13985001 38:0.13985001 39:0.13985001 40:0.13985001 41:0.13985001 #
10.054668255044166613743072957732 3:0.66775 29:0.66775 30:0.66775 #
-10.054668255044166613743072957732 1:0.058221001 13:0.058221001 22:0.058221001 30:0.058221001 35:0.058221001 37:0.058221001 #
-10.054668255044166613743072957732 8:0.00312 #
10.054668255044166613743072957732 9:0.099379003 14:0.099379003 34:0.099379003 #
10.054668255044166613743072957732 7:0.087800004 #
10.054668255044166613743072957732 13:0.095207997 17:0.095207997 27:0.095207997 #
-10.054668255044166613743072957732 8:0.033574 15:0.033574 29:0.033574 30:0.033574 34:0.033574 40:0.033574 41:0.033574 #
10.054668255044166613743072957732 3:0.190091 24:0.190091 28:0.190091 #
10.054668255044166613743072957732 24:0.30482 28:0.30482 #
-10.054668255044166613743072957732 3:0.032639001 23:0.032639001 #
10.054668255044166613743072957732 34:0.22906099 #
10.054668255044166613743072957732 6:0.175767 24:0.175767 28:0.175767 #
-10.054668255044166613743072957732 4:0.068155997 27:0.068155997 30:0.068155997 #
10.054668255044166613743072957732 2:0.057868998 29:0.057868998 30:0.057868998 34:0.057868998 40:0.057868998 41:0.057868998 #
-10.054668255044166613743072957732 39:0.084172003 #
10.054668255044166613743072957732 11:0.081336997 34:0.081336997 #
10.054668255044166613743072957732 3:0.25821599 24:0.25821599 26:0.25821599 28:0.25821599 #
10.054668255044166613743072957732 18:0.20212799 20:0.20212799 #
-10.054668255044166613743072957732 22:0.13936999 23:0.13936999 24:0.13936999 25:0.13936999 26:0.13936999 27:0.13936999 28:0.13936999 29:0.13936999 30:0.13936999 31:0.13936999 32:0.13936999 36:0.13936999 38:0.13936999 39:0.13936999 40:0.13936999 41:0.13936999 #
10.054668255044166613743072957732 5:0.321612 #
-10.054668255044166613743072957732 14:0.040762998 22:0.040762998 30:0.040762998 35:0.040762998 37:0.040762998 #
10.054668255044166613743072957732 17:0.124767 26:0.124767 37:0.124767 #
10.054668255044166613743072957732 22:0.116252 24:0.116252 25:0.116252 26:0.116252 27:0.116252 29:0.116252 31:0.116252 32:0.116252 33:0.116252 34:0.116252 36:0.116252 #
10.054668255044166613743072957732 17:0.279717 27:0.279717 30:0.279717 #
-10.054668255044166613743072957732 14:0.054869998 22:0.054869998 30:0.054869998 35:0.054869998 37:0.054869998 #
10.054668255044166613743072957732 19:0.168189 29:0.168189 30:0.168189 34:0.168189 40:0.168189 41:0.168189 #
10.054668255044166613743072957732 22:0.160229 23:0.160229 24:0.160229 25:0.160229 26:0.160229 27:0.160229 28:0.160229 29:0.160229 30:0.160229 31:0.160229 32:0.160229 36:0.160229 38:0.160229 39:0.160229 40:0.160229 41:0.160229 #
10.054668255044166613743072957732 9:0.272091 29:0.272091 30:0.272091 #
10.054668255044166613743072957732 29:0.25817999 30:0.25817999 34:0.25817999 40:0.25817999 41:0.25817999 #
-10.054668255044166613743072957732 22:0.046076 30:0.046076 35:0.046076 37:0.046076 #
10.054668255044166613743072957732 24:0.101986 26:0.101986 #
-10.054668255044166613743072957732 16:0.34003499 #
10.054668255044166613743072957732 1:0.26910299 #
-10.054668255044166613743072957732 22:0.043143999 30:0.043143999 35:0.043143999 37:0.043143999 #
10.054668255044166613743072957732 9:0.206607 #
-10.054668255044166613743072957732 27:0.21898299 30:0.21898299 #
-10.054668255044166613743072957732 24:0.099242002 25:0.099242002 31:0.099242002 39:0.099242002 #
10.054668255044166613743072957732 29:0.239564 30:0.239564 34:0.239564 40:0.239564 41:0.239564 #
10.054668255044166613743072957732 13:0.21552999 17:0.21552999 22:0.21552999 23:0.21552999 24:0.21552999 25:0.21552999 26:0.21552999 27:0.21552999 28:0.21552999 29:0.21552999 30:0.21552999 31:0.21552999 32:0.21552999 36:0.21552999 38:0.21552999 39:0.21552999 40:0.21552999 41:0.21552999 #
10.054668255044166613743072957732 36:0.148965 #
-10.054668255044166613743072957732 14:0.049972001 22:0.049972001 30:0.049972001 35:0.049972001 37:0.049972001 #
-10.054668255044166613743072957732 22:0.190069 37:0.190069 #
-10.054668255044166613743072957732 27:0.223295 30:0.223295 #
10.054668255044166613743072957732 15:0.138188 22:0.138188 23:0.138188 24:0.138188 25:0.138188 26:0.138188 27:0.138188 28:0.138188 29:0.138188 30:0.138188 31:0.138188 32:0.138188 36:0.138188 38:0.138188 39:0.138188 40:0.138188 41:0.138188 #
-10.054668255044166613743072957732 #
-10.054668255044166613743072957732 24:0.123187 26:0.123187 28:0.123187 #
10.054668255044166613743072957732 18:0.20945799 20:0.20945799 22:0.20945799 23:0.20945799 24:0.20945799 25:0.20945799 26:0.20945799 27:0.20945799 28:0.20945799 29:0.20945799 30:0.20945799 31:0.20945799 32:0.20945799 36:0.20945799 38:0.20945799 39:0.20945799 40:0.20945799 41:0.20945799 #
-10.054668255044166613743072957732 3:0.30496401 29:0.30496401 30:0.30496401 34:0.30496401 40:0.30496401 41:0.30496401 #
-5.8699025264317956640525153488852 36:0.26346499 41:0.26346499 #
-10.054668255044166613743072957732 23:0.119503 39:0.119503 #
10.054668255044166613743072957732 22:0.197787 23:0.197787 24:0.197787 25:0.197787 26:0.197787 27:0.197787 28:0.197787 29:0.197787 30:0.197787 31:0.197787 32:0.197787 36:0.197787 38:0.197787 39:0.197787 40:0.197787 41:0.197787 #
-10.054668255044166613743072957732 12:0.19684599 29:0.19684599 30:0.19684599 #
-10.054668255044166613743072957732 24:0.081432 25:0.081432 31:0.081432 39:0.081432 #
10.054668255044166613743072957732 7:0.019633999 23:0.019633999 24:0.019633999 25:0.019633999 28:0.019633999 38:0.019633999 39:0.019633999 #
-10.054668255044166613743072957732 24:0.49601299 26:0.49601299 #
-10.054668255044166613743072957732 10:0.124738 26:0.124738 38:0.124738 41:0.124738 #
-10.054668255044166613743072957732 7:0.25776899 23:0.25776899 24:0.25776899 25:0.25776899 28:0.25776899 38:0.25776899 39:0.25776899 #
-10.054668255044166613743072957732 15:0.111284 20:0.111284 30:0.111284 #
-6.6690319377940188161346668493934 13:0.460601 17:0.460601 27:0.460601 30:0.460601 #
10.054668255044166613743072957732 3:0.249071 #
-10.054668255044166613743072957732 3:0.072723001 24:0.072723001 25:0.072723001 31:0.072723001 39:0.072723001 #
-10.054668255044166613743072957732 1:0.064313002 22:0.064313002 37:0.064313002 #
10.054668255044166613743072957732 23:0.355988 24:0.355988 25:0.355988 28:0.355988 38:0.355988 39:0.355988 #
-10.054668255044166613743072957732 3:0.64474702 #
-10.054668255044166613743072957732 #
10.054668255044166613743072957732 22:0.120086 23:0.120086 24:0.120086 25:0.120086 26:0.120086 27:0.120086 28:0.120086 29:0.120086 30:0.120086 31:0.120086 32:0.120086 36:0.120086 38:0.120086 39:0.120086 40:0.120086 41:0.120086 #
-10.054668255044166613743072957732 15:0.48254099 20:0.48254099 29:0.48254099 30:0.48254099 34:0.48254099 40:0.48254099 41:0.48254099 #
-10.054668255044166613743072957732 1:0.57042199 #
-10.054668255044166613743072957732 1:0.04383 31:0.04383 38:0.04383 #
-10.054668255044166613743072957732 18:0.53129297 #
10.054668255044166613743072957732 29:0.20226499 30:0.20226499 34:0.20226499 40:0.20226499 41:0.20226499 #
10.054668255044166613743072957732 5:0.23180901 #
10.054668255044166613743072957732 9:0.17058399 #
10.054668255044166613743072957732 6:0.74547899 29:0.74547899 30:0.74547899 #
10.054668255044166613743072957732 15:0.192131 22:0.192131 23:0.192131 24:0.192131 25:0.192131 26:0.192131 27:0.192131 28:0.192131 29:0.192131 30:0.192131 31:0.192131 32:0.192131 36:0.192131 38:0.192131 39:0.192131 40:0.192131 41:0.192131 #
10.054668255044166613743072957732 18:0.123744 20:0.123744 #
10.054668255044166613743072957732 18:0.204998 20:0.204998 24:0.204998 25:0.204998 31:0.204998 39:0.204998 #
10.054668255044166613743072957732 7:0.054102998 24:0.054102998 26:0.054102998 #
10.054668255044166613743072957732 18:0.107999 20:0.107999 #
10.054668255044166613743072957732 34:0.20493101 #
-10.054668255044166613743072957732 34:0.0039420002 #
-4.7192532635461654777486728562508 24:0.107887 26:0.107887 #
10.054668255044166613743072957732 3:0.085964002 29:0.085964002 30:0.085964002 34:0.085964002 40:0.085964002 41:0.085964002 #
-0.58211238242599305792168706830125 34:0.73789698 36:0.73789698 41:0.73789698 #
-10.054668255044166613743072957732 15:0.162027 20:0.162027 29:0.162027 30:0.162027 #
10.054668255044166613743072957732 3:0.123475 16:0.123475 #
10.054668255044166613743072957732 26:0.070612997 37:0.070612997 #
-10.054668255044166613743072957732 12:0.080812 23:0.080812 24:0.080812 25:0.080812 28:0.080812 38:0.080812 39:0.080812 #
-10.054668255044166613743072957732 6:0.143354 22:0.143354 23:0.143354 24:0.143354 25:0.143354 26:0.143354 27:0.143354 28:0.143354 29:0.143354 30:0.143354 31:0.143354 32:0.143354 36:0.143354 38:0.143354 39:0.143354 40:0.143354 41:0.143354 #
10.054668255044166613743072957732 15:0.056118999 20:0.056118999 #
-10.054668255044166613743072957732 35:0.046124 #
-2.1661143993940978891288295926643e-09 12:0.73014802 22:0.73014802 24:0.73014802 25:0.73014802 26:0.73014802 27:0.73014802 29:0.73014802 31:0.73014802 32:0.73014802 33:0.73014802 34:0.73014802 36:0.73014802 #
10.054668255044166613743072957732 27:0.024712 #
-10.054668255044166613743072957732 1:0.03413 13:0.03413 31:0.03413 38:0.03413 #
10.054668255044166613743072957732 1:0.069677003 22:0.069677003 24:0.069677003 25:0.069677003 26:0.069677003 27:0.069677003 29:0.069677003 31:0.069677003 32:0.069677003 33:0.069677003 34:0.069677003 36:0.069677003 #
-10.054668255044166613743072957732 19:0.163846 22:0.163846 23:0.163846 24:0.163846 25:0.163846 26:0.163846 27:0.163846 28:0.163846 29:0.163846 30:0.163846 31:0.163846 32:0.163846 36:0.163846 38:0.163846 39:0.163846 40:0.163846 41:0.163846 #
-10.054668255044166613743072957732 31:0.033390999 38:0.033390999 #
10.054668255044166613743072957732 18:0.090480998 20:0.090480998 #
10.054668255044166613743072957732 3:0.038462002 22:0.038462002 23:0.038462002 24:0.038462002 25:0.038462002 26:0.038462002 27:0.038462002 28:0.038462002 29:0.038462002 30:0.038462002 31:0.038462002 32:0.038462002 36:0.038462002 38:0.038462002 39:0.038462002 40:0.038462002 41:0.038462002 #
10.054668255044166613743072957732 18:0.105832 20:0.105832 #
-10.054668255044166613743072957732 5:0.14023601 13:0.14023601 22:0.14023601 23:0.14023601 24:0.14023601 25:0.14023601 26:0.14023601 27:0.14023601 28:0.14023601 29:0.14023601 30:0.14023601 31:0.14023601 32:0.14023601 36:0.14023601 38:0.14023601 39:0.14023601 40:0.14023601 41:0.14023601 #
10.054668255044166613743072957732 11:0.058490999 20:0.058490999 #
-10.054668255044166613743072957732 3:0.079662003 29:0.079662003 39:0.079662003 #
-10.054668255044166613743072957732 1:0.028635001 22:0.028635001 30:0.028635001 35:0.028635001 37:0.028635001 #
10.054668255044166613743072957732 16:0.112658 #
10.054668255044166613743072957732 15:0.043386001 19:0.043386001 #
10.054668255044166613743072957732 15:0.168024 22:0.168024 23:0.168024 24:0.168024 25:0.168024 26:0.168024 27:0.168024 28:0.168024 29:0.168024 30:0.168024 31:0.168024 32:0.168024 36:0.168024 38:0.168024 39:0.168024 40:0.168024 41:0.168024 #
10.054668255044166613743072957732 22:0.141113 23:0.141113 24:0.141113 25:0.141113 26:0.141113 27:0.141113 28:0.141113 29:0.141113 30:0.141113 31:0.141113 32:0.141113 36:0.141113 38:0.141113 39:0.141113 40:0.141113 41:0.141113 #
10.054668255044166613743072957732 18:0.099255003 20:0.099255003 29:0.099255003 30:0.099255003 34:0.099255003 40:0.099255003 41:0.099255003 #
10.054668255044166613743072957732 5:0.21133301 #
-10.054668255044166613743072957732 3:0.625211 #
10.054668255044166613743072957732 22:0.111355 23:0.111355 24:0.111355 25:0.111355 26:0.111355 27:0.111355 28:0.111355 29:0.111355 30:0.111355 31:0.111355 32:0.111355 36:0.111355 38:0.111355 39:0.111355 40:0.111355 41:0.111355 #
10.054668255044166613743072957732 22:0.127281 23:0.127281 24:0.127281 25:0.127281 26:0.127281 27:0.127281 28:0.127281 29:0.127281 30:0.127281 31:0.127281 32:0.127281 36:0.127281 38:0.127281 39:0.127281 40:0.127281 41:0.127281 #
10.054668255044166613743072957732 3:0.065334 16:0.065334 #
10.054668255044166613743072957732 15:0.085941002 #
10.054668255044166613743072957732 24:0.128253 26:0.128253 28:0.128253 #
10.054668255044166613743072957732 22:0.154718 23:0.154718 24:0.154718 25:0.154718 26:0.154718 27:0.154718 28:0.154718 29:0.154718 30:0.154718 31:0.154718 32:0.154718 36:0.154718 38:0.154718 39:0.154718 40:0.154718 41:0.154718 #
-2.3465524320895312371249019633979 3:0.99696302 22:0.99696302 24:0.99696302 25:0.99696302 26:0.99696302 27:0.99696302 29:0.99696302 31:0.99696302 32:0.99696302 33:0.99696302 34:0.99696302 36:0.99696302 #
-10.054668255044166613743072957732 19:0.142039 22:0.142039 23:0.142039 24:0.142039 25:0.142039 26:0.142039 27:0.142039 28:0.142039 29:0.142039 30:0.142039 31:0.142039 32:0.142039 36:0.142039 38:0.142039 39:0.142039 40:0.142039 41:0.142039 #
-10.054668255044166613743072957732 17:0.202686 #
-10.054668255044166613743072957732 17:0.29917601 22:0.29917601 24:0.29917601 25:0.29917601 26:0.29917601 27:0.29917601 29:0.29917601 31:0.29917601 32:0.29917601 33:0.29917601 34:0.29917601 36:0.29917601 #
-10.054668255044166613743072957732 17:0.22838201 29:0.22838201 30:0.22838201 34:0.22838201 40:0.22838201 41:0.22838201 #
10.054668255044166613743072957732 15:0.05889 34:0.05889 #
-10.054668255044166613743072957732 2:0.57884097 #
10.054668255044166613743072957732 22:0.17066 23:0.17066 24:0.17066 25:0.17066 26:0.17066 27:0.17066 28:0.17066 29:0.17066 30:0.17066 31:0.17066 32:0.17066 36:0.17066 38:0.17066 39:0.17066 40:0.17066 41:0.17066 #
-7.8730686632146484882355252921116 8:0.65679997 15:0.65679997 #
-10.054668255044166613743072957732 10:0.071121998 23:0.071121998 24:0.071121998 25:0.071121998 28:0.071121998 38:0.071121998 39:0.071121998 #
10.054668255044166613743072957732 22:0.152969 23:0.152969 24:0.152969 25:0.152969 26:0.152969 27:0.152969 28:0.152969 29:0.152969 30:0.152969 31:0.152969 32:0.152969 36:0.152969 38:0.152969 39:0.152969 40:0.152969 41:0.152969 #
-10.054668255044166613743072957732 7:0.147165 22:0.147165 23:0.147165 24:0.147165 25:0.147165 26:0.147165 27:0.147165 28:0.147165 29:0.147165 30:0.147165 31:0.147165 32:0.147165 36:0.147165 38:0.147165 39:0.147165 40:0.147165 41:0.147165 #
10.054668255044166613743072957732 22:0.14571901 #
-10.054668255044166613743072957732 3:0.079397999 13:0.079397999 39:0.079397999 #
-10.054668255044166613743072957732 23:0.021343 #
-10.054668255044166613743072957732 1:0.116988 13:0.116988 22:0.116988 23:0.116988 24:0.116988 25:0.116988 26:0.116988 27:0.116988 28:0.116988 29:0.116988 30:0.116988 31:0.116988 32:0.116988 36:0.116988 38:0.116988 39:0.116988 40:0.116988 41:0.116988 #
10.054668255044166613743072957732 22:0.032765999 23:0.032765999 24:0.032765999 25:0.032765999 26:0.032765999 27:0.032765999 28:0.032765999 29:0.032765999 30:0.032765999 31:0.032765999 32:0.032765999 36:0.032765999 38:0.032765999 39:0.032765999 40:0.032765999 41:0.032765999 #
10.054668255044166613743072957732 17:0.117192 29:0.117192 30:0.117192 34:0.117192 40:0.117192 41:0.117192 #
-10.054668255044166613743072957732 9:0.029175 #
-0.026681392516030740663657283562316 12:0.65767998 36:0.65767998 #
10.054668255044166613743072957732 23:0.01532 24:0.01532 25:0.01532 28:0.01532 38:0.01532 39:0.01532 #
10.054668255044166613743072957732 18:0.074579 23:0.074579 24:0.074579 25:0.074579 28:0.074579 38:0.074579 39:0.074579 #
10.054668255044166613743072957732 17:0.142208 #
-10.054668255044166613743072957732 2:0.24326099 22:0.24326099 34:0.24326099 41:0.24326099 #
10.054668255044166613743072957732 22:0.157803 23:0.157803 24:0.157803 25:0.157803 26:0.157803 27:0.157803 28:0.157803 29:0.157803 30:0.157803 31:0.157803 32:0.157803 36:0.157803 38:0.157803 39:0.157803 40:0.157803 41:0.157803 #
-10.054668255044166613743072957732 13:0.114788 17:0.114788 22:0.114788 23:0.114788 24:0.114788 25:0.114788 26:0.114788 27:0.114788 28:0.114788 29:0.114788 30:0.114788 31:0.114788 32:0.114788 36:0.114788 38:0.114788 39:0.114788 40:0.114788 41:0.114788 #
10.054668255044166613743072957732 5:0.112541 #
-10.054668255044166613743072957732 7:0.112851 29:0.112851 39:0.112851 #
10.054668255044166613743072957732 24:0.153593 28:0.153593 #
10.054668255044166613743072957732 7:0.064061001 #
-10.054668255044166613743072957732 24:0.23780601 26:0.23780601 28:0.23780601 #
-10.054668255044166613743072957732 22:0.113295 23:0.113295 24:0.113295 25:0.113295 26:0.113295 27:0.113295 28:0.113295 29:0.113295 30:0.113295 31:0.113295 32:0.113295 36:0.113295 38:0.113295 39:0.113295 40:0.113295 41:0.113295 #
10.054668255044166613743072957732 18:0.065458 20:0.065458 #
-0.027585717423053563585044756223397 17:0.025024001 #
10.054668255044166613743072957732 5:0.215647 29:0.215647 30:0.215647 #
10.054668255044166613743072957732 29:0.13265599 30:0.13265599 34:0.13265599 40:0.13265599 41:0.13265599 #
-10.054668255044166613743072957732 1:0.108497 22:0.108497 23:0.108497 24:0.108497 25:0.108497 26:0.108497 27:0.108497 28:0.108497 29:0.108497 30:0.108497 31:0.108497 32:0.108497 36:0.108497 38:0.108497 39:0.108497 40:0.108497 41:0.108497 #
10.054668255044166613743072957732 18:0.083734997 34:0.083734997 #
10.054668255044166613743072957732 18:0.19243699 20:0.19243699 22:0.19243699 23:0.19243699 24:0.19243699 25:0.19243699 26:0.19243699 27:0.19243699 28:0.19243699 29:0.19243699 30:0.19243699 31:0.19243699 32:0.19243699 36:0.19243699 38:0.19243699 39:0.19243699 40:0.19243699 41:0.19243699 #
10.054668255044166613743072957732 22:0.026569 23:0.026569 24:0.026569 25:0.026569 26:0.026569 27:0.026569 28:0.026569 29:0.026569 30:0.026569 31:0.026569 32:0.026569 36:0.026569 38:0.026569 39:0.026569 40:0.026569 41:0.026569 #
10.054668255044166613743072957732 1:0.15800899 #
-10.054668255044166613743072957732 22:0.102481 23:0.102481 24:0.102481 25:0.102481 26:0.102481 27:0.102481 28:0.102481 29:0.102481 30:0.102481 31:0.102481 32:0.102481 36:0.102481 38:0.102481 39:0.102481 40:0.102481 41:0.102481 #
10.054668255044166613743072957732 13:0.074458003 17:0.074458003 34:0.074458003 #
10.054668255044166613743072957732 12:0.230883 #
-10.054668255044166613743072957732 13:0.35639301 17:0.35639301 #
-10.054668255044166613743072957732 23:0.0283 #
10.054668255044166613743072957732 10:0.077880003 29:0.077880003 30:0.077880003 34:0.077880003 40:0.077880003 41:0.077880003 #
-7.2646344198880816733776555338409 12:0.69467998 #
10.054668255044166613743072957732 15:0.021544 20:0.021544 29:0.021544 #
10.054668255044166613743072957732 3:0.066786997 24:0.066786997 #
10.054668255044166613743072957732 1:0.16147 22:0.16147 23:0.16147 24:0.16147 25:0.16147 26:0.16147 27:0.16147 28:0.16147 29:0.16147 30:0.16147 31:0.16147 32:0.16147 36:0.16147 38:0.16147 39:0.16147 40:0.16147 41:0.16147 #
10.054668255044166613743072957732 15:0.031532999 19:0.031532999 22:0.031532999 23:0.031532999 24:0.031532999 25:0.031532999 26:0.031532999 27:0.031532999 28:0.031532999 29:0.031532999 30:0.031532999 31:0.031532999 32:0.031532999 36:0.031532999 38:0.031532999 39:0.031532999 40:0.031532999 41:0.031532999 #
-7.0036055106458290353543816308957 10:0.34139901 29:0.34139901 30:0.34139901 34:0.34139901 40:0.34139901 41:0.34139901 #
-10.054668255044166613743072957732 19:0.39288601 29:0.39288601 30:0.39288601 34:0.39288601 40:0.39288601 41:0.39288601 #
10.054668255044166613743072957732 5:0.220571 13:0.220571 22:0.220571 23:0.220571 24:0.220571 25:0.220571 26:0.220571 27:0.220571 28:0.220571 29:0.220571 30:0.220571 31:0.220571 32:0.220571 36:0.220571 38:0.220571 39:0.220571 40:0.220571 41:0.220571 #
10.054668255044166613743072957732 3:0.053300999 13:0.053300999 29:0.053300999 30:0.053300999 34:0.053300999 40:0.053300999 41:0.053300999 #
10.054668255044166613743072957732 24:0.115656 26:0.115656 28:0.115656 #
-10.054668255044166613743072957732 23:0.075240999 24:0.075240999 25:0.075240999 28:0.075240999 38:0.075240999 39:0.075240999 #
10.054668255044166613743072957732 3:0.107086 #
10.054668255044166613743072957732 24:0.080936 32:0.080936 34:0.080936 #
-10.054668255044166613743072957732 31:0.052917998 #
-10.054668255044166613743072957732 22:0.098761998 23:0.098761998 24:0.098761998 25:0.098761998 26:0.098761998 27:0.098761998 28:0.098761998 29:0.098761998 30:0.098761998 31:0.098761998 32:0.098761998 36:0.098761998 38:0.098761998 39:0.098761998 40:0.098761998 41:0.098761998 #
10.054668255044166613743072957732 2:0.087421998 #
-10.054668255044166613743072957732 3:0.078162998 29:0.078162998 39:0.078162998 #
-10.054668255044166613743072957732 1:0.19405501 22:0.19405501 26:0.19405501 32:0.19405501 36:0.19405501 #
-10.054668255044166613743072957732 23:0.001074 24:0.001074 25:0.001074 28:0.001074 38:0.001074 39:0.001074 #
-10.054668255044166613743072957732 8:0.001402 35:0.001402 #
-10.054668255044166613743072957732 13:0.25466999 17:0.25466999 29:0.25466999 30:0.25466999 34:0.25466999 40:0.25466999 41:0.25466999 #
-1.5397092886000536271495775508811 24:0.100959 26:0.100959 28:0.100959 #
10.054668255044166613743072957732 9:0.064289004 #
-10.054668255044166613743072957732 24:0.059012 25:0.059012 31:0.059012 39:0.059012 #
