SVM-light Version V6.02
0 # kernel type
3 # kernel parameter -d 
1 # kernel parameter -g 
1 # kernel parameter -s 
1 # kernel parameter -r 
empty# kernel parameter -u 
41 # highest feature index 
12931 # number of training documents 
2711 # number of support vectors plus 1 
1.0025373 # threshold b, each following line is a SV (starting with alpha*y)
-9.6417913882475527742599297198467 29:0.00072000001 35:0.00072000001 36:0.00072000001 37:0.00072000001 40:0.00072000001 #
9.6417913882475527742599297198467 8:0.0020699999 10:0.0020699999 #
-9.6417913882475527742599297198467 23:1.278632 24:1.278632 25:1.278632 26:1.278632 27:1.278632 28:1.278632 29:1.278632 30:1.278632 31:1.278632 32:1.278632 33:1.278632 35:1.278632 36:1.278632 37:1.278632 38:1.278632 39:1.278632 40:1.278632 41:1.278632 #
9.6417913882475527742599297198467 #
-9.6417913882475527742599297198467 #
9.6417913882475527742599297198467 2:0.120016 23:0.120016 24:0.120016 25:0.120016 26:0.120016 27:0.120016 28:0.120016 29:0.120016 30:0.120016 31:0.120016 32:0.120016 33:0.120016 35:0.120016 36:0.120016 37:0.120016 38:0.120016 39:0.120016 40:0.120016 41:0.120016 #
-9.6417913882475527742599297198467 #
9.6417913882475527742599297198467 19:0.107626 23:0.107626 24:0.107626 25:0.107626 26:0.107626 27:0.107626 28:0.107626 29:0.107626 30:0.107626 31:0.107626 32:0.107626 33:0.107626 35:0.107626 36:0.107626 37:0.107626 38:0.107626 39:0.107626 40:0.107626 41:0.107626 #
-9.6417913882475527742599297198467 29:0.010856 #
9.6417913882475527742599297198467 29:0.57033402 35:0.57033402 36:0.57033402 37:0.57033402 40:0.57033402 #
9.6417913882475527742599297198467 37:0.55638701 #
-9.6417913882475527742599297198467 19:0.724868 29:0.724868 35:0.724868 36:0.724868 37:0.724868 40:0.724868 #
9.6417913882475527742599297198467 8:0.85943401 16:0.85943401 23:0.85943401 25:0.85943401 27:0.85943401 30:0.85943401 32:0.85943401 33:0.85943401 35:0.85943401 37:0.85943401 38:0.85943401 39:0.85943401 41:0.85943401 #
9.6417913882475527742599297198467 3:0.154282 4:0.154282 9:0.154282 10:0.154282 24:0.154282 32:0.154282 #
-9.6417913882475527742599297198467 30:0.052648999 36:0.052648999 #
-9.6417913882475527742599297198467 2:0.416574 29:0.416574 #
-9.6417913882475527742599297198467 29:0.010764 35:0.010764 36:0.010764 37:0.010764 40:0.010764 #
-9.6417913882475527742599297198467 15:0.112851 25:0.112851 35:0.112851 #
9.6417913882475527742599297198467 3:0.54788703 4:0.54788703 9:0.54788703 10:0.54788703 37:0.54788703 #
-9.6417913882475527742599297198467 38:0.117536 #
-9.6417913882475527742599297198467 16:0.97369802 23:0.97369802 24:0.97369802 25:0.97369802 26:0.97369802 27:0.97369802 28:0.97369802 29:0.97369802 30:0.97369802 31:0.97369802 32:0.97369802 33:0.97369802 35:0.97369802 36:0.97369802 37:0.97369802 38:0.97369802 39:0.97369802 40:0.97369802 41:0.97369802 #
9.6417913882475527742599297198467 20:0.18262 23:0.18262 24:0.18262 25:0.18262 26:0.18262 27:0.18262 28:0.18262 29:0.18262 30:0.18262 31:0.18262 32:0.18262 33:0.18262 35:0.18262 36:0.18262 37:0.18262 38:0.18262 39:0.18262 40:0.18262 41:0.18262 #
-9.6417913882475527742599297198467 3:0.23794299 4:0.23794299 9:0.23794299 10:0.23794299 32:0.23794299 #
9.6417913882475527742599297198467 19:0.67121899 23:0.67121899 #
-0.15530116631073540012231148921273 8:0.94185901 #
-9.6417913882475527742599297198467 16:0.43834901 29:0.43834901 35:0.43834901 36:0.43834901 37:0.43834901 40:0.43834901 #
9.6417913882475527742599297198467 19:0.56463999 #
-9.6417913882475527742599297198467 29:0.54786301 35:0.54786301 36:0.54786301 37:0.54786301 40:0.54786301 #
-9.6417913882475527742599297198467 23:0.001305 24:0.001305 25:0.001305 26:0.001305 27:0.001305 28:0.001305 29:0.001305 30:0.001305 31:0.001305 32:0.001305 33:0.001305 35:0.001305 36:0.001305 37:0.001305 38:0.001305 39:0.001305 40:0.001305 41:0.001305 #
-2.5781484796997427011433501320425 7:0.55791301 33:0.55791301 34:0.55791301 #
9.6417913882475527742599297198467 12:0.48971301 24:0.48971301 29:0.48971301 41:0.48971301 #
9.6417913882475527742599297198467 15:0.31498101 28:0.31498101 #
-3.3554187685587022471622731245589 5:0.53236002 29:0.53236002 #
-9.6417913882475527742599297198467 20:0.86757898 24:0.86757898 26:0.86757898 29:0.86757898 31:0.86757898 #
9.6417913882475527742599297198467 3:0.25114101 4:0.25114101 9:0.25114101 10:0.25114101 27:0.25114101 30:0.25114101 38:0.25114101 #
-9.6417913882475527742599297198467 3:0.029622 4:0.029622 9:0.029622 10:0.029622 25:0.029622 #
9.6417913882475527742599297198467 3:0.017185999 4:0.017185999 9:0.017185999 10:0.017185999 32:0.017185999 #
9.6417913882475527742599297198467 8:0.26669401 11:0.26669401 15:0.26669401 29:0.26669401 #
-9.6417913882475527742599297198467 23:0.001426 24:0.001426 25:0.001426 26:0.001426 27:0.001426 28:0.001426 29:0.001426 30:0.001426 31:0.001426 32:0.001426 33:0.001426 35:0.001426 36:0.001426 37:0.001426 38:0.001426 39:0.001426 40:0.001426 41:0.001426 #
-9.6417913882475527742599297198467 3:0.766478 9:0.766478 23:0.766478 24:0.766478 25:0.766478 26:0.766478 27:0.766478 28:0.766478 29:0.766478 30:0.766478 31:0.766478 32:0.766478 33:0.766478 35:0.766478 36:0.766478 37:0.766478 38:0.766478 39:0.766478 40:0.766478 41:0.766478 #
-9.6417913882475527742599297198467 35:0.069137 #
9.6417913882475527742599297198467 25:0.52843499 #
9.6417913882475527742599297198467 12:0.026136 24:0.026136 27:0.026136 29:0.026136 33:0.026136 41:0.026136 #
-9.6417913882475527742599297198467 20:0.009908 35:0.009908 #
9.6417913882475527742599297198467 18:0.366119 39:0.366119 #
9.6417913882475527742599297198467 23:0.162141 24:0.162141 25:0.162141 26:0.162141 27:0.162141 28:0.162141 29:0.162141 30:0.162141 31:0.162141 32:0.162141 33:0.162141 35:0.162141 36:0.162141 37:0.162141 38:0.162141 39:0.162141 40:0.162141 41:0.162141 #
9.6417913882475527742599297198467 27:0.78557497 30:0.78557497 38:0.78557497 #
9.6417913882475527742599297198467 24:0.856107 32:0.856107 #
9.6417913882475527742599297198467 23:0.13315199 24:0.13315199 25:0.13315199 26:0.13315199 27:0.13315199 28:0.13315199 29:0.13315199 30:0.13315199 31:0.13315199 32:0.13315199 33:0.13315199 35:0.13315199 36:0.13315199 37:0.13315199 38:0.13315199 39:0.13315199 40:0.13315199 41:0.13315199 #
9.6417913882475527742599297198467 19:0.65099698 29:0.65099698 #
9.6417913882475527742599297198467 5:0.23180901 #
-9.6417913882475527742599297198467 3:0.66132897 32:0.66132897 #
-9.6417913882475527742599297198467 26:0.593629 36:0.593629 #
9.6417913882475527742599297198467 3:0.37657899 #
-9.6417913882475527742599297198467 2:1.121956 23:1.121956 24:1.121956 25:1.121956 26:1.121956 27:1.121956 28:1.121956 29:1.121956 30:1.121956 31:1.121956 32:1.121956 33:1.121956 35:1.121956 36:1.121956 37:1.121956 38:1.121956 39:1.121956 40:1.121956 41:1.121956 #
-9.6417913882475527742599297198467 23:0.95063001 24:0.95063001 25:0.95063001 26:0.95063001 27:0.95063001 28:0.95063001 29:0.95063001 30:0.95063001 31:0.95063001 32:0.95063001 33:0.95063001 35:0.95063001 36:0.95063001 37:0.95063001 38:0.95063001 39:0.95063001 40:0.95063001 41:0.95063001 #
9.6417913882475527742599297198467 6:0.57919902 #
9.6417913882475527742599297198467 5:0.571459 32:0.571459 #
-9.6417913882475527742599297198467 29:0.0096279997 32:0.0096279997 37:0.0096279997 #
9.6417913882475527742599297198467 23:0.014955 24:0.014955 25:0.014955 26:0.014955 27:0.014955 28:0.014955 29:0.014955 30:0.014955 31:0.014955 32:0.014955 33:0.014955 35:0.014955 36:0.014955 37:0.014955 38:0.014955 39:0.014955 40:0.014955 41:0.014955 #
9.6417913882475527742599297198467 14:0.34665999 #
-9.6417913882475527742599297198467 2:0.015974 29:0.015974 #
9.6417913882475527742599297198467 17:0.086603999 #
-9.6417913882475527742599297198467 19:0.70277101 29:0.70277101 35:0.70277101 36:0.70277101 37:0.70277101 40:0.70277101 #
-9.6417913882475527742599297198467 29:0.0036480001 35:0.0036480001 36:0.0036480001 37:0.0036480001 40:0.0036480001 #
9.6417913882475527742599297198467 9:0.133352 23:0.133352 24:0.133352 25:0.133352 26:0.133352 27:0.133352 28:0.133352 29:0.133352 30:0.133352 31:0.133352 32:0.133352 33:0.133352 35:0.133352 36:0.133352 37:0.133352 38:0.133352 39:0.133352 40:0.133352 41:0.133352 #
9.6417913882475527742599297198467 8:0.77040398 24:0.77040398 27:0.77040398 29:0.77040398 33:0.77040398 41:0.77040398 #
-9.6417913882475527742599297198467 24:1.258599 27:1.258599 29:1.258599 33:1.258599 41:1.258599 #
9.6417913882475527742599297198467 9:0.26910299 #
9.6417913882475527742599297198467 9:0.85672301 24:0.85672301 27:0.85672301 29:0.85672301 33:0.85672301 41:0.85672301 #
9.6417913882475527742599297198467 9:0.62555701 10:0.62555701 23:0.62555701 25:0.62555701 27:0.62555701 30:0.62555701 32:0.62555701 33:0.62555701 35:0.62555701 37:0.62555701 38:0.62555701 39:0.62555701 41:0.62555701 #
9.6417913882475527742599297198467 3:0.38022 4:0.38022 9:0.38022 10:0.38022 23:0.38022 25:0.38022 27:0.38022 30:0.38022 32:0.38022 33:0.38022 35:0.38022 37:0.38022 38:0.38022 39:0.38022 41:0.38022 #
-9.6417913882475527742599297198467 27:0.67543697 32:0.67543697 #
-9.6417913882475527742599297198467 6:0.99184102 23:0.99184102 24:0.99184102 25:0.99184102 26:0.99184102 27:0.99184102 28:0.99184102 29:0.99184102 30:0.99184102 31:0.99184102 32:0.99184102 33:0.99184102 35:0.99184102 36:0.99184102 37:0.99184102 38:0.99184102 39:0.99184102 40:0.99184102 41:0.99184102 #
-9.6417913882475527742599297198467 14:0.77807403 23:0.77807403 24:0.77807403 25:0.77807403 26:0.77807403 27:0.77807403 28:0.77807403 29:0.77807403 30:0.77807403 31:0.77807403 32:0.77807403 33:0.77807403 35:0.77807403 36:0.77807403 37:0.77807403 38:0.77807403 39:0.77807403 40:0.77807403 41:0.77807403 #
-9.6417913882475527742599297198467 5:0.125755 28:0.125755 #
9.6417913882475527742599297198467 10:0.30038899 27:0.30038899 31:0.30038899 36:0.30038899 #
-9.6417913882475527742599297198467 15:0.40813899 29:0.40813899 35:0.40813899 36:0.40813899 37:0.40813899 40:0.40813899 #
9.6417913882475527742599297198467 22:0.28330401 32:0.28330401 37:0.28330401 40:0.28330401 #
-9.6417913882475527742599297198467 14:1.07961 23:1.07961 24:1.07961 25:1.07961 26:1.07961 27:1.07961 28:1.07961 29:1.07961 30:1.07961 31:1.07961 32:1.07961 33:1.07961 35:1.07961 36:1.07961 37:1.07961 38:1.07961 39:1.07961 40:1.07961 41:1.07961 #
9.6417913882475527742599297198467 27:0.56761903 31:0.56761903 36:0.56761903 #
9.6417913882475527742599297198467 9:0.55852598 10:0.55852598 #
-9.6417913882475527742599297198467 9:0.13227101 24:0.13227101 29:0.13227101 41:0.13227101 #
9.6417913882475527742599297198467 2:0.83972102 28:0.83972102 32:0.83972102 #
-9.6417913882475527742599297198467 6:1.222573 23:1.222573 24:1.222573 25:1.222573 26:1.222573 27:1.222573 28:1.222573 29:1.222573 30:1.222573 31:1.222573 32:1.222573 33:1.222573 35:1.222573 36:1.222573 37:1.222573 38:1.222573 39:1.222573 40:1.222573 41:1.222573 #
9.6417913882475527742599297198467 14:0.505454 24:0.505454 27:0.505454 29:0.505454 33:0.505454 41:0.505454 #
9.6417913882475527742599297198467 5:0.139663 23:0.139663 24:0.139663 25:0.139663 26:0.139663 27:0.139663 28:0.139663 29:0.139663 30:0.139663 31:0.139663 32:0.139663 33:0.139663 35:0.139663 36:0.139663 37:0.139663 38:0.139663 39:0.139663 40:0.139663 41:0.139663 #
-9.6417913882475527742599297198467 6:1.1387351 23:1.1387351 24:1.1387351 25:1.1387351 26:1.1387351 27:1.1387351 28:1.1387351 29:1.1387351 30:1.1387351 31:1.1387351 32:1.1387351 33:1.1387351 35:1.1387351 36:1.1387351 37:1.1387351 38:1.1387351 39:1.1387351 40:1.1387351 41:1.1387351 #
-9.6417913882475527742599297198467 9:0.01311 29:0.01311 #
9.6417913882475527742599297198467 3:0.054496001 4:0.054496001 9:0.054496001 10:0.054496001 23:0.054496001 24:0.054496001 25:0.054496001 26:0.054496001 27:0.054496001 28:0.054496001 29:0.054496001 30:0.054496001 31:0.054496001 32:0.054496001 33:0.054496001 35:0.054496001 36:0.054496001 37:0.054496001 38:0.054496001 39:0.054496001 40:0.054496001 41:0.054496001 #
9.6417913882475527742599297198467 16:0.55262703 #
-6.3537595964351680777326691895723 19:0.19966801 24:0.19966801 32:0.19966801 #
9.6417913882475527742599297198467 2:0.30807701 15:0.30807701 27:0.30807701 31:0.30807701 36:0.30807701 #
9.6417913882475527742599297198467 2:0.347269 #
-9.6417913882475527742599297198467 #
-9.6417913882475527742599297198467 #
-9.6417913882475527742599297198467 1:0.026604 22:0.026604 29:0.026604 #
-9.6417913882475527742599297198467 7:0.66449797 23:0.66449797 26:0.66449797 28:0.66449797 33:0.66449797 34:0.66449797 #
-9.6417913882475527742599297198467 2:0.68604201 13:0.68604201 23:0.68604201 26:0.68604201 28:0.68604201 33:0.68604201 34:0.68604201 #
9.6417913882475527742599297198467 2:0.112658 13:0.112658 #
9.6417913882475527742599297198467 14:0.45281801 29:0.45281801 35:0.45281801 36:0.45281801 37:0.45281801 40:0.45281801 #
9.6417913882475527742599297198467 2:0.083614998 13:0.083614998 23:0.083614998 26:0.083614998 28:0.083614998 33:0.083614998 34:0.083614998 #
-9.6417913882475527742599297198467 9:0.0092460001 29:0.0092460001 35:0.0092460001 36:0.0092460001 37:0.0092460001 40:0.0092460001 #
9.6417913882475527742599297198467 3:0.50130802 4:0.50130802 9:0.50130802 10:0.50130802 31:0.50130802 #
9.6417913882475527742599297198467 6:0.70623702 27:0.70623702 32:0.70623702 #
9.6417913882475527742599297198467 2:0.0070329998 22:0.0070329998 29:0.0070329998 #
9.6417913882475527742599297198467 23:0.077264003 24:0.077264003 25:0.077264003 26:0.077264003 27:0.077264003 28:0.077264003 29:0.077264003 30:0.077264003 31:0.077264003 32:0.077264003 33:0.077264003 35:0.077264003 36:0.077264003 37:0.077264003 38:0.077264003 39:0.077264003 40:0.077264003 41:0.077264003 #
-9.6417913882475527742599297198467 5:1.083871 23:1.083871 24:1.083871 25:1.083871 26:1.083871 27:1.083871 28:1.083871 29:1.083871 30:1.083871 31:1.083871 32:1.083871 33:1.083871 35:1.083871 36:1.083871 37:1.083871 38:1.083871 39:1.083871 40:1.083871 41:1.083871 #
9.6417913882475527742599297198467 14:0.39939201 27:0.39939201 30:0.39939201 38:0.39939201 #
9.6417913882475527742599297198467 19:0.19989 23:0.19989 25:0.19989 27:0.19989 30:0.19989 32:0.19989 33:0.19989 35:0.19989 37:0.19989 38:0.19989 39:0.19989 41:0.19989 #
9.6417913882475527742599297198467 24:0.61041701 29:0.61041701 41:0.61041701 #
-9.6417913882475527742599297198467 22:0.39019999 29:0.39019999 #
9.6417913882475527742599297198467 2:0.198687 22:0.198687 29:0.198687 #
-9.6417913882475527742599297198467 17:0.513578 28:0.513578 #
9.6417913882475527742599297198467 14:0.24940801 23:0.24940801 24:0.24940801 25:0.24940801 26:0.24940801 27:0.24940801 28:0.24940801 29:0.24940801 30:0.24940801 31:0.24940801 32:0.24940801 33:0.24940801 35:0.24940801 36:0.24940801 37:0.24940801 38:0.24940801 39:0.24940801 40:0.24940801 41:0.24940801 #
9.6417913882475527742599297198467 9:0.134912 10:0.134912 23:0.134912 24:0.134912 25:0.134912 26:0.134912 27:0.134912 28:0.134912 29:0.134912 30:0.134912 31:0.134912 32:0.134912 33:0.134912 35:0.134912 36:0.134912 37:0.134912 38:0.134912 39:0.134912 40:0.134912 41:0.134912 #
-9.6417913882475527742599297198467 12:0.011106 28:0.011106 32:0.011106 #
9.6417913882475527742599297198467 24:0.13265599 27:0.13265599 29:0.13265599 33:0.13265599 41:0.13265599 #
9.6417913882475527742599297198467 20:0.69905603 32:0.69905603 #
9.6417913882475527742599297198467 7:0.079332002 23:0.079332002 26:0.079332002 28:0.079332002 33:0.079332002 34:0.079332002 #
-9.6417913882475527742599297198467 12:0.040762998 23:0.040762998 26:0.040762998 28:0.040762998 33:0.040762998 34:0.040762998 #
9.6417913882475527742599297198467 11:0.35332301 32:0.35332301 #
-9.1566564378662747003545518964529 3:0.073331997 24:0.073331997 27:0.073331997 29:0.073331997 33:0.073331997 41:0.073331997 #
9.6417913882475527742599297198467 4:0.74547899 28:0.74547899 32:0.74547899 #
9.6417913882475527742599297198467 23:0.12149 24:0.12149 25:0.12149 26:0.12149 27:0.12149 28:0.12149 29:0.12149 30:0.12149 31:0.12149 32:0.12149 33:0.12149 35:0.12149 36:0.12149 37:0.12149 38:0.12149 39:0.12149 40:0.12149 41:0.12149 #
-9.6417913882475527742599297198467 8:0.460601 11:0.460601 15:0.460601 28:0.460601 #
-9.6417913882475527742599297198467 4:0.064366996 23:0.064366996 25:0.064366996 27:0.064366996 30:0.064366996 32:0.064366996 33:0.064366996 35:0.064366996 37:0.064366996 38:0.064366996 39:0.064366996 41:0.064366996 #
9.6417913882475527742599297198467 23:0.043552998 24:0.043552998 25:0.043552998 26:0.043552998 27:0.043552998 28:0.043552998 29:0.043552998 30:0.043552998 31:0.043552998 32:0.043552998 33:0.043552998 35:0.043552998 36:0.043552998 37:0.043552998 38:0.043552998 39:0.043552998 40:0.043552998 41:0.043552998 #
-9.6417913882475527742599297198467 12:0.024272 29:0.024272 35:0.024272 36:0.024272 37:0.024272 40:0.024272 #
-9.6417913882475527742599297198467 4:0.93383503 23:0.93383503 #
-9.6417913882475527742599297198467 9:0.0081740003 #
9.6417913882475527742599297198467 9:0.61727601 24:0.61727601 27:0.61727601 29:0.61727601 33:0.61727601 41:0.61727601 #
9.6417913882475527742599297198467 14:0.072396003 23:0.072396003 24:0.072396003 25:0.072396003 26:0.072396003 27:0.072396003 28:0.072396003 29:0.072396003 30:0.072396003 31:0.072396003 32:0.072396003 33:0.072396003 35:0.072396003 36:0.072396003 37:0.072396003 38:0.072396003 39:0.072396003 40:0.072396003 41:0.072396003 #
9.6417913882475527742599297198467 24:0.011386 27:0.011386 29:0.011386 33:0.011386 41:0.011386 #
9.6417913882475527742599297198467 19:0.039124001 22:0.039124001 29:0.039124001 #
-9.6417913882475527742599297198467 22:0.56237203 32:0.56237203 37:0.56237203 40:0.56237203 #
-9.6417913882475527742599297198467 17:0.022894001 29:0.022894001 #
9.6417913882475527742599297198467 3:0.230184 9:0.230184 #
9.6417913882475527742599297198467 32:0.72332901 #
9.6417913882475527742599297198467 23:0.104795 24:0.104795 25:0.104795 26:0.104795 27:0.104795 28:0.104795 29:0.104795 30:0.104795 31:0.104795 32:0.104795 33:0.104795 35:0.104795 36:0.104795 37:0.104795 38:0.104795 39:0.104795 40:0.104795 41:0.104795 #
-9.6417913882475527742599297198467 12:0.0052899998 29:0.0052899998 35:0.0052899998 36:0.0052899998 37:0.0052899998 40:0.0052899998 #
9.6417913882475527742599297198467 3:0.091655001 9:0.091655001 23:0.091655001 24:0.091655001 25:0.091655001 26:0.091655001 27:0.091655001 28:0.091655001 29:0.091655001 30:0.091655001 31:0.091655001 32:0.091655001 33:0.091655001 35:0.091655001 36:0.091655001 37:0.091655001 38:0.091655001 39:0.091655001 40:0.091655001 41:0.091655001 #
-9.6417913882475527742599297198467 22:0.76145202 #
-9.6417913882475527742599297198467 25:0.0027729999 35:0.0027729999 #
9.6417913882475527742599297198467 9:0.40036699 #
9.6417913882475527742599297198467 2:0.350122 15:0.350122 23:0.350122 #
9.6417913882475527742599297198467 4:0.35199201 23:0.35199201 25:0.35199201 27:0.35199201 30:0.35199201 32:0.35199201 33:0.35199201 35:0.35199201 37:0.35199201 38:0.35199201 39:0.35199201 41:0.35199201 #
9.6417913882475527742599297198467 3:0.21840701 4:0.21840701 9:0.21840701 10:0.21840701 23:0.21840701 #
9.6417913882475527742599297198467 16:0.77266598 29:0.77266598 32:0.77266598 37:0.77266598 #
9.6417913882475527742599297198467 8:0.354752 10:0.354752 30:0.354752 31:0.354752 32:0.354752 #
-9.6417913882475527742599297198467 3:0.74977797 4:0.74977797 9:0.74977797 10:0.74977797 28:0.74977797 32:0.74977797 #
-9.6417913882475527742599297198467 23:0.92690802 24:0.92690802 25:0.92690802 26:0.92690802 27:0.92690802 28:0.92690802 29:0.92690802 30:0.92690802 31:0.92690802 32:0.92690802 33:0.92690802 35:0.92690802 36:0.92690802 37:0.92690802 38:0.92690802 39:0.92690802 40:0.92690802 41:0.92690802 #
-9.6417913882475527742599297198467 19:0.016865 #
9.6417913882475527742599297198467 23:0.108478 24:0.108478 25:0.108478 26:0.108478 27:0.108478 28:0.108478 29:0.108478 30:0.108478 31:0.108478 32:0.108478 33:0.108478 35:0.108478 36:0.108478 37:0.108478 38:0.108478 39:0.108478 40:0.108478 41:0.108478 #
9.6417913882475527742599297198467 8:0.279717 16:0.279717 28:0.279717 #
9.6417913882475527742599297198467 6:0.080852002 23:0.080852002 24:0.080852002 25:0.080852002 26:0.080852002 27:0.080852002 28:0.080852002 29:0.080852002 30:0.080852002 31:0.080852002 32:0.080852002 33:0.080852002 35:0.080852002 36:0.080852002 37:0.080852002 38:0.080852002 39:0.080852002 40:0.080852002 41:0.080852002 #
-9.6417913882475527742599297198467 28:0.040964998 #
9.6417913882475527742599297198467 23:0.073439002 24:0.073439002 25:0.073439002 26:0.073439002 27:0.073439002 28:0.073439002 29:0.073439002 30:0.073439002 31:0.073439002 32:0.073439002 33:0.073439002 35:0.073439002 36:0.073439002 37:0.073439002 38:0.073439002 39:0.073439002 40:0.073439002 41:0.073439002 #
-1.1504964113363456146288399395416 11:1.122099 23:1.122099 25:1.122099 27:1.122099 30:1.122099 32:1.122099 33:1.122099 35:1.122099 37:1.122099 38:1.122099 39:1.122099 41:1.122099 #
9.6417913882475527742599297198467 23:0.093769997 24:0.093769997 25:0.093769997 26:0.093769997 27:0.093769997 28:0.093769997 29:0.093769997 30:0.093769997 31:0.093769997 32:0.093769997 33:0.093769997 35:0.093769997 36:0.093769997 37:0.093769997 38:0.093769997 39:0.093769997 40:0.093769997 41:0.093769997 #
-9.6396301603723024697956134332344 9:0.404594 10:0.404594 24:0.404594 27:0.404594 29:0.404594 33:0.404594 41:0.404594 #
9.6417913882475527742599297198467 27:0.53666002 31:0.53666002 36:0.53666002 #
-9.6417913882475527742599297198467 28:0.60601997 32:0.60601997 #
9.6417913882475527742599297198467 2:0.436764 15:0.436764 24:0.436764 27:0.436764 29:0.436764 33:0.436764 41:0.436764 #
-9.6417913882475527742599297198467 24:0.32302001 26:0.32302001 29:0.32302001 31:0.32302001 #
-9.6417913882475527742599297198467 3:0.59836602 32:0.59836602 #
-8.6058405017654422408668324351311 24:0.022944 27:0.022944 29:0.022944 33:0.022944 41:0.022944 #
9.6417913882475527742599297198467 1:0.005473 22:0.005473 #
9.6417913882475527742599297198467 23:0.055690002 24:0.055690002 25:0.055690002 26:0.055690002 27:0.055690002 28:0.055690002 29:0.055690002 30:0.055690002 31:0.055690002 32:0.055690002 33:0.055690002 35:0.055690002 36:0.055690002 37:0.055690002 38:0.055690002 39:0.055690002 40:0.055690002 41:0.055690002 #
9.6417913882475527742599297198467 23:0.183338 24:0.183338 25:0.183338 26:0.183338 27:0.183338 28:0.183338 29:0.183338 30:0.183338 31:0.183338 32:0.183338 33:0.183338 35:0.183338 36:0.183338 37:0.183338 38:0.183338 39:0.183338 40:0.183338 41:0.183338 #
-9.6417913882475527742599297198467 19:0.211353 23:0.211353 24:0.211353 25:0.211353 26:0.211353 27:0.211353 28:0.211353 29:0.211353 30:0.211353 31:0.211353 32:0.211353 33:0.211353 35:0.211353 36:0.211353 37:0.211353 38:0.211353 39:0.211353 40:0.211353 41:0.211353 #
-9.6417913882475527742599297198467 15:0.226978 25:0.226978 35:0.226978 #
-9.6417913882475527742599297198467 26:0.21809199 #
9.6417913882475527742599297198467 12:0.076752 23:0.076752 24:0.076752 25:0.076752 26:0.076752 27:0.076752 28:0.076752 29:0.076752 30:0.076752 31:0.076752 32:0.076752 33:0.076752 35:0.076752 36:0.076752 37:0.076752 38:0.076752 39:0.076752 40:0.076752 41:0.076752 #
-9.6417913882475527742599297198467 23:0.0059779999 25:0.0059779999 27:0.0059779999 30:0.0059779999 32:0.0059779999 33:0.0059779999 35:0.0059779999 37:0.0059779999 38:0.0059779999 39:0.0059779999 41:0.0059779999 #
9.6417913882475527742599297198467 23:0.0092770001 24:0.0092770001 25:0.0092770001 26:0.0092770001 27:0.0092770001 28:0.0092770001 29:0.0092770001 30:0.0092770001 31:0.0092770001 32:0.0092770001 33:0.0092770001 35:0.0092770001 36:0.0092770001 37:0.0092770001 38:0.0092770001 39:0.0092770001 40:0.0092770001 41:0.0092770001 #
9.6417913882475527742599297198467 3:0.188061 4:0.188061 9:0.188061 10:0.188061 23:0.188061 24:0.188061 25:0.188061 26:0.188061 27:0.188061 28:0.188061 29:0.188061 30:0.188061 31:0.188061 32:0.188061 33:0.188061 35:0.188061 36:0.188061 37:0.188061 38:0.188061 39:0.188061 40:0.188061 41:0.188061 #
9.6417913882475527742599297198467 23:0.038936 24:0.038936 25:0.038936 26:0.038936 27:0.038936 28:0.038936 29:0.038936 30:0.038936 31:0.038936 32:0.038936 33:0.038936 35:0.038936 36:0.038936 37:0.038936 38:0.038936 39:0.038936 40:0.038936 41:0.038936 #
-9.6417913882475527742599297198467 #
9.2280771051946306471336356480606 7:0.214513 23:0.214513 26:0.214513 28:0.214513 33:0.214513 34:0.214513 #
9.6417913882475527742599297198467 23:0.148947 24:0.148947 25:0.148947 26:0.148947 27:0.148947 28:0.148947 29:0.148947 30:0.148947 31:0.148947 32:0.148947 33:0.148947 35:0.148947 36:0.148947 37:0.148947 38:0.148947 39:0.148947 40:0.148947 41:0.148947 #
-9.6417913882475527742599297198467 23:0.178313 24:0.178313 25:0.178313 26:0.178313 27:0.178313 28:0.178313 29:0.178313 30:0.178313 31:0.178313 32:0.178313 33:0.178313 35:0.178313 36:0.178313 37:0.178313 38:0.178313 39:0.178313 40:0.178313 41:0.178313 #
9.6417913882475527742599297198467 24:0.73959398 27:0.73959398 29:0.73959398 33:0.73959398 41:0.73959398 #
-3.8969055895791893107116266037337 19:0.96946001 37:0.96946001 #
-9.6417913882475527742599297198467 9:0.615821 10:0.615821 24:0.615821 27:0.615821 29:0.615821 33:0.615821 41:0.615821 #
-9.4939822515948311121292135794647 12:0.24976 #
9.6417913882475527742599297198467 8:0.117192 16:0.117192 24:0.117192 27:0.117192 29:0.117192 33:0.117192 41:0.117192 #
-9.6417913882475527742599297198467 3:0.74979699 23:0.74979699 24:0.74979699 25:0.74979699 26:0.74979699 27:0.74979699 28:0.74979699 29:0.74979699 30:0.74979699 31:0.74979699 32:0.74979699 33:0.74979699 35:0.74979699 36:0.74979699 37:0.74979699 38:0.74979699 39:0.74979699 40:0.74979699 41:0.74979699 #
9.6417913882475527742599297198467 6:0.32858101 #
9.6417913882475527742599297198467 13:0.49630001 #
9.6417913882475527742599297198467 11:0.27744401 20:0.27744401 24:0.27744401 27:0.27744401 29:0.27744401 33:0.27744401 41:0.27744401 #
-9.6417913882475527742599297198467 #
9.6417913882475527742599297198467 #
-9.6417913882475527742599297198467 6:1.089751 23:1.089751 24:1.089751 25:1.089751 26:1.089751 27:1.089751 28:1.089751 29:1.089751 30:1.089751 31:1.089751 32:1.089751 33:1.089751 35:1.089751 36:1.089751 37:1.089751 38:1.089751 39:1.089751 40:1.089751 41:1.089751 #
-9.6417913882475527742599297198467 2:0.38510901 15:0.38510901 24:0.38510901 26:0.38510901 29:0.38510901 31:0.38510901 #
-9.6417913882475527742599297198467 5:0.64784598 23:0.64784598 24:0.64784598 25:0.64784598 26:0.64784598 27:0.64784598 28:0.64784598 29:0.64784598 30:0.64784598 31:0.64784598 32:0.64784598 33:0.64784598 35:0.64784598 36:0.64784598 37:0.64784598 38:0.64784598 39:0.64784598 40:0.64784598 41:0.64784598 #
-9.6417913882475527742599297198467 13:0.190069 33:0.190069 34:0.190069 #
-9.6417913882475527742599297198467 28:0.0059480001 #
-6.1356794559778498054924966709223 3:1.590981 4:1.590981 9:1.590981 10:1.590981 23:1.590981 25:1.590981 27:1.590981 30:1.590981 32:1.590981 33:1.590981 35:1.590981 37:1.590981 38:1.590981 39:1.590981 41:1.590981 #
-9.6417913882475527742599297198467 29:0.0088269999 #
9.6417913882475527742599297198467 23:0.082232997 24:0.082232997 25:0.082232997 26:0.082232997 27:0.082232997 28:0.082232997 29:0.082232997 30:0.082232997 31:0.082232997 32:0.082232997 33:0.082232997 35:0.082232997 36:0.082232997 37:0.082232997 38:0.082232997 39:0.082232997 40:0.082232997 41:0.082232997 #
9.6417913882475527742599297198467 3:0.021604 23:0.021604 24:0.021604 25:0.021604 26:0.021604 27:0.021604 28:0.021604 29:0.021604 30:0.021604 31:0.021604 32:0.021604 33:0.021604 35:0.021604 36:0.021604 37:0.021604 38:0.021604 39:0.021604 40:0.021604 41:0.021604 #
-9.6417913882475527742599297198467 11:0.0082280003 28:0.0082280003 #
-9.6417913882475527742599297198467 6:0.54978901 24:0.54978901 26:0.54978901 29:0.54978901 31:0.54978901 #
-9.6417913882475527742599297198467 23:0.88345098 24:0.88345098 25:0.88345098 26:0.88345098 27:0.88345098 28:0.88345098 29:0.88345098 30:0.88345098 31:0.88345098 32:0.88345098 33:0.88345098 35:0.88345098 36:0.88345098 37:0.88345098 38:0.88345098 39:0.88345098 40:0.88345098 41:0.88345098 #
9.6417913882475527742599297198467 23:0.094636001 24:0.094636001 25:0.094636001 26:0.094636001 27:0.094636001 28:0.094636001 29:0.094636001 30:0.094636001 31:0.094636001 32:0.094636001 33:0.094636001 35:0.094636001 36:0.094636001 37:0.094636001 38:0.094636001 39:0.094636001 40:0.094636001 41:0.094636001 #
9.6417913882475527742599297198467 9:0.111347 10:0.111347 23:0.111347 24:0.111347 25:0.111347 26:0.111347 27:0.111347 28:0.111347 29:0.111347 30:0.111347 31:0.111347 32:0.111347 33:0.111347 35:0.111347 36:0.111347 37:0.111347 38:0.111347 39:0.111347 40:0.111347 41:0.111347 #
9.6417913882475527742599297198467 27:0.26182601 31:0.26182601 36:0.26182601 #
9.6417913882475527742599297198467 22:0.114939 32:0.114939 37:0.114939 40:0.114939 #
9.6417913882475527742599297198467 5:0.11513 23:0.11513 26:0.11513 28:0.11513 33:0.11513 34:0.11513 #
-0.016147879133598053158493712544441 9:0.002262 29:0.002262 32:0.002262 37:0.002262 #
-9.6417913882475527742599297198467 23:0.207378 25:0.207378 27:0.207378 30:0.207378 32:0.207378 33:0.207378 35:0.207378 37:0.207378 38:0.207378 39:0.207378 41:0.207378 #
7.0149715681021200808231697010342 4:0.62569797 25:0.62569797 35:0.62569797 #
-9.6417913882475527742599297198467 12:0.60399002 33:0.60399002 #
9.6417913882475527742599297198467 23:0.107748 24:0.107748 25:0.107748 26:0.107748 27:0.107748 28:0.107748 29:0.107748 30:0.107748 31:0.107748 32:0.107748 33:0.107748 35:0.107748 36:0.107748 37:0.107748 38:0.107748 39:0.107748 40:0.107748 41:0.107748 #
-9.6417913882475527742599297198467 3:0.163846 23:0.163846 24:0.163846 25:0.163846 26:0.163846 27:0.163846 28:0.163846 29:0.163846 30:0.163846 31:0.163846 32:0.163846 33:0.163846 35:0.163846 36:0.163846 37:0.163846 38:0.163846 39:0.163846 40:0.163846 41:0.163846 #
-9.6417913882475527742599297198467 6:0.46625099 23:0.46625099 24:0.46625099 25:0.46625099 26:0.46625099 27:0.46625099 28:0.46625099 29:0.46625099 30:0.46625099 31:0.46625099 32:0.46625099 33:0.46625099 35:0.46625099 36:0.46625099 37:0.46625099 38:0.46625099 39:0.46625099 40:0.46625099 41:0.46625099 #
9.6417913882475527742599297198467 11:0.190091 26:0.190091 36:0.190091 #
-9.6417913882475527742599297198467 2:0.017054001 23:0.017054001 #
9.6417913882475527742599297198467 12:0.130998 23:0.130998 24:0.130998 25:0.130998 26:0.130998 27:0.130998 28:0.130998 29:0.130998 30:0.130998 31:0.130998 32:0.130998 33:0.130998 35:0.130998 36:0.130998 37:0.130998 38:0.130998 39:0.130998 40:0.130998 41:0.130998 #
9.6417913882475527742599297198467 3:0.29097199 24:0.29097199 27:0.29097199 29:0.29097199 33:0.29097199 41:0.29097199 #
-9.6417913882475527742599297198467 8:0.54838699 10:0.54838699 23:0.54838699 24:0.54838699 25:0.54838699 26:0.54838699 27:0.54838699 28:0.54838699 29:0.54838699 30:0.54838699 31:0.54838699 32:0.54838699 33:0.54838699 35:0.54838699 36:0.54838699 37:0.54838699 38:0.54838699 39:0.54838699 40:0.54838699 41:0.54838699 #
-9.6417913882475527742599297198467 9:0.0058380002 10:0.0058380002 28:0.0058380002 32:0.0058380002 #
-9.6417913882475527742599297198467 29:0.001932 35:0.001932 36:0.001932 37:0.001932 40:0.001932 #
9.6417913882475527742599297198467 29:0.002656 35:0.002656 36:0.002656 37:0.002656 40:0.002656 #
9.6417913882475527742599297198467 3:0.61643201 27:0.61643201 32:0.61643201 #
-0.04451859133057212147832615301013 8:0.0051040002 29:0.0051040002 #
-9.6417913882475527742599297198467 2:0.335374 15:0.335374 28:0.335374 #
-9.4322555827998328936701000202447 4:0.27406099 #
-9.6417913882475527742599297198467 29:0.0027099999 35:0.0027099999 36:0.0027099999 37:0.0027099999 40:0.0027099999 #
9.6417913882475527742599297198467 7:0.134965 23:0.134965 26:0.134965 28:0.134965 33:0.134965 34:0.134965 #
-9.6417913882475527742599297198467 24:0.094639003 26:0.094639003 29:0.094639003 31:0.094639003 #
9.6417913882475527742599297198467 3:0.18016499 23:0.18016499 24:0.18016499 25:0.18016499 26:0.18016499 27:0.18016499 28:0.18016499 29:0.18016499 30:0.18016499 31:0.18016499 32:0.18016499 33:0.18016499 35:0.18016499 36:0.18016499 37:0.18016499 38:0.18016499 39:0.18016499 40:0.18016499 41:0.18016499 #
9.6417913882475527742599297198467 3:0.13367499 9:0.13367499 #
-9.6417913882475527742599297198467 33:0.411962 #
-7.7882701705497545674461434828117 3:0.39288601 24:0.39288601 27:0.39288601 29:0.39288601 33:0.39288601 41:0.39288601 #
-9.6417913882475527742599297198467 3:0.54459298 4:0.54459298 9:0.54459298 10:0.54459298 23:0.54459298 24:0.54459298 25:0.54459298 26:0.54459298 27:0.54459298 28:0.54459298 29:0.54459298 30:0.54459298 31:0.54459298 32:0.54459298 33:0.54459298 35:0.54459298 36:0.54459298 37:0.54459298 38:0.54459298 39:0.54459298 40:0.54459298 41:0.54459298 #
-9.6417913882475527742599297198467 3:0.72127002 9:0.72127002 23:0.72127002 24:0.72127002 25:0.72127002 26:0.72127002 27:0.72127002 28:0.72127002 29:0.72127002 30:0.72127002 31:0.72127002 32:0.72127002 33:0.72127002 35:0.72127002 36:0.72127002 37:0.72127002 38:0.72127002 39:0.72127002 40:0.72127002 41:0.72127002 #
9.6417913882475527742599297198467 8:0.132883 11:0.132883 15:0.132883 24:0.132883 32:0.132883 #
-9.6417913882475527742599297198467 8:0.011877 10:0.011877 29:0.011877 #
9.6417913882475527742599297198467 3:0.166501 23:0.166501 24:0.166501 25:0.166501 26:0.166501 27:0.166501 28:0.166501 29:0.166501 30:0.166501 31:0.166501 32:0.166501 33:0.166501 35:0.166501 36:0.166501 37:0.166501 38:0.166501 39:0.166501 40:0.166501 41:0.166501 #
9.6417913882475527742599297198467 #
-9.6417913882475527742599297198467 16:0.56629199 26:0.56629199 36:0.56629199 #
-9.5837368575900185874161252286285 38:0.31452301 #
9.6417913882475527742599297198467 24:0.39972299 27:0.39972299 29:0.39972299 33:0.39972299 41:0.39972299 #
9.6417913882475527742599297198467 22:0.141487 29:0.141487 #
-9.6417913882475527742599297198467 25:0.40424699 32:0.40424699 #
-9.6417913882475527742599297198467 25:0.234189 #
-9.6417913882475527742599297198467 19:0.35760301 28:0.35760301 #
-9.6417913882475527742599297198467 12:0.24878301 #
-9.6417913882475527742599297198467 19:0.341479 28:0.341479 32:0.341479 #
9.6417913882475527742599297198467 6:0.222839 24:0.222839 27:0.222839 29:0.222839 33:0.222839 41:0.222839 #
-9.6417913882475527742599297198467 23:0.79064399 24:0.79064399 25:0.79064399 26:0.79064399 27:0.79064399 28:0.79064399 29:0.79064399 30:0.79064399 31:0.79064399 32:0.79064399 33:0.79064399 35:0.79064399 36:0.79064399 37:0.79064399 38:0.79064399 39:0.79064399 40:0.79064399 41:0.79064399 #
9.6417913882475527742599297198467 23:0.152968 24:0.152968 25:0.152968 26:0.152968 27:0.152968 28:0.152968 29:0.152968 30:0.152968 31:0.152968 32:0.152968 33:0.152968 35:0.152968 36:0.152968 37:0.152968 38:0.152968 39:0.152968 40:0.152968 41:0.152968 #
9.6417913882475527742599297198467 3:0.73672599 24:0.73672599 27:0.73672599 29:0.73672599 33:0.73672599 41:0.73672599 #
9.6417913882475527742599297198467 6:0.208894 23:0.208894 24:0.208894 25:0.208894 26:0.208894 27:0.208894 28:0.208894 29:0.208894 30:0.208894 31:0.208894 32:0.208894 33:0.208894 35:0.208894 36:0.208894 37:0.208894 38:0.208894 39:0.208894 40:0.208894 41:0.208894 #
9.6417913882475527742599297198467 23:0.139653 26:0.139653 28:0.139653 33:0.139653 34:0.139653 #
-9.6417913882475527742599297198467 24:0.066615 29:0.066615 41:0.066615 #
-9.6417913882475527742599297198467 24:0.739236 27:0.739236 29:0.739236 33:0.739236 41:0.739236 #
-9.6417913882475527742599297198467 9:0.46463701 23:0.46463701 #
9.6417913882475527742599297198467 3:0.191958 4:0.191958 9:0.191958 10:0.191958 23:0.191958 24:0.191958 25:0.191958 26:0.191958 27:0.191958 28:0.191958 29:0.191958 30:0.191958 31:0.191958 32:0.191958 33:0.191958 35:0.191958 36:0.191958 37:0.191958 38:0.191958 39:0.191958 40:0.191958 41:0.191958 #
9.6417913882475527742599297198467 2:0.66775 28:0.66775 32:0.66775 #
-9.6417913882475527742599297198467 23:0.204016 25:0.204016 27:0.204016 30:0.204016 32:0.204016 33:0.204016 35:0.204016 37:0.204016 38:0.204016 39:0.204016 41:0.204016 #
-9.6417913882475527742599297198467 23:0.75772703 24:0.75772703 25:0.75772703 26:0.75772703 27:0.75772703 28:0.75772703 29:0.75772703 30:0.75772703 31:0.75772703 32:0.75772703 33:0.75772703 35:0.75772703 36:0.75772703 37:0.75772703 38:0.75772703 39:0.75772703 40:0.75772703 41:0.75772703 #
9.6417913882475527742599297198467 3:0.38080001 4:0.38080001 9:0.38080001 10:0.38080001 25:0.38080001 35:0.38080001 #
9.6417913882475527742599297198467 24:0.66283298 27:0.66283298 29:0.66283298 33:0.66283298 41:0.66283298 #
9.6417913882475527742599297198467 6:0.321612 #
-9.6417913882475527742599297198467 23:0.090085 25:0.090085 27:0.090085 30:0.090085 32:0.090085 33:0.090085 35:0.090085 37:0.090085 38:0.090085 39:0.090085 41:0.090085 #
9.6417913882475527742599297198467 3:0.209857 #
9.6417913882475527742599297198467 27:0.443977 32:0.443977 #
9.6417913882475527742599297198467 10:0.29663101 27:0.29663101 31:0.29663101 36:0.29663101 #
-9.6417913882475527742599297198467 14:0.76901001 23:0.76901001 24:0.76901001 25:0.76901001 26:0.76901001 27:0.76901001 28:0.76901001 29:0.76901001 30:0.76901001 31:0.76901001 32:0.76901001 33:0.76901001 35:0.76901001 36:0.76901001 37:0.76901001 38:0.76901001 39:0.76901001 40:0.76901001 41:0.76901001 #
9.6417913882475527742599297198467 38:0.19801 #
9.6417913882475527742599297198467 14:0.230883 #
-9.6417913882475527742599297198467 23:0.62480301 24:0.62480301 25:0.62480301 26:0.62480301 27:0.62480301 28:0.62480301 29:0.62480301 30:0.62480301 31:0.62480301 32:0.62480301 33:0.62480301 35:0.62480301 36:0.62480301 37:0.62480301 38:0.62480301 39:0.62480301 40:0.62480301 41:0.62480301 #
-9.6417913882475527742599297198467 5:0.165829 28:0.165829 #
9.6417913882475527742599297198467 39:0.094039001 #
-9.6417913882475527742599297198467 2:0.53416598 23:0.53416598 24:0.53416598 25:0.53416598 26:0.53416598 27:0.53416598 28:0.53416598 29:0.53416598 30:0.53416598 31:0.53416598 32:0.53416598 33:0.53416598 35:0.53416598 36:0.53416598 37:0.53416598 38:0.53416598 39:0.53416598 40:0.53416598 41:0.53416598 #
9.6417913882475527742599297198467 12:0.48409101 24:0.48409101 27:0.48409101 29:0.48409101 33:0.48409101 41:0.48409101 #
9.6417913882475527742599297198467 9:0.302964 28:0.302964 32:0.302964 #
9.6417913882475527742599297198467 20:0.168189 24:0.168189 27:0.168189 29:0.168189 33:0.168189 41:0.168189 #
-9.6417913882475527742599297198467 12:0.621005 23:0.621005 24:0.621005 25:0.621005 26:0.621005 27:0.621005 28:0.621005 29:0.621005 30:0.621005 31:0.621005 32:0.621005 33:0.621005 35:0.621005 36:0.621005 37:0.621005 38:0.621005 39:0.621005 40:0.621005 41:0.621005 #
9.6417913882475527742599297198467 18:0.30579501 32:0.30579501 #
9.6417913882475527742599297198467 9:0.021544 10:0.021544 41:0.021544 #
9.6417913882475527742599297198467 3:0.283252 4:0.283252 9:0.283252 10:0.283252 28:0.283252 32:0.283252 #
-9.6417913882475527742599297198467 23:0.58879 24:0.58879 25:0.58879 26:0.58879 27:0.58879 28:0.58879 29:0.58879 30:0.58879 31:0.58879 32:0.58879 33:0.58879 35:0.58879 36:0.58879 37:0.58879 38:0.58879 39:0.58879 40:0.58879 41:0.58879 #
9.6417913882475527742599297198467 6:0.193057 27:0.193057 31:0.193057 36:0.193057 #
9.6417913882475527742599297198467 20:0.083734997 32:0.083734997 #
9.6417913882475527742599297198467 32:0.22906099 #
-9.6417913882475527742599297198467 16:0.21426301 29:0.21426301 32:0.21426301 37:0.21426301 #
-9.6417913882475527742599297198467 14:0.55058098 23:0.55058098 24:0.55058098 25:0.55058098 26:0.55058098 27:0.55058098 28:0.55058098 29:0.55058098 30:0.55058098 31:0.55058098 32:0.55058098 33:0.55058098 35:0.55058098 36:0.55058098 37:0.55058098 38:0.55058098 39:0.55058098 40:0.55058098 41:0.55058098 #
9.6417913882475527742599297198467 14:0.25027499 29:0.25027499 35:0.25027499 36:0.25027499 37:0.25027499 40:0.25027499 #
-9.6417913882475527742599297198467 16:0.435619 23:0.435619 24:0.435619 25:0.435619 26:0.435619 27:0.435619 28:0.435619 29:0.435619 30:0.435619 31:0.435619 32:0.435619 33:0.435619 35:0.435619 36:0.435619 37:0.435619 38:0.435619 39:0.435619 40:0.435619 41:0.435619 #
9.6417913882475527742599297198467 16:0.33968499 #
9.6417913882475527742599297198467 6:0.023298001 23:0.023298001 24:0.023298001 25:0.023298001 26:0.023298001 27:0.023298001 28:0.023298001 29:0.023298001 30:0.023298001 31:0.023298001 32:0.023298001 33:0.023298001 35:0.023298001 36:0.023298001 37:0.023298001 38:0.023298001 39:0.023298001 40:0.023298001 41:0.023298001 #
9.6417913882475527742599297198467 9:0.126168 10:0.126168 23:0.126168 24:0.126168 25:0.126168 26:0.126168 27:0.126168 28:0.126168 29:0.126168 30:0.126168 31:0.126168 32:0.126168 33:0.126168 35:0.126168 36:0.126168 37:0.126168 38:0.126168 39:0.126168 40:0.126168 41:0.126168 #
9.6417913882475527742599297198467 19:0.39705601 #
9.6417913882475527742599297198467 14:0.176174 #
-9.6417913882475527742599297198467 23:0.40959999 24:0.40959999 25:0.40959999 26:0.40959999 27:0.40959999 28:0.40959999 29:0.40959999 30:0.40959999 31:0.40959999 32:0.40959999 33:0.40959999 35:0.40959999 36:0.40959999 37:0.40959999 38:0.40959999 39:0.40959999 40:0.40959999 41:0.40959999 #
9.6417913882475527742599297198467 8:0.183864 11:0.183864 15:0.183864 24:0.183864 27:0.183864 29:0.183864 33:0.183864 41:0.183864 #
-9.6417913882475527742599297198467 8:0.0079140002 10:0.0079140002 29:0.0079140002 35:0.0079140002 36:0.0079140002 37:0.0079140002 40:0.0079140002 #
9.6417913882475527742599297198467 3:0.13797601 20:0.13797601 24:0.13797601 29:0.13797601 41:0.13797601 #
9.6417913882475527742599297198467 12:0.021616001 #
-9.6417913882475527742599297198467 23:0.19710401 25:0.19710401 27:0.19710401 30:0.19710401 32:0.19710401 33:0.19710401 35:0.19710401 37:0.19710401 38:0.19710401 39:0.19710401 41:0.19710401 #
9.6417913882475527742599297198467 3:0.28725401 20:0.28725401 #
-9.6417913882475527742599297198467 23:0.40631101 24:0.40631101 25:0.40631101 26:0.40631101 27:0.40631101 28:0.40631101 29:0.40631101 30:0.40631101 31:0.40631101 32:0.40631101 33:0.40631101 35:0.40631101 36:0.40631101 37:0.40631101 38:0.40631101 39:0.40631101 40:0.40631101 41:0.40631101 #
9.6417913882475527742599297198467 9:0.23425101 10:0.23425101 22:0.23425101 #
-9.6417913882475527742599297198467 23:0.403844 24:0.403844 25:0.403844 26:0.403844 27:0.403844 28:0.403844 29:0.403844 30:0.403844 31:0.403844 32:0.403844 33:0.403844 35:0.403844 36:0.403844 37:0.403844 38:0.403844 39:0.403844 40:0.403844 41:0.403844 #
9.6417913882475527742599297198467 20:0.079934001 #
-9.6417913882475527742599297198467 12:0.25278199 #
9.6417913882475527742599297198467 8:0.18421499 11:0.18421499 15:0.18421499 27:0.18421499 31:0.18421499 36:0.18421499 #
9.6417913882475527742599297198467 10:0.36364201 27:0.36364201 32:0.36364201 #
9.6417913882475527742599297198467 23:0.24326301 25:0.24326301 27:0.24326301 30:0.24326301 32:0.24326301 33:0.24326301 35:0.24326301 37:0.24326301 38:0.24326301 39:0.24326301 41:0.24326301 #
9.6417913882475527742599297198467 5:0.206607 #
9.6417913882475527742599297198467 8:0.42232299 10:0.42232299 #
9.6417913882475527742599297198467 2:0.123475 15:0.123475 #
9.6417913882475527742599297198467 23:0.17026 25:0.17026 27:0.17026 30:0.17026 32:0.17026 33:0.17026 35:0.17026 37:0.17026 38:0.17026 39:0.17026 41:0.17026 #
9.6417913882475527742599297198467 #
9.6417913882475527742599297198467 6:0.21133301 #
-9.6417913882475527742599297198467 29:0.0027679999 35:0.0027679999 36:0.0027679999 37:0.0027679999 40:0.0027679999 #
-9.6417913882475527742599297198467 22:0.400877 32:0.400877 37:0.400877 40:0.400877 #
9.6417913882475527742599297198467 8:0.213076 16:0.213076 24:0.213076 27:0.213076 29:0.213076 33:0.213076 41:0.213076 #
-9.6417913882475527742599297198467 24:0.26724401 26:0.26724401 29:0.26724401 31:0.26724401 #
9.6417913882475527742599297198467 23:0.197787 24:0.197787 25:0.197787 26:0.197787 27:0.197787 28:0.197787 29:0.197787 30:0.197787 31:0.197787 32:0.197787 33:0.197787 35:0.197787 36:0.197787 37:0.197787 38:0.197787 39:0.197787 40:0.197787 41:0.197787 #
9.6417913882475527742599297198467 17:0.15369099 23:0.15369099 24:0.15369099 25:0.15369099 26:0.15369099 27:0.15369099 28:0.15369099 29:0.15369099 30:0.15369099 31:0.15369099 32:0.15369099 33:0.15369099 35:0.15369099 36:0.15369099 37:0.15369099 38:0.15369099 39:0.15369099 40:0.15369099 41:0.15369099 #
9.6417913882475527742599297198467 23:0.161881 24:0.161881 25:0.161881 26:0.161881 27:0.161881 28:0.161881 29:0.161881 30:0.161881 31:0.161881 32:0.161881 33:0.161881 35:0.161881 36:0.161881 37:0.161881 38:0.161881 39:0.161881 40:0.161881 41:0.161881 #
9.6417913882475527742599297198467 14:0.168414 #
-9.6417913882475527742599297198467 4:0.27345499 25:0.27345499 32:0.27345499 #
9.6417913882475527742599297198467 5:0.19390801 #
-9.6417913882475527742599297198467 7:0.36021 23:0.36021 26:0.36021 28:0.36021 33:0.36021 34:0.36021 #
-9.6417913882475527742599297198467 29:0.40102401 35:0.40102401 36:0.40102401 37:0.40102401 40:0.40102401 #
-9.6417913882475527742599297198467 16:0.349208 27:0.349208 31:0.349208 36:0.349208 #
9.6417913882475527742599297198467 5:0.17058399 #
-9.6417913882475527742599297198467 3:0.36329401 4:0.36329401 9:0.36329401 10:0.36329401 23:0.36329401 24:0.36329401 25:0.36329401 26:0.36329401 27:0.36329401 28:0.36329401 29:0.36329401 30:0.36329401 31:0.36329401 32:0.36329401 33:0.36329401 35:0.36329401 36:0.36329401 37:0.36329401 38:0.36329401 39:0.36329401 40:0.36329401 41:0.36329401 #
-2.9821532170359823510352725861594 3:0.79788101 4:0.79788101 9:0.79788101 10:0.79788101 30:0.79788101 #
9.6417913882475527742599297198467 24:0.390057 27:0.390057 29:0.390057 33:0.390057 41:0.390057 #
9.6417913882475527742599297198467 3:0.227045 4:0.227045 9:0.227045 10:0.227045 #
-9.6417913882475527742599297198467 27:0.64540398 32:0.64540398 #
9.6417913882475527742599297198467 12:0.41472399 24:0.41472399 27:0.41472399 29:0.41472399 33:0.41472399 41:0.41472399 #
-9.6417913882475527742599297198467 3:0.25962299 20:0.25962299 28:0.25962299 32:0.25962299 #
-9.5744715358507619384909048676491 23:0.086144 25:0.086144 27:0.086144 30:0.086144 32:0.086144 33:0.086144 35:0.086144 37:0.086144 38:0.086144 39:0.086144 41:0.086144 #
-9.6417913882475527742599297198467 24:0.23367301 26:0.23367301 29:0.23367301 31:0.23367301 #
-9.6417913882475527742599297198467 25:0.30236399 32:0.30236399 #
-9.6417913882475527742599297198467 25:0.188903 35:0.188903 #
9.6417913882475527742599297198467 24:0.25817999 27:0.25817999 29:0.25817999 33:0.25817999 41:0.25817999 #
9.6417913882475527742599297198467 4:0.62569797 25:0.62569797 35:0.62569797 #
-9.6417913882475527742599297198467 25:0.184044 35:0.184044 #
9.6417913882475527742599297198467 3:0.21114101 24:0.21114101 27:0.21114101 29:0.21114101 33:0.21114101 41:0.21114101 #
9.6417913882475527742599297198467 8:0.10476 #
-9.6417913882475527742599297198467 29:0.0028820001 35:0.0028820001 36:0.0028820001 37:0.0028820001 40:0.0028820001 #
-9.6417913882475527742599297198467 9:0.57277799 10:0.57277799 24:0.57277799 27:0.57277799 29:0.57277799 33:0.57277799 41:0.57277799 #
-9.5912929363813805849758864496835 18:0.39457101 24:0.39457101 27:0.39457101 29:0.39457101 33:0.39457101 41:0.39457101 #
-9.6417913882475527742599297198467 29:0.0071169999 35:0.0071169999 36:0.0071169999 37:0.0071169999 40:0.0071169999 #
9.6417913882475527742599297198467 19:0.28439301 22:0.28439301 32:0.28439301 37:0.28439301 40:0.28439301 #
9.6417913882475527742599297198467 23:0.207339 24:0.207339 25:0.207339 26:0.207339 27:0.207339 28:0.207339 29:0.207339 30:0.207339 31:0.207339 32:0.207339 33:0.207339 35:0.207339 36:0.207339 37:0.207339 38:0.207339 39:0.207339 40:0.207339 41:0.207339 #
-9.6417913882475527742599297198467 15:0.374704 29:0.374704 35:0.374704 36:0.374704 37:0.374704 40:0.374704 #
9.6417913882475527742599297198467 8:0.111768 23:0.111768 24:0.111768 25:0.111768 26:0.111768 27:0.111768 28:0.111768 29:0.111768 30:0.111768 31:0.111768 32:0.111768 33:0.111768 35:0.111768 36:0.111768 37:0.111768 38:0.111768 39:0.111768 40:0.111768 41:0.111768 #
-9.6417913882475527742599297198467 27:0.400722 32:0.400722 #
-9.6417913882475527742599297198467 23:0.38954201 24:0.38954201 25:0.38954201 26:0.38954201 27:0.38954201 28:0.38954201 29:0.38954201 30:0.38954201 31:0.38954201 32:0.38954201 33:0.38954201 35:0.38954201 36:0.38954201 37:0.38954201 38:0.38954201 39:0.38954201 40:0.38954201 41:0.38954201 #
-9.6417913882475527742599297198467 29:0.0032850001 35:0.0032850001 36:0.0032850001 37:0.0032850001 40:0.0032850001 #
-9.6417913882475527742599297198467 29:0.0048839999 35:0.0048839999 36:0.0048839999 37:0.0048839999 40:0.0048839999 #
9.6417913882475527742599297198467 22:0.13981999 32:0.13981999 37:0.13981999 40:0.13981999 #
-9.6417913882475527742599297198467 29:0.155462 35:0.155462 36:0.155462 37:0.155462 40:0.155462 #
9.6417913882475527742599297198467 29:0.28862301 35:0.28862301 36:0.28862301 37:0.28862301 40:0.28862301 #
-9.6417913882475527742599297198467 12:0.25955901 23:0.25955901 24:0.25955901 25:0.25955901 26:0.25955901 27:0.25955901 28:0.25955901 29:0.25955901 30:0.25955901 31:0.25955901 32:0.25955901 33:0.25955901 35:0.25955901 36:0.25955901 37:0.25955901 38:0.25955901 39:0.25955901 40:0.25955901 41:0.25955901 #
-4.097214458314148544104682514444 17:0.32234001 27:0.32234001 32:0.32234001 #
-9.6417913882475527742599297198467 28:0.223295 #
9.6417913882475527742599297198467 24:0.620812 27:0.620812 29:0.620812 33:0.620812 41:0.620812 #
9.6417913882475527742599297198467 18:0.15800899 #
-9.6417913882475527742599297198467 22:0.24977501 32:0.24977501 37:0.24977501 40:0.24977501 #
9.6417913882475527742599297198467 17:0.056938 38:0.056938 #
-9.6417913882475527742599297198467 29:0.33652401 35:0.33652401 36:0.33652401 37:0.33652401 40:0.33652401 #
-9.6417913882475527742599297198467 22:0.20114399 32:0.20114399 37:0.20114399 40:0.20114399 #
-9.6417913882475527742599297198467 17:0.200082 22:0.200082 #
-9.6417913882475527742599297198467 19:0.0033179999 23:0.0033179999 #
-1.1066284281341340900439718097914 12:0.346863 #
9.6417913882475527742599297198467 24:0.50765902 27:0.50765902 29:0.50765902 33:0.50765902 41:0.50765902 #
9.6417913882475527742599297198467 7:0.057868998 24:0.057868998 27:0.057868998 29:0.057868998 33:0.057868998 41:0.057868998 #
-9.6417913882475527742599297198467 22:0.189291 32:0.189291 37:0.189291 40:0.189291 #
9.6417913882475527742599297198467 12:0.34283999 24:0.34283999 27:0.34283999 29:0.34283999 33:0.34283999 41:0.34283999 #
-9.4892717859989801354458904825151 3:0.25975299 27:0.25975299 32:0.25975299 #
-9.6417913882475527742599297198467 24:0.46013299 29:0.46013299 41:0.46013299 #
9.6417913882475527742599297198467 3:0.28236899 4:0.28236899 9:0.28236899 10:0.28236899 28:0.28236899 32:0.28236899 #
-9.6417913882475527742599297198467 24:0.34139901 27:0.34139901 29:0.34139901 33:0.34139901 41:0.34139901 #
-9.6417913882475527742599297198467 28:0.21898299 #
9.6417913882475527742599297198467 3:0.074671999 9:0.074671999 #
-7.1899569368937781277395515644457 3:0.26677701 9:0.26677701 24:0.26677701 27:0.26677701 29:0.26677701 33:0.26677701 41:0.26677701 #
9.6417913882475527742599297198467 18:0.142208 #
-9.6417913882475527742599297198467 28:0.19637799 #
9.6417913882475527742599297198467 12:0.178699 24:0.178699 27:0.178699 29:0.178699 33:0.178699 41:0.178699 #
9.6417913882475527742599297198467 23:0.18284599 24:0.18284599 25:0.18284599 26:0.18284599 27:0.18284599 28:0.18284599 29:0.18284599 30:0.18284599 31:0.18284599 32:0.18284599 33:0.18284599 35:0.18284599 36:0.18284599 37:0.18284599 38:0.18284599 39:0.18284599 40:0.18284599 41:0.18284599 #
-9.6417913882475527742599297198467 28:0.189279 #
9.6417913882475527742599297198467 14:0.11805 #
9.6417913882475527742599297198467 24:0.239564 27:0.239564 29:0.239564 33:0.239564 41:0.239564 #
9.6417913882475527742599297198467 24:0.20226499 27:0.20226499 29:0.20226499 33:0.20226499 41:0.20226499 #
-9.6417913882475527742599297198467 27:0.359588 32:0.359588 #
9.6417913882475527742599297198467 16:0.312325 22:0.312325 32:0.312325 37:0.312325 40:0.312325 #
-9.6417913882475527742599297198467 29:0.24601801 35:0.24601801 36:0.24601801 37:0.24601801 40:0.24601801 #
-9.6417913882475527742599297198467 9:0.0078459997 29:0.0078459997 32:0.0078459997 37:0.0078459997 #
-9.4841612711113558731312878080644 2:0.30496401 24:0.30496401 27:0.30496401 29:0.30496401 33:0.30496401 41:0.30496401 #
9.6417913882475527742599297198467 19:0.090884998 23:0.090884998 24:0.090884998 25:0.090884998 26:0.090884998 27:0.090884998 28:0.090884998 29:0.090884998 30:0.090884998 31:0.090884998 32:0.090884998 33:0.090884998 35:0.090884998 36:0.090884998 37:0.090884998 38:0.090884998 39:0.090884998 40:0.090884998 41:0.090884998 #
9.6417913882475527742599297198467 23:0.20703401 24:0.20703401 25:0.20703401 26:0.20703401 27:0.20703401 28:0.20703401 29:0.20703401 30:0.20703401 31:0.20703401 32:0.20703401 33:0.20703401 35:0.20703401 36:0.20703401 37:0.20703401 38:0.20703401 39:0.20703401 40:0.20703401 41:0.20703401 #
9.6417913882475527742599297198467 9:0.401876 29:0.401876 35:0.401876 36:0.401876 37:0.401876 40:0.401876 #
-9.6417913882475527742599297198467 27:0.123535 31:0.123535 36:0.123535 #
9.6417913882475527742599297198467 3:0.127166 4:0.127166 9:0.127166 10:0.127166 23:0.127166 24:0.127166 25:0.127166 26:0.127166 27:0.127166 28:0.127166 29:0.127166 30:0.127166 31:0.127166 32:0.127166 33:0.127166 35:0.127166 36:0.127166 37:0.127166 38:0.127166 39:0.127166 40:0.127166 41:0.127166 #
9.6417913882475527742599297198467 16:0.47050601 29:0.47050601 32:0.47050601 37:0.47050601 #
-9.6417913882475527742599297198467 28:0.004766 #
9.6417913882475527742599297198467 19:0.25934601 29:0.25934601 35:0.25934601 36:0.25934601 37:0.25934601 40:0.25934601 #
-9.6417913882475527742599297198467 22:0.384691 32:0.384691 37:0.384691 40:0.384691 #
-9.6417913882475527742599297198467 19:0.380472 23:0.380472 24:0.380472 25:0.380472 26:0.380472 27:0.380472 28:0.380472 29:0.380472 30:0.380472 31:0.380472 32:0.380472 33:0.380472 35:0.380472 36:0.380472 37:0.380472 38:0.380472 39:0.380472 40:0.380472 41:0.380472 #
-9.6417913882475527742599297198467 23:0.38239801 24:0.38239801 25:0.38239801 26:0.38239801 27:0.38239801 28:0.38239801 29:0.38239801 30:0.38239801 31:0.38239801 32:0.38239801 33:0.38239801 35:0.38239801 36:0.38239801 37:0.38239801 38:0.38239801 39:0.38239801 40:0.38239801 41:0.38239801 #
-9.6417913882475527742599297198467 7:0.24106801 23:0.24106801 24:0.24106801 25:0.24106801 26:0.24106801 27:0.24106801 28:0.24106801 29:0.24106801 30:0.24106801 31:0.24106801 32:0.24106801 33:0.24106801 35:0.24106801 36:0.24106801 37:0.24106801 38:0.24106801 39:0.24106801 40:0.24106801 41:0.24106801 #
-9.6417913882475527742599297198467 9:0.301992 33:0.301992 #
9.6417913882475527742599297198467 14:0.172363 29:0.172363 35:0.172363 36:0.172363 37:0.172363 40:0.172363 #
-9.6417913882475527742599297198467 3:0.30565301 4:0.30565301 9:0.30565301 10:0.30565301 23:0.30565301 24:0.30565301 25:0.30565301 26:0.30565301 27:0.30565301 28:0.30565301 29:0.30565301 30:0.30565301 31:0.30565301 32:0.30565301 33:0.30565301 35:0.30565301 36:0.30565301 37:0.30565301 38:0.30565301 39:0.30565301 40:0.30565301 41:0.30565301 #
-9.6417913882475527742599297198467 19:0.47695899 36:0.47695899 #
-9.6417913882475527742599297198467 7:0.200737 23:0.200737 26:0.200737 28:0.200737 33:0.200737 34:0.200737 #
9.6417913882475527742599297198467 19:0.41864401 29:0.41864401 35:0.41864401 36:0.41864401 37:0.41864401 40:0.41864401 #
9.6417913882475527742599297198467 3:0.38080001 4:0.38080001 9:0.38080001 10:0.38080001 25:0.38080001 35:0.38080001 #
-9.6417913882475527742599297198467 3:0.23659199 4:0.23659199 9:0.23659199 10:0.23659199 25:0.23659199 #
-9.6417913882475527742599297198467 26:0.130082 36:0.130082 #
9.6417913882475527742599297198467 29:0.18734699 35:0.18734699 36:0.18734699 37:0.18734699 40:0.18734699 #
-9.6417905057161732429449330084026 8:0.57884097 #
-9.6417913882475527742599297198467 #
9.6417913882475527742599297198467 23:0.182587 24:0.182587 25:0.182587 26:0.182587 27:0.182587 28:0.182587 29:0.182587 30:0.182587 31:0.182587 32:0.182587 33:0.182587 35:0.182587 36:0.182587 37:0.182587 38:0.182587 39:0.182587 40:0.182587 41:0.182587 #
-9.6417913882475527742599297198467 22:0.365794 32:0.365794 37:0.365794 40:0.365794 #
-9.6417913882475527742599297198467 19:0.60031998 29:0.60031998 35:0.60031998 36:0.60031998 37:0.60031998 40:0.60031998 #
-1.3018844295771980767995046335272 1:0.97727299 #
9.6417913882475527742599297198467 29:0.47804299 35:0.47804299 36:0.47804299 37:0.47804299 40:0.47804299 #
9.6417913882475527742599297198467 8:0.416769 29:0.416769 35:0.416769 36:0.416769 37:0.416769 40:0.416769 #
9.6417913882475527742599297198467 23:0.01578 24:0.01578 25:0.01578 26:0.01578 27:0.01578 28:0.01578 29:0.01578 30:0.01578 31:0.01578 32:0.01578 33:0.01578 35:0.01578 36:0.01578 37:0.01578 38:0.01578 39:0.01578 40:0.01578 41:0.01578 #
9.6417913882475527742599297198467 4:0.121981 #
9.6417913882475527742599297198467 23:0.140697 24:0.140697 25:0.140697 26:0.140697 27:0.140697 28:0.140697 29:0.140697 30:0.140697 31:0.140697 32:0.140697 33:0.140697 35:0.140697 36:0.140697 37:0.140697 38:0.140697 39:0.140697 40:0.140697 41:0.140697 #
-0.56175828549226025643292814493179 3:0.004706 20:0.004706 29:0.004706 #
-9.6417913882475527742599297198467 11:0.079397999 20:0.079397999 29:0.079397999 #
9.6417913882475527742599297198467 22:0.17072 32:0.17072 37:0.17072 40:0.17072 #
9.6417913882475527742599297198467 29:0.19219901 35:0.19219901 36:0.19219901 37:0.19219901 40:0.19219901 #
9.6417913882475527742599297198467 17:0.136943 23:0.136943 24:0.136943 25:0.136943 26:0.136943 27:0.136943 28:0.136943 29:0.136943 30:0.136943 31:0.136943 32:0.136943 33:0.136943 35:0.136943 36:0.136943 37:0.136943 38:0.136943 39:0.136943 40:0.136943 41:0.136943 #
9.6417913882475527742599297198467 3:0.36543 4:0.36543 9:0.36543 10:0.36543 25:0.36543 35:0.36543 #
-9.6417913882475527742599297198467 8:0.026831999 11:0.026831999 15:0.026831999 28:0.026831999 #
9.6417913882475527742599297198467 29:0.51935101 32:0.51935101 37:0.51935101 #
9.6417913882475527742599297198467 23:0.14070401 24:0.14070401 25:0.14070401 26:0.14070401 27:0.14070401 28:0.14070401 29:0.14070401 30:0.14070401 31:0.14070401 32:0.14070401 33:0.14070401 35:0.14070401 36:0.14070401 37:0.14070401 38:0.14070401 39:0.14070401 40:0.14070401 41:0.14070401 #
9.6417913882475527742599297198467 14:0.168231 29:0.168231 35:0.168231 36:0.168231 37:0.168231 40:0.168231 #
-9.6417913882475527742599297198467 28:0.0059199999 #
-9.6417913882475527742599297198467 23:0.18080001 24:0.18080001 25:0.18080001 26:0.18080001 27:0.18080001 28:0.18080001 29:0.18080001 30:0.18080001 31:0.18080001 32:0.18080001 33:0.18080001 35:0.18080001 36:0.18080001 37:0.18080001 38:0.18080001 39:0.18080001 40:0.18080001 41:0.18080001 #
9.6417913882475527742599297198467 3:0.158931 9:0.158931 23:0.158931 24:0.158931 25:0.158931 26:0.158931 27:0.158931 28:0.158931 29:0.158931 30:0.158931 31:0.158931 32:0.158931 33:0.158931 35:0.158931 36:0.158931 37:0.158931 38:0.158931 39:0.158931 40:0.158931 41:0.158931 #
9.6417913882475527742599297198467 19:0.19243699 23:0.19243699 24:0.19243699 25:0.19243699 26:0.19243699 27:0.19243699 28:0.19243699 29:0.19243699 30:0.19243699 31:0.19243699 32:0.19243699 33:0.19243699 35:0.19243699 36:0.19243699 37:0.19243699 38:0.19243699 39:0.19243699 40:0.19243699 41:0.19243699 #
-9.6417913882475527742599297198467 5:0.0042929999 28:0.0042929999 32:0.0042929999 #
9.6417913882475527742599297198467 8:0.124885 16:0.124885 #
9.6417913882475527742599297198467 8:0.27253899 10:0.27253899 #
9.6417913882475527742599297198467 2:0.11668 23:0.11668 24:0.11668 25:0.11668 26:0.11668 27:0.11668 28:0.11668 29:0.11668 30:0.11668 31:0.11668 32:0.11668 33:0.11668 35:0.11668 36:0.11668 37:0.11668 38:0.11668 39:0.11668 40:0.11668 41:0.11668 #
9.6417913882475527742599297198467 10:0.25821599 27:0.25821599 31:0.25821599 36:0.25821599 #
9.6417913882475527742599297198467 19:0.20212799 #
-9.6417913882475527742599297198467 2:0.0042900001 29:0.0042900001 35:0.0042900001 36:0.0042900001 37:0.0042900001 40:0.0042900001 #
-9.6417913882475527742599297198467 2:0.007336 15:0.007336 29:0.007336 32:0.007336 37:0.007336 #
-9.6417913882475527742599297198467 15:0.26763299 29:0.26763299 35:0.26763299 36:0.26763299 37:0.26763299 40:0.26763299 #
-9.6417913882475527742599297198467 14:0.035179 28:0.035179 32:0.035179 #
-9.6417913882475527742599297198467 22:0.13187 29:0.13187 #
9.6417913882475527742599297198467 22:0.20163199 29:0.20163199 #
9.6417913882475527742599297198467 9:0.193213 10:0.193213 23:0.193213 24:0.193213 25:0.193213 26:0.193213 27:0.193213 28:0.193213 29:0.193213 30:0.193213 31:0.193213 32:0.193213 33:0.193213 35:0.193213 36:0.193213 37:0.193213 38:0.193213 39:0.193213 40:0.193213 41:0.193213 #
-9.6417913882475527742599297198467 29:0.134176 #
-9.6417913882475527742599297198467 9:0.156781 29:0.156781 35:0.156781 36:0.156781 37:0.156781 40:0.156781 #
-9.6417913882475527742599297198467 16:0.023548 29:0.023548 #
-9.6417910595112168437026411993429 24:0.061758999 29:0.061758999 41:0.061758999 #
-9.6417913882475527742599297198467 14:0.32265499 23:0.32265499 24:0.32265499 25:0.32265499 26:0.32265499 27:0.32265499 28:0.32265499 29:0.32265499 30:0.32265499 31:0.32265499 32:0.32265499 33:0.32265499 35:0.32265499 36:0.32265499 37:0.32265499 38:0.32265499 39:0.32265499 40:0.32265499 41:0.32265499 #
-9.6037664911145057544672454241663 23:0.094278 25:0.094278 27:0.094278 30:0.094278 32:0.094278 33:0.094278 35:0.094278 37:0.094278 38:0.094278 39:0.094278 41:0.094278 #
9.6417913882475527742599297198467 12:0.116419 #
-9.6417913882475527742599297198467 8:0.001371 11:0.001371 15:0.001371 29:0.001371 35:0.001371 36:0.001371 37:0.001371 40:0.001371 #
-9.6417913882475527742599297198467 23:0.34319299 24:0.34319299 25:0.34319299 26:0.34319299 27:0.34319299 28:0.34319299 29:0.34319299 30:0.34319299 31:0.34319299 32:0.34319299 33:0.34319299 35:0.34319299 36:0.34319299 37:0.34319299 38:0.34319299 39:0.34319299 40:0.34319299 41:0.34319299 #
-9.6417913882475527742599297198467 7:0.181638 23:0.181638 26:0.181638 28:0.181638 33:0.181638 34:0.181638 #
-9.6349897324909221651978441514075 8:0.35934901 #
9.6417913882475527742599297198467 23:0.126049 24:0.126049 25:0.126049 26:0.126049 27:0.126049 28:0.126049 29:0.126049 30:0.126049 31:0.126049 32:0.126049 33:0.126049 35:0.126049 36:0.126049 37:0.126049 38:0.126049 39:0.126049 40:0.126049 41:0.126049 #
9.6417913882475527742599297198467 2:0.085964002 24:0.085964002 27:0.085964002 29:0.085964002 33:0.085964002 41:0.085964002 #
-9.6417913882475527742599297198467 2:0.29122001 13:0.29122001 23:0.29122001 26:0.29122001 28:0.29122001 33:0.29122001 34:0.29122001 #
-9.6417913882475527742599297198467 24:0.133817 26:0.133817 29:0.133817 31:0.133817 #
9.6417913882475527742599297198467 9:0.12068 10:0.12068 27:0.12068 32:0.12068 #
-9.6417913882475527742599297198467 19:0.115491 27:0.115491 31:0.115491 36:0.115491 #
-9.6417913882475527742599297198467 26:0.097681001 36:0.097681001 #
9.6417913882475527742599297198467 19:0.099255003 24:0.099255003 27:0.099255003 29:0.099255003 33:0.099255003 41:0.099255003 #
-9.6417913882475527742599297198467 20:0.191608 28:0.191608 32:0.191608 #
-9.6417913882475527742599297198467 3:0.271631 23:0.271631 24:0.271631 25:0.271631 26:0.271631 27:0.271631 28:0.271631 29:0.271631 30:0.271631 31:0.271631 32:0.271631 33:0.271631 35:0.271631 36:0.271631 37:0.271631 38:0.271631 39:0.271631 40:0.271631 41:0.271631 #
-9.6417913882475527742599297198467 19:0.147249 29:0.147249 35:0.147249 36:0.147249 37:0.147249 40:0.147249 #
-9.6417913882475527742599297198467 23:0.089506 25:0.089506 27:0.089506 30:0.089506 32:0.089506 33:0.089506 35:0.089506 37:0.089506 38:0.089506 39:0.089506 41:0.089506 #
-9.6417913882475527742599297198467 23:0.30622399 24:0.30622399 25:0.30622399 26:0.30622399 27:0.30622399 28:0.30622399 29:0.30622399 30:0.30622399 31:0.30622399 32:0.30622399 33:0.30622399 35:0.30622399 36:0.30622399 37:0.30622399 38:0.30622399 39:0.30622399 40:0.30622399 41:0.30622399 #
-9.6417913882475527742599297198467 19:0.22664601 23:0.22664601 24:0.22664601 25:0.22664601 26:0.22664601 27:0.22664601 28:0.22664601 29:0.22664601 30:0.22664601 31:0.22664601 32:0.22664601 33:0.22664601 35:0.22664601 36:0.22664601 37:0.22664601 38:0.22664601 39:0.22664601 40:0.22664601 41:0.22664601 #
-9.6417913882475527742599297198467 25:0.0029500001 35:0.0029500001 #
9.6417913882475527742599297198467 19:0.204998 22:0.204998 32:0.204998 37:0.204998 40:0.204998 #
9.6417913882475527742599297198467 22:0.30632699 29:0.30632699 #
-9.6417913882475527742599297198467 12:0.05641 27:0.05641 32:0.05641 #
-9.6417913882475527742599297198467 22:0.172682 32:0.172682 37:0.172682 40:0.172682 #
-9.6417913882475527742599297198467 6:0.13246199 26:0.13246199 36:0.13246199 #
9.6417913882475527742599297198467 9:0.172013 23:0.172013 24:0.172013 25:0.172013 26:0.172013 27:0.172013 28:0.172013 29:0.172013 30:0.172013 31:0.172013 32:0.172013 33:0.172013 35:0.172013 36:0.172013 37:0.172013 38:0.172013 39:0.172013 40:0.172013 41:0.172013 #
-9.6417913882475527742599297198467 18:0.0062919999 29:0.0062919999 35:0.0062919999 36:0.0062919999 37:0.0062919999 40:0.0062919999 #
-9.6417913882475527742599297198467 3:0.27728099 20:0.27728099 23:0.27728099 24:0.27728099 25:0.27728099 26:0.27728099 27:0.27728099 28:0.27728099 29:0.27728099 30:0.27728099 31:0.27728099 32:0.27728099 33:0.27728099 35:0.27728099 36:0.27728099 37:0.27728099 38:0.27728099 39:0.27728099 40:0.27728099 41:0.27728099 #
9.6417913882475527742599297198467 9:0.16147 23:0.16147 24:0.16147 25:0.16147 26:0.16147 27:0.16147 28:0.16147 29:0.16147 30:0.16147 31:0.16147 32:0.16147 33:0.16147 35:0.16147 36:0.16147 37:0.16147 38:0.16147 39:0.16147 40:0.16147 41:0.16147 #
-9.6417913882475527742599297198467 19:0.028631 27:0.028631 32:0.028631 #
-9.6417913882475527742599297198467 22:0.13381501 32:0.13381501 37:0.13381501 40:0.13381501 #
-9.6417913882475527742599297198467 15:0.25776899 29:0.25776899 35:0.25776899 36:0.25776899 37:0.25776899 40:0.25776899 #
9.6417913882475527742599297198467 8:0.158213 11:0.158213 15:0.158213 23:0.158213 #
-9.6417913882475527742599297198467 23:0.16931801 25:0.16931801 27:0.16931801 30:0.16931801 32:0.16931801 33:0.16931801 35:0.16931801 37:0.16931801 38:0.16931801 39:0.16931801 41:0.16931801 #
-9.6417913882475527742599297198467 28:0.003058 #
9.6417913882475527742599297198467 19:0.192131 23:0.192131 24:0.192131 25:0.192131 26:0.192131 27:0.192131 28:0.192131 29:0.192131 30:0.192131 31:0.192131 32:0.192131 33:0.192131 35:0.192131 36:0.192131 37:0.192131 38:0.192131 39:0.192131 40:0.192131 41:0.192131 #
9.6417913882475527742599297198467 15:0.256201 #
-9.6417913882475527742599297198467 24:0.122644 26:0.122644 29:0.122644 31:0.122644 #
-9.6417913882475527742599297198467 23:0.155646 24:0.155646 25:0.155646 26:0.155646 27:0.155646 28:0.155646 29:0.155646 30:0.155646 31:0.155646 32:0.155646 33:0.155646 35:0.155646 36:0.155646 37:0.155646 38:0.155646 39:0.155646 40:0.155646 41:0.155646 #
-9.6417913882475527742599297198467 5:0.01134 29:0.01134 35:0.01134 36:0.01134 37:0.01134 40:0.01134 #
-9.6417913882475527742599297198467 22:0.119503 29:0.119503 #
-9.6417913882475527742599297198467 29:0.0033799999 35:0.0033799999 36:0.0033799999 37:0.0033799999 40:0.0033799999 #
9.6417913882475527742599297198467 15:0.087800004 #
9.6417913882475527742599297198467 5:0.20461699 16:0.20461699 23:0.20461699 24:0.20461699 25:0.20461699 26:0.20461699 27:0.20461699 28:0.20461699 29:0.20461699 30:0.20461699 31:0.20461699 32:0.20461699 33:0.20461699 35:0.20461699 36:0.20461699 37:0.20461699 38:0.20461699 39:0.20461699 40:0.20461699 41:0.20461699 #
9.6417913882475527742599297198467 23:0.17712601 24:0.17712601 25:0.17712601 26:0.17712601 27:0.17712601 28:0.17712601 29:0.17712601 30:0.17712601 31:0.17712601 32:0.17712601 33:0.17712601 35:0.17712601 36:0.17712601 37:0.17712601 38:0.17712601 39:0.17712601 40:0.17712601 41:0.17712601 #
-9.6417913882475527742599297198467 3:0.32223001 9:0.32223001 23:0.32223001 24:0.32223001 25:0.32223001 26:0.32223001 27:0.32223001 28:0.32223001 29:0.32223001 30:0.32223001 31:0.32223001 32:0.32223001 33:0.32223001 35:0.32223001 36:0.32223001 37:0.32223001 38:0.32223001 39:0.32223001 40:0.32223001 41:0.32223001 #
9.6417913882475527742599297198467 6:0.144223 31:0.144223 #
9.6417913882475527742599297198467 19:0.123744 #
-9.6417913882475527742599297198467 6:0.37761399 23:0.37761399 24:0.37761399 25:0.37761399 26:0.37761399 27:0.37761399 28:0.37761399 29:0.37761399 30:0.37761399 31:0.37761399 32:0.37761399 33:0.37761399 35:0.37761399 36:0.37761399 37:0.37761399 38:0.37761399 39:0.37761399 40:0.37761399 41:0.37761399 #
9.6417913882475527742599297198467 23:0.169761 24:0.169761 25:0.169761 26:0.169761 27:0.169761 28:0.169761 29:0.169761 30:0.169761 31:0.169761 32:0.169761 33:0.169761 35:0.169761 36:0.169761 37:0.169761 38:0.169761 39:0.169761 40:0.169761 41:0.169761 #
-9.6417913882475527742599297198467 23:0.27849799 24:0.27849799 25:0.27849799 26:0.27849799 27:0.27849799 28:0.27849799 29:0.27849799 30:0.27849799 31:0.27849799 32:0.27849799 33:0.27849799 35:0.27849799 36:0.27849799 37:0.27849799 38:0.27849799 39:0.27849799 40:0.27849799 41:0.27849799 #
-9.6417913882475527742599297198467 22:0.155035 32:0.155035 37:0.155035 40:0.155035 #
9.6417913882475527742599297198467 6:0.048448998 24:0.048448998 29:0.048448998 41:0.048448998 #
9.6417913882475527742599297198467 11:0.053300999 20:0.053300999 24:0.053300999 27:0.053300999 29:0.053300999 33:0.053300999 41:0.053300999 #
-9.6417913882475527742599297198467 12:0.083272003 22:0.083272003 29:0.083272003 #
-9.6417913882475527742599297198467 15:0.141537 22:0.141537 29:0.141537 #
9.6417913882475527742599297198467 38:0.11787 #
-9.6417913882475527742599297198467 5:0.36906901 23:0.36906901 24:0.36906901 25:0.36906901 26:0.36906901 27:0.36906901 28:0.36906901 29:0.36906901 30:0.36906901 31:0.36906901 32:0.36906901 33:0.36906901 35:0.36906901 36:0.36906901 37:0.36906901 38:0.36906901 39:0.36906901 40:0.36906901 41:0.36906901 #
-9.6417913882475527742599297198467 3:0.209488 23:0.209488 24:0.209488 25:0.209488 26:0.209488 27:0.209488 28:0.209488 29:0.209488 30:0.209488 31:0.209488 32:0.209488 33:0.209488 35:0.209488 36:0.209488 37:0.209488 38:0.209488 39:0.209488 40:0.209488 41:0.209488 #
9.6417913882475527742599297198467 14:0.103362 #
-9.6417913882475527742599297198467 23:0.242715 24:0.242715 25:0.242715 26:0.242715 27:0.242715 28:0.242715 29:0.242715 30:0.242715 31:0.242715 32:0.242715 33:0.242715 35:0.242715 36:0.242715 37:0.242715 38:0.242715 39:0.242715 40:0.242715 41:0.242715 #
-9.6417913882475527742599297198467 3:0.28097299 4:0.28097299 9:0.28097299 10:0.28097299 23:0.28097299 24:0.28097299 25:0.28097299 26:0.28097299 27:0.28097299 28:0.28097299 29:0.28097299 30:0.28097299 31:0.28097299 32:0.28097299 33:0.28097299 35:0.28097299 36:0.28097299 37:0.28097299 38:0.28097299 39:0.28097299 40:0.28097299 41:0.28097299 #
-9.641789623808794118531295680441 24:0.049270999 29:0.049270999 41:0.049270999 #
-9.6417913882475527742599297198467 11:0.135143 29:0.135143 35:0.135143 36:0.135143 37:0.135143 40:0.135143 #
9.6417913882475527742599297198467 8:0.124767 16:0.124767 23:0.124767 #
-9.6417913882475527742599297198467 23:0.240244 24:0.240244 25:0.240244 26:0.240244 27:0.240244 28:0.240244 29:0.240244 30:0.240244 31:0.240244 32:0.240244 33:0.240244 35:0.240244 36:0.240244 37:0.240244 38:0.240244 39:0.240244 40:0.240244 41:0.240244 #
9.6417913882475527742599297198467 7:0.064289004 #
9.6417913882475527742599297198467 6:0.26932901 23:0.26932901 24:0.26932901 25:0.26932901 26:0.26932901 27:0.26932901 28:0.26932901 29:0.26932901 30:0.26932901 31:0.26932901 32:0.26932901 33:0.26932901 35:0.26932901 36:0.26932901 37:0.26932901 38:0.26932901 39:0.26932901 40:0.26932901 41:0.26932901 #
9.6417913882475527742599297198467 39:0.037151001 #
9.6417913882475527742599297198467 10:0.18695299 23:0.18695299 24:0.18695299 25:0.18695299 26:0.18695299 27:0.18695299 28:0.18695299 29:0.18695299 30:0.18695299 31:0.18695299 32:0.18695299 33:0.18695299 35:0.18695299 36:0.18695299 37:0.18695299 38:0.18695299 39:0.18695299 40:0.18695299 41:0.18695299 #
-9.6417913882475527742599297198467 8:0.010502 11:0.010502 15:0.010502 29:0.010502 #
-9.6417913882475527742599297198467 3:0.25534499 4:0.25534499 9:0.25534499 10:0.25534499 23:0.25534499 24:0.25534499 25:0.25534499 26:0.25534499 27:0.25534499 28:0.25534499 29:0.25534499 30:0.25534499 31:0.25534499 32:0.25534499 33:0.25534499 35:0.25534499 36:0.25534499 37:0.25534499 38:0.25534499 39:0.25534499 40:0.25534499 41:0.25534499 #
-9.6417913882475527742599297198467 23:0.199332 24:0.199332 25:0.199332 26:0.199332 27:0.199332 28:0.199332 29:0.199332 30:0.199332 31:0.199332 32:0.199332 33:0.199332 35:0.199332 36:0.199332 37:0.199332 38:0.199332 39:0.199332 40:0.199332 41:0.199332 #
-9.6417913882475527742599297198467 23:0.204189 24:0.204189 25:0.204189 26:0.204189 27:0.204189 28:0.204189 29:0.204189 30:0.204189 31:0.204189 32:0.204189 33:0.204189 35:0.204189 36:0.204189 37:0.204189 38:0.204189 39:0.204189 40:0.204189 41:0.204189 #
-9.6417913882475527742599297198467 29:0.15931299 35:0.15931299 36:0.15931299 37:0.15931299 40:0.15931299 #
9.6417913882475527742599297198467 9:0.085941002 #
-9.6417913882475527742599297198467 16:0.100159 29:0.100159 35:0.100159 36:0.100159 37:0.100159 40:0.100159 #
-9.6417913882475527742599297198467 23:0.19910701 24:0.19910701 25:0.19910701 26:0.19910701 27:0.19910701 28:0.19910701 29:0.19910701 30:0.19910701 31:0.19910701 32:0.19910701 33:0.19910701 35:0.19910701 36:0.19910701 37:0.19910701 38:0.19910701 39:0.19910701 40:0.19910701 41:0.19910701 #
-9.6417913882475527742599297198467 11:0.39302799 27:0.39302799 32:0.39302799 #
9.6417913882475527742599297198467 7:0.272091 28:0.272091 32:0.272091 #
9.6417913882475527742599297198467 23:0.116252 25:0.116252 27:0.116252 30:0.116252 32:0.116252 33:0.116252 35:0.116252 37:0.116252 38:0.116252 39:0.116252 41:0.116252 #
9.6417913882475527742599297198467 19:0.107999 #
9.6417913882475527742599297198467 8:0.074458003 11:0.074458003 15:0.074458003 33:0.074458003 #
9.6417913882475527742599297198467 38:0.105578 #
9.6417913882475527742599297198467 27:0.451098 31:0.451098 36:0.451098 #
9.6417913882475527742599297198467 3:0.092804998 #
-9.6417913882475527742599297198467 14:0.19684599 28:0.19684599 32:0.19684599 #
-9.6417913882475527742599297198467 3:0.142039 23:0.142039 24:0.142039 25:0.142039 26:0.142039 27:0.142039 28:0.142039 29:0.142039 30:0.142039 31:0.142039 32:0.142039 33:0.142039 35:0.142039 36:0.142039 37:0.142039 38:0.142039 39:0.142039 40:0.142039 41:0.142039 #
-9.6417913882475527742599297198467 6:0.314349 23:0.314349 24:0.314349 25:0.314349 26:0.314349 27:0.314349 28:0.314349 29:0.314349 30:0.314349 31:0.314349 32:0.314349 33:0.314349 35:0.314349 36:0.314349 37:0.314349 38:0.314349 39:0.314349 40:0.314349 41:0.314349 #
9.6417913882475527742599297198467 19:0.026129 39:0.026129 #
-9.6417913882475527742599297198467 4:0.026606999 #
9.6417913882475527742599297198467 24:0.112968 27:0.112968 29:0.112968 33:0.112968 41:0.112968 #
9.6417913882475527742599297198467 23:0.104285 24:0.104285 25:0.104285 26:0.104285 27:0.104285 28:0.104285 29:0.104285 30:0.104285 31:0.104285 32:0.104285 33:0.104285 35:0.104285 36:0.104285 37:0.104285 38:0.104285 39:0.104285 40:0.104285 41:0.104285 #
-9.6417913882475527742599297198467 8:0.40412199 11:0.40412199 15:0.40412199 28:0.40412199 #
9.6417913882475527742599297198467 9:0.081425004 33:0.081425004 #
9.6417913882475527742599297198467 17:0.056938 #
9.6417913882475527742599297198467 24:0.086568996 32:0.086568996 #
9.6417913882475527742599297198467 5:0.057333 #
-9.6417913882475527742599297198467 23:0.16224299 24:0.16224299 25:0.16224299 26:0.16224299 27:0.16224299 28:0.16224299 29:0.16224299 30:0.16224299 31:0.16224299 32:0.16224299 33:0.16224299 35:0.16224299 36:0.16224299 37:0.16224299 38:0.16224299 39:0.16224299 40:0.16224299 41:0.16224299 #
9.6417913882475527742599297198467 5:0.16574501 22:0.16574501 32:0.16574501 37:0.16574501 40:0.16574501 #
9.6417913882475527742599297198467 23:0.118106 24:0.118106 25:0.118106 26:0.118106 27:0.118106 28:0.118106 29:0.118106 30:0.118106 31:0.118106 32:0.118106 33:0.118106 35:0.118106 36:0.118106 37:0.118106 38:0.118106 39:0.118106 40:0.118106 41:0.118106 #
-9.6417913882475527742599297198467 3:0.162329 20:0.162329 23:0.162329 24:0.162329 25:0.162329 26:0.162329 27:0.162329 28:0.162329 29:0.162329 30:0.162329 31:0.162329 32:0.162329 33:0.162329 35:0.162329 36:0.162329 37:0.162329 38:0.162329 39:0.162329 40:0.162329 41:0.162329 #
-9.6417913882475527742599297198467 9:0.31179899 10:0.31179899 23:0.31179899 24:0.31179899 25:0.31179899 26:0.31179899 27:0.31179899 28:0.31179899 29:0.31179899 30:0.31179899 31:0.31179899 32:0.31179899 33:0.31179899 35:0.31179899 36:0.31179899 37:0.31179899 38:0.31179899 39:0.31179899 40:0.31179899 41:0.31179899 #
-9.6417913882475527742599297198467 23:0.161401 24:0.161401 25:0.161401 26:0.161401 27:0.161401 28:0.161401 29:0.161401 30:0.161401 31:0.161401 32:0.161401 33:0.161401 35:0.161401 36:0.161401 37:0.161401 38:0.161401 39:0.161401 40:0.161401 41:0.161401 #
9.6417913882475527742599297198467 9:0.069677003 23:0.069677003 25:0.069677003 27:0.069677003 30:0.069677003 32:0.069677003 33:0.069677003 35:0.069677003 37:0.069677003 38:0.069677003 39:0.069677003 41:0.069677003 #
9.6417913882475527742599297198467 15:0.12566601 29:0.12566601 35:0.12566601 36:0.12566601 37:0.12566601 40:0.12566601 #
9.6417913882475527742599297198467 37:0.24015801 #
9.6417913882475527742599297198467 3:0.037145 20:0.037145 24:0.037145 32:0.037145 #
9.6417913882475527742599297198467 3:0.058490999 20:0.058490999 #
9.6417913882475527742599297198467 32:0.20493101 #
9.6417913882475527742599297198467 29:0.44931701 35:0.44931701 36:0.44931701 37:0.44931701 40:0.44931701 #
-9.6417913882475527742599297198467 29:0.101145 35:0.101145 36:0.101145 37:0.101145 40:0.101145 #
-9.6417913882475527742599297198467 29:0.15349799 35:0.15349799 36:0.15349799 37:0.15349799 40:0.15349799 #
9.6417913882475527742599297198467 23:0.123828 24:0.123828 25:0.123828 26:0.123828 27:0.123828 28:0.123828 29:0.123828 30:0.123828 31:0.123828 32:0.123828 33:0.123828 35:0.123828 36:0.123828 37:0.123828 38:0.123828 39:0.123828 40:0.123828 41:0.123828 #
9.6417913882475527742599297198467 2:0.064076997 24:0.064076997 27:0.064076997 29:0.064076997 33:0.064076997 41:0.064076997 #
-9.6417913882475527742599297198467 27:0.123187 31:0.123187 36:0.123187 #
9.6417913882475527742599297198467 19:0.146578 29:0.146578 35:0.146578 36:0.146578 37:0.146578 40:0.146578 #
-9.6417913882475527742599297198467 29:0.090957999 35:0.090957999 36:0.090957999 37:0.090957999 40:0.090957999 #
9.6417913882475527742599297198467 8:0.095207997 11:0.095207997 15:0.095207997 #
-9.6417913882475527742599297198467 29:0.0019670001 35:0.0019670001 36:0.0019670001 37:0.0019670001 40:0.0019670001 #
-9.6417913882475527742599297198467 17:0.080812 29:0.080812 35:0.080812 36:0.080812 37:0.080812 40:0.080812 #
9.6417913882475527742599297198467 24:0.077880003 27:0.077880003 29:0.077880003 33:0.077880003 41:0.077880003 #
-9.6417913882475527742599297198467 29:0.0085380003 #
9.6417913882475527742599297198467 7:0.087421998 #
-9.6417913882475527742599297198467 8:0.039324 16:0.039324 33:0.039324 34:0.039324 #
9.6417913882475527742599297198467 14:0.043715 41:0.043715 #
9.6417913882475527742599297198467 3:0.23725399 28:0.23725399 32:0.23725399 #
9.6417913882475527742599297198467 23:0.032910999 24:0.032910999 25:0.032910999 26:0.032910999 27:0.032910999 28:0.032910999 29:0.032910999 30:0.032910999 31:0.032910999 32:0.032910999 33:0.032910999 35:0.032910999 36:0.032910999 37:0.032910999 38:0.032910999 39:0.032910999 40:0.032910999 41:0.032910999 #
-9.6417913882475527742599297198467 28:0.003828 #
-0.0060988810435874526647004323365309 3:0.74071598 4:0.74071598 9:0.74071598 10:0.74071598 30:0.74071598 #
-9.6417913882475527742599297198467 19:0.012869 #
-9.6307068231848802497552242130041 27:0.217695 32:0.217695 #
-9.6417913882475527742599297198467 16:0.124738 24:0.124738 26:0.124738 29:0.124738 31:0.124738 #
-9.6417913882475527742599297198467 29:0.0066479999 #
-9.6417913882475527742599297198467 19:0.0055379998 29:0.0055379998 35:0.0055379998 36:0.0055379998 37:0.0055379998 40:0.0055379998 #
-9.6417913882475527742599297198467 24:0.109864 26:0.109864 29:0.109864 31:0.109864 #
-9.6417913882475527742599297198467 26:0.070073001 36:0.070073001 #
9.6417913882475527742599297198467 6:0.190485 28:0.190485 32:0.190485 #
-9.6417913882475527742599297198467 7:0.149065 23:0.149065 26:0.149065 28:0.149065 33:0.149065 34:0.149065 #
-9.6417913882475527742599297198467 28:0.170442 #
-9.6417913882475527742599297198467 15:0.147165 23:0.147165 24:0.147165 25:0.147165 26:0.147165 27:0.147165 28:0.147165 29:0.147165 30:0.147165 31:0.147165 32:0.147165 33:0.147165 35:0.147165 36:0.147165 37:0.147165 38:0.147165 39:0.147165 40:0.147165 41:0.147165 #
9.6417913882475527742599297198467 23:0.089580998 24:0.089580998 25:0.089580998 26:0.089580998 27:0.089580998 28:0.089580998 29:0.089580998 30:0.089580998 31:0.089580998 32:0.089580998 33:0.089580998 35:0.089580998 36:0.089580998 37:0.089580998 38:0.089580998 39:0.089580998 40:0.089580998 41:0.089580998 #
-9.6417913882475527742599297198467 2:0.26221499 13:0.26221499 23:0.26221499 26:0.26221499 28:0.26221499 33:0.26221499 34:0.26221499 #
-9.6417913882475527742599297198467 2:0.176296 23:0.176296 24:0.176296 25:0.176296 26:0.176296 27:0.176296 28:0.176296 29:0.176296 30:0.176296 31:0.176296 32:0.176296 33:0.176296 35:0.176296 36:0.176296 37:0.176296 38:0.176296 39:0.176296 40:0.176296 41:0.176296 #
-9.6417913882475527742599297198467 29:0.114099 32:0.114099 37:0.114099 #
-9.6417913882475527742599297198467 29:0.001174 35:0.001174 36:0.001174 37:0.001174 40:0.001174 #
-9.6417913882475527742599297198467 18:0.121689 28:0.121689 32:0.121689 #
9.6417913882475527742599297198467 3:0.033307999 4:0.033307999 9:0.033307999 10:0.033307999 31:0.033307999 #
-9.6417913882475527742599297198467 2:0.56868899 24:0.56868899 29:0.56868899 41:0.56868899 #
9.6417913882475527742599297198467 9:0.180481 10:0.180481 23:0.180481 24:0.180481 25:0.180481 26:0.180481 27:0.180481 28:0.180481 29:0.180481 30:0.180481 31:0.180481 32:0.180481 33:0.180481 35:0.180481 36:0.180481 37:0.180481 38:0.180481 39:0.180481 40:0.180481 41:0.180481 #
-9.6417913882475527742599297198467 9:0.109509 10:0.109509 29:0.109509 35:0.109509 36:0.109509 37:0.109509 40:0.109509 #
9.6417913882475527742599297198467 3:0.206385 20:0.206385 23:0.206385 24:0.206385 25:0.206385 26:0.206385 27:0.206385 28:0.206385 29:0.206385 30:0.206385 31:0.206385 32:0.206385 33:0.206385 35:0.206385 36:0.206385 37:0.206385 38:0.206385 39:0.206385 40:0.206385 41:0.206385 #
-9.6417913882475527742599297198467 28:0.001408 #
-9.6417913882475527742599297198467 22:0.085288003 29:0.085288003 #
-9.6417913882475527742599297198467 6:0.26254299 23:0.26254299 24:0.26254299 25:0.26254299 26:0.26254299 27:0.26254299 28:0.26254299 29:0.26254299 30:0.26254299 31:0.26254299 32:0.26254299 33:0.26254299 35:0.26254299 36:0.26254299 37:0.26254299 38:0.26254299 39:0.26254299 40:0.26254299 41:0.26254299 #
-9.6417913882475527742599297198467 12:0.047733001 28:0.047733001 #
-9.6417913882475527742599297198467 23:0.092517003 25:0.092517003 27:0.092517003 30:0.092517003 32:0.092517003 33:0.092517003 35:0.092517003 37:0.092517003 38:0.092517003 39:0.092517003 41:0.092517003 #
9.6417913882475527742599297198467 23:0.120086 24:0.120086 25:0.120086 26:0.120086 27:0.120086 28:0.120086 29:0.120086 30:0.120086 31:0.120086 32:0.120086 33:0.120086 35:0.120086 36:0.120086 37:0.120086 38:0.120086 39:0.120086 40:0.120086 41:0.120086 #
9.6417913882475527742599297198467 23:0.154718 24:0.154718 25:0.154718 26:0.154718 27:0.154718 28:0.154718 29:0.154718 30:0.154718 31:0.154718 32:0.154718 33:0.154718 35:0.154718 36:0.154718 37:0.154718 38:0.154718 39:0.154718 40:0.154718 41:0.154718 #
9.6417913882475527742599297198467 2:0.065334 15:0.065334 #
9.6417913882475527742599297198467 2:0.126688 #
9.6417913882475527742599297198467 23:0.18707 24:0.18707 25:0.18707 26:0.18707 27:0.18707 28:0.18707 29:0.18707 30:0.18707 31:0.18707 32:0.18707 33:0.18707 35:0.18707 36:0.18707 37:0.18707 38:0.18707 39:0.18707 40:0.18707 41:0.18707 #
9.6417913882475527742599297198467 23:0.017046001 26:0.017046001 28:0.017046001 33:0.017046001 34:0.017046001 #
9.6417913882475527742599297198467 11:0.142176 #
-9.6417913882475527742599297198467 23:0.367405 #
9.6417913882475527742599297198467 11:0.171766 22:0.171766 32:0.171766 37:0.171766 40:0.171766 #
9.6417913882475527742599297198467 18:0.034028001 #
9.6417913882475527742599297198467 18:0.17905299 23:0.17905299 24:0.17905299 25:0.17905299 26:0.17905299 27:0.17905299 28:0.17905299 29:0.17905299 30:0.17905299 31:0.17905299 32:0.17905299 33:0.17905299 35:0.17905299 36:0.17905299 37:0.17905299 38:0.17905299 39:0.17905299 40:0.17905299 41:0.17905299 #
9.6417913882475527742599297198467 9:0.084977999 10:0.084977999 28:0.084977999 32:0.084977999 #
9.6417913882475527742599297198467 28:0.15803701 32:0.15803701 #
9.6417913882475527742599297198467 3:0.186277 4:0.186277 9:0.186277 10:0.186277 25:0.186277 35:0.186277 #
-1.3965571049934704106476601737086 20:0.64202601 24:0.64202601 27:0.64202601 29:0.64202601 33:0.64202601 41:0.64202601 #
-4.3157510378616494861603314348031 20:0.27912599 #
9.6417913882475527742599297198467 27:0.101986 32:0.101986 #
-9.6417913882475527742599297198467 2:0.01432 13:0.01432 23:0.01432 #
9.6417913882475527742599297198467 27:0.199038 31:0.199038 36:0.199038 #
9.6417913882475527742599297198467 23:0.16772901 24:0.16772901 25:0.16772901 26:0.16772901 27:0.16772901 28:0.16772901 29:0.16772901 30:0.16772901 31:0.16772901 32:0.16772901 33:0.16772901 35:0.16772901 36:0.16772901 37:0.16772901 38:0.16772901 39:0.16772901 40:0.16772901 41:0.16772901 #
9.6417913882475527742599297198467 5:0.050685 #
9.6417913882475527742599297198467 15:0.054102998 27:0.054102998 32:0.054102998 #
1.72815139271180351343559777888 7:0.210388 23:0.210388 24:0.210388 25:0.210388 26:0.210388 27:0.210388 28:0.210388 29:0.210388 30:0.210388 31:0.210388 32:0.210388 33:0.210388 35:0.210388 36:0.210388 37:0.210388 38:0.210388 39:0.210388 40:0.210388 41:0.210388 #
-9.2349160131938639040072303032503 20:0.242138 #
9.6417913882475527742599297198467 3:0.043386001 9:0.043386001 #
-3.5458963968655714538158463255968 8:0.67890197 10:0.67890197 #
-5.4681479079505175278086426260415 38:0.467536 #
9.6417913882475527742599297198467 27:0.054308999 31:0.054308999 36:0.054308999 #
-9.6417913882475527742599297198467 9:0.220404 10:0.220404 23:0.220404 24:0.220404 25:0.220404 26:0.220404 27:0.220404 28:0.220404 29:0.220404 30:0.220404 31:0.220404 32:0.220404 33:0.220404 35:0.220404 36:0.220404 37:0.220404 38:0.220404 39:0.220404 40:0.220404 41:0.220404 #
9.6417913882475527742599297198467 12:0.080301002 #
-9.6417913882475527742599297198467 3:0.025479 #
9.6417913882475527742599297198467 23:0.077326998 24:0.077326998 25:0.077326998 26:0.077326998 27:0.077326998 28:0.077326998 29:0.077326998 30:0.077326998 31:0.077326998 32:0.077326998 33:0.077326998 35:0.077326998 36:0.077326998 37:0.077326998 38:0.077326998 39:0.077326998 40:0.077326998 41:0.077326998 #
9.6417913882475527742599297198467 9:0.056118999 10:0.056118999 #
-9.6417913882475527742599297198467 25:0.20659401 #
-9.6417913882475527742599297198467 22:0.085114002 29:0.085114002 #
9.6417913882475527742599297198467 2:0.027244 15:0.027244 24:0.027244 27:0.027244 29:0.027244 33:0.027244 41:0.027244 #
-9.6417913882475527742599297198467 32:0.29816601 #
-9.6417913882475527742599297198467 23:0.142483 24:0.142483 25:0.142483 26:0.142483 27:0.142483 28:0.142483 29:0.142483 30:0.142483 31:0.142483 32:0.142483 33:0.142483 35:0.142483 36:0.142483 37:0.142483 38:0.142483 39:0.142483 40:0.142483 41:0.142483 #
9.6417913882475527742599297198467 5:0.046332002 #
-9.6417913882475527742599297198467 26:0.062840998 36:0.062840998 #
-9.6417913882475527742599297198467 23:0.149351 24:0.149351 25:0.149351 26:0.149351 27:0.149351 28:0.149351 29:0.149351 30:0.149351 31:0.149351 32:0.149351 33:0.149351 35:0.149351 36:0.149351 37:0.149351 38:0.149351 39:0.149351 40:0.149351 41:0.149351 #
9.6417913882475527742599297198467 7:0.064289004 #
-9.6417913882475527742599297198467 16:0.11074 22:0.11074 #
-9.6417913882475527742599297198467 23:0.146174 24:0.146174 25:0.146174 26:0.146174 27:0.146174 28:0.146174 29:0.146174 30:0.146174 31:0.146174 32:0.146174 33:0.146174 35:0.146174 36:0.146174 37:0.146174 38:0.146174 39:0.146174 40:0.146174 41:0.146174 #
-9.6417913882475527742599297198467 12:0.089745 23:0.089745 26:0.089745 28:0.089745 33:0.089745 34:0.089745 #
9.6417913882475527742599297198467 11:0.103748 #
-9.6417913882475527742599297198467 27:0.40631101 31:0.40631101 36:0.40631101 #
-9.6417913882475527742599297198467 4:0.132044 24:0.132044 27:0.132044 29:0.132044 33:0.132044 41:0.132044 #
-9.6417913882475527742599297198467 16:0.110808 29:0.110808 32:0.110808 37:0.110808 #
9.6417913882475527742599297198467 8:0.041707002 11:0.041707002 15:0.041707002 #
9.6417913882475527742599297198467 23:0.157803 24:0.157803 25:0.157803 26:0.157803 27:0.157803 28:0.157803 29:0.157803 30:0.157803 31:0.157803 32:0.157803 33:0.157803 35:0.157803 36:0.157803 37:0.157803 38:0.157803 39:0.157803 40:0.157803 41:0.157803 #
9.6417913882475527742599297198467 2:0.047926001 15:0.047926001 #
9.6417913882475527742599297198467 16:0.117271 29:0.117271 32:0.117271 37:0.117271 #
9.6417913882475527742599297198467 5:0.057043999 16:0.057043999 23:0.057043999 26:0.057043999 28:0.057043999 33:0.057043999 34:0.057043999 #
9.6417913882475527742599297198467 13:0.056115001 #
-9.6417913882475527742599297198467 7:0.054869998 23:0.054869998 26:0.054869998 28:0.054869998 33:0.054869998 34:0.054869998 #
-9.6417913882475527742599297198467 6:0.10268 24:0.10268 26:0.10268 29:0.10268 31:0.10268 #
-9.6417913882475527742599297198467 12:0.058221001 23:0.058221001 26:0.058221001 28:0.058221001 33:0.058221001 34:0.058221001 #
9.6417913882475527742599297198467 16:0.126168 23:0.126168 24:0.126168 25:0.126168 26:0.126168 27:0.126168 28:0.126168 29:0.126168 30:0.126168 31:0.126168 32:0.126168 33:0.126168 35:0.126168 36:0.126168 37:0.126168 38:0.126168 39:0.126168 40:0.126168 41:0.126168 #
-9.6417913882475527742599297198467 28:0.15615401 #
9.6417913882475527742599297198467 6:0.21375 23:0.21375 24:0.21375 25:0.21375 26:0.21375 27:0.21375 28:0.21375 29:0.21375 30:0.21375 31:0.21375 32:0.21375 33:0.21375 35:0.21375 36:0.21375 37:0.21375 38:0.21375 39:0.21375 40:0.21375 41:0.21375 #
-9.6417913882475527742599297198467 6:0.231885 23:0.231885 24:0.231885 25:0.231885 26:0.231885 27:0.231885 28:0.231885 29:0.231885 30:0.231885 31:0.231885 32:0.231885 33:0.231885 35:0.231885 36:0.231885 37:0.231885 38:0.231885 39:0.231885 40:0.231885 41:0.231885 #
9.6417913882475527742599297198467 23:0.129123 24:0.129123 25:0.129123 26:0.129123 27:0.129123 28:0.129123 29:0.129123 30:0.129123 31:0.129123 32:0.129123 33:0.129123 35:0.129123 36:0.129123 37:0.129123 38:0.129123 39:0.129123 40:0.129123 41:0.129123 #
-9.6417913882475527742599297198467 23:0.13985001 24:0.13985001 25:0.13985001 26:0.13985001 27:0.13985001 28:0.13985001 29:0.13985001 30:0.13985001 31:0.13985001 32:0.13985001 33:0.13985001 35:0.13985001 36:0.13985001 37:0.13985001 38:0.13985001 39:0.13985001 40:0.13985001 41:0.13985001 #
-9.6417913882475527742599297198467 9:0.16877601 10:0.16877601 23:0.16877601 24:0.16877601 25:0.16877601 26:0.16877601 27:0.16877601 28:0.16877601 29:0.16877601 30:0.16877601 31:0.16877601 32:0.16877601 33:0.16877601 35:0.16877601 36:0.16877601 37:0.16877601 38:0.16877601 39:0.16877601 40:0.16877601 41:0.16877601 #
9.6417913882475527742599297198467 23:0.034607001 25:0.034607001 27:0.034607001 30:0.034607001 32:0.034607001 33:0.034607001 35:0.034607001 37:0.034607001 38:0.034607001 39:0.034607001 41:0.034607001 #
-9.6417913882475527742599297198467 29:0.082212001 35:0.082212001 36:0.082212001 37:0.082212001 40:0.082212001 #
-9.6417913882475527742599297198467 11:0.142643 22:0.142643 32:0.142643 37:0.142643 40:0.142643 #
-9.6417913882475527742599297198467 4:0.033254001 #
9.6417913882475527742599297198467 27:0.128253 31:0.128253 36:0.128253 #
-9.6417913882475527742599297198467 3:0.134858 4:0.134858 9:0.134858 10:0.134858 23:0.134858 24:0.134858 25:0.134858 26:0.134858 27:0.134858 28:0.134858 29:0.134858 30:0.134858 31:0.134858 32:0.134858 33:0.134858 35:0.134858 36:0.134858 37:0.134858 38:0.134858 39:0.134858 40:0.134858 41:0.134858 #
9.6417913882475527742599297198467 11:0.12912799 29:0.12912799 #
9.6417913882475527742599297198467 27:0.115656 31:0.115656 36:0.115656 #
-9.6417913882475527742599297198467 25:0.16472299 #
9.6417913882475527742599297198467 3:0.038775001 20:0.038775001 #
9.6417913882475527742599297198467 4:0.100776 #
9.6417913882475527742599297198467 23:0.185164 24:0.185164 25:0.185164 26:0.185164 27:0.185164 28:0.185164 29:0.185164 30:0.185164 31:0.185164 32:0.185164 33:0.185164 35:0.185164 36:0.185164 37:0.185164 38:0.185164 39:0.185164 40:0.185164 41:0.185164 #
9.6417913882475527742599297198467 5:0.035225 #
9.6417913882475527742599297198467 7:0.099379003 32:0.099379003 #
9.6417913882475527742599297198467 24:0.040453002 27:0.040453002 29:0.040453002 33:0.040453002 41:0.040453002 #
9.6417913882475527742599297198467 8:0.12589601 #
-7.9043712470268081560220707615372 18:0.52205801 #
-9.6417913882475527742599297198467 4:0.234346 27:0.234346 31:0.234346 36:0.234346 #
-9.6417913882475527742599297198467 23:0.093865998 25:0.093865998 27:0.093865998 30:0.093865998 32:0.093865998 33:0.093865998 35:0.093865998 37:0.093865998 38:0.093865998 39:0.093865998 41:0.093865998 #
9.6417913882475527742599297198467 38:0.060523 #
9.6417913882475527742599297198467 8:0.310761 29:0.310761 32:0.310761 37:0.310761 #
-9.6325851833690574466118050622754 18:0.339495 #
9.6417913882475527742599297198467 27:0.050167002 31:0.050167002 36:0.050167002 #
-9.6417913882475527742599297198467 27:0.23780601 31:0.23780601 36:0.23780601 #
9.6417913882475527742599297198467 27:0.041565999 31:0.041565999 36:0.041565999 #
9.6417913882475527742599297198467 36:0.11717 #
9.6417913882475527742599297198467 2:0.066786997 23:0.066786997 #
9.6417913882475527742599297198467 23:0.070612997 #
9.6417913882475527742599297198467 27:0.031885002 31:0.031885002 36:0.031885002 #
-9.6331896265978329552126524504274 18:0.47747201 #
-9.6417913882475527742599297198467 27:0.29456499 31:0.29456499 36:0.29456499 #
9.6417913882475527742599297198467 9:0.15083501 22:0.15083501 32:0.15083501 37:0.15083501 40:0.15083501 #
9.6417913882475527742599297198467 3:0.186277 4:0.186277 9:0.186277 10:0.186277 25:0.186277 35:0.186277 #
-9.6417913882475527742599297198467 23:0.13936999 24:0.13936999 25:0.13936999 26:0.13936999 27:0.13936999 28:0.13936999 29:0.13936999 30:0.13936999 31:0.13936999 32:0.13936999 33:0.13936999 35:0.13936999 36:0.13936999 37:0.13936999 38:0.13936999 39:0.13936999 40:0.13936999 41:0.13936999 #
-1.5031331753987018373663886450231 18:1.3367161 23:1.3367161 25:1.3367161 27:1.3367161 30:1.3367161 32:1.3367161 33:1.3367161 35:1.3367161 37:1.3367161 38:1.3367161 39:1.3367161 41:1.3367161 #
-5.6985824329527261511429969687015 2:0.25205499 24:0.25205499 29:0.25205499 41:0.25205499 #
-9.6417913882475527742599297198467 6:0.18454701 23:0.18454701 24:0.18454701 25:0.18454701 26:0.18454701 27:0.18454701 28:0.18454701 29:0.18454701 30:0.18454701 31:0.18454701 32:0.18454701 33:0.18454701 35:0.18454701 36:0.18454701 37:0.18454701 38:0.18454701 39:0.18454701 40:0.18454701 41:0.18454701 #
-9.6417913882475527742599297198467 24:0.195491 27:0.195491 29:0.195491 33:0.195491 41:0.195491 #
-9.6417913882475527742599297198467 14:0.143354 23:0.143354 24:0.143354 25:0.143354 26:0.143354 27:0.143354 28:0.143354 29:0.143354 30:0.143354 31:0.143354 32:0.143354 33:0.143354 35:0.143354 36:0.143354 37:0.143354 38:0.143354 39:0.143354 40:0.143354 41:0.143354 #
9.6417913882475527742599297198467 18:0.175767 26:0.175767 36:0.175767 #
-9.6417913882475527742599297198467 12:0.14796899 24:0.14796899 29:0.14796899 41:0.14796899 #
-9.6417913882475527742599297198467 16:0.13671701 23:0.13671701 24:0.13671701 25:0.13671701 26:0.13671701 27:0.13671701 28:0.13671701 29:0.13671701 30:0.13671701 31:0.13671701 32:0.13671701 33:0.13671701 35:0.13671701 36:0.13671701 37:0.13671701 38:0.13671701 39:0.13671701 40:0.13671701 41:0.13671701 #
-9.6417913882475527742599297198467 23:0.113295 24:0.113295 25:0.113295 26:0.113295 27:0.113295 28:0.113295 29:0.113295 30:0.113295 31:0.113295 32:0.113295 33:0.113295 35:0.113295 36:0.113295 37:0.113295 38:0.113295 39:0.113295 40:0.113295 41:0.113295 #
9.6417913882475527742599297198467 6:0.247334 23:0.247334 24:0.247334 25:0.247334 26:0.247334 27:0.247334 28:0.247334 29:0.247334 30:0.247334 31:0.247334 32:0.247334 33:0.247334 35:0.247334 36:0.247334 37:0.247334 38:0.247334 39:0.247334 40:0.247334 41:0.247334 #
-9.6417913882475527742599297198467 33:0.192725 #
-9.6417913882475527742599297198467 29:0.075240999 35:0.075240999 36:0.075240999 37:0.075240999 40:0.075240999 #
9.6417913882475527742599297198467 11:0.16355801 29:0.16355801 32:0.16355801 37:0.16355801 #
-9.6417913882475527742599297198467 27:0.168488 32:0.168488 #
-9.6417913882475527742599297198467 29:0.097816996 32:0.097816996 37:0.097816996 #
-9.6417913882475527742599297198467 12:0.0055240002 29:0.0055240002 35:0.0055240002 36:0.0055240002 37:0.0055240002 40:0.0055240002 #
-9.6417913882475527742599297198467 2:0.13244499 23:0.13244499 24:0.13244499 25:0.13244499 26:0.13244499 27:0.13244499 28:0.13244499 29:0.13244499 30:0.13244499 31:0.13244499 32:0.13244499 33:0.13244499 35:0.13244499 36:0.13244499 37:0.13244499 38:0.13244499 39:0.13244499 40:0.13244499 41:0.13244499 #
-9.6417913882475527742599297198467 22:0.075381003 #
-9.6417913882475527742599297198467 16:0.060145002 24:0.060145002 26:0.060145002 29:0.060145002 31:0.060145002 #
-9.6417913882475527742599297198467 3:0.070818998 4:0.070818998 9:0.070818998 10:0.070818998 24:0.070818998 26:0.070818998 29:0.070818998 31:0.070818998 #
-9.6417913882475527742599297198467 3:1.156866 4:1.156866 9:1.156866 10:1.156866 27:1.156866 32:1.156866 #
-9.6417913882475527742599297198467 14:0.225619 28:0.225619 #
-9.6417913882475527742599297198467 23:0.107827 24:0.107827 25:0.107827 26:0.107827 27:0.107827 28:0.107827 29:0.107827 30:0.107827 31:0.107827 32:0.107827 33:0.107827 35:0.107827 36:0.107827 37:0.107827 38:0.107827 39:0.107827 40:0.107827 41:0.107827 #
-0.011280478293852128426899561475238 11:1.159279 #
-9.6417913882475527742599297198467 1:0.428054 #
9.6417913882475527742599297198467 11:0.077055998 #
9.6417913882475527742599297198467 1:0.130729 28:0.130729 #
-9.6417913882475527742599297198467 8:0.33178401 #
-9.6417913882475527742599297198467 32:0.25391701 #
-9.6417913882475527742599297198467 6:0.14023601 23:0.14023601 24:0.14023601 25:0.14023601 26:0.14023601 27:0.14023601 28:0.14023601 29:0.14023601 30:0.14023601 31:0.14023601 32:0.14023601 33:0.14023601 35:0.14023601 36:0.14023601 37:0.14023601 38:0.14023601 39:0.14023601 40:0.14023601 41:0.14023601 #
-9.6417913882475527742599297198467 3:0.013246 4:0.013246 9:0.013246 10:0.013246 29:0.013246 #
-9.6417913882475527742599297198467 29:0.090527996 32:0.090527996 37:0.090527996 #
-9.6417913882475527742599297198467 8:0.056915998 24:0.056915998 26:0.056915998 29:0.056915998 31:0.056915998 #
-9.6417913882475527742599297198467 7:0.049972001 23:0.049972001 26:0.049972001 28:0.049972001 33:0.049972001 34:0.049972001 #
-9.6417913882475527742599297198467 12:0.116988 23:0.116988 24:0.116988 25:0.116988 26:0.116988 27:0.116988 28:0.116988 29:0.116988 30:0.116988 31:0.116988 32:0.116988 33:0.116988 35:0.116988 36:0.116988 37:0.116988 38:0.116988 39:0.116988 40:0.116988 41:0.116988 #
-9.6417913882475527742599297198467 2:0.08241 13:0.08241 23:0.08241 26:0.08241 28:0.08241 33:0.08241 34:0.08241 #
9.6417913882475527742599297198467 15:0.064061001 #
9.6417913882475527742599297198467 12:0.078341 #
9.6417913882475527742599297198467 2:0.028641 15:0.028641 #
9.6417913882475527742599297198467 2:0.024976 13:0.024976 #
9.6417913882475527742599297198467 8:0.034373 11:0.034373 15:0.034373 #
